<?xml version="1.0"?>
<MethodSetup Method="MLP::MLP_N3_N7.pt20_eta1.37_conv1">
  <GeneralInfo>
    <Info name="TMVA Release" value="4.1.3 [262403]"/>
    <Info name="ROOT Release" value="5.34/00 [336384]"/>
    <Info name="Creator" value="rnaranjo"/>
    <Info name="Date" value="Tue Mar 26 06:24:51 2013"/>
    <Info name="Host" value="Linux lxbuild148.cern.ch 2.6.18-238.5.1.el5 #1 SMP Wed Mar 2 15:08:52 CET 2011 x86_64 x86_64 x86_64 GNU/Linux"/>
    <Info name="Dir" value="/afs/cern.ch/user/r/rnaranjo/private/secondStage/CutBasedTMVA"/>
    <Info name="Training events" value="8871"/>
    <Info name="TrainingTime" value="9.16722371e+02"/>
    <Info name="AnalysisType" value="Classification"/>
  </GeneralInfo>
  <Options>
    <Option name="NCycles" modified="Yes">2000</Option>
    <Option name="HiddenLayers" modified="Yes">N+3,N+7</Option>
    <Option name="NeuronType" modified="Yes">tanh</Option>
    <Option name="RandomSeed" modified="No">1</Option>
    <Option name="EstimatorType" modified="No">MSE</Option>
    <Option name="NeuronInputType" modified="No">sum</Option>
    <Option name="V" modified="No">False</Option>
    <Option name="VerbosityLevel" modified="No">Default</Option>
    <Option name="VarTransform" modified="Yes">N</Option>
    <Option name="H" modified="No">False</Option>
    <Option name="CreateMVAPdfs" modified="Yes">True</Option>
    <Option name="IgnoreNegWeightsInTraining" modified="No">False</Option>
    <Option name="TrainingMethod" modified="No">BP</Option>
    <Option name="LearningRate" modified="No">2.000000e-02</Option>
    <Option name="DecayRate" modified="No">1.000000e-02</Option>
    <Option name="TestRate" modified="Yes">5</Option>
    <Option name="EpochMonitoring" modified="No">False</Option>
    <Option name="Sampling" modified="No">1.000000e+00</Option>
    <Option name="SamplingEpoch" modified="No">1.000000e+00</Option>
    <Option name="SamplingImportance" modified="No">1.000000e+00</Option>
    <Option name="SamplingTraining" modified="No">True</Option>
    <Option name="SamplingTesting" modified="No">False</Option>
    <Option name="ResetStep" modified="No">50</Option>
    <Option name="Tau" modified="No">3.000000e+00</Option>
    <Option name="BPMode" modified="No">sequential</Option>
    <Option name="BatchSize" modified="No">-1</Option>
    <Option name="ConvergenceImprove" modified="No">1.000000e-30</Option>
    <Option name="ConvergenceTests" modified="No">-1</Option>
    <Option name="UseRegulator" modified="Yes">False</Option>
    <Option name="UpdateLimit" modified="No">10000</Option>
    <Option name="CalculateErrors" modified="No">False</Option>
    <Option name="WeightRange" modified="No">1.000000e+00</Option>
  </Options>
  <Variables NVar="10">
    <Variable VarIndex="0" Expression="fside" Label="fside" Title="fside" Unit="" Internal="fside" Type="D" Min="-6.19000616e-03" Max="1.48557198e+00"/>
    <Variable VarIndex="1" Expression="w1" Label="w1" Title="w1" Unit="" Internal="w1" Type="D" Min="1.93775922e-01" Max="8.11000347e-01"/>
    <Variable VarIndex="2" Expression="wtot" Label="wtot" Title="wtot" Unit="" Internal="wtot" Type="D" Min="3.35310876e-01" Max="2.00451469e+01"/>
    <Variable VarIndex="3" Expression="deltae" Label="deltae" Title="deltae" Unit="" Internal="deltae" Type="D" Min="-9.70513999e-01" Max="1.40199512e+03"/>
    <Variable VarIndex="4" Expression="eratio" Label="eratio" Title="eratio" Unit="" Internal="eratio" Type="D" Min="-2.68969522e-03" Max="1.00000000e+00"/>
    <Variable VarIndex="5" Expression="rphi" Label="rphi" Title="rphi" Unit="" Internal="rphi" Type="D" Min="2.52289385e-01" Max="1.00192595e+00"/>
    <Variable VarIndex="6" Expression="rhad" Label="rhad" Title="rhad" Unit="" Internal="rhad" Type="D" Min="-8.92775878e-02" Max="3.71100855e+00"/>
    <Variable VarIndex="7" Expression="reta" Label="reta" Title="reta" Unit="" Internal="reta" Type="D" Min="2.15163589e-01" Max="1.02627552e+00"/>
    <Variable VarIndex="8" Expression="weta2" Label="weta2" Title="weta2" Unit="" Internal="weta2" Type="D" Min="-3.97719769e-03" Max="2.09704861e-02"/>
    <Variable VarIndex="9" Expression="f1" Label="f1" Title="f1" Unit="" Internal="f1" Type="D" Min="1.87863538e-03" Max="4.02333617e-01"/>
  </Variables>
  <Spectators NSpec="3">
    <Spectator SpecIndex="0" Expression="pt" Label="pt" Title="P_{T} [GeV]" Unit="D" Internal="pt" Type="F" Min="1.50007217e+04" Max="1.99983262e+04"/>
    <Spectator SpecIndex="1" Expression="etas2" Label="etas2" Title="etas2" Unit="D" Internal="etas2" Type="F" Min="-1.36993873e+00" Max="1.36996508e+00"/>
    <Spectator SpecIndex="2" Expression="tight" Label="tight" Title="Tight" Unit="i" Internal="tight" Type="F" Min="0.00000000e+00" Max="1.00000000e+00"/>
  </Spectators>
  <Classes NClass="2">
    <Class Name="Signal" Index="0"/>
    <Class Name="Background" Index="1"/>
  </Classes>
  <Transformations NTransformations="1">
    <Transform Name="Normalize">
      <Selection>
        <Input NInputs="10">
          <Input Type="Variable" Label="fside" Expression="fside"/>
          <Input Type="Variable" Label="w1" Expression="w1"/>
          <Input Type="Variable" Label="wtot" Expression="wtot"/>
          <Input Type="Variable" Label="deltae" Expression="deltae"/>
          <Input Type="Variable" Label="eratio" Expression="eratio"/>
          <Input Type="Variable" Label="rphi" Expression="rphi"/>
          <Input Type="Variable" Label="rhad" Expression="rhad"/>
          <Input Type="Variable" Label="reta" Expression="reta"/>
          <Input Type="Variable" Label="weta2" Expression="weta2"/>
          <Input Type="Variable" Label="f1" Expression="f1"/>
        </Input>
        <Output NOutputs="10">
          <Output Type="Variable" Label="fside" Expression="fside"/>
          <Output Type="Variable" Label="w1" Expression="w1"/>
          <Output Type="Variable" Label="wtot" Expression="wtot"/>
          <Output Type="Variable" Label="deltae" Expression="deltae"/>
          <Output Type="Variable" Label="eratio" Expression="eratio"/>
          <Output Type="Variable" Label="rphi" Expression="rphi"/>
          <Output Type="Variable" Label="rhad" Expression="rhad"/>
          <Output Type="Variable" Label="reta" Expression="reta"/>
          <Output Type="Variable" Label="weta2" Expression="weta2"/>
          <Output Type="Variable" Label="f1" Expression="f1"/>
        </Output>
      </Selection>
      <Class ClassIndex="0">
        <Ranges>
          <Range Index="0" Min="8.5730776190757751e-02" Max="9.8884862661361694e-01"/>
          <Range Index="1" Min="4.8457762598991394e-01" Max="8.1100034713745117e-01"/>
          <Range Index="2" Min="1.4509835243225098e+00" Max="5.5035867691040039e+00"/>
          <Range Index="3" Min="-9.7051399946212769e-01" Max="8.2002929687500000e+02"/>
          <Range Index="4" Min="-2.6896952185779810e-03" Max="9.9648725986480713e-01"/>
          <Range Index="5" Min="4.5105707645416260e-01" Max="9.8644977807998657e-01"/>
          <Range Index="6" Min="-4.7123860567808151e-02" Max="1.0381373018026352e-01"/>
          <Range Index="7" Min="7.5602447986602783e-01" Max="1.0140522718429565e+00"/>
          <Range Index="8" Min="7.6726237311959267e-03" Max="1.5954080969095230e-02"/>
          <Range Index="9" Min="2.0433103665709496e-02" Max="3.6719867587089539e-01"/>
        </Ranges>
      </Class>
      <Class ClassIndex="1">
        <Ranges>
          <Range Index="0" Min="-6.1900061555206776e-03" Max="1.4855719804763794e+00"/>
          <Range Index="1" Min="1.9377592206001282e-01" Max="8.1076949834823608e-01"/>
          <Range Index="2" Min="3.3531087636947632e-01" Max="2.0045146942138672e+01"/>
          <Range Index="3" Min="0.0000000000000000e+00" Max="1.4019951171875000e+03"/>
          <Range Index="4" Min="4.4079683902964462e-06" Max="1.0000000000000000e+00"/>
          <Range Index="5" Min="2.5228938460350037e-01" Max="1.0019259452819824e+00"/>
          <Range Index="6" Min="-8.9277587831020355e-02" Max="3.7110085487365723e+00"/>
          <Range Index="7" Min="2.1516358852386475e-01" Max="1.0262755155563354e+00"/>
          <Range Index="8" Min="-3.9771976880729198e-03" Max="2.0970486104488373e-02"/>
          <Range Index="9" Min="1.8786353757604957e-03" Max="4.0233361721038818e-01"/>
        </Ranges>
      </Class>
      <Class ClassIndex="2">
        <Ranges>
          <Range Index="0" Min="-6.1900061555206776e-03" Max="1.4855719804763794e+00"/>
          <Range Index="1" Min="1.9377592206001282e-01" Max="8.1100034713745117e-01"/>
          <Range Index="2" Min="3.3531087636947632e-01" Max="2.0045146942138672e+01"/>
          <Range Index="3" Min="-9.7051399946212769e-01" Max="1.4019951171875000e+03"/>
          <Range Index="4" Min="-2.6896952185779810e-03" Max="1.0000000000000000e+00"/>
          <Range Index="5" Min="2.5228938460350037e-01" Max="1.0019259452819824e+00"/>
          <Range Index="6" Min="-8.9277587831020355e-02" Max="3.7110085487365723e+00"/>
          <Range Index="7" Min="2.1516358852386475e-01" Max="1.0262755155563354e+00"/>
          <Range Index="8" Min="-3.9771976880729198e-03" Max="2.0970486104488373e-02"/>
          <Range Index="9" Min="1.8786353757604957e-03" Max="4.0233361721038818e-01"/>
        </Ranges>
      </Class>
    </Transform>
  </Transformations>
  <MVAPdfs>
    <PDF Name="MLP_N3_N7.pt20_eta1.37_conv1_PDFSig" MinNSmooth="0" MaxNSmooth="0" InterpolMethod="2" KDE_type="1" KDE_iter="1" KDE_border="1" KDE_finefactor="1.0000000000000000e+00">
      <Histogram Name="MLP_tr_S_original" NBins="177" XMin="-1.6556844115257263e-01" XMax="9.2636710405349731e-01" HasEquidistantBins="1">
        0.00000000e+00 0.00000000e+00 0.00000000e+00 0.00000000e+00 0.00000000e+00 0.00000000e+00 0.00000000e+00 0.00000000e+00 0.00000000e+00 0.00000000e+00 0.00000000e+00 0.00000000e+00 0.00000000e+00 0.00000000e+00 0.00000000e+00 0.00000000e+00 0.00000000e+00 0.00000000e+00 0.00000000e+00 0.00000000e+00 0.00000000e+00 0.00000000e+00 0.00000000e+00 3.15364747e-01 0.00000000e+00 0.00000000e+00 4.73047120e-01 4.73047120e-01 1.57682373e-01 3.15364747e-01 0.00000000e+00 3.15364747e-01 1.57682373e-01 0.00000000e+00 3.15364747e-01 1.57682373e-01 1.57682373e-01 3.15364747e-01 0.00000000e+00 1.57682373e-01 0.00000000e+00 3.15364747e-01 0.00000000e+00 1.57682373e-01 6.30729493e-01 1.57682373e-01 1.57682373e-01 3.15364747e-01 1.57682373e-01 3.15364747e-01 0.00000000e+00 1.57682373e-01 0.00000000e+00 3.15364747e-01 4.73047120e-01 1.57682373e-01 4.73047120e-01 6.30729493e-01 1.57682373e-01 0.00000000e+00 6.30729493e-01 7.88411867e-01 4.73047120e-01 4.73047120e-01 6.30729493e-01 4.73047120e-01 7.88411867e-01 6.30729493e-01 4.73047120e-01 7.88411867e-01 7.88411867e-01 3.15364747e-01 3.15364747e-01 1.57682373e-01 4.73047120e-01 3.15364747e-01 6.30729493e-01 1.10377661e+00 4.73047120e-01 4.73047120e-01 7.88411867e-01 6.30729493e-01 4.73047120e-01 7.88411867e-01 1.10377661e+00 4.73047120e-01 9.46094240e-01 7.88411867e-01 4.73047120e-01 1.57682373e+00 4.73047120e-01 7.88411867e-01 6.30729493e-01 7.88411867e-01 9.46094240e-01 1.10377661e+00 7.88411867e-01 2.68060035e+00 9.46094240e-01 6.30729493e-01 1.73450611e+00 1.89218848e+00 1.57682373e+00 1.26145899e+00 2.68060035e+00 1.57682373e+00 1.10377661e+00 1.41914136e+00 1.57682373e+00 2.20755323e+00 2.68060035e+00 1.10377661e+00 1.89218848e+00 2.36523560e+00 2.04987085e+00 2.20755323e+00 2.99596509e+00 2.83828272e+00 9.46094240e-01 2.99596509e+00 1.73450611e+00 3.62669459e+00 2.83828272e+00 2.04987085e+00 2.04987085e+00 1.73450611e+00 1.41914136e+00 2.83828272e+00 3.15364747e+00 2.99596509e+00 3.46901221e+00 2.68060035e+00 4.09974171e+00 2.04987085e+00 3.15364747e+00 1.57682373e+00 3.15364747e+00 2.68060035e+00 2.52291797e+00 2.68060035e+00 2.52291797e+00 2.36523560e+00 2.36523560e+00 1.89218848e+00 2.36523560e+00 2.83828272e+00 2.20755323e+00 2.36523560e+00 1.57682373e+00 2.20755323e+00 1.57682373e+00 9.46094240e-01 1.26145899e+00 1.10377661e+00 7.88411867e-01 1.26145899e+00 4.73047120e-01 7.88411867e-01 3.15364747e-01 1.57682373e-01 6.30729493e-01 3.15364747e-01 4.73047120e-01 1.57682373e-01 1.57682373e-01 1.57682373e-01 1.57682373e-01 0.00000000e+00 0.00000000e+00 0.00000000e+00 1.57682373e-01 0.00000000e+00 0.00000000e+00 0.00000000e+00 0.00000000e+00 0.00000000e+00 0.00000000e+00 
      </Histogram>
    </PDF>
    <PDF Name="MLP_N3_N7.pt20_eta1.37_conv1_PDFBkg" MinNSmooth="0" MaxNSmooth="0" InterpolMethod="2" KDE_type="1" KDE_iter="1" KDE_border="1" KDE_finefactor="1.0000000000000000e+00">
      <Histogram Name="MLP_tr_B_original" NBins="177" XMin="-1.6556844115257263e-01" XMax="9.2636710405349731e-01" HasEquidistantBins="1">
        2.06704259e-02 0.00000000e+00 0.00000000e+00 0.00000000e+00 0.00000000e+00 0.00000000e+00 2.06704259e-02 0.00000000e+00 0.00000000e+00 0.00000000e+00 4.13408518e-02 8.26817036e-02 4.13408518e-02 6.20112777e-02 1.03352129e-01 1.03352129e-01 6.20112777e-02 2.06704259e-02 6.20112777e-02 1.03352129e-01 1.03352129e-01 2.06704259e-01 3.72067666e-01 6.40783203e-01 1.12860525e+01 2.16419359e+01 4.99604194e+01 3.28659772e+01 6.53185458e+00 2.95587090e+00 1.69497492e+00 1.59162279e+00 1.36424811e+00 1.13687342e+00 9.09498739e-01 6.61453628e-01 9.30169165e-01 6.82124054e-01 7.64805758e-01 5.16760647e-01 5.78771925e-01 4.75419795e-01 5.37431073e-01 4.13408518e-01 3.30726814e-01 3.92738092e-01 3.92738092e-01 3.72067666e-01 4.75419795e-01 4.34078944e-01 3.72067666e-01 3.10056388e-01 1.86033833e-01 4.13408518e-01 1.86033833e-01 3.92738092e-01 2.68715537e-01 1.86033833e-01 2.68715537e-01 3.10056388e-01 2.06704259e-01 1.03352129e-01 2.48045111e-01 1.65363407e-01 1.86033833e-01 1.44692981e-01 1.03352129e-01 1.65363407e-01 6.20112777e-02 1.03352129e-01 2.68715537e-01 2.27374685e-01 2.06704259e-01 3.51397240e-01 2.27374685e-01 2.68715537e-01 1.44692981e-01 3.10056388e-01 2.48045111e-01 1.86033833e-01 2.48045111e-01 2.48045111e-01 1.65363407e-01 1.65363407e-01 2.68715537e-01 1.65363407e-01 1.65363407e-01 1.03352129e-01 4.13408518e-02 0.00000000e+00 3.10056388e-01 2.68715537e-01 2.68715537e-01 2.48045111e-01 1.03352129e-01 1.44692981e-01 2.48045111e-01 1.65363407e-01 2.48045111e-01 1.65363407e-01 1.03352129e-01 2.06704259e-01 2.48045111e-01 1.44692981e-01 2.06704259e-01 2.48045111e-01 1.24022555e-01 1.03352129e-01 1.65363407e-01 1.86033833e-01 3.30726814e-01 3.10056388e-01 2.48045111e-01 3.30726814e-01 2.27374685e-01 3.10056388e-01 2.48045111e-01 2.48045111e-01 1.44692981e-01 1.86033833e-01 1.65363407e-01 2.68715537e-01 2.06704259e-01 2.27374685e-01 1.03352129e-01 1.65363407e-01 3.10056388e-01 1.24022555e-01 2.06704259e-01 1.24022555e-01 3.51397240e-01 2.06704259e-01 1.86033833e-01 1.86033833e-01 1.86033833e-01 1.03352129e-01 1.65363407e-01 6.20112777e-02 1.44692981e-01 2.48045111e-01 6.20112777e-02 1.03352129e-01 1.44692981e-01 1.86033833e-01 8.26817036e-02 8.26817036e-02 1.24022555e-01 1.03352129e-01 4.13408518e-02 1.03352129e-01 4.13408518e-02 6.20112777e-02 6.20112777e-02 1.03352129e-01 6.20112777e-02 2.06704259e-02 0.00000000e+00 2.06704259e-02 4.13408518e-02 0.00000000e+00 2.06704259e-02 2.06704259e-02 0.00000000e+00 0.00000000e+00 4.13408518e-02 0.00000000e+00 0.00000000e+00 0.00000000e+00 0.00000000e+00 0.00000000e+00 0.00000000e+00 0.00000000e+00 0.00000000e+00 0.00000000e+00 0.00000000e+00 0.00000000e+00 0.00000000e+00 
      </Histogram>
    </PDF>
  </MVAPdfs>
  <Weights>
    <Layout NLayers="4">
      <Layer Index="0" NNeurons="11">
        <Neuron NSynapses="13">
          -2.2636148936591852e-01 2.0783598605119220e+00 7.9896515815136504e-01 1.6700230174993260e+00 -2.3908637759055869e+00 -1.6902959219074993e+00 -8.8228520198578253e-01 1.9592485596284248e+00 -1.6701415701674005e+00 -9.5681019242642418e-01 -1.5448444529025456e+00 -7.6830650452304194e-01 -5.6311214450272051e-01 
        </Neuron>
        <Neuron NSynapses="13">
          -2.1045558620987004e-01 -7.9913200439946763e-01 6.8890242226568799e-01 -4.9502429524471186e-01 1.3916937935409288e+00 4.3734887210969714e-01 1.3970593813672327e+00 -3.8243303165057380e-01 1.0432427197137618e-01 9.6201231576817725e-01 3.3417014143397838e-01 -9.8550248063010448e-01 -8.0906427895718591e-01 
        </Neuron>
        <Neuron NSynapses="13">
          1.5178142924742930e+00 -8.3173348157859339e-01 -1.8480147348456428e+00 2.5363222485983089e-01 7.2073696203879101e-01 1.2878190047964915e+00 -5.1541414271696373e-01 -1.1883082518110391e-01 -2.4120455697362231e-01 -4.9169995600486405e-01 -1.0300227607596699e+00 1.5327889844995801e+00 -5.9638127153340825e-01 
        </Neuron>
        <Neuron NSynapses="13">
          1.3918709177645110e+00 1.4763234412368231e+00 1.0094318422341555e+00 1.9592011003011067e+00 9.4812911094634766e-01 -1.2201506442779531e+00 -1.7803852639334772e+00 7.9088183451258109e-01 8.0155757634276625e-01 1.0718989484411672e+00 1.6871483621098804e+00 1.7285212418071958e+00 8.3574233149601829e-01 
        </Neuron>
        <Neuron NSynapses="13">
          -1.4268238563437787e+00 1.1075004252466598e+00 -1.9654400565256096e+00 -7.4025884606631975e-01 -1.2557894070061315e+00 -1.3704137158831158e+00 1.1634733286397094e+00 7.9422479481785968e-01 -8.4115714949917286e-01 2.3481550213255425e-01 -1.2258568952443343e+00 1.4638156242594160e+00 9.4338620320520639e-01 
        </Neuron>
        <Neuron NSynapses="13">
          -6.3800039464712255e-01 -8.2197498869031271e-02 -9.1958431131140395e-01 6.3769465383363888e-01 1.6239667762062832e-01 -4.2163953007817495e-01 -1.1185495860102839e+00 6.8828045630537893e-01 2.1517179586229393e-03 1.3440621408009767e+00 6.1431023876112212e-02 -9.0389130784895566e-01 -2.4345764830107280e-01 
        </Neuron>
        <Neuron NSynapses="13">
          1.1456437181491745e+00 8.0549549641570228e-01 1.8493074852350704e+00 8.1375588651974207e-01 -4.4811461159350746e-01 -1.0262511047080949e+00 -1.3452819301766288e+00 -1.2264301328016433e-01 3.0981540522899760e+00 -1.3532709234445823e+00 -2.2048178899011956e+00 -9.7924096077589484e-01 -1.5290668390910911e+00 
        </Neuron>
        <Neuron NSynapses="13">
          -1.3046940272552182e-01 1.3788422940448768e+00 -1.5749138415157478e+00 -7.6047391765011951e-01 2.2876773723402972e+00 -4.5679451243512370e-01 -1.2041571135248375e+00 -1.3837463451296212e+00 -6.1502110344161598e-01 -1.7179150466017339e+00 -2.0228465899803512e+00 1.7297398780830828e-01 2.5837538784982486e+00 
        </Neuron>
        <Neuron NSynapses="13">
          -1.1193457758353327e+00 1.5548016983285051e+00 -8.5755691395188205e-01 -7.2432717644984379e-01 3.4520675652662064e-01 3.7752575008338868e-01 -1.6651246165877047e+00 3.1591598286357114e-01 5.2195330928241968e-01 5.8309220486479607e-01 -5.2532023827253893e-01 1.9863874516473581e+00 4.9545236286274491e-01 
        </Neuron>
        <Neuron NSynapses="13">
          -6.7734837031737960e-01 6.6111696931975183e-01 -9.6573376932250299e-01 -1.5523472307212902e+00 5.9581697213433471e-01 -3.1834026459645587e-01 1.6433493890093873e+00 7.8305622344231218e-01 1.9589889616312814e-01 -2.7946116759143003e-01 -1.4430781046154106e-01 -1.5162721952638709e+00 2.9953224252227234e-01 
        </Neuron>
        <Neuron NSynapses="13">
          -1.4625438842267935e-01 -2.1878511563177359e+00 6.6010397263083209e-01 -1.6390349329547962e+00 -7.8676323871220999e-01 1.6750467381472955e+00 2.2147468264899324e+00 -1.9827633244349465e+00 3.4755317688696290e+00 2.0572118719127972e+00 9.9952148498370885e-01 8.8274974200555834e-01 -3.3857492452063345e+00 
        </Neuron>
      </Layer>
      <Layer Index="1" NNeurons="14">
        <Neuron NSynapses="17">
          -3.9074523669004779e-01 -9.5087315906024739e-01 1.7099080585888180e+00 1.4948816255397830e+00 -4.5184739828722970e-01 -2.4268751252584786e-01 -8.3611119382861143e-02 -1.1795256175935696e+00 3.4997459299767669e-01 1.4102082402292568e+00 -6.3801967503134005e-01 -4.7417272163949803e-01 -7.5951668116755730e-02 1.3371891167519059e+00 5.4465264326151686e-01 5.6192923226850156e-01 -1.2757100179866132e+00 
        </Neuron>
        <Neuron NSynapses="17">
          1.3194944029439901e+00 1.1230959510751339e+00 6.9632148033203578e-01 8.4679074635167895e-01 1.0575567595382123e+00 -3.9431234519721475e-01 -7.3128141770719912e-01 1.2168004903704535e+00 -1.1864664898020834e+00 -8.9401349796997265e-01 1.5119326031416607e+00 1.0956545663297559e+00 -6.5045926839638235e-01 1.8567836480180093e+00 1.9883755949176833e+00 -2.2566765011388781e+00 8.8992020794471505e-01 
        </Neuron>
        <Neuron NSynapses="17">
          -8.9118772750436087e-02 7.6590110019243918e-01 -1.5001487573579915e+00 -1.3734684769489891e+00 1.2096600606080585e+00 1.6846664239431073e+00 -1.6323694867072061e+00 -2.2016023496342149e-01 -7.0863336662697940e-01 6.5307007132429720e-02 1.8476095311424976e+00 -2.5689461194128249e-01 -7.5839086903355379e-01 -6.6376866534519252e-01 8.7620542539309254e-01 1.3981529831261472e+00 1.0753848433094189e+00 
        </Neuron>
        <Neuron NSynapses="17">
          9.9179556669647395e-02 -3.8575265143781201e-01 -1.7818887028089236e+00 1.3742768852713603e+00 5.2028329804423745e-01 -1.1986528567034704e+00 -9.0248759640799447e-01 4.8556975667487812e-01 -1.5457650120659314e-01 -2.3003574593571972e+00 1.4593252040943698e+00 9.4589899810008415e-01 -9.3989894239695748e-01 2.6981395937786423e-01 1.6736060423103407e+00 7.3541755246903540e-01 7.1401482658607329e-01 
        </Neuron>
        <Neuron NSynapses="17">
          -4.1267349360197804e-02 -1.5515866671993370e+00 -7.7078926687127181e-01 1.7727108400104579e+00 1.2434482454372482e+00 5.7978884635348316e-01 2.1510218210595478e-01 1.9032205686452570e+00 -1.4926263537162898e+00 -1.0109224049824179e+00 -8.3563251678703321e-02 -1.3314241996421556e+00 6.7137004532024969e-01 1.8427988905346808e+00 -1.1042550221039811e+00 1.0576966377108481e+00 -5.7193733376992066e-02 
        </Neuron>
        <Neuron NSynapses="17">
          -1.4950441518147808e+00 -1.2868832560124317e+00 8.1307142893236095e-01 -1.1304049495662079e-01 9.6079441377720320e-01 -1.3664638049797508e+00 1.7990268258463851e+00 -1.9306322314397950e+00 1.1264306440988483e+00 4.0778988967781976e-01 -1.4278358934481254e+00 -1.3568140213267699e+00 -1.5515013607425798e+00 -6.2363158039897493e-01 -2.0282442354805239e+00 -1.2678170243473041e+00 -2.1717926438895909e+00 
        </Neuron>
        <Neuron NSynapses="17">
          2.5285087238551091e-01 -1.3850208021672554e+00 -1.7110327974130386e+00 1.1417099207201500e+00 -8.9736615395642694e-01 -3.4049619665262681e-02 -9.5628733336243943e-01 4.5235053373518595e-02 2.1368196701008992e+00 1.6039195490610134e+00 -8.1160780632951912e-01 -1.4668981090054649e+00 -6.9917877131097339e-01 -1.1515501710633378e+00 -1.7642083462309510e+00 6.4865427106277973e-01 5.7870111744871833e-02 
        </Neuron>
        <Neuron NSynapses="17">
          1.6838685448210089e+00 7.9269444608191408e-02 4.4562034899908187e-01 -2.7953293283588782e-01 -1.8737312462531663e+00 1.4419765937899374e+00 1.0512133280312772e+00 -6.6877140427128356e-01 -1.3313482954614151e+00 5.3303714013028258e-01 1.1437074732769832e+00 5.6051711031762785e-01 -8.1525199788039204e-01 1.0240324949698355e-01 1.5516705429236453e+00 6.9826422424965029e-01 1.2040795427086131e+00 
        </Neuron>
        <Neuron NSynapses="17">
          -2.3979936584872380e-01 1.0628827062771566e-01 -3.4717217521578109e-01 -3.0582554019991450e+00 -5.5007545640930888e-01 -1.7480934774565993e+00 -1.2552322281374224e+00 -1.8667489805509894e+00 1.6127223911535471e+00 -1.4563037839223889e+00 1.7508934425161351e+00 -1.5508859235679608e+00 1.0133521758326887e+00 -8.8123659382175956e-01 3.4261417683430312e-01 1.0301476856198415e+00 -1.6923322205877289e+00 
        </Neuron>
        <Neuron NSynapses="17">
          4.3111844363136609e-01 2.1421691593957420e-01 -2.1254671144590036e+00 -1.7238702775469379e+00 -1.7347795771276149e+00 -9.7256008489151502e-01 1.9393480699185051e+00 -6.7336626488063689e-01 4.9232238314308424e-01 -5.6309321384784483e-01 -1.1518468791799450e+00 -1.8159792082693105e+00 -6.1884169545089318e-01 -1.8090440207962697e+00 8.5609149379020644e-01 -1.0590028031043606e+00 -1.4171365585465543e+00 
        </Neuron>
        <Neuron NSynapses="17">
          1.9217936889594562e+00 -6.1412810065860898e-02 -6.1686990122087149e-01 1.9090286114246355e+00 -1.8454739698346321e+00 1.2045802083471453e+00 8.1120768665962328e-01 -1.1519092747964896e+00 -5.2881995054522568e-01 3.5445592275196641e-01 -1.2574911967347200e+00 4.2065575282615886e-01 2.2086043843810330e+00 9.2874893208588083e-01 1.4818428015840648e+00 -1.0874427477878768e+00 8.4145674184598152e-01 
        </Neuron>
        <Neuron NSynapses="17">
          -1.8260631330924935e+00 6.7652691369547557e-01 -1.6218807091637231e+00 -5.7508551165714694e-01 -8.4282819100119172e-02 1.0285635330730520e+00 2.8330780490666024e-01 7.0965033313179937e-01 5.8448903573216338e-01 2.2899097314271505e-02 -8.1255335726841449e-01 2.2229530518876186e-02 1.7636899995038908e+00 -1.1085198660627302e+00 4.9944863501398024e-01 -1.6006058521590196e+00 -2.9550605818519632e-01 
        </Neuron>
        <Neuron NSynapses="17">
          -1.4952455950683616e-01 3.8985078436418891e-01 -9.1682750509672040e-01 1.5751152593998388e+00 1.6090245481199847e+00 7.8835483337847745e-01 -2.8514553970827816e-01 -5.2027165843657930e-01 -1.2018798933291763e+00 -1.8371692589495670e+00 9.6996198840809089e-01 -4.2678571245374763e-01 -1.3304476108439287e+00 5.9551083398462257e-01 -1.5686398913620081e+00 -1.4108099357167243e+00 -1.3596534488966945e+00 
        </Neuron>
        <Neuron NSynapses="17">
          1.2149423545721267e+00 -1.7585327638301460e+00 -1.9407511001188151e+00 -8.5933860111524429e-01 -1.0101126346805569e+00 -1.8093454854995326e+00 1.3525650050968636e+00 -1.5987318266998309e+00 -9.6335990110869618e-01 2.0613292024472574e+00 6.4275731946309778e-01 1.7895209801806233e-01 4.7258812536560324e-01 9.6761326510733292e-01 1.5736743529601573e+00 7.9763756554244192e-01 -1.1694929669276797e+00 
        </Neuron>
      </Layer>
      <Layer Index="2" NNeurons="18">
        <Neuron NSynapses="1">
          -4.3030221656399376e-03 
        </Neuron>
        <Neuron NSynapses="1">
          -1.1637234348212200e+00 
        </Neuron>
        <Neuron NSynapses="1">
          3.9330723307907317e-01 
        </Neuron>
        <Neuron NSynapses="1">
          5.3179024823933163e-01 
        </Neuron>
        <Neuron NSynapses="1">
          4.9196026545988800e-02 
        </Neuron>
        <Neuron NSynapses="1">
          6.6979025909718914e-01 
        </Neuron>
        <Neuron NSynapses="1">
          3.3159737905545289e-01 
        </Neuron>
        <Neuron NSynapses="1">
          1.5855282340489834e+00 
        </Neuron>
        <Neuron NSynapses="1">
          -1.2146180130841173e+00 
        </Neuron>
        <Neuron NSynapses="1">
          1.5656756372850904e+00 
        </Neuron>
        <Neuron NSynapses="1">
          8.4165206617576938e-01 
        </Neuron>
        <Neuron NSynapses="1">
          -1.8623742858412988e+00 
        </Neuron>
        <Neuron NSynapses="1">
          7.4571092585224166e-02 
        </Neuron>
        <Neuron NSynapses="1">
          -4.8883462038989689e-02 
        </Neuron>
        <Neuron NSynapses="1">
          5.9339336696665324e-01 
        </Neuron>
        <Neuron NSynapses="1">
          1.0020783862473910e-02 
        </Neuron>
        <Neuron NSynapses="1">
          9.3169364664533938e-01 
        </Neuron>
        <Neuron NSynapses="1">
          1.7582077030211516e+00 
        </Neuron>
      </Layer>
      <Layer Index="3" NNeurons="1">
        <Neuron NSynapses="0"/>
      </Layer>
    </Layout>
  </Weights>
</MethodSetup>
