<?xml version="1.0"?>
<MethodSetup Method="MLP::MLP_N3_N7.pt15_eta0.80_conv0">
  <GeneralInfo>
    <Info name="TMVA Release" value="4.1.3 [262403]"/>
    <Info name="ROOT Release" value="5.34/00 [336384]"/>
    <Info name="Creator" value="rnaranjo"/>
    <Info name="Date" value="Tue Mar 26 06:58:03 2013"/>
    <Info name="Host" value="Linux lxbuild148.cern.ch 2.6.18-238.5.1.el5 #1 SMP Wed Mar 2 15:08:52 CET 2011 x86_64 x86_64 x86_64 GNU/Linux"/>
    <Info name="Dir" value="/afs/cern.ch/user/r/rnaranjo/private/secondStage/CutBasedTMVA"/>
    <Info name="Training events" value="24575"/>
    <Info name="TrainingTime" value="2.08515996e+03"/>
    <Info name="AnalysisType" value="Classification"/>
  </GeneralInfo>
  <Options>
    <Option name="NCycles" modified="Yes">2000</Option>
    <Option name="HiddenLayers" modified="Yes">N+3,N+7</Option>
    <Option name="NeuronType" modified="Yes">tanh</Option>
    <Option name="RandomSeed" modified="No">1</Option>
    <Option name="EstimatorType" modified="No">MSE</Option>
    <Option name="NeuronInputType" modified="No">sum</Option>
    <Option name="V" modified="No">False</Option>
    <Option name="VerbosityLevel" modified="No">Default</Option>
    <Option name="VarTransform" modified="Yes">N</Option>
    <Option name="H" modified="No">False</Option>
    <Option name="CreateMVAPdfs" modified="Yes">True</Option>
    <Option name="IgnoreNegWeightsInTraining" modified="No">False</Option>
    <Option name="TrainingMethod" modified="No">BP</Option>
    <Option name="LearningRate" modified="No">2.000000e-02</Option>
    <Option name="DecayRate" modified="No">1.000000e-02</Option>
    <Option name="TestRate" modified="Yes">5</Option>
    <Option name="EpochMonitoring" modified="No">False</Option>
    <Option name="Sampling" modified="No">1.000000e+00</Option>
    <Option name="SamplingEpoch" modified="No">1.000000e+00</Option>
    <Option name="SamplingImportance" modified="No">1.000000e+00</Option>
    <Option name="SamplingTraining" modified="No">True</Option>
    <Option name="SamplingTesting" modified="No">False</Option>
    <Option name="ResetStep" modified="No">50</Option>
    <Option name="Tau" modified="No">3.000000e+00</Option>
    <Option name="BPMode" modified="No">sequential</Option>
    <Option name="BatchSize" modified="No">-1</Option>
    <Option name="ConvergenceImprove" modified="No">1.000000e-30</Option>
    <Option name="ConvergenceTests" modified="No">-1</Option>
    <Option name="UseRegulator" modified="Yes">False</Option>
    <Option name="UpdateLimit" modified="No">10000</Option>
    <Option name="CalculateErrors" modified="No">False</Option>
    <Option name="WeightRange" modified="No">1.000000e+00</Option>
  </Options>
  <Variables NVar="10">
    <Variable VarIndex="0" Expression="fside" Label="fside" Title="fside" Unit="" Internal="fside" Type="D" Min="-3.61545980e-01" Max="1.62866175e+00"/>
    <Variable VarIndex="1" Expression="w1" Label="w1" Title="w1" Unit="" Internal="w1" Type="D" Min="-8.31629783e-02" Max="8.14978898e-01"/>
    <Variable VarIndex="2" Expression="wtot" Label="wtot" Title="wtot" Unit="" Internal="wtot" Type="D" Min="9.81713533e-02" Max="2.63629913e+01"/>
    <Variable VarIndex="3" Expression="deltae" Label="deltae" Title="deltae" Unit="" Internal="deltae" Type="D" Min="-1.01686001e+00" Max="1.46599072e+03"/>
    <Variable VarIndex="4" Expression="eratio" Label="eratio" Title="eratio" Unit="" Internal="eratio" Type="D" Min="-2.16730870e-03" Max="1.00000000e+00"/>
    <Variable VarIndex="5" Expression="rphi" Label="rphi" Title="rphi" Unit="" Internal="rphi" Type="D" Min="1.97377145e-01" Max="1.07375157e+00"/>
    <Variable VarIndex="6" Expression="rhad" Label="rhad" Title="rhad" Unit="" Internal="rhad" Type="D" Min="-6.24456942e-01" Max="4.18927622e+00"/>
    <Variable VarIndex="7" Expression="reta" Label="reta" Title="reta" Unit="" Internal="reta" Type="D" Min="2.43905649e-01" Max="1.19380772e+00"/>
    <Variable VarIndex="8" Expression="weta2" Label="weta2" Title="weta2" Unit="" Internal="weta2" Type="D" Min="-5.22474060e-04" Max="2.08465103e-02"/>
    <Variable VarIndex="9" Expression="f1" Label="f1" Title="f1" Unit="" Internal="f1" Type="D" Min="-3.04171303e-03" Max="6.33309245e-01"/>
  </Variables>
  <Spectators NSpec="3">
    <Spectator SpecIndex="0" Expression="pt" Label="pt" Title="P_{T} [GeV]" Unit="D" Internal="pt" Type="F" Min="1.00000322e+04" Max="1.49993418e+04"/>
    <Spectator SpecIndex="1" Expression="etas2" Label="etas2" Title="etas2" Unit="D" Internal="etas2" Type="F" Min="-7.99988568e-01" Max="7.99998581e-01"/>
    <Spectator SpecIndex="2" Expression="tight" Label="tight" Title="Tight" Unit="i" Internal="tight" Type="F" Min="0.00000000e+00" Max="1.00000000e+00"/>
  </Spectators>
  <Classes NClass="2">
    <Class Name="Signal" Index="0"/>
    <Class Name="Background" Index="1"/>
  </Classes>
  <Transformations NTransformations="1">
    <Transform Name="Normalize">
      <Selection>
        <Input NInputs="10">
          <Input Type="Variable" Label="fside" Expression="fside"/>
          <Input Type="Variable" Label="w1" Expression="w1"/>
          <Input Type="Variable" Label="wtot" Expression="wtot"/>
          <Input Type="Variable" Label="deltae" Expression="deltae"/>
          <Input Type="Variable" Label="eratio" Expression="eratio"/>
          <Input Type="Variable" Label="rphi" Expression="rphi"/>
          <Input Type="Variable" Label="rhad" Expression="rhad"/>
          <Input Type="Variable" Label="reta" Expression="reta"/>
          <Input Type="Variable" Label="weta2" Expression="weta2"/>
          <Input Type="Variable" Label="f1" Expression="f1"/>
        </Input>
        <Output NOutputs="10">
          <Output Type="Variable" Label="fside" Expression="fside"/>
          <Output Type="Variable" Label="w1" Expression="w1"/>
          <Output Type="Variable" Label="wtot" Expression="wtot"/>
          <Output Type="Variable" Label="deltae" Expression="deltae"/>
          <Output Type="Variable" Label="eratio" Expression="eratio"/>
          <Output Type="Variable" Label="rphi" Expression="rphi"/>
          <Output Type="Variable" Label="rhad" Expression="rhad"/>
          <Output Type="Variable" Label="reta" Expression="reta"/>
          <Output Type="Variable" Label="weta2" Expression="weta2"/>
          <Output Type="Variable" Label="f1" Expression="f1"/>
        </Output>
      </Selection>
      <Class ClassIndex="0">
        <Ranges>
          <Range Index="0" Min="-1.5428590774536133e-01" Max="8.9446759223937988e-01"/>
          <Range Index="1" Min="1.8849964439868927e-01" Max="8.0105239152908325e-01"/>
          <Range Index="2" Min="3.2206910848617554e-01" Max="9.3745479583740234e+00"/>
          <Range Index="3" Min="-1.0168600082397461e+00" Max="9.9692785644531250e+02"/>
          <Range Index="4" Min="-2.1673087030649185e-03" Max="9.9773234128952026e-01"/>
          <Range Index="5" Min="5.1027429103851318e-01" Max="1.0657112598419189e+00"/>
          <Range Index="6" Min="-5.8113496750593185e-02" Max="1.1887543648481369e-01"/>
          <Range Index="7" Min="7.2784650325775146e-01" Max="1.1882979869842529e+00"/>
          <Range Index="8" Min="6.1757164075970650e-03" Max="2.0252628251910210e-02"/>
          <Range Index="9" Min="-3.0417130328714848e-03" Max="5.9346753358840942e-01"/>
        </Ranges>
      </Class>
      <Class ClassIndex="1">
        <Ranges>
          <Range Index="0" Min="-3.6154597997665405e-01" Max="1.6286617517471313e+00"/>
          <Range Index="1" Min="-8.3162978291511536e-02" Max="8.1497889757156372e-01"/>
          <Range Index="2" Min="9.8171353340148926e-02" Max="2.6362991333007812e+01"/>
          <Range Index="3" Min="0.0000000000000000e+00" Max="1.4659907226562500e+03"/>
          <Range Index="4" Min="0.0000000000000000e+00" Max="1.0000000000000000e+00"/>
          <Range Index="5" Min="1.9737714529037476e-01" Max="1.0737515687942505e+00"/>
          <Range Index="6" Min="-6.2445694208145142e-01" Max="4.1892762184143066e+00"/>
          <Range Index="7" Min="2.4390564858913422e-01" Max="1.1938077211380005e+00"/>
          <Range Index="8" Min="-5.2247405983507633e-04" Max="2.0846510306000710e-02"/>
          <Range Index="9" Min="-2.6309143286198378e-03" Max="6.3330924510955811e-01"/>
        </Ranges>
      </Class>
      <Class ClassIndex="2">
        <Ranges>
          <Range Index="0" Min="-3.6154597997665405e-01" Max="1.6286617517471313e+00"/>
          <Range Index="1" Min="-8.3162978291511536e-02" Max="8.1497889757156372e-01"/>
          <Range Index="2" Min="9.8171353340148926e-02" Max="2.6362991333007812e+01"/>
          <Range Index="3" Min="-1.0168600082397461e+00" Max="1.4659907226562500e+03"/>
          <Range Index="4" Min="-2.1673087030649185e-03" Max="1.0000000000000000e+00"/>
          <Range Index="5" Min="1.9737714529037476e-01" Max="1.0737515687942505e+00"/>
          <Range Index="6" Min="-6.2445694208145142e-01" Max="4.1892762184143066e+00"/>
          <Range Index="7" Min="2.4390564858913422e-01" Max="1.1938077211380005e+00"/>
          <Range Index="8" Min="-5.2247405983507633e-04" Max="2.0846510306000710e-02"/>
          <Range Index="9" Min="-3.0417130328714848e-03" Max="6.3330924510955811e-01"/>
        </Ranges>
      </Class>
    </Transform>
  </Transformations>
  <MVAPdfs>
    <PDF Name="MLP_N3_N7.pt15_eta0.80_conv0_PDFSig" MinNSmooth="0" MaxNSmooth="0" InterpolMethod="2" KDE_type="1" KDE_iter="1" KDE_border="1" KDE_finefactor="1.0000000000000000e+00">
      <Histogram Name="MLP_tr_S_original" NBins="491" XMin="-1.6243889927864075e-01" XMax="1.0720304250717163e+00" HasEquidistantBins="1">
        0.00000000e+00 0.00000000e+00 0.00000000e+00 0.00000000e+00 0.00000000e+00 0.00000000e+00 0.00000000e+00 0.00000000e+00 0.00000000e+00 0.00000000e+00 0.00000000e+00 0.00000000e+00 0.00000000e+00 0.00000000e+00 0.00000000e+00 0.00000000e+00 0.00000000e+00 0.00000000e+00 0.00000000e+00 0.00000000e+00 0.00000000e+00 0.00000000e+00 0.00000000e+00 0.00000000e+00 0.00000000e+00 0.00000000e+00 0.00000000e+00 0.00000000e+00 0.00000000e+00 0.00000000e+00 0.00000000e+00 0.00000000e+00 0.00000000e+00 0.00000000e+00 0.00000000e+00 0.00000000e+00 0.00000000e+00 0.00000000e+00 0.00000000e+00 0.00000000e+00 0.00000000e+00 0.00000000e+00 0.00000000e+00 0.00000000e+00 0.00000000e+00 0.00000000e+00 0.00000000e+00 0.00000000e+00 0.00000000e+00 0.00000000e+00 0.00000000e+00 0.00000000e+00 0.00000000e+00 0.00000000e+00 0.00000000e+00 0.00000000e+00 0.00000000e+00 0.00000000e+00 3.00977494e-01 0.00000000e+00 1.50488747e-01 0.00000000e+00 1.50488747e-01 1.50488747e-01 3.00977494e-01 1.20390998e+00 6.01954988e-01 3.00977494e-01 3.00977494e-01 1.50488747e-01 4.51466241e-01 3.00977494e-01 4.51466241e-01 0.00000000e+00 1.50488747e-01 1.50488747e-01 3.00977494e-01 3.00977494e-01 7.52443736e-01 4.51466241e-01 0.00000000e+00 1.50488747e-01 6.01954988e-01 1.50488747e-01 4.51466241e-01 6.01954988e-01 4.51466241e-01 1.50488747e-01 4.51466241e-01 3.00977494e-01 6.01954988e-01 3.00977494e-01 7.52443736e-01 6.01954988e-01 6.01954988e-01 4.51466241e-01 4.51466241e-01 7.52443736e-01 3.00977494e-01 3.00977494e-01 7.52443736e-01 1.50488747e-01 7.52443736e-01 7.52443736e-01 4.51466241e-01 1.50488747e-01 7.52443736e-01 4.51466241e-01 1.50488747e-01 7.52443736e-01 4.51466241e-01 6.01954988e-01 0.00000000e+00 4.51466241e-01 4.51466241e-01 1.50488747e-01 4.51466241e-01 0.00000000e+00 3.00977494e-01 6.01954988e-01 7.52443736e-01 3.00977494e-01 6.01954988e-01 3.00977494e-01 0.00000000e+00 1.50488747e-01 6.01954988e-01 0.00000000e+00 1.05342123e+00 4.51466241e-01 9.02932483e-01 7.52443736e-01 4.51466241e-01 1.05342123e+00 6.01954988e-01 4.51466241e-01 7.52443736e-01 3.00977494e-01 4.51466241e-01 9.02932483e-01 3.00977494e-01 4.51466241e-01 4.51466241e-01 1.05342123e+00 1.50488747e+00 4.51466241e-01 4.51466241e-01 7.52443736e-01 4.51466241e-01 4.51466241e-01 6.01954988e-01 1.05342123e+00 4.51466241e-01 7.52443736e-01 4.51466241e-01 7.52443736e-01 1.35439872e+00 1.50488747e+00 3.00977494e-01 3.00977494e-01 3.00977494e-01 6.01954988e-01 4.51466241e-01 9.02932483e-01 7.52443736e-01 6.01954988e-01 9.02932483e-01 1.50488747e+00 7.52443736e-01 7.52443736e-01 9.02932483e-01 1.35439872e+00 1.50488747e-01 3.00977494e-01 1.05342123e+00 7.52443736e-01 1.20390998e+00 9.02932483e-01 7.52443736e-01 4.51466241e-01 9.02932483e-01 9.02932483e-01 6.01954988e-01 1.20390998e+00 9.02932483e-01 9.02932483e-01 2.10684246e+00 1.20390998e+00 4.51466241e-01 1.05342123e+00 1.20390998e+00 1.05342123e+00 1.35439872e+00 7.52443736e-01 1.65537622e+00 1.35439872e+00 7.52443736e-01 4.51466241e-01 1.05342123e+00 1.20390998e+00 1.35439872e+00 1.35439872e+00 1.35439872e+00 1.20390998e+00 1.65537622e+00 7.52443736e-01 1.20390998e+00 6.01954988e-01 2.25733121e+00 7.52443736e-01 1.20390998e+00 1.05342123e+00 1.65537622e+00 9.02932483e-01 1.50488747e+00 2.10684246e+00 1.35439872e+00 1.35439872e+00 1.50488747e+00 1.50488747e+00 1.80586497e+00 2.25733121e+00 1.80586497e+00 1.65537622e+00 7.52443736e-01 1.65537622e+00 2.10684246e+00 1.35439872e+00 2.40781995e+00 1.65537622e+00 1.50488747e+00 1.20390998e+00 9.02932483e-01 2.10684246e+00 1.65537622e+00 2.10684246e+00 1.65537622e+00 1.95635371e+00 2.25733121e+00 2.10684246e+00 1.35439872e+00 2.25733121e+00 1.95635371e+00 1.65537622e+00 2.40781995e+00 2.40781995e+00 2.25733121e+00 2.10684246e+00 2.70879745e+00 3.16026369e+00 1.50488747e+00 2.40781995e+00 2.25733121e+00 2.55830870e+00 2.25733121e+00 1.65537622e+00 2.70879745e+00 3.00977494e+00 2.55830870e+00 2.55830870e+00 2.85928619e+00 1.80586497e+00 2.55830870e+00 2.10684246e+00 2.40781995e+00 2.40781995e+00 3.31075244e+00 3.76221868e+00 2.25733121e+00 2.55830870e+00 2.55830870e+00 2.85928619e+00 3.61172993e+00 3.00977494e+00 1.65537622e+00 2.70879745e+00 1.80586497e+00 3.00977494e+00 2.55830870e+00 2.25733121e+00 3.31075244e+00 2.85928619e+00 2.40781995e+00 2.55830870e+00 3.16026369e+00 3.31075244e+00 2.70879745e+00 3.61172993e+00 2.10684246e+00 2.40781995e+00 2.25733121e+00 2.55830870e+00 2.70879745e+00 1.95635371e+00 3.00977494e+00 3.61172993e+00 3.31075244e+00 1.95635371e+00 2.55830870e+00 3.16026369e+00 3.46124118e+00 3.00977494e+00 3.16026369e+00 2.40781995e+00 3.91270742e+00 2.55830870e+00 2.55830870e+00 2.40781995e+00 2.40781995e+00 1.95635371e+00 2.40781995e+00 1.95635371e+00 2.40781995e+00 3.16026369e+00 2.25733121e+00 1.65537622e+00 2.10684246e+00 1.80586497e+00 2.85928619e+00 2.25733121e+00 1.80586497e+00 1.50488747e+00 1.50488747e+00 1.35439872e+00 1.95635371e+00 2.55830870e+00 6.01954988e-01 1.80586497e+00 1.20390998e+00 6.01954988e-01 1.95635371e+00 1.20390998e+00 1.80586497e+00 1.20390998e+00 1.35439872e+00 1.05342123e+00 4.51466241e-01 1.95635371e+00 4.51466241e-01 6.01954988e-01 1.35439872e+00 1.05342123e+00 9.02932483e-01 9.02932483e-01 1.05342123e+00 1.20390998e+00 4.51466241e-01 9.02932483e-01 7.52443736e-01 6.01954988e-01 7.52443736e-01 4.51466241e-01 9.02932483e-01 6.01954988e-01 1.50488747e-01 4.51466241e-01 9.02932483e-01 6.01954988e-01 6.01954988e-01 3.00977494e-01 4.51466241e-01 4.51466241e-01 7.52443736e-01 1.50488747e-01 1.50488747e-01 1.50488747e-01 1.50488747e-01 0.00000000e+00 1.50488747e-01 3.00977494e-01 3.00977494e-01 1.50488747e-01 1.50488747e-01 0.00000000e+00 3.00977494e-01 0.00000000e+00 3.00977494e-01 0.00000000e+00 0.00000000e+00 0.00000000e+00 3.00977494e-01 1.50488747e-01 0.00000000e+00 1.50488747e-01 0.00000000e+00 0.00000000e+00 0.00000000e+00 0.00000000e+00 0.00000000e+00 0.00000000e+00 0.00000000e+00 0.00000000e+00 0.00000000e+00 0.00000000e+00 0.00000000e+00 0.00000000e+00 0.00000000e+00 0.00000000e+00 0.00000000e+00 0.00000000e+00 0.00000000e+00 0.00000000e+00 1.50488747e-01 0.00000000e+00 0.00000000e+00 0.00000000e+00 0.00000000e+00 1.50488747e-01 1.50488747e-01 0.00000000e+00 0.00000000e+00 0.00000000e+00 0.00000000e+00 0.00000000e+00 0.00000000e+00 0.00000000e+00 0.00000000e+00 0.00000000e+00 0.00000000e+00 0.00000000e+00 0.00000000e+00 0.00000000e+00 0.00000000e+00 0.00000000e+00 0.00000000e+00 0.00000000e+00 0.00000000e+00 0.00000000e+00 0.00000000e+00 0.00000000e+00 0.00000000e+00 0.00000000e+00 0.00000000e+00 0.00000000e+00 0.00000000e+00 0.00000000e+00 0.00000000e+00 1.50488747e-01 0.00000000e+00 0.00000000e+00 0.00000000e+00 0.00000000e+00 0.00000000e+00 1.50488747e-01 0.00000000e+00 0.00000000e+00 0.00000000e+00 0.00000000e+00 0.00000000e+00 0.00000000e+00 0.00000000e+00 0.00000000e+00 0.00000000e+00 0.00000000e+00 0.00000000e+00 0.00000000e+00 0.00000000e+00 0.00000000e+00 0.00000000e+00 0.00000000e+00 0.00000000e+00 0.00000000e+00 0.00000000e+00 0.00000000e+00 0.00000000e+00 0.00000000e+00 0.00000000e+00 0.00000000e+00 0.00000000e+00 0.00000000e+00 0.00000000e+00 0.00000000e+00 0.00000000e+00 0.00000000e+00 0.00000000e+00 0.00000000e+00 0.00000000e+00 0.00000000e+00 0.00000000e+00 0.00000000e+00 0.00000000e+00 0.00000000e+00 0.00000000e+00 0.00000000e+00 0.00000000e+00 0.00000000e+00 0.00000000e+00 0.00000000e+00 0.00000000e+00 0.00000000e+00 0.00000000e+00 
      </Histogram>
    </PDF>
    <PDF Name="MLP_N3_N7.pt15_eta0.80_conv0_PDFBkg" MinNSmooth="0" MaxNSmooth="0" InterpolMethod="2" KDE_type="1" KDE_iter="1" KDE_border="1" KDE_finefactor="1.0000000000000000e+00">
      <Histogram Name="MLP_tr_B_original" NBins="491" XMin="-1.6243889927864075e-01" XMax="1.0720304250717163e+00" HasEquidistantBins="1">
        1.81360521e-02 0.00000000e+00 0.00000000e+00 0.00000000e+00 0.00000000e+00 0.00000000e+00 0.00000000e+00 0.00000000e+00 0.00000000e+00 0.00000000e+00 0.00000000e+00 0.00000000e+00 0.00000000e+00 0.00000000e+00 0.00000000e+00 1.81360521e-02 0.00000000e+00 0.00000000e+00 1.81360521e-02 0.00000000e+00 1.81360521e-02 1.81360521e-02 0.00000000e+00 1.81360521e-02 0.00000000e+00 0.00000000e+00 0.00000000e+00 0.00000000e+00 0.00000000e+00 0.00000000e+00 1.81360521e-02 0.00000000e+00 0.00000000e+00 1.81360521e-02 3.62721042e-02 9.06802605e-02 3.62721042e-02 0.00000000e+00 1.81360521e-02 9.06802605e-02 3.62721042e-02 5.44081563e-02 5.44081563e-02 0.00000000e+00 5.44081563e-02 5.44081563e-02 1.81360521e-01 1.26952365e-01 1.45088417e-01 1.26952365e-01 2.35768677e-01 1.63224469e-01 3.62721042e-01 2.90176834e-01 4.71537355e-01 5.98489719e-01 5.25945511e-01 9.61210761e-01 1.94055757e+00 4.53401302e+00 7.92545477e+00 1.39647601e+01 2.32141467e+01 3.64171926e+01 7.50107115e+01 7.48293510e+01 2.24705686e+01 1.09360394e+01 7.00051611e+00 4.09874777e+00 3.46398595e+00 2.64786361e+00 2.72040781e+00 2.30327862e+00 1.84987731e+00 1.79546916e+00 2.06750994e+00 1.66851679e+00 1.26952365e+00 1.54156443e+00 1.25138759e+00 1.28765970e+00 1.08816313e+00 1.30579575e+00 1.21511549e+00 9.06802605e-01 7.79850240e-01 1.03375497e+00 9.61210761e-01 1.08816313e+00 7.61714188e-01 8.52394449e-01 7.61714188e-01 7.61714188e-01 7.25442084e-01 8.16122344e-01 6.16625771e-01 6.71033928e-01 8.52394449e-01 7.25442084e-01 6.89169980e-01 5.98489719e-01 6.52897876e-01 4.89673407e-01 5.98489719e-01 6.16625771e-01 4.35265250e-01 4.89673407e-01 5.44081563e-01 3.62721042e-01 4.53401302e-01 5.44081563e-01 3.98993146e-01 5.62217615e-01 5.80353667e-01 5.44081563e-01 5.25945511e-01 5.07809459e-01 4.17129198e-01 5.07809459e-01 5.80353667e-01 3.44584990e-01 4.53401302e-01 4.71537355e-01 5.07809459e-01 5.80353667e-01 3.26448938e-01 2.90176834e-01 3.98993146e-01 4.71537355e-01 4.17129198e-01 4.17129198e-01 2.90176834e-01 3.26448938e-01 3.80857094e-01 2.90176834e-01 2.90176834e-01 3.62721042e-01 3.44584990e-01 4.35265250e-01 3.26448938e-01 2.72040781e-01 3.26448938e-01 4.35265250e-01 5.44081563e-01 2.72040781e-01 3.26448938e-01 3.08312886e-01 3.26448938e-01 2.72040781e-01 2.90176834e-01 3.08312886e-01 3.08312886e-01 3.26448938e-01 2.90176834e-01 3.26448938e-01 3.80857094e-01 2.53904729e-01 2.72040781e-01 4.53401302e-01 2.90176834e-01 3.26448938e-01 3.08312886e-01 3.26448938e-01 3.08312886e-01 2.17632625e-01 3.26448938e-01 2.53904729e-01 2.35768677e-01 3.62721042e-01 3.08312886e-01 4.35265250e-01 2.72040781e-01 3.80857094e-01 1.26952365e-01 3.80857094e-01 2.90176834e-01 2.53904729e-01 3.44584990e-01 3.80857094e-01 2.53904729e-01 3.44584990e-01 4.17129198e-01 2.35768677e-01 2.72040781e-01 4.17129198e-01 2.17632625e-01 2.72040781e-01 3.08312886e-01 3.44584990e-01 2.35768677e-01 2.72040781e-01 2.72040781e-01 3.26448938e-01 2.72040781e-01 2.90176834e-01 3.08312886e-01 3.98993146e-01 2.35768677e-01 2.90176834e-01 3.08312886e-01 2.17632625e-01 2.17632625e-01 2.90176834e-01 2.17632625e-01 3.26448938e-01 3.08312886e-01 2.35768677e-01 2.17632625e-01 3.26448938e-01 2.17632625e-01 2.72040781e-01 3.26448938e-01 4.17129198e-01 2.17632625e-01 2.17632625e-01 2.53904729e-01 1.81360521e-01 1.99496573e-01 3.62721042e-01 2.72040781e-01 3.80857094e-01 2.53904729e-01 1.99496573e-01 3.98993146e-01 2.35768677e-01 2.53904729e-01 2.53904729e-01 2.72040781e-01 2.35768677e-01 2.53904729e-01 3.80857094e-01 2.35768677e-01 2.72040781e-01 4.53401302e-01 1.45088417e-01 3.80857094e-01 3.26448938e-01 3.44584990e-01 2.53904729e-01 2.17632625e-01 1.81360521e-01 2.72040781e-01 2.17632625e-01 2.72040781e-01 2.35768677e-01 2.53904729e-01 2.17632625e-01 3.08312886e-01 2.17632625e-01 2.35768677e-01 3.26448938e-01 3.08312886e-01 2.72040781e-01 3.98993146e-01 2.90176834e-01 2.90176834e-01 3.62721042e-01 2.35768677e-01 3.26448938e-01 2.90176834e-01 2.53904729e-01 3.26448938e-01 3.26448938e-01 2.72040781e-01 2.53904729e-01 2.53904729e-01 3.08312886e-01 2.90176834e-01 2.72040781e-01 1.81360521e-01 2.72040781e-01 3.26448938e-01 3.26448938e-01 1.63224469e-01 3.08312886e-01 1.45088417e-01 2.35768677e-01 3.62721042e-01 2.53904729e-01 2.90176834e-01 3.80857094e-01 3.26448938e-01 2.17632625e-01 1.99496573e-01 1.99496573e-01 2.35768677e-01 4.35265250e-01 3.08312886e-01 2.72040781e-01 1.99496573e-01 2.72040781e-01 2.17632625e-01 1.63224469e-01 1.45088417e-01 2.72040781e-01 3.08312886e-01 2.72040781e-01 7.25442084e-02 2.17632625e-01 3.44584990e-01 1.26952365e-01 1.45088417e-01 1.08816313e-01 2.35768677e-01 2.17632625e-01 9.06802605e-02 2.90176834e-01 1.99496573e-01 1.99496573e-01 9.06802605e-02 1.99496573e-01 1.26952365e-01 1.99496573e-01 9.06802605e-02 2.17632625e-01 1.81360521e-01 9.06802605e-02 9.06802605e-02 1.26952365e-01 1.63224469e-01 1.26952365e-01 1.08816313e-01 1.45088417e-01 1.99496573e-01 1.45088417e-01 1.63224469e-01 1.63224469e-01 3.62721042e-02 5.44081563e-02 5.44081563e-02 3.62721042e-02 1.45088417e-01 9.06802605e-02 5.44081563e-02 1.26952365e-01 7.25442084e-02 1.08816313e-01 7.25442084e-02 7.25442084e-02 1.81360521e-02 0.00000000e+00 5.44081563e-02 7.25442084e-02 1.81360521e-02 7.25442084e-02 3.62721042e-02 1.81360521e-02 3.62721042e-02 7.25442084e-02 7.25442084e-02 0.00000000e+00 0.00000000e+00 0.00000000e+00 0.00000000e+00 1.81360521e-02 1.81360521e-02 3.62721042e-02 3.62721042e-02 3.62721042e-02 1.81360521e-02 3.62721042e-02 3.62721042e-02 3.62721042e-02 0.00000000e+00 3.62721042e-02 0.00000000e+00 0.00000000e+00 5.44081563e-02 3.62721042e-02 0.00000000e+00 1.81360521e-02 0.00000000e+00 0.00000000e+00 0.00000000e+00 0.00000000e+00 0.00000000e+00 0.00000000e+00 0.00000000e+00 0.00000000e+00 1.81360521e-02 0.00000000e+00 0.00000000e+00 1.81360521e-02 3.62721042e-02 0.00000000e+00 0.00000000e+00 0.00000000e+00 0.00000000e+00 0.00000000e+00 0.00000000e+00 0.00000000e+00 0.00000000e+00 0.00000000e+00 0.00000000e+00 0.00000000e+00 0.00000000e+00 0.00000000e+00 0.00000000e+00 0.00000000e+00 0.00000000e+00 0.00000000e+00 0.00000000e+00 0.00000000e+00 0.00000000e+00 0.00000000e+00 0.00000000e+00 1.81360521e-02 0.00000000e+00 0.00000000e+00 0.00000000e+00 1.81360521e-02 0.00000000e+00 0.00000000e+00 0.00000000e+00 0.00000000e+00 0.00000000e+00 0.00000000e+00 0.00000000e+00 0.00000000e+00 0.00000000e+00 0.00000000e+00 0.00000000e+00 0.00000000e+00 0.00000000e+00 0.00000000e+00 0.00000000e+00 0.00000000e+00 0.00000000e+00 0.00000000e+00 0.00000000e+00 0.00000000e+00 0.00000000e+00 0.00000000e+00 0.00000000e+00 0.00000000e+00 0.00000000e+00 0.00000000e+00 0.00000000e+00 0.00000000e+00 0.00000000e+00 0.00000000e+00 0.00000000e+00 0.00000000e+00 0.00000000e+00 0.00000000e+00 0.00000000e+00 0.00000000e+00 0.00000000e+00 0.00000000e+00 0.00000000e+00 0.00000000e+00 0.00000000e+00 0.00000000e+00 0.00000000e+00 0.00000000e+00 0.00000000e+00 0.00000000e+00 0.00000000e+00 0.00000000e+00 0.00000000e+00 0.00000000e+00 0.00000000e+00 0.00000000e+00 0.00000000e+00 0.00000000e+00 0.00000000e+00 0.00000000e+00 0.00000000e+00 0.00000000e+00 0.00000000e+00 0.00000000e+00 0.00000000e+00 0.00000000e+00 0.00000000e+00 0.00000000e+00 0.00000000e+00 0.00000000e+00 0.00000000e+00 0.00000000e+00 0.00000000e+00 0.00000000e+00 0.00000000e+00 0.00000000e+00 0.00000000e+00 0.00000000e+00 0.00000000e+00 0.00000000e+00 0.00000000e+00 0.00000000e+00 0.00000000e+00 
      </Histogram>
    </PDF>
  </MVAPdfs>
  <Weights>
    <Layout NLayers="4">
      <Layer Index="0" NNeurons="11">
        <Neuron NSynapses="13">
          -3.3332768974495836e-01 1.1067738412670145e+00 2.3165469628402316e-01 1.6455107680869563e+00 -2.8024797265562857e+00 5.2610912777737912e-02 -9.0586707074136608e-01 1.9449241827234363e+00 -2.1223032121930956e+00 -9.4224512622241641e-01 -3.0814594380381757e+00 -1.8093942093646670e-01 -9.1824754443965140e-01 
        </Neuron>
        <Neuron NSynapses="13">
          -4.8920158560283084e-01 -9.8193823887517417e-01 1.4698246859720063e-01 -4.4777270465342850e-01 1.0281276772790990e+00 8.7811465237336939e-01 1.3813565818531637e+00 -4.2222098789999957e-01 -6.5603421396206474e-01 9.6966366064001253e-01 -3.5434018125301503e-02 -1.2305168084003897e+00 -5.7289000304008397e-01 
        </Neuron>
        <Neuron NSynapses="13">
          1.5870535529705194e+00 -8.9841531240439687e-01 -1.6711705314968046e+00 2.3091114011364486e-01 8.2170569552834216e-01 -2.6471384426379796e-01 -6.2089274746722123e-01 -1.7039020496317104e-02 -4.3647483866153941e-01 -6.3539830563211763e-01 -8.5392083214016490e-01 1.9394045533463755e+00 -8.7994327562934549e-01 
        </Neuron>
        <Neuron NSynapses="13">
          1.2032729270777276e+00 9.7757397469563756e-01 7.4757312116726937e-01 1.9717378547723521e+00 1.0232246229082573e+00 3.2398528397923948e-01 -1.8544922020448511e+00 9.1313847071671794e-01 1.3527038490384713e-01 1.0433029362316331e+00 7.2101421535720478e-01 1.7891350754427795e+00 1.5291140092062359e+00 
        </Neuron>
        <Neuron NSynapses="13">
          -1.4215013646717820e+00 1.7368873236474542e+00 -1.2321819221586694e+00 -7.2812859583592371e-01 -1.2070989402202739e+00 -4.5097871586719140e-01 1.0650638816024067e+00 6.4409052309485648e-01 -1.3517146670048474e+00 3.0368259023064414e-01 -1.3135189005411136e+00 5.3394061735936371e-01 1.6267200769881880e+00 
        </Neuron>
        <Neuron NSynapses="13">
          -5.1013147498753431e-01 1.4818161441824798e-01 -7.6845002295505982e-01 6.3735565546622097e-01 6.3377518049472514e-01 -1.6755317696628436e+00 -9.8437904591795411e-01 6.3942452054873267e-01 2.3837646583626820e-01 1.3541525215568566e+00 -4.3443892514654842e-01 -2.1144801278672207e+00 -1.9491380811537118e+00 
        </Neuron>
        <Neuron NSynapses="13">
          1.1429836735887982e+00 3.7848910572207622e-01 1.7200839036600295e+00 7.5987525935428413e-01 -1.5657320649619694e-01 3.0939807020892536e+00 -1.3088666857929681e+00 -1.0225282573616709e-01 3.8222961626900971e+00 -1.2924513092126513e+00 -3.2194416749813057e+00 -1.4693955385013269e+00 9.7224298691077349e-02 
        </Neuron>
        <Neuron NSynapses="13">
          -1.4795400086947369e-01 1.1428601158118084e+00 -1.4711639805228711e+00 -8.4349901693455576e-01 2.0076264156009640e+00 -3.5181375980674630e+00 -1.2435537186662819e+00 -1.4574100887470824e+00 -6.5871186708714735e-01 -1.7635847789742705e+00 -2.7497071445956212e+00 5.9904249128857023e-01 1.5826170287757282e+00 
        </Neuron>
        <Neuron NSynapses="13">
          -1.1746581349066247e+00 1.8202882769818094e+00 -8.7792896842009382e-01 -8.2244324453457318e-01 5.6049836758220517e-01 -2.9304722103226244e-01 -1.6129857619040062e+00 2.4808973921954328e-01 5.8788548343107365e-02 4.9116269068664936e-01 -1.0809740053700621e+00 1.8336723506830803e+00 2.8329410085440347e-03 
        </Neuron>
        <Neuron NSynapses="13">
          -8.4836823092711500e-01 1.5915707656461295e+00 -2.1487435239074815e+00 -1.4937848409712811e+00 1.9551399749182397e-01 -4.1458465823035551e-01 1.5735949461735923e+00 8.1912601976022048e-01 3.6466768077594108e-01 -4.5629408509500791e-01 2.3783541665678176e-01 -1.4753013950441591e+00 4.0375060904555404e-01 
        </Neuron>
        <Neuron NSynapses="13">
          -1.1257352279037124e-01 -2.4562239016279976e+00 6.6061049697531327e-01 -1.6572754819782309e+00 -2.2305377846072932e-02 4.5143231824290853e+00 2.4405711001733623e+00 -2.1001965775458822e+00 3.0347657392504841e+00 2.0795928250832105e+00 -2.1359757534054680e-01 -1.2950436834319859e-01 -1.8514338869322737e+00 
        </Neuron>
      </Layer>
      <Layer Index="1" NNeurons="14">
        <Neuron NSynapses="17">
          1.3762093497888583e-01 -1.4150170554668318e+00 1.7768064222505937e+00 1.5544478001474880e+00 -4.8991806169291863e-01 -3.2654576713733480e-01 -7.5937921133209643e-02 -7.5421457559005645e-01 3.0718380305465687e-01 1.4990330247735615e+00 -4.9991020576715894e-01 -4.5210240513866384e-01 2.8864113712749334e-01 1.1964371907847104e+00 4.0129778215880563e-01 7.7008050853384213e-01 -1.1987169054510651e+00 
        </Neuron>
        <Neuron NSynapses="17">
          1.8130956137204255e+00 7.9204873007727639e-01 7.6176856612900512e-01 8.0046604553533907e-01 1.0068210606360199e+00 -4.7462864247160014e-01 -8.2679873362025758e-01 1.5290823850825006e+00 -1.1643160188914199e+00 -7.2481588957973175e-01 1.6576036475120632e+00 1.2760909206242415e+00 -2.7219577675710122e-01 1.7896851956136313e+00 1.8817355527317672e+00 -2.0524734058976337e+00 7.4212684909761362e-01 
        </Neuron>
        <Neuron NSynapses="17">
          4.7913425417212174e-01 3.7152111732248588e-01 -1.4491208768940873e+00 -1.6027615853397092e+00 1.1427820774866435e+00 1.5760103222753767e+00 -1.4503454271888072e+00 3.1862606978957353e-01 -7.6843273056696104e-01 -4.1407890823674451e-02 1.6949044613149038e+00 -2.2253511172374674e-01 -2.5202724556539907e-01 -7.4596675750489716e-01 1.1035292890031931e+00 1.3919543915017454e+00 1.1093172945071874e+00 
        </Neuron>
        <Neuron NSynapses="17">
          6.1971051681656220e-01 -7.6695446141328416e-01 -1.7082870636830383e+00 1.4112926910513441e+00 4.6192351862294900e-01 -1.2427652231503237e+00 -9.3815872428021052e-01 9.0633013762651138e-01 -2.0045869638073135e-01 -2.2191095005572921e+00 1.5581319890439360e+00 9.5953380494398610e-01 -5.5799361772810385e-01 1.6128063679246823e-01 1.5566256270382435e+00 9.4776969442111303e-01 7.9051394785434048e-01 
        </Neuron>
        <Neuron NSynapses="17">
          -7.4010035047661640e-02 -1.8803301245438104e+00 -6.9352462680640059e-01 6.9074680261873522e-01 1.3477608435526620e+00 4.7108018634754234e-01 -4.4823196556838855e-02 1.9941511755416617e+00 -1.5458737127984195e+00 -9.9900265548242206e-01 -3.6795195344697149e-02 -1.6276180490174106e+00 7.0963789772919472e-01 2.4021666834618025e+00 -3.7764187738815047e-01 4.2832645916651996e-01 2.4040202945256689e-01 
        </Neuron>
        <Neuron NSynapses="17">
          -1.7023221238253143e+00 -9.4738916444214161e-01 7.5161450027253407e-01 -9.6462031438628415e-01 1.0114214219114228e+00 -1.4167413750380389e+00 1.8634317106658995e+00 -1.4785322198189343e+00 6.6935258789340690e-01 2.0317758266579639e-01 -1.5796950413916873e+00 -1.1034014084434087e+00 -1.3960826639487403e+00 -1.2187906601260545e+00 -2.4228411328916559e+00 -1.2237996300375926e+00 -3.0187544584429267e+00 
        </Neuron>
        <Neuron NSynapses="17">
          -2.5752007158859125e-01 -1.0681215476639341e+00 -1.8142656675557012e+00 1.0903934840478546e+00 -8.2518267097513998e-01 9.8051893920579440e-03 -7.9561765801743256e-01 -3.8323688507114945e-01 2.1802541151222270e+00 1.6149609098970019e+00 -8.3771181239178738e-01 -1.6108758394354925e+00 -1.0800742427568990e+00 -1.1202097742806270e+00 -1.4771267491739957e+00 4.4671236019987237e-01 -1.3868834891789765e-02 
        </Neuron>
        <Neuron NSynapses="17">
          2.1933022679387149e+00 -2.7716642476201414e-01 5.1563652317228925e-01 -2.3151153439403482e-01 -1.9220838305621317e+00 1.3978683799772906e+00 9.7629938868239707e-01 -2.5388779086364288e-01 -1.3729991107387225e+00 6.8197108149928753e-01 1.3016275604545351e+00 6.2377032095010898e-01 -4.3196790357613540e-01 -1.8762462918302057e-03 1.4275908178801366e+00 9.0371011847454796e-01 1.2209419051596437e+00 
        </Neuron>
        <Neuron NSynapses="17">
          -4.5051725970716278e-01 -2.1167866426925042e-01 -1.4238614552821011e-01 -2.7541820667853156e+00 -5.5052461802667885e-01 -1.5946068638893263e+00 -1.2448875604505401e+00 -1.0141328606338949e+00 1.4797265843338927e+00 -1.6530957709162946e+00 1.5912856571665970e+00 -1.5972781027443741e+00 1.1999819890138232e+00 -1.2999810718000626e+00 2.1284286765088922e-02 8.5064868029351381e-01 -2.0579187186158161e+00 
        </Neuron>
        <Neuron NSynapses="17">
          -7.3688457939811533e-02 5.9299381983058408e-01 -2.2299949750752557e+00 -1.6715029707724693e+00 -1.7108221947714497e+00 -9.2201623441772529e-01 2.0731546088464849e+00 -1.1004234178578096e+00 5.3010474308581601e-01 -6.9842484536277538e-01 -1.2461962416394761e+00 -1.8499935763042898e+00 -1.0328467033374424e+00 -1.7471078962805506e+00 1.0006192191884373e+00 -1.2107872860592876e+00 -1.4515488896137279e+00 
        </Neuron>
        <Neuron NSynapses="17">
          1.7626395235343515e+00 2.7275840985223854e-01 -7.0530536289397672e-01 1.6529399150392845e+00 -1.7776815998237865e+00 1.3781001143855551e+00 8.6970178591515945e-01 -1.3641907749853885e+00 -6.4770150417205374e-01 2.2829643735623870e-01 -1.1150385036008148e+00 6.7620017387593245e-01 1.8817367091823052e+00 7.1674987214358454e-01 1.9131404389481652e+00 -1.2619713164406317e+00 1.6747492445066694e+00 
        </Neuron>
        <Neuron NSynapses="17">
          -1.5764545188100696e+00 4.1961337192496068e-01 -1.5097078555471890e+00 -1.5724549829743351e+00 -5.2752358118003703e-02 1.0472392440333331e+00 1.6118917937076774e-01 1.5818789852474471e+00 2.3832111724394384e-02 -3.1337642857841297e-01 -6.6571262361262651e-01 2.5776881075844821e-01 1.9611722871282204e+00 -1.2806398474977110e+00 9.7985058616128842e-02 -1.5484485260162406e+00 -1.1378256973633298e-01 
        </Neuron>
        <Neuron NSynapses="17">
          3.1793554740268054e-01 7.8001721528436790e-02 -8.7509785065205570e-01 1.3522835550426631e+00 1.6673912882246096e+00 5.5826542316120664e-01 -3.7369547151361893e-01 -3.8010430574881693e-01 -1.5135104604352958e+00 -1.8636435127090942e+00 1.1329088271925019e+00 -5.1151036115624327e-01 -1.1582145371693775e+00 6.6517772286149324e-01 -1.6043981114198327e+00 -1.2517218355461868e+00 -1.3602046535483008e+00 
        </Neuron>
        <Neuron NSynapses="17">
          6.9427301604364855e-01 -1.3609897336641250e+00 -2.0233689134388024e+00 -8.9410087690463969e-01 -9.6219574367144001e-01 -1.7660890306892614e+00 1.4426130188849853e+00 -2.0186162264308130e+00 -9.1649260110388997e-01 1.9164955602126370e+00 4.8197187398679670e-01 1.4849371109770701e-01 8.5387323104845508e-02 1.0739884762330403e+00 1.6947332163666518e+00 5.9826357395497598e-01 -1.2447813964993504e+00 
        </Neuron>
      </Layer>
      <Layer Index="2" NNeurons="18">
        <Neuron NSynapses="1">
          6.4648869822219901e-02 
        </Neuron>
        <Neuron NSynapses="1">
          -6.9232287481264011e-03 
        </Neuron>
        <Neuron NSynapses="1">
          7.4571500021880133e-01 
        </Neuron>
        <Neuron NSynapses="1">
          3.0792330560079612e-01 
        </Neuron>
        <Neuron NSynapses="1">
          3.6382819464772072e-02 
        </Neuron>
        <Neuron NSynapses="1">
          3.6664328500887755e-01 
        </Neuron>
        <Neuron NSynapses="1">
          4.9262909689006301e-01 
        </Neuron>
        <Neuron NSynapses="1">
          1.5695681147202465e+00 
        </Neuron>
        <Neuron NSynapses="1">
          -1.2065206285843662e+00 
        </Neuron>
        <Neuron NSynapses="1">
          1.5252569745217535e+00 
        </Neuron>
        <Neuron NSynapses="1">
          7.9656805238049355e-01 
        </Neuron>
        <Neuron NSynapses="1">
          -1.6795619271894806e+00 
        </Neuron>
        <Neuron NSynapses="1">
          6.9058900910972344e-03 
        </Neuron>
        <Neuron NSynapses="1">
          -1.9819502288207380e-01 
        </Neuron>
        <Neuron NSynapses="1">
          6.9949024467049925e-02 
        </Neuron>
        <Neuron NSynapses="1">
          -2.8242836700641538e-03 
        </Neuron>
        <Neuron NSynapses="1">
          4.0206347111562257e-01 
        </Neuron>
        <Neuron NSynapses="1">
          1.6639193992216239e+00 
        </Neuron>
      </Layer>
      <Layer Index="3" NNeurons="1">
        <Neuron NSynapses="0"/>
      </Layer>
    </Layout>
  </Weights>
</MethodSetup>
