<?xml version="1.0"?>
<MethodSetup Method="MLP::MLP_N3_N7.pt15_eta1.15_conv0">
  <GeneralInfo>
    <Info name="TMVA Release" value="4.1.3 [262403]"/>
    <Info name="ROOT Release" value="5.34/00 [336384]"/>
    <Info name="Creator" value="rnaranjo"/>
    <Info name="Date" value="Tue Mar 26 07:02:07 2013"/>
    <Info name="Host" value="Linux lxbuild148.cern.ch 2.6.18-238.5.1.el5 #1 SMP Wed Mar 2 15:08:52 CET 2011 x86_64 x86_64 x86_64 GNU/Linux"/>
    <Info name="Dir" value="/afs/cern.ch/user/r/rnaranjo/private/secondStage/CutBasedTMVA"/>
    <Info name="Training events" value="33512"/>
    <Info name="TrainingTime" value="2.51551179e+03"/>
    <Info name="AnalysisType" value="Classification"/>
  </GeneralInfo>
  <Options>
    <Option name="NCycles" modified="Yes">2000</Option>
    <Option name="HiddenLayers" modified="Yes">N+3,N+7</Option>
    <Option name="NeuronType" modified="Yes">tanh</Option>
    <Option name="RandomSeed" modified="No">1</Option>
    <Option name="EstimatorType" modified="No">MSE</Option>
    <Option name="NeuronInputType" modified="No">sum</Option>
    <Option name="V" modified="No">False</Option>
    <Option name="VerbosityLevel" modified="No">Default</Option>
    <Option name="VarTransform" modified="Yes">N</Option>
    <Option name="H" modified="No">False</Option>
    <Option name="CreateMVAPdfs" modified="Yes">True</Option>
    <Option name="IgnoreNegWeightsInTraining" modified="No">False</Option>
    <Option name="TrainingMethod" modified="No">BP</Option>
    <Option name="LearningRate" modified="No">2.000000e-02</Option>
    <Option name="DecayRate" modified="No">1.000000e-02</Option>
    <Option name="TestRate" modified="Yes">5</Option>
    <Option name="EpochMonitoring" modified="No">False</Option>
    <Option name="Sampling" modified="No">1.000000e+00</Option>
    <Option name="SamplingEpoch" modified="No">1.000000e+00</Option>
    <Option name="SamplingImportance" modified="No">1.000000e+00</Option>
    <Option name="SamplingTraining" modified="No">True</Option>
    <Option name="SamplingTesting" modified="No">False</Option>
    <Option name="ResetStep" modified="No">50</Option>
    <Option name="Tau" modified="No">3.000000e+00</Option>
    <Option name="BPMode" modified="No">sequential</Option>
    <Option name="BatchSize" modified="No">-1</Option>
    <Option name="ConvergenceImprove" modified="No">1.000000e-30</Option>
    <Option name="ConvergenceTests" modified="No">-1</Option>
    <Option name="UseRegulator" modified="Yes">False</Option>
    <Option name="UpdateLimit" modified="No">10000</Option>
    <Option name="CalculateErrors" modified="No">False</Option>
    <Option name="WeightRange" modified="No">1.000000e+00</Option>
  </Options>
  <Variables NVar="10">
    <Variable VarIndex="0" Expression="fside" Label="fside" Title="fside" Unit="" Internal="fside" Type="D" Min="-2.48128891e-01" Max="1.73253441e+00"/>
    <Variable VarIndex="1" Expression="w1" Label="w1" Title="w1" Unit="" Internal="w1" Type="D" Min="-9.54228267e-03" Max="8.22975874e-01"/>
    <Variable VarIndex="2" Expression="wtot" Label="wtot" Title="wtot" Unit="" Internal="wtot" Type="D" Min="3.63000222e-02" Max="2.71007404e+01"/>
    <Variable VarIndex="3" Expression="deltae" Label="deltae" Title="deltae" Unit="" Internal="deltae" Type="D" Min="-3.84861994e+00" Max="1.17899426e+03"/>
    <Variable VarIndex="4" Expression="eratio" Label="eratio" Title="eratio" Unit="" Internal="eratio" Type="D" Min="-1.24367548e-03" Max="1.00000000e+00"/>
    <Variable VarIndex="5" Expression="rphi" Label="rphi" Title="rphi" Unit="" Internal="rphi" Type="D" Min="1.49202809e-01" Max="1.08997309e+00"/>
    <Variable VarIndex="6" Expression="rhad" Label="rhad" Title="rhad" Unit="" Internal="rhad" Type="D" Min="-9.01766360e-01" Max="6.44604254e+00"/>
    <Variable VarIndex="7" Expression="reta" Label="reta" Title="reta" Unit="" Internal="reta" Type="D" Min="1.86537713e-01" Max="1.21963084e+00"/>
    <Variable VarIndex="8" Expression="weta2" Label="weta2" Title="weta2" Unit="" Internal="weta2" Type="D" Min="5.18040638e-03" Max="2.05705911e-02"/>
    <Variable VarIndex="9" Expression="f1" Label="f1" Title="f1" Unit="" Internal="f1" Type="D" Min="-1.69373385e-03" Max="5.36424756e-01"/>
  </Variables>
  <Spectators NSpec="3">
    <Spectator SpecIndex="0" Expression="pt" Label="pt" Title="P_{T} [GeV]" Unit="D" Internal="pt" Type="F" Min="1.00000146e+04" Max="1.49997764e+04"/>
    <Spectator SpecIndex="1" Expression="etas2" Label="etas2" Title="etas2" Unit="D" Internal="etas2" Type="F" Min="-1.14997220e+00" Max="1.14999831e+00"/>
    <Spectator SpecIndex="2" Expression="tight" Label="tight" Title="Tight" Unit="i" Internal="tight" Type="F" Min="0.00000000e+00" Max="1.00000000e+00"/>
  </Spectators>
  <Classes NClass="2">
    <Class Name="Signal" Index="0"/>
    <Class Name="Background" Index="1"/>
  </Classes>
  <Transformations NTransformations="1">
    <Transform Name="Normalize">
      <Selection>
        <Input NInputs="10">
          <Input Type="Variable" Label="fside" Expression="fside"/>
          <Input Type="Variable" Label="w1" Expression="w1"/>
          <Input Type="Variable" Label="wtot" Expression="wtot"/>
          <Input Type="Variable" Label="deltae" Expression="deltae"/>
          <Input Type="Variable" Label="eratio" Expression="eratio"/>
          <Input Type="Variable" Label="rphi" Expression="rphi"/>
          <Input Type="Variable" Label="rhad" Expression="rhad"/>
          <Input Type="Variable" Label="reta" Expression="reta"/>
          <Input Type="Variable" Label="weta2" Expression="weta2"/>
          <Input Type="Variable" Label="f1" Expression="f1"/>
        </Input>
        <Output NOutputs="10">
          <Output Type="Variable" Label="fside" Expression="fside"/>
          <Output Type="Variable" Label="w1" Expression="w1"/>
          <Output Type="Variable" Label="wtot" Expression="wtot"/>
          <Output Type="Variable" Label="deltae" Expression="deltae"/>
          <Output Type="Variable" Label="eratio" Expression="eratio"/>
          <Output Type="Variable" Label="rphi" Expression="rphi"/>
          <Output Type="Variable" Label="rhad" Expression="rhad"/>
          <Output Type="Variable" Label="reta" Expression="reta"/>
          <Output Type="Variable" Label="weta2" Expression="weta2"/>
          <Output Type="Variable" Label="f1" Expression="f1"/>
        </Output>
      </Selection>
      <Class ClassIndex="0">
        <Ranges>
          <Range Index="0" Min="-2.8167258948087692e-02" Max="1.1541109085083008e+00"/>
          <Range Index="1" Min="-4.4562481343746185e-03" Max="8.2297587394714355e-01"/>
          <Range Index="2" Min="2.2674097120761871e-01" Max="1.6037105560302734e+01"/>
          <Range Index="3" Min="-3.8486199378967285e+00" Max="1.1501811523437500e+03"/>
          <Range Index="4" Min="-1.2436754768714309e-03" Max="9.9868130683898926e-01"/>
          <Range Index="5" Min="5.2840864658355713e-01" Max="1.0202468633651733e+00"/>
          <Range Index="6" Min="-2.6343485713005066e-01" Max="2.2906598448753357e-01"/>
          <Range Index="7" Min="6.9088155031204224e-01" Max="1.1200104951858521e+00"/>
          <Range Index="8" Min="7.1553704328835011e-03" Max="1.5944223850965500e-02"/>
          <Range Index="9" Min="-1.6551663866266608e-03" Max="4.4080838561058044e-01"/>
        </Ranges>
      </Class>
      <Class ClassIndex="1">
        <Ranges>
          <Range Index="0" Min="-2.4812889099121094e-01" Max="1.7325344085693359e+00"/>
          <Range Index="1" Min="-9.5422826707363129e-03" Max="8.1083172559738159e-01"/>
          <Range Index="2" Min="3.6300022155046463e-02" Max="2.7100740432739258e+01"/>
          <Range Index="3" Min="0.0000000000000000e+00" Max="1.1789942626953125e+03"/>
          <Range Index="4" Min="0.0000000000000000e+00" Max="1.0000000000000000e+00"/>
          <Range Index="5" Min="1.4920280873775482e-01" Max="1.0899730920791626e+00"/>
          <Range Index="6" Min="-9.0176635980606079e-01" Max="6.4460425376892090e+00"/>
          <Range Index="7" Min="1.8653771281242371e-01" Max="1.2196308374404907e+00"/>
          <Range Index="8" Min="5.1804063841700554e-03" Max="2.0570591092109680e-02"/>
          <Range Index="9" Min="-1.6937338514253497e-03" Max="5.3642475605010986e-01"/>
        </Ranges>
      </Class>
      <Class ClassIndex="2">
        <Ranges>
          <Range Index="0" Min="-2.4812889099121094e-01" Max="1.7325344085693359e+00"/>
          <Range Index="1" Min="-9.5422826707363129e-03" Max="8.2297587394714355e-01"/>
          <Range Index="2" Min="3.6300022155046463e-02" Max="2.7100740432739258e+01"/>
          <Range Index="3" Min="-3.8486199378967285e+00" Max="1.1789942626953125e+03"/>
          <Range Index="4" Min="-1.2436754768714309e-03" Max="1.0000000000000000e+00"/>
          <Range Index="5" Min="1.4920280873775482e-01" Max="1.0899730920791626e+00"/>
          <Range Index="6" Min="-9.0176635980606079e-01" Max="6.4460425376892090e+00"/>
          <Range Index="7" Min="1.8653771281242371e-01" Max="1.2196308374404907e+00"/>
          <Range Index="8" Min="5.1804063841700554e-03" Max="2.0570591092109680e-02"/>
          <Range Index="9" Min="-1.6937338514253497e-03" Max="5.3642475605010986e-01"/>
        </Ranges>
      </Class>
    </Transform>
  </Transformations>
  <MVAPdfs>
    <PDF Name="MLP_N3_N7.pt15_eta1.15_conv0_PDFSig" MinNSmooth="0" MaxNSmooth="0" InterpolMethod="2" KDE_type="1" KDE_iter="1" KDE_border="1" KDE_finefactor="1.0000000000000000e+00">
      <Histogram Name="MLP_tr_S_original" NBins="670" XMin="-7.2788767516613007e-02" XMax="1.0262808799743652e+00" HasEquidistantBins="1">
        0.00000000e+00 0.00000000e+00 0.00000000e+00 0.00000000e+00 0.00000000e+00 0.00000000e+00 0.00000000e+00 0.00000000e+00 0.00000000e+00 0.00000000e+00 0.00000000e+00 0.00000000e+00 0.00000000e+00 0.00000000e+00 0.00000000e+00 0.00000000e+00 0.00000000e+00 0.00000000e+00 0.00000000e+00 0.00000000e+00 0.00000000e+00 0.00000000e+00 0.00000000e+00 0.00000000e+00 0.00000000e+00 0.00000000e+00 0.00000000e+00 0.00000000e+00 0.00000000e+00 0.00000000e+00 0.00000000e+00 0.00000000e+00 0.00000000e+00 0.00000000e+00 0.00000000e+00 0.00000000e+00 0.00000000e+00 3.48446127e-01 0.00000000e+00 0.00000000e+00 0.00000000e+00 1.74223063e-01 5.22669190e-01 1.74223063e-01 6.96892254e-01 1.74223063e-01 1.21956144e+00 8.71115317e-01 5.22669190e-01 3.48446127e-01 6.96892254e-01 5.22669190e-01 3.48446127e-01 0.00000000e+00 3.48446127e-01 5.22669190e-01 3.48446127e-01 5.22669190e-01 3.48446127e-01 3.48446127e-01 1.74223063e-01 1.74223063e-01 1.74223063e-01 3.48446127e-01 3.48446127e-01 3.48446127e-01 3.48446127e-01 3.48446127e-01 3.48446127e-01 3.48446127e-01 3.48446127e-01 5.22669190e-01 1.74223063e-01 0.00000000e+00 3.48446127e-01 1.74223063e-01 5.22669190e-01 1.74223063e-01 8.71115317e-01 8.71115317e-01 6.96892254e-01 3.48446127e-01 1.74223063e-01 3.48446127e-01 1.04533838e+00 5.22669190e-01 1.74223063e-01 5.22669190e-01 5.22669190e-01 1.74223063e-01 3.48446127e-01 5.22669190e-01 5.22669190e-01 5.22669190e-01 1.04533838e+00 6.96892254e-01 1.74223063e-01 3.48446127e-01 3.48446127e-01 5.22669190e-01 3.48446127e-01 8.71115317e-01 3.48446127e-01 1.74223063e-01 3.48446127e-01 6.96892254e-01 5.22669190e-01 8.71115317e-01 5.22669190e-01 8.71115317e-01 1.74223063e-01 0.00000000e+00 6.96892254e-01 6.96892254e-01 1.21956144e+00 3.48446127e-01 3.48446127e-01 1.74223063e-01 1.74223063e-01 6.96892254e-01 6.96892254e-01 6.96892254e-01 8.71115317e-01 6.96892254e-01 6.96892254e-01 8.71115317e-01 1.04533838e+00 8.71115317e-01 3.48446127e-01 6.96892254e-01 3.48446127e-01 6.96892254e-01 3.48446127e-01 3.48446127e-01 0.00000000e+00 1.74223063e-01 1.74223063e-01 3.48446127e-01 6.96892254e-01 1.21956144e+00 1.04533838e+00 5.22669190e-01 1.74223063e-01 8.71115317e-01 1.21956144e+00 6.96892254e-01 1.04533838e+00 3.48446127e-01 6.96892254e-01 0.00000000e+00 1.21956144e+00 1.39378451e+00 8.71115317e-01 1.04533838e+00 5.22669190e-01 1.39378451e+00 3.48446127e-01 6.96892254e-01 1.04533838e+00 5.22669190e-01 1.56800757e+00 3.48446127e-01 1.74223063e-01 5.22669190e-01 8.71115317e-01 8.71115317e-01 6.96892254e-01 3.48446127e-01 1.04533838e+00 5.22669190e-01 3.48446127e-01 1.04533838e+00 1.04533838e+00 1.21956144e+00 1.21956144e+00 8.71115317e-01 6.96892254e-01 8.71115317e-01 5.22669190e-01 1.21956144e+00 1.74223063e-01 6.96892254e-01 8.71115317e-01 1.21956144e+00 8.71115317e-01 5.22669190e-01 3.48446127e-01 3.48446127e-01 6.96892254e-01 1.21956144e+00 6.96892254e-01 8.71115317e-01 8.71115317e-01 1.91645370e+00 1.56800757e+00 1.74223063e-01 5.22669190e-01 5.22669190e-01 3.48446127e-01 8.71115317e-01 3.48446127e-01 8.71115317e-01 6.96892254e-01 8.71115317e-01 1.21956144e+00 1.74223063e+00 5.22669190e-01 8.71115317e-01 6.96892254e-01 1.74223063e+00 5.22669190e-01 6.96892254e-01 1.21956144e+00 1.04533838e+00 8.71115317e-01 1.74223063e+00 1.74223063e+00 1.56800757e+00 1.04533838e+00 6.96892254e-01 8.71115317e-01 1.21956144e+00 1.91645370e+00 1.56800757e+00 8.71115317e-01 1.74223063e+00 2.26489982e+00 1.74223063e+00 6.96892254e-01 1.04533838e+00 1.74223063e+00 8.71115317e-01 1.04533838e+00 1.21956144e+00 1.39378451e+00 8.71115317e-01 1.21956144e+00 1.74223063e+00 1.91645370e+00 6.96892254e-01 1.74223063e+00 1.21956144e+00 1.39378451e+00 1.74223063e+00 8.71115317e-01 8.71115317e-01 1.74223063e+00 2.26489982e+00 6.96892254e-01 1.39378451e+00 1.39378451e+00 1.04533838e+00 1.39378451e+00 1.21956144e+00 1.56800757e+00 1.39378451e+00 1.91645370e+00 1.39378451e+00 5.22669190e-01 2.09067676e+00 2.09067676e+00 1.04533838e+00 2.43912289e+00 2.61334595e+00 1.04533838e+00 1.91645370e+00 1.91645370e+00 1.21956144e+00 1.91645370e+00 1.39378451e+00 1.74223063e+00 1.21956144e+00 1.74223063e+00 2.09067676e+00 1.74223063e+00 1.39378451e+00 2.26489982e+00 1.74223063e+00 1.56800757e+00 2.09067676e+00 1.39378451e+00 1.39378451e+00 1.74223063e+00 1.56800757e+00 1.91645370e+00 2.96179208e+00 1.56800757e+00 1.91645370e+00 1.56800757e+00 1.91645370e+00 2.26489982e+00 2.26489982e+00 1.91645370e+00 2.26489982e+00 1.74223063e+00 2.26489982e+00 1.56800757e+00 1.56800757e+00 1.21956144e+00 1.21956144e+00 2.26489982e+00 2.09067676e+00 2.09067676e+00 2.09067676e+00 2.78756902e+00 1.91645370e+00 1.74223063e+00 3.48446127e+00 2.26489982e+00 2.26489982e+00 1.39378451e+00 2.09067676e+00 2.26489982e+00 2.43912289e+00 1.74223063e+00 2.09067676e+00 2.09067676e+00 2.61334595e+00 2.78756902e+00 1.39378451e+00 2.09067676e+00 2.26489982e+00 1.91645370e+00 2.09067676e+00 2.61334595e+00 2.09067676e+00 3.13601514e+00 1.74223063e+00 2.26489982e+00 2.61334595e+00 2.61334595e+00 2.96179208e+00 2.61334595e+00 1.91645370e+00 2.61334595e+00 3.31023821e+00 3.48446127e+00 2.78756902e+00 3.31023821e+00 2.96179208e+00 2.96179208e+00 1.91645370e+00 1.21956144e+00 1.91645370e+00 3.65868433e+00 2.09067676e+00 1.04533838e+00 2.26489982e+00 3.13601514e+00 4.18135352e+00 2.26489982e+00 2.09067676e+00 2.26489982e+00 2.96179208e+00 1.91645370e+00 2.61334595e+00 3.48446127e+00 3.13601514e+00 2.43912289e+00 2.78756902e+00 2.61334595e+00 2.78756902e+00 2.61334595e+00 2.78756902e+00 3.13601514e+00 3.13601514e+00 2.09067676e+00 1.56800757e+00 2.96179208e+00 1.74223063e+00 2.61334595e+00 2.26489982e+00 2.61334595e+00 3.13601514e+00 2.96179208e+00 3.13601514e+00 2.61334595e+00 2.43912289e+00 2.43912289e+00 2.96179208e+00 3.13601514e+00 2.96179208e+00 2.78756902e+00 2.26489982e+00 3.13601514e+00 4.35557659e+00 4.35557659e+00 2.43912289e+00 2.43912289e+00 3.48446127e+00 2.43912289e+00 3.83290740e+00 2.26489982e+00 2.96179208e+00 3.83290740e+00 2.43912289e+00 2.26489982e+00 2.43912289e+00 2.78756902e+00 3.13601514e+00 2.26489982e+00 2.96179208e+00 2.43912289e+00 1.91645370e+00 2.26489982e+00 2.43912289e+00 1.74223063e+00 1.21956144e+00 2.78756902e+00 2.96179208e+00 2.61334595e+00 1.39378451e+00 3.13601514e+00 1.91645370e+00 1.56800757e+00 2.09067676e+00 1.04533838e+00 2.96179208e+00 2.09067676e+00 6.96892254e-01 1.21956144e+00 1.74223063e+00 2.43912289e+00 1.56800757e+00 2.43912289e+00 5.22669190e-01 2.09067676e+00 1.91645370e+00 1.39378451e+00 1.91645370e+00 1.39378451e+00 1.39378451e+00 1.21956144e+00 1.56800757e+00 1.74223063e+00 1.04533838e+00 1.39378451e+00 1.56800757e+00 2.09067676e+00 1.21956144e+00 1.74223063e+00 5.22669190e-01 1.21956144e+00 1.21956144e+00 1.04533838e+00 5.22669190e-01 1.04533838e+00 1.21956144e+00 1.39378451e+00 1.21956144e+00 1.21956144e+00 1.21956144e+00 5.22669190e-01 8.71115317e-01 5.22669190e-01 6.96892254e-01 1.74223063e+00 0.00000000e+00 6.96892254e-01 3.48446127e-01 3.48446127e-01 1.04533838e+00 6.96892254e-01 6.96892254e-01 1.21956144e+00 5.22669190e-01 0.00000000e+00 5.22669190e-01 3.48446127e-01 0.00000000e+00 3.48446127e-01 3.48446127e-01 5.22669190e-01 5.22669190e-01 1.04533838e+00 3.48446127e-01 0.00000000e+00 5.22669190e-01 0.00000000e+00 3.48446127e-01 0.00000000e+00 0.00000000e+00 3.48446127e-01 1.74223063e-01 3.48446127e-01 1.74223063e-01 0.00000000e+00 3.48446127e-01 1.74223063e-01 1.74223063e-01 0.00000000e+00 6.96892254e-01 1.74223063e-01 1.74223063e-01 1.74223063e-01 1.74223063e-01 3.48446127e-01 0.00000000e+00 1.74223063e-01 0.00000000e+00 3.48446127e-01 3.48446127e-01 0.00000000e+00 1.74223063e-01 1.74223063e-01 0.00000000e+00 0.00000000e+00 1.74223063e-01 0.00000000e+00 1.74223063e-01 1.74223063e-01 0.00000000e+00 0.00000000e+00 3.48446127e-01 1.74223063e-01 0.00000000e+00 0.00000000e+00 0.00000000e+00 1.74223063e-01 0.00000000e+00 0.00000000e+00 0.00000000e+00 1.74223063e-01 0.00000000e+00 0.00000000e+00 0.00000000e+00 0.00000000e+00 0.00000000e+00 0.00000000e+00 0.00000000e+00 1.74223063e-01 0.00000000e+00 1.74223063e-01 0.00000000e+00 0.00000000e+00 0.00000000e+00 1.74223063e-01 0.00000000e+00 0.00000000e+00 0.00000000e+00 0.00000000e+00 0.00000000e+00 0.00000000e+00 0.00000000e+00 0.00000000e+00 0.00000000e+00 0.00000000e+00 0.00000000e+00 0.00000000e+00 0.00000000e+00 0.00000000e+00 0.00000000e+00 0.00000000e+00 0.00000000e+00 0.00000000e+00 0.00000000e+00 0.00000000e+00 0.00000000e+00 0.00000000e+00 0.00000000e+00 1.74223063e-01 0.00000000e+00 0.00000000e+00 0.00000000e+00 0.00000000e+00 0.00000000e+00 0.00000000e+00 0.00000000e+00 0.00000000e+00 0.00000000e+00 0.00000000e+00 0.00000000e+00 0.00000000e+00 0.00000000e+00 0.00000000e+00 0.00000000e+00 0.00000000e+00 0.00000000e+00 1.74223063e-01 0.00000000e+00 0.00000000e+00 0.00000000e+00 0.00000000e+00 0.00000000e+00 0.00000000e+00 0.00000000e+00 0.00000000e+00 0.00000000e+00 0.00000000e+00 0.00000000e+00 0.00000000e+00 0.00000000e+00 0.00000000e+00 0.00000000e+00 0.00000000e+00 1.74223063e-01 0.00000000e+00 0.00000000e+00 0.00000000e+00 0.00000000e+00 0.00000000e+00 0.00000000e+00 0.00000000e+00 0.00000000e+00 0.00000000e+00 0.00000000e+00 1.74223063e-01 0.00000000e+00 0.00000000e+00 0.00000000e+00 0.00000000e+00 0.00000000e+00 0.00000000e+00 0.00000000e+00 0.00000000e+00 0.00000000e+00 0.00000000e+00 0.00000000e+00 0.00000000e+00 0.00000000e+00 0.00000000e+00 0.00000000e+00 0.00000000e+00 0.00000000e+00 0.00000000e+00 0.00000000e+00 0.00000000e+00 0.00000000e+00 0.00000000e+00 0.00000000e+00 0.00000000e+00 0.00000000e+00 0.00000000e+00 0.00000000e+00 0.00000000e+00 0.00000000e+00 0.00000000e+00 0.00000000e+00 0.00000000e+00 0.00000000e+00 0.00000000e+00 1.74223063e-01 0.00000000e+00 0.00000000e+00 0.00000000e+00 0.00000000e+00 0.00000000e+00 0.00000000e+00 0.00000000e+00 0.00000000e+00 0.00000000e+00 0.00000000e+00 0.00000000e+00 0.00000000e+00 0.00000000e+00 0.00000000e+00 0.00000000e+00 0.00000000e+00 0.00000000e+00 0.00000000e+00 0.00000000e+00 0.00000000e+00 0.00000000e+00 0.00000000e+00 0.00000000e+00 0.00000000e+00 0.00000000e+00 0.00000000e+00 0.00000000e+00 0.00000000e+00 
      </Histogram>
    </PDF>
    <PDF Name="MLP_N3_N7.pt15_eta1.15_conv0_PDFBkg" MinNSmooth="0" MaxNSmooth="0" InterpolMethod="2" KDE_type="1" KDE_iter="1" KDE_border="1" KDE_finefactor="1.0000000000000000e+00">
      <Histogram Name="MLP_tr_B_original" NBins="670" XMin="-7.2788767516613007e-02" XMax="1.0262808799743652e+00" HasEquidistantBins="1">
        2.03120918e-02 0.00000000e+00 0.00000000e+00 0.00000000e+00 0.00000000e+00 0.00000000e+00 0.00000000e+00 0.00000000e+00 0.00000000e+00 0.00000000e+00 0.00000000e+00 0.00000000e+00 0.00000000e+00 0.00000000e+00 0.00000000e+00 4.06241836e-02 0.00000000e+00 0.00000000e+00 2.03120918e-02 0.00000000e+00 0.00000000e+00 0.00000000e+00 4.06241836e-02 2.03120918e-02 2.03120918e-02 6.09362754e-02 3.65617652e-01 4.06241836e-01 8.93732039e-01 1.42184643e+00 1.80777617e+00 2.25464219e+00 2.64057193e+00 2.76244448e+00 2.37651474e+00 3.22962260e+00 3.33118305e+00 4.04210627e+00 5.52488897e+00 9.44512269e+00 2.37448353e+01 4.18429091e+01 6.10378359e+01 5.48832720e+01 4.15179156e+01 3.88773437e+01 3.83086051e+01 2.98587749e+01 1.75090231e+01 1.19435100e+01 8.73419947e+00 7.31235305e+00 5.42332851e+00 4.61084484e+00 4.08273045e+00 3.51399188e+00 3.96085790e+00 3.69680071e+00 2.88431704e+00 2.33589056e+00 2.53901147e+00 2.47807520e+00 2.31557846e+00 1.97027290e+00 1.66559153e+00 1.92964872e+00 1.82808826e+00 1.66559153e+00 2.09214546e+00 1.40153433e+00 1.40153433e+00 1.72652780e+00 1.42184643e+00 1.25934969e+00 1.29997388e+00 1.32028597e+00 1.09685296e+00 9.95292498e-01 9.74980406e-01 7.71859488e-01 1.23903760e+00 7.71859488e-01 7.92171580e-01 7.92171580e-01 9.14044131e-01 6.90611121e-01 8.53107856e-01 7.71859488e-01 9.74980406e-01 8.12483672e-01 8.32795764e-01 7.31235305e-01 8.93732039e-01 4.87490203e-01 5.48426479e-01 6.29674846e-01 6.49986938e-01 7.92171580e-01 7.10923213e-01 7.71859488e-01 8.93732039e-01 7.10923213e-01 5.89050662e-01 6.09362754e-01 6.29674846e-01 7.71859488e-01 5.89050662e-01 7.51547397e-01 5.48426479e-01 5.68738570e-01 5.48426479e-01 5.68738570e-01 6.49986938e-01 5.68738570e-01 5.89050662e-01 5.28114387e-01 5.68738570e-01 7.10923213e-01 6.90611121e-01 4.87490203e-01 5.89050662e-01 5.07802295e-01 6.29674846e-01 3.85929744e-01 6.29674846e-01 4.06241836e-01 6.49986938e-01 3.65617652e-01 4.26553928e-01 4.26553928e-01 4.06241836e-01 4.26553928e-01 5.48426479e-01 4.06241836e-01 5.68738570e-01 4.67178111e-01 4.06241836e-01 3.45305561e-01 4.46866020e-01 4.67178111e-01 5.28114387e-01 5.28114387e-01 6.29674846e-01 2.84369285e-01 1.82808826e-01 4.26553928e-01 4.26553928e-01 3.65617652e-01 5.07802295e-01 4.06241836e-01 5.28114387e-01 3.45305561e-01 4.67178111e-01 4.87490203e-01 4.67178111e-01 5.48426479e-01 2.84369285e-01 4.06241836e-01 5.28114387e-01 4.06241836e-01 4.26553928e-01 3.45305561e-01 3.85929744e-01 2.84369285e-01 4.67178111e-01 3.45305561e-01 4.67178111e-01 3.65617652e-01 4.06241836e-01 2.64057193e-01 4.46866020e-01 4.26553928e-01 5.07802295e-01 2.64057193e-01 4.87490203e-01 4.46866020e-01 3.85929744e-01 3.45305561e-01 3.04681377e-01 3.24993469e-01 4.67178111e-01 5.89050662e-01 5.68738570e-01 3.45305561e-01 3.24993469e-01 2.03120918e-01 2.84369285e-01 4.46866020e-01 4.26553928e-01 3.65617652e-01 3.85929744e-01 3.85929744e-01 4.67178111e-01 2.84369285e-01 4.06241836e-01 1.62496734e-01 3.04681377e-01 2.84369285e-01 4.46866020e-01 3.04681377e-01 3.85929744e-01 4.06241836e-01 3.45305561e-01 3.85929744e-01 4.67178111e-01 4.67178111e-01 3.65617652e-01 3.04681377e-01 5.68738570e-01 3.45305561e-01 2.64057193e-01 3.45305561e-01 5.28114387e-01 3.85929744e-01 3.45305561e-01 2.84369285e-01 2.64057193e-01 2.84369285e-01 3.65617652e-01 1.62496734e-01 2.64057193e-01 3.85929744e-01 3.24993469e-01 2.84369285e-01 3.24993469e-01 4.46866020e-01 2.84369285e-01 3.65617652e-01 3.45305561e-01 3.24993469e-01 1.21872551e-01 3.45305561e-01 2.84369285e-01 5.68738570e-01 3.04681377e-01 4.46866020e-01 2.84369285e-01 2.23433010e-01 2.23433010e-01 3.65617652e-01 3.65617652e-01 4.26553928e-01 3.04681377e-01 2.84369285e-01 3.45305561e-01 2.64057193e-01 2.84369285e-01 3.24993469e-01 3.04681377e-01 3.24993469e-01 2.43745102e-01 3.65617652e-01 4.06241836e-01 2.64057193e-01 2.43745102e-01 3.65617652e-01 3.04681377e-01 3.85929744e-01 4.67178111e-01 3.04681377e-01 3.04681377e-01 2.23433010e-01 2.64057193e-01 3.45305561e-01 3.45305561e-01 3.85929744e-01 3.04681377e-01 2.84369285e-01 3.45305561e-01 1.82808826e-01 3.65617652e-01 3.24993469e-01 2.23433010e-01 3.65617652e-01 2.84369285e-01 3.65617652e-01 3.65617652e-01 4.06241836e-01 3.65617652e-01 2.23433010e-01 3.65617652e-01 2.64057193e-01 3.04681377e-01 3.04681377e-01 3.45305561e-01 1.62496734e-01 3.04681377e-01 3.24993469e-01 2.23433010e-01 3.04681377e-01 2.23433010e-01 3.24993469e-01 2.64057193e-01 4.26553928e-01 3.24993469e-01 2.23433010e-01 3.04681377e-01 2.84369285e-01 4.87490203e-01 3.85929744e-01 3.85929744e-01 2.84369285e-01 3.04681377e-01 4.26553928e-01 3.45305561e-01 5.07802295e-01 3.24993469e-01 3.45305561e-01 2.03120918e-01 3.65617652e-01 3.65617652e-01 2.43745102e-01 2.64057193e-01 3.04681377e-01 2.84369285e-01 3.85929744e-01 3.24993469e-01 2.43745102e-01 2.23433010e-01 3.45305561e-01 2.84369285e-01 2.43745102e-01 2.43745102e-01 2.84369285e-01 3.65617652e-01 2.84369285e-01 3.24993469e-01 2.23433010e-01 2.84369285e-01 3.04681377e-01 3.24993469e-01 3.24993469e-01 2.64057193e-01 2.84369285e-01 1.21872551e-01 3.65617652e-01 4.87490203e-01 4.26553928e-01 3.45305561e-01 3.65617652e-01 4.06241836e-01 1.62496734e-01 2.03120918e-01 1.82808826e-01 3.04681377e-01 3.85929744e-01 3.65617652e-01 2.84369285e-01 3.04681377e-01 2.84369285e-01 2.64057193e-01 3.24993469e-01 3.24993469e-01 4.67178111e-01 1.82808826e-01 3.85929744e-01 3.45305561e-01 2.84369285e-01 1.82808826e-01 1.82808826e-01 2.64057193e-01 2.43745102e-01 1.82808826e-01 4.67178111e-01 2.03120918e-01 2.84369285e-01 3.65617652e-01 2.64057193e-01 3.04681377e-01 1.62496734e-01 1.82808826e-01 1.21872551e-01 2.64057193e-01 2.43745102e-01 2.43745102e-01 8.12483672e-02 2.23433010e-01 2.23433010e-01 2.43745102e-01 3.04681377e-01 1.62496734e-01 1.42184643e-01 1.62496734e-01 2.23433010e-01 3.24993469e-01 2.64057193e-01 1.42184643e-01 1.82808826e-01 3.85929744e-01 2.23433010e-01 1.62496734e-01 2.84369285e-01 2.43745102e-01 2.23433010e-01 2.03120918e-01 1.82808826e-01 2.43745102e-01 2.43745102e-01 2.43745102e-01 2.84369285e-01 2.43745102e-01 8.12483672e-02 3.65617652e-01 2.03120918e-01 3.65617652e-01 1.82808826e-01 2.84369285e-01 2.84369285e-01 1.62496734e-01 1.42184643e-01 1.21872551e-01 8.12483672e-02 2.03120918e-01 1.42184643e-01 1.82808826e-01 1.82808826e-01 1.42184643e-01 1.01560459e-01 2.23433010e-01 1.42184643e-01 1.42184643e-01 1.42184643e-01 1.62496734e-01 8.12483672e-02 2.03120918e-01 8.12483672e-02 1.42184643e-01 1.21872551e-01 1.01560459e-01 1.42184643e-01 8.12483672e-02 8.12483672e-02 1.62496734e-01 1.01560459e-01 8.12483672e-02 1.01560459e-01 1.42184643e-01 4.06241836e-02 6.09362754e-02 8.12483672e-02 0.00000000e+00 8.12483672e-02 2.64057193e-01 2.03120918e-02 1.62496734e-01 2.03120918e-02 4.06241836e-02 2.03120918e-02 2.03120918e-02 6.09362754e-02 6.09362754e-02 2.03120918e-02 6.09362754e-02 8.12483672e-02 6.09362754e-02 6.09362754e-02 1.21872551e-01 8.12483672e-02 6.09362754e-02 2.03120918e-02 4.06241836e-02 4.06241836e-02 4.06241836e-02 4.06241836e-02 4.06241836e-02 6.09362754e-02 2.03120918e-02 0.00000000e+00 6.09362754e-02 4.06241836e-02 4.06241836e-02 2.03120918e-02 4.06241836e-02 2.03120918e-02 2.03120918e-02 6.09362754e-02 0.00000000e+00 2.03120918e-02 2.03120918e-02 0.00000000e+00 0.00000000e+00 0.00000000e+00 2.03120918e-02 4.06241836e-02 2.03120918e-02 0.00000000e+00 0.00000000e+00 0.00000000e+00 2.03120918e-02 0.00000000e+00 0.00000000e+00 0.00000000e+00 2.03120918e-02 0.00000000e+00 0.00000000e+00 0.00000000e+00 0.00000000e+00 0.00000000e+00 0.00000000e+00 2.03120918e-02 0.00000000e+00 2.03120918e-02 0.00000000e+00 0.00000000e+00 2.03120918e-02 0.00000000e+00 0.00000000e+00 0.00000000e+00 0.00000000e+00 0.00000000e+00 0.00000000e+00 0.00000000e+00 0.00000000e+00 0.00000000e+00 0.00000000e+00 0.00000000e+00 0.00000000e+00 2.03120918e-02 0.00000000e+00 0.00000000e+00 0.00000000e+00 0.00000000e+00 0.00000000e+00 0.00000000e+00 0.00000000e+00 0.00000000e+00 0.00000000e+00 0.00000000e+00 0.00000000e+00 0.00000000e+00 0.00000000e+00 0.00000000e+00 0.00000000e+00 0.00000000e+00 0.00000000e+00 0.00000000e+00 0.00000000e+00 0.00000000e+00 0.00000000e+00 0.00000000e+00 0.00000000e+00 0.00000000e+00 0.00000000e+00 0.00000000e+00 0.00000000e+00 0.00000000e+00 0.00000000e+00 0.00000000e+00 0.00000000e+00 0.00000000e+00 0.00000000e+00 0.00000000e+00 2.03120918e-02 0.00000000e+00 0.00000000e+00 0.00000000e+00 0.00000000e+00 2.03120918e-02 0.00000000e+00 0.00000000e+00 0.00000000e+00 0.00000000e+00 0.00000000e+00 0.00000000e+00 0.00000000e+00 0.00000000e+00 0.00000000e+00 0.00000000e+00 0.00000000e+00 0.00000000e+00 0.00000000e+00 0.00000000e+00 0.00000000e+00 0.00000000e+00 0.00000000e+00 0.00000000e+00 0.00000000e+00 0.00000000e+00 0.00000000e+00 0.00000000e+00 0.00000000e+00 0.00000000e+00 0.00000000e+00 0.00000000e+00 0.00000000e+00 0.00000000e+00 0.00000000e+00 0.00000000e+00 0.00000000e+00 0.00000000e+00 0.00000000e+00 0.00000000e+00 0.00000000e+00 0.00000000e+00 0.00000000e+00 0.00000000e+00 0.00000000e+00 0.00000000e+00 0.00000000e+00 0.00000000e+00 0.00000000e+00 0.00000000e+00 0.00000000e+00 0.00000000e+00 0.00000000e+00 0.00000000e+00 0.00000000e+00 0.00000000e+00 0.00000000e+00 0.00000000e+00 0.00000000e+00 0.00000000e+00 0.00000000e+00 0.00000000e+00 0.00000000e+00 0.00000000e+00 0.00000000e+00 0.00000000e+00 0.00000000e+00 0.00000000e+00 0.00000000e+00 0.00000000e+00 0.00000000e+00 0.00000000e+00 0.00000000e+00 0.00000000e+00 0.00000000e+00 0.00000000e+00 2.03120918e-02 0.00000000e+00 0.00000000e+00 0.00000000e+00 2.03120918e-02 0.00000000e+00 0.00000000e+00 0.00000000e+00 0.00000000e+00 0.00000000e+00 0.00000000e+00 0.00000000e+00 0.00000000e+00 0.00000000e+00 0.00000000e+00 0.00000000e+00 0.00000000e+00 0.00000000e+00 0.00000000e+00 0.00000000e+00 0.00000000e+00 0.00000000e+00 0.00000000e+00 0.00000000e+00 0.00000000e+00 0.00000000e+00 0.00000000e+00 0.00000000e+00 0.00000000e+00 0.00000000e+00 0.00000000e+00 0.00000000e+00 0.00000000e+00 0.00000000e+00 0.00000000e+00 0.00000000e+00 0.00000000e+00 0.00000000e+00 0.00000000e+00 0.00000000e+00 0.00000000e+00 0.00000000e+00 
      </Histogram>
    </PDF>
  </MVAPdfs>
  <Weights>
    <Layout NLayers="4">
      <Layer Index="0" NNeurons="11">
        <Neuron NSynapses="13">
          -1.6478954513529873e-01 2.0476101014943398e+00 4.9453538728958113e-01 1.7440449136696201e+00 -2.1290116087396158e+00 -1.6932037048328681e+00 -9.0263716354451651e-01 1.9942874905295971e+00 -3.1098449858744397e+00 -7.6531944358654114e-01 -2.1682915020329281e+00 -3.3191535825676693e-01 -1.2036440474827073e+00 
        </Neuron>
        <Neuron NSynapses="13">
          -3.3294854157479389e-02 -7.4652136761560317e-01 -1.7191280807455375e-01 -5.8908345957193553e-01 1.0998115265228356e+00 4.6268738319482072e-01 1.4077538413215320e+00 -3.6542918843124234e-01 -6.1789792625199114e-03 1.1844941383234158e+00 -2.5228849563742545e-01 -1.1977010364150740e+00 -3.9964808302321164e-01 
        </Neuron>
        <Neuron NSynapses="13">
          1.5815885863047365e+00 -8.5207568777137210e-01 -9.9945320695924378e-01 1.7245450782429889e-01 8.5415910084035962e-01 1.2073691365893136e+00 -5.1608164086352437e-01 -1.3481705795791463e-01 7.2452834542609512e-01 -3.0806666235075758e-01 -1.1188030472052852e+00 2.1372496423007070e+00 -7.9323059320462741e-01 
        </Neuron>
        <Neuron NSynapses="13">
          1.4681456146586414e+00 1.4359950904406993e+00 1.0636638991995884e+00 1.7944572548548696e+00 3.5232545645391539e-01 -1.2031698049470774e+00 -1.9091193517608975e+00 8.0610040572898156e-01 9.1202418710519739e-01 1.2503862965855295e+00 9.2280098465366867e-01 1.5254528232248723e+00 1.4192729341328620e+00 
        </Neuron>
        <Neuron NSynapses="13">
          -1.2742026016671941e+00 1.1116500272554948e+00 1.8847414306481059e-02 -8.3985737631583468e-01 -7.6721666930279586e-01 -1.2648527249253838e+00 9.8662006803659219e-01 6.7830076600802069e-01 -1.1340335811690074e+00 1.5893002744675414e-01 -6.6685466865599774e-01 5.4207378386244709e-01 1.4401563086723543e+00 
        </Neuron>
        <Neuron NSynapses="13">
          -5.6510032341704164e-01 -2.6097521499191884e-02 -1.4056706661118781e+00 6.9279496079324432e-01 -4.1267295218419514e-01 -3.3236936917984605e-01 -1.1042827517602674e+00 7.1177842366015653e-01 -1.1741164065438289e-01 1.3070853807927050e+00 -8.5358022069817652e-01 -1.7464840252510341e+00 -1.5580599376031350e+00 
        </Neuron>
        <Neuron NSynapses="13">
          1.2967143371716454e+00 6.8430398334167697e-01 4.3155166021418427e+00 7.3661621703680358e-01 -3.3947125212941032e-01 -1.0870346233383346e+00 -1.2702831092390263e+00 -1.7111211274226920e-01 3.4418093573868691e+00 -1.2382712571506360e+00 -2.5084339145406691e+00 -1.6756079995241293e+00 -2.4244171242337517e-01 
        </Neuron>
        <Neuron NSynapses="13">
          -9.4124904389718031e-02 1.4823536979825389e+00 -3.6283749364091649e+00 -7.3537951146002134e-01 2.3449400763802508e+00 -6.6960431396768438e-01 -1.3688781951622599e+00 -1.4673742319383505e+00 -4.7422388908037671e-01 -1.8108840076704515e+00 -3.3824375246733402e+00 6.3267510126224458e-01 1.6952697106492869e+00 
        </Neuron>
        <Neuron NSynapses="13">
          -8.2284684164680810e-01 1.6980972690297476e+00 -4.9942904042389291e-01 -7.7007336635342483e-01 4.2598590783615342e-01 6.3011758022439565e-02 -1.7193169910319397e+00 2.9128485177195113e-01 3.3350091406372434e-01 4.6913799573827125e-01 -7.3772486053395347e-01 1.8944447611032975e+00 2.7448798275869218e-01 
        </Neuron>
        <Neuron NSynapses="13">
          -6.5659833131342926e-01 8.3747048440179972e-01 1.6143523797084844e-01 -1.5847674189487362e+00 1.1604881900931541e+00 -4.6833361918661498e-01 1.4674678082472199e+00 7.7780240235075748e-01 2.7235809487581958e-01 6.9191499836423351e-02 4.6248935955229431e-01 -1.3716799225717284e+00 3.9431706596600674e-01 
        </Neuron>
        <Neuron NSynapses="13">
          -3.4808750647606379e-01 -2.1228544778844043e+00 5.9731111740489293e+00 -1.5792379874032478e+00 -3.1192735052786585e-01 1.6814833825233713e+00 2.3273873586401042e+00 -1.9383340971846161e+00 3.6528128172658341e+00 2.0567690624168455e+00 2.3767107057695189e-01 2.1504164882556473e-01 -2.1511856845236665e+00 
        </Neuron>
      </Layer>
      <Layer Index="1" NNeurons="14">
        <Neuron NSynapses="17">
          -2.3440812519233165e-01 -9.9601215294730672e-01 1.4924022599842082e+00 1.2699465197512532e+00 -7.8003926476135010e-01 -4.5680477022159285e-02 -9.8745295396186483e-02 -1.1257520561497931e+00 4.7577413899462684e-01 1.5189350970822293e+00 -5.8718166059593990e-01 -5.1403096707282414e-01 2.9913026140719483e-02 1.0893952386780879e+00 3.5575386215937360e-01 5.4887988298664836e-01 -1.1374520310277638e+00 
        </Neuron>
        <Neuron NSynapses="17">
          1.4159327573440401e+00 1.1748387113038170e+00 6.6222711470649565e-01 7.0324862777761588e-01 6.8020592339648223e-01 -2.0181505430754648e-01 -8.4224026683985187e-01 1.2865589251458234e+00 -1.0533397402171041e+00 -7.8238447435248104e-01 1.5484263946069670e+00 1.1047161643990853e+00 -5.3585884010945273e-01 1.6392132576354226e+00 2.0276778913430986e+00 -2.3371978531266757e+00 1.0100083926950627e+00 
        </Neuron>
        <Neuron NSynapses="17">
          7.7877178372847175e-02 4.6223042276232307e-01 -2.7792155384426178e+00 -2.7174343685466473e+00 8.0193148603605957e-01 1.4910861339905601e+00 -1.4974376169058361e+00 -4.3208044825216771e-02 -2.5407518379565658e-01 3.4965630992423768e-01 1.8023961540550857e+00 -2.6174943891800256e-01 -5.4501301566030047e-01 -1.2230474476499929e-01 9.3056194117094881e-01 1.8393388997174269e+00 9.0188689841778202e-01 
        </Neuron>
        <Neuron NSynapses="17">
          1.8566066933715053e-01 -3.8739342219518091e-01 -1.8071726334790976e+00 1.2931164796494639e+00 1.4953263825968049e-01 -1.0057723113932673e+00 -9.2999729345081639e-01 5.4172292739004646e-01 -2.9774072182520952e-02 -2.1767853548886453e+00 1.5110694547793180e+00 9.2631540973432069e-01 -8.2074454041583689e-01 -4.0177123663264732e-03 1.6632641007632194e+00 6.5611409608054827e-01 8.5725498841484260e-01 
        </Neuron>
        <Neuron NSynapses="17">
          3.7791496223850839e-03 -1.5370236790321963e+00 -1.4721016179852160e+00 5.0570258584745553e-01 1.3561116197862719e+00 6.6888152153539038e-01 1.7028873593712796e-01 1.8043027881401021e+00 -1.8673850349981225e+00 -1.1116015446610141e+00 -1.1415466245859203e-01 -1.3557450823609647e+00 5.2466529492481095e-01 1.7061528222892950e+00 -1.2311498579603470e+00 7.5679200177174555e-01 -1.6332835835775973e-02 
        </Neuron>
        <Neuron NSynapses="17">
          -1.5721962059810071e+00 -1.2323036650884498e+00 9.9855971676033128e-01 8.3016854939451587e-02 1.3354586013768517e+00 -1.5674381554757599e+00 1.9273330430812752e+00 -2.0052823463678018e+00 8.5376321496510799e-01 2.9117833661069714e-01 -1.4682992475150758e+00 -1.2257099263786873e+00 -1.6658158288884772e+00 -1.7916250409276069e-01 -2.0703362479852441e+00 -1.2718963520081552e+00 -2.3079471239916947e+00 
        </Neuron>
        <Neuron NSynapses="17">
          1.6787174568325097e-01 -1.3038552171483528e+00 -1.7779122638307565e+00 1.2237025602592351e+00 -5.2981023845574915e-01 -2.2583593405951755e-01 -8.5919898524385752e-01 -1.6293264192022486e-02 2.0161894372192815e+00 1.5149729337951994e+00 -8.6894184051725010e-01 -1.5989015406843252e+00 -8.1609315150410733e-01 -9.5126449485263820e-01 -1.7485603594101871e+00 7.1911928170069439e-01 -8.0364851774821708e-02 
        </Neuron>
        <Neuron NSynapses="17">
          1.7594642269546905e+00 9.7431324659153093e-02 4.4617263418286096e-01 -3.5602015571492662e-01 -2.2480317284665068e+00 1.6337277572577751e+00 9.6133022132086865e-01 -6.1512323715022654e-01 -1.1989746978979496e+00 6.5209907221169583e-01 1.1930116687648409e+00 5.4927463044864155e-01 -6.9497429606209427e-01 -1.6396410070240239e-01 1.6125007054007514e+00 6.1133281734849920e-01 1.3362306589954014e+00 
        </Neuron>
        <Neuron NSynapses="17">
          -2.8160548021264359e-01 5.8124964335671348e-03 4.7067929021555155e-01 -2.9503411925588185e+00 -4.7610490696404978e-01 -1.5416137398003076e+00 -1.1914571681716657e+00 -1.4406047059554958e+00 1.5817253374765368e+00 -1.6132838772870748e+00 1.6964840937808618e+00 -1.4997747733327964e+00 2.7214992244794334e-01 -1.2257922563511905e+00 2.7955866981359939e-01 1.5580136413989878e+00 -1.5248833486357516e+00 
        </Neuron>
        <Neuron NSynapses="17">
          3.4253107360479473e-01 2.0566524001080216e-01 -2.1140289317966308e+00 -1.6522215983470783e+00 -1.3940893856668646e+00 -1.1820898879181274e+00 2.0314665865263315e+00 -7.6445937137326658e-01 3.7937802990258085e-01 -6.8649022675329230e-01 -1.1559116541300773e+00 -1.7922435837670339e+00 -7.5672880900503392e-01 -1.5267372411288553e+00 8.2739659803542720e-01 -9.8548820551429195e-01 -1.5632261417013529e+00 
        </Neuron>
        <Neuron NSynapses="17">
          1.7188749349328885e+00 8.6370367674296677e-02 3.8148795213216680e-01 2.5327293588847826e+00 -1.4334713874579688e+00 1.0110143301583772e+00 9.7084025127823037e-01 -1.2638663467879481e+00 -8.8292028490210694e-01 1.9889623909237553e-01 -1.1959937359046124e+00 3.9934863743739885e-01 2.0167197013509837e+00 1.3148265332364184e+00 1.3563953582175001e+00 -1.0593579381275107e+00 6.8791179619533849e-01 
        </Neuron>
        <Neuron NSynapses="17">
          -1.9587179128808505e+00 8.0121312005443679e-01 -1.8234389320285149e+00 -1.8418257296806910e+00 -3.1126164234214881e-01 1.4068132884174622e+00 2.0891230904807054e-01 1.1121704074432743e+00 2.6640542325734207e-01 -3.3010422796915395e-01 -7.5966603550288181e-01 2.2259740077976448e-01 1.6930781095566481e+00 -1.3450753177630579e+00 3.0711611293094743e-01 -1.3391539521810270e+00 -1.4476644912798220e-01 
        </Neuron>
        <Neuron NSynapses="17">
          -5.0292324407168611e-02 4.8682251731897641e-01 -1.0323992751972109e+00 1.0038518971034305e+00 1.3247567414085006e+00 8.6721763182151235e-01 -3.9288782218668789e-01 -6.6632273516091545e-01 -1.3947489356654161e+00 -1.8783636705038085e+00 1.0215152546664825e+00 -5.5052173655480152e-01 -1.3500839487172427e+00 6.1961736214700147e-01 -1.5321521681464543e+00 -1.4391283999918101e+00 -1.1936510303725651e+00 
        </Neuron>
        <Neuron NSynapses="17">
          1.1310092962510521e+00 -1.7768693059283491e+00 -1.9685044849244173e+00 -7.8160148466196699e-01 -6.3537903955866581e-01 -2.0022386708867437e+00 1.4613105669509310e+00 -1.6541264363921808e+00 -1.0853767487583914e+00 1.9423322031029724e+00 5.9361425933766654e-01 2.1005015623016177e-01 3.4812244232741546e-01 1.2413136769150004e+00 1.5332847015592816e+00 8.8991085681889237e-01 -1.3063900677168538e+00 
        </Neuron>
      </Layer>
      <Layer Index="2" NNeurons="18">
        <Neuron NSynapses="1">
          1.0863679422977919e-03 
        </Neuron>
        <Neuron NSynapses="1">
          -1.1667557440143541e+00 
        </Neuron>
        <Neuron NSynapses="1">
          8.5885773027098777e-01 
        </Neuron>
        <Neuron NSynapses="1">
          4.0777740890345854e-01 
        </Neuron>
        <Neuron NSynapses="1">
          -1.4285063254021282e-03 
        </Neuron>
        <Neuron NSynapses="1">
          8.0660354697204362e-01 
        </Neuron>
        <Neuron NSynapses="1">
          6.3519596579547399e-01 
        </Neuron>
        <Neuron NSynapses="1">
          1.5783874793149886e+00 
        </Neuron>
        <Neuron NSynapses="1">
          -1.0810936140900878e+00 
        </Neuron>
        <Neuron NSynapses="1">
          1.5982263538358332e+00 
        </Neuron>
        <Neuron NSynapses="1">
          8.0192221980847145e-01 
        </Neuron>
        <Neuron NSynapses="1">
          -1.8774053395504569e+00 
        </Neuron>
        <Neuron NSynapses="1">
          1.0223882344071501e-02 
        </Neuron>
        <Neuron NSynapses="1">
          9.5372136958792070e-02 
        </Neuron>
        <Neuron NSynapses="1">
          7.2370671526211439e-01 
        </Neuron>
        <Neuron NSynapses="1">
          -3.2987952692762924e-02 
        </Neuron>
        <Neuron NSynapses="1">
          6.6695800461387356e-01 
        </Neuron>
        <Neuron NSynapses="1">
          1.7638202449676923e+00 
        </Neuron>
      </Layer>
      <Layer Index="3" NNeurons="1">
        <Neuron NSynapses="0"/>
      </Layer>
    </Layout>
  </Weights>
</MethodSetup>
