{
  "defaults": {},
  "inputs": [
    {
      "name": "Tau1_wta",
      "offset": -0.08447019010782242,
      "scale": 13.078237578752601
    },
    {
      "name": "Tau2_wta",
      "offset": -0.03642183169722557,
      "scale": 31.62393691221735
    },
    {
      "name": "Tau3_wta",
      "offset": -0.02013041451573372,
      "scale": 56.981759436065474
    },
    {
      "name": "Tau21_wta",
      "offset": -0.46834635734558105,
      "scale": 6.165193983197978
    },
    {
      "name": "Tau32_wta",
      "offset": -0.539190411567688,
      "scale": 5.703766138739937
    },
    {
      "name": "Split12",
      "offset": -93737.7890625,
      "scale": 9.360345437698162e-06
    },
    {
      "name": "Split23",
      "offset": -31742.6015625,
      "scale": 3.699846752636556e-05
    },
    {
      "name": "Qw",
      "offset": -66603.2578125,
      "scale": 2.204550226112794e-05
    },
    {
      "name": "C2",
      "offset": -0.10034529119729996,
      "scale": 17.814633359029738
    },
    {
      "name": "D2",
      "offset": -2.5021164417266846,
      "scale": 0.1670603625719823
    },
    {
      "name": "e3",
      "offset": -0.0009839478880167007,
      "scale": 390.1573582466676
    },
    {
      "name": "JetpTCorrByCombinedMass",
      "offset": -2073963.0,
      "scale": 1.006145916563086e-06
    },
    {
      "name": "CaloTACombinedMassUncorrelated",
      "offset": -193761.6875,
      "scale": 5.859603354293318e-06
    }
  ],
  "layers": [
    {
      "activation": "rectified",
      "architecture": "dense",
      "bias": [
        0.009840487502515316,
        0.001538368291221559,
        -0.01111259963363409,
        0.0019548162817955017,
        -0.0033682857174426317,
        -0.015483786351978779,
        0.004796268884092569,
        0.04010048508644104,
        -0.0327865369617939,
        -0.01464333850890398,
        -0.016582926735281944,
        -0.025533579289913177,
        8.541060378775e-05,
        -0.003121926449239254,
        -0.024939460679888725,
        -0.0019110125722363591,
        -0.010382287204265594,
        -0.028261570259928703
      ],
      "weights": [
        -0.0014011391904205084,
        0.0016628734301775694,
        0.0015187611570581794,
        -0.012307426892220974,
        -0.000725956866517663,
        0.0008166214101947844,
        0.0057991789653897285,
        -0.052374619990587234,
        -0.00017892205505631864,
        9.914200927596539e-05,
        -0.00014856013876851648,
        0.0015985948266461492,
        0.000926740700379014,
        0.008141922764480114,
        0.0001322083844570443,
        -0.011587130837142467,
        0.009439465589821339,
        0.0016373797552660108,
        -0.0009753328049555421,
        -0.00029427296249195933,
        0.0019399260636419058,
        0.031244350597262383,
        -0.14888615906238556,
        -0.01176428236067295,
        0.021527711302042007,
        -0.054757021367549896,
        -0.00014695052232127637,
        -0.00039332167943939567,
        -0.0004962217644788325,
        0.009492568671703339,
        -0.0016200820682570338,
        -0.04704210162162781,
        -0.008543865755200386,
        0.0031767645850777626,
        -0.00010129956353921443,
        -0.0008979428675957024,
        0.0005031202454119921,
        0.0029625599272549152,
        0.01578092947602272,
        -0.0007627475424669683,
        -0.0010037237079814076,
        -0.017935331910848618,
        -0.007355057168751955,
        0.007566601037979126,
        0.0009525294881314039,
        -0.005696464329957962,
        -0.0006685618427582085,
        -0.0058387587778270245,
        0.0004567998694255948,
        -0.0006375767989084125,
        -0.015386789105832577,
        -0.0031083228532224894,
        -0.006418673321604729,
        -0.014060072600841522,
        -0.0096829142421484,
        0.0004741975280921906,
        -0.0009089747909456491,
        -0.0004997619544155896,
        0.002831461373716593,
        0.004912995267659426,
        0.024053804576396942,
        0.001191439339891076,
        -0.00321473041549325,
        -0.009901562705636024,
        -0.021685441955924034,
        -0.09105146676301956,
        -0.03490544110536575,
        0.020045366138219833,
        0.001882898504845798,
        -0.001189785310998559,
        0.013617316260933876,
        -0.0004705982864834368,
        -0.0021516461856663227,
        0.010055916383862495,
        0.0007404499338008463,
        0.016908027231693268,
        -0.008307642303407192,
        0.001399941393174231,
        0.004628827329725027,
        0.00139862229116261,
        0.0038919735234230757,
        -0.0021751783788204193,
        0.005947924219071865,
        -0.000547227798961103,
        0.0043419538997113705,
        -0.0021789860911667347,
        0.03749578818678856,
        0.00011244650522712618,
        -0.0213639959692955,
        0.030157029628753662,
        -0.03591044247150421,
        0.0007516643381677568,
        0.00023004361719358712,
        0.0003742338449228555,
        0.0015142413321882486,
        0.0029932858888059855,
        0.0004417597665451467,
        0.0007620958494953811,
        0.007988100871443748,
        -0.0002909197937697172,
        -0.02973181940615177,
        -0.00020926592696923763,
        0.008534951135516167,
        -0.14594849944114685,
        -0.0007306445622816682,
        0.0026483084075152874,
        0.001975580584257841,
        0.0007877155439928174,
        0.0014331431593745947,
        -0.004924934357404709,
        -0.003061014926061034,
        0.0006819670088589191,
        -0.0014145978493615985,
        0.0018212173599749804,
        -0.007224247790873051,
        0.0005344116361811757,
        -0.12864680588245392,
        -0.001542991609312594,
        0.0027003143914043903,
        -0.004680894780904055,
        0.003242937847971916,
        0.0024947645142674446,
        -0.001904085511341691,
        0.0007749786018393934,
        0.0032007847912609577,
        0.0005439043743535876,
        -0.1619577407836914,
        0.004474409855902195,
        0.0024131827522069216,
        0.010843953117728233,
        -0.01613006927073002,
        -0.0005001656827516854,
        0.009279610589146614,
        0.005802800413221121,
        0.0024899791460484266,
        -0.0010908765252679586,
        0.00037082916242070496,
        0.00486408919095993,
        -0.057731371372938156,
        0.000637976685538888,
        -9.71380723058246e-06,
        0.005637825932353735,
        0.0011545656016096473,
        -0.0006299438537098467,
        -0.0008012836333364248,
        -0.0004012787248939276,
        -0.0002577620034571737,
        -0.004296726547181606,
        -0.00018639524932950735,
        0.0010221805423498154,
        0.030630875378847122,
        0.0005702109774574637,
        0.00028377212584018707,
        -0.0015958079602569342,
        -0.010560954920947552,
        -0.0005970305646769702,
        -5.3324172768043354e-05,
        -0.0014315468724817038,
        -0.0033404782880097628,
        -0.005961460527032614,
        -0.009892484173178673,
        0.0004065173852723092,
        -0.022287432104349136,
        0.024299846962094307,
        0.0015175074804574251,
        -0.0001909160055220127,
        -0.0016170318704098463,
        -0.006777913775295019,
        -0.0043144216760993,
        -2.9494307455024682e-05,
        -0.012246615253388882,
        -0.001242852071300149,
        0.014141549356281757,
        0.002310190349817276,
        0.0016314745880663395,
        0.004448586143553257,
        0.00048539883573539555,
        -2.97899532597512e-05,
        7.077056943671778e-05,
        -0.020044689998030663,
        -0.021555176004767418,
        0.007694750092923641,
        0.0002963525184895843,
        -0.003663176205009222,
        0.0008551938226446509,
        0.010326413437724113,
        0.004779748618602753,
        -0.0044637033715844154,
        0.0004653088399209082,
        0.0033279957715421915,
        0.0022418247535824776,
        0.000506156007759273,
        -0.0020136144012212753,
        -0.061514854431152344,
        0.02850927785038948,
        -0.0013061966747045517,
        -0.001977963373064995,
        0.0018877540715038776,
        -0.00981247890740633,
        0.0018636910244822502,
        -0.0317838229238987,
        0.0012705768458545208,
        -0.004445353988558054,
        0.0005307025858201087,
        -0.002261056797578931,
        -6.878519798192428e-08,
        0.005543230101466179,
        0.029204772785305977,
        -0.0009109165985137224,
        -0.009699245914816856,
        -0.00018736837955657393,
        -0.0012639546766877174,
        0.02264142595231533,
        -0.0037643166724592447,
        0.00099480792414397,
        0.0007804619381204247,
        0.0035898745991289616,
        0.0021418777760118246,
        0.002922500716522336,
        -0.0026513799093663692,
        -1.8123240806744434e-05,
        0.002327878726646304,
        -0.003355189459398389,
        -0.0008610837394371629,
        0.0015772120095789433,
        -0.004596638958901167,
        -0.003953772131353617,
        -0.0013358842115849257,
        -0.0011556926183402538,
        0.018405694514513016,
        -0.001229212968610227,
        0.007989799603819847,
        0.008173796348273754,
        0.010534919798374176
      ]
    },
    {
      "architecture": "normalization",
      "bias": [
        -0.012011651881039143,
        -0.02313316985964775,
        -0.006222901400178671,
        -0.012197001837193966,
        -0.0033661085180938244,
        -0.02505939081311226,
        -0.0341922752559185,
        -0.05944392830133438,
        -0.016938388347625732,
        -0.005297944415360689,
        -0.0012032752856612206,
        -0.0045761531218886375,
        -0.007041868753731251,
        -0.0016490691341459751,
        -0.01573055051267147,
        -0.005477689206600189,
        -0.0018686619587242603,
        -0.00913739949464798
      ],
      "weights": [
        20.1531982421875,
        38.36806869506836,
        50.37434005737305,
        31.072500228881836,
        41.56840133666992,
        35.930564880371094,
        28.1771183013916,
        22.091833114624023,
        41.21355056762695,
        42.04070281982422,
        34.34416580200195,
        47.635528564453125,
        32.67456817626953,
        38.97842025756836,
        26.20117950439453,
        43.02162170410156,
        34.4779167175293,
        30.213319778442383
      ]
    },
    {
      "activation": "rectified",
      "architecture": "dense",
      "bias": [
        0.0010561480885371566,
        0.00014380458742380142,
        -0.000474373169708997,
        0.0014696258585900068,
        0.021534213796257973,
        4.918950253340881e-06,
        1.5375886505353265e-05,
        -0.0005486737354658544,
        -0.008626936934888363,
        0.00021858399850316346,
        0.0004070261784363538,
        2.263639180455357e-05,
        0.0006471045780926943,
        0.00028752628713846207,
        -0.003960068337619305,
        0.001298546907491982
      ],
      "weights": [
        0.0016501244390383363,
        -0.01480750273913145,
        -0.0014133144868537784,
        -0.01698692888021469,
        -0.00040759629337117076,
        -0.0008655233541503549,
        4.048545451951213e-05,
        -0.005094466730952263,
        0.0300447978079319,
        0.000486548466142267,
        -0.010344692505896091,
        -0.012693316675722599,
        0.0032596809323877096,
        -0.0021072488743811846,
        0.006315089296549559,
        0.005256219767034054,
        0.0011033633491024375,
        -0.00347203784622252,
        0.012779809534549713,
        -0.0008088374161161482,
        0.0019087468972429633,
        0.0036074998788535595,
        0.005690538790076971,
        0.018925221636891365,
        0.0025651429314166307,
        0.0013314951211214066,
        -0.013250386342406273,
        0.00011528150935191661,
        -0.0004335198609624058,
        -0.0001287656050408259,
        -0.0014711591647937894,
        0.00042334539466537535,
        0.00037576700560748577,
        0.0010270641651004553,
        0.0017268807860091329,
        -0.0012697420315816998,
        -0.0010980451479554176,
        0.001536182127892971,
        -0.019205117598176003,
        -0.0006178937619552016,
        -0.00838085263967514,
        -0.013108933344483376,
        0.025165187194943428,
        -0.0021658947225660086,
        -0.0022413418628275394,
        -0.013752602972090244,
        -0.004176860675215721,
        -0.0003000491124112159,
        0.005725639406591654,
        -0.005594364367425442,
        -0.023531699553132057,
        -0.008892121724784374,
        -4.7554029151797295e-05,
        0.00039401609683409333,
        0.002030092990025878,
        -0.0015394083457067609,
        0.00019361783051863313,
        0.0008460397948510945,
        0.0004181359545327723,
        7.087429548846558e-05,
        -0.012947559356689453,
        0.0012062371242791414,
        -0.016453810036182404,
        -0.03526752442121506,
        0.0055105737410485744,
        -5.392283492255956e-05,
        0.00560289341956377,
        0.005996205378323793,
        0.0016166428104043007,
        -0.019308650866150856,
        -0.0003779390244744718,
        -0.001035293797031045,
        -0.00562311802059412,
        0.0007323977770283818,
        -0.0015384197467938066,
        -0.01938573271036148,
        -0.0007271390059031546,
        -0.012648031115531921,
        -0.0004186640144325793,
        -0.014263737015426159,
        0.0001704211754258722,
        -0.0015701582888141274,
        0.012823414988815784,
        -0.007453752215951681,
        -0.0017556337406858802,
        -0.004964300896972418,
        -0.016053317114710808,
        0.00019350544607732445,
        -0.007300552912056446,
        0.0034285224974155426,
        1.7171937543025706e-06,
        7.991054644662654e-07,
        -8.704312676854897e-06,
        8.538650035916362e-07,
        -4.74666194349993e-07,
        -6.249222678889055e-06,
        -2.403213102297741e-06,
        -1.4094779317019857e-06,
        2.009978379646782e-05,
        -6.063598902983358e-06,
        1.0200249107583659e-06,
        -1.056917153618997e-05,
        -1.2023841918562539e-05,
        -5.0361450121272355e-08,
        5.469499228638597e-06,
        9.532019248581491e-06,
        -9.295680683862884e-06,
        2.71915291705227e-06,
        -7.664310032851063e-06,
        2.9242369237181265e-06,
        -7.526708941441029e-06,
        -4.1868734115269035e-06,
        -1.7914891941472888e-05,
        -5.6273383961524814e-06,
        -1.411051744071301e-05,
        -8.296103260363452e-06,
        -2.6776657250593416e-05,
        1.3324963219929487e-05,
        -3.968598321080208e-06,
        -9.395572305948008e-06,
        -1.3268132533994503e-05,
        -1.773018539097393e-06,
        -7.545336302428041e-07,
        5.745809630752774e-06,
        5.108964614919387e-06,
        -1.743826396705117e-05,
        0.007487183436751366,
        -0.0006077751750126481,
        0.003129181917756796,
        -0.008736641146242619,
        0.012183074839413166,
        0.011981083080172539,
        -0.002783902222290635,
        -0.005306003615260124,
        0.0005100016132928431,
        0.006216832902282476,
        0.024542726576328278,
        -0.0023428325075656176,
        0.0005838631768710911,
        0.0011512924684211612,
        0.034309424459934235,
        0.009805887937545776,
        -4.8676138248993084e-05,
        -0.0002483544230926782,
        0.00023358975886367261,
        -0.0010709556518122554,
        -0.00014161900617182255,
        0.00047329944209195673,
        0.002016575774177909,
        -0.00016592566680628806,
        0.0019067957764491439,
        0.00032800360349938273,
        0.0004326679918449372,
        -0.0034764341544359922,
        0.0014555093366652727,
        0.01143648847937584,
        0.0006085899658501148,
        -0.0004262062138877809,
        -0.00023502370459027588,
        0.0007268727640621364,
        -0.0013671960914507508,
        0.0002678505261428654,
        -0.011525074020028114,
        -0.04240472614765167,
        -0.0014728927053511143,
        -0.0028608180582523346,
        0.0003283053811173886,
        2.0543164282571524e-05,
        -0.00952522549778223,
        0.0034981435164809227,
        -0.0015930066583678126,
        -0.006870576646178961,
        0.0198442991822958,
        0.003264510538429022,
        0.0002457313530612737,
        0.015945065766572952,
        0.002723508747294545,
        0.0006190543062984943,
        -0.0068490393459796906,
        0.0003176697646267712,
        -0.00013039317855145782,
        0.0026923585683107376,
        -0.020665019750595093,
        -0.0010886084055528045,
        0.01878749206662178,
        0.004826544318348169,
        -0.020508067682385445,
        -0.037305720150470734,
        0.0009334156638942659,
        0.01641942374408245,
        0.003710502991452813,
        -9.38395387493074e-05,
        0.0006479938747361302,
        -0.007209835574030876,
        0.0004528264980763197,
        -0.0027568433433771133,
        0.006185022182762623,
        -0.02479330450296402,
        -2.53595135291107e-06,
        1.0980506885971408e-05,
        1.50316882354673e-05,
        -1.53139353642473e-05,
        -1.0877529348363169e-06,
        -2.3200844225357287e-05,
        7.544986146967858e-08,
        2.834235147020081e-06,
        1.0039610060630366e-05,
        -6.829402991570532e-06,
        1.6764723113738e-05,
        -3.4457723359082593e-06,
        3.085617663600715e-06,
        -4.40350231656339e-06,
        1.4867744539515115e-05,
        -1.937424713105429e-06,
        -1.3506103641702794e-05,
        -1.4623308743466623e-05,
        -0.005997518543154001,
        0.009851581417024136,
        0.013333971612155437,
        0.004023413639515638,
        -0.005465830210596323,
        0.03789979964494705,
        -0.0011074200738221407,
        6.06345111009432e-07,
        -0.001548389787785709,
        0.0009935952257364988,
        0.002271689474582672,
        0.013311480171978474,
        -0.0002808651770465076,
        -0.00018717863713391125,
        -0.0009499177103862166,
        -0.0027944897301495075,
        -0.00888593029230833,
        0.011556282639503479,
        -0.0006234250031411648,
        0.006419374607503414,
        -0.0002059220423689112,
        -0.004660490900278091,
        -0.013357698917388916,
        0.01731378398835659,
        0.0023104744032025337,
        0.03340756520628929,
        -0.013081150129437447,
        -8.824365067994222e-06,
        -0.01776355877518654,
        -0.0002210910606663674,
        0.006925959140062332,
        0.00014813707093708217,
        -0.00032187291071750224,
        -0.002753367880359292,
        0.00014988469774834812,
        -0.002025744179263711,
        -0.023858588188886642,
        0.009990396909415722,
        0.004417034797370434,
        -0.0016937869368121028,
        0.00316632934845984,
        -0.001028198515996337,
        -0.011645671911537647,
        -0.0007880504126660526,
        -0.011939533054828644,
        0.0006847973563708365,
        -0.01180236041545868,
        -0.0196172297000885,
        0.01890805922448635,
        -0.005289217922836542,
        0.004576362669467926,
        -0.006837189197540283,
        -0.011322046630084515,
        -0.00864147488027811,
        -0.0007575661293230951,
        0.011943125165998936,
        0.006914335768669844,
        -0.0043050628155469894,
        -0.0010332559468224645,
        -0.000299655192065984,
        -0.012026956304907799,
        0.04153000935912132,
        -0.07619228959083557,
        0.009201514534652233,
        -0.00011717276356648654,
        -0.0013505835086107254,
        2.6178524421993643e-05,
        -0.0027601695619523525,
        0.0018868159968405962,
        0.0023922580294311047,
        -0.00047469744458794594,
        -0.005144812166690826
      ]
    },
    {
      "architecture": "normalization",
      "bias": [
        -0.0040246788412332535,
        -0.0016724858433008194,
        0.00247070356272161,
        -0.011695890687406063,
        -0.035978492349386215,
        -0.0002926914894487709,
        0.00028229269082657993,
        -0.01669304072856903,
        -0.00024413212668150663,
        -0.027041738852858543,
        -0.034836385399103165,
        -0.0003621635551098734,
        -0.0066783917136490345,
        -0.001275935210287571,
        -0.011924139223992825,
        -0.02970832586288452
      ],
      "weights": [
        39.19654083251953,
        32.32941818237305,
        58.12490463256836,
        45.81727981567383,
        25.22470474243164,
        14.892720222473145,
        15.626519203186035,
        40.14997482299805,
        77.42101287841797,
        35.270416259765625,
        32.52496337890625,
        15.304252624511719,
        40.86222839355469,
        54.30005645751953,
        39.26011657714844,
        33.86621856689453
      ]
    },
    {
      "activation": "rectified",
      "architecture": "dense",
      "bias": [
        0.05815160647034645,
        -8.794951099844184e-06,
        -1.157858787337318e-05,
        -8.515863555658143e-06,
        0.0003507712681312114,
        -0.0011133665684610605,
        1.919639771585935e-06,
        -0.0015565103385597467,
        0.005128438118845224,
        -1.3268965631141327e-05,
        -0.01746189594268799,
        -0.0007619454408995807,
        -1.1728730896720663e-05,
        -2.9032555175945163e-05
      ],
      "weights": [
        -0.01431023608893156,
        -0.00048679852625355124,
        0.014335313811898232,
        0.0017471818719059229,
        0.002643215237185359,
        -3.009838337675319e-06,
        1.8375900253886357e-05,
        -0.0074517079629004,
        0.008402686566114426,
        -0.0022618372458964586,
        -0.013728875666856766,
        -7.771858690830413e-06,
        -0.0063894581981003284,
        -0.00038163401768542826,
        0.001997934188693762,
        0.02948497049510479,
        8.2586284406716e-06,
        -1.4016571185493376e-05,
        -3.988757271145005e-06,
        1.2215051356179174e-05,
        3.0665532904095016e-06,
        3.908889084414113e-06,
        9.088896604225738e-07,
        7.114435902622063e-07,
        -2.576871565906913e-06,
        3.2235445814876584e-06,
        -2.6901698220171966e-06,
        7.309000011446187e-06,
        -3.012022716575302e-06,
        1.2004526070086285e-05,
        9.542318366584368e-07,
        -5.713854534405982e-06,
        -1.4542052667820826e-05,
        -5.54685448150849e-06,
        -3.1076770028448664e-06,
        9.184496775560547e-06,
        -2.313563527422957e-06,
        1.5344585335697047e-06,
        2.924439286289271e-06,
        -1.2013509149255697e-05,
        -5.285246515995823e-06,
        -1.6598654838162474e-05,
        -4.667467237595702e-06,
        -3.5938228393206373e-07,
        3.2406544505647616e-06,
        1.8837417883332819e-06,
        1.6758021956775337e-06,
        -5.168980351299979e-06,
        2.8371418920869473e-06,
        3.0993605832918547e-06,
        -1.1817196536867414e-05,
        -1.432355202268809e-05,
        -4.204269316687714e-06,
        7.0204960138653405e-06,
        -3.991241101175547e-06,
        3.7740610423497856e-06,
        4.484586042963201e-06,
        2.914910510298796e-06,
        -2.495566150173545e-06,
        8.113163858070038e-06,
        -4.172366971033625e-06,
        -4.948595687892521e-06,
        1.1710275430232286e-05,
        5.186703674553428e-06,
        -0.0052933418191969395,
        -0.015149511396884918,
        0.00025315143284387887,
        0.012017261236906052,
        -0.005787852685898542,
        6.684945401502773e-05,
        -5.640223389491439e-05,
        0.014033304527401924,
        -0.004579803440719843,
        0.01588478684425354,
        0.0009301568497903645,
        0.00015370787878055125,
        -0.0001627809542696923,
        0.006113535258919001,
        0.0159013569355011,
        0.00013146288983989507,
        -0.0016269625630229712,
        0.0037356195971369743,
        0.009144543670117855,
        0.0068129245191812515,
        -0.0336768813431263,
        2.3207347112474963e-05,
        -4.979314689990133e-05,
        0.0015084374463185668,
        0.0009434325620532036,
        -6.404086161637679e-05,
        -0.004559536464512348,
        8.839074871502817e-05,
        0.020424477756023407,
        0.018755322322249413,
        -0.010838950052857399,
        0.012071289122104645,
        2.6242310013913084e-07,
        -7.69778671383392e-06,
        -2.180746196245309e-05,
        1.4363467926159501e-06,
        5.860662895429414e-06,
        4.98358122058562e-06,
        4.601964064931963e-06,
        1.3190228855819441e-05,
        4.8225415412161965e-06,
        -5.795151082566008e-06,
        6.702095106447814e-06,
        9.037940799316857e-06,
        -7.530911261710571e-06,
        -2.044512029897305e-06,
        -2.2484380679088645e-05,
        -1.0030614703282481e-06,
        0.015658829361200333,
        0.0008743418729864061,
        -0.0209298487752676,
        -0.027373895049095154,
        0.0004909700364805758,
        -4.202267882646993e-05,
        4.349005757831037e-05,
        -0.02145874872803688,
        0.0061187236569821835,
        0.001327748061157763,
        0.041151173412799835,
        -5.0747326895361766e-05,
        -0.0006924933404661715,
        -0.005006603896617889,
        0.003486608387902379,
        -0.011996975168585777,
        0.0072491043247282505,
        0.0076990691013634205,
        0.004296763800084591,
        -0.003086663084104657,
        -0.000613671145401895,
        -2.8293887226027437e-05,
        1.9067823814111762e-05,
        0.004547236021608114,
        0.0020143711008131504,
        0.00272519513964653,
        -0.004071695264428854,
        -7.970857950567733e-06,
        0.0001463725493522361,
        0.0008272750419564545,
        -0.008316947147250175,
        -0.02326876111328602,
        -9.322406185674481e-06,
        4.72621923108818e-06,
        4.36459686170565e-06,
        2.163268072763458e-05,
        -1.0530670806474518e-05,
        1.5670175343984738e-05,
        5.243308805802371e-06,
        -2.353468516957946e-05,
        3.5529287742974702e-06,
        -7.323171303141862e-06,
        -1.3759541616309434e-05,
        -1.3340997611521743e-05,
        -1.6696475313437986e-06,
        1.5894611351541243e-06,
        1.526047708466649e-05,
        1.4536401977238711e-05,
        -0.009908387437462807,
        0.00121144182048738,
        -0.0002492406638339162,
        0.0010348872747272253,
        -0.001039128634147346,
        4.072765023011016e-06,
        -5.471656550071202e-08,
        0.004049527924507856,
        0.0056051164865493774,
        0.00841632392257452,
        -0.0027980972081422806,
        3.3057749533327296e-06,
        0.008908445946872234,
        -0.003492525778710842,
        0.0003723891277331859,
        0.0032174407970160246,
        0.0016727776965126395,
        0.00025448048836551607,
        -0.0011289825197309256,
        -0.009827375411987305,
        0.00016774502000771463,
        2.6315079594496638e-05,
        5.292936293699313e-06,
        -0.020920485258102417,
        -0.0012232566950842738,
        -0.030980003997683525,
        0.00821955781430006,
        -8.176784467650577e-05,
        0.0017431575106456876,
        0.000684980652295053,
        0.019404591992497444,
        0.0008322963840328157,
        -4.137499445278081e-07,
        9.04146691027563e-06,
        5.311380391503917e-06,
        -2.012135519180447e-05,
        1.4279652532422915e-05,
        -1.1311086382193025e-05,
        -4.176791662757751e-06,
        1.5941048332024366e-05,
        1.63960885402048e-05,
        -1.1868769433931448e-07,
        1.1285505024716258e-05,
        -4.877494120592019e-06,
        3.5857824514096137e-06,
        5.088300895295106e-06,
        4.16842976846965e-06,
        6.47462820779765e-06,
        5.809992217109539e-06,
        -2.164769648516085e-05,
        2.915342520282138e-06,
        1.3881376617064234e-06,
        1.4959440704842564e-05,
        -6.006080184306484e-06,
        -7.778122380841523e-06,
        -7.691213795624208e-06,
        -1.8816377632902004e-05,
        -3.4182330637122504e-06,
        -5.21702258993173e-06,
        6.7471210059011355e-06,
        -9.881696314550936e-07,
        -2.1232197468634695e-05,
        1.0365711204940453e-05,
        2.5510873911116505e-06
      ]
    },
    {
      "architecture": "normalization",
      "bias": [
        -0.023437511175870895,
        -0.0002567237534094602,
        -0.00026124666328541934,
        -0.00026716175489127636,
        -0.0017587858019396663,
        -0.027909979224205017,
        -0.0002657590957824141,
        -0.02973812445998192,
        -0.031246576458215714,
        0.00039486915920861065,
        -0.0006119414465501904,
        -0.011376773938536644,
        -0.0003911888343282044,
        0.0003672188031487167
      ],
      "weights": [
        17.575231552124023,
        9.772123336791992,
        8.959601402282715,
        10.389435768127441,
        40.39836883544922,
        25.325841903686523,
        9.796335220336914,
        22.672456741333008,
        30.983774185180664,
        6.790027618408203,
        68.2825698852539,
        34.198204040527344,
        9.014413833618164,
        7.727266311645508
      ]
    },
    {
      "activation": "rectified",
      "architecture": "dense",
      "bias": [
        -0.03312157467007637,
        7.074644236126915e-05,
        -0.013229843229055405,
        -0.00010253016807837412,
        0.02752022258937359,
        6.837329237896483e-06,
        -1.0215139809588436e-05,
        -5.463000888994429e-06,
        -1.3049323115410516e-06,
        0.010920322500169277
      ],
      "weights": [
        -0.03669368475675583,
        -3.0261209758464247e-05,
        9.328774467576295e-06,
        -2.943850813608151e-05,
        -0.0002074047370115295,
        0.00030127473291940987,
        -2.225227581220679e-05,
        0.024417694658041,
        0.003385897958651185,
        -8.590477591496892e-06,
        -0.00013617929653264582,
        -0.004269735887646675,
        6.021913941367529e-05,
        4.307010749471374e-05,
        -1.4862639545754064e-06,
        -4.368580448499415e-07,
        2.257020605611615e-05,
        -5.4064366850070655e-06,
        -1.4039392226550262e-06,
        -2.4330329324584454e-05,
        8.827416877466021e-07,
        4.2228217353112996e-05,
        -3.600947093218565e-05,
        1.9360322767170146e-07,
        6.202391887200065e-06,
        -2.7819523893413134e-06,
        -8.579786481277552e-06,
        -2.511113962100353e-06,
        0.008159159682691097,
        -1.6955607861746103e-05,
        -2.0316565496614203e-05,
        -4.921060462947935e-05,
        -0.0019372511887922883,
        -0.008893745020031929,
        -1.7760956325219013e-05,
        0.00015498966968152672,
        0.006194715388119221,
        3.129872857243754e-05,
        -9.189950651489198e-05,
        0.01625499129295349,
        -2.144974860129878e-05,
        5.692285412806086e-05,
        -0.004119778983294964,
        -1.101395992009202e-05,
        -1.7093658243538812e-05,
        -1.8377237211097963e-05,
        -0.000184047210495919,
        0.0011279465397819877,
        -1.0232987733616028e-05,
        0.016470935195684433,
        0.025969576090574265,
        3.848149935947731e-05,
        0.0007393498672172427,
        -0.0016195630887523293,
        -2.0834664610447362e-05,
        5.506530214915983e-06,
        0.020441554486751556,
        -4.420428922458086e-06,
        9.356609552924056e-06,
        1.1194902981515042e-05,
        0.006640852894634008,
        -0.017454851418733597,
        -5.078290996607393e-06,
        -0.01249735988676548,
        -0.002994963899254799,
        -1.949747820617631e-05,
        -0.0115622254088521,
        0.01168166846036911,
        7.673182153666858e-06,
        1.408269235980697e-05,
        1.4875935448799282e-05,
        1.062239425664302e-05,
        -4.1167163544741925e-06,
        1.063955915014958e-05,
        1.07449886854738e-05,
        -3.011966782651143e-06,
        3.9091287362680305e-06,
        1.1708200872817542e-05,
        -2.7216192393098027e-05,
        5.079950369690778e-06,
        7.639251634827815e-06,
        -7.479075975425076e-06,
        -4.002316927653737e-06,
        7.428500794048887e-06,
        -2.602114363980945e-07,
        -7.5212051342532504e-06,
        -1.2734678421111312e-05,
        -8.401143531955313e-07,
        -1.470348252041731e-06,
        3.467160240688827e-06,
        -3.2176569675357314e-06,
        3.6260057640902232e-06,
        5.704857812816044e-06,
        -5.321781827660743e-06,
        2.6179470751230838e-06,
        1.3221937479102053e-05,
        6.406254215107765e-06,
        -8.468003215966746e-06,
        1.003917077468941e-05,
        2.0779161786776967e-06,
        1.4738287063664757e-05,
        -6.229945029190276e-06,
        -3.8205871533136815e-06,
        8.252857696788851e-06,
        -6.430786470446037e-06,
        7.477273811673513e-06,
        -1.0847410521819256e-05,
        -9.79609558271477e-06,
        -4.027615432278253e-07,
        8.326422175741754e-06,
        -7.109921170922462e-06,
        7.768718205625191e-06,
        -2.9886577976867557e-06,
        6.8551562435459346e-06,
        -5.189974672248354e-06,
        -6.422029855457367e-06,
        -5.94321136304643e-07,
        4.0155782699002884e-06,
        4.69302358396817e-06,
        -6.6586558205017354e-06,
        -1.0380136700405274e-05,
        2.29930901696207e-06,
        -1.973590042325668e-05,
        1.4241213648347184e-06,
        -5.457752195070498e-06,
        2.1082814782857895e-06,
        -0.020927391946315765,
        -8.848439028952271e-05,
        -9.014009265229106e-05,
        -4.802523471880704e-05,
        -0.016748087480664253,
        -0.01765105500817299,
        -8.480954420519993e-05,
        -0.0003282902471255511,
        -0.015475794672966003,
        8.378332859138027e-05,
        -0.000421228411141783,
        0.0035332394763827324,
        -0.0001050728460540995,
        6.085664426791482e-05
      ]
    },
    {
      "architecture": "normalization",
      "bias": [
        -0.0013409208040684462,
        0.00025520185590721667,
        -9.160581976175308e-05,
        -0.0051545691676437855,
        0.009068071842193604,
        -1.3417129594017752e-05,
        -6.817575922468677e-05,
        0.0001876715978141874,
        5.2498140576062724e-05,
        -0.008895537815988064
      ],
      "weights": [
        142.59555053710938,
        13.718828201293945,
        45.47420120239258,
        43.37411117553711,
        20.587480545043945,
        13.7821626663208,
        14.078569412231445,
        13.340723991394043,
        13.518095970153809,
        39.188926696777344
      ]
    },
    {
      "activation": "rectified",
      "architecture": "dense",
      "bias": [
        -7.300453489733627e-06,
        -0.0003554896102286875,
        0.00527574960142374,
        -3.755127181648277e-05,
        0.0003332629567012191
      ],
      "weights": [
        2.5877388907247223e-06,
        -8.884764611138962e-06,
        1.1864412954309955e-05,
        -4.375009302748367e-05,
        -4.6961566113168374e-05,
        -1.9226067706767935e-06,
        2.3538677851320244e-06,
        9.65820845522103e-07,
        -1.1035938769055065e-05,
        -1.5874282325967215e-05,
        0.0050351605750620365,
        4.4812390115112066e-05,
        -3.2768730306997895e-06,
        0.012055400758981705,
        -0.0006238686037249863,
        -1.4850636944174767e-05,
        1.8256832845509052e-06,
        1.1764232112909667e-05,
        8.629189323983155e-06,
        0.0009454269311390817,
        0.03818690404295921,
        -0.00011174642713740468,
        -0.0014535000082105398,
        0.005205780733376741,
        -0.0009673057356849313,
        -3.1038782708492363e-06,
        1.0135317097592633e-05,
        4.458707189769484e-05,
        -2.4160817702068016e-05,
        0.019915767014026642,
        5.805077307741158e-07,
        5.093316303828033e-06,
        -6.315650352917146e-06,
        2.5419027224415913e-05,
        -4.523709139903076e-05,
        9.500488431513077e-07,
        -4.748724677483551e-06,
        -6.673169536952628e-07,
        6.303994268819224e-06,
        6.089125236030668e-06,
        0.0003071941900998354,
        -1.6567546481383033e-05,
        0.011204478330910206,
        -0.012366978451609612,
        0.044040657579898834,
        -6.0856145864818245e-06,
        1.6904959920793772e-07,
        9.87431121757254e-06,
        -4.923129381495528e-06,
        -0.007460062392055988
      ]
    },
    {
      "architecture": "normalization",
      "bias": [
        -0.32280588150024414,
        0.0010397767182439566,
        -0.0029044703114777803,
        -0.3417168855667114,
        -0.0619940347969532
      ],
      "weights": [
        0.3927627205848694,
        53.02136993408203,
        56.096214294433594,
        0.3765285611152649,
        50.55549621582031
      ]
    },
    {
      "activation": "sigmoid",
      "architecture": "dense",
      "bias": [
        -0.1335047483444214
      ],
      "weights": [
        0.7996768355369568,
        -1.1721678972244263,
        -1.905161738395691,
        0.910961389541626,
        2.3079779148101807
      ]
    }
  ],
  "outputs": [
    "dnn_contained_top_m200"
  ]
}
