{
  "defaults": {},
  "inputs": [
    {
      "name": "Tau1_wta",
      "offset": -0.09727637469768524,
      "scale": 11.275962730388445
    },
    {
      "name": "Tau2_wta",
      "offset": -0.041718751192092896,
      "scale": 27.129498654669817
    },
    {
      "name": "Tau3_wta",
      "offset": -0.023613877594470978,
      "scale": 47.18250203320232
    },
    {
      "name": "Tau21_wta",
      "offset": -0.46814239025115967,
      "scale": 6.075509055432015
    },
    {
      "name": "Tau32_wta",
      "offset": -0.5492136478424072,
      "scale": 5.827737128915097
    },
    {
      "name": "Split12",
      "offset": -116132.375,
      "scale": 7.195561417939344e-06
    },
    {
      "name": "Split23",
      "offset": -38014.640625,
      "scale": 2.8118470144335624e-05
    },
    {
      "name": "Qw",
      "offset": -78282.421875,
      "scale": 1.6459330537304558e-05
    },
    {
      "name": "C2",
      "offset": -0.11187451332807541,
      "scale": 15.322403578073546
    },
    {
      "name": "D2",
      "offset": -2.470308780670166,
      "scale": 0.14385381615415457
    },
    {
      "name": "e3",
      "offset": -0.0014510855544358492,
      "scale": 291.62476467841117
    },
    {
      "name": "JetpTCorrByCombinedMass",
      "offset": -2114015.75,
      "scale": 1.0003942803957609e-06
    },
    {
      "name": "CaloTACombinedMassUncorrelated",
      "offset": -239864.40625,
      "scale": 4.467212648465893e-06
    }
  ],
  "layers": [
    {
      "activation": "rectified",
      "architecture": "dense",
      "bias": [
        0.003455383237451315,
        -6.081141236791154e-06,
        0.0009077240829356015,
        -0.014791789464652538,
        -0.005590222310274839,
        0.011193107813596725,
        -0.0015431378269568086,
        -0.005368785932660103,
        -0.004790557082742453,
        0.012717017903923988,
        0.003516509896144271,
        0.001443321700207889,
        -0.0066689373925328255,
        -0.004449151922017336,
        -2.7892741854884662e-05,
        0.0008407912100665271,
        -0.0013987571001052856,
        0.0020167503971606493
      ],
      "weights": [
        -0.005355324130505323,
        3.431262302910909e-05,
        0.002036052057519555,
        0.003979540430009365,
        0.000739897892344743,
        0.002401472069323063,
        -0.0006403435254469514,
        -0.00010721036960603669,
        -0.01885100081562996,
        -0.00011400869698263705,
        0.005000073928385973,
        0.0007334481924772263,
        0.010210786946117878,
        -0.0007662668358534575,
        6.588735413970426e-05,
        -0.00038696007686667144,
        -0.0011940877884626389,
        0.0010812681866809726,
        -0.004738111048936844,
        -0.0032563158310949802,
        0.00524405250325799,
        -0.005101104266941547,
        0.00028248343733139336,
        0.0026625522878021,
        0.0035915852058678865,
        -0.09664943814277649,
        -0.0001968675060197711,
        -0.0012442131992429495,
        -0.00022628383885603398,
        -0.002157089300453663,
        -0.00291071436367929,
        0.0025166550185531378,
        -0.0016907884273678064,
        0.01667034812271595,
        0.0009739723755046725,
        -0.0046777366660535336,
        0.00018289258878212422,
        -0.005080304108560085,
        -0.004034469835460186,
        -7.829350943211466e-05,
        -7.849409485061187e-06,
        0.0059672631323337555,
        0.0009444432216696441,
        0.0003854128299281001,
        -0.0034305844455957413,
        -0.0014451822498813272,
        -3.0779483495280147e-06,
        -0.02450466714799404,
        -0.0005295104929246008,
        -3.542692502378486e-05,
        0.0059287515468895435,
        0.006638829596340656,
        -0.01830916851758957,
        -0.004667534492909908,
        -0.0037278460804373026,
        0.003824726678431034,
        -0.0005478106904774904,
        -0.01124208327382803,
        0.0009125846554525197,
        -0.00012622104259207845,
        0.0015131124528124928,
        -0.00011065020953537896,
        0.008448589593172073,
        0.0031814456451684237,
        0.009243964217603207,
        0.0013430234976112843,
        0.0014448189176619053,
        -0.003142847679555416,
        0.0019372691167518497,
        0.0011696575675159693,
        -0.0003866779734380543,
        -0.0015742535470053554,
        0.0002748552360571921,
        0.004632836673408747,
        -0.05052445828914642,
        -0.0015979524469003081,
        0.007787264883518219,
        -0.016502484679222107,
        0.0035857053007930517,
        -0.019010653719305992,
        0.009529441595077515,
        1.0386083886260167e-05,
        0.005062636453658342,
        -0.00014921701222192496,
        5.4367072152672336e-05,
        0.003501908155158162,
        0.0005761680658906698,
        -3.347247911733575e-05,
        -0.00023182781296782196,
        -0.003733353689312935,
        -0.000593018252402544,
        -0.0001268065389012918,
        1.2322980182943866e-05,
        -0.0006008680793456733,
        0.0014454066986218095,
        0.0030297408811748028,
        0.0013625533320009708,
        0.00021969096269458532,
        -0.0002777103800326586,
        -0.00012434006202965975,
        0.0005214094999246299,
        0.000829130585771054,
        0.003983333706855774,
        -0.06946959346532822,
        -0.03381649777293205,
        -0.012720786966383457,
        0.009729915298521519,
        -0.0004548729630187154,
        0.00012677519407588989,
        0.011277968063950539,
        -0.0009190405253320932,
        -0.0009222282096743584,
        0.0004377522855065763,
        -6.432522786781192e-05,
        0.004112205933779478,
        -0.0031339277047663927,
        -4.727228588308208e-05,
        0.009268318302929401,
        0.0009014873066917062,
        0.0001121611931012012,
        0.001578340888954699,
        -0.0005266240332275629,
        -0.0074204555712640285,
        -0.00042378954822197556,
        0.0028245665598660707,
        0.004568204749375582,
        0.0001485990796936676,
        -0.0030061237048357725,
        0.005817038007080555,
        0.00881246943026781,
        -0.0017878179205581546,
        -9.305607818532735e-05,
        -0.0005930854822508991,
        -0.0006865001632831991,
        0.00022698566317558289,
        0.007249290123581886,
        0.003263375721871853,
        -0.0038002540823072195,
        0.013436410576105118,
        7.299961453099968e-07,
        -0.007887517102062702,
        0.006235646549612284,
        -0.024081425741314888,
        -4.766132769873366e-05,
        0.0020837418269366026,
        -0.0032184412702918053,
        -0.005570818204432726,
        -0.008824040181934834,
        0.0008821579394862056,
        0.0031171287409961224,
        0.0012231293367221951,
        0.0007720017456449568,
        -0.003633164567872882,
        -0.0005188987124711275,
        -0.006258687004446983,
        -2.550388489908073e-05,
        -2.1088222638354637e-05,
        0.003457938553765416,
        0.004283095709979534,
        0.0025842348113656044,
        0.00048488506581634283,
        -4.250199344824068e-05,
        -0.0026199209969490767,
        0.0003363892319612205,
        0.005975574254989624,
        -0.01235032919794321,
        -0.009782004170119762,
        -2.745701203821227e-05,
        -0.04782351851463318,
        -0.012580929324030876,
        0.002665390959009528,
        -0.003994327504187822,
        0.002524189418181777,
        0.0015931975794956088,
        0.002764779143035412,
        0.00047503423411399126,
        -0.0015629432164132595,
        0.0035172090865671635,
        -0.06206674501299858,
        0.0023854447063058615,
        0.000484956573927775,
        0.0025427606888115406,
        0.00016194242925848812,
        2.6352803615736775e-05,
        0.004452321212738752,
        -0.005361840128898621,
        -8.136147516779602e-05,
        -0.003035802161321044,
        0.0001200319456984289,
        -0.0073089138604700565,
        -0.003174682380631566,
        8.400392107432708e-05,
        -0.0006660539656877518,
        -0.013133460655808449,
        0.007971493527293205,
        1.495254400651902e-05,
        -0.0058651277795434,
        -0.003978585358709097,
        -0.004624660592526197,
        7.520473445765674e-05,
        -0.0034831692464649677,
        0.0034070576075464487,
        -0.00392718892544508,
        0.005150601267814636,
        -0.00010349518561270088,
        -0.005233318079262972,
        0.0062296208925545216,
        0.007908462546765804,
        -0.005646516103297472,
        -0.0006924418266862631,
        -0.0009352718479931355,
        0.0019627476576715708,
        0.0005513412179425359,
        -0.006939512677490711,
        -0.00023737427545711398,
        0.00010872284474316984,
        0.006168566644191742,
        -5.6913093430921435e-05,
        1.866207276179921e-05,
        -0.008235451765358448,
        0.004013745114207268,
        -0.001712427707388997,
        -0.0006468594656325877,
        0.01177123375236988,
        0.0013535905163735151,
        -0.0008241458563134074,
        0.002233931329101324,
        0.003024486592039466,
        -0.004319231491535902,
        0.0018213505391031504,
        2.45901301241247e-05,
        -1.1097694368800148e-05,
        0.01279502920806408,
        0.0018332048784941435
      ]
    },
    {
      "architecture": "normalization",
      "bias": [
        -0.006997530348598957,
        -0.018779926002025604,
        -0.0018877761904150248,
        -0.005285017658025026,
        -0.0011965539306402206,
        -0.008508866652846336,
        -0.006254781968891621,
        -0.019681274890899658,
        -0.003944884520024061,
        -0.012988485395908356,
        -0.002139219082891941,
        -0.0074510034173727036,
        -0.00046869926154613495,
        -0.00021676660981029272,
        -0.007961126044392586,
        0.0026788567192852497,
        -0.00543998135253787,
        -0.014767920598387718
      ],
      "weights": [
        32.787841796875,
        24.81551170349121,
        27.886600494384766,
        38.07016372680664,
        34.70063018798828,
        34.269718170166016,
        31.241859436035156,
        30.97291374206543,
        31.377965927124023,
        31.042329788208008,
        32.63347625732422,
        33.5203857421875,
        28.773197174072266,
        33.37318801879883,
        34.50326919555664,
        30.312837600708008,
        38.01306915283203,
        31.19276237487793
      ]
    },
    {
      "activation": "rectified",
      "architecture": "dense",
      "bias": [
        -0.00019390838860999793,
        -8.19819833850488e-05,
        -4.005190021416638e-06,
        0.0016672094352543354,
        -0.00202980637550354,
        -0.004938190337270498,
        0.0016609212616458535,
        0.0008206503698602319,
        -0.0053954049944877625,
        0.0009813954820856452,
        -6.751971523044631e-05,
        -0.00022350772633217275,
        -0.0009807351743802428,
        -0.005282266531139612,
        0.0025047471281141043,
        -0.0086003253236413
      ],
      "weights": [
        -0.008361793123185635,
        0.019284117966890335,
        -0.004752520937472582,
        -0.0029374791774898767,
        0.0006581488414667547,
        6.206165380717721e-06,
        0.002798426430672407,
        0.0015227545518428087,
        0.002932911738753319,
        -5.7285211369162425e-05,
        -9.430736827198416e-05,
        -0.0034239136148244143,
        0.0048598614521324635,
        -0.003023392055183649,
        0.0018432552460581064,
        0.006349838804453611,
        1.8258040654473007e-05,
        0.001952282153069973,
        -3.322618795209564e-05,
        -5.156632687430829e-05,
        0.036619607359170914,
        5.273284841678105e-05,
        6.15893368376419e-05,
        0.005411542486399412,
        -0.00301686255261302,
        -0.0007014958537183702,
        0.05960581451654434,
        -1.6514897652086802e-05,
        -0.00519108772277832,
        0.00016578398935962468,
        4.3151703721378e-05,
        -9.64701575867366e-06,
        -2.6424124371260405e-05,
        0.0028594324830919504,
        -0.0001910584105644375,
        -1.4138461665424984e-05,
        0.007249126210808754,
        0.03065832331776619,
        0.021193835884332657,
        0.00649969233199954,
        -3.612380623962963e-06,
        0.009956032037734985,
        3.868191197398119e-05,
        -0.052471328526735306,
        -0.0038390629924833775,
        0.005524806212633848,
        0.004231169354170561,
        -0.013892858289182186,
        0.00026924116536974907,
        3.305995051050559e-05,
        -0.003002904122695327,
        -0.005103885196149349,
        -7.2136244853027165e-06,
        0.0009886148618534207,
        -0.0014492855407297611,
        0.0014409946743398905,
        -0.00859927386045456,
        0.005090678576380014,
        0.003797648474574089,
        -0.003248588414862752,
        0.0031081857159733772,
        -0.021468419581651688,
        0.00204466306604445,
        -0.007984932512044907,
        0.0021038318518549204,
        -0.0029371180571615696,
        -0.002262321999296546,
        -2.445639984216541e-05,
        0.010306194424629211,
        0.005707820877432823,
        0.0010953685268759727,
        -0.0035862296354025602,
        -0.002511623315513134,
        -0.001131168333813548,
        0.0010550357401371002,
        -0.004484960809350014,
        0.007089370395988226,
        -0.0017032574396580458,
        9.276073251385242e-05,
        -0.003638884285464883,
        0.007506791036576033,
        -0.003074853215366602,
        0.0006667404086329043,
        -0.0005345320678316057,
        -0.0003899748844560236,
        0.02585015445947647,
        0.003882419550791383,
        -0.002947996137663722,
        0.005556692834943533,
        -0.000698650605045259,
        0.0028226226568222046,
        0.0008009475423023105,
        0.00028223145636729896,
        -0.0019252441124990582,
        0.007095406763255596,
        0.004500934854149818,
        0.001686147996224463,
        8.894174970919266e-05,
        0.0011508765164762735,
        0.00726493913680315,
        0.00325938337482512,
        0.000908569258172065,
        7.500177889596671e-05,
        -6.921769090695307e-05,
        0.005920959636569023,
        -0.003033106680959463,
        0.0024834848009049892,
        -0.003421623492613435,
        -0.0003330781764816493,
        0.01808292418718338,
        0.0034878277219831944,
        -0.0036990204825997353,
        0.00015697290655225515,
        0.0010429456597194076,
        6.976367149036378e-05,
        -1.7151518477476202e-05,
        0.001904175034724176,
        -0.0007821889594197273,
        -0.0025451425462961197,
        0.005649118218570948,
        0.005109285935759544,
        0.00018973505939356983,
        0.001923846546560526,
        0.00048428759328089654,
        0.002366540255025029,
        -0.0023488453589379787,
        0.0014086335431784391,
        0.0009060874581336975,
        0.0006505140336230397,
        -3.70888265024405e-05,
        -0.0016644512070342898,
        0.003236556425690651,
        0.006147022824734449,
        -0.001278876792639494,
        0.0001157789010903798,
        -0.003965113777667284,
        0.0009282938553951681,
        -0.0019095763564109802,
        -0.005875903181731701,
        -0.0068217008374631405,
        -0.0026561070699244738,
        0.006254496052861214,
        0.0025124389212578535,
        -0.003181376028805971,
        0.0013683888828381896,
        -1.613620224816259e-05,
        0.016418324783444405,
        6.827432662248611e-05,
        0.00011235623242100701,
        -9.982148912968114e-05,
        0.003211013274267316,
        0.010809100233018398,
        0.0066076042130589485,
        1.22022911455133e-05,
        -6.575714360224083e-05,
        -8.698480087332428e-05,
        -0.0007242952124215662,
        -0.0005064998986199498,
        0.004919553641229868,
        -0.0022933438885957003,
        0.0014828480780124664,
        0.0007423294591717422,
        0.00042647638474591076,
        2.674997813301161e-05,
        0.00013239173858892173,
        0.004311287309974432,
        -0.0008179378928616643,
        -0.00023203424643725157,
        0.0010817167349159718,
        -0.004522673320025206,
        -0.000649386434815824,
        -0.003116265404969454,
        -0.014421718195080757,
        -0.0004848412936553359,
        -0.0002639504964463413,
        4.676284333982039e-06,
        0.0037499847821891308,
        0.002413156908005476,
        -0.004463847726583481,
        -0.001506892149336636,
        0.002736341208219528,
        -0.0034614182077348232,
        -0.00020785650121979415,
        -0.0002661153848748654,
        0.0007247749017551541,
        -0.0024748791474848986,
        -8.800030627753586e-05,
        -0.01629560999572277,
        -5.532601062441245e-05,
        -0.003908311016857624,
        -5.6320590374525636e-05,
        0.0037688501179218292,
        0.031456779688596725,
        -1.0008654498960823e-05,
        -0.0034666967112571,
        0.004732126370072365,
        -7.041860226308927e-05,
        -0.012213373556733131,
        0.0008344966918230057,
        -0.003139990149065852,
        0.019299237057566643,
        2.0217676137690432e-05,
        9.535377466818318e-05,
        -0.002056378172710538,
        0.0012856497196480632,
        0.0024100388400256634,
        1.1954689398407936e-05,
        0.0041456567123532295,
        -0.001944825635291636,
        -0.005595313385128975,
        0.0024203781504184008,
        0.001426022150553763,
        -0.0048539419658482075,
        0.00025901952176354825,
        -0.00019773795793298632,
        -5.173511090106331e-05,
        0.004615952260792255,
        0.00033146628993563354,
        0.0028668763116002083,
        0.00270482013002038,
        0.008367610163986683,
        -0.00022532833099830896,
        -0.0028874112758785486,
        -0.0033606786746531725,
        0.0018700766377151012,
        -0.006869829725474119,
        -0.008627685718238354,
        -4.488179911277257e-05,
        0.0026826264802366495,
        0.0002758678747341037,
        -0.0004416512092575431,
        -0.007036733441054821,
        0.01108015887439251,
        -0.0009182439534924924,
        -0.0022402009926736355,
        -0.0013109378051012754,
        -0.005320970434695482,
        3.450626536505297e-05,
        0.02871362864971161,
        0.0003423209418542683,
        1.2030574907839764e-05,
        -0.0003482412430457771,
        0.00298346858471632,
        -0.006186529062688351,
        -1.0525725883780979e-05,
        -0.0018087589414790273,
        3.532081609591842e-05,
        -3.346310040797107e-05,
        0.006867242511361837,
        -1.0807220860442612e-05,
        0.001500638434663415,
        0.00018023228039965034,
        -0.0014886289136484265,
        -0.004772727843374014,
        0.002114748815074563,
        -0.002071843482553959,
        -0.0007313007372431457,
        -0.003597201080992818,
        2.2905262085259892e-05,
        -0.008750325068831444,
        5.851168680237606e-06,
        0.003922977484762669,
        0.0025287203025072813,
        -0.0030806304421275854,
        -1.4133273907646071e-05,
        -0.00955866277217865,
        0.00012269608851056546,
        0.007335476577281952,
        -9.297042561229318e-05,
        -0.005032902583479881,
        -0.019606420770287514,
        -0.0022958924528211355,
        -3.8396796298911795e-05,
        -0.01691422238945961,
        6.574667349923402e-05,
        0.03110315650701523,
        0.00078435247996822,
        0.0009044727776199579,
        0.00047027174150571227,
        0.001519176410511136,
        0.00866150762885809,
        0.0011741988128051162,
        0.003107906086370349,
        0.01248941384255886,
        0.001498972880654037,
        3.023934186785482e-05,
        -0.004506382625550032,
        4.037829421577044e-05
      ]
    },
    {
      "architecture": "normalization",
      "bias": [
        -0.008384615182876587,
        -0.011557575315237045,
        -0.011540998704731464,
        -0.004234157502651215,
        -0.007619665469974279,
        -0.011835851706564426,
        -0.007789445575326681,
        0.005473438650369644,
        -0.006669030990451574,
        0.0033224031794816256,
        -0.009096186608076096,
        -0.003417370840907097,
        0.0006614779704250395,
        -0.00189135130494833,
        -0.0124378502368927,
        -0.005868243984878063
      ],
      "weights": [
        32.9647331237793,
        30.183349609375,
        29.74339485168457,
        33.959136962890625,
        33.85282897949219,
        33.06476593017578,
        35.40647506713867,
        33.7980842590332,
        32.35676956176758,
        33.97117614746094,
        34.82561492919922,
        33.877044677734375,
        42.47218704223633,
        38.80998992919922,
        30.47490119934082,
        37.171043395996094
      ]
    },
    {
      "activation": "rectified",
      "architecture": "dense",
      "bias": [
        5.5549073294969276e-05,
        0.001820783014409244,
        4.503067611949518e-05,
        -0.000122376877698116,
        -0.00108251569326967,
        1.662122849666048e-05,
        -9.963299589799135e-07,
        0.0005978487897664309,
        -0.0029072947800159454,
        -0.0035570128820836544,
        0.000385499675758183,
        0.0006268217694014311,
        0.001571865752339363,
        0.002220504218712449
      ],
      "weights": [
        -0.01028678473085165,
        6.0572379879886284e-05,
        0.016404829919338226,
        -0.012926208786666393,
        -0.019455038011074066,
        -0.028045831248164177,
        0.007173131685703993,
        -0.00961731094866991,
        0.0003113248967565596,
        -0.0028202461544424295,
        3.8475154724437743e-05,
        -0.03600909188389778,
        0.006233109626919031,
        3.456020203884691e-05,
        0.00956662092357874,
        0.006863105576485395,
        -0.004054885357618332,
        -0.0011024624109268188,
        -0.0070053753443062305,
        -0.005631952080875635,
        0.006941561587154865,
        -6.896476406836882e-05,
        0.00034551977296359837,
        0.009027689695358276,
        -2.8408943762769923e-05,
        0.00014052023470867425,
        -0.007690099999308586,
        0.0019207452423870564,
        -7.487837865483016e-05,
        -0.0001345729542663321,
        -0.008930770680308342,
        -0.001741105574183166,
        0.008448082953691483,
        -0.0008608694770373404,
        -0.004202363546937704,
        -0.004802349489182234,
        -0.012515542097389698,
        -6.333223427645862e-05,
        0.00530708022415638,
        -0.000663763377815485,
        -1.7408639905625023e-05,
        0.00013112647866364568,
        -1.7779082554625347e-05,
        0.001204263768158853,
        1.3173621482565068e-05,
        -0.005470792762935162,
        0.03049328736960888,
        -0.00013223783753346652,
        0.005305321421474218,
        0.00014799705240875483,
        -0.00016666763985995203,
        4.069266651640646e-05,
        3.283120531705208e-05,
        0.0009919770527631044,
        0.0006928924121893942,
        -7.959536105772713e-07,
        9.39822057262063e-05,
        -4.837303640670143e-05,
        -0.00489759910851717,
        4.620902927854331e-06,
        -1.3634263495987398e-07,
        1.566542596265208e-05,
        5.862865873496048e-05,
        0.01335769984871149,
        0.014562842436134815,
        0.002856957260519266,
        -0.005573982838541269,
        0.0021816573571413755,
        0.00021404425206128508,
        1.7583888620720245e-05,
        -0.00015291768067982048,
        -0.000651515438221395,
        -2.695274815778248e-05,
        -9.839412996370811e-06,
        0.014156114310026169,
        0.02015504240989685,
        4.422603888087906e-05,
        0.007481297943741083,
        -3.907765858457424e-06,
        -3.9747406844981015e-05,
        -0.007207255810499191,
        -0.0006694520707242191,
        0.00312575651332736,
        0.010352933779358864,
        0.0042115761898458,
        -0.0002067876630462706,
        -0.005453089717775583,
        0.012826843187212944,
        -2.6001765945693478e-05,
        0.005609477870166302,
        0.004148665815591812,
        -0.001326794154010713,
        -0.03884391114115715,
        0.003721869783475995,
        -1.940921265486395e-06,
        0.0016984110698103905,
        -1.198543486680137e-06,
        7.755492106298334e-07,
        2.806453380799212e-07,
        1.2182590580778196e-07,
        -3.7539123809438024e-07,
        -6.613684604417358e-07,
        -1.0792405191750731e-06,
        -1.3968832490718341e-07,
        1.9096214032288117e-07,
        -2.856231446912716e-07,
        1.0184414804825792e-06,
        -9.60501665758784e-07,
        -5.448258661999716e-07,
        -5.919935119891306e-07,
        -1.899327628507308e-07,
        3.566025270629325e-07,
        0.018321866169571877,
        2.407726969977375e-05,
        0.0012877942062914371,
        -1.9878236344084144e-05,
        -8.225991041399539e-05,
        -0.00011132489453302696,
        4.0436927520204335e-05,
        -1.3190606296120677e-05,
        -6.330946052912623e-05,
        -3.3976055419771e-05,
        2.7984851840301417e-05,
        0.03389928489923477,
        4.105850621272111e-06,
        7.686978642595932e-05,
        -9.788664465304464e-05,
        -0.01414179801940918,
        5.6049884733511135e-05,
        0.016353553161025047,
        0.003742191707715392,
        -0.007971326820552349,
        0.0015506617492064834,
        0.002869828836992383,
        -0.0025742726866155863,
        -0.00015851680655032396,
        -0.02443012408912182,
        -1.8616554370964877e-05,
        0.0031213441397994757,
        8.615774277132004e-06,
        0.0018617112655192614,
        0.01826513558626175,
        -0.0024541974999010563,
        0.015382870100438595,
        0.0017943379934877157,
        -8.322824578499421e-05,
        -0.0002487935998942703,
        0.001532069407403469,
        -0.008968260139226913,
        4.57131136499811e-06,
        2.2287735191639513e-05,
        -4.418365642777644e-05,
        -2.6950394385494292e-05,
        0.020250137895345688,
        -0.0005236911820247769,
        -0.00010485357051948085,
        3.7747166061308235e-05,
        0.0021142938639968634,
        5.111963037052192e-05,
        -0.0002405117265880108,
        0.010322307236492634,
        -0.002400142839178443,
        -0.004693866707384586,
        0.0004933930467814207,
        -1.7983282305067405e-05,
        -2.215639324276708e-05,
        0.016305988654494286,
        9.734185368870385e-06,
        3.641225475803367e-06,
        -3.6641820770455524e-05,
        -6.995716830715537e-05,
        -4.975156571163097e-06,
        3.1402498279931024e-05,
        0.0010305630275979638,
        -7.3602709562692326e-06,
        -7.597947387694148e-06,
        -0.00012535505811683834,
        0.00019046466331928968,
        -3.4405897167744115e-05,
        -0.008171035908162594,
        0.0005568806082010269,
        4.090758739039302e-05,
        -0.0031875723507255316,
        0.0007941416115500033,
        -0.004438742063939571,
        1.4056045984034427e-05,
        0.00845305249094963,
        -4.100358273717575e-05,
        7.303693564608693e-05,
        -0.007616884540766478,
        -0.003029395127668977,
        0.00013491490972228348,
        3.210509385098703e-05,
        -0.002206397010013461,
        -2.282628702232614e-05,
        -0.00013830585521645844,
        7.732886297162622e-05,
        -2.689421080503962e-06,
        0.022749945521354675,
        8.239549060817808e-06,
        -5.578027412411757e-06,
        -1.603436430741567e-05,
        0.0017137841787189245,
        -1.7183258023578674e-05,
        -2.2942900613998063e-05,
        -0.00018482205632608384,
        -0.0015329422894865274,
        0.008181930519640446,
        -0.0017859747167676687,
        3.0130720915622078e-05,
        -0.0005209971568547189,
        0.015952663496136665,
        -6.3388706621481106e-06,
        7.794355042278767e-06,
        0.0014019665541127324,
        -1.9274566511739977e-05,
        5.906158548896201e-05,
        5.870912900718395e-06,
        -0.003107222728431225,
        0.0307542122900486,
        -4.115802585147321e-05,
        0.0060815587639808655,
        8.150229405146092e-05,
        0.03744090721011162
      ]
    },
    {
      "architecture": "normalization",
      "bias": [
        -0.010531936772167683,
        0.0025766966864466667,
        -0.004057338461279869,
        -0.004814853426069021,
        -0.002480258932337165,
        -0.005706188268959522,
        -4.4984077248955145e-05,
        -0.004148583393543959,
        -0.006377946585416794,
        -0.004136011935770512,
        -0.011749638244509697,
        -0.0020328876562416553,
        -0.007456240244209766,
        -0.0058301398530602455
      ],
      "weights": [
        31.4157772064209,
        39.95893096923828,
        41.702247619628906,
        44.16163635253906,
        32.75015640258789,
        34.804718017578125,
        35.43705368041992,
        32.98429489135742,
        32.35942459106445,
        39.5731201171875,
        34.321651458740234,
        31.22884750366211,
        35.451969146728516,
        35.85636520385742
      ]
    },
    {
      "activation": "rectified",
      "architecture": "dense",
      "bias": [
        -0.0016820267774164677,
        0.004066586960107088,
        0.0012829117476940155,
        0.0001505619438830763,
        -0.00012289475125726312,
        0.0023416115436702967,
        -0.0030456786043941975,
        0.00169794587418437,
        -0.004282538779079914,
        2.2226348050935485e-07
      ],
      "weights": [
        0.018808476626873016,
        5.279432298266329e-05,
        3.406774339964613e-05,
        0.0028142875526100397,
        2.016387770709116e-05,
        4.460061063582543e-06,
        -2.6196639737463556e-06,
        -0.005480596330016851,
        0.000263108842773363,
        -0.00044085082481615245,
        2.4891085558920167e-05,
        -1.0110434232046828e-05,
        0.006943997461348772,
        0.020234743133187294,
        0.00011999755952274427,
        -1.186051122203935e-05,
        0.009147344157099724,
        -0.00023200218856800348,
        8.3993210864719e-05,
        0.04843711480498314,
        5.626134225167334e-06,
        0.005163747817277908,
        -0.007254200987517834,
        -4.092870949534699e-05,
        0.010610227473080158,
        6.944320193724707e-05,
        3.3192009141203016e-05,
        -8.187029015971348e-05,
        -0.020214881747961044,
        -9.787166163732763e-06,
        -0.028195802122354507,
        -0.00299795251339674,
        0.01027047447860241,
        0.0025535039603710175,
        4.3398085836088285e-06,
        -0.0016028048703446984,
        -0.001399995875544846,
        -0.006198175251483917,
        -0.0019528348930180073,
        0.015114120207726955,
        -0.001399438944645226,
        -0.0026960340328514576,
        -0.006086419802159071,
        2.438789579173317e-07,
        0.014412918128073215,
        7.961747178342193e-05,
        0.008927183225750923,
        -0.012162688188254833,
        -3.018749339389615e-07,
        0.006434612441807985,
        0.035008445382118225,
        -3.528307206579484e-05,
        0.002740116324275732,
        0.012294393964111805,
        0.0003454450343269855,
        -0.017281128093600273,
        0.023154133930802345,
        -0.010865557007491589,
        0.009186169132590294,
        -4.473460649023764e-06,
        9.260325168725103e-05,
        -0.004263628739863634,
        2.5325857677671593e-06,
        0.0030330282170325518,
        -0.02163824811577797,
        4.785770579474047e-05,
        -0.008148170076310635,
        0.004797203466296196,
        -0.0003535185242071748,
        -0.0005047235754318535,
        -0.0017275402788072824,
        1.1176437055837596e-06,
        -1.5004584383859765e-05,
        6.646450492553413e-05,
        0.006939329672604799,
        -0.0061350539326667786,
        5.502316753336345e-07,
        0.022307321429252625,
        -5.539985068025999e-05,
        -2.9703976906603202e-05,
        4.397873271955177e-05,
        0.00016936154861468822,
        0.0333535373210907,
        -0.0015804849099367857,
        0.013076461851596832,
        -5.9492766013136134e-05,
        -6.955100161576411e-06,
        -0.016671476885676384,
        -3.821161953965202e-05,
        -0.005676181521266699,
        2.573745405243244e-06,
        0.017796436324715614,
        -5.265072832116857e-05,
        -0.006498398259282112,
        -0.006103475112468004,
        1.1325195373501629e-05,
        -5.768454138888046e-05,
        0.00790860690176487,
        0.011279464699327946,
        1.4203516002453398e-05,
        0.006521015893667936,
        -5.7661756727611646e-05,
        0.017272621393203735,
        0.0019028678070753813,
        -1.4835080719421967e-06,
        0.004123704507946968,
        -1.7191025108331814e-05,
        0.01821293868124485,
        0.0037319830153137445,
        0.00010746680345619097,
        -0.009501340799033642,
        -0.0010044554946944118,
        -0.005565579514950514,
        0.02898477204144001,
        -2.85452842945233e-05,
        0.00012092226825188845,
        7.503503729822114e-05,
        0.0043665082193911076,
        4.3301079131197184e-06,
        -0.005245172884315252,
        -0.006206881254911423,
        0.003201368497684598,
        0.0020900943782180548,
        -0.0022493002470582724,
        4.447644460014999e-05,
        0.008369200862944126,
        1.719786837384163e-07,
        3.2655563586558856e-07,
        1.6773924471635837e-08,
        8.873685146681964e-07,
        -4.403557056775753e-07,
        -1.2436845509000705e-07,
        7.353066848736489e-07,
        3.1636758990316594e-08,
        9.610091638023732e-07,
        3.967884083522222e-07,
        2.524581930174463e-07,
        5.975158501314581e-07,
        6.193162676026986e-07,
        3.97530300233484e-07
      ]
    },
    {
      "architecture": "normalization",
      "bias": [
        -0.0025693033821880817,
        -0.006151383742690086,
        -0.011802474036812782,
        -0.005927789956331253,
        0.0010439860634505749,
        -0.016140857711434364,
        -0.007589149288833141,
        -0.017885824665427208,
        0.0001711163786239922,
        -0.0001230081543326378
      ],
      "weights": [
        40.48526382446289,
        41.34806823730469,
        33.505245208740234,
        35.111148834228516,
        37.166343688964844,
        36.931236267089844,
        32.19504165649414,
        36.73955535888672,
        41.2147216796875,
        33.679725646972656
      ]
    },
    {
      "activation": "rectified",
      "architecture": "dense",
      "bias": [
        1.9458927908999613e-06,
        0.006021026521921158,
        0.011949731968343258,
        0.00034293628414161503,
        -0.005067582242190838
      ],
      "weights": [
        0.019205650314688683,
        -0.015932003036141396,
        -0.07938439399003983,
        -0.040426936000585556,
        0.004588300362229347,
        -0.008626350201666355,
        0.05984022095799446,
        -0.06402304768562317,
        0.059430863708257675,
        -1.848204419729882e-06,
        3.736997678061016e-05,
        0.026759397238492966,
        -0.00017463223775848746,
        0.06145571544766426,
        0.0058868639171123505,
        -0.010743003338575363,
        2.1817169908899814e-05,
        0.00011253753473283723,
        2.885981984945829e-06,
        1.8347695913689677e-06,
        -1.7730018953443505e-05,
        0.013744914904236794,
        -1.7432124877814204e-05,
        -9.604884326108731e-06,
        0.0018973549595102668,
        0.027874674648046494,
        -0.015148637816309929,
        -1.697587504168041e-05,
        4.0576876926934347e-05,
        8.292165603052126e-07,
        -2.6882622705670656e-07,
        -0.021828407421708107,
        -0.0075134881772100925,
        -0.00010306847252650186,
        0.011785461567342281,
        -0.004771491512656212,
        0.00011125046876259148,
        -0.003187398659065366,
        -6.780925559723983e-06,
        7.144061555663939e-07,
        0.03149954974651337,
        3.366512100910768e-05,
        7.67145975260064e-05,
        4.266881660441868e-05,
        0.05378006398677826,
        -0.01468350738286972,
        -4.551160236587748e-05,
        3.5551009204937145e-05,
        5.788073849544162e-06,
        -5.576815965468995e-06
      ]
    },
    {
      "architecture": "normalization",
      "bias": [
        -0.0597425140440464,
        -0.001958310604095459,
        -0.005198714789003134,
        -0.012800616212189198,
        -0.013964923098683357
      ],
      "weights": [
        51.345985412597656,
        53.9573860168457,
        44.84072494506836,
        42.275577545166016,
        40.69696044921875
      ]
    },
    {
      "activation": "sigmoid",
      "architecture": "dense",
      "bias": [
        -0.06828825175762177
      ],
      "weights": [
        1.7237111330032349,
        -1.3254194259643555,
        -1.105718970298767,
        1.0931686162948608,
        1.3647034168243408
      ]
    }
  ],
  "outputs": [
    "dnn_contained_top"
  ]
}
