{
  "defaults": {}, 
  "inputs": [
    {
      "name": "Tau1_wta", 
      "offset": -0.14637580513954163, 
      "scale": 9.943890230988583
    }, 
    {
      "name": "Tau2_wta", 
      "offset": -0.0647430494427681, 
      "scale": 21.75071383398473
    }, 
    {
      "name": "Tau3_wta", 
      "offset": -0.03543270379304886, 
      "scale": 40.39829139604465
    }, 
    {
      "name": "Tau21_wta", 
      "offset": -0.47265416383743286, 
      "scale": 6.321549142045475
    }, 
    {
      "name": "Tau32_wta", 
      "offset": -0.5690893530845642, 
      "scale": 6.270969135769014
    }, 
    {
      "name": "Split12", 
      "offset": -78340.2734375, 
      "scale": 1.5736624959897733e-05
    }, 
    {
      "name": "Split23", 
      "offset": -28308.173828125, 
      "scale": 4.562821135272675e-05
    }, 
    {
      "name": "Qw", 
      "offset": -54131.3359375, 
      "scale": 2.894638767173349e-05
    }, 
    {
      "name": "C2", 
      "offset": -0.14841052889823914, 
      "scale": 13.84940646312448
    }, 
    {
      "name": "D2", 
      "offset": -1.8184642791748047, 
      "scale": 0.6396737991582051
    }, 
    {
      "name": "e3", 
      "offset": -0.0028332900255918503, 
      "scale": 218.7954460450397
    }, 
    {
      "name": "CaloTACombinedMassUncorrelated", 
      "offset": -159367.625, 
      "scale": 1.0212235790312163e-05
    }, 
    {
      "name": "JetpTCorrByCombinedMass", 
      "offset": -913331.0, 
      "scale": 2.688724514462565e-06
    }
  ], 
  "layers": [
    {
      "activation": "rectified", 
      "architecture": "dense", 
      "bias": [
        0.008448225446045399, 
        0.013256166130304337, 
        -0.0011538987746462226, 
        -0.0024715119507163763, 
        0.0001412358833476901, 
        0.0066431802697479725, 
        6.880241562612355e-05, 
        -0.005666752345860004, 
        -0.020015472546219826, 
        0.021374810487031937, 
        0.0037035513669252396, 
        0.030401580035686493, 
        -0.009461300447583199, 
        0.01565379835665226, 
        -0.026057718321681023, 
        0.042703356593847275, 
        -0.009840571321547031, 
        -0.006950021255761385
      ], 
      "weights": [
        -0.0008931187330745161, 
        -0.0012501103337854147, 
        0.0019995190668851137, 
        -0.0203963965177536, 
        0.003213233081623912, 
        0.0003725007991306484, 
        -0.0029637315310537815, 
        0.02783918008208275, 
        0.0008824610849842429, 
        -0.0005561943398788571, 
        -0.0005859386874362826, 
        -0.05284948647022247, 
        -2.002234396059066e-06, 
        -0.00024151997058652341, 
        -0.0011829769937321544, 
        -0.012151851318776608, 
        -0.004156858194619417, 
        -0.012539112009108067, 
        0.0007856789161451161, 
        -0.002593567129224539, 
        0.045178309082984924, 
        -0.0011954093351960182, 
        -0.0007798399310559034, 
        -0.0023109442554414272, 
        -0.0017733025597408414, 
        -0.019775014370679855, 
        -0.00045887872693128884, 
        0.00016300524293910712, 
        0.0004090780857950449, 
        0.0008329592528752983, 
        -0.000655343581456691, 
        0.01584196276962757, 
        0.0050282045267522335, 
        0.00024985417257994413, 
        0.052713315933942795, 
        0.002464478136971593, 
        -0.010491917841136456, 
        -0.01800038293004036, 
        0.014669054187834263, 
        -0.0019783447496593, 
        -0.0003808559267781675, 
        0.015529828146100044, 
        -0.0006265786942094564, 
        -6.50183719699271e-05, 
        -0.005263669416308403, 
        0.0001471134164603427, 
        0.0008826308767311275, 
        -0.018829744309186935, 
        -0.000222551534534432, 
        -0.010710601694881916, 
        -0.06524505466222763, 
        -0.010806705802679062, 
        0.0005803996464237571, 
        -6.271846359595656e-06, 
        0.0013310953509062529, 
        0.009687608107924461, 
        0.03911833465099335, 
        0.002733136061578989, 
        -0.007529397029429674, 
        0.006961510516703129, 
        -0.0003314100904390216, 
        0.0008111969800665975, 
        0.005612850189208984, 
        0.00978003814816475, 
        -0.00262550450861454, 
        -0.011775112710893154, 
        -0.004089724738150835, 
        0.0002796542248688638, 
        -0.003946132026612759, 
        -0.002161909593269229, 
        -0.049504604190588, 
        -0.0015145944198593497, 
        -0.005354277789592743, 
        0.012544435448944569, 
        -0.000616110977716744, 
        -0.0003206437104381621, 
        0.02907300554215908, 
        -0.0025473556015640497, 
        -0.0007007968961261213, 
        0.0037094797007739544, 
        0.007999365217983723, 
        -0.00033910697675310075, 
        -0.0011854971526190639, 
        -0.0003681780362967402, 
        0.0027151573449373245, 
        0.0018145960057154298, 
        -0.0013933542650192976, 
        0.00036465629818849266, 
        -0.009252907708287239, 
        0.008006813935935497, 
        -0.0430302694439888, 
        0.000908627815078944, 
        0.008978796191513538, 
        0.05145268887281418, 
        0.0012880568392574787, 
        0.0015889500500634313, 
        -0.005745818838477135, 
        -1.3889627552998718e-05, 
        0.002079405589029193, 
        -0.001454671612009406, 
        -0.00039540580473840237, 
        -0.007519279140979052, 
        -0.004222785122692585, 
        0.02489805780351162, 
        -0.022653786465525627, 
        0.0005438075750134885, 
        0.009660189971327782, 
        -0.00041065007098950446, 
        0.0016384921036660671, 
        -0.0066640982404351234, 
        -0.0005615121335722506, 
        1.499125482951058e-05, 
        0.03279411792755127, 
        0.0014767480315640569, 
        0.003323507495224476, 
        -0.09815800189971924, 
        0.014581745490431786, 
        -0.007236930076032877, 
        -0.0003169987758155912, 
        0.0015871415380388498, 
        -0.010779372416436672, 
        -0.003986142110079527, 
        -0.002746986923739314, 
        0.007947023026645184, 
        -0.05436868593096733, 
        -0.0007990165031515062, 
        0.0008987063774839044, 
        0.006152468733489513, 
        0.0007179536041803658, 
        0.006919004023075104, 
        0.0017052203183993697, 
        -0.0005382668459787965, 
        -0.0012080210726708174, 
        0.03769263997673988, 
        -0.00873892568051815, 
        -0.002443722914904356, 
        0.0006856258842162788, 
        -0.00030827149748802185, 
        -0.00029205397004261613, 
        -0.0023123323917388916, 
        0.0005724349757656455, 
        0.023621127009391785, 
        0.002268561627715826, 
        -0.0007412186241708696, 
        -0.00036994670517742634, 
        -0.0028222338296473026, 
        0.006084591615945101, 
        -0.018921639770269394, 
        0.009009262546896935, 
        -0.004030676558613777, 
        0.006647877860814333, 
        0.03238435462117195, 
        -0.039389729499816895, 
        -0.00048388110008090734, 
        -0.01571170799434185, 
        0.013440325856208801, 
        0.0007244585431180894, 
        0.001184467226266861, 
        0.006142225582152605, 
        0.0009596159216016531, 
        0.0012399343540892005, 
        0.0011492269113659859, 
        0.02019619196653366, 
        -0.017343197017908096, 
        -0.0003076769062317908, 
        -0.0010086740367114544, 
        -0.0006184811936691403, 
        -0.0011063958518207073, 
        0.0013000622857362032, 
        0.0006706446874886751, 
        -0.00011499974061734974, 
        0.003912748768925667, 
        0.005954173859208822, 
        0.005922377109527588, 
        -0.0037517391610890627, 
        0.0012433613883331418, 
        -0.0070005906745791435, 
        -0.010787793435156345, 
        0.0011792965233325958, 
        -0.004107716027647257, 
        -0.04297148808836937, 
        0.004654130432754755, 
        -0.00263238069601357, 
        -0.0038347605150192976, 
        0.004762805067002773, 
        -0.003417429979890585, 
        -0.002719676122069359, 
        0.00033802969846874475, 
        0.0036096249241381884, 
        -0.006501466501504183, 
        0.003057850059121847, 
        -0.001929005840793252, 
        0.0002191385574406013, 
        0.11295748502016068, 
        -0.0003363581490702927, 
        -0.001426851493306458, 
        0.0002930151531472802, 
        -0.0034574244637042284, 
        0.0026973257772624493, 
        0.005352419335395098, 
        -0.006111767143011093, 
        -0.004881825298070908, 
        0.008742963895201683, 
        0.002753930166363716, 
        -0.07657500356435776, 
        0.0064064692705869675, 
        0.0009324370766989887, 
        0.004208139609545469, 
        -0.0033803300466388464, 
        -0.0007190096075646579, 
        -0.0008940055267885327, 
        -0.02426772378385067, 
        0.009298436343669891, 
        -0.030639255419373512, 
        0.007621668744832277, 
        0.0003042263851966709, 
        0.008339375257492065, 
        -1.534836701466702e-05, 
        -0.0029102410189807415, 
        0.001462261308915913, 
        0.00692510511726141, 
        0.0011868359288200736, 
        -0.029376620426774025, 
        -0.018046163022518158, 
        0.0038669528439641, 
        0.00118254532571882, 
        0.0037024570629000664, 
        -0.021315382793545723, 
        0.001519623096100986, 
        0.019470740109682083, 
        0.004205063451081514, 
        0.003260209457948804, 
        0.01070454716682434, 
        -0.001043027499690652
      ]
    }, 
    {
      "architecture": "normalization", 
      "bias": [
        -0.018194369971752167, 
        -0.010122573934495449, 
        -0.01788124442100525, 
        -0.020068766549229622, 
        -0.011097676120698452, 
        -0.02083515003323555, 
        -0.004918860271573067, 
        -0.01807563379406929, 
        -0.013280940242111683, 
        -0.022422578185796738, 
        -0.011653739027678967, 
        -0.042232394218444824, 
        -0.0037769917398691177, 
        -0.028635568916797638, 
        -0.04654422774910927, 
        -0.04584437236189842, 
        -0.0006117271259427071, 
        -0.006927192211151123
      ], 
      "weights": [
        51.91202926635742, 
        32.375038146972656, 
        41.88860321044922, 
        33.105987548828125, 
        37.46506118774414, 
        49.25553894042969, 
        40.373680114746094, 
        28.1409912109375, 
        29.71989631652832, 
        31.291114807128906, 
        38.99454116821289, 
        37.289710998535156, 
        101.3041000366211, 
        37.19911193847656, 
        15.510482788085938, 
        33.96916961669922, 
        79.23368835449219, 
        52.605987548828125
      ]
    }, 
    {
      "activation": "rectified", 
      "architecture": "dense", 
      "bias": [
        0.0015967033104971051, 
        0.00048593670362606645, 
        0.0007342191529460251, 
        -0.016303788870573044, 
        0.0015522909816354513, 
        -0.00010557725181570277, 
        -0.0017035582568496466, 
        -0.013312834315001965, 
        -0.003439763793721795, 
        -0.013002880848944187, 
        0.0014902260154485703, 
        -0.0005152160301804543, 
        0.048207808285951614, 
        -0.0013296440010890365, 
        0.033344462513923645, 
        -0.0009428677731193602
      ], 
      "weights": [
        -0.015368903055787086, 
        -0.0020251565147191286, 
        -0.008764386177062988, 
        0.0018619660986587405, 
        0.01705954037606716, 
        0.015209984965622425, 
        0.009133236482739449, 
        0.0009476414998061955, 
        0.0006194434245117009, 
        0.004413105547428131, 
        -0.023126764222979546, 
        -0.011637748219072819, 
        -0.002889989409595728, 
        7.22310651326552e-05, 
        0.0018195321317762136, 
        0.008066830225288868, 
        0.0004720842116512358, 
        0.015196002088487148, 
        0.011385103687644005, 
        0.001510570291429758, 
        0.005289677530527115, 
        0.036346498876810074, 
        -0.0034006584901362658, 
        0.006352289579808712, 
        0.01732064038515091, 
        -0.0005201776511967182, 
        -0.0003478045982774347, 
        0.0035684427712112665, 
        0.00032123111304827034, 
        0.00024113553809002042, 
        -0.0010845322394743562, 
        0.0001978427462745458, 
        0.0008295965963043272, 
        -0.014535745605826378, 
        0.0012965521309524775, 
        -0.012856101617217064, 
        0.002588782925158739, 
        0.00014083647693041712, 
        0.013070950284600258, 
        0.00163519405759871, 
        0.0002465164288878441, 
        -0.0035984781570732594, 
        -0.011361171491444111, 
        -0.0008501901174895465, 
        -0.007939373143017292, 
        0.021377595141530037, 
        0.0020656434353441, 
        0.0018454028759151697, 
        -0.0014179355930536985, 
        0.004769938066601753, 
        -0.0018996897852048278, 
        -0.0015064484905451536, 
        0.007418577093631029, 
        0.0002624786284286529, 
        -0.011435125954449177, 
        -0.01728917844593525, 
        -0.0016548397252336144, 
        -0.0017354205483570695, 
        -0.004752759821712971, 
        0.0197936799377203, 
        -0.0019980079960078, 
        -0.0004879463813267648, 
        0.004520213697105646, 
        -0.003069286234676838, 
        0.00462746899574995, 
        0.0006567628588527441, 
        -0.0011353743029758334, 
        0.0016988946590572596, 
        -0.0002809240249916911, 
        0.018254214897751808, 
        -0.0015006784815341234, 
        -0.0009044369799084961, 
        -0.0006221508956514299, 
        0.038320112973451614, 
        0.0004089495341759175, 
        -0.01969033293426037, 
        -0.006463184021413326, 
        -0.0014039314119145274, 
        -0.004670882131904364, 
        -0.00210579507984221, 
        0.013343201018869877, 
        -0.0005015301867388189, 
        0.0014049466699361801, 
        0.006001652218401432, 
        0.0009452257072553039, 
        0.0016286367317661643, 
        -0.009392804466187954, 
        7.471196295227855e-05, 
        0.00021199269394855946, 
        0.009918855503201485, 
        0.0033181735780090094, 
        -0.004815265070647001, 
        0.002900670049712062, 
        -0.0018840838456526399, 
        -0.0008962040883488953, 
        -0.0012711327290162444, 
        -0.02020622231066227, 
        0.0009604685474187136, 
        -0.0018719362560659647, 
        -0.02539377100765705, 
        0.0001324725162703544, 
        0.024745753034949303, 
        0.004857845604419708, 
        -0.001339748385362327, 
        0.003273117123171687, 
        0.003937270492315292, 
        -0.01195452455431223, 
        0.011816024780273438, 
        -0.0030481242574751377, 
        0.00017172013758681715, 
        -0.0232707466930151, 
        0.0005861720419488847, 
        0.000563400739338249, 
        -0.00888570211827755, 
        -0.00038081302773207426, 
        8.50443248054944e-05, 
        0.011958145536482334, 
        -0.013379033654928207, 
        -0.00013887682871427387, 
        -0.018234942108392715, 
        -0.000650107569526881, 
        0.0037433477118611336, 
        0.0037864078767597675, 
        0.0005474267527461052, 
        -0.011159651912748814, 
        -0.0025205875281244516, 
        -0.0071839578449726105, 
        0.0010988257126882672, 
        -0.00017285940703004599, 
        -0.0005868940497748554, 
        -0.0029305964708328247, 
        -4.1545365093043074e-05, 
        0.0038303418550640345, 
        -0.007961783558130264, 
        1.2221766155562364e-05, 
        0.0014907565200701356, 
        0.0006462142337113619, 
        -0.00035972014302387834, 
        -0.003154258243739605, 
        -0.055107295513153076, 
        -0.00048754399176687, 
        0.0011364456731826067, 
        0.00808362103998661, 
        0.00010489721898920834, 
        -0.000545889197383076, 
        0.0012953137047588825, 
        0.0027000673580914736, 
        1.0682596439437475e-05, 
        0.02685307152569294, 
        -4.066929977852851e-05, 
        -0.0008023381233215332, 
        -0.00024501350708305836, 
        0.00020192819647490978, 
        -0.00015416801034007221, 
        0.0015086521161720157, 
        0.0004628945607692003, 
        -0.00030068602063693106, 
        0.0007318041753023863, 
        0.000732359301764518, 
        -0.0032809972763061523, 
        -0.003067632671445608, 
        -0.00021138718875590712, 
        -0.004631680436432362, 
        -0.0002360141952522099, 
        -0.001424162182956934, 
        -0.003334962297230959, 
        -0.0006863472517579794, 
        0.01035931147634983, 
        -0.000934428593609482, 
        0.00037616121699102223, 
        0.008897445164620876, 
        -0.0017009375151246786, 
        -0.014082655310630798, 
        0.00020810474234167486, 
        0.0019132067682221532, 
        -0.007546408101916313, 
        0.0279772337526083, 
        0.03317940607666969, 
        -0.0005495513905771077, 
        0.0005259551689960063, 
        -0.008611118420958519, 
        0.014644461683928967, 
        -0.010497752577066422, 
        0.02052723988890648, 
        0.0007640948169864714, 
        0.0033656004816293716, 
        0.0008700803155079484, 
        0.000235257379245013, 
        -0.013026938773691654, 
        -0.00971977412700653, 
        0.01172561664134264, 
        -0.015397746115922928, 
        -0.007258345372974873, 
        -0.0006558478926308453, 
        -0.0004189609026070684, 
        -0.001271339482627809, 
        -0.002692792797461152, 
        -0.002172364853322506, 
        -0.0035528340376913548, 
        0.001800908474251628, 
        -0.0005351065774448216, 
        -0.035469766706228256, 
        -0.0010613974882289767, 
        -0.00094172841636464, 
        -0.010998266749083996, 
        0.028900550678372383, 
        -0.03670012950897217, 
        0.0009089695522561669, 
        -0.0043215579353272915, 
        0.0004829349636565894, 
        -0.0003560251207090914, 
        0.0010246728779748082, 
        0.0026615592651069164, 
        -0.0001020847776089795, 
        0.0002450133615639061, 
        -0.010202166624367237, 
        -0.0085206413641572, 
        -0.01754523068666458, 
        0.00011128439655294642, 
        -0.018793119117617607, 
        -0.000837667437735945, 
        -0.004506382625550032, 
        0.007766802795231342, 
        -0.007772961165755987, 
        -0.019957132637500763, 
        -0.0003449909563641995, 
        -0.006474287249147892, 
        -0.001412083744071424, 
        -0.0008649819646961987, 
        -0.007304434198886156, 
        -0.0016134516336023808, 
        -0.006972522474825382, 
        0.0017050292808562517, 
        1.2680776308116037e-05, 
        -0.00018698086205404252, 
        0.012318282388150692, 
        -0.010181639343500137, 
        -0.005898480769246817, 
        -0.003545488929376006, 
        0.0021108449436724186, 
        0.00010250922059640288, 
        -0.007995947264134884, 
        0.004067809786647558, 
        -0.015544828027486801, 
        -0.0005579080898314714, 
        0.0046304212883114815, 
        0.001372507307678461, 
        -0.012069185264408588, 
        -0.10171090066432953, 
        0.012985455803573132, 
        -0.00794685073196888, 
        0.007404649164527655, 
        0.0021653338335454464, 
        0.0018087372882291675, 
        -0.00781416054815054, 
        0.018463551998138428, 
        0.0007372936233878136, 
        -0.004183996468782425, 
        -2.7692258299794048e-05, 
        -0.0007165304268710315, 
        0.04602768272161484, 
        0.00018468753842171282, 
        0.002350731985643506, 
        -0.0009096235153265297, 
        -0.0011827023699879646, 
        0.0012726333225145936, 
        -0.003462278051301837, 
        -0.0036124184262007475, 
        0.000556336366571486, 
        0.0051621063612401485, 
        -0.006601968314498663, 
        -0.0020875846967101097, 
        -0.0007401014445349574, 
        -0.022169239819049835, 
        -0.002773335902020335, 
        0.01599820703268051, 
        -0.005850482732057571, 
        -0.010418618097901344, 
        0.01399162132292986, 
        0.0065439846366643906, 
        0.0008177217678166926, 
        -0.00043585500679910183, 
        -0.0014713758137077093, 
        -0.011956031434237957, 
        -0.0008562790462747216, 
        0.0013285782188177109, 
        0.0016375622944906354, 
        0.014005232602357864
      ]
    }, 
    {
      "architecture": "normalization", 
      "bias": [
        -0.003860030323266983, 
        -0.0349009707570076, 
        -0.003397130873054266, 
        0.0004072088631801307, 
        -0.024752585217356682, 
        -0.019652653485536575, 
        -0.013721073977649212, 
        -0.010748492553830147, 
        -0.02382100373506546, 
        -0.008620375767350197, 
        -0.02289457991719246, 
        -0.013650098815560341, 
        -0.03629220649600029, 
        -0.06059199571609497, 
        -0.03462789207696915, 
        -0.018728433176875114
      ], 
      "weights": [
        32.8172492980957, 
        27.26770782470703, 
        52.8922119140625, 
        173.09005737304688, 
        23.14667510986328, 
        41.62510681152344, 
        48.04972457885742, 
        33.70070266723633, 
        42.696327209472656, 
        30.152523040771484, 
        45.81705093383789, 
        38.83224105834961, 
        32.4587516784668, 
        24.642423629760742, 
        17.66855239868164, 
        36.66128158569336
      ]
    }, 
    {
      "activation": "rectified", 
      "architecture": "dense", 
      "bias": [
        0.02215997502207756, 
        0.0031063840724527836, 
        -0.004731104709208012, 
        0.011783093214035034, 
        0.00011421596718719229, 
        0.002250398276373744, 
        -8.973012154456228e-05, 
        -2.049393515335396e-06, 
        3.2583704978605965e-07, 
        0.0010620162356644869, 
        -0.00021970103261992335, 
        2.8995851607760414e-05, 
        0.000429188075941056, 
        -5.246585715212859e-06
      ], 
      "weights": [
        0.037806861102581024, 
        0.0008455209899693727, 
        -0.000795946572907269, 
        -0.011591417714953423, 
        4.473142325878143e-06, 
        -0.03962630033493042, 
        0.002232188591733575, 
        0.010290136560797691, 
        -2.005938222282566e-05, 
        0.003944049123674631, 
        0.0034885406494140625, 
        -0.0007240838021971285, 
        0.0063753193244338036, 
        -0.01194164901971817, 
        0.013364099897444248, 
        0.0076151760295033455, 
        -0.004743982572108507, 
        -0.00042624512570910156, 
        -0.017543861642479897, 
        0.0022800397127866745, 
        0.00021079921862110496, 
        -0.0016915823798626661, 
        -0.0016393164405599236, 
        0.0016564170364290476, 
        -0.0020737566519528627, 
        -0.0007189859752543271, 
        -0.006344326306134462, 
        0.0003457440761849284, 
        0.0013388056540861726, 
        0.04955805838108063, 
        0.0004503719392232597, 
        0.011123844422399998, 
        -0.00042309227865189314, 
        0.0005182289169169962, 
        -0.0010646844748407602, 
        -0.0021136864088475704, 
        3.25773871736601e-05, 
        0.0009530029492452741, 
        0.00044899320346303284, 
        -0.00018109846860170364, 
        0.002887704875320196, 
        0.00010261136048939079, 
        0.0012991431867703795, 
        -0.00038154301000759006, 
        0.0015038157580420375, 
        0.0019346978515386581, 
        -0.0008178344578482211, 
        0.0020649631042033434, 
        0.0010884650982916355, 
        -0.013958803378045559, 
        -1.1914276001334656e-05, 
        0.004482950549572706, 
        -0.00715422909706831, 
        0.0030657730530947447, 
        -0.007473520468920469, 
        -0.01600160077214241, 
        -0.000852183613460511, 
        -0.010600252076983452, 
        0.0003498080186545849, 
        0.00725889764726162, 
        0.019260700792074203, 
        0.020476577803492546, 
        -0.004029904026538134, 
        -0.004283486865460873, 
        -0.0033079232089221478, 
        -8.053708734223619e-05, 
        0.003742373315617442, 
        0.0005036378861404955, 
        0.001307448954321444, 
        0.02012196183204651, 
        0.0017725526122376323, 
        0.007522340398281813, 
        -0.004186196718364954, 
        0.004966870415955782, 
        -0.012583312578499317, 
        0.024125097319483757, 
        0.016321158036589622, 
        -4.371619434095919e-05, 
        -0.0013719582930207253, 
        -0.0020635395776480436, 
        0.0041798693127930164, 
        -0.015657734125852585, 
        0.009506895206868649, 
        -1.2883004274044652e-05, 
        -0.0020761326886713505, 
        0.007148023694753647, 
        0.0002504865697119385, 
        0.0005153479869477451, 
        -0.005758465733379126, 
        -0.03535236418247223, 
        -0.015925010666251183, 
        0.002066161250695586, 
        0.0020785201340913773, 
        -0.0008785442332737148, 
        -0.0002814146864693612, 
        -0.026535801589488983, 
        -0.0005730402190238237, 
        -0.0019400679739192128, 
        0.0020017398055642843, 
        -0.00014560774434357882, 
        0.0013398437295109034, 
        -9.353972563985735e-05, 
        -0.006433762144297361, 
        0.0013111223233863711, 
        0.006913565564900637, 
        0.0021212047431617975, 
        -0.0007469702395610511, 
        0.04000948369503021, 
        0.010112415067851543, 
        0.00047703986638225615, 
        -0.0017154134111478925, 
        -0.0006246074917726219, 
        -0.000532780250068754, 
        0.03535633161664009, 
        0.004416467621922493, 
        0.0025679338723421097, 
        -0.0009283782565034926, 
        -0.000912688672542572, 
        -0.0006622434593737125, 
        0.005920295603573322, 
        0.00101093586999923, 
        0.0024942392483353615, 
        0.00033641495974734426, 
        -0.005147818475961685, 
        0.01846127025783062, 
        -0.002758878981694579, 
        0.00796161126345396, 
        0.0005886133294552565, 
        1.2336929557932308e-06, 
        -6.294343393165036e-07, 
        -1.2481837075029034e-07, 
        -6.35021251582657e-07, 
        -5.151300115358026e-07, 
        6.9292525495257e-08, 
        -8.509755389241036e-07, 
        6.858340384496842e-08, 
        8.759645879763411e-07, 
        8.742730983613e-09, 
        -3.46185743183014e-07, 
        -1.0278050694978447e-06, 
        2.395564990820276e-07, 
        3.360278242325876e-07, 
        1.259855821444944e-06, 
        -2.447292217766517e-07, 
        0.00037902628537267447, 
        -0.0014413876924663782, 
        -0.00183469383046031, 
        2.8886181098641828e-05, 
        0.00018005997117143124, 
        -0.0006436917465180159, 
        -0.0012237080372869968, 
        0.0003233278403058648, 
        -0.01384520810097456, 
        -0.0012978632003068924, 
        0.016839493066072464, 
        0.027344651520252228, 
        0.00043364742305129766, 
        0.0006416520336642861, 
        -0.004356098361313343, 
        0.0006703402614220977, 
        -0.0076867081224918365, 
        -0.0001528269931441173, 
        0.00042506400495767593, 
        0.0017284268978983164, 
        -0.011176749132573605, 
        -0.0018447069451212883, 
        0.0019227575976401567, 
        7.974058462423272e-07, 
        -0.009458919987082481, 
        0.004200087860226631, 
        -0.0006798339309170842, 
        -0.004121661186218262, 
        0.006559365428984165, 
        0.00011034495400963351, 
        0.00040206091944128275, 
        0.006169838365167379, 
        -0.027472971007227898, 
        -0.0013797617284581065, 
        0.0010340431472286582, 
        0.009551639668643475, 
        0.04115369915962219, 
        -9.486370254307985e-05, 
        0.02590450458228588, 
        -0.0004246237513143569, 
        -0.00044338390580378473, 
        0.012136598117649555, 
        0.0035190104972571135, 
        -0.01435098610818386, 
        0.0036136414855718613, 
        0.0003577614261303097, 
        0.08004581183195114, 
        0.0006256123306229711, 
        -0.0011587621411308646, 
        -0.0036220834590494633, 
        -0.002772733336314559, 
        -0.005230697337538004, 
        -0.00041614743531681597, 
        -0.010907952673733234, 
        -0.0007704547024331987, 
        0.0004143107507843524, 
        0.0015106670325621963, 
        0.0028644271660596132, 
        -0.0017779680201783776, 
        0.0024254906456917524, 
        -0.05114821344614029, 
        -0.0011973562650382519, 
        -0.0033012041822075844, 
        -0.0007315254188142717, 
        -5.8786035879165865e-06, 
        -8.65840036112786e-07, 
        9.157234671874903e-06, 
        -9.809187758946791e-06, 
        -4.71086013931199e-06, 
        -3.122612952211057e-06, 
        2.126595063600689e-06, 
        -9.091858373722062e-06, 
        -8.015818821149878e-06, 
        -7.707103577558883e-07, 
        -4.214829004922649e-06, 
        -2.4462212877551792e-06, 
        -5.194480309000937e-06, 
        -2.00080012291437e-06, 
        2.4014707378228195e-06, 
        1.4595623724744655e-05
      ]
    }, 
    {
      "architecture": "normalization", 
      "bias": [
        -0.04831051081418991, 
        -0.020973961800336838, 
        -0.0007318878197111189, 
        -0.01847933605313301, 
        -0.00705302506685257, 
        -0.028111787512898445, 
        -0.0415184460580349, 
        -0.010563831776380539, 
        7.646195444976911e-05, 
        -0.006023856811225414, 
        -0.007496412843465805, 
        -0.05387941375374794, 
        -0.009081223979592323, 
        9.676463378127664e-05
      ], 
      "weights": [
        15.167245864868164, 
        34.4072151184082, 
        148.2140350341797, 
        38.780731201171875, 
        23.785057067871094, 
        34.60629653930664, 
        21.693403244018555, 
        40.18854904174805, 
        41.250789642333984, 
        27.58340835571289, 
        113.81381225585938, 
        16.62310218811035, 
        36.31223678588867, 
        51.43436050415039
      ]
    }, 
    {
      "activation": "rectified", 
      "architecture": "dense", 
      "bias": [
        -1.4191740547175868e-06, 
        2.0520249108813005e-06, 
        -9.649407729739323e-05, 
        0.0007025473169051111, 
        0.01061976421624422, 
        -0.0004614484787452966, 
        -0.007743933703750372, 
        0.0009472931269556284, 
        0.0012962453765794635, 
        0.0004973506438545883
      ], 
      "weights": [
        -1.3630201465275604e-06, 
        7.635536576344748e-07, 
        5.004385911888676e-06, 
        -2.565937506915361e-08, 
        -4.203879484521167e-07, 
        6.333466444630176e-07, 
        4.780175117957697e-07, 
        9.447513207305747e-07, 
        -8.19215529190842e-06, 
        2.3623979359399527e-06, 
        -5.309723292157287e-07, 
        -7.940250270621618e-07, 
        5.845754458277952e-08, 
        -3.881058546539862e-06, 
        2.2510282633447787e-06, 
        -3.586767434171634e-07, 
        -9.36528158490546e-06, 
        -2.1156802176847123e-06, 
        -1.6189302414204576e-06, 
        -6.375727252816432e-07, 
        -1.0939277217403287e-06, 
        -2.650634996825829e-06, 
        1.1790527878474677e-06, 
        -6.293404908319644e-08, 
        1.9897752281394787e-06, 
        8.228572596635786e-07, 
        1.0953199307550676e-06, 
        1.5850750969548244e-06, 
        0.10771459341049194, 
        0.00045021227560937405, 
        0.00013806253264192492, 
        -0.000602012500166893, 
        0.08846136927604675, 
        -0.02824041061103344, 
        -0.06939643621444702, 
        0.0004922207444906235, 
        -9.281898769586405e-07, 
        0.0007887733518145978, 
        -0.0010240350384265184, 
        0.004938777536153793, 
        -0.0007934388122521341, 
        -5.023941412218846e-06, 
        0.000697980634868145, 
        0.0021473453380167484, 
        0.002793310908600688, 
        0.0011773083824664354, 
        0.0015001156134530902, 
        -0.002447281265631318, 
        -0.015939045697450638, 
        0.023187685757875443, 
        -3.583676289053983e-07, 
        0.00773195642977953, 
        0.00027185867656953633, 
        0.009012829512357712, 
        -3.7720372347394004e-05, 
        -2.2763679226045497e-06, 
        0.003392463782802224, 
        0.0261490847915411, 
        -0.0011346829123795033, 
        0.01950390823185444, 
        -0.0006897416315041482, 
        -0.0011528697796165943, 
        -0.023437323048710823, 
        0.0007614849018864334, 
        -1.474288353620068e-07, 
        0.00040003794129006565, 
        -0.00018660776549950242, 
        0.0004717722476925701, 
        -0.00026657889247871935, 
        3.9878814277471974e-06, 
        -0.0005951335770078003, 
        0.023497644811868668, 
        0.0003562987258192152, 
        -0.0018120830645784736, 
        -0.004931301344186068, 
        -8.944919500208925e-06, 
        -7.1172325988300145e-06, 
        -0.00014907748845871538, 
        6.672951258224202e-07, 
        -0.0006341745029203594, 
        -0.004398168995976448, 
        0.0009780260734260082, 
        9.821805724641308e-05, 
        4.243955572746927e-06, 
        0.009122434072196484, 
        -0.018228191882371902, 
        0.000736467307433486, 
        -0.02460951916873455, 
        0.015359904617071152, 
        -0.0009506455389782786, 
        0.02820911630988121, 
        -0.0006898827850818634, 
        5.611148026218871e-06, 
        0.0008400982478633523, 
        0.0041302782483398914, 
        -0.0001311111991526559, 
        -2.8844817279605195e-05, 
        2.9162081773392856e-05, 
        0.00145757757127285, 
        -9.062541721505113e-06, 
        0.0005216088029555976, 
        0.008134149946272373, 
        -7.298734999494627e-05, 
        0.0016390408854931593, 
        0.019598860293626785, 
        -0.0075980364345014095, 
        -2.909572458520415e-07, 
        0.0010721094440668821, 
        -0.0003572074929252267, 
        0.053031738847494125, 
        0.0033495579846203327, 
        -4.976048330718186e-06, 
        -0.0008894067723304033, 
        0.0023804025258868933, 
        0.0006814119988121092, 
        0.0003581192868296057, 
        0.03433438763022423, 
        0.01461309939622879, 
        0.0016408362425863743, 
        -0.005662369076162577, 
        -1.4192208652730187e-07, 
        3.769383329199627e-05, 
        -0.004082734230905771, 
        -0.014070115983486176, 
        0.02413289248943329, 
        1.7854814359452575e-05, 
        -0.003776573110371828, 
        -8.287907257908955e-05, 
        6.834578380221501e-05, 
        0.00786909181624651, 
        0.007415130268782377, 
        -0.0001951422163983807, 
        0.0029567552264779806, 
        -0.006826405879110098, 
        8.036045073822606e-07, 
        0.024789616465568542, 
        -0.0004952254239469767, 
        -0.014824583195149899, 
        -6.280646630330011e-05, 
        -7.633670975337736e-07
      ]
    }, 
    {
      "architecture": "normalization", 
      "bias": [
        0.0001140761305578053, 
        0.00011367916158633307, 
        -0.2875446081161499, 
        -0.026497021317481995, 
        -0.03276650235056877, 
        -0.003025463782250881, 
        -0.049580641090869904, 
        -0.08115186542272568, 
        0.009456146508455276, 
        0.0008469372987747192
      ], 
      "weights": [
        155.5537109375, 
        66.4551010131836, 
        7.599283218383789, 
        45.16456604003906, 
        30.575355529785156, 
        60.53245162963867, 
        29.753583908081055, 
        21.21402359008789, 
        21.663354873657227, 
        27.421873092651367
      ]
    }, 
    {
      "activation": "rectified", 
      "architecture": "dense", 
      "bias": [
        0.0003227202105335891, 
        -0.0009381070267409086, 
        -0.00019648716261144727, 
        1.791847898857668e-05, 
        9.658998169470578e-05
      ], 
      "weights": [
        1.889598206616938e-05, 
        2.558678261266323e-06, 
        -0.0012514584232121706, 
        0.028474897146224976, 
        0.0009197712643072009, 
        0.0022929031401872635, 
        -0.0009425940224900842, 
        -0.005156408529728651, 
        -0.0006914354162290692, 
        -0.000643140054307878, 
        1.888687620521523e-06, 
        -2.177118403778877e-06, 
        0.0009406193275935948, 
        2.4904540623538196e-05, 
        0.0005642918986268342, 
        0.01605171337723732, 
        0.0017043603584170341, 
        0.0014637071872130036, 
        -0.0029009736608713865, 
        -0.0022051576524972916, 
        -3.290280801593326e-06, 
        -4.167578481428791e-06, 
        0.0017829540884122252, 
        0.003532277885824442, 
        0.033563315868377686, 
        0.011136859655380249, 
        -0.023337174206972122, 
        0.00037527448148466647, 
        -0.000435110938269645, 
        2.815443258441519e-05, 
        -4.827340944757452e-06, 
        -4.986783096683212e-06, 
        -0.0002512986247893423, 
        -0.015131933614611626, 
        0.0014223555335775018, 
        0.0066692158579826355, 
        0.026402458548545837, 
        0.0006978834862820804, 
        0.0053481427021324635, 
        0.002838526153936982, 
        5.496675470340051e-08, 
        6.906759608682478e-09, 
        -0.12819068133831024, 
        -0.0028545225504785776, 
        0.0003621653886511922, 
        0.0009161419002339244, 
        -0.09607143700122833, 
        -0.06927558779716492, 
        0.06970756500959396, 
        0.03730098530650139
      ]
    }, 
    {
      "architecture": "normalization", 
      "bias": [
        -0.014740699902176857, 
        -0.005798301659524441, 
        -0.041589781641960144, 
        -0.010439783334732056, 
        -0.4535953104496002
      ], 
      "weights": [
        35.00094985961914, 
        85.56771087646484, 
        23.612972259521484, 
        42.57326889038086, 
        7.074249267578125
      ]
    }, 
    {
      "activation": "sigmoid", 
      "architecture": "dense", 
      "bias": [
        -0.06040901318192482
      ], 
      "weights": [
        -0.7480027079582214, 
        0.21820856630802155, 
        0.7953729629516602, 
        0.3990303575992584, 
        1.2757682800292969
      ]
    }
  ], 
  "outputs": [
    "top_dnn_BN_6june"
  ]
}
