{
  "defaults": {}, 
  "inputs": [
    {
      "name": "Tau21_wta", 
      "offset": -0.40427157282829285, 
      "scale": 5.551087662678738
    }, 
    {
      "name": "C2", 
      "offset": -0.10913008451461792, 
      "scale": 15.41515240264297
    }, 
    {
      "name": "D2", 
      "offset": -1.7236675024032593, 
      "scale": 0.6924642353864356
    }, 
    {
      "name": "FoxWolfram20", 
      "offset": -0.40798038244247437, 
      "scale": 3.5832891488308114
    }, 
    {
      "name": "PlanarFlow", 
      "offset": -0.45848625898361206, 
      "scale": 3.4877126080320506
    }, 
    {
      "name": "Angularity", 
      "offset": -0.001731974771246314, 
      "scale": 254.15758197783563
    }, 
    {
      "name": "Aplanarity", 
      "offset": -0.03588404506444931, 
      "scale": 22.00690354903809
    }, 
    {
      "name": "ZCut12", 
      "offset": -0.21605649590492249, 
      "scale": 8.528475531750427
    }, 
    {
      "name": "CaloTACombinedMassUncorrelated", 
      "offset": -109943.9453125, 
      "scale": 1.1564953204404585e-05
    }, 
    {
      "name": "JetpTCorrByCombinedMass", 
      "offset": -859582.875, 
      "scale": 2.3318429699051616e-06
    }, 
    {
      "name": "Split12", 
      "offset": -56906.49609375, 
      "scale": 1.833542817987714e-05
    }, 
    {
      "name": "KtDR", 
      "offset": -0.4756704568862915, 
      "scale": 0.9999846222381271
    }
  ], 
  "layers": [
    {
      "activation": "rectified", 
      "architecture": "dense", 
      "bias": [
        -0.004122593905776739, 
        0.02320939488708973, 
        -0.020890844985842705, 
        -0.014917902648448944, 
        -0.0662439838051796, 
        -0.0014249952509999275, 
        0.028137966990470886, 
        -0.036200281232595444, 
        -0.0023346017114818096, 
        -0.009600618854165077, 
        0.0007398618035949767, 
        -0.03847096860408783, 
        0.003779894206672907, 
        0.0024057822301983833, 
        0.018830399960279465, 
        -0.015260793268680573
      ], 
      "weights": [
        -0.0014138005208224058, 
        -0.007640828378498554, 
        0.003336528316140175, 
        -0.005083272699266672, 
        0.000921208004001528, 
        -0.0011078000534325838, 
        0.005084606818854809, 
        0.05621707811951637, 
        0.00048608536599203944, 
        0.007755699567496777, 
        -0.16604052484035492, 
        0.0006749363383278251, 
        -0.03529885411262512, 
        0.04262673109769821, 
        -0.0012497382704168558, 
        -0.004872431047260761, 
        -0.01096917875111103, 
        0.004126555752009153, 
        -0.006000756751745939, 
        -0.0073584928177297115, 
        0.0013334694085642695, 
        0.002569480799138546, 
        -0.0004981679376214743, 
        -0.000629342335741967, 
        -0.0027053807862102985, 
        0.009629598818719387, 
        -0.05463527515530586, 
        -0.0007042232318781316, 
        0.002712338464334607, 
        -0.0025986649561673403, 
        0.00483314972370863, 
        -0.0026457984931766987, 
        0.02974548004567623, 
        0.005066659767180681, 
        0.0014125879388302565, 
        0.0003063262265641242, 
        -0.028350168839097023, 
        -0.003973452840000391, 
        0.001505906693637371, 
        0.0032874546013772488, 
        0.002393395407125354, 
        -0.003244405146688223, 
        0.002096080221235752, 
        -0.06394780427217484, 
        -0.016942350193858147, 
        -6.036211743776221e-06, 
        0.0002915735822170973, 
        0.003926893230527639, 
        0.010606963187456131, 
        0.003230595961213112, 
        -0.007022405043244362, 
        -0.008366468362510204, 
        -0.0027644908986985683, 
        0.0003988734388258308, 
        -0.13864785432815552, 
        0.0009020553552545607, 
        0.0014221383025869727, 
        -0.0065252636559307575, 
        0.0022709162440150976, 
        0.0008104164735414088, 
        0.03150695189833641, 
        -0.0011956746457144618, 
        0.005031312815845013, 
        -0.06581065058708191, 
        -0.01347995176911354, 
        0.002259108005091548, 
        -0.02531399205327034, 
        -0.0023540491238236427, 
        0.02613251283764839, 
        0.0027873781509697437, 
        0.010510509833693504, 
        0.0008604221511632204, 
        -0.006551963277161121, 
        -0.01323205791413784, 
        -0.048205118626356125, 
        -0.0027101326268166304, 
        -0.010737024247646332, 
        -0.0033995124977082014, 
        -0.017233772203326225, 
        -0.0007805441855452955, 
        -0.032106854021549225, 
        -0.0027359509840607643, 
        -0.00261100847274065, 
        0.00046888028737157583, 
        -0.0053795743733644485, 
        -0.0004343063337728381, 
        0.0009398759575560689, 
        0.07281249761581421, 
        0.031849075108766556, 
        -3.222990926587954e-05, 
        0.0008829725557006896, 
        0.002972017042338848, 
        0.0013156388886272907, 
        -0.0020069831516593695, 
        0.002373167546465993, 
        0.0004447696846909821, 
        -0.004961451981216669, 
        -0.009815972298383713, 
        -0.049790870398283005, 
        -0.0024210496339946985, 
        -0.008385585620999336, 
        -0.24188783764839172, 
        -0.002023867331445217, 
        0.0007717572152614594, 
        -0.00010969323921017349, 
        0.012862793169915676, 
        0.000923106272239238, 
        -0.0009767444571480155, 
        -0.00283766258507967, 
        -0.005111229605972767, 
        -0.003630485385656357, 
        0.0062579140067100525, 
        0.005031540058553219, 
        -0.001333250431343913, 
        -0.003956479951739311, 
        0.003201310057193041, 
        0.03868330642580986, 
        -0.011294438503682613, 
        -0.0813002958893776, 
        0.001730733667500317, 
        -0.03888128697872162, 
        0.030589094385504723, 
        -0.0017031991155818105, 
        -0.049347031861543655, 
        0.017340298742055893, 
        -0.0008001158130355179, 
        0.0036711038555949926, 
        0.008966694585978985, 
        0.006867910735309124, 
        0.013816697522997856, 
        -0.001504611223936081, 
        0.000776739907450974, 
        0.02263086475431919, 
        0.009226640686392784, 
        0.02420198917388916, 
        -0.0016170390881597996, 
        0.0060353209264576435, 
        0.003271364839747548, 
        0.005626700818538666, 
        0.0003343556891195476, 
        -0.007249463349580765, 
        -0.0010660558473318815, 
        -0.015216353349387646, 
        -0.0026395865716040134, 
        -0.0071291192434728146, 
        0.0033648398239165545, 
        0.0009180973283946514, 
        0.0006237143534235656, 
        0.003886786988005042, 
        0.0007038069888949394, 
        0.0019206689903512597, 
        -0.004598583560436964, 
        -0.2769952714443207, 
        -0.00609241658821702, 
        0.0039747185073792934, 
        0.0005388589343056083, 
        0.019381675869226456, 
        0.0022002174519002438, 
        -0.0019028858514502645, 
        0.030794106423854828, 
        -0.018312811851501465, 
        0.0012345544528216124, 
        -0.0001463934313505888, 
        -0.02318279817700386, 
        -0.0019946026150137186, 
        -0.0012592464918270707, 
        -3.3086595067288727e-05, 
        -7.688194455113262e-05, 
        0.001940062502399087, 
        0.000171130130183883, 
        -0.033629149198532104, 
        -0.00038961824611760676, 
        -0.001160920481197536, 
        -0.006535748485475779, 
        -0.0014331844868138433, 
        0.007609270047396421, 
        0.14320430159568787, 
        0.0027819841634482145, 
        -0.024494098499417305, 
        -0.0008157495176419616, 
        -0.001048955600708723, 
        -0.00011058170639444143, 
        0.0010897588217630982, 
        0.0006824609590694308, 
        0.002000014064833522, 
        0.0009767042938619852, 
        0.0006094664568081498, 
        -0.0004864655202254653, 
        -0.10449299961328506, 
        0.017281675711274147, 
        0.0014715855941176414, 
        -0.0010933673474937677
      ]
    }, 
    {
      "architecture": "normalization", 
      "bias": [
        -0.03907549008727074, 
        -0.04498276114463806, 
        -0.01209820993244648, 
        -0.02718786709010601, 
        -0.0038715917617082596, 
        -0.028607064858078957, 
        -0.026300720870494843, 
        -0.004281375557184219, 
        -0.08371810615062714, 
        -0.005414300132542849, 
        -0.018002789467573166, 
        -0.007647807244211435, 
        -0.07854141294956207, 
        -0.02261107601225376, 
        -0.019768375903367996, 
        -0.016553359106183052
      ], 
      "weights": [
        42.05134582519531, 
        21.17852210998535, 
        34.31892776489258, 
        32.46200942993164, 
        52.94392395019531, 
        21.390708923339844, 
        25.47047233581543, 
        38.63550567626953, 
        17.632457733154297, 
        64.5921401977539, 
        23.615238189697266, 
        38.3219108581543, 
        20.31589126586914, 
        26.333045959472656, 
        11.14868450164795, 
        33.64982986450195
      ]
    }, 
    {
      "activation": "rectified", 
      "architecture": "dense", 
      "bias": [
        0.001669350080192089, 
        0.001395643106661737, 
        -0.013038241304457188, 
        0.046502530574798584, 
        -0.015936991199851036, 
        -2.5411327442270704e-06, 
        -0.003334175795316696, 
        0.041086647659540176, 
        -0.0007288036867976189, 
        -0.0022644156124442816, 
        0.002611391246318817, 
        0.00022493512369692326, 
        -0.03652043640613556, 
        -0.044722482562065125
      ], 
      "weights": [
        -0.006009869277477264, 
        -0.031677741557359695, 
        -0.0007712651859037578, 
        0.00021627129171974957, 
        -0.007301946170628071, 
        -0.0024421594571322203, 
        -0.025176091119647026, 
        -0.008026184514164925, 
        0.07776240259408951, 
        -0.0011425008997321129, 
        0.0007445833762176335, 
        0.00567330326884985, 
        -0.0028768593911081553, 
        -0.0017745266668498516, 
        -0.11192256957292557, 
        0.0021327866706997156, 
        -0.019330617040395737, 
        -0.0006787258316762745, 
        0.011994480155408382, 
        0.031034961342811584, 
        9.13547228265088e-06, 
        0.03220345452427864, 
        0.027084549888968468, 
        -0.002004531677812338, 
        -0.0045869676396250725, 
        -0.0014096752274781466, 
        0.0017408207058906555, 
        0.026674069464206696, 
        0.010221780277788639, 
        -0.007459272164851427, 
        -0.007280529011040926, 
        0.0011480865068733692, 
        -0.006415994837880135, 
        0.01071779802441597, 
        0.0009047308703884482, 
        0.0023702713660895824, 
        0.0002754929882939905, 
        0.00682717515155673, 
        -0.0021126954816281796, 
        0.0029987397138029337, 
        -0.00024487412883900106, 
        -0.0271823238581419, 
        0.002913607284426689, 
        0.0018959947628900409, 
        0.06581049412488937, 
        -0.0008228817605413496, 
        0.002373139839619398, 
        0.00026195126702077687, 
        -0.0038632871583104134, 
        -0.01897992007434368, 
        0.014766572043299675, 
        0.0010681096464395523, 
        -0.006864253897219896, 
        -0.006527987774461508, 
        0.0364638976752758, 
        -0.004223553463816643, 
        0.006609264761209488, 
        0.005144736263900995, 
        -0.009997912682592869, 
        -0.005323475226759911, 
        0.021236445754766464, 
        0.006762317381799221, 
        -0.006657444406300783, 
        -0.019872745499014854, 
        0.027843832969665527, 
        0.009345030412077904, 
        -0.0006540154572576284, 
        -0.024691160768270493, 
        0.011987490579485893, 
        0.026442155241966248, 
        -0.009700925089418888, 
        -0.037213798612356186, 
        0.0002642719482537359, 
        -0.0015021581202745438, 
        -0.005567082203924656, 
        -0.003833832684904337, 
        -0.0015529438387602568, 
        0.015605530701577663, 
        0.013993455097079277, 
        0.0005086071905680001, 
        6.714488336001523e-06, 
        -6.553625098604243e-06, 
        -1.612016058061272e-05, 
        1.080207402992528e-05, 
        1.1832746167783625e-05, 
        1.1047322914237157e-05, 
        -3.8971970752754714e-06, 
        -1.967827120097354e-05, 
        -1.490784779889509e-05, 
        2.5579767680028453e-05, 
        -8.292825441458263e-06, 
        -1.700599750620313e-05, 
        -5.8335122048447374e-06, 
        2.9625905881403014e-05, 
        1.756592610036023e-05, 
        3.310301690362394e-05, 
        -0.008295267820358276, 
        -0.014422349631786346, 
        -0.00025733813527040184, 
        0.0013816969003528357, 
        -0.022360214963555336, 
        -0.03225594013929367, 
        0.0007296105031855404, 
        0.0019992797169834375, 
        0.001999510917812586, 
        0.0008674549753777683, 
        -0.006611702498048544, 
        -5.105210220790468e-05, 
        -0.03395111486315727, 
        -0.0015591351548209786, 
        0.0009411819628439844, 
        -0.03720121830701828, 
        -0.0013296364340931177, 
        -0.006900328677147627, 
        0.0009278247016482055, 
        -0.017392968758940697, 
        -0.0068496703170239925, 
        0.002065589651465416, 
        -0.010762747377157211, 
        -0.0016469110269099474, 
        -0.013070174492895603, 
        0.0019029311370104551, 
        -0.00035559196840040386, 
        0.02029704861342907, 
        -0.0005259963218122721, 
        -0.002484423341229558, 
        0.05678074061870575, 
        -0.005017620511353016, 
        0.01823464408516884, 
        -0.0004898403421975672, 
        0.0003001592122018337, 
        -0.0018068409990519285, 
        0.0002893850323744118, 
        -0.0011899411911144853, 
        -0.0011437046341598034, 
        -0.010085566900670528, 
        -0.002320139203220606, 
        0.0014996035024523735, 
        0.003173644421622157, 
        -0.0015180949121713638, 
        0.0029492871835827827, 
        -0.0006715212948620319, 
        0.00011792411532951519, 
        0.041002530604600906, 
        0.016639528796076775, 
        0.0031242200639098883, 
        0.0010168406879529357, 
        -0.0008204273763112724, 
        -0.002175192814320326, 
        -0.014999131672084332, 
        -0.010443919338285923, 
        0.0023233157116919756, 
        -0.0013230015756562352, 
        0.025515226647257805, 
        -0.0018554901471361518, 
        -0.00022505394008476287, 
        0.054241765290498734, 
        -0.0011929641477763653, 
        0.0015822290442883968, 
        -0.000619054539129138, 
        -0.009640825912356377, 
        0.009975587017834187, 
        -0.058210909366607666, 
        -0.007943650707602501, 
        0.005608747247606516, 
        0.006708089262247086, 
        0.02718353644013405, 
        -0.0017888823058456182, 
        -0.0019467056263238192, 
        -0.0035586014855653048, 
        0.020146727561950684, 
        -0.004562344402074814, 
        -0.00042517378460615873, 
        -0.027111999690532684, 
        0.0015922444872558117, 
        -0.007197852712124586, 
        -0.06812923401594162, 
        -0.0009288376313634217, 
        -0.0005288836546242237, 
        0.007832331582903862, 
        0.004065711982548237, 
        -0.0005360046052373946, 
        -0.001713148900307715, 
        0.004962975159287453, 
        0.0031557611655443907, 
        -0.010708595626056194, 
        -0.05301594361662865, 
        -0.0009162651840597391, 
        0.0002574793470557779, 
        0.01410751510411501, 
        0.0011739650508388877, 
        0.0057770321145653725, 
        0.00492975115776062, 
        0.03561342880129814, 
        -0.0015788800083100796, 
        0.0107257179915905, 
        -0.0009941711323335767, 
        -0.007824760861694813, 
        -0.0039988248609006405, 
        0.010016845539212227, 
        0.002922360086813569, 
        0.003717876272276044, 
        -0.0045148590579628944, 
        0.0031736495438963175, 
        -0.0015811226330697536, 
        0.004203754011541605, 
        -0.0011607515625655651, 
        0.00266343355178833, 
        0.017998868599534035, 
        -0.023688357323408127, 
        0.0050462959334254265, 
        -0.009057166986167431, 
        -5.4656111387885176e-06, 
        0.0019082979997619987, 
        0.004378202371299267, 
        -0.0048913205973804, 
        0.019644225016236305, 
        0.0009639682248234749, 
        0.0011129764607176185, 
        0.00197588000446558, 
        -0.0478568859398365, 
        -0.0021387513261288404, 
        0.0009913271060213447, 
        -0.007712199818342924
      ]
    }, 
    {
      "architecture": "normalization", 
      "bias": [
        -0.029561972245573997, 
        -0.0038696955889463425, 
        -0.012336846441030502, 
        -0.04058633744716644, 
        -0.009787572547793388, 
        0.001474458258599043, 
        -0.022930288687348366, 
        -0.07316111773252487, 
        -0.03169597312808037, 
        -0.0590004026889801, 
        -0.035332225263118744, 
        -0.042371366173028946, 
        -0.004363863728940487, 
        0.0020059337839484215
      ], 
      "weights": [
        30.804561614990234, 
        33.16243362426758, 
        28.72701072692871, 
        21.614826202392578, 
        32.53570556640625, 
        8.107913970947266, 
        29.76959228515625, 
        12.532663345336914, 
        23.230886459350586, 
        18.39851188659668, 
        27.921476364135742, 
        24.345304489135742, 
        69.42666625976562, 
        76.17902374267578
      ]
    }, 
    {
      "activation": "rectified", 
      "architecture": "dense", 
      "bias": [
        -0.000428210711106658, 
        0.002180092968046665, 
        -0.0015673738671466708, 
        2.5441431716899388e-05, 
        0.01063015777617693, 
        -0.0005616037524305284, 
        0.07055173069238663, 
        0.0011582138249650598, 
        0.0015393811045214534
      ], 
      "weights": [
        0.001992177916690707, 
        -0.011619823053479195, 
        -0.00851607695221901, 
        -0.014527345076203346, 
        0.0011065348517149687, 
        2.8058366297045723e-06, 
        -0.019528541713953018, 
        0.013904630206525326, 
        0.03327108174562454, 
        -0.004397348500788212, 
        0.008817900903522968, 
        0.036657243967056274, 
        -0.0016253343783318996, 
        -0.000632785027846694, 
        0.06580842286348343, 
        -0.001364353345707059, 
        -0.003945783246308565, 
        -0.0019336651312187314, 
        0.008383088745176792, 
        -1.3174609193811193e-05, 
        0.002191755920648575, 
        -0.0006204145029187202, 
        0.000730940664652735, 
        0.006973812822252512, 
        -0.0005161711014807224, 
        -0.001234339433722198, 
        -0.0005086726741865277, 
        -0.00415128655731678, 
        0.0007300990400835872, 
        -0.0016038579633459449, 
        0.001834673690609634, 
        0.007541690021753311, 
        0.0017314488068223, 
        4.1931041778298095e-05, 
        0.001632097759284079, 
        0.0011591416550800204, 
        -0.00030450106714852154, 
        0.029104286804795265, 
        0.0022596558555960655, 
        -0.001496362965553999, 
        0.005234330426901579, 
        -0.0010222819400951266, 
        0.008931323885917664, 
        0.007542658597230911, 
        -0.013707847334444523, 
        0.014464443549513817, 
        0.019733622670173645, 
        -3.723194095073268e-05, 
        0.0006573831778950989, 
        -0.04567648470401764, 
        -0.000683254620525986, 
        -0.02772216498851776, 
        -0.02405671775341034, 
        0.0009558063466101885, 
        -0.0019928165711462498, 
        0.0009422909934073687, 
        -0.000568135641515255, 
        0.009769342839717865, 
        0.020848562940955162, 
        0.010361007414758205, 
        0.00272078113630414, 
        -8.373356104129925e-05, 
        0.0005668224766850471, 
        0.042579248547554016, 
        0.0036057557445019484, 
        0.03227824717760086, 
        -0.0015307186404243112, 
        -0.029708772897720337, 
        6.260694499360397e-05, 
        -0.001955494051799178, 
        0.00275047542527318, 
        -0.0007900996715761721, 
        0.0050524258986115456, 
        -0.004648922476917505, 
        -0.03344695270061493, 
        -1.5203543625830207e-05, 
        0.011754591949284077, 
        0.003010032931342721, 
        -0.0005722198984585702, 
        0.0010115361073985696, 
        0.010705155320465565, 
        0.04681245610117912, 
        0.005259572062641382, 
        -0.011569435708224773, 
        0.0038031626027077436, 
        0.0005805848632007837, 
        -0.003142812754958868, 
        0.03127902001142502, 
        0.002480623312294483, 
        2.5424624254810624e-05, 
        -0.0013262202264741063, 
        -0.017143940553069115, 
        -0.010348401963710785, 
        -0.005452093202620745, 
        0.032900501042604446, 
        0.0015914977993816137, 
        -0.00970522128045559, 
        0.009718759916722775, 
        0.00803136732429266, 
        0.012151687406003475, 
        0.0030660966876894236, 
        0.0021115769632160664, 
        -0.0072287884540855885, 
        -2.8357926566968672e-05, 
        -0.0034023209009319544, 
        0.0015403787838295102, 
        -0.025615759193897247, 
        0.009773270227015018, 
        0.028553271666169167, 
        -0.0006655831821262836, 
        -0.0006300322129391134, 
        -0.0102783078327775, 
        -0.002928476082161069, 
        0.02737187035381794, 
        0.020630450919270515, 
        -0.02751060016453266, 
        -0.010326956398785114, 
        -0.00011358616757206619, 
        0.020726149901747704, 
        0.011093908920884132, 
        0.002143856603652239, 
        -0.021734926849603653, 
        0.011535129509866238, 
        0.003652081824839115, 
        0.010803056880831718, 
        0.02952292561531067
      ]
    }, 
    {
      "architecture": "normalization", 
      "bias": [
        0.014165329746901989, 
        -0.014700857922434807, 
        -0.021471017971634865, 
        -0.012474264949560165, 
        -0.09557364881038666, 
        -0.04478371888399124, 
        -0.012488290667533875, 
        -0.008213764987885952, 
        -0.07576476782560349
      ], 
      "weights": [
        32.59933853149414, 
        18.963748931884766, 
        30.555789947509766, 
        29.489486694335938, 
        15.04128360748291, 
        26.071664810180664, 
        12.274026870727539, 
        40.29130554199219, 
        18.99342918395996
      ]
    }, 
    {
      "activation": "rectified", 
      "architecture": "dense", 
      "bias": [
        -0.0037616833578795195, 
        0.0004455030430108309, 
        0.0003026094054803252, 
        0.0002088161272695288, 
        0.0004463590157683939, 
        -0.0012374393409118056
      ], 
      "weights": [
        0.005456955637782812, 
        0.004874696489423513, 
        0.0077856057323515415, 
        0.0239717997610569, 
        0.014025809243321419, 
        0.030647799372673035, 
        -0.0150436507537961, 
        0.020941898226737976, 
        -0.00434693181887269, 
        0.015334502793848515, 
        0.028995828703045845, 
        -0.0010906015522778034, 
        0.0026646004989743233, 
        -0.03358208388090134, 
        -0.02291201427578926, 
        -0.0007992606842890382, 
        0.017346054315567017, 
        -0.03243257477879524, 
        -0.014088992960751057, 
        0.012086492963135242, 
        -0.0038433964364230633, 
        0.026571733877062798, 
        -0.01215557660907507, 
        -5.7971104979515076e-05, 
        -0.0004172946501057595, 
        -0.008059198036789894, 
        -0.0049952128902077675, 
        0.02956578880548477, 
        0.0062682414427399635, 
        -0.009100507013499737, 
        0.0010553222382441163, 
        0.001202855841256678, 
        -0.012038367800414562, 
        0.06643655151128769, 
        0.0058525120839476585, 
        -0.001987606752663851, 
        -0.017690883949398994, 
        -0.02819741703569889, 
        -0.0037700410466641188, 
        0.017146680504083633, 
        -0.0009291156893596053, 
        0.01161822210997343, 
        0.02866511605679989, 
        0.0035157357342541218, 
        -0.00156013248488307, 
        -0.005336531903594732, 
        0.0004437633615452796, 
        -0.0003520490135997534, 
        0.005107243079692125, 
        -0.030749773606657982, 
        0.00014495596406050026, 
        0.0015531466342508793, 
        -0.0002424269332550466, 
        -0.032633669674396515
      ]
    }, 
    {
      "architecture": "normalization", 
      "bias": [
        -0.006184551399201155, 
        -0.0930304303765297, 
        -0.027098901569843292, 
        -0.10787796229124069, 
        -0.02543327398598194, 
        -0.054536014795303345
      ], 
      "weights": [
        65.8399658203125, 
        16.959938049316406, 
        32.796302795410156, 
        15.656476020812988, 
        26.912927627563477, 
        18.624340057373047
      ]
    }, 
    {
      "activation": "sigmoid", 
      "architecture": "dense", 
      "bias": [
        0.006993713788688183
      ], 
      "weights": [
        -0.26136156916618347, 
        0.8873782157897949, 
        0.3303139805793762, 
        0.8535317778587341, 
        0.5477661490440369, 
        0.4457678198814392
      ]
    }
  ], 
  "outputs": [
    "W_dnn_BN_june6"
  ]
}
