{
  "defaults": {}, 
  "inputs": [
    {
      "name": "Tau1_wta", 
      "offset": 0, 
      "scale": 10.0
    }, 
    {
      "name": "Tau2_wta", 
      "offset": 0, 
      "scale": 10.0
    }, 
    {
      "name": "Tau3_wta", 
      "offset": 0, 
      "scale": 10.0
    }, 
    {
      "name": "Tau21_wta", 
      "offset": 0, 
      "scale": 1
    }, 
    {
      "name": "Tau32_wta", 
      "offset": 0, 
      "scale": 1
    }, 
    {
      "name": "Split12", 
      "offset": 0, 
      "scale": 1e-05
    }, 
    {
      "name": "Split23", 
      "offset": 0, 
      "scale": 0.0001
    }, 
    {
      "name": "Qw", 
      "offset": 0, 
      "scale": 1e-05
    }, 
    {
      "name": "C2", 
      "offset": 0, 
      "scale": 10.0
    }, 
    {
      "name": "D2", 
      "offset": 0, 
      "scale": 1
    }, 
    {
      "name": "ECF1", 
      "offset": 0, 
      "scale": 1e-06
    }, 
    {
      "name": "ECF2", 
      "offset": 0, 
      "scale": 1e-11
    }, 
    {
      "name": "ECF3", 
      "offset": 0, 
      "scale": 1e-15
    }
  ], 
  "layers": [
    {
      "activation": "rectified", 
      "architecture": "dense", 
      "bias": [
        0.028813429176807404, 
        -9.320228855358437e-06, 
        8.97138161235489e-05, 
        4.756082489620894e-06, 
        0.003742414526641369, 
        0.000384884508093819, 
        0.0325147844851017, 
        -6.576582109119045e-06, 
        5.282181518850848e-06, 
        0.0004553828912321478, 
        0.053505413234233856, 
        -0.029016731306910515, 
        0.03328903391957283, 
        -0.0012969141826033592, 
        1.675838211667724e-05, 
        8.137669283314608e-06, 
        0.00020608246268238872, 
        -7.328243896154163e-07
      ], 
      "weights": [
        -0.008704457432031631, 
        -0.026225758716464043, 
        -0.16095252335071564, 
        -0.0013550474541261792, 
        -0.000644455780275166, 
        0.008759035728871822, 
        0.0022196066565811634, 
        0.024719631299376488, 
        0.0604950375854969, 
        -0.019166188314557076, 
        -0.01042751595377922, 
        0.00038195651723071933, 
        -0.00018560423632152379, 
        0.000509326346218586, 
        0.0002341423387406394, 
        0.0001780997117748484, 
        -0.0003492539981380105, 
        5.061587580712512e-05, 
        0.0003739622770808637, 
        0.0013499681372195482, 
        -5.856288407812826e-05, 
        4.6106459194561467e-05, 
        -5.6138709624065086e-05, 
        0.0004653545329347253, 
        2.908809437940363e-05, 
        0.0017323192441836, 
        0.006403799168765545, 
        0.016703074797987938, 
        0.0006698112701997161, 
        0.13769960403442383, 
        -0.0011989681515842676, 
        0.0028038169257342815, 
        0.0002926673914771527, 
        0.06856724619865417, 
        -0.009335694834589958, 
        0.0057530030608177185, 
        -0.0005294610746204853, 
        -0.010802925564348698, 
        0.00017593898519407958, 
        -6.189446821736055e-07, 
        3.257113348809071e-06, 
        -1.891026840894483e-06, 
        -7.225005447253352e-06, 
        -5.881906872673426e-06, 
        6.5801759774331e-06, 
        2.4492410375387408e-06, 
        -1.3324070096132345e-06, 
        -2.283144112880109e-06, 
        1.0152863069379237e-05, 
        -4.0328291106561664e-07, 
        -9.874720490188338e-07, 
        2.6465070277481573e-06, 
        -0.0358755923807621, 
        -0.0001262110599782318, 
        8.517034439137205e-05, 
        0.000570851203519851, 
        -0.001644790405407548, 
        -0.0006995379808358848, 
        -0.007401653565466404, 
        -0.0005711268750019372, 
        0.0002581843873485923, 
        0.00957406684756279, 
        0.01211718749254942, 
        -4.8517409595660865e-05, 
        -0.0031001304741948843, 
        -0.0016041103517636657, 
        -9.528049849905074e-05, 
        -8.546669414499775e-05, 
        0.00018163090862799436, 
        -6.555966683663428e-05, 
        0.00010542563541093841, 
        0.02246653102338314, 
        0.0011615562252700329, 
        -0.00023769617837388068, 
        0.0008094802615232766, 
        0.007024264428764582, 
        0.027177896350622177, 
        -0.009170298464596272, 
        -0.0011126071913167834, 
        -0.0021889247000217438, 
        -0.0016258450923487544, 
        0.036854829639196396, 
        0.03317110612988472, 
        0.00021491169172804803, 
        0.0019561327062547207, 
        0.011565737426280975, 
        0.014931648969650269, 
        -0.0626550018787384, 
        0.00023457675706595182, 
        0.005406363867223263, 
        -0.0033511703368276358, 
        -6.231914994714316e-06, 
        4.646089109883178e-06, 
        -9.316586329077836e-06, 
        -4.73168256576173e-06, 
        1.764596345310565e-05, 
        -1.5666562831029296e-05, 
        1.8696780443860916e-06, 
        2.9114289645804092e-06, 
        -6.902999302837998e-06, 
        -6.579371984116733e-06, 
        -2.3590500859427266e-06, 
        2.0289797248551622e-05, 
        3.0259639061114285e-06, 
        -7.820599421393126e-07, 
        -3.1425076940649888e-06, 
        4.191273546894081e-06, 
        -1.5312537016143324e-07, 
        8.237295332946815e-06, 
        -8.168559361365624e-06, 
        -7.572100003017113e-06, 
        7.417572760459734e-07, 
        -8.51274307933636e-06, 
        3.4716128993750317e-06, 
        -1.278532545256894e-05, 
        2.2762715161661617e-06, 
        -1.7584992747288197e-05, 
        0.0015163313364610076, 
        -0.02421937696635723, 
        0.00014609197387471795, 
        -0.020347509533166885, 
        0.14005228877067566, 
        0.010411356575787067, 
        -0.0030985698103904724, 
        -0.0005653349217027426, 
        -0.007225549779832363, 
        0.005518763791769743, 
        -0.0005331693100742996, 
        -0.005140309222042561, 
        -0.0016367844073101878, 
        0.009284764528274536, 
        0.0003983236965723336, 
        -0.0318710133433342, 
        0.016862180083990097, 
        0.00025978044141083956, 
        -0.00022839041776023805, 
        -0.0003337414818815887, 
        0.07577607035636902, 
        0.002691530855372548, 
        -0.016454488039016724, 
        -0.007378122769296169, 
        0.028664039447903633, 
        -0.04669543355703354, 
        -0.007271401584148407, 
        0.005763801746070385, 
        -0.00021243006631266326, 
        -2.2241500118980184e-05, 
        -0.0055780778639018536, 
        0.0655847042798996, 
        -0.002345256507396698, 
        0.03065779246389866, 
        -0.002068667206913233, 
        0.007444639224559069, 
        0.007893170230090618, 
        -0.01966901868581772, 
        -0.007844667881727219, 
        -0.00011213244579266757, 
        0.012819101102650166, 
        0.005476422607898712, 
        0.00022567379346583039, 
        0.004460957832634449, 
        -0.0007156278006732464, 
        0.0031257213559001684, 
        0.02496388740837574, 
        -0.009774165228009224, 
        0.0011713446583598852, 
        0.017366483807563782, 
        -0.03645368292927742, 
        -0.0745198130607605, 
        0.0015092926332727075, 
        0.0003157412284053862, 
        0.001015235553495586, 
        -0.0005724842194467783, 
        0.003957555163651705, 
        0.021030373871326447, 
        -0.0004179638926871121, 
        0.04983877018094063, 
        0.005668787285685539, 
        -0.06524991244077682, 
        -0.001406673458404839, 
        0.005568116437643766, 
        -0.002587059047073126, 
        -1.659042936807964e-06, 
        -6.238725291041192e-06, 
        -1.166637593996711e-05, 
        6.661141469521681e-06, 
        -1.6351772501366213e-05, 
        2.7445012165117078e-06, 
        -2.5433760129089933e-06, 
        1.1725216609193012e-05, 
        -1.0548226782702841e-05, 
        8.985900421976112e-06, 
        6.662733539997134e-06, 
        -8.174955837603193e-06, 
        -1.2591360246005934e-05, 
        2.903106178564485e-06, 
        -5.93883032706799e-06, 
        9.658864655648358e-06, 
        -3.234201813029358e-07, 
        -5.390709702624008e-06, 
        -4.383882696856745e-06, 
        8.878396329237148e-07, 
        -3.3155401979456656e-07, 
        -7.33286560716806e-06, 
        9.574778232490644e-06, 
        8.213348337449133e-06, 
        1.4121635558694834e-06, 
        1.3647055311594158e-05, 
        -0.001390305464155972, 
        2.5075356461456977e-05, 
        0.03748846799135208, 
        0.0009546594228595495, 
        0.03541324660181999, 
        0.002586531452834606, 
        0.0031364946626126766, 
        -0.000316051475238055, 
        -0.0004334040859248489, 
        -0.0021134221460670233, 
        0.03444279730319977, 
        -0.008106930181384087, 
        -0.057588137686252594, 
        0.04554346948862076, 
        0.0003231103182770312, 
        0.0006287826108746231, 
        -0.0006121525657363236, 
        0.0003822685685008764, 
        0.01653183437883854, 
        0.004309987183660269, 
        0.0006938333972357213, 
        0.0010398635640740395, 
        -0.0010201727272942662, 
        0.0011407737620174885, 
        0.0011749082477763295, 
        0.0028468752279877663
      ]
    }, 
    {
      "architecture": "normalization", 
      "bias": [
        -0.02066594734787941, 
        -0.00511922687292099, 
        -0.10329211503267288, 
        0.0031937970779836178, 
        -0.005555940791964531, 
        -0.06371535360813141, 
        -0.009696964174509048, 
        -0.0016159155638888478, 
        0.0014755823649466038, 
        -0.0606393963098526, 
        -0.03254882991313934, 
        -0.015120109543204308, 
        -0.023213686421513557, 
        -0.004617044236510992, 
        -0.004551658872514963, 
        -0.0007657277747057378, 
        -0.02593543380498886, 
        -0.0830235630273819
      ], 
      "weights": [
        48.48213577270508, 
        10.86076831817627, 
        31.667512893676758, 
        -0.8570070266723633, 
        92.36734008789062, 
        22.57139778137207, 
        63.28668975830078, 
        3.7393715381622314, 
        -1.8751503229141235, 
        34.7332763671875, 
        39.651790618896484, 
        62.04208755493164, 
        50.903411865234375, 
        84.79988098144531, 
        -1.3652589321136475, 
        3.1921427249908447, 
        45.77547073364258, 
        14.446939468383789
      ]
    }, 
    {
      "activation": "rectified", 
      "architecture": "dense", 
      "bias": [
        0.00019724493904504925, 
        0.0001088698481908068, 
        -0.012767922133207321, 
        0.0018811447080224752, 
        0.0016770742367953062, 
        -0.00016651436453685164, 
        0.0029316802974790335, 
        0.0004881201311945915, 
        -0.0012047896161675453, 
        -0.003775819903239608, 
        0.015520312823355198, 
        -0.0027014727238565683, 
        -0.021674536168575287, 
        0.003232744988054037, 
        -0.011505266651511192, 
        0.00428667152300477
      ], 
      "weights": [
        0.007597472984343767, 
        0.001013347296975553, 
        0.014731204137206078, 
        2.638724799908232e-05, 
        -6.234852480702102e-05, 
        0.003299965523183346, 
        0.00594275863841176, 
        2.686191874090582e-05, 
        1.559381780680269e-05, 
        0.04124341160058975, 
        -0.0003175551537424326, 
        -0.01000793557614088, 
        0.0008623789763078094, 
        0.0004513163003139198, 
        -0.00012778323434758931, 
        2.196712011937052e-05, 
        0.0018568293889984488, 
        0.009156906977295876, 
        -0.00066229363437742, 
        -0.0008989435737021267, 
        0.016151849180459976, 
        -1.870391770353308e-07, 
        0.0011457119835540652, 
        0.005757888779044151, 
        -0.0011834133183583617, 
        -2.9772656489512883e-05, 
        -8.447563004665426e-07, 
        -0.02731609158217907, 
        -0.0004732377710752189, 
        -0.002554649952799082, 
        -0.043237388134002686, 
        0.004321220330893993, 
        5.602179498964688e-06, 
        -1.987174073292408e-06, 
        -0.0028171357698738575, 
        -0.0008868623408488929, 
        -0.000981160788796842, 
        -0.000648367335088551, 
        0.009371643885970116, 
        -2.4902154109440744e-05, 
        0.007081734482198954, 
        -0.008550232276320457, 
        0.014222806319594383, 
        -3.090081736445427e-05, 
        3.4669492379180156e-06, 
        -0.0035394488368183374, 
        0.005345870740711689, 
        -0.0192209891974926, 
        -0.006627053488045931, 
        0.00261104479432106, 
        1.0959227438434027e-05, 
        3.888065748469671e-06, 
        -0.007472737226635218, 
        -0.02503529191017151, 
        -0.0001406684605171904, 
        -0.0005527253961190581, 
        -0.006300386041402817, 
        3.0237661121645942e-06, 
        -0.006703480612486601, 
        -0.00411590002477169, 
        -0.006231090985238552, 
        5.689744284609333e-07, 
        -7.540331239397347e-07, 
        0.005246766842901707, 
        0.023544156923890114, 
        -0.0037169596180319786, 
        -0.008929981850087643, 
        -0.002181807765737176, 
        -1.4934244063624647e-05, 
        7.632521374034695e-06, 
        -0.020606661215424538, 
        -0.01091840025037527, 
        0.030774293467402458, 
        0.0007244034204632044, 
        0.004476939793676138, 
        -2.2661060938844457e-06, 
        -0.0014876744244247675, 
        0.003190280171111226, 
        -0.0006752419867552817, 
        1.161422460427275e-05, 
        -1.8719792933552526e-06, 
        -0.0002467443700879812, 
        0.0027126045897603035, 
        -0.0009020190336741507, 
        -0.0011036117793992162, 
        0.0066572800278663635, 
        7.043265213724226e-06, 
        -1.2075030326741398e-06, 
        3.7919202441116795e-05, 
        -0.00022544812236446887, 
        -0.006195831578224897, 
        -0.000937353412155062, 
        -0.0003421614528633654, 
        2.6720351797848707e-06, 
        -0.006128701381385326, 
        0.0011059760581701994, 
        0.0021723622921854258, 
        -1.0695647688407917e-05, 
        1.4405031834030524e-06, 
        -0.02100048027932644, 
        -0.0016651094192638993, 
        0.0018514675321057439, 
        0.0012606600066646934, 
        0.0014106248272582889, 
        -3.564264716260368e-06, 
        -5.15114425070351e-06, 
        0.0032434037420898676, 
        0.0005594917456619442, 
        0.005840336438268423, 
        -0.00024571429821662605, 
        -0.01731562428176403, 
        5.237948244030122e-06, 
        0.018130062147974968, 
        0.0069506531581282616, 
        0.011292784474790096, 
        -1.7702870536595583e-05, 
        6.422688784368802e-06, 
        -0.0018924380419775844, 
        -0.01255945023149252, 
        -0.0011865110136568546, 
        -0.0015889053465798497, 
        0.004846296273171902, 
        3.5572826163843274e-05, 
        6.203059001563815e-06, 
        -0.015258504077792168, 
        -0.00759667856618762, 
        0.0014009858714416623, 
        0.0016976443585008383, 
        0.0284451711922884, 
        -8.389531103603076e-06, 
        0.0031826894264668226, 
        0.0006264038383960724, 
        -0.005679841618984938, 
        -1.6118428902700543e-05, 
        -1.3839013263350353e-05, 
        0.0013103410601615906, 
        0.0062792482785880566, 
        0.003966350108385086, 
        0.007043548859655857, 
        0.0011319681070744991, 
        7.865742190915626e-07, 
        -4.81974257127149e-06, 
        0.023415692150592804, 
        0.00015440909191966057, 
        -0.0010034164879471064, 
        0.0030076163820922375, 
        -0.008479135110974312, 
        1.5051837181090377e-06, 
        -0.002297252882272005, 
        -0.022439340129494667, 
        -0.003027183236554265, 
        -1.6981863154796883e-05, 
        -2.534004579501925e-07, 
        -0.00021363511041272432, 
        -0.0005878322990611196, 
        -0.0007424179348163307, 
        0.05596736818552017, 
        -1.14085933091701e-05, 
        5.46265255252365e-06, 
        1.0497484254301526e-05, 
        -0.006070433184504509, 
        0.004449116997420788, 
        0.017499597743153572, 
        -0.0014200351433828473, 
        -0.009582791477441788, 
        -1.1071218978031538e-05, 
        0.01407582126557827, 
        0.009160222485661507, 
        -4.116373020224273e-07, 
        2.14119518204825e-05, 
        -1.4728421774634626e-05, 
        0.000679063843563199, 
        -0.006175900809466839, 
        -0.006089194677770138, 
        5.620460433419794e-05, 
        -0.0029468266293406487, 
        1.2996182704227977e-05, 
        -1.8207310858997516e-07, 
        -0.004944364540278912, 
        -0.04196932539343834, 
        -0.010012130253016949, 
        0.0004993354668840766, 
        -0.030154818668961525, 
        -3.795210886892164e-06, 
        -0.007948875427246094, 
        0.007859607227146626, 
        -0.002016545506194234, 
        -1.1356942195561714e-05, 
        -1.7100894183386117e-05, 
        0.00043806087342090905, 
        0.005293149966746569, 
        3.9881364500615746e-05, 
        -0.003470476483926177, 
        -0.0021356549113988876, 
        4.678889581555268e-06, 
        3.394844497961458e-06, 
        0.0009034271934069693, 
        -0.004297977779060602, 
        -0.0026028433348983526, 
        0.00016575894551351666, 
        0.004745720885694027, 
        -1.1273878044448793e-06, 
        0.003007151186466217, 
        0.015291178598999977, 
        0.0007745033362880349, 
        -5.0016176828648895e-05, 
        2.265076091134688e-06, 
        0.000910575152374804, 
        0.0005782106891274452, 
        0.0073645999655127525, 
        -0.0015811697812750936, 
        -0.016903510317206383, 
        1.4652200661657844e-05, 
        -5.967613105894998e-06, 
        -0.019587082788348198, 
        0.0003641291114035994, 
        0.0019759153947234154, 
        -0.00010994169861078262, 
        -0.011961349286139011, 
        1.609617356734816e-05, 
        0.004949034657329321, 
        -0.005043692421168089, 
        0.02222498320043087, 
        -5.299048643792048e-05, 
        4.072612682648469e-06, 
        0.000615633325651288, 
        -0.0001720037398627028, 
        -0.0063400049693882465, 
        -0.026491809636354446, 
        0.003399197943508625, 
        -2.9380902560660616e-05, 
        -3.1411229883815395e-06, 
        -0.020924996584653854, 
        -0.0009369640029035509, 
        0.007034577429294586, 
        -8.978797995951027e-05, 
        -0.0006895263795740902, 
        7.955489309097175e-06, 
        0.004179233219474554, 
        -0.0028978250920772552, 
        0.011156012304127216, 
        -1.3406383914116304e-06, 
        1.2924956536153331e-06, 
        0.00039904937148094177, 
        0.045376941561698914, 
        0.0011736920569092035, 
        0.0009487575152888894, 
        -0.017789799720048904, 
        3.464255132712424e-05, 
        1.2937828614667524e-05, 
        0.0008640188607387245, 
        0.0010317903943359852, 
        -0.028625914826989174, 
        0.0007418033201247454, 
        -0.00014926923904567957, 
        2.4987157303257845e-06, 
        0.0001582694676471874, 
        0.01776822656393051, 
        -0.012415440753102303, 
        7.630653271917254e-06, 
        -1.098409848054871e-05, 
        0.005645606201142073, 
        0.006455686409026384, 
        -0.005897781811654568, 
        3.953531268052757e-05, 
        -0.0010745369363576174, 
        1.8049251593765803e-05, 
        -1.209572292282246e-05, 
        -0.003350507467985153, 
        0.00037063146010041237, 
        -0.003036824520677328, 
        -0.0009966831421479583, 
        -0.013491222634911537, 
        1.3199643944972195e-05, 
        -0.0006649896968156099, 
        0.0011112191714346409, 
        0.004574705380946398, 
        7.064001692924649e-05, 
        -9.69805296335835e-06, 
        0.003206961089745164, 
        0.000259210733929649, 
        -0.03677412122488022, 
        -0.010815740562975407, 
        0.0011172858066856861, 
        -2.6552725103101693e-05, 
        -5.004412287235027e-06, 
        -0.010428042151033878, 
        -0.006902919616550207
      ]
    }, 
    {
      "architecture": "normalization", 
      "bias": [
        -0.017142435535788536, 
        -0.038168586790561676, 
        0.0005711570847779512, 
        -0.014160108752548695, 
        -0.03757404536008835, 
        -0.013099020346999168, 
        -0.005188710987567902, 
        -0.008794096298515797, 
        -0.029520893469452858, 
        -0.0165538489818573, 
        -0.03178917616605759, 
        -0.005361396819353104, 
        -0.01366849709302187, 
        -0.04096553847193718, 
        -0.009743842296302319, 
        -0.015972498804330826
      ], 
      "weights": [
        46.39315414428711, 
        22.262340545654297, 
        127.64832305908203, 
        46.7518424987793, 
        25.9304141998291, 
        50.309146881103516, 
        55.40229797363281, 
        33.61806869506836, 
        44.334388732910156, 
        58.7103271484375, 
        44.97603225708008, 
        46.439064025878906, 
        47.95968246459961, 
        33.01634216308594, 
        72.26898193359375, 
        50.80033493041992
      ]
    }, 
    {
      "activation": "rectified", 
      "architecture": "dense", 
      "bias": [
        -0.0013200328685343266, 
        -0.0019414466805756092, 
        1.7529517208458856e-05, 
        -0.0037315308582037687, 
        -0.000699072377756238, 
        0.00025133969029411674, 
        0.0010575591586530209, 
        0.00012413115473464131, 
        0.008057988248765469, 
        -0.0012860402930527925, 
        0.0010774487163871527, 
        -0.0003835686366073787, 
        0.0343230776488781, 
        -0.00046606193063780665
      ], 
      "weights": [
        0.0019547524861991405, 
        -0.030622920021414757, 
        -0.005940640345215797, 
        -0.0011458763619884849, 
        -0.0006102714687585831, 
        -0.0019630256574600935, 
        0.004314498510211706, 
        0.0038606133311986923, 
        -0.004786377772688866, 
        0.010273134335875511, 
        -0.007617687340825796, 
        -0.0034191037993878126, 
        0.0038448257837444544, 
        -0.002992653986439109, 
        -0.004188875667750835, 
        0.004362701904028654, 
        -0.0016353755490854383, 
        -0.0006869932403787971, 
        -0.000543358561117202, 
        0.00763420294970274, 
        -0.0003240983060095459, 
        -0.002554794540628791, 
        -0.006108298897743225, 
        -0.009347815066576004, 
        0.00180674041621387, 
        0.0017938874661922455, 
        -0.009488986805081367, 
        0.00955426786094904, 
        -0.0051780822686851025, 
        0.010675839148461819, 
        -0.002581072272732854, 
        -0.02873102016746998, 
        -1.2930494449392427e-05, 
        7.948632628540508e-06, 
        -1.0304854185960721e-05, 
        -3.6477727007877547e-06, 
        1.918978705361951e-05, 
        7.461873337888392e-06, 
        1.5600755432387814e-05, 
        6.437684305637958e-07, 
        -1.5379939213744365e-05, 
        -8.002249160199426e-06, 
        -1.7374453818774782e-05, 
        3.6865906167804496e-06, 
        -1.1815614016086329e-06, 
        5.645704277412733e-07, 
        -8.969685040938202e-06, 
        4.970100690115942e-06, 
        2.9827484468114562e-05, 
        -0.00021822050621267408, 
        -0.0013599325902760029, 
        -8.048014569794759e-05, 
        -0.0003132737474516034, 
        0.00033438557875342667, 
        0.0003315492649562657, 
        -0.0013735754182562232, 
        -0.002648276509717107, 
        0.0003706425486598164, 
        0.02531493455171585, 
        -4.028039256809279e-05, 
        -0.0003488456131890416, 
        -0.0015606509987264872, 
        -0.0069343326613307, 
        0.001032962929457426, 
        -0.015855873003602028, 
        0.0007495441823266447, 
        0.0012652643490582705, 
        0.0011523496359586716, 
        -0.0029682721942663193, 
        0.0022627683356404305, 
        0.0008224534685723484, 
        -0.018465986475348473, 
        -0.00701567018404603, 
        -0.012618236243724823, 
        0.00017980043776333332, 
        0.022921238094568253, 
        -0.0006215095054358244, 
        -0.012175420299172401, 
        0.004033540841192007, 
        -0.008533742278814316, 
        -0.01740221679210663, 
        0.004364265128970146, 
        0.012533708475530148, 
        0.0009684946271590889, 
        -0.0027991284150630236, 
        0.00016324472380802035, 
        -0.02291235700249672, 
        -0.0035845444072037935, 
        -0.014773981645703316, 
        -0.0055222283117473125, 
        8.506070298608392e-05, 
        -0.0004878336621914059, 
        0.001594018773175776, 
        0.0006446154438890517, 
        -0.0011340532219037414, 
        -0.0009341389522887766, 
        0.0003982182824984193, 
        0.0011531176278367639, 
        0.011311636306345463, 
        -0.0007524885586462915, 
        0.0113366162404418, 
        -0.0008858576184138656, 
        0.00031867949292063713, 
        0.011963291093707085, 
        0.02192455157637596, 
        0.0012281631352379918, 
        0.00032913454924710095, 
        0.007819795049726963, 
        -0.00761042907834053, 
        -0.002312019467353821, 
        0.010313915088772774, 
        -0.022949574515223503, 
        0.0034566561225801706, 
        -0.009526077657938004, 
        0.0014908764278516173, 
        -0.005732647143304348, 
        -0.0007188835297711194, 
        -0.010634836740791798, 
        -0.003876852337270975, 
        0.00012979448365513235, 
        0.001149459625594318, 
        -0.009178548119962215, 
        -0.013061604462563992, 
        -0.005674019455909729, 
        -0.00872956681996584, 
        -0.0004314061370678246, 
        -0.0016932833241298795, 
        0.0051320637576282024, 
        0.0022960789501667023, 
        -0.018016034737229347, 
        0.0027549592778086662, 
        0.00694265915080905, 
        -0.008610710501670837, 
        -0.010216985829174519, 
        0.0036892592906951904, 
        0.005959897767752409, 
        -0.00029145594453439116, 
        2.2420706955017522e-05, 
        0.0005569984787143767, 
        -0.0005012324545532465, 
        0.00036268681287765503, 
        -0.021923400461673737, 
        0.00030759681249037385, 
        -0.0003896389971487224, 
        0.0005463231354951859, 
        0.00967775285243988, 
        -0.007590003777295351, 
        0.0013039058540016413, 
        -0.00029160891426727176, 
        -0.00011103033466497436, 
        0.0002488440368324518, 
        -5.073408465250395e-05, 
        -0.013699021190404892, 
        0.0134350610896945, 
        0.0009549552341923118, 
        0.014811404049396515, 
        0.03174707666039467, 
        -0.00012765309656970203, 
        -0.016103079542517662, 
        0.0008702772320248187, 
        -0.003960406873375177, 
        0.0002839108055923134, 
        0.005356139969080687, 
        0.02351275272667408, 
        -0.00315589876845479, 
        -0.004555288702249527, 
        0.000241254034335725, 
        0.0014381920918822289, 
        -0.0011726103257387877, 
        0.014661835506558418, 
        -0.005295536946505308, 
        -0.009174730628728867, 
        -0.00023984651488717645, 
        -0.0005955150118097663, 
        -0.004197554662823677, 
        0.005954074207693338, 
        -0.0003880833392031491, 
        0.00573008181527257, 
        -8.91097224666737e-05, 
        -0.0029065231792628765, 
        0.022094590589404106, 
        -0.0022246669977903366, 
        -0.0007905818056315184, 
        -0.010147645138204098, 
        0.041854362934827805, 
        -0.01057948637753725, 
        0.000192177394637838, 
        -0.006496241316199303, 
        -0.007085371762514114, 
        -0.003175117541104555, 
        0.004026476759463549, 
        0.00038879664498381317, 
        0.0003453964018262923, 
        0.00027721593505702913, 
        0.005533554591238499, 
        0.014862284995615482, 
        -0.00725821265950799, 
        0.0004249578632880002, 
        -0.013619176112115383, 
        -0.004764468874782324, 
        0.007707949727773666, 
        -0.002539195818826556, 
        0.0037054528947919607, 
        0.004241295624524355, 
        -0.0008093471988104284, 
        0.024608341977000237, 
        -0.000728264101780951, 
        0.002633784431964159, 
        -0.011128728277981281, 
        0.050326135009527206, 
        0.0032636721152812243, 
        -7.766354246996343e-05, 
        2.2101628928794526e-05, 
        0.0016733782831579447, 
        0.0025031822733581066, 
        -0.000754777283873409, 
        0.0005281853955239058, 
        -0.0012790437322109938, 
        -0.008177497424185276, 
        -0.00208964291960001, 
        0.0027223953511565924, 
        -0.00013988088176120073, 
        0.00538398465141654, 
        0.0011446313001215458
      ]
    }, 
    {
      "architecture": "normalization", 
      "bias": [
        -0.008864483796060085, 
        -0.016259830445051193, 
        0.0003518295125104487, 
        -0.010859023779630661, 
        -0.005755288526415825, 
        -0.02392577938735485, 
        -0.021577488631010056, 
        -0.009601924568414688, 
        -0.025067998096346855, 
        -0.018301401287317276, 
        -0.027010882273316383, 
        -0.01220258790999651, 
        -0.03829606622457504, 
        -0.017845429480075836
      ], 
      "weights": [
        53.100914001464844, 
        47.62767791748047, 
        18.46186065673828, 
        49.13229751586914, 
        23.684720993041992, 
        34.67123031616211, 
        36.51298904418945, 
        54.210941314697266, 
        35.70466613769531, 
        31.565481185913086, 
        42.032772064208984, 
        47.443321228027344, 
        27.14548110961914, 
        18.981666564941406
      ]
    }, 
    {
      "activation": "rectified", 
      "architecture": "dense", 
      "bias": [
        -0.0043537491001188755, 
        0.00033430405892431736, 
        0.008143916726112366, 
        -0.0005621715099550784, 
        5.294281436363235e-06, 
        0.009883827529847622, 
        9.491027594776824e-05, 
        -5.570099801843753e-06, 
        0.004392852541059256, 
        -0.0013782745227217674
      ], 
      "weights": [
        -0.0006966872606426477, 
        0.014078988693654537, 
        8.250875907833688e-06, 
        -0.009522263891994953, 
        -0.005948218517005444, 
        0.011809545569121838, 
        -0.013423444703221321, 
        0.0027708071283996105, 
        0.0009915382834151387, 
        -0.00023713910195510834, 
        0.017637141048908234, 
        0.0001689580676611513, 
        0.00027198222232982516, 
        0.0018762631807476282, 
        0.0031269295141100883, 
        -0.00015007556066848338, 
        3.9646956793149e-06, 
        -0.00972252618521452, 
        -0.0022357639390975237, 
        -0.0009903365280479193, 
        0.001943909446708858, 
        0.0003541616315487772, 
        -0.017981991171836853, 
        0.005530072376132011, 
        0.0013557308120653033, 
        0.0031486281659454107, 
        0.004504889249801636, 
        0.00013117617345415056, 
        0.01241973601281643, 
        -0.01072653103619814, 
        -1.1474552593426779e-05, 
        0.0030507424380630255, 
        -0.00015224493108689785, 
        -0.005407438147813082, 
        0.007314953021705151, 
        0.013177608139812946, 
        0.011721190065145493, 
        0.015855364501476288, 
        0.009143601171672344, 
        -0.01308543048799038, 
        0.0012623295187950134, 
        -0.008188556879758835, 
        -0.00565278111025691, 
        -0.0073927282355725765, 
        -3.255952469771728e-05, 
        -0.0015356115764006972, 
        -2.177531314373482e-05, 
        -0.00510039459913969, 
        -0.00037620242801494896, 
        0.0021383464336395264, 
        0.0005140861612744629, 
        0.026627643033862114, 
        -0.0017987154424190521, 
        0.01817156746983528, 
        -0.01641540229320526, 
        0.0001172639022115618, 
        2.0193936052237405e-06, 
        1.0253604614263168e-06, 
        -7.20101706974674e-06, 
        -2.697864374567871e-06, 
        7.227036348922411e-06, 
        1.1805793292296585e-05, 
        5.298752512317151e-07, 
        -1.5868781702010892e-06, 
        1.1342820471327286e-05, 
        4.262262336851563e-06, 
        2.136100647476269e-07, 
        -5.774708370154258e-06, 
        4.799172529601492e-06, 
        5.267096184979891e-06, 
        -0.004233289044350386, 
        0.0006026005139574409, 
        -3.5619545087683946e-05, 
        0.005250698886811733, 
        0.024736739695072174, 
        -0.0032768070232123137, 
        -0.012725284323096275, 
        -0.004690694622695446, 
        0.007424504961818457, 
        -0.013901564292609692, 
        -0.008512348867952824, 
        0.0028157939668744802, 
        0.020174900069832802, 
        -0.00541402492672205, 
        -0.006200712639838457, 
        -0.00023816073371563107, 
        -7.933724191389047e-06, 
        -0.0007654071087017655, 
        -0.02243141643702984, 
        0.002502215327695012, 
        0.013966649770736694, 
        0.00020021201635245234, 
        0.011337465606629848, 
        2.622425563458819e-05, 
        6.700526137137786e-05, 
        0.01757984608411789, 
        -0.00824034959077835, 
        0.008306222967803478, 
        3.7248228181852028e-06, 
        5.455816335597774e-06, 
        -1.3672215573024005e-06, 
        -1.324830918747466e-06, 
        9.986730219679885e-06, 
        -4.192927917756606e-06, 
        1.0165359526581597e-05, 
        9.070674423128366e-06, 
        9.888581189443357e-06, 
        1.562646502861753e-05, 
        -9.838480764301494e-06, 
        -1.3595981727121398e-06, 
        1.712432458589319e-05, 
        7.278954399225768e-07, 
        0.0030226209200918674, 
        0.007383932359516621, 
        7.860898040235043e-05, 
        -0.004845152609050274, 
        0.011477360501885414, 
        0.013536212034523487, 
        4.517264096648432e-05, 
        0.0002676060830708593, 
        0.00021684839157387614, 
        0.008442702703177929, 
        0.0028825458139181137, 
        0.0010315580293536186, 
        -6.823313742643222e-05, 
        0.035413116216659546, 
        -0.00031407910864800215, 
        0.0003587802348192781, 
        9.275127013097517e-06, 
        0.002019762061536312, 
        -0.0005952399224042892, 
        0.00037066591903567314, 
        -0.00441495468840003, 
        0.00048185716150328517, 
        -0.0004225555167067796, 
        0.001875276560895145, 
        0.0035720474552363157, 
        0.0052571725100278854, 
        0.01821151003241539, 
        0.008066362701356411
      ]
    }, 
    {
      "architecture": "normalization", 
      "bias": [
        -0.0027633109129965305, 
        -0.005973031744360924, 
        -0.03339849412441254, 
        -0.021058667451143265, 
        -0.00017401580407749861, 
        -0.023428287357091904, 
        -0.010627972893416882, 
        0.0003521862090565264, 
        -0.019561029970645905, 
        -0.009117093868553638
      ], 
      "weights": [
        71.10464477539062, 
        87.39290618896484, 
        34.58932876586914, 
        38.93268966674805, 
        17.855419158935547, 
        37.33295822143555, 
        48.49628829956055, 
        17.402379989624023, 
        20.610639572143555, 
        56.35602569580078
      ]
    }, 
    {
      "activation": "rectified", 
      "architecture": "dense", 
      "bias": [
        -0.0011247537331655622, 
        -8.321379937115125e-06, 
        0.010182133875787258, 
        0.0012175551382824779, 
        0.0054882848635315895
      ], 
      "weights": [
        -1.6001935364329256e-05, 
        -0.005801112856715918, 
        0.020421430468559265, 
        0.005630020052194595, 
        1.7329090042039752e-05, 
        0.0007462642388418317, 
        0.014769242145121098, 
        -4.9871348892338574e-05, 
        -0.023198619484901428, 
        0.00984215922653675, 
        1.8030319552053697e-05, 
        1.9004501154995523e-05, 
        8.44877285999246e-06, 
        -5.0968014875252265e-06, 
        -7.166215254983399e-06, 
        2.0796222088392824e-05, 
        9.879330718831625e-06, 
        -4.462065589905251e-06, 
        6.2754706959822215e-06, 
        1.0155931704503018e-06, 
        -5.135533501743339e-05, 
        0.0025750857312232256, 
        -0.0003735158243216574, 
        -0.012966382317245007, 
        9.016179319587536e-06, 
        0.024241896346211433, 
        -0.0005830951849929988, 
        2.639080776134506e-08, 
        -0.004037939012050629, 
        -0.0012472098460420966, 
        0.021989138796925545, 
        0.0027140367310494184, 
        -0.0030354417394846678, 
        -0.008841495029628277, 
        -5.599279120360734e-06, 
        0.0003677618224173784, 
        0.0033790285233408213, 
        -3.526787622831762e-05, 
        -0.000849593139719218, 
        0.012334070168435574, 
        0.0005674436688423157, 
        0.0006629803101532161, 
        -0.015390226617455482, 
        -0.008780749514698982, 
        -2.5730514607857913e-06, 
        0.006748753599822521, 
        -0.018939509987831116, 
        8.643271030450705e-06, 
        0.03678308054804802, 
        3.9609643863514066e-05
      ]
    }, 
    {
      "architecture": "normalization", 
      "bias": [
        -0.012482118792831898, 
        -2.6757481464301236e-05, 
        -0.02697804570198059, 
        -0.02110309898853302, 
        -0.0420413613319397
      ], 
      "weights": [
        50.427696228027344, 
        191.14865112304688, 
        34.78129196166992, 
        33.66215896606445, 
        24.046485900878906
      ]
    }, 
    {
      "activation": "sigmoid", 
      "architecture": "dense", 
      "bias": [
        -0.012092764489352703
      ], 
      "weights": [
        -0.7577336430549622, 
        -0.00018259367789141834, 
        0.5261768102645874, 
        0.46939465403556824, 
        0.8997400403022766
      ]
    }
  ], 
  "outputs": [
    "top_dnn_BN_dec11_all"
  ]
}
