{
  "layers": [
    {
      "activation": "rectified", 
      "bias": [
        0.00027217858587391675, 
        1.993839759961702e-09, 
        -4.532445927907247e-06, 
        9.114581916946918e-05, 
        0.00021990740788169205, 
        -3.870800810545916e-06, 
        -1.0582720278762281e-05, 
        1.4541349173669005e-06, 
        0.00018354773055762053, 
        0.0006364423898048699, 
        0.16232137382030487, 
        0.0014027532888576388, 
        1.7260504137084354e-07, 
        -1.9176650312147103e-06, 
        -0.10312043875455856
      ], 
      "weights": [
        0.0018816018709912896, 
        0.17747542262077332, 
        -0.00018860884301830083, 
        0.08907560259103775, 
        -0.0001979255030164495, 
        -0.0012176174204796553, 
        0.0006843936280347407, 
        0.0002104844752466306, 
        0.0025268469471484423, 
        0.13819104433059692, 
        0.021649321541190147, 
        0.0926017165184021, 
        0.20809288322925568, 
        4.455511771084275e-06, 
        -1.0846669056263636e-06, 
        -1.2762602636939846e-05, 
        -2.208884779975051e-06, 
        4.429796717886347e-06, 
        -1.1027678965547238e-06, 
        -3.6288945466367295e-06, 
        5.401330781751312e-06, 
        7.98331166151911e-06, 
        -2.661772896317416e-06, 
        -8.645934940432198e-06, 
        5.807215529785026e-06, 
        5.263273124000989e-06, 
        -2.1790901882923208e-07, 
        -2.887369191739708e-06, 
        -2.7987221073999535e-06, 
        6.950137503736187e-06, 
        -1.1141644336021272e-06, 
        -1.3123935787007213e-06, 
        2.82917903859925e-06, 
        7.401999937428627e-06, 
        -1.6967634337561321e-06, 
        4.394134521135129e-06, 
        -2.9372890821832698e-06, 
        -7.366857516899472e-06, 
        -5.368031906982651e-06, 
        -0.03599438816308975, 
        -0.03806937113404274, 
        0.00021136985742487013, 
        -9.231533113052137e-06, 
        0.04019525647163391, 
        -0.18799693882465363, 
        -0.01047525368630886, 
        -0.07560455054044724, 
        -0.006505471654236317, 
        0.45219194889068604, 
        0.0003552708076313138, 
        -0.07818915694952011, 
        -0.06080695614218712, 
        -0.000394830567529425, 
        -0.0004218365647830069, 
        0.20458389818668365, 
        0.41549769043922424, 
        0.021072303876280785, 
        0.012215026654303074, 
        0.0532170906662941, 
        0.04071297496557236, 
        0.05969809368252754, 
        8.609260112280026e-05, 
        -0.00015721461386419833, 
        0.00028795041725970805, 
        -0.06279869377613068, 
        -3.2843861390574602e-06, 
        8.36954222904751e-06, 
        1.7194493011629675e-06, 
        -6.386812856362667e-07, 
        -2.0852421585004777e-05, 
        1.3790664525004104e-05, 
        -2.010624848480802e-05, 
        8.45288195705507e-06, 
        5.3742819545732345e-06, 
        -4.491009804041823e-06, 
        3.1031622711452655e-06, 
        -9.04568878468126e-06, 
        2.1265911982482066e-06, 
        -5.061175215814728e-06, 
        2.9881989576097112e-06, 
        -1.1221050044696312e-07, 
        1.0755686616903404e-06, 
        -1.2002861694782041e-05, 
        -3.2549114621360786e-06, 
        -6.818067959102336e-06, 
        -4.471829925023485e-06, 
        -1.2924660040880553e-05, 
        9.780439995665802e-07, 
        4.571274985210039e-06, 
        1.0523071978241205e-06, 
        3.662171366158873e-07, 
        6.197089078341378e-06, 
        -2.397848220425658e-06, 
        -8.550105121685192e-07, 
        2.077814770018449e-06, 
        -3.0961650736571755e-06, 
        -5.59800992050441e-06, 
        3.7487843655981123e-06, 
        1.5678306226618588e-06, 
        7.944008757476695e-06, 
        1.6491021597175859e-06, 
        2.0345667053334182e-06, 
        -3.8430334825534374e-07, 
        -1.2897271517431363e-06, 
        0.011225267313420773, 
        0.000517651904374361, 
        0.00013285082241054624, 
        0.0003206661785952747, 
        3.609310806496069e-05, 
        -0.00041882912046276033, 
        0.000746982404962182, 
        0.04524308443069458, 
        -0.09377355128526688, 
        0.30145159363746643, 
        0.4427624046802521, 
        0.00018207643006462604, 
        -0.051751162856817245, 
        0.08227797597646713, 
        1.1896037904080003e-05, 
        -0.1296011209487915, 
        0.0004022669163532555, 
        -0.00016953822341747582, 
        0.00011792356963269413, 
        -0.018042368814349174, 
        0.7695235013961792, 
        0.0004139283555559814, 
        0.0004408596723806113, 
        -0.0001836418523453176, 
        -0.0012368924217298627, 
        -0.3356354832649231, 
        0.004228397272527218, 
        -0.23325274884700775, 
        0.0004595423233695328, 
        -0.4442715644836426, 
        0.2702825367450714, 
        -0.00023525962023995817, 
        -0.021584488451480865, 
        -0.2536371946334839, 
        0.13131015002727509, 
        0.0008805175893940032, 
        -0.0002900397521443665, 
        0.13914059102535248, 
        -0.013735109940171242, 
        0.03011048212647438, 
        0.000861239735968411, 
        -0.6761258244514465, 
        -0.011086974292993546, 
        -0.07494638860225677, 
        -0.008373603224754333, 
        0.05119260773062706, 
        -0.00018904094758909196, 
        0.3646674156188965, 
        -0.07505803555250168, 
        0.0008001556270755827, 
        -0.00018613938300404698, 
        0.2869908809661865, 
        7.346242455241736e-06, 
        -1.725435140542686e-06, 
        2.1753005512437085e-06, 
        -7.878334145061672e-07, 
        3.887489583576098e-06, 
        1.9718718249350786e-06, 
        7.804000233591069e-06, 
        -1.22199380712118e-05, 
        -6.05610011916724e-07, 
        -9.911049346555956e-06, 
        -2.956232947326498e-08, 
        1.6058429537224583e-06, 
        -1.5201939049802604e-06, 
        3.948101948481053e-06, 
        -6.96004008204909e-07, 
        -9.145585863734595e-06, 
        -1.1443289622548036e-06, 
        7.127856406441424e-06, 
        -2.4355354071303736e-06, 
        7.360733889072435e-06, 
        3.189975814166246e-06, 
        -7.049625764921075e-06, 
        -4.1584039536246564e-06, 
        -2.567207275205874e-06, 
        4.782149972015759e-06, 
        1.0183359336224385e-05, 
        0.005931438412517309, 
        -0.026930417865514755, 
        0.030497446656227112, 
        -0.3494981527328491, 
        0.00014027605357114226, 
        -0.0002665251959115267, 
        -0.005501812323927879, 
        -0.023084700107574463, 
        0.020793024450540543, 
        0.000905450084246695, 
        0.1737283319234848, 
        0.026261359453201294, 
        0.21827803552150726
      ], 
      "architecture": "dense"
    }, 
    {
      "activation": "rectified", 
      "bias": [
        -0.0019504554802551866, 
        0.0001183934073196724, 
        -4.963706942362478e-06, 
        0.0002481996489223093, 
        6.107813078415347e-06, 
        1.5421774151036516e-06, 
        0.00029492503381334245, 
        -3.5288317121739965e-06, 
        -0.00010947346163447946, 
        0.39754459261894226, 
        -2.0702048004750395e-06, 
        3.3324226933473255e-06, 
        0.00022026663646101952, 
        1.900968072732212e-06, 
        -4.768256985698827e-06
      ], 
      "weights": [
        -0.18475161492824554, 
        1.302953387494199e-05, 
        -1.6191483155125752e-05, 
        0.16637544333934784, 
        -0.0019151294836774468, 
        -1.0315821782569401e-05, 
        -9.357182534586173e-06, 
        -8.178970347216818e-06, 
        -0.2383541613817215, 
        -0.15510053932666779, 
        0.7063952088356018, 
        0.4545776844024658, 
        4.399378667585552e-06, 
        -3.476039637462236e-06, 
        0.0003713301557581872, 
        -0.00012794593931175768, 
        7.674336302443407e-06, 
        -1.2521707049018005e-07, 
        -9.163365757558495e-05, 
        0.00023691431852057576, 
        -1.1332438134559197e-06, 
        -2.5633607947384007e-06, 
        -3.0590922506235074e-07, 
        3.137431122013368e-05, 
        0.000145522688399069, 
        -2.212684921687469e-05, 
        0.285130113363266, 
        3.5429200124781346e-06, 
        3.892551831086166e-06, 
        -0.00025668946909718215, 
        -7.275787993421545e-06, 
        -2.8926597224199213e-06, 
        3.5170246519555803e-06, 
        9.597122698323801e-06, 
        3.6470405575528275e-06, 
        4.564227310766e-06, 
        3.237141754652839e-08, 
        -5.959662303212099e-06, 
        3.3837698083516443e-06, 
        -3.199821549060289e-06, 
        -1.4011834537086543e-06, 
        -8.886187060852535e-06, 
        -2.789782911349903e-06, 
        -1.2576161680044606e-05, 
        3.6888809518131893e-06, 
        0.0003437372506596148, 
        -5.955752385489177e-06, 
        1.82841745299811e-06, 
        0.35311949253082275, 
        0.00028278594254516065, 
        1.4786462543270318e-07, 
        -8.967075700638816e-06, 
        7.817784535291139e-06, 
        0.06326941400766373, 
        0.0001245844323420897, 
        0.0002524754381738603, 
        -0.16805912554264069, 
        -5.120105925016105e-06, 
        -7.289045697689289e-06, 
        0.00035803558421321213, 
        3.3724652439559577e-06, 
        3.248888447160425e-07, 
        4.6773166104685515e-06, 
        1.1990064194833394e-06, 
        1.4010696759214625e-05, 
        -8.163844540831633e-06, 
        1.612385494809132e-05, 
        -2.7273379146208754e-06, 
        -8.360218998859636e-06, 
        5.026090093451785e-06, 
        -1.2103728295187466e-06, 
        4.548884589894442e-06, 
        -5.033105935581261e-06, 
        -7.233765700220829e-06, 
        -1.879504998214543e-05, 
        -5.326467544364277e-06, 
        -6.603868769161636e-06, 
        1.5634890587534755e-05, 
        -5.505250101123238e-06, 
        -1.3653802852786612e-05, 
        -3.6865319543721853e-06, 
        7.98732799012214e-06, 
        -8.805800462141633e-06, 
        -9.76911724137608e-06, 
        2.0277728253859095e-05, 
        1.0260609997203574e-06, 
        -5.028035957366228e-06, 
        7.204612302302849e-07, 
        -3.049593487958191e-06, 
        4.17336968894233e-06, 
        0.4454745948314667, 
        1.3922096968599362e-06, 
        7.755452315905131e-07, 
        -0.00015020190039649606, 
        0.20146167278289795, 
        2.082218315990758e-06, 
        -3.831138201348949e-06, 
        -1.8937161030407879e-06, 
        8.751884161029011e-05, 
        0.00011776833707699552, 
        -0.1285576969385147, 
        0.0915299504995346, 
        6.535969987453427e-07, 
        -7.256067419803003e-06, 
        -0.24998392164707184, 
        3.487511548883049e-06, 
        1.1675104360620026e-05, 
        -1.0895579180214554e-05, 
        1.8820041077560745e-05, 
        1.4059993191040121e-05, 
        -1.8024525161308702e-06, 
        -2.815622337948298e-06, 
        -1.1938001989619806e-05, 
        -2.9672758046217496e-06, 
        -5.307021183398319e-06, 
        -2.887840537368902e-06, 
        9.009378118207678e-06, 
        -1.0137379831576254e-05, 
        -1.5159221220528707e-05, 
        -7.600383469252847e-07, 
        0.00019043310021515936, 
        -1.3339299584913533e-06, 
        -2.0129864424234256e-06, 
        -0.2281966209411621, 
        0.00019023993809241802, 
        8.941682608565316e-06, 
        -2.4231712814071216e-06, 
        -2.5856870706775226e-06, 
        0.4414299726486206, 
        0.5572199821472168, 
        -0.00043016555719077587, 
        0.006416477728635073, 
        4.80711787531618e-06, 
        3.8242837945290376e-06, 
        -0.6348814368247986, 
        -0.0012544713681563735, 
        -3.0665091799164657e-06, 
        5.637360118271317e-06, 
        0.26732054352760315, 
        -0.0002144873287761584, 
        -5.1920324040111154e-08, 
        -1.1147509212605655e-05, 
        3.2126820315170335e-06, 
        0.49394381046295166, 
        -0.0001532778114778921, 
        0.10516609996557236, 
        -0.07331963628530502, 
        -7.970144906721544e-06, 
        6.846633823442971e-06, 
        -0.001123106456361711, 
        -8.675151548231952e-06, 
        -7.71868053561775e-06, 
        -1.3964167919766624e-06, 
        9.151249287242536e-06, 
        -8.780258212937042e-06, 
        -5.362505817174679e-07, 
        -3.079467433053651e-06, 
        -4.6347799980139825e-06, 
        -3.063723852392286e-07, 
        -9.509008123131935e-07, 
        1.1408471436880063e-05, 
        -4.437378720467677e-06, 
        -5.4080828704172745e-08, 
        7.0432579377666116e-06, 
        9.661613148637116e-06, 
        -6.19897264186875e-07, 
        6.051438504073303e-06, 
        -1.2084774425602518e-06, 
        5.372089617594611e-06, 
        -1.653347680985462e-09, 
        -1.4505867511616088e-06, 
        8.658409569761716e-06, 
        1.0403945452708285e-05, 
        1.147561488323845e-05, 
        1.91831122720032e-06, 
        -2.592290002212394e-06, 
        2.4589949134679046e-06, 
        1.3877785022486933e-05, 
        2.3654069991607685e-06, 
        6.457793460867833e-06, 
        -0.00017858701176010072, 
        -5.189458534005098e-06, 
        -1.8469027054379694e-06, 
        -0.0006903758621774614, 
        0.5387697219848633, 
        -1.2818593404517742e-06, 
        2.3441270968760364e-06, 
        -8.55599319038447e-06, 
        -1.9432773115113378e-05, 
        0.3526471257209778, 
        -0.26049044728279114, 
        -0.4618498384952545, 
        -4.137894393352326e-06, 
        1.5742848518129904e-06, 
        0.0001592653279658407, 
        -3.4881586543633603e-06, 
        -2.937356384791201e-06, 
        1.6610993043286726e-05, 
        -1.2258060451131314e-06, 
        6.544557436427567e-06, 
        3.701389459820348e-06, 
        8.335137863468844e-06, 
        -1.1649075531749986e-05, 
        8.568424163968302e-06, 
        -6.271830898185726e-06, 
        3.2519976684852736e-06, 
        -1.0435416697873734e-05, 
        2.0827792468480766e-05, 
        1.8477168850949965e-05, 
        2.6436846383148804e-06, 
        -6.481518539658282e-06, 
        9.610258530301508e-06, 
        -1.2791926565114409e-05, 
        -3.1946246963343583e-06, 
        -4.522705239651259e-06, 
        8.303493814310059e-06, 
        9.739540473674424e-06, 
        -7.664968393328309e-07, 
        1.4645438568550162e-06, 
        -2.455638650644687e-06, 
        -1.9878057173627894e-06, 
        1.5602972780470736e-06, 
        1.0509188541618641e-06, 
        8.917248123907484e-06, 
        1.955885181814665e-06
      ], 
      "architecture": "dense"
    }, 
    {
      "activation": "rectified", 
      "bias": [
        0.00018165376968681812, 
        -4.145656021137256e-06, 
        1.6996418708004057e-06, 
        -3.1041167858347762e-06, 
        6.585496157640591e-05, 
        1.1077450835728087e-05, 
        2.546389623603318e-06, 
        1.4758788893232122e-05, 
        0.008020802401006222, 
        -9.567595043336041e-06, 
        7.018748419795884e-06, 
        -1.427239112672396e-05, 
        3.3414471545256674e-06, 
        4.884386726189405e-07, 
        -1.6978735857264837e-06
      ], 
      "weights": [
        0.1111125499010086, 
        0.00013819622108712792, 
        -2.1713885871577077e-05, 
        4.959489524480887e-05, 
        5.174410944164265e-06, 
        7.420033853122732e-06, 
        0.00011101645941380411, 
        -2.5639219529693946e-06, 
        -4.158546289545484e-05, 
        0.5812978744506836, 
        -9.826247151067946e-06, 
        -1.794634954421781e-05, 
        -9.678125206846744e-05, 
        7.234201348182978e-06, 
        -3.2535908758291043e-06, 
        -8.144234016072005e-06, 
        5.577949195867404e-07, 
        5.68955829294282e-06, 
        -6.699768164253328e-06, 
        -7.490232746931724e-06, 
        4.124985935050063e-06, 
        5.346973466657801e-06, 
        7.321532393689267e-06, 
        4.0745039768808056e-06, 
        -7.3036558205785695e-06, 
        8.083345164777711e-06, 
        -6.972685696382541e-06, 
        -3.680269173855777e-06, 
        -1.7590082279639319e-07, 
        3.933274456358049e-06, 
        -9.010148005472729e-07, 
        7.145763447624631e-06, 
        8.214320587285329e-06, 
        1.1734150575648528e-06, 
        3.327204694869579e-06, 
        -4.4373141463438515e-06, 
        -4.908382379653631e-06, 
        5.2563295867003035e-06, 
        5.97317011852283e-06, 
        -7.196864316938445e-06, 
        -1.1207057468709536e-05, 
        1.0229578037979081e-06, 
        -2.531352947698906e-06, 
        2.2245908439799678e-06, 
        -1.388587861583801e-06, 
        -4.452962457435206e-06, 
        -6.112368737376528e-06, 
        -3.6185408589517465e-06, 
        2.279726686538197e-06, 
        7.932481821626425e-06, 
        -3.5009641123906476e-06, 
        -6.211136224010261e-06, 
        -8.621101187600289e-06, 
        1.5823216017452069e-06, 
        5.16446652909508e-06, 
        8.086721209110692e-06, 
        2.9131933843018487e-06, 
        7.086740424711024e-06, 
        -6.6895127019961365e-06, 
        1.3417773516266607e-05, 
        0.5108336210250854, 
        8.892875484889373e-05, 
        7.173362064349931e-07, 
        0.05240809917449951, 
        1.1598415312619181e-06, 
        -1.2305160453252029e-05, 
        -0.1431622952222824, 
        1.2865576536569279e-05, 
        -0.009950455278158188, 
        0.1822495460510254, 
        3.1836800644668983e-06, 
        1.0689624104998074e-05, 
        0.12803363800048828, 
        -2.4699138521100394e-06, 
        1.7869861039798707e-06, 
        4.261900699020771e-07, 
        2.4356734229513677e-07, 
        -1.0762003512354568e-05, 
        -6.622209184570238e-06, 
        -1.3096523616695777e-05, 
        -1.639610104575695e-06, 
        9.49305649555754e-06, 
        -7.031223958620103e-07, 
        -5.021007382310927e-06, 
        -6.788937753299251e-06, 
        1.8035134417004883e-06, 
        -2.7295300242258236e-07, 
        5.276514457364101e-06, 
        3.1725421649753116e-06, 
        -9.531573596177623e-06, 
        -1.3989516446599737e-05, 
        5.910216714255512e-06, 
        -2.966879492305452e-06, 
        8.23545633465983e-07, 
        -6.945069799257908e-06, 
        1.220400918100495e-07, 
        -1.2081777640560176e-05, 
        2.478062924637925e-06, 
        -4.432027708389796e-06, 
        -1.1847581845358945e-05, 
        -6.262859642447438e-06, 
        -6.375169959937921e-06, 
        -6.495014986285241e-06, 
        -1.2835012057621498e-06, 
        5.788405815110309e-06, 
        -0.00034849587245844305, 
        -0.0006398151745088398, 
        5.346691978047602e-09, 
        5.3755633416585624e-05, 
        3.910544819518691e-06, 
        -3.3661763154668733e-08, 
        -0.00048412306932732463, 
        -4.442618319444591e-06, 
        -3.769463728531264e-05, 
        0.7340347170829773, 
        5.75576996197924e-06, 
        7.086778623488499e-06, 
        -9.312502515967935e-05, 
        4.706259915110422e-06, 
        -6.49233152216766e-06, 
        -0.4262523651123047, 
        0.17958150804042816, 
        6.8236986408010125e-06, 
        -0.3655727505683899, 
        5.24320557815372e-06, 
        -9.462151865591295e-06, 
        0.567947506904602, 
        1.3463610230246559e-05, 
        1.005808711051941, 
        -0.00015450104547198862, 
        5.209005394135602e-06, 
        1.345651071460452e-05, 
        -1.096659541130066, 
        1.022917240334209e-05, 
        5.733129910368007e-06, 
        -7.744271897536237e-06, 
        -4.947391971654724e-06, 
        -1.0170505447604228e-05, 
        -5.4523411563423e-06, 
        5.934897671977524e-06, 
        -5.631743078993168e-06, 
        -2.3994214188860497e-06, 
        1.3190068557378254e-06, 
        -1.4608422134188004e-06, 
        -8.963123946159612e-06, 
        -4.5804081310052425e-06, 
        3.0894684641680215e-06, 
        -5.119775778439362e-06, 
        9.627987310523167e-06, 
        7.330101198022021e-06, 
        3.93832806366845e-06, 
        6.929985829629004e-06, 
        9.379586117574945e-06, 
        -1.3725859844271326e-06, 
        7.108081717888126e-06, 
        2.8292147362662945e-06, 
        4.778330549015664e-07, 
        -3.874244612234179e-06, 
        1.963824161066441e-06, 
        1.0398127415101044e-05, 
        1.45185440487694e-05, 
        -1.3890907212044112e-05, 
        2.6441823592904257e-06, 
        -4.908826667815447e-06, 
        -2.4434339138679206e-06, 
        2.2636886569671333e-06, 
        7.88606939750025e-07, 
        5.163204150449019e-06, 
        4.340063242125325e-06, 
        5.742993835156085e-06, 
        -1.0278266017849091e-05, 
        -1.5718186432422954e-06, 
        -4.916691977996379e-06, 
        -9.613365364202764e-06, 
        -7.959242793731391e-06, 
        -1.0757892596302554e-05, 
        -5.16103455083794e-06, 
        1.8985438146046363e-06, 
        -5.83300561629585e-06, 
        -7.0945543484413065e-06, 
        -4.764393452205695e-06, 
        -2.3875984425103525e-06, 
        -5.799596237920923e-06, 
        1.4301834198704455e-05, 
        1.565597631270066e-05, 
        -1.3128897080605384e-05, 
        -4.845458988711471e-06, 
        1.334057060375926e-06, 
        8.427558896073606e-06, 
        1.3974640751257539e-06, 
        -5.51452103536576e-06, 
        -5.073010470368899e-06, 
        1.3256894817459397e-06, 
        9.868672350421548e-07, 
        -9.274858712160494e-06, 
        -9.212752047460526e-06, 
        6.204726560099516e-06, 
        -1.0173447435590788e-06, 
        4.606101356330328e-06, 
        -1.305223395320354e-05, 
        3.829223260254366e-06, 
        -5.72234228002344e-07, 
        -3.2905113585002255e-06, 
        2.8143158488092013e-06, 
        -3.5973821468360256e-06, 
        -1.2230036190885585e-05, 
        -3.630252194852801e-06, 
        -2.407599140497041e-06, 
        -5.9418916862341575e-06, 
        8.93448759597959e-06, 
        3.4245254028064664e-06, 
        2.5744593585841358e-06, 
        3.8936200326133985e-06, 
        1.2028087894577766e-06, 
        -8.895094651961699e-07, 
        6.996106094447896e-07, 
        -2.3638085622224025e-06, 
        -4.725005965156015e-06, 
        -6.941597348486539e-06, 
        -1.9779690774157643e-08, 
        -4.809751317225164e-06, 
        6.929938990651863e-06, 
        9.871326938082348e-07, 
        5.440869699668838e-06, 
        7.108050340320915e-06
      ], 
      "architecture": "dense"
    }, 
    {
      "activation": "rectified", 
      "bias": [
        9.185315866488963e-05, 
        0.02345394901931286, 
        7.995778287295252e-05, 
        -1.1368423656676896e-05, 
        0.00016160751692950726, 
        1.969642107724212e-05, 
        0.13173508644104004, 
        7.899558113422245e-06, 
        6.559802386618685e-06, 
        -2.906450845330255e-06, 
        -1.8603759599500336e-05, 
        1.899155176943168e-05, 
        1.752800562826451e-05, 
        9.029754437506199e-05, 
        6.36550976196304e-05
      ], 
      "weights": [
        -3.9890910557005554e-05, 
        9.900408258545212e-06, 
        1.7613560885365587e-06, 
        6.110713911766652e-06, 
        -6.5305212046951056e-06, 
        9.522162145003676e-06, 
        7.547505447291769e-07, 
        -3.2827774703036994e-06, 
        -2.615063067423762e-06, 
        -9.809904440771788e-06, 
        -1.3931188732385635e-05, 
        1.270744269277202e-05, 
        -5.057625003246358e-06, 
        -2.07289576792391e-06, 
        -4.417487161845202e-06, 
        -2.3351123672910035e-05, 
        -1.0420008948130999e-05, 
        -1.8890732462750748e-06, 
        -4.757128863275284e-06, 
        -0.440745085477829, 
        -6.675526265098597e-08, 
        1.6295707609970123e-06, 
        2.6758923922898248e-05, 
        1.1352509260177612, 
        2.4196715457946993e-06, 
        -1.3403487173491158e-05, 
        2.868855290216743e-06, 
        8.9409568317933e-06, 
        4.05854189011734e-06, 
        1.2076463463017717e-05, 
        -2.3558412067359313e-05, 
        1.1197799949513865e-06, 
        -6.768300409021322e-06, 
        -2.0600830339390086e-06, 
        5.109854828333482e-05, 
        1.151850574387936e-05, 
        -8.245547178376e-08, 
        -1.668668664933648e-05, 
        -2.8595128242159262e-05, 
        -3.588811296140193e-06, 
        -1.8188446119893342e-05, 
        1.0241647032671608e-06, 
        5.486416739586275e-06, 
        -1.9115113900625147e-06, 
        -4.6220193326007575e-06, 
        1.3041671991231851e-06, 
        2.120557155649294e-06, 
        -1.589971361681819e-06, 
        3.397556156414794e-06, 
        -0.00022281288693193346, 
        -8.168574822775554e-06, 
        -1.3590897651738487e-05, 
        1.4460210877587087e-06, 
        0.46820512413978577, 
        -5.082941243017558e-06, 
        -4.78534138892428e-06, 
        -6.181270691740792e-06, 
        3.570489297999302e-06, 
        1.3921321624366101e-05, 
        5.06171454617288e-06, 
        -2.869146555894986e-07, 
        1.3323544862942072e-06, 
        -1.074923602573108e-06, 
        2.4239561753347516e-06, 
        -0.08322416990995407, 
        -7.591912435600534e-06, 
        -3.580729753593914e-06, 
        2.2657037334283814e-05, 
        0.8552038669586182, 
        -8.098366379272193e-06, 
        1.028420592774637e-05, 
        -5.763736226072069e-07, 
        -2.839750322891632e-06, 
        -1.4668050880572991e-06, 
        2.8129534257459454e-06, 
        1.913710184453521e-05, 
        -9.03180171007989e-06, 
        2.784966000035638e-06, 
        -4.684044142777566e-06, 
        -1.7397964256815612e-05, 
        -1.0392892363597639e-05, 
        1.0124049367732368e-05, 
        1.6892798157641664e-05, 
        -8.748676918912679e-06, 
        1.7873180695460178e-06, 
        -1.399415032210527e-05, 
        -9.949211744242348e-06, 
        9.691875675343908e-07, 
        -1.252992296940647e-05, 
        -1.103114482248202e-05, 
        0.6259238123893738, 
        -8.583231192460516e-08, 
        2.0768607100762893e-07, 
        -2.3384041014651302e-06, 
        0.8049640655517578, 
        -1.0787514838739298e-05, 
        5.357483132684138e-06, 
        0.6325521469116211, 
        -0.7588464021682739, 
        3.058132733713137e-07, 
        7.234282747958787e-06, 
        8.19593606138369e-06, 
        4.17975661548553e-06, 
        2.7828218662762083e-06, 
        1.36276339617325e-05, 
        -3.957304943469353e-05, 
        -6.368270987877622e-06, 
        -4.340198756835889e-06, 
        5.780318133474793e-06, 
        -1.544322003610432e-05, 
        -8.65176843944937e-07, 
        1.1446411463111872e-06, 
        -1.6014835637179203e-05, 
        -1.5001120118540712e-05, 
        2.0763320662808837e-07, 
        -7.83709947427269e-06, 
        -6.239946742425673e-06, 
        3.6176293178868946e-06, 
        -5.40279143024236e-06, 
        -1.1218737199669704e-05, 
        2.369594221818261e-05, 
        -1.9348790374351665e-06, 
        -1.013690598483663e-05, 
        9.58926830207929e-06, 
        -0.0002139949647244066, 
        4.3166937757632695e-06, 
        9.135183063335717e-07, 
        1.4236540664569475e-05, 
        0.30540335178375244, 
        -7.165142051235307e-06, 
        -5.504169166670181e-06, 
        -5.338221853889991e-06, 
        5.7860529523168225e-06, 
        -5.5252303354791366e-06, 
        -4.2447709347470663e-07, 
        1.8066461962007452e-06, 
        9.501081876805983e-07, 
        -5.487687303684652e-06, 
        5.116208285471657e-06, 
        5.9089361457154155e-06, 
        -2.7517444323166274e-07, 
        -6.663717613264453e-07, 
        1.783918605724466e-06, 
        5.504039108927827e-07, 
        1.938430159498239e-06, 
        -5.9637291087710764e-06, 
        -2.988187134178588e-06, 
        -9.150982805294916e-06, 
        -3.375200094524189e-06, 
        -1.5804209851921769e-06, 
        -8.920207619667053e-06, 
        3.199889306415571e-06, 
        -7.605717655678745e-06, 
        -3.9909054976305924e-06, 
        -0.0002291278215125203, 
        -5.406853688327828e-06, 
        -1.2215699825901538e-05, 
        -8.517650712747127e-06, 
        0.32298508286476135, 
        -4.865364189754473e-06, 
        -1.178068487206474e-05, 
        2.1623418433591723e-05, 
        1.6018234418879729e-06, 
        1.2925223018100951e-05, 
        -7.821733561286237e-06, 
        -1.7491656763013452e-05, 
        8.879786946636159e-06, 
        -7.768187515466707e-08, 
        -7.660575647605583e-06, 
        -9.493027391727082e-06, 
        -2.351698185520945e-06, 
        -1.5763860119477613e-06, 
        -1.4520737749990076e-06, 
        -1.4565935998689383e-05, 
        4.551717211143114e-06, 
        3.3250580599997193e-06, 
        -4.6618920350738335e-06, 
        1.4156067663861904e-05, 
        6.810373633925337e-06, 
        1.0963926797558088e-06, 
        2.6936919311992824e-05, 
        -1.0187742191192228e-05, 
        2.788502570183482e-06, 
        4.085620275873225e-06, 
        -0.00020610941282939166, 
        -3.8827774915262125e-06, 
        -7.515227480325848e-06, 
        2.1352330804802477e-05, 
        0.2664927542209625, 
        1.2581535884237383e-06, 
        1.1718175301211886e-06, 
        5.5261880334001034e-06, 
        -8.613557838543784e-06, 
        -1.1168360288138501e-05, 
        1.6535750546609052e-06, 
        -2.555272658355534e-06, 
        -4.6431955524894875e-06, 
        4.908445589535404e-06, 
        7.94634070189204e-06, 
        -1.0802594260894693e-05, 
        1.0076122634927742e-05, 
        1.3282021882332629e-06, 
        -5.5010059440974146e-05, 
        -1.5678347153880168e-06, 
        -3.3855253604997415e-06, 
        3.0692344807903282e-06, 
        3.7125046219443902e-06, 
        9.03224827197846e-06, 
        5.666661309078336e-06, 
        -2.510227886887151e-06, 
        1.0839723472599871e-05, 
        -2.816265578076127e-06, 
        7.374969754891936e-06, 
        6.517292604257818e-06, 
        -2.018673148995731e-05, 
        3.6376959542394616e-06, 
        -8.468558007734828e-06, 
        5.8608366089174524e-05, 
        5.629454244626686e-05, 
        3.70684620065731e-06, 
        3.680819986584538e-07, 
        -4.391797119751573e-06, 
        6.299425422184868e-06, 
        -7.064648343657609e-06, 
        7.897758223407436e-06
      ], 
      "architecture": "dense"
    }, 
    {
      "activation": "sigmoid", 
      "bias": [
        -1.008832335472107
      ], 
      "weights": [
        0.06278206408023834, 
        3.6947267055511475, 
        0.07095353305339813, 
        2.3943943977355957, 
        3.4555013179779053, 
        -0.06859860569238663, 
        -2.7945830821990967, 
        0.062280409038066864, 
        2.1181623935699463, 
        0.9925099015235901, 
        2.544055700302124, 
        0.06467986106872559, 
        1.9844473600387573, 
        0.054908864200115204, 
        -0.06958945095539093
      ], 
      "architecture": "dense"
    }
  ], 
  "inputs": [
    {
      "scale": 10.0, 
      "name": "Tau1_wta", 
      "offset": 0
    }, 
    {
      "scale": 10.0, 
      "name": "Tau2_wta", 
      "offset": 0
    }, 
    {
      "scale": 10.0, 
      "name": "Tau3_wta", 
      "offset": 0
    }, 
    {
      "scale": 1, 
      "name": "Tau21_wta", 
      "offset": 0
    }, 
    {
      "scale": 1, 
      "name": "Tau32_wta", 
      "offset": 0
    }, 
    {
      "scale": 1e-05, 
      "name": "Split12", 
      "offset": 0
    }, 
    {
      "scale": 0.0001, 
      "name": "Split23", 
      "offset": 0
    }, 
    {
      "scale": 1e-05, 
      "name": "Qw", 
      "offset": 0
    }, 
    {
      "scale": 10.0, 
      "name": "C2", 
      "offset": 0
    }, 
    {
      "scale": 1, 
      "name": "D2", 
      "offset": 0
    }, 
    {
      "scale": 1e-06, 
      "name": "ECF1", 
      "offset": 0
    }, 
    {
      "scale": 1e-11, 
      "name": "ECF2", 
      "offset": 0
    }, 
    {
      "scale": 1e-15, 
      "name": "ECF3", 
      "offset": 0
    }
  ], 
  "defaults": {}, 
  "outputs": [
    "top_dnn_1"
  ]
}
