{
  "defaults": {},
  "git": {
    "SHA1": "51a353717cfe1fe911fc488db8bd7c32237434ae",
    "origin": "origin\tssh://git@gitlab.cern.ch:7999/jpearkes/top_ml.git (fetch)\norigin\tssh://git@gitlab.cern.ch:7999/jpearkes/top_ml.git (push)"
  },
  "inputs": [
    {
      "name": "clust_0_pt",
      "offset": 0,
      "scale": 1
    },
    {
      "name": "clust_0_eta",
      "offset": 0,
      "scale": 1
    },
    {
      "name": "clust_0_phi",
      "offset": 0,
      "scale": 1
    },
    {
      "name": "clust_1_pt",
      "offset": 0,
      "scale": 1
    },
    {
      "name": "clust_1_eta",
      "offset": 0,
      "scale": 1
    },
    {
      "name": "clust_1_phi",
      "offset": 0,
      "scale": 1
    },
    {
      "name": "clust_2_pt",
      "offset": 0,
      "scale": 1
    },
    {
      "name": "clust_2_eta",
      "offset": 0,
      "scale": 1
    },
    {
      "name": "clust_2_phi",
      "offset": 0,
      "scale": 1
    },
    {
      "name": "clust_3_pt",
      "offset": 0,
      "scale": 1
    },
    {
      "name": "clust_3_eta",
      "offset": 0,
      "scale": 1
    },
    {
      "name": "clust_3_phi",
      "offset": 0,
      "scale": 1
    },
    {
      "name": "clust_4_pt",
      "offset": 0,
      "scale": 1
    },
    {
      "name": "clust_4_eta",
      "offset": 0,
      "scale": 1
    },
    {
      "name": "clust_4_phi",
      "offset": 0,
      "scale": 1
    },
    {
      "name": "clust_5_pt",
      "offset": 0,
      "scale": 1
    },
    {
      "name": "clust_5_eta",
      "offset": 0,
      "scale": 1
    },
    {
      "name": "clust_5_phi",
      "offset": 0,
      "scale": 1
    },
    {
      "name": "clust_6_pt",
      "offset": 0,
      "scale": 1
    },
    {
      "name": "clust_6_eta",
      "offset": 0,
      "scale": 1
    },
    {
      "name": "clust_6_phi",
      "offset": 0,
      "scale": 1
    },
    {
      "name": "clust_7_pt",
      "offset": 0,
      "scale": 1
    },
    {
      "name": "clust_7_eta",
      "offset": 0,
      "scale": 1
    },
    {
      "name": "clust_7_phi",
      "offset": 0,
      "scale": 1
    },
    {
      "name": "clust_8_pt",
      "offset": 0,
      "scale": 1
    },
    {
      "name": "clust_8_eta",
      "offset": 0,
      "scale": 1
    },
    {
      "name": "clust_8_phi",
      "offset": 0,
      "scale": 1
    },
    {
      "name": "clust_9_pt",
      "offset": 0,
      "scale": 1
    },
    {
      "name": "clust_9_eta",
      "offset": 0,
      "scale": 1
    },
    {
      "name": "clust_9_phi",
      "offset": 0,
      "scale": 1
    }
  ],
  "layers": [
    {
      "activation": "linear",
      "architecture": "dense",
      "bias": [
        -0.6050951480865479,
        -0.2351795732975006,
        0.7112551331520081,
        -0.23938769102096558,
        -0.07113490253686905,
        -0.1761612594127655,
        0.26519468426704407,
        -0.8107543587684631,
        -0.740812361240387,
        -0.22824174165725708,
        -0.6859965920448303,
        -0.05891299992799759,
        -0.5562666058540344,
        0.24388852715492249,
        -0.9629908800125122,
        -0.39206549525260925,
        -0.4315170347690582,
        -0.4167332351207733,
        -0.6238299012184143,
        1.0406829118728638,
        -0.3466532230377197,
        0.041611261665821075,
        -0.5022615790367126,
        -0.6131900548934937,
        -0.4031888544559479,
        0.0959501713514328,
        -0.32176753878593445,
        -0.644149661064148,
        -0.08357831090688705,
        -0.4240111708641052,
        0.2775248885154724,
        0.8294731974601746,
        -0.4950898587703705,
        -0.9015921950340271,
        -0.71286940574646,
        -0.1317639946937561,
        -1.2357606887817383,
        -0.36459964513778687,
        -0.5713542103767395,
        0.6773185133934021,
        -0.6777858138084412,
        -0.243752121925354,
        -0.6779658794403076,
        0.261751264333725,
        0.08190194517374039,
        -0.44279399514198303,
        -0.6086340546607971,
        0.014172318391501904,
        0.288725882768631,
        -0.7130793333053589,
        -0.536030113697052,
        -0.30849215388298035,
        -0.5647660493850708,
        -0.7227742075920105,
        -0.2832614779472351,
        -0.6331084370613098,
        -0.0639122948050499,
        -0.3835196793079376,
        -0.5840025544166565,
        -0.6625167727470398,
        -0.15495896339416504,
        -0.4326156675815582,
        0.33139753341674805,
        -0.504719078540802,
        -0.41688865423202515,
        -0.6324478983879089,
        0.6258656978607178,
        0.22919961810112,
        -0.6178441047668457,
        0.1784234344959259,
        0.02309526316821575,
        0.49550485610961914,
        -0.8621641397476196,
        0.7567146420478821,
        -0.46078357100486755,
        0.3958290219306946,
        -0.2718745172023773,
        0.20068742334842682,
        -0.24162407219409943,
        -0.4863564968109131,
        -0.7154513001441956,
        0.10104996711015701,
        -0.2606714367866516,
        -0.42570799589157104,
        -0.265103280544281,
        -0.40492087602615356,
        0.5132423043251038,
        -0.4699861705303192,
        -0.9498262405395508,
        -0.5980084538459778,
        -0.435994416475296,
        0.618147611618042,
        0.5549718141555786,
        -0.10182890295982361,
        -0.1844058632850647,
        -0.15003006160259247,
        -0.663960337638855,
        -0.6251847743988037,
        -0.5011336803436279,
        -0.002621085848659277,
        -0.9274989366531372,
        0.38414710760116577,
        -0.6005387902259827,
        -0.6464241743087769,
        0.4733887314796448,
        -0.14185093343257904,
        -0.7213385701179504,
        -0.1533193737268448,
        -0.6199324727058411,
        -0.6509908437728882,
        0.5874676704406738,
        -0.2573176622390747,
        -0.3469485938549042,
        0.5708604454994202,
        0.25598523020744324,
        -0.5785053968429565,
        -0.1172744408249855,
        0.014031448401510715,
        -0.2118571549654007,
        -0.3641195297241211,
        -0.4136183559894562,
        -0.3976372182369232,
        -0.26624706387519836,
        -0.390443354845047,
        -0.7215648889541626,
        -0.26858794689178467,
        -0.9282822012901306,
        -0.06634340435266495,
        -0.23031532764434814,
        0.08612789213657379,
        -0.7172864079475403,
        -1.0203068256378174,
        -0.18503360450267792,
        -0.37382176518440247,
        0.7649074792861938,
        -0.6713953614234924,
        0.9848240613937378,
        -0.9042870998382568,
        -0.6451364159584045,
        -0.942885160446167,
        1.1879053115844727,
        -0.08446449786424637,
        0.5732405185699463,
        -0.4654122591018677,
        -1.2135932445526123,
        -0.5121601223945618,
        -0.5839038491249084,
        -0.48421287536621094,
        -0.307352215051651,
        0.4313335418701172,
        -0.493669331073761,
        -0.9974885582923889,
        0.11813101917505264,
        -0.19019624590873718,
        -0.45448917150497437,
        -0.23310960829257965,
        0.9021477103233337,
        0.17369936406612396,
        -0.9659364223480225,
        -0.47484660148620605,
        -0.690421462059021,
        -0.8892355561256409,
        0.02732238359749317,
        -0.32486289739608765,
        0.5066877603530884,
        1.0246014595031738,
        -0.5365368723869324,
        -0.43362829089164734,
        -0.2537764310836792,
        -0.5609049797058105,
        -0.45708078145980835,
        -0.4278809428215027,
        -0.09618893265724182,
        -0.5593968629837036,
        -0.5941118597984314,
        -0.559484601020813,
        0.010826054960489273,
        -1.3431426286697388,
        0.5479470491409302,
        -0.18560992181301117,
        -1.1911218166351318,
        -0.049275003373622894,
        -0.27408573031425476,
        -0.601620614528656,
        1.0591803789138794,
        -0.2981334924697876,
        -0.4052223861217499,
        -0.6819463968276978,
        -0.4884381592273712,
        -0.2081078141927719,
        0.31626227498054504,
        -0.42544999718666077,
        -0.24524205923080444,
        0.5014870762825012,
        -0.5782667398452759,
        0.44673532247543335,
        0.2719820737838745,
        -0.6345542669296265,
        -0.6885132193565369,
        -1.3069570064544678,
        -0.3985486924648285,
        -0.6033673286437988,
        -0.8049020767211914,
        -0.6923503875732422,
        -0.4741872549057007,
        -0.7315219044685364,
        -0.6800145506858826,
        0.2359292060136795,
        -0.4309674799442291,
        -0.19190627336502075,
        -0.46859270334243774,
        -1.2412497997283936,
        -0.2588282525539398,
        -0.6234631538391113,
        -0.49992436170578003,
        -0.3286072611808777,
        -0.4340677559375763,
        -0.6199089288711548,
        -0.6162652969360352,
        -0.38823384046554565,
        -0.7075827717781067,
        0.09803418815135956,
        0.03330488130450249,
        -0.2650179862976074,
        -0.7009070515632629,
        -0.5488724112510681,
        -0.6753424406051636,
        0.26126816868782043,
        -0.12473718822002411,
        -0.5146941542625427,
        -0.44634538888931274,
        -0.45107361674308777,
        -0.3025292456150055,
        -1.2719125747680664,
        -0.014327473938465118,
        -0.19906984269618988,
        -0.5442832112312317,
        -0.947182297706604,
        -0.5753377079963684,
        -0.629962146282196,
        -0.6748428344726562,
        -0.9122431874275208,
        -0.3717567026615143,
        0.48645368218421936,
        -0.6713157296180725,
        -0.9155182242393494,
        0.36903902888298035,
        -0.11878329515457153,
        -0.27058371901512146,
        -0.3379429578781128,
        -0.6138007640838623,
        -0.5625828504562378,
        -0.6857967376708984,
        -0.7569264769554138,
        -0.22814904153347015,
        0.3072044551372528,
        -0.20566563308238983,
        -0.3714624047279358,
        0.5510018467903137,
        -0.518517792224884,
        -0.45780083537101746,
        -1.1007721424102783,
        -0.9102599620819092,
        -0.5646873712539673,
        -0.502141535282135,
        -0.4815315306186676,
        -0.4657960832118988,
        -0.500554621219635,
        -0.251228392124176,
        -0.8888369798660278,
        -0.21349109709262848,
        0.11173273622989655,
        -0.6862102150917053,
        -0.8034579753875732,
        -0.6317180395126343,
        -0.30509382486343384,
        -0.22952431440353394,
        -0.09906762093305588,
        -0.054695598781108856,
        -0.4564325213432312,
        0.153116375207901,
        -0.4127923846244812,
        -0.24450403451919556,
        -0.6778367161750793,
        -1.2247854471206665,
        0.0072935353964567184,
        0.012961427681148052,
        0.829167902469635,
        -0.5302045345306396,
        -0.02317090332508087,
        -0.11217403411865234,
        -0.48847272992134094,
        -1.4097565412521362,
        -0.5824764370918274,
        -0.5761271119117737,
        -0.28601962327957153,
        0.22776085138320923,
        -0.617920994758606,
        -0.4128093421459198,
        -0.07913734763860703
      ],
      "weights": [
        0.04407668486237526,
        -0.13148686289787292,
        -0.02292802184820175,
        -0.8012805581092834,
        -0.07009277492761612,
        -0.6470993161201477,
        -0.8250766396522522,
        -2.9090962409973145,
        0.7108047008514404,
        -1.824640154838562,
        0.39374443888664246,
        0.1175406202673912,
        -0.535883903503418,
        -0.49213215708732605,
        0.803805947303772,
        0.1883855164051056,
        -0.260980486869812,
        0.4720984399318695,
        -0.0851379930973053,
        -1.7307614088058472,
        0.2959176003932953,
        0.2029092013835907,
        0.12315934896469116,
        -0.6411370038986206,
        0.9087066054344177,
        -0.624579906463623,
        -0.7182191014289856,
        1.593795895576477,
        0.03790834918618202,
        1.0091114044189453,
        0.4170505404472351,
        -0.05018942058086395,
        0.039698973298072815,
        -0.7312372326850891,
        -0.09117193520069122,
        3.5542383193969727,
        -1.5052471160888672,
        0.051858965307474136,
        0.38122740387916565,
        2.465332508087158,
        1.6178905963897705,
        0.5802413821220398,
        0.4784122407436371,
        0.2977263927459717,
        0.117828369140625,
        0.8948636651039124,
        0.15594173967838287,
        -0.12666994333267212,
        1.026071548461914,
        0.00703858258202672,
        -0.06563007086515427,
        -0.08504179120063782,
        0.1733110398054123,
        -0.13809525966644287,
        0.3136749267578125,
        -0.0287888515740633,
        -0.06793757528066635,
        2.8700876235961914,
        -0.08894696086645126,
        -0.04932503402233124,
        -0.27049756050109863,
        0.04259850084781647,
        -0.12763983011245728,
        -0.25460293889045715,
        -0.00684627890586853,
        0.4350847899913788,
        -0.15213261544704437,
        -0.20385771989822388,
        -0.04310466721653938,
        0.004616290330886841,
        -0.20014357566833496,
        0.03558309003710747,
        -2.124978542327881,
        -0.16349433362483978,
        0.008110394701361656,
        -3.386467695236206,
        0.04078853502869606,
        0.00878363847732544,
        -4.943398952484131,
        -0.003909219056367874,
        0.04054298624396324,
        -6.6062493324279785,
        -0.15100817382335663,
        0.0506412498652935,
        -6.700305461883545,
        0.010960724204778671,
        0.045834917575120926,
        -11.638168334960938,
        -0.00046256138011813164,
        -0.06860815733671188,
        -0.16034430265426636,
        -0.0020026862621307373,
        -0.11606711149215698,
        -0.6372661590576172,
        0.040442660450935364,
        0.21142181754112244,
        -0.5557715892791748,
        -0.17897473275661469,
        0.07298918813467026,
        -0.667884349822998,
        -0.3166903555393219,
        -0.09747831523418427,
        -0.4745800197124481,
        -0.11607352644205093,
        0.15808944404125214,
        -0.5390139818191528,
        -0.08742489665746689,
        -0.022808946669101715,
        -0.41384243965148926,
        -0.015042133629322052,
        0.02788071148097515,
        -0.6196275949478149,
        -0.06645731627941132,
        -0.08930742740631104,
        -0.47114959359169006,
        0.010675635188817978,
        -0.013938511721789837,
        -0.7948936223983765,
        -0.08819103240966797,
        -0.049060553312301636,
        0.600784957408905,
        0.11270596086978912,
        -0.02854553610086441,
        -1.0147147178649902,
        0.03336527943611145,
        2.920924663543701,
        -3.3036112785339355,
        0.0424857959151268,
        0.26983144879341125,
        -1.8962336778640747,
        0.06530240923166275,
        0.43492770195007324,
        -1.0795423984527588,
        0.05872482806444168,
        0.06119057163596153,
        -0.672240138053894,
        0.12441486865282059,
        0.44699814915657043,
        0.6649879217147827,
        0.5424219369888306,
        -0.23706190288066864,
        1.056738257408142,
        -0.34023118019104004,
        0.3217238187789917,
        2.3735578060150146,
        0.2923026382923126,
        0.18819072842597961,
        6.19795036315918,
        0.7611488103866577,
        -0.22774414718151093,
        -1.1970666646957397,
        0.11987720429897308,
        -0.01723437011241913,
        -1.6995199918746948,
        -0.029015295207500458,
        0.10122939944267273,
        -0.4777951240539551,
        -0.07164459675550461,
        0.10504572093486786,
        -0.25474753975868225,
        0.14044952392578125,
        0.06928063184022903,
        -0.05590260773897171,
        0.24333512783050537,
        -0.14026477932929993,
        0.4851282835006714,
        -0.8330658674240112,
        -0.04358280822634697,
        1.5938730239868164,
        1.4357736110687256,
        -0.5929298996925354,
        1.5850130319595337,
        -0.5668912529945374,
        0.1851288378238678,
        1.9434635639190674,
        -0.05350955203175545,
        0.29944080114364624,
        3.1421213150024414,
        -2.330470561981201,
        -0.06273847818374634,
        -3.0961573123931885,
        0.12290249764919281,
        0.10065868496894836,
        -1.6043083667755127,
        0.13321377336978912,
        -0.6896891593933105,
        -1.5690650939941406,
        1.0276991128921509,
        1.5316828489303589,
        -0.009599382057785988,
        -0.5998609662055969,
        -0.5055736899375916,
        -0.10577374696731567,
        0.35606199502944946,
        0.048292286694049835,
        0.11460713297128677,
        0.3147287964820862,
        0.3635334074497223,
        -0.20991861820220947,
        -0.15022604167461395,
        0.015049892477691174,
        0.28852778673171997,
        -0.014086822047829628,
        -0.2169593870639801,
        0.6954604387283325,
        -0.16544227302074432,
        0.20597216486930847,
        2.458454132080078,
        -0.010979418642818928,
        0.04460983723402023,
        0.09616399556398392,
        -0.01450115442276001,
        -0.12526243925094604,
        0.4290868043899536,
        -0.08511072397232056,
        0.3778153657913208,
        0.6708426475524902,
        0.5360673069953918,
        -0.31174013018608093,
        0.32160884141921997,
        -0.39600270986557007,
        0.8516554832458496,
        0.732371985912323,
        -1.1172977685928345,
        1.0315254926681519,
        0.3303743004798889,
        -0.5075856447219849,
        -0.8638678789138794,
        -0.20574623346328735,
        0.6759003400802612,
        -0.03410704806447029,
        0.2240830361843109,
        0.3574431836605072,
        0.15547195076942444,
        1.4341150522232056,
        -0.4446121156215668,
        0.4252394139766693,
        1.7187143564224243,
        -1.5698574781417847,
        0.11447863280773163,
        0.3212207853794098,
        0.03653135895729065,
        -0.08868490159511566,
        -0.04180162772536278,
        0.00010389089584350586,
        -0.3295937180519104,
        0.15246924757957458,
        -0.13103817403316498,
        0.1301199197769165,
        0.4939914643764496,
        1.675874948501587,
        -1.0686118602752686,
        0.7204726338386536,
        -0.6202865242958069,
        0.208961620926857,
        0.06613612920045853,
        -0.22171567380428314,
        0.15869738161563873,
        0.15730956196784973,
        -0.11785589903593063,
        -0.05376066267490387,
        0.9077878594398499,
        -0.12658488750457764,
        0.06888289004564285,
        2.257744789123535,
        -0.25018927454948425,
        0.07966092973947525,
        4.170711517333984,
        -0.13547450304031372,
        -0.0707191675901413,
        -0.10222470015287399,
        0.12406067550182343,
        0.12627039849758148,
        0.047507595270872116,
        0.11082570254802704,
        1.871574878692627,
        -1.070354700088501,
        -0.45119068026542664,
        0.21501901745796204,
        3.1446292400360107,
        -0.3877626657485962,
        -1.8000725507736206,
        -0.03308964893221855,
        0.11870193481445312,
        -0.10629428923130035,
        -1.220376968383789,
        -0.16902422904968262,
        -0.15646685659885406,
        -0.5158438682556152,
        -0.06069136783480644,
        0.05903250351548195,
        -1.7388383150100708,
        0.06943012773990631,
        0.007458916865289211,
        -1.4646683931350708,
        -0.04184623807668686,
        0.027434702962636948,
        -0.5103005766868591,
        -0.09619950503110886,
        -0.1315113604068756,
        0.21927033364772797,
        -0.022068284451961517,
        0.06648997962474823,
        0.7552605867385864,
        -0.04258866608142853,
        2.257378578186035,
        -1.034336805343628,
        -0.4906270503997803,
        1.6712696552276611,
        0.27174457907676697,
        -0.8398792743682861,
        0.6157453060150146,
        0.880345344543457,
        0.2734546363353729,
        -0.16618786752223969,
        1.021967887878418,
        0.22597412765026093,
        -0.5176998972892761,
        1.2612701654434204,
        0.0449909046292305,
        -0.37529999017715454,
        0.5218356847763062,
        -0.48750412464141846,
        0.8921664953231812,
        1.2196717262268066,
        0.23788906633853912,
        0.25850147008895874,
        1.7328044176101685,
        0.8881477117538452,
        -0.7223636507987976,
        0.2033662647008896,
        -0.057546257972717285,
        0.03124086558818817,
        0.20352737605571747,
        -0.11868555843830109,
        1.302548885345459,
        -1.2551822662353516,
        -1.4963369369506836,
        0.4395342767238617,
        -0.7790346741676331,
        1.1265534162521362,
        -0.3196810185909271,
        0.45707985758781433,
        -1.4655070304870605,
        0.3312942683696747,
        0.1315496414899826,
        0.6850765347480774,
        -0.8369337916374207,
        -0.7889518141746521,
        -1.1776202917099,
        0.16286465525627136,
        0.34131568670272827,
        0.05208214372396469,
        -0.11663997173309326,
        1.0451302528381348,
        -0.41624248027801514,
        0.1966942697763443,
        1.1610996723175049,
        -0.5169849395751953,
        0.6178456544876099,
        -0.07411187142133713,
        -0.038825929164886475,
        0.05632080137729645,
        0.2853652238845825,
        0.04827296733856201,
        0.018519006669521332,
        -0.14155952632427216,
        0.35027581453323364,
        -0.1516476720571518,
        3.5587704181671143,
        -2.378486156463623,
        2.1552512645721436,
        0.37775325775146484,
        0.03915021941065788,
        0.10250582545995712,
        0.11593297868967056,
        -0.0892544612288475,
        0.0425959937274456,
        -1.36363685131073,
        0.07648368179798126,
        0.0481889545917511,
        -1.2942829132080078,
        -0.07224684208631516,
        0.1241103857755661,
        -0.05780870094895363,
        -0.10476953536272049,
        0.0519426055252552,
        -0.1003948226571083,
        0.03598484396934509,
        0.03303962200880051,
        -1.028294324874878,
        0.017088845372200012,
        0.1135634332895279,
        0.6303444504737854,
        -0.05827532708644867,
        3.0096867084503174,
        1.682436466217041,
        -1.0963174104690552,
        0.34905901551246643,
        1.0521477460861206,
        0.158814936876297,
        -0.06790308654308319,
        0.48740333318710327,
        0.20859591662883759,
        -0.37001240253448486,
        0.3395506739616394,
        -0.18836036324501038,
        -0.14063760638237,
        -0.048629749566316605,
        0.14251600205898285,
        -0.014638668857514858,
        -0.9355924129486084,
        0.3100615441799164,
        -0.04655447229743004,
        -1.2822211980819702,
        0.006263934075832367,
        -0.11760228872299194,
        -2.883730173110962,
        0.3907906115055084,
        0.3412626087665558,
        0.821337103843689,
        -0.059467628598213196,
        -0.06158611178398132,
        0.9034238457679749,
        0.0075040459632873535,
        -0.2467675656080246,
        0.5569196343421936,
        -0.04958343133330345,
        -0.0047182668931782246,
        -0.21682202816009521,
        0.5186322927474976,
        -0.8284111618995667,
        -0.9630234241485596,
        -0.32390451431274414,
        0.24787947535514832,
        -1.3086050748825073,
        -0.8004223108291626,
        0.8649982810020447,
        -1.0284324884414673,
        0.44178590178489685,
        -0.4051087200641632,
        -1.1183183193206787,
        0.011464827693998814,
        -0.15150602161884308,
        -1.2679613828659058,
        0.6912623643875122,
        0.31638970971107483,
        -0.9259568452835083,
        0.007604176644235849,
        0.8913326859474182,
        -0.09314318001270294,
        0.12486077845096588,
        -0.06509117037057877,
        0.10781972855329514,
        -0.12469477206468582,
        1.1438134908676147,
        0.7350069284439087,
        -0.6509920358657837,
        -2.2733922004699707,
        -0.19521480798721313,
        0.5290385484695435,
        0.8109427094459534,
        1.1968861818313599,
        0.1131538599729538,
        0.6078789234161377,
        1.0976381301879883,
        0.4627535939216614,
        0.5585599541664124,
        1.184140682220459,
        0.415109246969223,
        0.5247997045516968,
        0.44256967306137085,
        0.2519468367099762,
        0.17881038784980774,
        1.4049558639526367,
        0.020991956815123558,
        0.29997605085372925,
        2.6519615650177,
        0.12439559400081635,
        0.43738046288490295,
        -0.2765097916126251,
        0.03263908624649048,
        -0.0002851039171218872,
        0.2903871536254883,
        0.027056530117988586,
        0.8257526159286499,
        0.9632378816604614,
        1.1715686321258545,
        0.14976423978805542,
        1.2851905822753906,
        -2.280339002609253,
        -1.3383760452270508,
        0.856005072593689,
        0.29359474778175354,
        0.37978842854499817,
        0.7611295580863953,
        0.21462677419185638,
        -0.15147008001804352,
        0.0916709452867508,
        0.4059368669986725,
        0.05791747197508812,
        -0.18995033204555511,
        0.13596659898757935,
        0.0522099994122982,
        0.27300214767456055,
        0.05095597729086876,
        -0.09098128229379654,
        2.1588311195373535,
        0.18391083180904388,
        -0.1307915598154068,
        -0.00409633107483387,
        -0.1026240885257721,
        0.0019621998071670532,
        -0.00617641769349575,
        0.12653528153896332,
        0.005535661242902279,
        1.7194157838821411,
        3.9860074520111084,
        -0.13603553175926208,
        -0.23889385163784027,
        -0.293574720621109,
        -0.013932471163570881,
        -0.3023839294910431,
        -0.06090569868683815,
        -0.032967790961265564,
        -0.69950270652771,
        -0.12438589334487915,
        -0.03486531227827072,
        -0.6587854027748108,
        -0.023745128884911537,
        0.0006306575378403068,
        -0.7706434726715088,
        -0.03430388122797012,
        0.044790662825107574,
        -0.09028645604848862,
        0.10995078831911087,
        -0.013095973059535027,
        0.06650878489017487,
        -0.031259797513484955,
        -0.044530924409627914,
        0.15941014885902405,
        0.07355916500091553,
        0.10644850134849548,
        0.7792545557022095,
        0.10659836232662201,
        1.888676404953003,
        1.277791976928711,
        0.172281414270401,
        -2.0971736907958984,
        -0.006208710838109255,
        0.05798354372382164,
        -0.07527785748243332,
        0.22786882519721985,
        0.19365859031677246,
        -0.11771522462368011,
        0.552808940410614,
        0.14650499820709229,
        0.07130297273397446,
        0.1603376865386963,
        -0.041882310062646866,
        -0.021694744005799294,
        -0.9801875352859497,
        0.016974812373518944,
        0.08740570396184921,
        -0.7601129412651062,
        0.022544188424944878,
        -0.06627526134252548,
        -0.025516532361507416,
        -0.052670918405056,
        0.009211921133100986,
        -0.34678560495376587,
        -0.13426710665225983,
        -0.03013809770345688,
        -1.1085188388824463,
        -0.06873094290494919,
        0.4163159728050232,
        -1.3669404983520508,
        -0.009133358485996723,
        0.0818149521946907,
        -2.6085891723632812,
        0.004228262230753899,
        -0.005000974517315626,
        -2.0923895835876465,
        -0.10807767510414124,
        0.1706579327583313,
        -1.1771820783615112,
        -0.05498720332980156,
        0.0907450020313263,
        0.302318811416626,
        -0.0743112787604332,
        -0.06903134286403656,
        0.5721327662467957,
        -0.2488621026277542,
        -0.12332691252231598,
        -0.13301651179790497,
        0.018771175295114517,
        -0.1450829654932022,
        -5.502634048461914,
        -0.18559478223323822,
        -0.15363822877407074,
        -0.33996421098709106,
        0.11127299070358276,
        -0.04526379704475403,
        0.5037188529968262,
        -0.07925339788198471,
        0.209702730178833,
        -0.483701229095459,
        0.3980581760406494,
        0.09382053464651108,
        -0.7969536185264587,
        -0.1864578276872635,
        -0.04475177079439163,
        -0.6879095435142517,
        -0.20499587059020996,
        0.20678633451461792,
        1.81380295753479,
        0.20936144888401031,
        -1.2875460386276245,
        1.2654752731323242,
        -0.1769438236951828,
        1.5965685844421387,
        1.2156230211257935,
        0.044665731489658356,
        -0.015519312582910061,
        1.6947358846664429,
        0.1424926519393921,
        0.0002299063780810684,
        3.9971792697906494,
        0.080520398914814,
        -0.3470860719680786,
        0.6318237781524658,
        0.02802222967147827,
        0.11227895319461823,
        -0.910017192363739,
        -0.021841593086719513,
        2.3845741748809814,
        -0.6938440203666687,
        -0.07738965004682541,
        0.6605289578437805,
        -0.7667192816734314,
        -0.09439083933830261,
        0.4902811348438263,
        -1.5400772094726562,
        -0.047753527760505676,
        0.6862655878067017,
        -1.1585921049118042,
        -0.5678271651268005,
        -0.48668575286865234,
        -3.237900733947754,
        -1.0115623474121094,
        -0.20410333573818207,
        -3.829333782196045,
        -0.4868295192718506,
        -0.23859602212905884,
        -3.9825985431671143,
        -0.6375117897987366,
        -0.31339481472969055,
        -3.977649450302124,
        -0.2678442597389221,
        -0.40353891253471375,
        -2.0983996391296387,
        -0.05230683088302612,
        0.006626680493354797,
        -1.106359839439392,
        0.10966826975345612,
        -0.4482240080833435,
        0.016662204638123512,
        0.7210326194763184,
        0.7999051213264465,
        0.9352627992630005,
        0.5830954909324646,
        0.98594731092453,
        0.9485299587249756,
        -1.7953784465789795,
        -0.242475226521492,
        1.3337122201919556,
        -0.12792524695396423,
        0.7303687334060669,
        0.24314452707767487,
        -0.572867751121521,
        0.46761831641197205,
        0.0702652633190155,
        -0.16118022799491882,
        0.5471378564834595,
        -0.4636489450931549,
        -0.8475823998451233,
        0.2888508141040802,
        -1.4947595596313477,
        -0.7937617897987366,
        0.01480148360133171,
        -0.21731144189834595,
        -0.024173326790332794,
        -0.06955935060977936,
        0.13222433626651764,
        0.12730829417705536,
        0.09252486377954483,
        -0.3445759117603302,
        -0.3771648705005646,
        -0.009215784259140491,
        -0.11054066568613052,
        -0.7162421941757202,
        -0.08932995051145554,
        0.2873854637145996,
        -0.6678447723388672,
        -0.05694710090756416,
        0.8121252655982971,
        -0.11237454414367676,
        -0.21114353835582733,
        1.4097256660461426,
        -0.5768348574638367,
        -0.12509611248970032,
        2.7265028953552246,
        2.197387218475342,
        0.05716476961970329,
        2.495049476623535,
        -0.23694878816604614,
        -0.11248219758272171,
        3.3054420948028564,
        -0.24743856489658356,
        0.10969948023557663,
        0.34736159443855286,
        0.11234427988529205,
        0.06671281158924103,
        -0.4214622378349304,
        0.018507763743400574,
        0.5084807276725769,
        -0.7540878057479858,
        -0.11975347995758057,
        0.11046178638935089,
        -0.5882750749588013,
        -0.0720377117395401,
        0.10256294906139374,
        -0.04007697477936745,
        0.023109070956707,
        0.152582585811615,
        4.365047931671143,
        -0.32290011644363403,
        -2.38615083694458,
        0.6227380633354187,
        -0.006743486970663071,
        -0.03831017017364502,
        -0.37789592146873474,
        -0.014895336702466011,
        0.017109960317611694,
        -0.5900604724884033,
        0.045867688953876495,
        0.06704730540513992,
        1.0447664260864258,
        0.14611344039440155,
        -0.010244525969028473,
        0.37073463201522827,
        -0.10417098551988602,
        0.04895097017288208,
        -0.16871485114097595,
        -0.10532502830028534,
        -0.27761104702949524,
        0.07495347410440445,
        -0.40216922760009766,
        0.27353835105895996,
        0.30707892775535583,
        -0.6459895372390747,
        0.15444551408290863,
        -2.289686441421509,
        0.199213907122612,
        -0.1490270048379898,
        -6.642750263214111,
        0.35559991002082825,
        -0.24260568618774414,
        -7.7513346672058105,
        0.11742336302995682,
        -0.15336616337299347,
        -10.29977798461914,
        0.27366185188293457,
        -0.11785250157117844,
        -10.853355407714844,
        0.33526167273521423,
        0.09431157261133194,
        -12.61581802368164,
        0.2778700590133667,
        -0.0265740305185318,
        0.02367389388382435,
        -0.09344731271266937,
        -0.05243837088346481,
        -0.07537784427404404,
        -0.020432792603969574,
        -0.08191577345132828,
        -0.08862721174955368,
        -0.2555023729801178,
        0.06323179602622986,
        -0.18801257014274597,
        -0.20967935025691986,
        -0.1238042414188385,
        0.027818091213703156,
        -0.12848347425460815,
        -0.03994118049740791,
        -0.10587454587221146,
        -0.09721927344799042,
        0.05469971150159836,
        0.0301820021122694,
        -0.006404472049325705,
        0.01811250112950802,
        0.18624940514564514,
        0.04259961470961571,
        -0.06799586862325668,
        0.2196267992258072,
        -0.09525411576032639,
        0.08039681613445282,
        0.38622674345970154,
        -0.05220627784729004,
        0.04219033569097519,
        -0.24227368831634521,
        -0.0219632089138031,
        -0.08212372660636902,
        -0.12211182713508606,
        0.06493140757083893,
        -0.1423703283071518,
        -0.25613534450531006,
        -0.0684313103556633,
        0.038521040230989456,
        -0.15110349655151367,
        -0.09784084558486938,
        0.07407991588115692,
        0.23327872157096863,
        0.2651360034942627,
        0.030184796079993248,
        0.008943455293774605,
        -0.1639215499162674,
        -0.04564883932471275,
        -0.08351151645183563,
        0.12919749319553375,
        0.03763388469815254,
        -0.19550229609012604,
        -0.06071940436959267,
        0.07418377697467804,
        0.1673252135515213,
        -0.04215100035071373,
        0.08846045285463333,
        0.5110442638397217,
        -0.03291268274188042,
        0.04291591793298721,
        -1.2959085702896118,
        -0.05849543958902359,
        0.0890144556760788,
        -1.0063573122024536,
        -0.12108957767486572,
        0.3779752254486084,
        0.7264032959938049,
        0.44192710518836975,
        -0.43523797392845154,
        -0.4357887804508209,
        -0.24791118502616882,
        -0.21380767226219177,
        0.3411175012588501,
        -0.5079254508018494,
        -0.17862597107887268,
        0.7902846336364746,
        0.618507444858551,
        0.21619178354740143,
        0.5934664607048035,
        0.8189446330070496,
        0.8993547558784485,
        0.3555741608142853,
        -0.7563113570213318,
        0.30379483103752136,
        1.4966819286346436,
        -1.1702847480773926,
        0.3723737895488739,
        3.898804187774658,
        -0.05884604901075363,
        -0.8031408786773682,
        0.15636542439460754,
        -0.03956827521324158,
        0.04687786102294922,
        0.42756807804107666,
        -0.03360901027917862,
        0.3655429184436798,
        0.3415987193584442,
        -0.8080588579177856,
        0.1127094253897667,
        -0.40284913778305054,
        -0.04807687923312187,
        -0.10695421695709229,
        0.19003663957118988,
        -0.1411646455526352,
        -0.02710338495671749,
        0.3365642726421356,
        -0.5305531024932861,
        1.200718641281128,
        -0.1623397171497345,
        -0.29598769545555115,
        0.09664376825094223,
        1.2561168670654297,
        0.329876571893692,
        -1.2007560729980469,
        1.5282028913497925,
        -0.4585118889808655,
        -0.004978590179234743,
        3.8060684204101562,
        -0.203079953789711,
        -0.6074956059455872,
        -0.05675724148750305,
        -0.041034944355487823,
        0.022529616951942444,
        -0.2523815929889679,
        0.033174335956573486,
        2.2909188270568848,
        -2.2211782932281494,
        -0.5110954642295837,
        -0.7597479224205017,
        1.7665716409683228,
        0.2624411880970001,
        -0.06439252197742462,
        0.6372292637825012,
        -0.5221885442733765,
        -0.1617659628391266,
        0.33557334542274475,
        0.23973031342029572,
        0.059221502393484116,
        0.6789727807044983,
        -0.25970709323883057,
        -0.09637075662612915,
        0.5344786643981934,
        -0.2235540747642517,
        0.08683069050312042,
        0.8269808292388916,
        -0.28197288513183594,
        0.053196728229522705,
        1.5294090509414673,
        0.15943491458892822,
        -0.22370143234729767,
        -0.38701117038726807,
        -0.10928166657686234,
        -0.026631973683834076,
        -0.30081233382225037,
        0.031599923968315125,
        4.015805244445801,
        0.030473949387669563,
        0.15825466811656952,
        0.04790058359503746,
        -1.6666841506958008,
        -0.02652513049542904,
        0.08943682163953781,
        -1.225964069366455,
        -0.008569969795644283,
        0.003840116085484624,
        -0.5253032445907593,
        -0.004003283567726612,
        -0.029503678902983665,
        -0.6675788164138794,
        0.0008869487792253494,
        0.012797340750694275,
        -0.31359320878982544,
        0.06566528975963593,
        0.09127364307641983,
        -0.11693330854177475,
        0.1330016851425171,
        0.0058295344933867455,
        -1.4629020690917969,
        0.057260673493146896,
        0.08283554017543793,
        0.09302462637424469,
        0.035572901368141174,
        0.0818164199590683,
        0.09022035449743271,
        -0.0035348981618881226,
        -0.08221513032913208,
        1.2973289489746094,
        3.2580642700195312,
        1.1458591222763062,
        0.017373686656355858,
        0.06528989225625992,
        0.02035948447883129,
        -0.19737091660499573,
        0.07767680287361145,
        0.009274604730308056,
        0.5074434280395508,
        -0.002389315515756607,
        -0.01816398836672306,
        0.012173398397862911,
        0.034969303756952286,
        0.02912280708551407,
        -0.13407666981220245,
        0.13386468589305878,
        0.0652105063199997,
        -0.8628866672515869,
        -0.07692494988441467,
        0.017378222197294235,
        -0.4699070155620575,
        0.15377064049243927,
        0.10037719458341599,
        -0.979232907295227,
        -0.04894726723432541,
        0.05668048560619354,
        -0.16477443277835846,
        0.029744952917099,
        0.08905966579914093,
        0.7510429620742798,
        0.4260035753250122,
        0.9157229661941528,
        -0.31877511739730835,
        0.042284924536943436,
        0.6093689203262329,
        0.39363229274749756,
        -0.789580225944519,
        0.10438815504312515,
        -0.3538636267185211,
        -0.6748289465904236,
        -0.4547036290168762,
        -1.1975233554840088,
        -0.610297679901123,
        0.44580981135368347,
        -1.2672011852264404,
        -0.15379837155342102,
        -0.4670976400375366,
        -2.5957798957824707,
        0.9547809362411499,
        0.5225036144256592,
        -2.9811275005340576,
        0.8681746125221252,
        -0.4475158452987671,
        0.4076647162437439,
        0.004520624876022339,
        -0.10783611238002777,
        0.012047111988067627,
        0.0882246196269989,
        2.9654226303100586,
        0.6093547344207764,
        0.4894997179508209,
        0.6069270968437195,
        0.8993637561798096,
        0.6047061681747437,
        0.015152676962316036,
        -0.05910615995526314,
        0.24937619268894196,
        0.6673932671546936,
        0.17493847012519836,
        -0.12852901220321655,
        0.009834391064941883,
        0.6663998961448669,
        0.05225742608308792,
        0.15966364741325378,
        0.13589555025100708,
        -2.3162240982055664,
        -0.039673082530498505,
        0.5479424595832825,
        0.18619239330291748,
        -0.6458836197853088,
        1.8169183731079102,
        0.39293551445007324,
        -0.05454287678003311,
        -0.27686333656311035,
        -0.04405366629362106,
        -0.048837609589099884,
        -0.5307531356811523,
        -0.008662834763526917,
        0.5339000821113586,
        0.012884754687547684,
        -0.09385007619857788,
        0.023565394803881645,
        -0.21222777664661407,
        -0.056614212691783905,
        0.00048589485231786966,
        -0.15307208895683289,
        -0.02685011923313141,
        0.021501615643501282,
        -0.22873279452323914,
        -0.06984686106443405,
        0.0042275963351130486,
        -0.37212783098220825,
        -0.04020274803042412,
        -0.08292177319526672,
        -0.5337193012237549,
        -0.03855466470122337,
        -0.04071905463933945,
        -0.7982170581817627,
        -0.004566739778965712,
        -0.04004207253456116,
        -0.9373363852500916,
        -0.015128527767956257,
        0.043420080095529556,
        -0.872937798500061,
        0.12945450842380524,
        -0.05867617577314377,
        -0.40883538126945496,
        -0.015728920698165894,
        -0.07720167934894562,
        0.5360477566719055,
        -0.6235463619232178,
        1.1148864030838013,
        0.09180367738008499,
        -1.4278063774108887,
        0.7408983707427979,
        -0.7285313010215759,
        -0.6437868475914001,
        0.37091803550720215,
        -0.6557823419570923,
        -1.2095715999603271,
        0.3424932658672333,
        -1.0065226554870605,
        -0.39121878147125244,
        -0.38406607508659363,
        -1.1583937406539917,
        -0.6932701468467712,
        0.512319803237915,
        -1.2399908304214478,
        -1.04899263381958,
        -0.0932830348610878,
        -1.1145299673080444,
        -0.1527336835861206,
        0.8830873966217041,
        -0.1664084494113922,
        0.026436954736709595,
        0.05985113978385925,
        0.30049824714660645,
        -0.11242032051086426,
        -0.9567269086837769,
        2.41803240776062,
        -1.6866742372512817,
        3.174787998199463,
        -0.8551222681999207,
        0.08853830397129059,
        -0.03125413879752159,
        -1.088834524154663,
        0.02402833104133606,
        -0.02567022293806076,
        -0.4228697419166565,
        -0.08394761383533478,
        -0.05185263603925705,
        -0.6346350908279419,
        0.07878062129020691,
        0.07366611808538437,
        -1.116853952407837,
        -0.005240254569798708,
        -0.014683321118354797,
        -1.1400409936904907,
        0.00011157867265865207,
        -0.004703744314610958,
        -0.8210071325302124,
        -0.005071135703474283,
        0.025680061429739,
        -0.9388447999954224,
        -0.10252982378005981,
        -0.03816565126180649,
        -0.7744000554084778,
        -0.007856041193008423,
        0.1505601704120636,
        -0.581030011177063,
        0.05375384911894798,
        -0.1086048036813736,
        -0.5876731872558594,
        0.287465363740921,
        -0.02377580665051937,
        -0.2525091767311096,
        0.27384456992149353,
        0.16097810864448547,
        0.23593713343143463,
        0.40978291630744934,
        -0.03919964283704758,
        0.35204434394836426,
        -0.14454178512096405,
        -0.29296985268592834,
        1.8580235242843628,
        0.0531291700899601,
        0.05685372278094292,
        2.733994960784912,
        -0.045090969651937485,
        -0.2203056365251541,
        5.07168436050415,
        -2.589776039123535,
        1.439399242401123,
        -2.3585031032562256,
        0.009462371468544006,
        0.08337421715259552,
        -1.6344337463378906,
        0.0012060105800628662,
        -0.19630594551563263,
        -0.3107307255268097,
        0.1445310115814209,
        -0.39696455001831055,
        -0.3106933534145355,
        -0.0075193787924945354,
        -0.26644954085350037,
        0.31217318773269653,
        0.17963160574436188,
        -0.1210012286901474,
        0.8580405712127686,
        0.11060464382171631,
        0.07155989110469818,
        0.2671528160572052,
        0.1396266520023346,
        -0.11926122009754181,
        0.36013275384902954,
        0.08232957869768143,
        0.1422329545021057,
        -0.866592526435852,
        0.22017702460289001,
        -0.13804030418395996,
        -4.283926486968994,
        0.10637984424829483,
        -0.00841876957565546,
        -0.0043961708433926105,
        -0.0554632842540741,
        -0.052711017429828644,
        0.09201769530773163,
        0.10692279040813446,
        0.05422463268041611,
        -0.25663697719573975,
        0.019135281443595886,
        -0.0132297333329916,
        -0.1362951695919037,
        0.1314619928598404,
        -0.04355841502547264,
        0.17789097130298615,
        -0.24656757712364197,
        -0.18541623651981354,
        1.3026580810546875,
        -0.2588275671005249,
        -0.1507757008075714,
        4.042685031890869,
        1.715924620628357,
        1.9896135330200195,
        1.4871587753295898,
        -0.07229958474636078,
        -0.0005953682702966034,
        1.3048585653305054,
        0.021442553028464317,
        0.05588429048657417,
        1.2803972959518433,
        0.050617046654224396,
        -0.049860671162605286,
        -0.010489150881767273,
        -0.07012157142162323,
        0.049999356269836426,
        0.5326604247093201,
        -0.04760061949491501,
        2.413814067840576,
        0.6117720007896423,
        1.3488112688064575,
        -2.4794743061065674,
        -0.19016611576080322,
        -0.336546391248703,
        0.08105389773845673,
        -0.16507206857204437,
        -0.18961766362190247,
        -0.017873546108603477,
        -0.21588832139968872,
        0.02164280414581299,
        -0.023095279932022095,
        -0.18517974019050598,
        -0.06102840229868889,
        -0.02874523028731346,
        -0.6684018969535828,
        -0.060733359307050705,
        -0.005332906264811754,
        -1.050692081451416,
        -0.06772150844335556,
        -0.0038138078525662422,
        -0.878311276435852,
        -0.06312143802642822,
        0.10461948812007904,
        0.3257162570953369,
        0.07085628807544708,
        -0.1264830231666565,
        0.3011959493160248,
        0.04311901330947876,
        -0.2306024730205536,
        0.07365444302558899,
        -0.026950813829898834,
        0.0033661862835288048,
        -0.6098113656044006,
        -0.015152668580412865,
        -0.11221086233854294,
        0.10396107286214828,
        -0.4166523218154907,
        -0.06316804885864258,
        3.242159128189087,
        0.5291376113891602,
        2.102449893951416,
        1.211359977722168,
        -0.39785054326057434,
        0.034074921160936356,
        0.7786620259284973,
        -0.16785791516304016,
        0.04582081362605095,
        0.4086296856403351,
        -0.2551191747188568,
        0.1122039183974266,
        1.7403708696365356,
        -0.09570328146219254,
        -0.03539867699146271,
        -0.26285579800605774,
        0.04186411201953888,
        -0.1341833919286728,
        0.06820123642683029,
        -0.008126765489578247,
        0.7445226311683655,
        -5.866842746734619,
        0.45854106545448303,
        -1.0637298822402954,
        -2.438345432281494,
        0.4767453372478485,
        0.4921696186065674,
        -0.5901850461959839,
        -0.04042315110564232,
        0.27201947569847107,
        0.15839439630508423,
        -0.2620704472064972,
        0.0100901760160923,
        0.19862228631973267,
        -0.3071131408214569,
        -0.060236476361751556,
        -0.6432191729545593,
        -0.2638757824897766,
        -0.32084837555885315,
        -1.6048142910003662,
        0.11002948135137558,
        0.08241117745637894,
        -4.487020969390869,
        -0.19967633485794067,
        0.10332689434289932,
        0.7145141363143921,
        -0.10823558270931244,
        -0.1143413558602333,
        1.3058123588562012,
        0.003129124641418457,
        -0.7169836759567261,
        -0.03805486857891083,
        -2.5687308311462402,
        0.34949401021003723,
        -0.6714768409729004,
        -1.1870996952056885,
        0.2980538606643677,
        -0.9012696743011475,
        -0.9346390962600708,
        0.5393746495246887,
        -0.6136387586593628,
        -0.48836085200309753,
        0.2431444376707077,
        0.31632426381111145,
        -0.4127027690410614,
        0.03422035276889801,
        -0.45489197969436646,
        -0.149112269282341,
        0.1731451004743576,
        -0.5549587607383728,
        -0.18111330270767212,
        -0.10487882047891617,
        -1.2895731925964355,
        -0.10564481467008591,
        -0.017006080597639084,
        0.3428818881511688,
        -0.12887869775295258,
        0.1279456466436386,
        0.3155592381954193,
        -0.1229638159275055,
        1.6428419351577759,
        -1.8642277717590332,
        0.21832343935966492,
        0.37667280435562134,
        -0.26505786180496216,
        -0.5693384408950806,
        0.6706897020339966,
        0.3960573673248291,
        -2.2349014282226562,
        -1.1351850032806396,
        -0.5337377190589905,
        -0.6612764596939087,
        -0.4715037941932678,
        -0.19368061423301697,
        -0.19469797611236572,
        0.5385165810585022,
        0.5037807822227478,
        -0.6729153394699097,
        -0.344704270362854,
        0.7861127853393555,
        0.32390928268432617,
        0.1326560229063034,
        0.9362492561340332,
        0.21672126650810242,
        -0.3227851688861847,
        -0.2198919951915741,
        -0.01209847629070282,
        -0.07098353654146194,
        -0.056716516613960266,
        0.110145702958107,
        -0.2854149043560028,
        -0.28001704812049866,
        -1.1964085102081299,
        -0.0014046484138816595,
        0.16784223914146423,
        -0.38613274693489075,
        -0.046695202589035034,
        -0.035975586622953415,
        -0.050027329474687576,
        0.024942848831415176,
        1.3853996992111206,
        -0.04562937095761299,
        0.05329106003046036,
        3.6632936000823975,
        2.3069236278533936,
        0.06414085626602173,
        2.1147618293762207,
        0.09386004507541656,
        -0.06073681637644768,
        1.6697736978530884,
        0.03512504696846008,
        0.12458330392837524,
        1.4285262823104858,
        -0.09253819286823273,
        -0.02731180377304554,
        0.40446749329566956,
        0.05523140728473663,
        0.0018901526927947998,
        -4.783493518829346,
        0.08051271736621857,
        0.7409933805465698,
        -5.006224632263184,
        -0.6837651133537292,
        -0.4008219540119171,
        -3.1824488639831543,
        -0.29130685329437256,
        -0.06206651031970978,
        -3.1610143184661865,
        -1.1268690824508667,
        -0.2739567160606384,
        -2.2063472270965576,
        -0.9904953241348267,
        -0.0018306896090507507,
        -2.015984058380127,
        0.23712147772312164,
        0.013383963145315647,
        -1.8271507024765015,
        -0.6114358901977539,
        0.39089035987854004,
        -2.2813942432403564,
        0.07152190059423447,
        -0.7160006761550903,
        -2.6739087104797363,
        0.2965621054172516,
        0.13776113092899323,
        0.3825904428958893,
        -0.003833860158920288,
        0.12594641745090485,
        -0.5315219759941101,
        0.05028970539569855,
        -0.2512049078941345,
        -3.283806800842285,
        -0.9302719235420227,
        -0.05362808704376221,
        -5.896000385284424,
        0.6684431433677673,
        0.0684407651424408,
        -6.372646331787109,
        0.4678163230419159,
        -0.018875816836953163,
        -6.6334638595581055,
        0.015780942514538765,
        0.29270997643470764,
        -6.199057579040527,
        0.3275231719017029,
        0.07240546494722366,
        -5.645267486572266,
        0.29149630665779114,
        -0.2015116810798645,
        -5.235485553741455,
        -0.30436408519744873,
        0.02051243558526039,
        -6.326167106628418,
        0.1311880350112915,
        -0.2373419851064682,
        0.10363790392875671,
        0.09716182947158813,
        -0.030782215297222137,
        0.03861572593450546,
        0.045338988304138184,
        1.325698971748352,
        -0.2809971570968628,
        -0.8604491949081421,
        -0.3716343939304352,
        1.242203712463379,
        0.9115766882896423,
        0.37576836347579956,
        1.553443193435669,
        -1.6090689897537231,
        -0.1431763917207718,
        0.7163571715354919,
        -1.8548717498779297,
        -0.926869809627533,
        1.364227533340454,
        0.3686801493167877,
        -0.22412265837192535,
        1.21660315990448,
        -0.5300294160842896,
        0.3453395664691925,
        1.6469831466674805,
        0.2758910059928894,
        -0.19653479754924774,
        2.1357617378234863,
        -0.30965161323547363,
        0.044647183269262314,
        0.5215772390365601,
        -0.11470815539360046,
        -0.00464215874671936,
        -0.43272286653518677,
        -0.08319030702114105,
        2.8249568939208984,
        -0.5925671458244324,
        0.9148821830749512,
        -0.8908360004425049,
        0.29924947023391724,
        -0.7257080078125,
        0.5166319608688354,
        1.545133113861084,
        -2.892101287841797,
        1.0819839239120483,
        0.06381310522556305,
        0.527029812335968,
        0.49731743335723877,
        0.2913937568664551,
        -0.10122501850128174,
        0.4612163007259369,
        0.02911224775016308,
        -0.3061714172363281,
        -0.08033529669046402,
        1.3289852142333984,
        -0.6330386400222778,
        0.30794939398765564,
        1.8607330322265625,
        -0.10748264193534851,
        -0.4065341055393219,
        0.2672489583492279,
        0.12981097400188446,
        -0.025913648307323456,
        -2.7583563327789307,
        0.07422734797000885,
        -0.572708249092102,
        -4.586009979248047,
        0.5179207921028137,
        -1.2667696475982666,
        -3.7352139949798584,
        0.23438744246959686,
        -0.0007309206994250417,
        -2.9972317218780518,
        -0.02417629025876522,
        0.48133033514022827,
        -2.592163562774658,
        0.22809331119060516,
        0.10768504440784454,
        -2.5675606727600098,
        -0.3896167278289795,
        0.02504124864935875,
        -2.593158721923828,
        -0.15688657760620117,
        0.44441404938697815,
        -3.2774837017059326,
        -0.2837393283843994,
        0.36590585112571716,
        -3.9909915924072266,
        0.618549644947052,
        -0.0325748585164547,
        -0.04915514215826988,
        0.1240578144788742,
        -0.038448505103588104,
        0.12748654186725616,
        0.02700914442539215,
        0.053823322057724,
        -0.6335591673851013,
        -0.20880575478076935,
        -0.1574181169271469,
        -0.7646236419677734,
        0.14631827175617218,
        -0.15972189605236053,
        -1.1961956024169922,
        0.08042752742767334,
        0.010865055955946445,
        0.36043068766593933,
        0.16507339477539062,
        -0.08235877007246017,
        2.391141891479492,
        -0.004186092410236597,
        0.027276400476694107,
        5.2833991050720215,
        -0.04641430079936981,
        2.491652488708496,
        3.5731067657470703,
        -0.06456106156110764,
        -0.06640075147151947,
        3.6502273082733154,
        0.12597237527370453,
        0.10264497995376587,
        -0.9238781929016113,
        0.12471894919872284,
        -0.013587117195129395,
        -1.0256260633468628,
        0.039501771330833435,
        0.5533233284950256,
        -0.18114806711673737,
        -0.7499482035636902,
        0.566210925579071,
        -0.15114155411720276,
        0.3142544627189636,
        -0.7496150732040405,
        0.0664999708533287,
        -2.172717809677124,
        -1.4076852798461914,
        -0.16949304938316345,
        -1.084228515625,
        1.196290135383606,
        0.6198968887329102,
        -0.2113012820482254,
        0.1860852837562561,
        0.48454922437667847,
        0.4058593511581421,
        0.7560558915138245,
        1.0629137754440308,
        0.06647304445505142,
        0.19608314335346222,
        2.492892265319824,
        0.588045597076416,
        -0.1370854526758194,
        -0.9156519770622253,
        -0.04269737750291824,
        -0.11492908746004105,
        -1.0380698442459106,
        0.060537055134773254,
        -0.7704038023948669,
        -2.3441178798675537,
        -0.25955262780189514,
        0.5533923506736755,
        -2.638246774673462,
        -0.20631858706474304,
        0.5126268863677979,
        -1.8395066261291504,
        -1.5114965438842773,
        -0.37742188572883606,
        -1.9827797412872314,
        0.18225601315498352,
        -0.3464171588420868,
        -2.0788419246673584,
        0.005545321851968765,
        0.5097514390945435,
        -1.5068371295928955,
        -0.09064094722270966,
        -0.5285197496414185,
        -1.509093165397644,
        -0.2575882077217102,
        -0.8943647146224976,
        -2.606260299682617,
        -0.16708171367645264,
        1.2009499073028564,
        -0.1889689713716507,
        0.07718747854232788,
        -0.08134295046329498,
        -0.3882612884044647,
        -0.03053007274866104,
        -0.3766285181045532,
        1.1860893964767456,
        1.7455843687057495,
        -0.2319660186767578,
        1.6091805696487427,
        -2.8250033855438232,
        1.3770520687103271,
        0.5505962371826172,
        0.1283683478832245,
        0.07007952034473419,
        0.8013117909431458,
        0.4570627212524414,
        0.0702284425497055,
        0.08303264528512955,
        0.3254387080669403,
        0.012591671198606491,
        0.05239224061369896,
        -0.06157996878027916,
        -0.024716990068554878,
        0.7063999772071838,
        0.07288798689842224,
        -0.2007780224084854,
        1.670833706855774,
        0.11962182074785233,
        -0.050728194415569305,
        0.028823940083384514,
        -0.008515909314155579,
        0.07463331520557404,
        -0.25230544805526733,
        0.0249292254447937,
        2.0366926193237305,
        -0.22190290689468384,
        0.027624187991023064,
        0.04359767958521843,
        -1.1083475351333618,
        -0.589057981967926,
        -0.6795260310173035,
        0.6239194869995117,
        -0.1645844280719757,
        0.33610138297080994,
        -0.14078249037265778,
        -0.36735567450523376,
        -1.1279901266098022,
        0.39165347814559937,
        0.9903733730316162,
        0.6921166181564331,
        0.9242388606071472,
        -0.2740268111228943,
        1.1607986688613892,
        1.0763404369354248,
        0.004042714834213257,
        -0.615958571434021,
        2.037386178970337,
        -0.10835563391447067,
        0.24549497663974762,
        -1.3271030187606812,
        -0.09510990232229233,
        -0.09681327641010284,
        -0.5200815796852112,
        -0.037342749536037445,
        0.7029699087142944,
        0.3026326596736908,
        -0.15062600374221802,
        -0.013999637216329575,
        -0.0691113993525505,
        -0.35254722833633423,
        0.136888325214386,
        0.5538911819458008,
        -0.0739404484629631,
        0.057599931955337524,
        0.7605423927307129,
        0.023583082482218742,
        0.611440896987915,
        1.5336683988571167,
        -0.46652448177337646,
        0.7557497620582581,
        2.4475934505462646,
        0.17954109609127045,
        0.4986719489097595,
        3.58614182472229,
        1.4372565746307373,
        -1.3725532293319702,
        4.968417167663574,
        -0.20020408928394318,
        -0.07384096831083298,
        -0.05692693591117859,
        0.0689140111207962,
        -0.07522393763065338,
        0.4287865161895752,
        -0.11571669578552246,
        1.7030835151672363,
        0.2570970356464386,
        -0.47072526812553406,
        -0.10917995125055313,
        0.7785875201225281,
        1.49910306930542,
        -1.7840685844421387,
        -0.09198570251464844,
        -0.02516157366335392,
        -0.009371560998260975,
        0.0030848875176161528,
        0.12294183671474457,
        0.02118959277868271,
        0.9986822605133057,
        0.04438202455639839,
        0.029210029169917107,
        1.0215445756912231,
        0.14800222218036652,
        0.005777844227850437,
        0.7346730828285217,
        0.054589707404375076,
        0.013416855596005917,
        0.34740400314331055,
        -0.03192269802093506,
        0.06285371631383896,
        0.563336193561554,
        -0.033203139901161194,
        -0.08242815732955933,
        0.44746220111846924,
        -0.10469157993793488,
        0.5964712500572205,
        0.4758566617965698,
        0.2085488885641098,
        0.03620317578315735,
        0.6742658019065857,
        -0.9202526211738586,
        -2.692365884780884,
        -0.14667072892189026,
        0.1906355619430542,
        0.14831440150737762,
        0.8019623756408691,
        -0.03867461159825325,
        0.16176097095012665,
        0.8196319341659546,
        0.1303522139787674,
        0.12914283573627472,
        0.4519164264202118,
        -0.08269620686769485,
        0.0038558633532375097,
        0.012863374315202236,
        0.14453263580799103,
        -0.001027845311909914,
        0.985672116279602,
        0.06864919513463974,
        -0.09439252316951752,
        0.20027418434619904,
        0.03357279300689697,
        -0.057205915451049805,
        -1.1382527351379395,
        0.08244618773460388,
        4.203061103820801,
        0.0011272579431533813,
        -0.011946847662329674,
        -0.19006139039993286,
        0.6488578915596008,
        0.1605759561061859,
        -0.1629469245672226,
        1.2070403099060059,
        0.4400770366191864,
        -0.3105320632457733,
        1.0430667400360107,
        0.23117011785507202,
        -0.6265241503715515,
        0.9139431715011597,
        0.22671891748905182,
        0.4196832776069641,
        0.9833508729934692,
        0.3233748972415924,
        -0.06562259048223495,
        1.5328561067581177,
        -0.10725201666355133,
        0.5963411927223206,
        3.2876110076904297,
        0.1458454132080078,
        -0.379809707403183,
        -0.001679074950516224,
        0.022680282592773438,
        -0.1299382746219635,
        -0.5472187399864197,
        0.03728321194648743,
        0.06156255304813385,
        -1.0696337223052979,
        -0.21796025335788727,
        -0.15791964530944824,
        -0.11324641853570938,
        -0.16003233194351196,
        0.009735915809869766,
        0.019298937171697617,
        0.09080390632152557,
        -0.20303703844547272,
        0.34563636779785156,
        0.20417729020118713,
        -0.05856098607182503,
        3.120197296142578,
        -0.3896219730377197,
        2.3471806049346924,
        1.489944577217102,
        -0.05676275119185448,
        0.17653602361679077,
        2.0625367164611816,
        -0.039981480687856674,
        -0.19140271842479706,
        2.48041033744812,
        -0.20579075813293457,
        0.08289256691932678,
        0.661320686340332,
        0.03341814875602722,
        -0.10149236023426056,
        -0.5503025650978088,
        -0.005431249737739563,
        3.4480690956115723,
        0.23272888362407684,
        0.1860343962907791,
        -0.49516788125038147,
        -2.228259801864624,
        0.3130730986595154,
        0.1451287567615509,
        -3.5322844982147217,
        0.011277014389634132,
        0.35054656863212585,
        -2.685136079788208,
        -0.08135061711072922,
        -0.11111617833375931,
        -2.547024726867676,
        -0.12247751653194427,
        0.05837007611989975,
        -2.551933765411377,
        0.05526605248451233,
        -0.11723123490810394,
        -3.2982418537139893,
        -0.026968268677592278,
        0.10598613321781158,
        -4.555965423583984,
        0.16462655365467072,
        -0.16323596239089966,
        0.9497849345207214,
        -0.05847369134426117,
        0.08936664462089539,
        0.9206169843673706,
        0.05753229558467865,
        -0.4598560333251953,
        -1.7148643732070923,
        0.047972194850444794,
        0.12603241205215454,
        -0.8863958120346069,
        0.24435539543628693,
        -0.17555522918701172,
        -0.8085426092147827,
        0.051373522728681564,
        0.13098500669002533,
        -1.802205204963684,
        -0.03814888373017311,
        0.07281007617712021,
        -0.7079752683639526,
        0.5659099221229553,
        -0.1304449439048767,
        0.3795216679573059,
        -0.20302914083003998,
        0.06952660530805588,
        3.5181472301483154,
        0.5740196704864502,
        -0.38224056363105774,
        6.824984073638916,
        0.3822399377822876,
        -0.19908256828784943,
        -2.484429121017456,
        0.13369746506214142,
        0.027872353792190552,
        -2.0719432830810547,
        0.12374235689640045,
        0.8026012778282166,
        -1.620919108390808,
        0.6861162781715393,
        -0.6688867807388306,
        -1.0039396286010742,
        0.7225614786148071,
        -0.7878621816635132,
        0.5540932416915894,
        0.7678126096725464,
        1.229349136352539,
        0.6222350001335144,
        -0.27356135845184326,
        -0.08943234384059906,
        0.041136059910058975,
        0.016079416498541832,
        0.02049882337450981,
        -0.45455875992774963,
        0.13421152532100677,
        -0.3213963210582733,
        0.6665887236595154,
        -0.1245015487074852,
        0.04472483694553375,
        0.3803284764289856,
        0.17545713484287262,
        -0.30292442440986633,
        -1.503989577293396,
        -0.05898677557706833,
        -0.11362805217504501,
        0.1387616991996765,
        0.059292882680892944,
        -0.5156082510948181,
        0.011563301086425781,
        -0.35434862971305847,
        -1.203698992729187,
        0.12538295984268188,
        -0.33376920223236084,
        -0.4308224320411682,
        0.30563870072364807,
        0.06747161597013474,
        1.1638803482055664,
        0.34945690631866455,
        0.13753262162208557,
        0.6347063779830933,
        -0.6074634194374084,
        -0.5879630446434021,
        -0.35938647389411926,
        -1.0790249109268188,
        0.26181986927986145,
        0.019282441586256027,
        -0.3726594150066376,
        -0.8455559015274048,
        -0.26471075415611267,
        -0.3595918118953705,
        0.32260340452194214,
        0.4372086524963379,
        -1.0348182916641235,
        -0.04482582211494446,
        0.1056504100561142,
        -0.9265502095222473,
        0.035307079553604126,
        1.2831921577453613,
        3.34521484375,
        -0.6347280740737915,
        -0.13430844247341156,
        -1.0722719430923462,
        0.06077083200216293,
        -0.293687641620636,
        -2.6879706382751465,
        0.07679889351129532,
        0.1083921268582344,
        -3.0158321857452393,
        0.1272292137145996,
        -0.008491788990795612,
        -2.7973241806030273,
        -0.016662608832120895,
        0.03725917637348175,
        -2.2854809761047363,
        0.056742195039987564,
        -0.013252814300358295,
        -1.7783498764038086,
        -0.01620069146156311,
        -0.01339692808687687,
        -2.515838384628296,
        -0.03838483989238739,
        0.09157580882310867,
        1.109269142150879,
        0.03313112258911133,
        0.06974929571151733,
        -0.38451048731803894,
        -0.04196380078792572,
        0.811359167098999,
        -3.785222053527832,
        0.21270440518856049,
        0.7961413860321045,
        -1.4109482765197754,
        -0.09244419634342194,
        0.14094652235507965,
        -0.09399113804101944,
        -0.11901348829269409,
        -0.13059422373771667,
        0.12617728114128113,
        0.17002619802951813,
        -0.12284902483224869,
        -1.159787654876709,
        -0.21741774678230286,
        -0.0461750328540802,
        -1.9200310707092285,
        0.10486756265163422,
        0.04717392474412918,
        -2.6308634281158447,
        0.046533454209566116,
        -0.05360502377152443,
        -4.54895544052124,
        -0.024020357057452202,
        0.008256316184997559,
        0.7090193629264832,
        -0.018054835498332977,
        0.07903894782066345,
        -0.8233333230018616,
        -0.06871729344129562,
        -0.3244445025920868,
        -0.9590407609939575,
        0.21122343838214874,
        1.1914012432098389,
        -2.408909320831299,
        -0.9597182869911194,
        -0.26951804757118225,
        -2.7850046157836914,
        0.28107479214668274,
        1.436887264251709,
        -2.416402816772461,
        0.11049608141183853,
        -0.05523459613323212,
        -2.2032928466796875,
        -0.6466889381408691,
        0.6601364612579346,
        -1.433799386024475,
        0.20414260029792786,
        0.22628727555274963,
        -1.8401507139205933,
        -0.3056797385215759,
        -0.6641106605529785,
        -2.8377344608306885,
        -0.9565887451171875,
        0.2251189947128296,
        1.0454809665679932,
        0.11536969244480133,
        0.06310172379016876,
        -1.8673534393310547,
        0.06267359852790833,
        3.8061907291412354,
        1.4907379150390625,
        0.19057457149028778,
        -0.09004766494035721,
        0.5831943154335022,
        0.14318637549877167,
        -0.14159192144870758,
        -0.4003525376319885,
        0.01874568685889244,
        -0.16394759714603424,
        -0.26152119040489197,
        0.060808468610048294,
        -0.12091536074876785,
        -0.9859506487846375,
        -0.003123725764453411,
        -0.06837364286184311,
        -1.1059389114379883,
        0.23037734627723694,
        0.2022845447063446,
        -0.9100005030632019,
        0.0369255505502224,
        0.10234076529741287,
        0.32618001103401184,
        -0.0470917746424675,
        0.0545290969312191,
        -0.13512751460075378,
        0.000780060887336731,
        0.04872216284275055,
        0.9615539908409119,
        0.004286602139472961,
        2.7633092403411865,
        0.7407624125480652,
        -2.120514154434204,
        0.2738078832626343,
        -2.7328948974609375,
        0.9963290095329285,
        0.30632442235946655,
        -0.8782607316970825,
        -0.2068265825510025,
        0.12534336745738983,
        -0.7034938931465149,
        -0.328290194272995,
        -0.12487912178039551,
        -0.9826439619064331,
        0.2889591157436371,
        0.0037499498575925827,
        -0.6416323781013489,
        -0.5551545023918152,
        -0.3012985289096832,
        -0.7266525030136108,
        0.17182594537734985,
        -0.03461449593305588,
        -1.345315933227539,
        -0.08688437938690186,
        -0.2158370465040207,
        -0.25264573097229004,
        0.05678364634513855,
        0.028074726462364197,
        0.2596126198768616,
        0.1213453859090805,
        0.4959101974964142,
        -6.1321539878845215,
        0.27707672119140625,
        -0.40282949805259705,
        -2.342773199081421,
        -0.02726655639708042,
        -0.20319288969039917,
        -2.4950098991394043,
        0.020323138684034348,
        -0.4123437702655792,
        -2.0866219997406006,
        0.14051033556461334,
        -0.2316875457763672,
        -1.6206601858139038,
        -0.09930116683244705,
        0.41975924372673035,
        -1.7844372987747192,
        0.19675518572330475,
        -0.05472505837678909,
        -2.58471417427063,
        0.08180075883865356,
        -0.2705058157444,
        -4.444815158843994,
        -0.2825465202331543,
        0.06784253567457199,
        0.613979160785675,
        0.02254648506641388,
        0.10242503881454468,
        0.6697572469711304,
        0.02016448974609375,
        1.9907771348953247,
        0.7015276551246643,
        -2.6780290603637695,
        0.4577075242996216,
        0.34616732597351074,
        -0.264399915933609,
        -0.7786368727684021,
        -0.12273234874010086,
        0.6054831147193909,
        -0.12853054702281952,
        0.3896905481815338,
        0.3926832973957062,
        -0.4657875895500183,
        1.0280386209487915,
        0.029290009289979935,
        -0.5821177363395691,
        1.126577377319336,
        0.10019587725400925,
        0.2601797580718994,
        0.5275163650512695,
        -0.7637221217155457,
        0.45828312635421753,
        0.03757040202617645,
        0.02265671081840992,
        -0.059902124106884,
        -0.47631701827049255,
        0.09399673342704773,
        0.012812212109565735,
        0.5217118859291077,
        -0.012741848826408386,
        -0.09128852188587189,
        -4.467386722564697,
        -0.28452828526496887,
        -0.02285202220082283,
        -3.30911922454834,
        -0.024459276348352432,
        0.052826572209596634,
        -2.7461493015289307,
        -0.0533050037920475,
        0.07148914039134979,
        -2.0606091022491455,
        -0.24161186814308167,
        0.055912815034389496,
        -0.6734381914138794,
        -0.10272477567195892,
        0.05218784138560295,
        0.8710088133811951,
        -0.11805042624473572,
        0.06819280982017517,
        2.6179161071777344,
        -0.09194093942642212,
        0.0101714376360178,
        3.872419834136963,
        0.1762319803237915,
        0.034808047115802765,
        -0.5123909115791321,
        0.09643039107322693,
        -0.12290029972791672,
        0.5300453305244446,
        0.01799905300140381,
        -0.08169089257717133,
        0.023756178095936775,
        -1.4018992185592651,
        -0.8987828493118286,
        0.7783998847007751,
        0.7669239640235901,
        0.12006794661283493,
        2.742354393005371,
        1.2241276502609253,
        0.7151651382446289,
        1.6806830167770386,
        0.08463630080223083,
        0.1272333264350891,
        0.7680686712265015,
        -0.15800492465496063,
        -0.07486115396022797,
        0.14318148791790009,
        0.22958841919898987,
        0.15587881207466125,
        0.5500800013542175,
        -0.03313349932432175,
        -0.057738352566957474,
        0.7750193476676941,
        0.030944418162107468,
        -0.03595038130879402,
        -1.1520118713378906,
        -0.09057997167110443,
        0.08335304260253906,
        -1.269205093383789,
        0.120775505900383,
        -0.21483227610588074,
        -0.6897313594818115,
        0.4363758862018585,
        0.1471364051103592,
        -1.8347232341766357,
        0.26416313648223877,
        -0.039470773190259933,
        -0.45556578040122986,
        0.11460917443037033,
        0.08621122688055038,
        -0.23914283514022827,
        0.06855463981628418,
        0.05850415304303169,
        1.2010936737060547,
        0.009755763225257397,
        0.08215055614709854,
        3.679750442504883,
        -0.11910663545131683,
        0.11518717557191849,
        6.218705654144287,
        -0.1866062879562378,
        -0.04010000452399254,
        10.03495979309082,
        -0.11235584318637848,
        -0.03542901575565338,
        0.016870589926838875,
        -0.030771404504776,
        -0.12965574860572815,
        -0.01993129588663578,
        0.062286436557769775,
        0.06468477845191956,
        -0.21215946972370148,
        -0.26359203457832336,
        -0.019531764090061188,
        -0.21547666192054749,
        -0.11530882120132446,
        -0.11605269461870193,
        -0.4044129550457001,
        -0.09544293582439423,
        0.022185781970620155,
        -0.45441362261772156,
        -0.04650634527206421,
        0.10140595585107803,
        -0.458315908908844,
        -0.06633603572845459,
        0.0329694002866745,
        -0.3373311161994934,
        -0.04950368031859398,
        -0.02323698252439499,
        -0.35435962677001953,
        0.04467848688364029,
        0.041370075196027756,
        -0.013778112828731537,
        -0.03744901716709137,
        0.05564131960272789,
        0.6056578755378723,
        -0.11242251098155975,
        0.013915881514549255,
        -1.2400847673416138,
        -0.10714428126811981,
        -0.18685193359851837,
        -1.2113869190216064,
        -0.8337274789810181,
        0.5187507271766663,
        -0.040539611130952835,
        -0.33535176515579224,
        0.8690530061721802,
        0.8058266043663025,
        -0.2309865951538086,
        0.2417772114276886,
        0.379536896944046,
        -0.4909404218196869,
        0.13578331470489502,
        0.5262093544006348,
        -0.41096460819244385,
        0.08164463937282562,
        0.4269275367259979,
        -0.24470233917236328,
        0.20150019228458405,
        0.21541337668895721,
        -0.44924017786979675,
        0.3741998076438904,
        -4.104737281799316,
        -0.18006053566932678,
        -0.0851554274559021,
        -0.8444138169288635,
        -0.02109435200691223,
        -0.006078839302062988,
        -1.0440657138824463,
        -0.10138668119907379,
        2.6253061294555664,
        -0.6446738243103027,
        -1.520582675933838,
        -0.5152520537376404,
        0.8093757033348083,
        0.42212483286857605,
        -0.012445527128875256,
        0.9030216932296753,
        -0.36530762910842896,
        -0.02097255364060402,
        -0.4639463722705841,
        -0.9836628437042236,
        -0.6311370730400085,
        -0.46584588289260864,
        0.1317397803068161,
        -0.43967968225479126,
        -0.9697082042694092,
        -0.12895160913467407,
        -0.2040560245513916,
        -1.901029109954834,
        0.16945503652095795,
        -0.02355494163930416,
        -4.419898509979248,
        -0.7189229130744934,
        -0.7609348297119141,
        -0.32359158992767334,
        -0.07214384526014328,
        -0.02708613872528076,
        0.37110626697540283,
        -0.051860347390174866,
        -0.024687722325325012,
        -0.2941898703575134,
        0.11049731075763702,
        -0.224260613322258,
        3.494778633117676,
        1.6794215440750122,
        3.166689395904541,
        -0.17813235521316528,
        0.020860396325588226,
        0.014024998992681503,
        -0.16976913809776306,
        0.027878044173121452,
        0.1404315084218979,
        0.1310282051563263,
        0.03218087926506996,
        0.14354738593101501,
        -0.08882945030927658,
        0.006862596608698368,
        0.07635355740785599,
        0.15326246619224548,
        0.04303105175495148,
        -0.0013894347939640284,
        -0.45933568477630615,
        0.03993348777294159,
        0.01197791937738657,
        0.08586164563894272,
        -0.0381561815738678,
        0.09217540919780731,
        0.19672784209251404,
        0.06265033781528473,
        0.9027023911476135,
        -0.22093415260314941,
        -0.15682752430438995,
        0.18301452696323395,
        -0.6001040935516357,
        -0.07666273415088654,
        0.3121919333934784,
        -0.5259733200073242,
        0.049282677471637726,
        0.22756411135196686,
        0.8375507593154907,
        0.25183358788490295,
        0.09090365469455719,
        0.9033758640289307,
        -0.08463882654905319,
        0.03985876590013504,
        3.7494797706604004,
        1.4342432022094727,
        -1.725275993347168,
        3.3392326831817627,
        0.2469467967748642,
        -0.12614558637142181,
        4.681976795196533,
        0.07578403502702713,
        0.08718053996562958,
        -0.09561098366975784,
        0.09792989492416382,
        0.12080483138561249,
        1.6842292547225952,
        -0.07608659565448761,
        2.9201860427856445,
        -0.47585347294807434,
        0.26779451966285706,
        -0.08720019459724426,
        -2.958251953125,
        -0.036429114639759064,
        0.11758151650428772,
        -2.9445600509643555,
        -0.6308701634407043,
        -0.45781174302101135,
        -0.7783222794532776,
        0.04804219678044319,
        0.032018013298511505,
        -0.4187157452106476,
        0.15171939134597778,
        -0.12540142238140106,
        0.27278921008110046,
        -0.10104809701442719,
        0.23553429543972015,
        0.9138858318328857,
        0.20662987232208252,
        0.36631956696510315,
        1.300368309020996,
        -0.08102484792470932,
        0.0626959353685379,
        -0.31674978137016296,
        -0.12340818345546722,
        -0.032041408121585846,
        -0.616851270198822,
        -0.04510249197483063,
        0.17525435984134674,
        -0.06991826742887497,
        -0.5267371535301208,
        -0.4614347219467163,
        0.47161054611206055,
        -0.41312798857688904,
        -0.7538644075393677,
        0.13649877905845642,
        0.5249070525169373,
        -0.5583410859107971,
        0.3856576085090637,
        -0.6556976437568665,
        -0.7418525218963623,
        0.8958289623260498,
        -0.05142425745725632,
        -0.4163755774497986,
        0.616324245929718,
        -0.47872447967529297,
        0.4803217947483063,
        1.5511497259140015,
        -0.2851215898990631,
        1.031543493270874,
        3.7089288234710693,
        -0.44291332364082336,
        0.7735804319381714,
        -0.44974076747894287,
        0.08896525204181671,
        -0.07236304879188538,
        -1.138601303100586,
        -0.08365711569786072,
        1.005757212638855,
        -0.4168745279312134,
        0.07166265696287155,
        0.42642900347709656,
        -0.5090726613998413,
        0.09233219176530838,
        0.14962267875671387,
        0.19999323785305023,
        -0.0035921295639127493,
        0.15029814839363098,
        0.8892291188240051,
        -0.04022594168782234,
        0.0849214568734169,
        0.8023145794868469,
        0.14905700087547302,
        0.01781754195690155,
        1.432396650314331,
        -0.13566480576992035,
        0.1825607270002365,
        2.905230760574341,
        0.08765316754579544,
        -0.19632308185100555,
        5.4003825187683105,
        -0.7443079948425293,
        -2.1141183376312256,
        0.5692124962806702,
        -0.057287395000457764,
        -0.007891014218330383,
        0.6622496247291565,
        -0.05301743000745773,
        -1.8914439678192139,
        -0.5361074805259705,
        0.1380770057439804,
        0.8181262016296387,
        -0.09169527888298035,
        -0.7498429417610168,
        0.6322291493415833,
        -1.2791603803634644,
        -0.18992796540260315,
        0.46258509159088135,
        -3.4013640880584717,
        -0.4703061878681183,
        0.5445672273635864,
        -3.3502862453460693,
        -0.2610665261745453,
        0.4793224036693573,
        -2.1564934253692627,
        -0.08017881214618683,
        0.2005368322134018,
        -1.9137777090072632,
        -0.0008103782893158495,
        -0.08597560226917267,
        -0.9198169708251953,
        0.07340104877948761,
        -0.17532411217689514,
        0.06272175163030624,
        -0.13258717954158783,
        -0.042264632880687714,
        0.6693711280822754,
        -0.03621914982795715,
        -3.419464111328125,
        0.3262225389480591,
        -0.22068218886852264,
        1.9578109979629517,
        -0.43218380212783813,
        0.12381424754858017,
        0.04686545953154564,
        0.050407614558935165,
        0.05520033836364746,
        -0.019741453230381012,
        0.08810555934906006,
        -0.04232083633542061,
        -0.05784323066473007,
        0.5985895395278931,
        -0.08189372718334198,
        -0.07565347105264664,
        -0.3887624740600586,
        -0.07118604332208633,
        -0.10055158287286758,
        -1.1945945024490356,
        -0.026428349316120148,
        -0.01914989948272705,
        -0.29884177446365356,
        -0.09105364233255386,
        0.04619980975985527,
        0.03486909717321396,
        0.037600189447402954,
        0.05409713089466095,
        -0.65864098072052,
        0.04997186362743378,
        1.2266079187393188,
        0.1722886711359024,
        -0.012346163392066956,
        -0.13757629692554474,
        -2.330604076385498,
        -1.1700258255004883,
        1.2736060619354248,
        -1.510114073753357,
        -0.038799237459897995,
        -0.005715478677302599,
        -0.9883195757865906,
        0.02334614098072052,
        0.038788601756095886,
        -0.2397851198911667,
        0.010616617277264595,
        0.03764338046312332,
        1.1171454191207886,
        0.19236718118190765,
        -0.14597953855991364,
        0.8696388006210327,
        0.2552807927131653,
        0.006110798101872206,
        -0.3298085033893585,
        0.0633784681558609,
        0.018533246591687202,
        -0.07882364839315414,
        -0.0943351536989212,
        -0.10367722064256668,
        0.0266549214720726,
        0.003410845994949341,
        -0.11989697813987732,
        -0.08570761978626251,
        -0.3356527090072632,
        -0.03125024959445,
        -0.18111775815486908,
        -0.4604997932910919,
        -0.1204495057463646,
        3.77398943901062,
        3.098376750946045,
        -0.018931392580270767,
        0.48722851276397705,
        -0.07596699148416519,
        0.006705200765281916,
        -0.5293257832527161,
        -0.07082168012857437,
        -0.005239368882030249,
        0.218035489320755,
        0.051381368190050125,
        0.09184776991605759,
        -0.6312519311904907,
        0.0661979392170906,
        0.004000246524810791,
        -0.33625590801239014,
        -0.013783743605017662,
        0.018379539251327515,
        0.7781872749328613,
        0.05995464324951172,
        -0.06806783378124237,
        -0.31553709506988525,
        -0.025143340229988098,
        1.0410511493682861,
        -0.05899804085493088,
        0.8786216974258423,
        0.50155109167099,
        -1.6393423080444336,
        -0.5485832691192627,
        -0.45988205075263977,
        -0.5328274369239807,
        0.7383956909179688,
        0.07835693657398224,
        -0.7629803419113159,
        -0.5189902782440186,
        -0.48233458399772644,
        -0.8424391746520996,
        -0.6991490721702576,
        0.3134920001029968,
        -0.9269531965255737,
        -0.8522619605064392,
        1.0391929149627686,
        -1.2960175275802612,
        -1.2078428268432617,
        -0.19450034201145172,
        -0.49857231974601746,
        -0.2413477599620819,
        -0.6850504279136658,
        0.48745569586753845,
        0.042032718658447266,
        0.05982343852519989,
        -0.9197765588760376,
        0.026288539171218872,
        0.6140835881233215,
        -0.11997722834348679,
        0.3462371230125427,
        0.4754970073699951,
        2.875750780105591,
        0.7863510847091675,
        -1.3514162302017212,
        0.28971928358078003,
        -0.012732896022498608,
        0.4868263006210327,
        -0.2903439998626709,
        -0.12081709504127502,
        0.23692388832569122,
        -0.6099685430526733,
        -0.12145697325468063,
        -0.09928752481937408,
        0.27798983454704285,
        0.1875707358121872,
        0.2845905125141144,
        0.9932901263237,
        0.37608426809310913,
        -0.43355974555015564,
        2.189099073410034,
        0.08419343084096909,
        0.1148260310292244,
        -1.860342025756836,
        -0.02838212251663208,
        0.050410374999046326,
        -1.2783772945404053,
        0.12416614592075348,
        -0.19804151356220245,
        -1.2453752756118774,
        -0.7988755106925964,
        0.9502084851264954,
        0.591553270816803,
        1.1691590547561646,
        -0.4714874029159546,
        1.134765625,
        0.21449147164821625,
        -0.03064741939306259,
        1.0445446968078613,
        0.8637872338294983,
        -0.7263851165771484,
        1.1868462562561035,
        0.09059149771928787,
        -0.2218029946088791,
        1.2695574760437012,
        0.31890296936035156,
        -0.21476392447948456,
        1.9568719863891602,
        -0.7268373370170593,
        0.25541263818740845,
        3.1599738597869873,
        0.040111154317855835,
        0.03023434430360794,
        0.18568561971187592,
        -0.04700499027967453,
        -0.032377757132053375,
        0.3283335268497467,
        0.1163448840379715,
        2.881054639816284,
        -0.14067721366882324,
        -0.008068588562309742,
        -0.07094603031873703,
        -0.22321291267871857,
        0.10483856499195099,
        -0.045220449566841125,
        -0.14566460251808167,
        0.006814189255237579,
        -0.014414360746741295,
        0.04104539006948471,
        -0.032737914472818375,
        0.11064695566892624,
        -0.3316681981086731,
        0.020268265157938004,
        -0.0741080641746521,
        -0.763433039188385,
        0.04554753378033638,
        0.055555302649736404,
        -1.47792649269104,
        -0.18200436234474182,
        0.04389992356300354,
        -4.7687578201293945,
        -0.014241179451346397,
        -0.13204023241996765,
        -2.515040636062622,
        0.08917401731014252,
        0.041324764490127563,
        0.1667250394821167,
        -0.02987886220216751,
        0.34370550513267517,
        0.4897073805332184,
        0.08935915678739548,
        -0.2327345758676529,
        -1.2712304592132568,
        -0.1888556182384491,
        -0.35913124680519104,
        -0.49508512020111084,
        -0.5441011786460876,
        -0.012746875174343586,
        -0.42437320947647095,
        -0.05224845930933952,
        -0.12799601256847382,
        -1.3999077081680298,
        -0.2769363820552826,
        -0.3211296796798706,
        -1.5703566074371338,
        -0.38396725058555603,
        -0.010807821527123451,
        -2.2427825927734375,
        -0.24633729457855225,
        0.058752480894327164,
        -6.897224426269531,
        -0.15243643522262573,
        -0.1561693698167801,
        0.2966454029083252,
        -0.045467279851436615,
        0.0998678207397461,
        0.06493476778268814,
        -0.04182646423578262,
        0.4050741195678711,
        -0.5914972424507141,
        0.09295602142810822,
        0.8046930432319641,
        -6.717355251312256,
        0.6580941081047058,
        -1.2844831943511963,
        -8.105504989624023,
        0.5421328544616699,
        -0.30715858936309814,
        -7.8408918380737305,
        0.2135065644979477,
        -0.19717593491077423,
        -5.547872543334961,
        -0.1497279554605484,
        -0.06400347501039505,
        -3.7167716026306152,
        -0.16000790894031525,
        -0.1293192356824875,
        -3.580396890640259,
        -0.06407565623521805,
        0.05601590871810913,
        -5.192384719848633,
        -0.12782733142375946,
        0.15719597041606903,
        0.3496844172477722,
        0.033450350165367126,
        -0.09115400910377502,
        0.598443865776062,
        0.04115884006023407,
        2.809387683868408,
        -1.672486424446106,
        -0.12978386878967285,
        0.4292125403881073,
        -0.07802709192037582,
        -2.097555637359619,
        -0.5642784833908081,
        -1.174397349357605,
        -0.9743183255195618,
        0.2807624340057373,
        -1.423039436340332,
        0.47344470024108887,
        0.2702849805355072,
        -1.171162486076355,
        -1.2178683280944824,
        0.12973621487617493,
        -1.1161881685256958,
        0.2847808301448822,
        0.5169315934181213,
        -1.5445928573608398,
        0.49228352308273315,
        -0.5457381010055542,
        -0.7815427184104919,
        0.3107343912124634,
        -0.05151619389653206,
        0.07981984317302704,
        -0.11791298538446426,
        -0.03258033096790314,
        -0.4153335392475128,
        -0.013753943145275116,
        1.50594162940979,
        0.9235262274742126,
        -1.5765889883041382,
        -3.2735917568206787,
        -0.5826419591903687,
        -0.03740032762289047,
        0.19810721278190613,
        -0.993436872959137,
        0.0928071066737175,
        -0.0635887011885643,
        -0.05626654997467995,
        -0.108639657497406,
        0.04084167256951332,
        -0.6128721833229065,
        0.061368923634290695,
        0.01158960536122322,
        -0.7418541312217712,
        -0.026266321539878845,
        0.06113459914922714,
        -0.736864447593689,
        -0.09318460524082184,
        -0.042492177337408066,
        0.10601769387722015,
        0.03676663711667061,
        -0.12782645225524902,
        -1.0514607429504395,
        0.012481987476348877,
        0.07616852223873138,
        -0.43446996808052063,
        -0.062301188707351685,
        -0.9044715762138367,
        -0.7772825956344604,
        -1.7017072439193726,
        -0.24746084213256836,
        -0.09668851643800735,
        -2.0597872734069824,
        0.22648458182811737,
        0.24175314605236053,
        -0.4519946277141571,
        -0.23714910447597504,
        0.4879099428653717,
        0.6998575329780579,
        0.6647685766220093,
        1.1034809350967407,
        0.16657449305057526,
        -0.16850070655345917,
        0.9297050833702087,
        0.07848559319972992,
        0.6100701093673706,
        1.4375419616699219,
        0.5185521245002747,
        -0.09568242728710175,
        1.8892786502838135,
        -0.387331485748291,
        0.1255328208208084,
        -0.1589471995830536,
        0.04462067782878876,
        -0.08433401584625244,
        0.28334733843803406,
        0.11509720981121063,
        -0.3940644860267639,
        -0.49143868684768677,
        -0.11959969252347946,
        0.2003972977399826,
        -0.7199317216873169,
        0.40254560112953186,
        -0.3341391384601593,
        -0.20935393869876862,
        0.3819272816181183,
        -0.05406399071216583,
        0.34701472520828247,
        -0.37576180696487427,
        -0.478219211101532,
        0.178605318069458,
        -0.22120268642902374,
        -0.15915590524673462,
        1.2606080770492554,
        0.8817360401153564,
        1.5632884502410889,
        1.2390880584716797,
        -0.12032023072242737,
        0.2588512599468231,
        4.673009395599365,
        -0.6259534955024719,
        -0.7763228416442871,
        -0.03729593753814697,
        -0.11339470744132996,
        -0.07325378060340881,
        -0.16379335522651672,
        -0.10162597894668579,
        1.0795143842697144,
        1.4340481758117676,
        1.2761801481246948,
        1.4109125137329102,
        0.3379835784435272,
        -0.23067136108875275,
        0.1283814162015915,
        0.49385082721710205,
        0.019423987716436386,
        -0.6959025859832764,
        0.8868624567985535,
        0.05822920426726341,
        -0.850915789604187,
        0.5282590389251709,
        -0.18679660558700562,
        -0.27292364835739136,
        0.4741098880767822,
        -0.004000496119260788,
        -0.61002117395401,
        0.7025787830352783,
        -0.16026851534843445,
        -0.018401820212602615,
        1.8671951293945312,
        -0.127389058470726,
        -0.18587714433670044,
        -2.6302733421325684,
        0.06804013252258301,
        0.11745287477970123,
        -1.8629461526870728,
        -0.018511615693569183,
        -0.686699628829956,
        -0.6061442494392395,
        -0.055903758853673935,
        -0.6731150150299072,
        -0.5624806880950928,
        0.10971985012292862,
        -0.6899092793464661,
        -0.32667070627212524,
        0.4463622570037842,
        -0.613353431224823,
        -0.18042686581611633,
        0.3947790563106537,
        -0.06587602943181992,
        -0.8532266616821289,
        0.1281467229127884,
        -0.0722813755273819,
        -1.1290326118469238,
        0.2313760668039322,
        -0.234159454703331,
        1.227752447128296,
        0.3109516203403473,
        0.012801054865121841,
        1.126288652420044,
        0.04327261820435524,
        -0.08257054537534714,
        -0.23726105690002441,
        -0.032148562371730804,
        -0.005614876747131348,
        0.02968718111515045,
        0.037612542510032654,
        0.5296160578727722,
        -0.2019459456205368,
        -0.33868128061294556,
        -0.1804615706205368,
        0.5737879872322083,
        -0.12785300612449646,
        -0.19026878476142883,
        1.1133201122283936,
        -0.4708210229873657,
        -0.07449343055486679,
        -0.1741914451122284,
        -0.2351652979850769,
        0.05386112257838249,
        -0.1043023020029068,
        0.1735670566558838,
        -0.16286098957061768,
        -0.472947895526886,
        -0.3417108952999115,
        0.1814269870519638,
        -0.8521157503128052,
        0.019523605704307556,
        -0.1542823761701584,
        -1.884860634803772,
        0.9823541045188904,
        1.5561610460281372,
        -0.8506625294685364,
        0.047633856534957886,
        0.12274940311908722,
        -0.4762839376926422,
        -0.1291474550962448,
        1.640541672706604,
        -3.0250132083892822,
        0.5879422426223755,
        1.5569884777069092,
        -2.0777480602264404,
        0.32588857412338257,
        -0.3954388201236725,
        -0.5740247368812561,
        -0.15833620727062225,
        -0.14078322052955627,
        0.10913947224617004,
        -0.6104739308357239,
        0.008042220026254654,
        0.9230645298957825,
        -0.4514927566051483,
