<?xml version="1.0"?>
<MethodSetup Method="MLP::MLP_N3.pt50_eta0.80_conv2">
  <GeneralInfo>
    <Info name="TMVA Release" value="4.1.0 [262400]"/>
    <Info name="ROOT Release" value="5.28/00 [334848]"/>
    <Info name="Creator" value="jsaxon"/>
    <Info name="Date" value="Wed Feb 15 13:07:20 2012"/>
    <Info name="Host" value="Linux lxbuild148.cern.ch 2.6.18-194.26.1.el5 #1 SMP Wed Nov 10 09:45:46 CET 2010 x86_64 x86_64 x86_64 GNU/Linux"/>
    <Info name="Dir" value="/home/jsaxon/NeuralNetworks/fudge99"/>
    <Info name="Training events" value="10000"/>
    <Info name="TrainingTime" value="326.731"/>
    <Info name="AnalysisType" value="Classification"/>
  </GeneralInfo>
  <Options>
    <Option name="NCycles" modified="Yes">2000</Option>
    <Option name="HiddenLayers" modified="Yes">N+3</Option>
    <Option name="NeuronType" modified="Yes">tanh</Option>
    <Option name="RandomSeed" modified="No">1</Option>
    <Option name="EstimatorType" modified="No">MSE</Option>
    <Option name="NeuronInputType" modified="No">sum</Option>
    <Option name="V" modified="No">False</Option>
    <Option name="VerbosityLevel" modified="No">Default</Option>
    <Option name="VarTransform" modified="Yes">N</Option>
    <Option name="H" modified="No">False</Option>
    <Option name="CreateMVAPdfs" modified="No">False</Option>
    <Option name="IgnoreNegWeightsInTraining" modified="No">False</Option>
    <Option name="TrainingMethod" modified="No">BP</Option>
    <Option name="LearningRate" modified="No">2.000000e-02</Option>
    <Option name="DecayRate" modified="No">1.000000e-02</Option>
    <Option name="TestRate" modified="Yes">5</Option>
    <Option name="EpochMonitoring" modified="No">False</Option>
    <Option name="Sampling" modified="No">1.000000e+00</Option>
    <Option name="SamplingEpoch" modified="No">1.000000e+00</Option>
    <Option name="SamplingImportance" modified="No">1.000000e+00</Option>
    <Option name="SamplingTraining" modified="No">True</Option>
    <Option name="SamplingTesting" modified="No">False</Option>
    <Option name="ResetStep" modified="No">50</Option>
    <Option name="Tau" modified="No">3.000000e+00</Option>
    <Option name="BPMode" modified="No">sequential</Option>
    <Option name="BatchSize" modified="No">-1</Option>
    <Option name="ConvergenceImprove" modified="No">1.000000e-30</Option>
    <Option name="ConvergenceTests" modified="No">-1</Option>
    <Option name="UseRegulator" modified="Yes">False</Option>
    <Option name="UpdateLimit" modified="No">10</Option>
    <Option name="CalculateErrors" modified="No">False</Option>
  </Options>
  <Variables NVar="10">
    <Variable VarIndex="0" Expression="fside" Label="fside" Title="fside" Unit="" Internal="fside" Type="D" Min="0.116434" Max="1.26322"/>
    <Variable VarIndex="1" Expression="w1" Label="w1" Title="w1" Unit="" Internal="w1" Type="D" Min="0.18624" Max="0.814558"/>
    <Variable VarIndex="2" Expression="wtot" Label="wtot" Title="wtot" Unit="" Internal="wtot" Type="D" Min="0.755259" Max="7.60191"/>
    <Variable VarIndex="3" Expression="deltae" Label="deltae" Title="deltae" Unit="" Internal="deltae" Type="D" Min="-2.40065" Max="3896"/>
    <Variable VarIndex="4" Expression="eratio" Label="eratio" Title="eratio" Unit="" Internal="eratio" Type="D" Min="0.00094518" Max="1.00196"/>
    <Variable VarIndex="5" Expression="rphi" Label="rphi" Title="rphi" Unit="" Internal="rphi" Type="D" Min="0.370129" Max="0.987063"/>
    <Variable VarIndex="6" Expression="rhad" Label="rhad" Title="rhad" Unit="" Internal="rhad" Type="D" Min="-0.0147555" Max="0.00999658"/>
    <Variable VarIndex="7" Expression="reta" Label="reta" Title="reta" Unit="" Internal="reta" Type="D" Min="0.912665" Max="1.00961"/>
    <Variable VarIndex="8" Expression="weta2" Label="weta2" Title="weta2" Unit="" Internal="weta2" Type="D" Min="0.00775447" Max="0.0119959"/>
    <Variable VarIndex="9" Expression="f1" Label="f1" Title="f1" Unit="" Internal="f1" Type="D" Min="0.00404794" Max="0.499968"/>
  </Variables>
  <Spectators NSpec="4">
    <Spectator SpecIndex="0" Expression="pt" Label="pt" Title="P_{T} [GeV]" Unit="D" Internal="pt" Type="F" Min="40000.9" Max="49997.9"/>
    <Spectator SpecIndex="1" Expression="etas2" Label="etas2" Title="etas2" Unit="D" Internal="etas2" Type="F" Min="-0.799981" Max="0.799886"/>
    <Spectator SpecIndex="2" Expression="convFlag" Label="convFlag" Title="convFlag" Unit="i" Internal="convFlag" Type="F" Min="2" Max="12"/>
    <Spectator SpecIndex="3" Expression="tight" Label="tight" Title="Tight" Unit="i" Internal="tight" Type="F" Min="0" Max="1"/>
  </Spectators>
  <Transformations NTransformations="1">
    <Transform Name="Normalize" NVariables="10" NTargets="0">
      <Class ClassIndex="0">
        <Variables>
          <Variable VarIndex="0" Min="1.1643368005752563e-01" Max="7.9352229833602905e-01"/>
          <Variable VarIndex="1" Min="4.9830105900764465e-01" Max="8.1455796957015991e-01"/>
          <Variable VarIndex="2" Min="7.5525921583175659e-01" Max="4.8963394165039062e+00"/>
          <Variable VarIndex="3" Min="-2.4006500244140625e+00" Max="1.8745924072265625e+03"/>
          <Variable VarIndex="4" Min="2.1121921017765999e-02" Max="1.0019572973251343e+00"/>
          <Variable VarIndex="5" Min="4.7418209910392761e-01" Max="9.8706257343292236e-01"/>
          <Variable VarIndex="6" Min="-1.2199985794723034e-02" Max="9.8404064774513245e-03"/>
          <Variable VarIndex="7" Min="9.1325819492340088e-01" Max="1.0096067190170288e+00"/>
          <Variable VarIndex="8" Min="8.2999691367149353e-03" Max="1.1966166086494923e-02"/>
          <Variable VarIndex="9" Min="1.3544695451855659e-02" Max="4.9996799230575562e-01"/>
        </Variables>
        <Targets/>
      </Class>
      <Class ClassIndex="1">
        <Variables>
          <Variable VarIndex="0" Min="1.3747584819793701e-01" Max="1.2632224559783936e+00"/>
          <Variable VarIndex="1" Min="1.8623983860015869e-01" Max="8.1026875972747803e-01"/>
          <Variable VarIndex="2" Min="1.4069392681121826e+00" Max="7.6019091606140137e+00"/>
          <Variable VarIndex="3" Min="0.0000000000000000e+00" Max="3.8960000000000000e+03"/>
          <Variable VarIndex="4" Min="9.4517960678786039e-04" Max="1.0000000000000000e+00"/>
          <Variable VarIndex="5" Min="3.7012889981269836e-01" Max="9.7809487581253052e-01"/>
          <Variable VarIndex="6" Min="-1.4755453914403915e-02" Max="9.9965808913111687e-03"/>
          <Variable VarIndex="7" Min="9.1266459226608276e-01" Max="9.9218058586120605e-01"/>
          <Variable VarIndex="8" Min="7.7544748783111572e-03" Max="1.1995875276625156e-02"/>
          <Variable VarIndex="9" Min="4.0479367598891258e-03" Max="4.9636256694793701e-01"/>
        </Variables>
        <Targets/>
      </Class>
      <Class ClassIndex="2">
        <Variables>
          <Variable VarIndex="0" Min="1.1643368005752563e-01" Max="1.2632224559783936e+00"/>
          <Variable VarIndex="1" Min="1.8623983860015869e-01" Max="8.1455796957015991e-01"/>
          <Variable VarIndex="2" Min="7.5525921583175659e-01" Max="7.6019091606140137e+00"/>
          <Variable VarIndex="3" Min="-2.4006500244140625e+00" Max="3.8960000000000000e+03"/>
          <Variable VarIndex="4" Min="9.4517960678786039e-04" Max="1.0019572973251343e+00"/>
          <Variable VarIndex="5" Min="3.7012889981269836e-01" Max="9.8706257343292236e-01"/>
          <Variable VarIndex="6" Min="-1.4755453914403915e-02" Max="9.9965808913111687e-03"/>
          <Variable VarIndex="7" Min="9.1266459226608276e-01" Max="1.0096067190170288e+00"/>
          <Variable VarIndex="8" Min="7.7544748783111572e-03" Max="1.1995875276625156e-02"/>
          <Variable VarIndex="9" Min="4.0479367598891258e-03" Max="4.9996799230575562e-01"/>
        </Variables>
        <Targets/>
      </Class>
    </Transform>
  </Transformations>
  <MVAPdfs/>
  <Weights>
    <Layout NLayers="3">
      <Layer Index="0" NNeurons="11">
        <Neuron NSynapses="13">
          -9.1725286923159377e-01 1.9452409724076234e+00 5.9983887176968931e-01 1.3696300092140534e+00 -2.0032524305481560e+00 -1.2826337221206194e+00 -8.0589319588801001e-01 2.0385659691894640e+00 -1.5484676424640798e+00 -7.3043003912456295e-01 -1.2898549180047740e+00 -5.9215460348623983e-01 -4.1444824315329853e+00 
        </Neuron>
        <Neuron NSynapses="13">
          7.0982278940117313e-02 -7.7292715049405980e-01 8.1048208431021662e-01 -6.7572822618376172e-01 1.8575885845615463e+00 1.4826305086081942e-01 1.3744576257366736e+00 -5.8454615295364853e-01 -6.3855400277378105e-01 7.1672087001197260e-01 1.6627989651204152e-02 -1.0722230641219739e+00 -1.5203448043481762e+00 
        </Neuron>
        <Neuron NSynapses="13">
          1.1407637899087022e+00 -1.1429913069435282e+00 -2.0663598343941807e+00 2.6740456662901868e-01 4.6737692182538215e-01 1.4897025141867850e+00 -3.2762327769902083e-01 9.7089993671028399e-04 4.6630767002310403e-01 -1.1646723186454991e-01 -1.0450762166004506e+00 1.4571751768578192e+00 -8.8014248837389808e-01 
        </Neuron>
        <Neuron NSynapses="13">
          4.1059439597010672e-01 1.1005999463366005e+00 5.8719908334542159e-01 2.2536631329504044e+00 8.4881537176814481e-01 -7.6516606087370209e-01 -1.6036644304590817e+00 1.0203469825841045e+00 4.6595122255419653e-02 1.8144054122860085e+00 1.8455341656395399e+00 1.0767833478722435e+00 1.4331683626057206e+00 
        </Neuron>
        <Neuron NSynapses="13">
          -1.8764122668029222e+00 1.4757467200867234e+00 -1.3179096080324939e+00 -1.0367234887499595e-01 -1.1347596383166301e+00 -1.7217229640984717e+00 1.5211647419316139e+00 1.8541913728745604e-01 -1.8914635586008715e+00 -2.4007144927897728e-01 -1.0201834986448228e+00 1.2990395814535303e+00 2.4390438045644993e+00 
        </Neuron>
        <Neuron NSynapses="13">
          2.4865281419651047e-01 2.3588760002176945e-01 -9.6932973794936617e-01 4.9728076150792021e-02 -2.6936686798600185e-01 -4.8034388795043559e-01 -1.4197164386948737e+00 7.7204582348803563e-01 8.6342072143886450e-02 2.0186215232387172e-01 -7.9022196592551747e-02 -1.9131868904475864e+00 3.2460591045050291e-01 
        </Neuron>
        <Neuron NSynapses="13">
          3.7636535127880444e-01 7.5906163975950536e-01 1.7256922766814398e+00 2.7411459392854293e-01 1.1803614471277533e+00 -2.4436206475545957e-01 -8.9505145649796769e-01 -2.1122413919380062e-01 1.0923585490650101e+00 -1.2737803864867558e+00 -1.3851887066159427e+00 -1.7961175156052767e+00 -6.8256881386070067e-01 
        </Neuron>
        <Neuron NSynapses="13">
          1.0812545297259315e+00 1.3103544032697714e+00 -1.3871156687535353e+00 -5.7620189131382527e-01 8.4597462091268361e-01 -5.5273959244545801e-01 -1.4896797625158473e+00 -1.0201406826394419e+00 8.4411751594816925e-02 -9.5493487520678055e-01 -1.2724650313153214e+00 7.5507783980907128e-01 1.1992414641406877e+00 
        </Neuron>
        <Neuron NSynapses="13">
          -1.1885822038249407e+00 5.5298333392615884e-01 -8.5801299847649870e-01 -6.6669874683447738e-01 6.5846436467852473e-02 3.7641249215396466e-01 -1.8007456613342707e+00 -9.3209007400618368e-02 -5.4101293110119975e-01 7.6599241687152889e-02 -1.0702865553265366e+00 1.7194589203440991e+00 -6.7631161519491356e-01 
        </Neuron>
        <Neuron NSynapses="13">
          -1.2913608144111823e+00 -6.9231254202867090e-02 -6.5120876793285754e-01 -1.2961732242034898e+00 1.3254789040876327e-01 -5.9966050317058273e-01 1.8038180551179144e+00 9.4868113174722921e-02 -4.7356001184895330e-01 -3.4898200151363190e-01 -2.7211196035916729e-01 -1.7328217067295713e+00 2.2153381860743746e+00 
        </Neuron>
        <Neuron NSynapses="13">
          1.4469732782833469e+00 -1.7238018606854240e+00 9.2804423823486426e-01 -2.3597735579558630e+00 3.7177293294695318e-01 1.3062890026668674e+00 1.7694715185284018e+00 -2.1513739116002131e+00 2.5255055793007630e-01 1.2109070823792081e+00 1.2952953947662096e+00 4.4996791430024619e-01 -4.0862533091583089e+00 
        </Neuron>
      </Layer>
      <Layer Index="1" NNeurons="14">
        <Neuron NSynapses="1">
          3.0997343100912728e-01 
        </Neuron>
        <Neuron NSynapses="1">
          -2.6961148964616272e-01 
        </Neuron>
        <Neuron NSynapses="1">
          8.8649827764602611e-03 
        </Neuron>
        <Neuron NSynapses="1">
          9.6625770399695765e-01 
        </Neuron>
        <Neuron NSynapses="1">
          2.6965936656794681e-02 
        </Neuron>
        <Neuron NSynapses="1">
          9.7491003326552056e-03 
        </Neuron>
        <Neuron NSynapses="1">
          2.2261436061495402e-02 
        </Neuron>
        <Neuron NSynapses="1">
          -3.3329823217163024e-01 
        </Neuron>
        <Neuron NSynapses="1">
          -3.0061629862041744e-01 
        </Neuron>
        <Neuron NSynapses="1">
          -1.0398205673348638e-02 
        </Neuron>
        <Neuron NSynapses="1">
          -4.1352427996685759e-02 
        </Neuron>
        <Neuron NSynapses="1">
          -8.0803753177074972e-02 
        </Neuron>
        <Neuron NSynapses="1">
          4.8564712599002502e-01 
        </Neuron>
        <Neuron NSynapses="1">
          7.5568596976908764e-01 
        </Neuron>
      </Layer>
      <Layer Index="2" NNeurons="1">
        <Neuron NSynapses="0"/>
      </Layer>
    </Layout>
  </Weights>
</MethodSetup>
