<?xml version="1.0"?>
<MethodSetup Method="MLP::MLP_N3.pt80_eta2.01_conv2">
  <GeneralInfo>
    <Info name="TMVA Release" value="4.1.0 [262400]"/>
    <Info name="ROOT Release" value="5.28/00 [334848]"/>
    <Info name="Creator" value="jsaxon"/>
    <Info name="Date" value="Wed Feb 15 13:18:26 2012"/>
    <Info name="Host" value="Linux lxbuild148.cern.ch 2.6.18-194.26.1.el5 #1 SMP Wed Nov 10 09:45:46 CET 2010 x86_64 x86_64 x86_64 GNU/Linux"/>
    <Info name="Dir" value="/home/jsaxon/NeuralNetworks/fudge99"/>
    <Info name="Training events" value="10000"/>
    <Info name="TrainingTime" value="332.57"/>
    <Info name="AnalysisType" value="Classification"/>
  </GeneralInfo>
  <Options>
    <Option name="NCycles" modified="Yes">2000</Option>
    <Option name="HiddenLayers" modified="Yes">N+3</Option>
    <Option name="NeuronType" modified="Yes">tanh</Option>
    <Option name="RandomSeed" modified="No">1</Option>
    <Option name="EstimatorType" modified="No">MSE</Option>
    <Option name="NeuronInputType" modified="No">sum</Option>
    <Option name="V" modified="No">False</Option>
    <Option name="VerbosityLevel" modified="No">Default</Option>
    <Option name="VarTransform" modified="Yes">N</Option>
    <Option name="H" modified="No">False</Option>
    <Option name="CreateMVAPdfs" modified="No">False</Option>
    <Option name="IgnoreNegWeightsInTraining" modified="No">False</Option>
    <Option name="TrainingMethod" modified="No">BP</Option>
    <Option name="LearningRate" modified="No">2.000000e-02</Option>
    <Option name="DecayRate" modified="No">1.000000e-02</Option>
    <Option name="TestRate" modified="Yes">5</Option>
    <Option name="EpochMonitoring" modified="No">False</Option>
    <Option name="Sampling" modified="No">1.000000e+00</Option>
    <Option name="SamplingEpoch" modified="No">1.000000e+00</Option>
    <Option name="SamplingImportance" modified="No">1.000000e+00</Option>
    <Option name="SamplingTraining" modified="No">True</Option>
    <Option name="SamplingTesting" modified="No">False</Option>
    <Option name="ResetStep" modified="No">50</Option>
    <Option name="Tau" modified="No">3.000000e+00</Option>
    <Option name="BPMode" modified="No">sequential</Option>
    <Option name="BatchSize" modified="No">-1</Option>
    <Option name="ConvergenceImprove" modified="No">1.000000e-30</Option>
    <Option name="ConvergenceTests" modified="No">-1</Option>
    <Option name="UseRegulator" modified="Yes">False</Option>
    <Option name="UpdateLimit" modified="No">10</Option>
    <Option name="CalculateErrors" modified="No">False</Option>
  </Options>
  <Variables NVar="10">
    <Variable VarIndex="0" Expression="fside" Label="fside" Title="fside" Unit="" Internal="fside" Type="D" Min="0.133261" Max="1.28929"/>
    <Variable VarIndex="1" Expression="w1" Label="w1" Title="w1" Unit="" Internal="w1" Type="D" Min="0.425027" Max="0.812621"/>
    <Variable VarIndex="2" Expression="wtot" Label="wtot" Title="wtot" Unit="" Internal="wtot" Type="D" Min="0.617713" Max="16.9735"/>
    <Variable VarIndex="3" Expression="deltae" Label="deltae" Title="deltae" Unit="" Internal="deltae" Type="D" Min="-2495" Max="24655"/>
    <Variable VarIndex="4" Expression="eratio" Label="eratio" Title="eratio" Unit="" Internal="eratio" Type="D" Min="0.00017314" Max="1.00177"/>
    <Variable VarIndex="5" Expression="rphi" Label="rphi" Title="rphi" Unit="" Internal="rphi" Type="D" Min="0.510944" Max="0.974438"/>
    <Variable VarIndex="6" Expression="rhad" Label="rhad" Title="rhad" Unit="" Internal="rhad" Type="D" Min="-0.0150003" Max="0.0149951"/>
    <Variable VarIndex="7" Expression="reta" Label="reta" Title="reta" Unit="" Internal="reta" Type="D" Min="0.920031" Max="0.980834"/>
    <Variable VarIndex="8" Expression="weta2" Label="weta2" Title="weta2" Unit="" Internal="weta2" Type="D" Min="0.00641695" Max="0.0129969"/>
    <Variable VarIndex="9" Expression="f1" Label="f1" Title="f1" Unit="" Internal="f1" Type="D" Min="0.0129" Max="0.448685"/>
  </Variables>
  <Spectators NSpec="4">
    <Spectator SpecIndex="0" Expression="pt" Label="pt" Title="P_{T} [GeV]" Unit="D" Internal="pt" Type="F" Min="60009.3" Max="79999.8"/>
    <Spectator SpecIndex="1" Expression="etas2" Label="etas2" Title="etas2" Unit="D" Internal="etas2" Type="F" Min="-2.00996" Max="2.00999"/>
    <Spectator SpecIndex="2" Expression="convFlag" Label="convFlag" Title="convFlag" Unit="i" Internal="convFlag" Type="F" Min="2" Max="12"/>
    <Spectator SpecIndex="3" Expression="tight" Label="tight" Title="Tight" Unit="i" Internal="tight" Type="F" Min="0" Max="1"/>
  </Spectators>
  <Transformations NTransformations="1">
    <Transform Name="Normalize" NVariables="10" NTargets="0">
      <Class ClassIndex="0">
        <Variables>
          <Variable VarIndex="0" Min="1.4399108290672302e-01" Max="8.5711079835891724e-01"/>
          <Variable VarIndex="1" Min="4.2502710223197937e-01" Max="8.0988049507141113e-01"/>
          <Variable VarIndex="2" Min="6.1771273612976074e-01" Max="3.2463963031768799e+00"/>
          <Variable VarIndex="3" Min="-6.9856613159179688e+01" Max="1.9847144531250000e+04"/>
          <Variable VarIndex="4" Min="6.1300247907638550e-03" Max="1.0017724037170410e+00"/>
          <Variable VarIndex="5" Min="7.3597526550292969e-01" Max="9.7131252288818359e-01"/>
          <Variable VarIndex="6" Min="-1.5000331215560436e-02" Max="1.4857081696391106e-02"/>
          <Variable VarIndex="7" Min="9.2064291238784790e-01" Max="9.8083406686782837e-01"/>
          <Variable VarIndex="8" Min="9.2140203341841698e-03" Max="1.2864990159869194e-02"/>
          <Variable VarIndex="9" Min="2.0669084042310715e-02" Max="4.0495425462722778e-01"/>
        </Variables>
        <Targets/>
      </Class>
      <Class ClassIndex="1">
        <Variables>
          <Variable VarIndex="0" Min="1.3326063752174377e-01" Max="1.2892937660217285e+00"/>
          <Variable VarIndex="1" Min="4.7918817400932312e-01" Max="8.1262141466140747e-01"/>
          <Variable VarIndex="2" Min="1.3572518825531006e+00" Max="1.6973497390747070e+01"/>
          <Variable VarIndex="3" Min="-2.4950000000000000e+03" Max="2.4655000000000000e+04"/>
          <Variable VarIndex="4" Min="1.7314018623437732e-04" Max="1.0000000000000000e+00"/>
          <Variable VarIndex="5" Min="5.1094436645507812e-01" Max="9.7443795204162598e-01"/>
          <Variable VarIndex="6" Min="-1.3366199098527431e-02" Max="1.4995087869465351e-02"/>
          <Variable VarIndex="7" Min="9.2003095149993896e-01" Max="9.6308785676956177e-01"/>
          <Variable VarIndex="8" Min="6.4169494435191154e-03" Max="1.2996860779821873e-02"/>
          <Variable VarIndex="9" Min="1.2899993918836117e-02" Max="4.4868528842926025e-01"/>
        </Variables>
        <Targets/>
      </Class>
      <Class ClassIndex="2">
        <Variables>
          <Variable VarIndex="0" Min="1.3326063752174377e-01" Max="1.2892937660217285e+00"/>
          <Variable VarIndex="1" Min="4.2502710223197937e-01" Max="8.1262141466140747e-01"/>
          <Variable VarIndex="2" Min="6.1771273612976074e-01" Max="1.6973497390747070e+01"/>
          <Variable VarIndex="3" Min="-2.4950000000000000e+03" Max="2.4655000000000000e+04"/>
          <Variable VarIndex="4" Min="1.7314018623437732e-04" Max="1.0017724037170410e+00"/>
          <Variable VarIndex="5" Min="5.1094436645507812e-01" Max="9.7443795204162598e-01"/>
          <Variable VarIndex="6" Min="-1.5000331215560436e-02" Max="1.4995087869465351e-02"/>
          <Variable VarIndex="7" Min="9.2003095149993896e-01" Max="9.8083406686782837e-01"/>
          <Variable VarIndex="8" Min="6.4169494435191154e-03" Max="1.2996860779821873e-02"/>
          <Variable VarIndex="9" Min="1.2899993918836117e-02" Max="4.4868528842926025e-01"/>
        </Variables>
        <Targets/>
      </Class>
    </Transform>
  </Transformations>
  <MVAPdfs/>
  <Weights>
    <Layout NLayers="3">
      <Layer Index="0" NNeurons="11">
        <Neuron NSynapses="13">
          -7.4061808310347554e-01 1.7620205424432203e+00 6.6500389052857689e-01 1.7553526124435634e+00 -2.1968186061378741e+00 -1.4387486561853069e+00 -3.6825360903147064e-01 1.6610737226297250e+00 -1.5238884854164001e+00 -3.5569286096646391e-01 -1.8596290636627819e+00 -9.1447529277667883e-01 -4.5245430123333819e+00 
        </Neuron>
        <Neuron NSynapses="13">
          -4.1708840112220552e-01 -5.5240226444413520e-01 9.2620462945986548e-01 -4.1972207831732161e-01 1.8251534053394165e+00 1.0249892240374270e+00 1.4633912594862191e+00 -4.9855253099232100e-01 -5.2279409040432689e-01 7.6605319716459619e-01 4.0248732851673413e-01 -1.3083231886787814e+00 -8.0307839001542747e-01 
        </Neuron>
        <Neuron NSynapses="13">
          7.9221407209895101e-01 -7.7980749338536315e-01 -2.2486507912407245e+00 7.1540827348000435e-01 -1.8889837307639501e-01 1.6814504521938551e+00 2.9527310951038560e-01 -3.3199186806005360e-01 2.7336147002287531e-01 -5.3854883733699477e-01 -1.1600088864444769e+00 1.3026468047718451e+00 -1.0445996204342103e+00 
        </Neuron>
        <Neuron NSynapses="13">
          4.7659098539243300e-01 9.7136289145149801e-01 6.0186990068067769e-01 1.9564218237948261e+00 5.0188712895050258e-01 -1.1753591866512354e+00 -1.0281168361995479e+00 6.3826519610598975e-01 4.1653534270614212e-01 1.0627117858118411e+00 1.6835015181059207e+00 1.0807131624056692e+00 3.9636230843337596e+00 
        </Neuron>
        <Neuron NSynapses="13">
          -1.4872275889573441e+00 1.7243937079835556e+00 -1.4266473254605752e+00 -1.7821523926287244e-01 -1.4167036956230126e+00 -1.6368462882920787e+00 1.2326704038922451e+00 4.3640962646999831e-01 -2.0975486962627157e+00 -9.7374300172042649e-01 -1.1891829380848631e+00 1.3657602336833392e+00 2.3143635414072863e+00 
        </Neuron>
        <Neuron NSynapses="13">
          3.0844714941263013e-01 6.1541437517735431e-01 -1.0023983468651776e+00 5.6347075394989524e-02 -3.7536467830269865e-01 -1.1699727255233903e+00 -2.0425199149708342e+00 1.0362229464193440e+00 1.0086169199898090e+00 1.0091928471676092e-02 8.4308817669303093e-01 -1.2775328502108907e+00 1.4344236190442843e+00 
        </Neuron>
        <Neuron NSynapses="13">
          1.1660611267623180e+00 4.2278975713469397e-01 1.4209866281743102e+00 3.9330617200703949e-01 1.1088307577368912e+00 7.6821618449964435e-01 -1.0637652533571968e+00 5.1648313206744872e-02 4.2414627618308032e-01 -7.0970131343704612e-02 -7.1240005544031459e-01 -1.6020211863117657e+00 -1.1766666997658404e+00 
        </Neuron>
        <Neuron NSynapses="13">
          -5.0934777723784641e-01 1.6328245704296178e+00 -2.1188143889690467e+00 -3.1884740518121185e-01 1.0355069934305019e+00 -1.0173596113567749e+00 -1.3048215337432674e+00 -1.4223384781862851e+00 -3.4261419486315350e-02 -5.3487404967710106e-01 -8.9817991463197799e-01 5.1630673112176473e-01 1.7690180833909288e+00 
        </Neuron>
        <Neuron NSynapses="13">
          -8.0855886572147795e-01 2.1468234101220678e+00 -4.3887814176271922e-01 -8.5579576801957358e-01 3.9841989575244305e-02 -6.9991456362003601e-01 -2.0808735381273080e+00 4.8591870566641104e-02 7.3314528569118076e-01 2.1101741960792686e+00 -1.3988412233181926e+00 1.8243133885007312e+00 -7.8797612045341836e-01 
        </Neuron>
        <Neuron NSynapses="13">
          -9.4405891080058080e-01 1.2726262489378457e+00 -5.7835794054112666e-01 -1.4994826512579027e+00 2.7043194044667618e-01 -1.1869194185810295e+00 1.8640147545456669e+00 4.0925734625639776e-01 2.1160549919002414e-01 -1.0130929213714950e+00 -5.9905690620291874e-01 -1.7049382864274543e+00 3.8071558477650513e-01 
        </Neuron>
        <Neuron NSynapses="13">
          1.0540406294522813e+00 -1.8825023679641957e+00 1.0687140447347423e+00 -2.2667966967703723e+00 1.1493513903923867e+00 1.7511152367079335e+00 9.9437745256831722e-01 -1.7038143674136499e+00 9.3012524303116739e-02 2.2468604779823904e+00 1.2442455165269053e+00 7.3193136146146054e-01 -4.0016345748252817e+00 
        </Neuron>
      </Layer>
      <Layer Index="1" NNeurons="14">
        <Neuron NSynapses="1">
          3.1639636682054807e-02 
        </Neuron>
        <Neuron NSynapses="1">
          -2.8351551706715694e-01 
        </Neuron>
        <Neuron NSynapses="1">
          1.5494329751301669e-01 
        </Neuron>
        <Neuron NSynapses="1">
          1.0267140752507824e+00 
        </Neuron>
        <Neuron NSynapses="1">
          1.3014586603796860e-01 
        </Neuron>
        <Neuron NSynapses="1">
          -3.2086883230847563e-01 
        </Neuron>
        <Neuron NSynapses="1">
          5.4752711357680577e-03 
        </Neuron>
        <Neuron NSynapses="1">
          8.8824644310346954e-03 
        </Neuron>
        <Neuron NSynapses="1">
          1.3526518367300474e-02 
        </Neuron>
        <Neuron NSynapses="1">
          6.0100726094253998e-01 
        </Neuron>
        <Neuron NSynapses="1">
          -1.6728089788184464e-01 
        </Neuron>
        <Neuron NSynapses="1">
          9.2676303763937276e-03 
        </Neuron>
        <Neuron NSynapses="1">
          5.2377412343921070e-01 
        </Neuron>
        <Neuron NSynapses="1">
          8.4564704064963025e-01 
        </Neuron>
      </Layer>
      <Layer Index="2" NNeurons="1">
        <Neuron NSynapses="0"/>
      </Layer>
    </Layout>
  </Weights>
</MethodSetup>
