<?xml version="1.0"?>
<MethodSetup Method="MLP::MLP_N3.pt60_eta2.01_conv1">
  <GeneralInfo>
    <Info name="TMVA Release" value="4.1.0 [262400]"/>
    <Info name="ROOT Release" value="5.28/00 [334848]"/>
    <Info name="Creator" value="jsaxon"/>
    <Info name="Date" value="Wed Feb 15 13:13:17 2012"/>
    <Info name="Host" value="Linux lxbuild148.cern.ch 2.6.18-194.26.1.el5 #1 SMP Wed Nov 10 09:45:46 CET 2010 x86_64 x86_64 x86_64 GNU/Linux"/>
    <Info name="Dir" value="/home/jsaxon/NeuralNetworks/fudge99"/>
    <Info name="Training events" value="5642"/>
    <Info name="TrainingTime" value="231.287"/>
    <Info name="AnalysisType" value="Classification"/>
  </GeneralInfo>
  <Options>
    <Option name="NCycles" modified="Yes">2000</Option>
    <Option name="HiddenLayers" modified="Yes">N+3</Option>
    <Option name="NeuronType" modified="Yes">tanh</Option>
    <Option name="RandomSeed" modified="No">1</Option>
    <Option name="EstimatorType" modified="No">MSE</Option>
    <Option name="NeuronInputType" modified="No">sum</Option>
    <Option name="V" modified="No">False</Option>
    <Option name="VerbosityLevel" modified="No">Default</Option>
    <Option name="VarTransform" modified="Yes">N</Option>
    <Option name="H" modified="No">False</Option>
    <Option name="CreateMVAPdfs" modified="No">False</Option>
    <Option name="IgnoreNegWeightsInTraining" modified="No">False</Option>
    <Option name="TrainingMethod" modified="No">BP</Option>
    <Option name="LearningRate" modified="No">2.000000e-02</Option>
    <Option name="DecayRate" modified="No">1.000000e-02</Option>
    <Option name="TestRate" modified="Yes">5</Option>
    <Option name="EpochMonitoring" modified="No">False</Option>
    <Option name="Sampling" modified="No">1.000000e+00</Option>
    <Option name="SamplingEpoch" modified="No">1.000000e+00</Option>
    <Option name="SamplingImportance" modified="No">1.000000e+00</Option>
    <Option name="SamplingTraining" modified="No">True</Option>
    <Option name="SamplingTesting" modified="No">False</Option>
    <Option name="ResetStep" modified="No">50</Option>
    <Option name="Tau" modified="No">3.000000e+00</Option>
    <Option name="BPMode" modified="No">sequential</Option>
    <Option name="BatchSize" modified="No">-1</Option>
    <Option name="ConvergenceImprove" modified="No">1.000000e-30</Option>
    <Option name="ConvergenceTests" modified="No">-1</Option>
    <Option name="UseRegulator" modified="Yes">False</Option>
    <Option name="UpdateLimit" modified="No">10</Option>
    <Option name="CalculateErrors" modified="No">False</Option>
  </Options>
  <Variables NVar="10">
    <Variable VarIndex="0" Expression="fside" Label="fside" Title="fside" Unit="" Internal="fside" Type="D" Min="0" Max="1.48059"/>
    <Variable VarIndex="1" Expression="w1" Label="w1" Title="w1" Unit="" Internal="w1" Type="D" Min="0.248318" Max="0.804349"/>
    <Variable VarIndex="2" Expression="wtot" Label="wtot" Title="wtot" Unit="" Internal="wtot" Type="D" Min="0.161827" Max="8.22153"/>
    <Variable VarIndex="3" Expression="deltae" Label="deltae" Title="deltae" Unit="" Internal="deltae" Type="D" Min="-1328" Max="14394.1"/>
    <Variable VarIndex="4" Expression="eratio" Label="eratio" Title="eratio" Unit="" Internal="eratio" Type="D" Min="0.00103537" Max="1.00184"/>
    <Variable VarIndex="5" Expression="rphi" Label="rphi" Title="rphi" Unit="" Internal="rphi" Type="D" Min="0.472823" Max="0.974982"/>
    <Variable VarIndex="6" Expression="rhad" Label="rhad" Title="rhad" Unit="" Internal="rhad" Type="D" Min="-0.0135175" Max="0.0149903"/>
    <Variable VarIndex="7" Expression="reta" Label="reta" Title="reta" Unit="" Internal="reta" Type="D" Min="0.920016" Max="0.97944"/>
    <Variable VarIndex="8" Expression="weta2" Label="weta2" Title="weta2" Unit="" Internal="weta2" Type="D" Min="0.00683937" Max="0.0129872"/>
    <Variable VarIndex="9" Expression="f1" Label="f1" Title="f1" Unit="" Internal="f1" Type="D" Min="0.00144673" Max="0.443617"/>
  </Variables>
  <Spectators NSpec="4">
    <Spectator SpecIndex="0" Expression="pt" Label="pt" Title="P_{T} [GeV]" Unit="D" Internal="pt" Type="F" Min="50001.3" Max="59997.8"/>
    <Spectator SpecIndex="1" Expression="etas2" Label="etas2" Title="etas2" Unit="D" Internal="etas2" Type="F" Min="-2.00998" Max="2.00999"/>
    <Spectator SpecIndex="2" Expression="convFlag" Label="convFlag" Title="convFlag" Unit="i" Internal="convFlag" Type="F" Min="11" Max="11"/>
    <Spectator SpecIndex="3" Expression="tight" Label="tight" Title="Tight" Unit="i" Internal="tight" Type="F" Min="0" Max="1"/>
  </Spectators>
  <Transformations NTransformations="1">
    <Transform Name="Normalize" NVariables="10" NTargets="0">
      <Class ClassIndex="0">
        <Variables>
          <Variable VarIndex="0" Min="5.6154303252696991e-02" Max="1.2611891031265259e+00"/>
          <Variable VarIndex="1" Min="4.6986180543899536e-01" Max="7.2725170850753784e-01"/>
          <Variable VarIndex="2" Min="1.6182680428028107e-01" Max="4.1755323410034180e+00"/>
          <Variable VarIndex="3" Min="-2.7893007278442383e+01" Max="1.4394106445312500e+04"/>
          <Variable VarIndex="4" Min="5.4331244900822639e-03" Max="1.0018395185470581e+00"/>
          <Variable VarIndex="5" Min="7.8903156518936157e-01" Max="9.7200191020965576e-01"/>
          <Variable VarIndex="6" Min="-1.3517505489289761e-02" Max="1.4827927574515343e-02"/>
          <Variable VarIndex="7" Min="9.2004299163818359e-01" Max="9.7943985462188721e-01"/>
          <Variable VarIndex="8" Min="9.2094037681818008e-03" Max="1.2061683461070061e-02"/>
          <Variable VarIndex="9" Min="4.0614278987050056e-03" Max="3.7971228361129761e-01"/>
        </Variables>
        <Targets/>
      </Class>
      <Class ClassIndex="1">
        <Variables>
          <Variable VarIndex="0" Min="0.0000000000000000e+00" Max="1.4805917739868164e+00"/>
          <Variable VarIndex="1" Min="2.4831810593605042e-01" Max="8.0434942245483398e-01"/>
          <Variable VarIndex="2" Min="7.4632990360260010e-01" Max="8.2215251922607422e+00"/>
          <Variable VarIndex="3" Min="-1.3280000000000000e+03" Max="1.2676000000000000e+04"/>
          <Variable VarIndex="4" Min="1.0353659745305777e-03" Max="1.0000000000000000e+00"/>
          <Variable VarIndex="5" Min="4.7282263636589050e-01" Max="9.7498166561126709e-01"/>
          <Variable VarIndex="6" Min="-9.6446396782994270e-03" Max="1.4990278519690037e-02"/>
          <Variable VarIndex="7" Min="9.2001634836196899e-01" Max="9.6888804435729980e-01"/>
          <Variable VarIndex="8" Min="6.8393652327358723e-03" Max="1.2987152673304081e-02"/>
          <Variable VarIndex="9" Min="1.4467295259237289e-03" Max="4.4361707568168640e-01"/>
        </Variables>
        <Targets/>
      </Class>
      <Class ClassIndex="2">
        <Variables>
          <Variable VarIndex="0" Min="0.0000000000000000e+00" Max="1.4805917739868164e+00"/>
          <Variable VarIndex="1" Min="2.4831810593605042e-01" Max="8.0434942245483398e-01"/>
          <Variable VarIndex="2" Min="1.6182680428028107e-01" Max="8.2215251922607422e+00"/>
          <Variable VarIndex="3" Min="-1.3280000000000000e+03" Max="1.4394106445312500e+04"/>
          <Variable VarIndex="4" Min="1.0353659745305777e-03" Max="1.0018395185470581e+00"/>
          <Variable VarIndex="5" Min="4.7282263636589050e-01" Max="9.7498166561126709e-01"/>
          <Variable VarIndex="6" Min="-1.3517505489289761e-02" Max="1.4990278519690037e-02"/>
          <Variable VarIndex="7" Min="9.2001634836196899e-01" Max="9.7943985462188721e-01"/>
          <Variable VarIndex="8" Min="6.8393652327358723e-03" Max="1.2987152673304081e-02"/>
          <Variable VarIndex="9" Min="1.4467295259237289e-03" Max="4.4361707568168640e-01"/>
        </Variables>
        <Targets/>
      </Class>
    </Transform>
  </Transformations>
  <MVAPdfs/>
  <Weights>
    <Layout NLayers="3">
      <Layer Index="0" NNeurons="11">
        <Neuron NSynapses="13">
          -2.7673717135349379e-01 1.7544754426097011e+00 5.6312783047991943e-01 1.8961027222079583e+00 -2.1255040660037929e+00 -1.2919158541146141e+00 -6.4096664881505216e-01 1.7644433791553280e+00 -1.3778120387405253e+00 -8.4147792532636911e-01 -1.7289374111574609e+00 -9.6867537210390220e-01 -4.1011135890901311e+00 
        </Neuron>
        <Neuron NSynapses="13">
          -3.3061847094907898e-01 -1.6974770094201506e+00 8.0472717712790853e-01 -5.9650729528893320e-01 1.8339633473519377e+00 3.8495036234892205e-01 1.4932234777911189e+00 -7.7719667958211014e-01 -1.9427156750949048e-01 1.3859574900855463e+00 3.0421937204586341e-01 -1.0835106839530380e+00 -1.5954855843131457e+00 
        </Neuron>
        <Neuron NSynapses="13">
          1.4790539459020482e+00 -8.5254023572551463e-01 -2.1015879946503793e+00 3.0774799971332684e-01 3.5018198026845909e-01 1.5817080306773641e+00 -2.7065857976532248e-01 -5.8482878257345015e-02 1.5553576788938089e-01 -1.6289382796236745e-01 -1.0693735776751179e+00 1.2537101877874366e+00 -1.9918063501686403e+00 
        </Neuron>
        <Neuron NSynapses="13">
          1.1463343922344924e+00 6.5966559592404039e-01 5.5529588912808736e-01 1.5817297215695694e+00 6.5910225262837208e-01 -1.2709430323882813e+00 -1.3440542611104920e+00 9.9059035882511548e-01 3.5852633409646523e-01 1.1911867133480099e+00 1.5674175751901609e+00 9.3723534707264533e-01 3.4855846349399657e+00 
        </Neuron>
        <Neuron NSynapses="13">
          -1.7852116198494663e+00 1.3145597851701580e+00 -1.3789914713957481e+00 -4.3297122156521539e-02 -1.0726586201014110e+00 -1.2904009263005243e+00 1.2629089275903835e+00 3.6141762830759633e-01 -2.0047957471844553e+00 -5.7667637503416025e-01 -3.1883471038995637e-01 1.4583248762720380e+00 2.1741696165797166e+00 
        </Neuron>
        <Neuron NSynapses="13">
          -2.7773401558685251e-01 5.5937662794789100e-01 -8.3153022390219622e-01 1.7850360444748620e-01 -6.8389586281094217e-01 -1.7329377117544873e+00 -1.5504689816314234e+00 6.8133816047455498e-01 1.2647276713004494e+00 3.9385240627137846e-01 3.0515644328618330e-01 -1.2202720073306672e+00 2.0702421801610433e+00 
        </Neuron>
        <Neuron NSynapses="13">
          9.9766703169582460e-01 5.1197324962209978e-01 1.9352897110239662e+00 5.3404425786233156e-01 1.1377646492783495e+00 2.3657433334135713e-01 -8.8632996893965654e-01 -9.9593823124573058e-02 1.2967084663797703e+00 -4.3596784060415722e-01 -8.1816850489341542e-01 -1.6490354190775844e+00 -1.0932741735401283e+00 
        </Neuron>
        <Neuron NSynapses="13">
          -3.2394704338421881e-01 1.6816705286032965e+00 -1.6634721564047359e+00 -1.7763098517167192e-01 1.0319129550851360e+00 -7.2731254458142469e-01 -1.6488704973632815e+00 -8.7631887860882762e-01 -6.9923805893661395e-01 -1.8649172526004851e+00 -2.3565488671129398e+00 6.7834599791946582e-01 1.6357111066422461e+00 
        </Neuron>
        <Neuron NSynapses="13">
          -9.4443171063087517e-01 1.7265901161166444e+00 -8.0112012469381266e-01 -7.6940093178204794e-01 -7.9652767316539322e-02 9.5177786028078887e-02 -1.6179625128093302e+00 -2.1391608493596484e-01 1.0705927760107681e+00 9.3708870588183713e-01 -7.9433520848416178e-02 1.9527613245930784e+00 -7.4913054146652935e-01 
        </Neuron>
        <Neuron NSynapses="13">
          -6.4838568712680122e-01 4.2414952273832013e-01 -9.5535810831484136e-01 -1.6997603402320038e+00 1.7736864130922184e-01 -1.9671716164619790e-01 2.1638019206794965e+00 2.6386141484706005e-01 7.1618235985733691e-01 6.2096077747472021e-02 9.0731374166556344e-01 -1.9025664175266273e+00 8.4930009291773223e-01 
        </Neuron>
        <Neuron NSynapses="13">
          1.6865900591769667e-01 -1.3351724863370478e+00 1.0693489546172155e+00 -2.1382044773017501e+00 7.0960651323165869e-01 1.7961528210177620e+00 1.6418082345576286e+00 -2.1561512212059699e+00 3.1206986993032010e-01 2.1124434452309497e+00 1.7284208566975714e+00 9.3687628140729717e-01 -4.3066649017372214e+00 
        </Neuron>
      </Layer>
      <Layer Index="1" NNeurons="14">
        <Neuron NSynapses="1">
          -3.5321004238539559e-02 
        </Neuron>
        <Neuron NSynapses="1">
          -1.5657404143956172e-01 
        </Neuron>
        <Neuron NSynapses="1">
          3.6564173458292930e-02 
        </Neuron>
        <Neuron NSynapses="1">
          9.1004892632988510e-01 
        </Neuron>
        <Neuron NSynapses="1">
          4.3765858127513642e-03 
        </Neuron>
        <Neuron NSynapses="1">
          -4.6520221452065198e-02 
        </Neuron>
        <Neuron NSynapses="1">
          -2.6296079388868073e-02 
        </Neuron>
        <Neuron NSynapses="1">
          -2.3124440118193071e-01 
        </Neuron>
        <Neuron NSynapses="1">
          8.6527554258935990e-02 
        </Neuron>
        <Neuron NSynapses="1">
          8.4249349187962641e-01 
        </Neuron>
        <Neuron NSynapses="1">
          -6.8469102631293055e-01 
        </Neuron>
        <Neuron NSynapses="1">
          3.8844856526806387e-02 
        </Neuron>
        <Neuron NSynapses="1">
          5.8741845140691751e-01 
        </Neuron>
        <Neuron NSynapses="1">
          9.0537641257489021e-01 
        </Neuron>
      </Layer>
      <Layer Index="2" NNeurons="1">
        <Neuron NSynapses="0"/>
      </Layer>
    </Layout>
  </Weights>
</MethodSetup>
