<?xml version="1.0"?>
<MethodSetup Method="MLP::MLP_N3.pt40_eta0.80_conv2">
  <GeneralInfo>
    <Info name="TMVA Release" value="4.1.0 [262400]"/>
    <Info name="ROOT Release" value="5.28/00 [334848]"/>
    <Info name="Creator" value="jsaxon"/>
    <Info name="Date" value="Wed Feb 15 13:11:07 2012"/>
    <Info name="Host" value="Linux lxbuild148.cern.ch 2.6.18-194.26.1.el5 #1 SMP Wed Nov 10 09:45:46 CET 2010 x86_64 x86_64 x86_64 GNU/Linux"/>
    <Info name="Dir" value="/home/jsaxon/NeuralNetworks/fudge99"/>
    <Info name="Training events" value="10000"/>
    <Info name="TrainingTime" value="421.717"/>
    <Info name="AnalysisType" value="Classification"/>
  </GeneralInfo>
  <Options>
    <Option name="NCycles" modified="Yes">2000</Option>
    <Option name="HiddenLayers" modified="Yes">N+3</Option>
    <Option name="NeuronType" modified="Yes">tanh</Option>
    <Option name="RandomSeed" modified="No">1</Option>
    <Option name="EstimatorType" modified="No">MSE</Option>
    <Option name="NeuronInputType" modified="No">sum</Option>
    <Option name="V" modified="No">False</Option>
    <Option name="VerbosityLevel" modified="No">Default</Option>
    <Option name="VarTransform" modified="Yes">N</Option>
    <Option name="H" modified="No">False</Option>
    <Option name="CreateMVAPdfs" modified="No">False</Option>
    <Option name="IgnoreNegWeightsInTraining" modified="No">False</Option>
    <Option name="TrainingMethod" modified="No">BP</Option>
    <Option name="LearningRate" modified="No">2.000000e-02</Option>
    <Option name="DecayRate" modified="No">1.000000e-02</Option>
    <Option name="TestRate" modified="Yes">5</Option>
    <Option name="EpochMonitoring" modified="No">False</Option>
    <Option name="Sampling" modified="No">1.000000e+00</Option>
    <Option name="SamplingEpoch" modified="No">1.000000e+00</Option>
    <Option name="SamplingImportance" modified="No">1.000000e+00</Option>
    <Option name="SamplingTraining" modified="No">True</Option>
    <Option name="SamplingTesting" modified="No">False</Option>
    <Option name="ResetStep" modified="No">50</Option>
    <Option name="Tau" modified="No">3.000000e+00</Option>
    <Option name="BPMode" modified="No">sequential</Option>
    <Option name="BatchSize" modified="No">-1</Option>
    <Option name="ConvergenceImprove" modified="No">1.000000e-30</Option>
    <Option name="ConvergenceTests" modified="No">-1</Option>
    <Option name="UseRegulator" modified="Yes">False</Option>
    <Option name="UpdateLimit" modified="No">10</Option>
    <Option name="CalculateErrors" modified="No">False</Option>
  </Options>
  <Variables NVar="10">
    <Variable VarIndex="0" Expression="fside" Label="fside" Title="fside" Unit="" Internal="fside" Type="D" Min="0.0178571" Max="1.23261"/>
    <Variable VarIndex="1" Expression="w1" Label="w1" Title="w1" Unit="" Internal="w1" Type="D" Min="0.448705" Max="0.812053"/>
    <Variable VarIndex="2" Expression="wtot" Label="wtot" Title="wtot" Unit="" Internal="wtot" Type="D" Min="0.94471" Max="10.2935"/>
    <Variable VarIndex="3" Expression="deltae" Label="deltae" Title="deltae" Unit="" Internal="deltae" Type="D" Min="-1.92826" Max="2318"/>
    <Variable VarIndex="4" Expression="eratio" Label="eratio" Title="eratio" Unit="" Internal="eratio" Type="D" Min="0.00271003" Max="1.00119"/>
    <Variable VarIndex="5" Expression="rphi" Label="rphi" Title="rphi" Unit="" Internal="rphi" Type="D" Min="0.37505" Max="0.98948"/>
    <Variable VarIndex="6" Expression="rhad" Label="rhad" Title="rhad" Unit="" Internal="rhad" Type="D" Min="-0.0217342" Max="0.00998473"/>
    <Variable VarIndex="7" Expression="reta" Label="reta" Title="reta" Unit="" Internal="reta" Type="D" Min="0.912302" Max="1.03285"/>
    <Variable VarIndex="8" Expression="weta2" Label="weta2" Title="weta2" Unit="" Internal="weta2" Type="D" Min="0.00392934" Max="0.0119961"/>
    <Variable VarIndex="9" Expression="f1" Label="f1" Title="f1" Unit="" Internal="f1" Type="D" Min="0.00379243" Max="0.499993"/>
  </Variables>
  <Spectators NSpec="4">
    <Spectator SpecIndex="0" Expression="pt" Label="pt" Title="P_{T} [GeV]" Unit="D" Internal="pt" Type="F" Min="25000.6" Max="39999"/>
    <Spectator SpecIndex="1" Expression="etas2" Label="etas2" Title="etas2" Unit="D" Internal="etas2" Type="F" Min="-0.799978" Max="0.799965"/>
    <Spectator SpecIndex="2" Expression="convFlag" Label="convFlag" Title="convFlag" Unit="i" Internal="convFlag" Type="F" Min="2" Max="12"/>
    <Spectator SpecIndex="3" Expression="tight" Label="tight" Title="Tight" Unit="i" Internal="tight" Type="F" Min="0" Max="1"/>
  </Spectators>
  <Transformations NTransformations="1">
    <Transform Name="Normalize" NVariables="10" NTargets="0">
      <Class ClassIndex="0">
        <Variables>
          <Variable VarIndex="0" Min="1.4330948889255524e-01" Max="7.5174480676651001e-01"/>
          <Variable VarIndex="1" Min="5.2354234457015991e-01" Max="7.7580112218856812e-01"/>
          <Variable VarIndex="2" Min="9.4470995664596558e-01" Max="5.1523036956787109e+00"/>
          <Variable VarIndex="3" Min="-1.9282599687576294e+00" Max="2.3010722656250000e+03"/>
          <Variable VarIndex="4" Min="8.2885928452014923e-02" Max="1.0011872053146362e+00"/>
          <Variable VarIndex="5" Min="4.3529292941093445e-01" Max="9.8947978019714355e-01"/>
          <Variable VarIndex="6" Min="-1.9561754539608955e-02" Max="9.9847298115491867e-03"/>
          <Variable VarIndex="7" Min="9.1285377740859985e-01" Max="1.0328524112701416e+00"/>
          <Variable VarIndex="8" Min="6.5682549029588699e-03" Max="1.1990284547209740e-02"/>
          <Variable VarIndex="9" Min="5.9315767139196396e-02" Max="4.9889218807220459e-01"/>
        </Variables>
        <Targets/>
      </Class>
      <Class ClassIndex="1">
        <Variables>
          <Variable VarIndex="0" Min="1.7857143655419350e-02" Max="1.2326067686080933e+00"/>
          <Variable VarIndex="1" Min="4.4870531558990479e-01" Max="8.1205344200134277e-01"/>
          <Variable VarIndex="2" Min="1.1540596485137939e+00" Max="1.0293533325195312e+01"/>
          <Variable VarIndex="3" Min="0.0000000000000000e+00" Max="2.3180000000000000e+03"/>
          <Variable VarIndex="4" Min="2.7100271545350552e-03" Max="1.0000000000000000e+00"/>
          <Variable VarIndex="5" Min="3.7505024671554565e-01" Max="9.8558390140533447e-01"/>
          <Variable VarIndex="6" Min="-2.1734228357672691e-02" Max="9.9813379347324371e-03"/>
          <Variable VarIndex="7" Min="9.1230249404907227e-01" Max="9.9850308895111084e-01"/>
          <Variable VarIndex="8" Min="3.9293449372053146e-03" Max="1.1996085755527020e-02"/>
          <Variable VarIndex="9" Min="3.7924267817288637e-03" Max="4.9999260902404785e-01"/>
        </Variables>
        <Targets/>
      </Class>
      <Class ClassIndex="2">
        <Variables>
          <Variable VarIndex="0" Min="1.7857143655419350e-02" Max="1.2326067686080933e+00"/>
          <Variable VarIndex="1" Min="4.4870531558990479e-01" Max="8.1205344200134277e-01"/>
          <Variable VarIndex="2" Min="9.4470995664596558e-01" Max="1.0293533325195312e+01"/>
          <Variable VarIndex="3" Min="-1.9282599687576294e+00" Max="2.3180000000000000e+03"/>
          <Variable VarIndex="4" Min="2.7100271545350552e-03" Max="1.0011872053146362e+00"/>
          <Variable VarIndex="5" Min="3.7505024671554565e-01" Max="9.8947978019714355e-01"/>
          <Variable VarIndex="6" Min="-2.1734228357672691e-02" Max="9.9847298115491867e-03"/>
          <Variable VarIndex="7" Min="9.1230249404907227e-01" Max="1.0328524112701416e+00"/>
          <Variable VarIndex="8" Min="3.9293449372053146e-03" Max="1.1996085755527020e-02"/>
          <Variable VarIndex="9" Min="3.7924267817288637e-03" Max="4.9999260902404785e-01"/>
        </Variables>
        <Targets/>
      </Class>
    </Transform>
  </Transformations>
  <MVAPdfs/>
  <Weights>
    <Layout NLayers="3">
      <Layer Index="0" NNeurons="11">
        <Neuron NSynapses="13">
          -4.1178602543836745e-01 2.7949989341867885e+00 5.8792976895983351e-01 1.8410458656299180e+00 -2.2978417309130510e+00 -1.3723873817263184e+00 -8.0422799762289843e-01 1.8536744979822677e+00 -1.8999739565814990e+00 -6.0955542610053537e-01 -7.9592801177997297e-01 -1.0515910465214140e+00 -3.0685734724866860e+00 
        </Neuron>
        <Neuron NSynapses="13">
          -4.4119577507301927e-01 -1.1226542253716381e+00 6.3112192875091222e-01 -5.3925624619990294e-02 1.1943396372430732e+00 1.7546596998148001e-01 1.3535639986138561e+00 -2.4090932502353851e-01 -8.9305228829063388e-01 1.5192738156854182e+00 2.2645443322626022e-01 -1.4802885615380519e+00 -5.4149028890490902e-01 
        </Neuron>
        <Neuron NSynapses="13">
          1.3935772744245851e+00 -9.6304949738026102e-01 -2.0500329390734713e+00 -2.3779574129374673e-01 4.0042768948809548e-01 1.5603223013044054e+00 -2.5126963653429757e-01 -4.9844998195064072e-01 4.0235849822841807e-01 -7.5146875431062465e-01 -9.7688101756523815e-01 1.5112617057225912e+00 -2.0597028811412628e+00 
        </Neuron>
        <Neuron NSynapses="13">
          9.6583249941446481e-01 6.8380114318870056e-01 5.8554989658541401e-01 2.2878277916406411e+00 1.0308988408762216e+00 -8.6591066433566721e-01 -1.4529512961380600e+00 5.9831964448987335e-02 -1.3274692679605946e-01 1.2802541106418919e+00 1.9486075245286469e+00 1.0612665292960886e+00 2.2346874072021010e+00 
        </Neuron>
        <Neuron NSynapses="13">
          -1.6365464097371236e+00 1.6897050121429558e+00 -1.3782225308804823e+00 -1.2757594032851546e-01 -1.5672207331957795e+00 -1.5580577478373432e+00 1.6591391931065558e+00 7.3583263536671528e-01 -1.2659662477824567e+00 -3.3098490811146625e-01 -8.2110239941018870e-01 1.2770226821141670e+00 2.3525088520877695e+00 
        </Neuron>
        <Neuron NSynapses="13">
          -2.9148764116204989e-01 1.2564732637877860e-01 -9.4683973240676078e-01 3.9975085835130925e-01 -2.5859466998197472e-01 3.6352986854700654e-02 -1.5692537828365483e+00 1.1783672666526634e+00 2.0020284157109219e-01 1.9417576042279738e-01 1.0561759175969691e-01 -7.0922847644337206e-01 1.9735274314182996e-01 
        </Neuron>
        <Neuron NSynapses="13">
          1.1035666658820094e+00 1.4298538922149870e+00 1.9176386002996029e+00 1.8644402008825978e-01 9.0052445228749201e-01 -1.5065294298875653e-01 -1.0077040141726905e+00 8.8409030166914926e-02 4.1922856564590000e-01 -1.4401532949664813e+00 -5.8471684599656748e-01 -1.1390482686283072e+00 -1.9292562498747295e-01 
        </Neuron>
        <Neuron NSynapses="13">
          -1.8812360774472806e-01 6.1831950788966816e-01 -1.2551937178032320e+00 -5.7827663007374042e-01 1.4162233152103222e-02 -6.0719001575665128e-02 -1.4067493819660957e+00 -1.1587769581550647e+00 -7.7816025945732092e-01 -9.6595521382190508e-01 -2.1190053213377160e+00 2.3791403018513035e-01 2.0769046589510038e+00 
        </Neuron>
        <Neuron NSynapses="13">
          -1.0286246098087333e+00 1.2422342724505684e+00 -5.3731235428064839e-01 -3.0480450978123880e-01 -4.4131501554852216e-02 3.4759740330186673e-01 -1.8231145895238439e+00 2.5160351301399780e-01 7.9072368507299129e-01 2.8042394707623802e-01 3.7237192557839438e-01 1.7863985790387755e+00 -5.4987040761422845e-01 
        </Neuron>
        <Neuron NSynapses="13">
          -9.0086516625335133e-01 -5.0946582218686887e-01 -1.0647839452421686e+00 -1.0509092562095887e+00 -3.9657811040754215e-01 -8.0182049196805583e-01 1.7919592982654273e+00 2.5603914895643043e-01 -1.2594886359464299e-03 1.2563059159932552e-01 1.4237473078944656e+00 -1.6972246972160605e+00 2.0098554217942750e+00 
        </Neuron>
        <Neuron NSynapses="13">
          3.6054430575535623e-01 -1.3438719813909830e+00 9.3619037833542407e-01 -2.0738402724761551e+00 9.1986105859679967e-01 1.5135460528150619e+00 1.6012820582396083e+00 -1.4576340805193602e+00 2.4012970194643568e-01 1.8553019873064405e+00 1.1708163911572274e+00 4.8952021475079993e-01 -3.2007732180450628e+00 
        </Neuron>
      </Layer>
      <Layer Index="1" NNeurons="14">
        <Neuron NSynapses="1">
          5.8856753479833560e-02 
        </Neuron>
        <Neuron NSynapses="1">
          -2.3611757597001878e-01 
        </Neuron>
        <Neuron NSynapses="1">
          1.0177216088028426e-01 
        </Neuron>
        <Neuron NSynapses="1">
          7.4978936977689759e-01 
        </Neuron>
        <Neuron NSynapses="1">
          -2.5553699674527003e-01 
        </Neuron>
        <Neuron NSynapses="1">
          -1.5438376526668529e-01 
        </Neuron>
        <Neuron NSynapses="1">
          2.9394477031977166e-02 
        </Neuron>
        <Neuron NSynapses="1">
          -7.0408730892310761e-03 
        </Neuron>
        <Neuron NSynapses="1">
          3.4675179464373085e-01 
        </Neuron>
        <Neuron NSynapses="1">
          4.2013614675620797e-01 
        </Neuron>
        <Neuron NSynapses="1">
          -4.4959647589943114e-01 
        </Neuron>
        <Neuron NSynapses="1">
          -1.2673682408712197e-01 
        </Neuron>
        <Neuron NSynapses="1">
          3.8490159362336701e-01 
        </Neuron>
        <Neuron NSynapses="1">
          8.4910307745346925e-01 
        </Neuron>
      </Layer>
      <Layer Index="2" NNeurons="1">
        <Neuron NSynapses="0"/>
      </Layer>
    </Layout>
  </Weights>
</MethodSetup>
