<?xml version="1.0"?>
<MethodSetup Method="MLP::MLP_N3.pt40_eta0.80_conv0">
  <GeneralInfo>
    <Info name="TMVA Release" value="4.1.0 [262400]"/>
    <Info name="ROOT Release" value="5.28/00 [334848]"/>
    <Info name="Creator" value="jsaxon"/>
    <Info name="Date" value="Wed Feb 15 13:06:09 2012"/>
    <Info name="Host" value="Linux lxbuild148.cern.ch 2.6.18-194.26.1.el5 #1 SMP Wed Nov 10 09:45:46 CET 2010 x86_64 x86_64 x86_64 GNU/Linux"/>
    <Info name="Dir" value="/home/jsaxon/NeuralNetworks/fudge99"/>
    <Info name="Training events" value="10000"/>
    <Info name="TrainingTime" value="317.243"/>
    <Info name="AnalysisType" value="Classification"/>
  </GeneralInfo>
  <Options>
    <Option name="NCycles" modified="Yes">2000</Option>
    <Option name="HiddenLayers" modified="Yes">N+3</Option>
    <Option name="NeuronType" modified="Yes">tanh</Option>
    <Option name="RandomSeed" modified="No">1</Option>
    <Option name="EstimatorType" modified="No">MSE</Option>
    <Option name="NeuronInputType" modified="No">sum</Option>
    <Option name="V" modified="No">False</Option>
    <Option name="VerbosityLevel" modified="No">Default</Option>
    <Option name="VarTransform" modified="Yes">N</Option>
    <Option name="H" modified="No">False</Option>
    <Option name="CreateMVAPdfs" modified="No">False</Option>
    <Option name="IgnoreNegWeightsInTraining" modified="No">False</Option>
    <Option name="TrainingMethod" modified="No">BP</Option>
    <Option name="LearningRate" modified="No">2.000000e-02</Option>
    <Option name="DecayRate" modified="No">1.000000e-02</Option>
    <Option name="TestRate" modified="Yes">5</Option>
    <Option name="EpochMonitoring" modified="No">False</Option>
    <Option name="Sampling" modified="No">1.000000e+00</Option>
    <Option name="SamplingEpoch" modified="No">1.000000e+00</Option>
    <Option name="SamplingImportance" modified="No">1.000000e+00</Option>
    <Option name="SamplingTraining" modified="No">True</Option>
    <Option name="SamplingTesting" modified="No">False</Option>
    <Option name="ResetStep" modified="No">50</Option>
    <Option name="Tau" modified="No">3.000000e+00</Option>
    <Option name="BPMode" modified="No">sequential</Option>
    <Option name="BatchSize" modified="No">-1</Option>
    <Option name="ConvergenceImprove" modified="No">1.000000e-30</Option>
    <Option name="ConvergenceTests" modified="No">-1</Option>
    <Option name="UseRegulator" modified="Yes">False</Option>
    <Option name="UpdateLimit" modified="No">10</Option>
    <Option name="CalculateErrors" modified="No">False</Option>
  </Options>
  <Variables NVar="10">
    <Variable VarIndex="0" Expression="fside" Label="fside" Title="fside" Unit="" Internal="fside" Type="D" Min="-0.27716" Max="1.38576"/>
    <Variable VarIndex="1" Expression="w1" Label="w1" Title="w1" Unit="" Internal="w1" Type="D" Min="0.187467" Max="0.810763"/>
    <Variable VarIndex="2" Expression="wtot" Label="wtot" Title="wtot" Unit="" Internal="wtot" Type="D" Min="0.15214" Max="9.6342"/>
    <Variable VarIndex="3" Expression="deltae" Label="deltae" Title="deltae" Unit="" Internal="deltae" Type="D" Min="-1.64257" Max="2988.97"/>
    <Variable VarIndex="4" Expression="eratio" Label="eratio" Title="eratio" Unit="" Internal="eratio" Type="D" Min="0" Max="1.00128"/>
    <Variable VarIndex="5" Expression="rphi" Label="rphi" Title="rphi" Unit="" Internal="rphi" Type="D" Min="0.339215" Max="0.997336"/>
    <Variable VarIndex="6" Expression="rhad" Label="rhad" Title="rhad" Unit="" Internal="rhad" Type="D" Min="-0.0299" Max="0.00997535"/>
    <Variable VarIndex="7" Expression="reta" Label="reta" Title="reta" Unit="" Internal="reta" Type="D" Min="0.912004" Max="1.0064"/>
    <Variable VarIndex="8" Expression="weta2" Label="weta2" Title="weta2" Unit="" Internal="weta2" Type="D" Min="0.00676055" Max="0.0119949"/>
    <Variable VarIndex="9" Expression="f1" Label="f1" Title="f1" Unit="" Internal="f1" Type="D" Min="0.0027126" Max="0.499252"/>
  </Variables>
  <Spectators NSpec="4">
    <Spectator SpecIndex="0" Expression="pt" Label="pt" Title="P_{T} [GeV]" Unit="D" Internal="pt" Type="F" Min="25000.1" Max="39999.7"/>
    <Spectator SpecIndex="1" Expression="etas2" Label="etas2" Title="etas2" Unit="D" Internal="etas2" Type="F" Min="-0.799927" Max="0.799954"/>
    <Spectator SpecIndex="2" Expression="convFlag" Label="convFlag" Title="convFlag" Unit="i" Internal="convFlag" Type="F" Min="0" Max="10"/>
    <Spectator SpecIndex="3" Expression="tight" Label="tight" Title="Tight" Unit="i" Internal="tight" Type="F" Min="0" Max="1"/>
  </Spectators>
  <Transformations NTransformations="1">
    <Transform Name="Normalize" NVariables="10" NTargets="0">
      <Class ClassIndex="0">
        <Variables>
          <Variable VarIndex="0" Min="-2.7715957164764404e-01" Max="1.3857574462890625e+00"/>
          <Variable VarIndex="1" Min="1.8746697902679443e-01" Max="8.0231034755706787e-01"/>
          <Variable VarIndex="2" Min="1.5214017033576965e-01" Max="6.2060508728027344e+00"/>
          <Variable VarIndex="3" Min="-1.6425700187683105e+00" Max="6.1735253906250000e+02"/>
          <Variable VarIndex="4" Min="1.5000733546912670e-02" Max="1.0012776851654053e+00"/>
          <Variable VarIndex="5" Min="7.1371710300445557e-01" Max="9.9485343694686890e-01"/>
          <Variable VarIndex="6" Min="-2.1804520860314369e-02" Max="9.9141895771026611e-03"/>
          <Variable VarIndex="7" Min="9.1233110427856445e-01" Max="1.0064021348953247e+00"/>
          <Variable VarIndex="8" Min="7.9563651233911514e-03" Max="1.1984354816377163e-02"/>
          <Variable VarIndex="9" Min="3.3198266755789518e-03" Max="4.9925234913825989e-01"/>
        </Variables>
        <Targets/>
      </Class>
      <Class ClassIndex="1">
        <Variables>
          <Variable VarIndex="0" Min="0.0000000000000000e+00" Max="1.3032960891723633e+00"/>
          <Variable VarIndex="1" Min="2.7030983567237854e-01" Max="8.1076294183731079e-01"/>
          <Variable VarIndex="2" Min="4.3360224366188049e-01" Max="9.6342048645019531e+00"/>
          <Variable VarIndex="3" Min="0.0000000000000000e+00" Max="2.9889670410156250e+03"/>
          <Variable VarIndex="4" Min="0.0000000000000000e+00" Max="1.0000000000000000e+00"/>
          <Variable VarIndex="5" Min="3.3921509981155396e-01" Max="9.9733626842498779e-01"/>
          <Variable VarIndex="6" Min="-2.9900010675191879e-02" Max="9.9753513932228088e-03"/>
          <Variable VarIndex="7" Min="9.1200441122055054e-01" Max="9.9716567993164062e-01"/>
          <Variable VarIndex="8" Min="6.7605478689074516e-03" Max="1.1994918808341026e-02"/>
          <Variable VarIndex="9" Min="2.7126045897603035e-03" Max="4.9889886379241943e-01"/>
        </Variables>
        <Targets/>
      </Class>
      <Class ClassIndex="2">
        <Variables>
          <Variable VarIndex="0" Min="-2.7715957164764404e-01" Max="1.3857574462890625e+00"/>
          <Variable VarIndex="1" Min="1.8746697902679443e-01" Max="8.1076294183731079e-01"/>
          <Variable VarIndex="2" Min="1.5214017033576965e-01" Max="9.6342048645019531e+00"/>
          <Variable VarIndex="3" Min="-1.6425700187683105e+00" Max="2.9889670410156250e+03"/>
          <Variable VarIndex="4" Min="0.0000000000000000e+00" Max="1.0012776851654053e+00"/>
          <Variable VarIndex="5" Min="3.3921509981155396e-01" Max="9.9733626842498779e-01"/>
          <Variable VarIndex="6" Min="-2.9900010675191879e-02" Max="9.9753513932228088e-03"/>
          <Variable VarIndex="7" Min="9.1200441122055054e-01" Max="1.0064021348953247e+00"/>
          <Variable VarIndex="8" Min="6.7605478689074516e-03" Max="1.1994918808341026e-02"/>
          <Variable VarIndex="9" Min="2.7126045897603035e-03" Max="4.9925234913825989e-01"/>
        </Variables>
        <Targets/>
      </Class>
    </Transform>
  </Transformations>
  <MVAPdfs/>
  <Weights>
    <Layout NLayers="3">
      <Layer Index="0" NNeurons="11">
        <Neuron NSynapses="13">
          -4.5365322422399235e-01 1.6086554753234246e+00 1.0582312516076082e+00 1.6267249117944966e+00 -2.6392441391883152e+00 8.7283910030732670e-01 -7.5631792202243109e-01 1.8354811490501552e+00 -1.4806857826218967e+00 -1.1419547672306560e+00 2.0691202742649101e-01 -3.9618757583802422e-01 -2.4548495573822673e+00 
        </Neuron>
        <Neuron NSynapses="13">
          5.0190279302144751e-02 -2.4561309159726696e+00 1.3808455328940947e+00 -9.1110457845234982e-01 1.1972994656263920e+00 1.5960138729447435e+00 1.1148538393628649e+00 -6.8871931007109355e-01 -2.4878163600467837e-01 1.2043014643348984e+00 8.0658956122465231e-01 -1.1683418396923944e+00 -1.1811364003328910e+00 
        </Neuron>
        <Neuron NSynapses="13">
          1.0554725502637345e+00 -1.4812691516607983e+00 -1.9697335337937718e+00 -5.9000667695366452e-03 2.7951918799471587e-01 1.3709168406738295e+00 -7.7375884494862740e-02 9.7136822993836330e-02 2.9840837911963247e-01 -4.2902324706712493e-02 -7.7531798440253563e-01 1.7820909071608444e+00 -1.0186537666258577e+00 
        </Neuron>
        <Neuron NSynapses="13">
          2.7253473718737481e-01 1.3946078407849742e+00 2.7611455575696076e-01 1.9045290393240828e+00 1.3109928168431255e+00 -9.9627896879627942e-01 -1.2599053534907307e+00 1.0407945651731481e+00 8.4923450798427683e-02 1.3640740164259963e+00 2.1693167108125997e+00 1.5881673703932795e+00 1.3490803981497113e+00 
        </Neuron>
        <Neuron NSynapses="13">
          -1.3184590023281813e+00 1.8478212347590015e+00 -1.1609942764801706e+00 -1.0865993973467293e-01 -1.8626634956110519e+00 -2.3477407068115714e+00 1.6866796129671375e+00 4.1864110797647475e-01 -2.3258257556898854e+00 -8.5423950363712897e-01 3.9000472606773300e-02 7.1949457866595679e-01 3.0171165545150540e+00 
        </Neuron>
        <Neuron NSynapses="13">
          2.2970678009772383e-01 7.6421671446986217e-01 -8.9719119121365587e-01 -1.5822384435777687e-01 -5.3146168235722457e-01 -4.8674460564719757e+00 -1.8744086078399771e+00 6.7734078742080206e-01 1.5018090075623260e+00 6.2128742714396801e-01 -3.0328299952564353e-01 -1.8437277582468456e+00 8.1304581771908480e-01 
        </Neuron>
        <Neuron NSynapses="13">
          1.4273510096248232e+00 -2.1186654383930278e-01 1.7109726306908482e+00 2.6298058210192410e-01 1.9530346741491798e+00 1.1114900673631727e+00 -1.1760664922277992e+00 -3.9056346822798216e-01 6.2489000797082050e-01 -9.8971686759554478e-01 4.4908593347641856e-01 -1.7532893642408025e+00 5.4463571184149642e-02 
        </Neuron>
        <Neuron NSynapses="13">
          -2.8452895775885756e-01 1.4193329008236262e+00 -1.2291440942351171e+00 -1.0556539936020670e+00 1.1524413774961505e-01 -1.6821261716362883e+00 -1.4039698528809870e+00 -7.8052083586261556e-01 -9.4386770918652607e-02 -1.3064581338601935e+00 -1.4889023919114373e+00 7.3016505804967236e-01 9.0959535987963491e-01 
        </Neuron>
        <Neuron NSynapses="13">
          -8.2071371021194717e-01 -6.5021784299789265e-01 -1.1158374275805356e-01 -8.8458945858370408e-01 9.2562291793400475e-02 6.0351660601805490e-01 -1.9766202766042094e+00 -2.9127270605633249e-01 3.5189486488486588e-01 7.0210619749086267e-01 3.0204816614526880e-01 1.8145034391807071e+00 -2.4648263123627978e-01 
        </Neuron>
        <Neuron NSynapses="13">
          -5.9388427088768170e-01 8.6375002075647123e-01 -1.4254439818486964e-01 -1.7596346732705275e+00 -3.1516547173740400e-01 -4.9798557735855548e-01 1.7226782881299383e+00 -1.6898871460165313e-01 5.5609584767443510e-01 -7.5751522969831708e-01 6.9683697692409552e-01 -1.7925050793281871e+00 1.8846926641152579e+00 
        </Neuron>
        <Neuron NSynapses="13">
          1.1101400144976867e+00 -8.8222182253408266e-01 8.6172964229743432e-01 -2.2504307829889072e+00 1.0638981240038266e+00 5.5620079080851443e+00 1.1896441369852584e+00 -2.2727888553622453e+00 -8.8123624922984575e-02 1.3311845976118251e+00 2.8339080834936610e+00 1.0253977954289095e-01 -3.8642487077247445e+00 
        </Neuron>
      </Layer>
      <Layer Index="1" NNeurons="14">
        <Neuron NSynapses="1">
          9.5582716554207345e-02 
        </Neuron>
        <Neuron NSynapses="1">
          -5.6978337152109293e-01 
        </Neuron>
        <Neuron NSynapses="1">
          3.2697590262200571e-01 
        </Neuron>
        <Neuron NSynapses="1">
          8.9797667580559970e-01 
        </Neuron>
        <Neuron NSynapses="1">
          -2.1618767555684112e-01 
        </Neuron>
        <Neuron NSynapses="1">
          -6.0995791024157231e-01 
        </Neuron>
        <Neuron NSynapses="1">
          -6.5140684405053488e-03 
        </Neuron>
        <Neuron NSynapses="1">
          -7.0793579410630536e-01 
        </Neuron>
        <Neuron NSynapses="1">
          6.9505638126040589e-02 
        </Neuron>
        <Neuron NSynapses="1">
          -2.6620745040147432e-02 
        </Neuron>
        <Neuron NSynapses="1">
          -5.6672412789343529e-01 
        </Neuron>
        <Neuron NSynapses="1">
          9.0576808694536950e-02 
        </Neuron>
        <Neuron NSynapses="1">
          4.4211618580023915e-01 
        </Neuron>
        <Neuron NSynapses="1">
          1.0767166654451368e+00 
        </Neuron>
      </Layer>
      <Layer Index="2" NNeurons="1">
        <Neuron NSynapses="0"/>
      </Layer>
    </Layout>
  </Weights>
</MethodSetup>
