<?xml version="1.0"?>
<MethodSetup Method="MLP::MLP_N3.pt60_eta1.15_conv0">
  <GeneralInfo>
    <Info name="TMVA Release" value="4.1.0 [262400]"/>
    <Info name="ROOT Release" value="5.28/00 [334848]"/>
    <Info name="Creator" value="jsaxon"/>
    <Info name="Date" value="Wed Feb 15 13:13:02 2012"/>
    <Info name="Host" value="Linux lxbuild148.cern.ch 2.6.18-194.26.1.el5 #1 SMP Wed Nov 10 09:45:46 CET 2010 x86_64 x86_64 x86_64 GNU/Linux"/>
    <Info name="Dir" value="/home/jsaxon/NeuralNetworks/fudge99"/>
    <Info name="Training events" value="10000"/>
    <Info name="TrainingTime" value="421.366"/>
    <Info name="AnalysisType" value="Classification"/>
  </GeneralInfo>
  <Options>
    <Option name="NCycles" modified="Yes">2000</Option>
    <Option name="HiddenLayers" modified="Yes">N+3</Option>
    <Option name="NeuronType" modified="Yes">tanh</Option>
    <Option name="RandomSeed" modified="No">1</Option>
    <Option name="EstimatorType" modified="No">MSE</Option>
    <Option name="NeuronInputType" modified="No">sum</Option>
    <Option name="V" modified="No">False</Option>
    <Option name="VerbosityLevel" modified="No">Default</Option>
    <Option name="VarTransform" modified="Yes">N</Option>
    <Option name="H" modified="No">False</Option>
    <Option name="CreateMVAPdfs" modified="No">False</Option>
    <Option name="IgnoreNegWeightsInTraining" modified="No">False</Option>
    <Option name="TrainingMethod" modified="No">BP</Option>
    <Option name="LearningRate" modified="No">2.000000e-02</Option>
    <Option name="DecayRate" modified="No">1.000000e-02</Option>
    <Option name="TestRate" modified="Yes">5</Option>
    <Option name="EpochMonitoring" modified="No">False</Option>
    <Option name="Sampling" modified="No">1.000000e+00</Option>
    <Option name="SamplingEpoch" modified="No">1.000000e+00</Option>
    <Option name="SamplingImportance" modified="No">1.000000e+00</Option>
    <Option name="SamplingTraining" modified="No">True</Option>
    <Option name="SamplingTesting" modified="No">False</Option>
    <Option name="ResetStep" modified="No">50</Option>
    <Option name="Tau" modified="No">3.000000e+00</Option>
    <Option name="BPMode" modified="No">sequential</Option>
    <Option name="BatchSize" modified="No">-1</Option>
    <Option name="ConvergenceImprove" modified="No">1.000000e-30</Option>
    <Option name="ConvergenceTests" modified="No">-1</Option>
    <Option name="UseRegulator" modified="Yes">False</Option>
    <Option name="UpdateLimit" modified="No">10</Option>
    <Option name="CalculateErrors" modified="No">False</Option>
  </Options>
  <Variables NVar="10">
    <Variable VarIndex="0" Expression="fside" Label="fside" Title="fside" Unit="" Internal="fside" Type="D" Min="0" Max="1.60829"/>
    <Variable VarIndex="1" Expression="w1" Label="w1" Title="w1" Unit="" Internal="w1" Type="D" Min="0.37591" Max="0.819049"/>
    <Variable VarIndex="2" Expression="wtot" Label="wtot" Title="wtot" Unit="" Internal="wtot" Type="D" Min="0.832503" Max="12.2426"/>
    <Variable VarIndex="3" Expression="deltae" Label="deltae" Title="deltae" Unit="" Internal="deltae" Type="D" Min="-2.1998" Max="3080"/>
    <Variable VarIndex="4" Expression="eratio" Label="eratio" Title="eratio" Unit="" Internal="eratio" Type="D" Min="0" Max="1.00184"/>
    <Variable VarIndex="5" Expression="rphi" Label="rphi" Title="rphi" Unit="" Internal="rphi" Type="D" Min="0.50657" Max="0.987167"/>
    <Variable VarIndex="6" Expression="rhad" Label="rhad" Title="rhad" Unit="" Internal="rhad" Type="D" Min="-0.0143437" Max="0.00996796"/>
    <Variable VarIndex="7" Expression="reta" Label="reta" Title="reta" Unit="" Internal="reta" Type="D" Min="0.925024" Max="0.985063"/>
    <Variable VarIndex="8" Expression="weta2" Label="weta2" Title="weta2" Unit="" Internal="weta2" Type="D" Min="0.0071403" Max="0.0129576"/>
    <Variable VarIndex="9" Expression="f1" Label="f1" Title="f1" Unit="" Internal="f1" Type="D" Min="0.00405093" Max="0.429811"/>
  </Variables>
  <Spectators NSpec="4">
    <Spectator SpecIndex="0" Expression="pt" Label="pt" Title="P_{T} [GeV]" Unit="D" Internal="pt" Type="F" Min="50000.3" Max="59998.4"/>
    <Spectator SpecIndex="1" Expression="etas2" Label="etas2" Title="etas2" Unit="D" Internal="etas2" Type="F" Min="-1.15" Max="1.14996"/>
    <Spectator SpecIndex="2" Expression="convFlag" Label="convFlag" Title="convFlag" Unit="i" Internal="convFlag" Type="F" Min="0" Max="10"/>
    <Spectator SpecIndex="3" Expression="tight" Label="tight" Title="Tight" Unit="i" Internal="tight" Type="F" Min="0" Max="1"/>
  </Spectators>
  <Transformations NTransformations="1">
    <Transform Name="Normalize" NVariables="10" NTargets="0">
      <Class ClassIndex="0">
        <Variables>
          <Variable VarIndex="0" Min="1.8290599808096886e-02" Max="1.6082919836044312e+00"/>
          <Variable VarIndex="1" Min="3.7590992450714111e-01" Max="8.1904870271682739e-01"/>
          <Variable VarIndex="2" Min="8.3250337839126587e-01" Max="1.2226278305053711e+01"/>
          <Variable VarIndex="3" Min="-2.1998000144958496e+00" Max="9.3979150390625000e+02"/>
          <Variable VarIndex="4" Min="1.8448166083544493e-03" Max="1.0018370151519775e+00"/>
          <Variable VarIndex="5" Min="8.9213687181472778e-01" Max="9.8501521348953247e-01"/>
          <Variable VarIndex="6" Min="-1.0227841325104237e-02" Max="9.9383015185594559e-03"/>
          <Variable VarIndex="7" Min="9.2506343126296997e-01" Max="9.8506313562393188e-01"/>
          <Variable VarIndex="8" Min="8.3052664995193481e-03" Max="1.1634772643446922e-02"/>
          <Variable VarIndex="9" Min="4.0509267710149288e-03" Max="4.2981138825416565e-01"/>
        </Variables>
        <Targets/>
      </Class>
      <Class ClassIndex="1">
        <Variables>
          <Variable VarIndex="0" Min="0.0000000000000000e+00" Max="1.4175347089767456e+00"/>
          <Variable VarIndex="1" Min="4.5995920896530151e-01" Max="8.1113654375076294e-01"/>
          <Variable VarIndex="2" Min="8.8207072019577026e-01" Max="1.2242609977722168e+01"/>
          <Variable VarIndex="3" Min="0.0000000000000000e+00" Max="3.0800000000000000e+03"/>
          <Variable VarIndex="4" Min="0.0000000000000000e+00" Max="1.0000000000000000e+00"/>
          <Variable VarIndex="5" Min="5.0657010078430176e-01" Max="9.8716729879379272e-01"/>
          <Variable VarIndex="6" Min="-1.4343746006488800e-02" Max="9.9679613485932350e-03"/>
          <Variable VarIndex="7" Min="9.2502403259277344e-01" Max="9.8009264469146729e-01"/>
          <Variable VarIndex="8" Min="7.1403025649487972e-03" Max="1.2957586906850338e-02"/>
          <Variable VarIndex="9" Min="4.7375638969242573e-03" Max="3.7618863582611084e-01"/>
        </Variables>
        <Targets/>
      </Class>
      <Class ClassIndex="2">
        <Variables>
          <Variable VarIndex="0" Min="0.0000000000000000e+00" Max="1.6082919836044312e+00"/>
          <Variable VarIndex="1" Min="3.7590992450714111e-01" Max="8.1904870271682739e-01"/>
          <Variable VarIndex="2" Min="8.3250337839126587e-01" Max="1.2242609977722168e+01"/>
          <Variable VarIndex="3" Min="-2.1998000144958496e+00" Max="3.0800000000000000e+03"/>
          <Variable VarIndex="4" Min="0.0000000000000000e+00" Max="1.0018370151519775e+00"/>
          <Variable VarIndex="5" Min="5.0657010078430176e-01" Max="9.8716729879379272e-01"/>
          <Variable VarIndex="6" Min="-1.4343746006488800e-02" Max="9.9679613485932350e-03"/>
          <Variable VarIndex="7" Min="9.2502403259277344e-01" Max="9.8506313562393188e-01"/>
          <Variable VarIndex="8" Min="7.1403025649487972e-03" Max="1.2957586906850338e-02"/>
          <Variable VarIndex="9" Min="4.0509267710149288e-03" Max="4.2981138825416565e-01"/>
        </Variables>
        <Targets/>
      </Class>
    </Transform>
  </Transformations>
  <MVAPdfs/>
  <Weights>
    <Layout NLayers="3">
      <Layer Index="0" NNeurons="11">
        <Neuron NSynapses="13">
          -6.7527255168962153e-01 2.0636911341775259e+00 8.4310674540281483e-01 1.8874273571497744e+00 -2.5387510992535387e+00 1.3756065556636488e+00 -5.9722931410223468e-01 1.8514538847714479e+00 -1.8173615027339654e+00 -7.2677595062892641e-01 -2.8391023830884038e-01 -5.6311229983059641e-01 -2.3959819679437628e+00 
        </Neuron>
        <Neuron NSynapses="13">
          -1.2108358234030496e-01 -2.0961151045177968e+00 6.1869741793596444e-01 -6.3305162036956375e-01 1.6618703491080196e+00 1.2841905295861438e+00 1.4032675952897513e+00 -8.2614386659937533e-01 -3.0716055544705873e-01 2.2152034978695250e+00 1.7221222819425183e-01 -1.1347844835764458e+00 -1.0582208520140914e+00 
        </Neuron>
        <Neuron NSynapses="13">
          9.3162099196201897e-01 -1.6533401314547698e+00 -2.1122607186414384e+00 3.7880741155801695e-01 1.7445623642220834e-01 -6.3928542115985587e-01 -9.2757676165019010e-02 3.8967266774285726e-02 4.6787259777429840e-01 -3.0356436495655764e-01 -3.2212820313094576e-01 1.5487514480596911e+00 -4.3325424434608401e-01 
        </Neuron>
        <Neuron NSynapses="13">
          4.4259026526039758e-01 1.0836184152337094e+00 4.9097492345643118e-01 2.0559100872836154e+00 1.0850548618105351e+00 -4.9994727268598177e-01 -1.3714620709091745e+00 9.4315361395994846e-01 2.2287246070692984e-01 7.0111999213873855e-01 2.2928800573348398e+00 1.3412174069934948e+00 1.3384953281595218e+00 
        </Neuron>
        <Neuron NSynapses="13">
          -1.1412053962881676e+00 1.9910658258551308e+00 -1.3531747728515102e+00 -8.7880364781067949e-02 -1.9981999013410592e+00 -1.4112350254352384e+00 1.3831443183870795e+00 6.4820501631686933e-01 -2.3573181003039885e+00 -1.1132036295385201e+00 6.5767156698861963e-03 8.5076530327881839e-01 2.8822408298494770e+00 
        </Neuron>
        <Neuron NSynapses="13">
          3.1644296526844740e-01 4.2916612517468605e-01 -1.1529185410108216e+00 -2.1714817899216449e-02 -5.1005470482443205e-01 -5.4276256442710293e+00 -1.7321354911416420e+00 7.5576475959186273e-01 1.5245770436486512e+00 -5.8631753889601512e-02 -2.9926140471587520e-01 -1.8328292189539332e+00 -3.2489095820360989e-03 
        </Neuron>
        <Neuron NSynapses="13">
          1.1220692761369970e+00 -1.4733155060515738e-02 1.3635117040343447e+00 3.9277972157754742e-01 1.0918544939021635e+00 4.1014321988370167e-01 -1.0277826067739126e+00 -2.5303504290926815e-01 5.2475403442653246e-01 -2.5473020040829270e-01 2.0940391958366103e-01 -1.6236619550931466e+00 2.2415777780643628e-01 
        </Neuron>
        <Neuron NSynapses="13">
          -4.1731969109449768e-01 4.6175182194852354e-01 -1.0442867465360317e+00 -3.3659867341151134e-01 3.5181156862644025e-01 -1.3219804640471389e+00 -1.4375752258036198e+00 -8.5758640992892354e-01 2.2486813778692538e-01 -1.4526461537903139e+00 -6.7866196626201047e-01 6.6482953130874534e-01 1.3500204544284118e+00 
        </Neuron>
        <Neuron NSynapses="13">
          -1.0557699923660822e+00 -8.0117200318047324e-02 -8.0799280277800067e-01 -7.1740471143997642e-01 -1.0756703975885433e-01 1.4194524443904579e+00 -1.8500935439892654e+00 -1.0774002311556607e-01 2.1388460886504446e-01 1.1399216258169318e+00 -1.7611951025576381e-01 1.8788893930996824e+00 -5.1694493449653961e-02 
        </Neuron>
        <Neuron NSynapses="13">
          -9.2016457293613485e-01 3.6184731052339159e-01 -8.0006719268200421e-01 -1.1938990695817209e+00 -3.2883786127684184e-01 -1.5520768721862670e+00 1.8753603898596114e+00 8.5896055653161940e-02 9.9706355617277898e-01 -1.1257666488970151e+00 1.2868507578734749e+00 -1.8719695886412562e+00 1.9290044892040459e+00 
        </Neuron>
        <Neuron NSynapses="13">
          8.2102567788465053e-01 -9.4628099345686378e-01 7.0778970326082502e-01 -2.3607344517545998e+00 8.1676482780281112e-01 5.3686743833934907e+00 1.3775625298329435e+00 -2.2754897448576501e+00 -3.6499805818897633e-02 1.5765571223983581e+00 3.6970759971179823e+00 4.5848737562692460e-01 -2.9056235374028749e+00 
        </Neuron>
      </Layer>
      <Layer Index="1" NNeurons="14">
        <Neuron NSynapses="1">
          -4.5922585613706414e-02 
        </Neuron>
        <Neuron NSynapses="1">
          -2.1533494696375979e-01 
        </Neuron>
        <Neuron NSynapses="1">
          1.9123845344620199e-01 
        </Neuron>
        <Neuron NSynapses="1">
          7.9527816294561005e-01 
        </Neuron>
        <Neuron NSynapses="1">
          -1.8597653147573937e-01 
        </Neuron>
        <Neuron NSynapses="1">
          -5.8041139594958135e-01 
        </Neuron>
        <Neuron NSynapses="1">
          -3.4218976568549443e-03 
        </Neuron>
        <Neuron NSynapses="1">
          -8.5059761050266258e-01 
        </Neuron>
        <Neuron NSynapses="1">
          1.1266201300323513e-01 
        </Neuron>
        <Neuron NSynapses="1">
          3.3308258338518615e-01 
        </Neuron>
        <Neuron NSynapses="1">
          -7.8077399771751466e-01 
        </Neuron>
        <Neuron NSynapses="1">
          2.6449945123487112e-02 
        </Neuron>
        <Neuron NSynapses="1">
          2.6691270837827363e-01 
        </Neuron>
        <Neuron NSynapses="1">
          9.5908726536395139e-01 
        </Neuron>
      </Layer>
      <Layer Index="2" NNeurons="1">
        <Neuron NSynapses="0"/>
      </Layer>
    </Layout>
  </Weights>
</MethodSetup>
