<?xml version="1.0"?>
<MethodSetup Method="MLP::MLP_N3.pt25_eta0.80_conv1">
  <GeneralInfo>
    <Info name="TMVA Release" value="4.1.0 [262400]"/>
    <Info name="ROOT Release" value="5.28/00 [334848]"/>
    <Info name="Creator" value="jsaxon"/>
    <Info name="Date" value="Wed Feb 15 13:06:44 2012"/>
    <Info name="Host" value="Linux lxbuild148.cern.ch 2.6.18-194.26.1.el5 #1 SMP Wed Nov 10 09:45:46 CET 2010 x86_64 x86_64 x86_64 GNU/Linux"/>
    <Info name="Dir" value="/home/jsaxon/NeuralNetworks/fudge99"/>
    <Info name="Training events" value="8844"/>
    <Info name="TrainingTime" value="320.136"/>
    <Info name="AnalysisType" value="Classification"/>
  </GeneralInfo>
  <Options>
    <Option name="NCycles" modified="Yes">2000</Option>
    <Option name="HiddenLayers" modified="Yes">N+3</Option>
    <Option name="NeuronType" modified="Yes">tanh</Option>
    <Option name="RandomSeed" modified="No">1</Option>
    <Option name="EstimatorType" modified="No">MSE</Option>
    <Option name="NeuronInputType" modified="No">sum</Option>
    <Option name="V" modified="No">False</Option>
    <Option name="VerbosityLevel" modified="No">Default</Option>
    <Option name="VarTransform" modified="Yes">N</Option>
    <Option name="H" modified="No">False</Option>
    <Option name="CreateMVAPdfs" modified="No">False</Option>
    <Option name="IgnoreNegWeightsInTraining" modified="No">False</Option>
    <Option name="TrainingMethod" modified="No">BP</Option>
    <Option name="LearningRate" modified="No">2.000000e-02</Option>
    <Option name="DecayRate" modified="No">1.000000e-02</Option>
    <Option name="TestRate" modified="Yes">5</Option>
    <Option name="EpochMonitoring" modified="No">False</Option>
    <Option name="Sampling" modified="No">1.000000e+00</Option>
    <Option name="SamplingEpoch" modified="No">1.000000e+00</Option>
    <Option name="SamplingImportance" modified="No">1.000000e+00</Option>
    <Option name="SamplingTraining" modified="No">True</Option>
    <Option name="SamplingTesting" modified="No">False</Option>
    <Option name="ResetStep" modified="No">50</Option>
    <Option name="Tau" modified="No">3.000000e+00</Option>
    <Option name="BPMode" modified="No">sequential</Option>
    <Option name="BatchSize" modified="No">-1</Option>
    <Option name="ConvergenceImprove" modified="No">1.000000e-30</Option>
    <Option name="ConvergenceTests" modified="No">-1</Option>
    <Option name="UseRegulator" modified="Yes">False</Option>
    <Option name="UpdateLimit" modified="No">10</Option>
    <Option name="CalculateErrors" modified="No">False</Option>
  </Options>
  <Variables NVar="10">
    <Variable VarIndex="0" Expression="fside" Label="fside" Title="fside" Unit="" Internal="fside" Type="D" Min="0" Max="1.2878"/>
    <Variable VarIndex="1" Expression="w1" Label="w1" Title="w1" Unit="" Internal="w1" Type="D" Min="0.155307" Max="0.808663"/>
    <Variable VarIndex="2" Expression="wtot" Label="wtot" Title="wtot" Unit="" Internal="wtot" Type="D" Min="0.237695" Max="6.87469"/>
    <Variable VarIndex="3" Expression="deltae" Label="deltae" Title="deltae" Unit="" Internal="deltae" Type="D" Min="-1.59845" Max="1886"/>
    <Variable VarIndex="4" Expression="eratio" Label="eratio" Title="eratio" Unit="" Internal="eratio" Type="D" Min="0.000719424" Max="1.00214"/>
    <Variable VarIndex="5" Expression="rphi" Label="rphi" Title="rphi" Unit="" Internal="rphi" Type="D" Min="0.404279" Max="1.0098"/>
    <Variable VarIndex="6" Expression="rhad" Label="rhad" Title="rhad" Unit="" Internal="rhad" Type="D" Min="-0.0465249" Max="0.00995284"/>
    <Variable VarIndex="7" Expression="reta" Label="reta" Title="reta" Unit="" Internal="reta" Type="D" Min="0.912164" Max="1.05814"/>
    <Variable VarIndex="8" Expression="weta2" Label="weta2" Title="weta2" Unit="" Internal="weta2" Type="D" Min="0.00616694" Max="0.0119966"/>
    <Variable VarIndex="9" Expression="f1" Label="f1" Title="f1" Unit="" Internal="f1" Type="D" Min="0.00327361" Max="0.499832"/>
  </Variables>
  <Spectators NSpec="4">
    <Spectator SpecIndex="0" Expression="pt" Label="pt" Title="P_{T} [GeV]" Unit="D" Internal="pt" Type="F" Min="20000.5" Max="24999.7"/>
    <Spectator SpecIndex="1" Expression="etas2" Label="etas2" Title="etas2" Unit="D" Internal="etas2" Type="F" Min="-0.799991" Max="0.799973"/>
    <Spectator SpecIndex="2" Expression="convFlag" Label="convFlag" Title="convFlag" Unit="i" Internal="convFlag" Type="F" Min="11" Max="11"/>
    <Spectator SpecIndex="3" Expression="tight" Label="tight" Title="Tight" Unit="i" Internal="tight" Type="F" Min="0" Max="1"/>
  </Spectators>
  <Transformations NTransformations="1">
    <Transform Name="Normalize" NVariables="10" NTargets="0">
      <Class ClassIndex="0">
        <Variables>
          <Variable VarIndex="0" Min="8.8504999876022339e-03" Max="6.9134092330932617e-01"/>
          <Variable VarIndex="1" Min="2.9186859726905823e-01" Max="8.0712026357650757e-01"/>
          <Variable VarIndex="2" Min="2.3769532144069672e-01" Max="4.6369547843933105e+00"/>
          <Variable VarIndex="3" Min="-1.5984499454498291e+00" Max="8.7341168212890625e+02"/>
          <Variable VarIndex="4" Min="1.5817111358046532e-02" Max="1.0021350383758545e+00"/>
          <Variable VarIndex="5" Min="4.4366258382797241e-01" Max="1.0097984075546265e+00"/>
          <Variable VarIndex="6" Min="-2.3209320381283760e-02" Max="9.8176999017596245e-03"/>
          <Variable VarIndex="7" Min="9.1216433048248291e-01" Max="1.0581381320953369e+00"/>
          <Variable VarIndex="8" Min="7.1981530636548996e-03" Max="1.1996638961136341e-02"/>
          <Variable VarIndex="9" Min="5.2493712864816189e-03" Max="4.9983170628547668e-01"/>
        </Variables>
        <Targets/>
      </Class>
      <Class ClassIndex="1">
        <Variables>
          <Variable VarIndex="0" Min="0.0000000000000000e+00" Max="1.2878048419952393e+00"/>
          <Variable VarIndex="1" Min="1.5530696511268616e-01" Max="8.0866318941116333e-01"/>
          <Variable VarIndex="2" Min="2.6990309357643127e-01" Max="6.8746886253356934e+00"/>
          <Variable VarIndex="3" Min="0.0000000000000000e+00" Max="1.8860000000000000e+03"/>
          <Variable VarIndex="4" Min="7.1942445356398821e-04" Max="1.0000000000000000e+00"/>
          <Variable VarIndex="5" Min="4.0427860617637634e-01" Max="9.9167907238006592e-01"/>
          <Variable VarIndex="6" Min="-4.6524856239557266e-02" Max="9.9528394639492035e-03"/>
          <Variable VarIndex="7" Min="9.1232478618621826e-01" Max="9.9956619739532471e-01"/>
          <Variable VarIndex="8" Min="6.1669419519603252e-03" Max="1.1996270157396793e-02"/>
          <Variable VarIndex="9" Min="3.2736149150878191e-03" Max="4.9954238533973694e-01"/>
        </Variables>
        <Targets/>
      </Class>
      <Class ClassIndex="2">
        <Variables>
          <Variable VarIndex="0" Min="0.0000000000000000e+00" Max="1.2878048419952393e+00"/>
          <Variable VarIndex="1" Min="1.5530696511268616e-01" Max="8.0866318941116333e-01"/>
          <Variable VarIndex="2" Min="2.3769532144069672e-01" Max="6.8746886253356934e+00"/>
          <Variable VarIndex="3" Min="-1.5984499454498291e+00" Max="1.8860000000000000e+03"/>
          <Variable VarIndex="4" Min="7.1942445356398821e-04" Max="1.0021350383758545e+00"/>
          <Variable VarIndex="5" Min="4.0427860617637634e-01" Max="1.0097984075546265e+00"/>
          <Variable VarIndex="6" Min="-4.6524856239557266e-02" Max="9.9528394639492035e-03"/>
          <Variable VarIndex="7" Min="9.1216433048248291e-01" Max="1.0581381320953369e+00"/>
          <Variable VarIndex="8" Min="6.1669419519603252e-03" Max="1.1996638961136341e-02"/>
          <Variable VarIndex="9" Min="3.2736149150878191e-03" Max="4.9983170628547668e-01"/>
        </Variables>
        <Targets/>
      </Class>
    </Transform>
  </Transformations>
  <MVAPdfs/>
  <Weights>
    <Layout NLayers="3">
      <Layer Index="0" NNeurons="11">
        <Neuron NSynapses="13">
          -6.1469528244448279e-01 2.7246345519140207e+00 6.3367362495334179e-01 1.8429384223604466e+00 -2.7125819649872973e+00 5.5374905639641581e-01 -7.5524719563972309e-01 1.7485324670610694e+00 -2.7261325442280042e+00 -7.2129624530357983e-01 -1.6491061906367824e-01 -8.0079046646231455e-01 -1.1679934956374713e+00 
        </Neuron>
        <Neuron NSynapses="13">
          -1.2142881152788863e-01 -9.8607697696847774e-01 7.5220399955265316e-01 -7.1724605176601341e-01 6.7029927250865795e-01 3.9252712078647350e-01 1.3102641330386962e+00 -5.9345841720482839e-01 -7.0300343592646120e-01 7.1071312836430223e-01 2.6910418794517421e-01 -9.5621680481619742e-01 -5.7711601220886044e-01 
        </Neuron>
        <Neuron NSynapses="13">
          1.2456150429787074e+00 -3.8877755238963069e-01 -1.8670703264524007e+00 1.1346646578549292e-01 3.9634894227978062e-01 1.7812003928704385e+00 -3.1148971650184037e-01 -2.2975051633967686e-01 1.8738736920695398e-01 -4.2416778578784231e-02 -5.6673157661473006e-01 1.3772622918473996e+00 -1.4251995671831645e+00 
        </Neuron>
        <Neuron NSynapses="13">
          4.9274240540698488e-01 4.6267674544434878e-01 7.7056169500875593e-01 1.9667549307861427e+00 1.6539862790359772e+00 -2.9731530540995915e-01 -1.5189008174561369e+00 5.7905015551106676e-01 -2.1744886006168862e-01 1.7113209596202634e+00 1.8244653572567859e+00 9.2552813006174184e-01 1.1787270800332861e+00 
        </Neuron>
        <Neuron NSynapses="13">
          -1.2421014364975218e+00 2.0883506338154332e+00 -1.5687736431894346e+00 -3.4443133252697639e-01 -2.0570295101303842e+00 -1.2033579481061398e+00 1.5875141863247377e+00 1.0171826702380795e+00 -2.1508276496262733e+00 -7.0046906083722182e-01 -1.1787505220137742e+00 1.3649650693840543e+00 1.9603889274357080e+00 
        </Neuron>
        <Neuron NSynapses="13">
          -1.1599893391062364e-01 3.5204872278908539e-01 -9.5630572103603950e-01 6.7233585663939568e-02 -7.7281278359539685e-01 -4.5149523975179445e-01 -1.5307873406248456e+00 8.3554866463963040e-01 4.0452495024976204e-01 3.7406794388063441e-01 -2.6717096037853982e-01 -1.5991084410325014e+00 -8.1512570600830891e-01 
        </Neuron>
        <Neuron NSynapses="13">
          1.4593135374409947e+00 9.5227896054112371e-01 1.7939472657281854e+00 9.2494875200119897e-02 1.5529541760082974e+00 -8.1830469976214543e-02 -1.0112516975933525e+00 -2.3406607267092275e-01 6.0490186388986555e-01 -1.2575731858054731e+00 -7.2795589399150196e-01 -1.5195478029711524e+00 -3.2799557107685157e-01 
        </Neuron>
        <Neuron NSynapses="13">
          -4.5379965410072803e-01 1.0597319138409724e+00 -1.3593405559168010e+00 -4.4303664580476365e-01 -3.3498537396264266e-01 -2.5240733249367961e+00 -1.4543738896118590e+00 -1.5635819579626918e-02 -6.1886481903265511e-01 -1.3880575795251777e+00 -3.8419831712117234e+00 4.5873438676610762e-01 -1.1917859370501562e+00 
        </Neuron>
        <Neuron NSynapses="13">
          -4.7139798255832799e-01 4.0849846207136428e-02 -7.4765126458676379e-01 -8.7353356845331376e-01 7.2308416624144700e-01 1.3171635280596088e+00 -1.8516246492879214e+00 -4.3360853128330368e-01 3.9801828335345169e-01 8.9632910419027850e-02 -7.7242714330799966e-01 2.0751984223480164e+00 -3.8566771620941313e-03 
        </Neuron>
        <Neuron NSynapses="13">
          -4.9133076202125819e-01 7.7094196643208335e-01 -6.5479866979917301e-01 -1.3104756389046701e+00 -1.0566126657554666e+00 -7.8233180349056741e-01 1.7896786780313187e+00 4.1790091193865825e-01 -7.7939160780714982e-04 -3.5416383667561602e-01 9.9967863939363688e-02 -1.7656032860454447e+00 1.9342760320009755e+00 
        </Neuron>
        <Neuron NSynapses="13">
          9.1811190662899655e-01 -8.0919320307713583e-01 6.4001082063395487e-01 -2.2084290440718424e+00 8.2994291095978878e-01 1.3441588007158169e+00 1.5815618336720161e+00 -1.9239824147649431e+00 3.8335677469333801e-01 1.3960501152798246e+00 1.8393890987000852e+00 7.0092644449164210e-01 -2.9831590276702600e+00 
        </Neuron>
      </Layer>
      <Layer Index="1" NNeurons="14">
        <Neuron NSynapses="1">
          6.5777676951243993e-02 
        </Neuron>
        <Neuron NSynapses="1">
          -2.1776212918511645e-01 
        </Neuron>
        <Neuron NSynapses="1">
          8.1992585345381147e-02 
        </Neuron>
        <Neuron NSynapses="1">
          8.3984789160229201e-01 
        </Neuron>
        <Neuron NSynapses="1">
          -3.8644762077719363e-01 
        </Neuron>
        <Neuron NSynapses="1">
          -2.6089874683030462e-01 
        </Neuron>
        <Neuron NSynapses="1">
          -1.4358124150669000e-02 
        </Neuron>
        <Neuron NSynapses="1">
          -3.3251587627250995e-01 
        </Neuron>
        <Neuron NSynapses="1">
          3.0883315406945822e-01 
        </Neuron>
        <Neuron NSynapses="1">
          1.4161061911779790e-01 
        </Neuron>
        <Neuron NSynapses="1">
          -3.0664588959108408e-01 
        </Neuron>
        <Neuron NSynapses="1">
          -3.7515117654207224e-02 
        </Neuron>
        <Neuron NSynapses="1">
          3.8449377088814612e-01 
        </Neuron>
        <Neuron NSynapses="1">
          1.0351472730474722e+00 
        </Neuron>
      </Layer>
      <Layer Index="2" NNeurons="1">
        <Neuron NSynapses="0"/>
      </Layer>
    </Layout>
  </Weights>
</MethodSetup>
