<?xml version="1.0"?>
<MethodSetup Method="MLP::MLP_N3.pt1000_eta1.37_conv0">
  <GeneralInfo>
    <Info name="TMVA Release" value="4.1.0 [262400]"/>
    <Info name="ROOT Release" value="5.28/00 [334848]"/>
    <Info name="Creator" value="jsaxon"/>
    <Info name="Date" value="Wed Feb 15 13:19:10 2012"/>
    <Info name="Host" value="Linux lxbuild148.cern.ch 2.6.18-194.26.1.el5 #1 SMP Wed Nov 10 09:45:46 CET 2010 x86_64 x86_64 x86_64 GNU/Linux"/>
    <Info name="Dir" value="/home/jsaxon/NeuralNetworks/fudge99"/>
    <Info name="Training events" value="10000"/>
    <Info name="TrainingTime" value="486.832"/>
    <Info name="AnalysisType" value="Classification"/>
  </GeneralInfo>
  <Options>
    <Option name="NCycles" modified="Yes">2000</Option>
    <Option name="HiddenLayers" modified="Yes">N+3</Option>
    <Option name="NeuronType" modified="Yes">tanh</Option>
    <Option name="RandomSeed" modified="No">1</Option>
    <Option name="EstimatorType" modified="No">MSE</Option>
    <Option name="NeuronInputType" modified="No">sum</Option>
    <Option name="V" modified="No">False</Option>
    <Option name="VerbosityLevel" modified="No">Default</Option>
    <Option name="VarTransform" modified="Yes">N</Option>
    <Option name="H" modified="No">False</Option>
    <Option name="CreateMVAPdfs" modified="No">False</Option>
    <Option name="IgnoreNegWeightsInTraining" modified="No">False</Option>
    <Option name="TrainingMethod" modified="No">BP</Option>
    <Option name="LearningRate" modified="No">2.000000e-02</Option>
    <Option name="DecayRate" modified="No">1.000000e-02</Option>
    <Option name="TestRate" modified="Yes">5</Option>
    <Option name="EpochMonitoring" modified="No">False</Option>
    <Option name="Sampling" modified="No">1.000000e+00</Option>
    <Option name="SamplingEpoch" modified="No">1.000000e+00</Option>
    <Option name="SamplingImportance" modified="No">1.000000e+00</Option>
    <Option name="SamplingTraining" modified="No">True</Option>
    <Option name="SamplingTesting" modified="No">False</Option>
    <Option name="ResetStep" modified="No">50</Option>
    <Option name="Tau" modified="No">3.000000e+00</Option>
    <Option name="BPMode" modified="No">sequential</Option>
    <Option name="BatchSize" modified="No">-1</Option>
    <Option name="ConvergenceImprove" modified="No">1.000000e-30</Option>
    <Option name="ConvergenceTests" modified="No">-1</Option>
    <Option name="UseRegulator" modified="Yes">False</Option>
    <Option name="UpdateLimit" modified="No">10</Option>
    <Option name="CalculateErrors" modified="No">False</Option>
  </Options>
  <Variables NVar="10">
    <Variable VarIndex="0" Expression="fside" Label="fside" Title="fside" Unit="" Internal="fside" Type="D" Min="0.155151" Max="1.56786"/>
    <Variable VarIndex="1" Expression="w1" Label="w1" Title="w1" Unit="" Internal="w1" Type="D" Min="0.490712" Max="0.82251"/>
    <Variable VarIndex="2" Expression="wtot" Label="wtot" Title="wtot" Unit="" Internal="wtot" Type="D" Min="1.56468" Max="7.61902"/>
    <Variable VarIndex="3" Expression="deltae" Label="deltae" Title="deltae" Unit="" Internal="deltae" Type="D" Min="-4.18904" Max="5652"/>
    <Variable VarIndex="4" Expression="eratio" Label="eratio" Title="eratio" Unit="" Internal="eratio" Type="D" Min="0.000373474" Max="1.00423"/>
    <Variable VarIndex="5" Expression="rphi" Label="rphi" Title="rphi" Unit="" Internal="rphi" Type="D" Min="0.433791" Max="0.978684"/>
    <Variable VarIndex="6" Expression="rhad" Label="rhad" Title="rhad" Unit="" Internal="rhad" Type="D" Min="-0.0144725" Max="0.0079924"/>
    <Variable VarIndex="7" Expression="reta" Label="reta" Title="reta" Unit="" Internal="reta" Type="D" Min="0.916084" Max="0.982597"/>
    <Variable VarIndex="8" Expression="weta2" Label="weta2" Title="weta2" Unit="" Internal="weta2" Type="D" Min="0.00816324" Max="0.0129925"/>
    <Variable VarIndex="9" Expression="f1" Label="f1" Title="f1" Unit="" Internal="f1" Type="D" Min="0.00601693" Max="0.338003"/>
  </Variables>
  <Spectators NSpec="4">
    <Spectator SpecIndex="0" Expression="pt" Label="pt" Title="P_{T} [GeV]" Unit="D" Internal="pt" Type="F" Min="80002.8" Max="686395"/>
    <Spectator SpecIndex="1" Expression="etas2" Label="etas2" Title="etas2" Unit="D" Internal="etas2" Type="F" Min="-1.37" Max="1.37"/>
    <Spectator SpecIndex="2" Expression="convFlag" Label="convFlag" Title="convFlag" Unit="i" Internal="convFlag" Type="F" Min="0" Max="10"/>
    <Spectator SpecIndex="3" Expression="tight" Label="tight" Title="Tight" Unit="i" Internal="tight" Type="F" Min="0" Max="1"/>
  </Spectators>
  <Transformations NTransformations="1">
    <Transform Name="Normalize" NVariables="10" NTargets="0">
      <Class ClassIndex="0">
        <Variables>
          <Variable VarIndex="0" Min="1.5620903670787811e-01" Max="1.3236088752746582e+00"/>
          <Variable VarIndex="1" Min="4.9071210622787476e-01" Max="8.2250970602035522e-01"/>
          <Variable VarIndex="2" Min="1.6785104274749756e+00" Max="5.0908122062683105e+00"/>
          <Variable VarIndex="3" Min="-4.1890401840209961e+00" Max="4.1368032226562500e+03"/>
          <Variable VarIndex="4" Min="9.5779206603765488e-03" Max="1.0042310953140259e+00"/>
          <Variable VarIndex="5" Min="8.0998700857162476e-01" Max="9.7737747430801392e-01"/>
          <Variable VarIndex="6" Min="-8.0138258635997772e-03" Max="7.9096239060163498e-03"/>
          <Variable VarIndex="7" Min="9.2093741893768311e-01" Max="9.7888290882110596e-01"/>
          <Variable VarIndex="8" Min="8.3799660205841064e-03" Max="1.2687016278505325e-02"/>
          <Variable VarIndex="9" Min="6.8054134026169777e-03" Max="3.2050848007202148e-01"/>
        </Variables>
        <Targets/>
      </Class>
      <Class ClassIndex="1">
        <Variables>
          <Variable VarIndex="0" Min="1.5515100955963135e-01" Max="1.5678553581237793e+00"/>
          <Variable VarIndex="1" Min="4.9578374624252319e-01" Max="8.0882829427719116e-01"/>
          <Variable VarIndex="2" Min="1.5646828413009644e+00" Max="7.6190180778503418e+00"/>
          <Variable VarIndex="3" Min="0.0000000000000000e+00" Max="5.6520000000000000e+03"/>
          <Variable VarIndex="4" Min="3.7347353645600379e-04" Max="1.0000000000000000e+00"/>
          <Variable VarIndex="5" Min="4.3379053473472595e-01" Max="9.7868424654006958e-01"/>
          <Variable VarIndex="6" Min="-1.4472454786300659e-02" Max="7.9923989251255989e-03"/>
          <Variable VarIndex="7" Min="9.1608393192291260e-01" Max="9.8259723186492920e-01"/>
          <Variable VarIndex="8" Min="8.1632351502776146e-03" Max="1.2992549687623978e-02"/>
          <Variable VarIndex="9" Min="6.0169287025928497e-03" Max="3.3800303936004639e-01"/>
        </Variables>
        <Targets/>
      </Class>
      <Class ClassIndex="2">
        <Variables>
          <Variable VarIndex="0" Min="1.5515100955963135e-01" Max="1.5678553581237793e+00"/>
          <Variable VarIndex="1" Min="4.9071210622787476e-01" Max="8.2250970602035522e-01"/>
          <Variable VarIndex="2" Min="1.5646828413009644e+00" Max="7.6190180778503418e+00"/>
          <Variable VarIndex="3" Min="-4.1890401840209961e+00" Max="5.6520000000000000e+03"/>
          <Variable VarIndex="4" Min="3.7347353645600379e-04" Max="1.0042310953140259e+00"/>
          <Variable VarIndex="5" Min="4.3379053473472595e-01" Max="9.7868424654006958e-01"/>
          <Variable VarIndex="6" Min="-1.4472454786300659e-02" Max="7.9923989251255989e-03"/>
          <Variable VarIndex="7" Min="9.1608393192291260e-01" Max="9.8259723186492920e-01"/>
          <Variable VarIndex="8" Min="8.1632351502776146e-03" Max="1.2992549687623978e-02"/>
          <Variable VarIndex="9" Min="6.0169287025928497e-03" Max="3.3800303936004639e-01"/>
        </Variables>
        <Targets/>
      </Class>
    </Transform>
  </Transformations>
  <MVAPdfs/>
  <Weights>
    <Layout NLayers="3">
      <Layer Index="0" NNeurons="11">
        <Neuron NSynapses="13">
          -8.2157047472856382e-01 1.6806201881806777e+00 5.9305918411016656e-01 1.1141546093320092e+00 -2.3664637189110644e+00 4.7973380561802989e-02 -4.0849035537550832e-01 1.5040812523299123e+00 -1.1738269939344768e+00 -9.1620216616585337e-01 -9.8895858936769887e-01 -3.5278014298576632e-01 -1.6689201033993255e+00 
        </Neuron>
        <Neuron NSynapses="13">
          -2.7934502668682692e-01 -1.7743579766701816e+00 8.6453863495229322e-01 -1.6535043498040111e-01 1.3362522472231948e+00 1.4556769203719466e+00 1.4958266376179992e+00 -1.1272651436811849e+00 -4.2162943300406924e-01 2.5209482977496100e+00 7.8334147522038233e-01 -1.1977302475859668e+00 -1.2383112833135972e+00 
        </Neuron>
        <Neuron NSynapses="13">
          9.7755548503197376e-01 -1.6708703611138789e+00 -2.0849801078414196e+00 -2.0840725741275548e-01 1.0312706641553908e-01 -7.8196979794579791e-01 -3.6762071198169752e-02 -2.8911305826481831e-01 1.1271289506793096e+00 -7.0088546091318815e-02 -2.9415258797341776e-01 1.6183015882430871e+00 3.5071966808781718e-01 
        </Neuron>
        <Neuron NSynapses="13">
          5.3485253888969453e-01 1.2169271510777500e+00 2.4395240204516411e-01 1.2171596926421340e+00 9.9732519615845050e-01 -2.7994487448775784e-01 -1.2335701966184813e+00 5.0968486055192985e-01 1.2746088563014027e-01 8.9056853136616720e-01 1.4921592041817786e+00 1.5347699958569336e+00 1.7673453047046062e+00 
        </Neuron>
        <Neuron NSynapses="13">
          -1.1759954794962115e+00 1.5284367895451179e+00 -1.2741128020454340e+00 2.3461330039816683e-01 -1.6865044215113245e+00 -1.4461254266892822e+00 1.3809446311394284e+00 1.0299744592543625e+00 -2.0764463761204959e+00 -6.5310161350139717e-01 -3.7438297703189355e-01 8.9228259975539215e-01 3.9596649257064387e+00 
        </Neuron>
        <Neuron NSynapses="13">
          3.9075671954218599e-01 9.0525265204012217e-02 -7.8187188888970027e-01 6.6506936354756874e-01 -6.2695575810894877e-01 -4.9986702116096957e+00 -1.9107726099301945e+00 1.0829433272310329e+00 1.6057586706316609e+00 1.0970759143414961e+00 -6.3296854802170799e-01 -2.0160836035818530e+00 -2.0919583377045842e-01 
        </Neuron>
        <Neuron NSynapses="13">
          1.0179040453073680e+00 2.6553445108784030e-01 2.1809359002484969e+00 -2.5265416457737101e-02 1.1987790422218214e+00 1.4421087853095274e+00 -1.0833575571201508e+00 -6.1834027917174128e-01 1.2252239173754442e+00 -6.2986421559540473e-01 1.2119368901969502e-01 -1.7426292839039204e+00 -7.2517728061453263e-02 
        </Neuron>
        <Neuron NSynapses="13">
          -2.2769145907449639e-01 2.0019895789648738e+00 -1.4924051815830850e+00 1.2134758347423455e-01 8.5974029951046183e-01 -2.0751709247680559e+00 -1.5159405294047090e+00 -5.4191778386127154e-01 1.1496414632487902e-02 -1.9702932641934408e+00 -2.0198511965941575e+00 7.8130659087128917e-01 1.2774213283289564e+00 
        </Neuron>
        <Neuron NSynapses="13">
          -9.9137000078513615e-01 -3.2202920250940520e-01 5.4764973686501357e-02 -1.0197811706484310e+00 -1.6562727043227726e-01 1.1963224157232279e+00 -1.7936177427716395e+00 -3.6030035152379747e-01 5.2795547049530978e-01 1.4549559779419989e+00 2.0698662674850959e-01 1.7296418429360387e+00 -5.0761770011609586e-01 
        </Neuron>
        <Neuron NSynapses="13">
          -4.2586123503004780e-01 3.8431945914847976e-01 -8.1159023683247744e-01 -2.2010744627974486e+00 -2.8659588476173298e-01 -1.3083402500066925e+00 1.8399686368795112e+00 7.7195274456947183e-01 3.7394582158941031e-01 -1.3080350587142495e+00 6.8162929685421425e-01 -1.7245304760331350e+00 1.5899313506042774e+00 
        </Neuron>
        <Neuron NSynapses="13">
          9.0410081252884911e-01 -1.0581565410726708e+00 9.9923248122791430e-01 -2.4138434349664881e+00 7.4749550063882186e-01 5.2980839182584116e+00 1.2359158154974477e+00 -1.7562998089783273e+00 -1.9188204003926440e-01 1.4696926468272540e+00 2.7555336335117477e+00 5.3484732487256346e-02 -3.5140738990004694e+00 
        </Neuron>
      </Layer>
      <Layer Index="1" NNeurons="14">
        <Neuron NSynapses="1">
          -3.5014520194603528e-02 
        </Neuron>
        <Neuron NSynapses="1">
          -2.5869837374937665e-01 
        </Neuron>
        <Neuron NSynapses="1">
          2.9613555081434917e-01 
        </Neuron>
        <Neuron NSynapses="1">
          4.7167881044395105e-01 
        </Neuron>
        <Neuron NSynapses="1">
          -1.3801822559830920e-01 
        </Neuron>
        <Neuron NSynapses="1">
          -7.2144127834900817e-01 
        </Neuron>
        <Neuron NSynapses="1">
          -1.9722351595742326e-02 
        </Neuron>
        <Neuron NSynapses="1">
          -7.2480272477878860e-01 
        </Neuron>
        <Neuron NSynapses="1">
          7.8218356588242846e-02 
        </Neuron>
        <Neuron NSynapses="1">
          2.4309457730267725e-01 
        </Neuron>
        <Neuron NSynapses="1">
          -2.3252140200854396e-01 
        </Neuron>
        <Neuron NSynapses="1">
          1.9347963873291033e-01 
        </Neuron>
        <Neuron NSynapses="1">
          3.6290486683645579e-01 
        </Neuron>
        <Neuron NSynapses="1">
          5.5456916433762948e-01 
        </Neuron>
      </Layer>
      <Layer Index="2" NNeurons="1">
        <Neuron NSynapses="0"/>
      </Layer>
    </Layout>
  </Weights>
</MethodSetup>
