<?xml version="1.0"?>
<MethodSetup Method="MLP::MLP_N3.pt50_eta1.81_conv1">
  <GeneralInfo>
    <Info name="TMVA Release" value="4.1.0 [262400]"/>
    <Info name="ROOT Release" value="5.28/00 [334848]"/>
    <Info name="Creator" value="jsaxon"/>
    <Info name="Date" value="Wed Feb 15 13:20:44 2012"/>
    <Info name="Host" value="Linux lxbuild148.cern.ch 2.6.18-194.26.1.el5 #1 SMP Wed Nov 10 09:45:46 CET 2010 x86_64 x86_64 x86_64 GNU/Linux"/>
    <Info name="Dir" value="/home/jsaxon/NeuralNetworks/fudge99"/>
    <Info name="Training events" value="10000"/>
    <Info name="TrainingTime" value="473.421"/>
    <Info name="AnalysisType" value="Classification"/>
  </GeneralInfo>
  <Options>
    <Option name="NCycles" modified="Yes">2000</Option>
    <Option name="HiddenLayers" modified="Yes">N+3</Option>
    <Option name="NeuronType" modified="Yes">tanh</Option>
    <Option name="RandomSeed" modified="No">1</Option>
    <Option name="EstimatorType" modified="No">MSE</Option>
    <Option name="NeuronInputType" modified="No">sum</Option>
    <Option name="V" modified="No">False</Option>
    <Option name="VerbosityLevel" modified="No">Default</Option>
    <Option name="VarTransform" modified="Yes">N</Option>
    <Option name="H" modified="No">False</Option>
    <Option name="CreateMVAPdfs" modified="No">False</Option>
    <Option name="IgnoreNegWeightsInTraining" modified="No">False</Option>
    <Option name="TrainingMethod" modified="No">BP</Option>
    <Option name="LearningRate" modified="No">2.000000e-02</Option>
    <Option name="DecayRate" modified="No">1.000000e-02</Option>
    <Option name="TestRate" modified="Yes">5</Option>
    <Option name="EpochMonitoring" modified="No">False</Option>
    <Option name="Sampling" modified="No">1.000000e+00</Option>
    <Option name="SamplingEpoch" modified="No">1.000000e+00</Option>
    <Option name="SamplingImportance" modified="No">1.000000e+00</Option>
    <Option name="SamplingTraining" modified="No">True</Option>
    <Option name="SamplingTesting" modified="No">False</Option>
    <Option name="ResetStep" modified="No">50</Option>
    <Option name="Tau" modified="No">3.000000e+00</Option>
    <Option name="BPMode" modified="No">sequential</Option>
    <Option name="BatchSize" modified="No">-1</Option>
    <Option name="ConvergenceImprove" modified="No">1.000000e-30</Option>
    <Option name="ConvergenceTests" modified="No">-1</Option>
    <Option name="UseRegulator" modified="Yes">False</Option>
    <Option name="UpdateLimit" modified="No">10</Option>
    <Option name="CalculateErrors" modified="No">False</Option>
  </Options>
  <Variables NVar="10">
    <Variable VarIndex="0" Expression="fside" Label="fside" Title="fside" Unit="" Internal="fside" Type="D" Min="0.139994" Max="1.42914"/>
    <Variable VarIndex="1" Expression="w1" Label="w1" Title="w1" Unit="" Internal="w1" Type="D" Min="0.403374" Max="0.812692"/>
    <Variable VarIndex="2" Expression="wtot" Label="wtot" Title="wtot" Unit="" Internal="wtot" Type="D" Min="1.21734" Max="12.8591"/>
    <Variable VarIndex="3" Expression="deltae" Label="deltae" Title="deltae" Unit="" Internal="deltae" Type="D" Min="-1.79089" Max="6403"/>
    <Variable VarIndex="4" Expression="eratio" Label="eratio" Title="eratio" Unit="" Internal="eratio" Type="D" Min="0.000356913" Max="0.99894"/>
    <Variable VarIndex="5" Expression="rphi" Label="rphi" Title="rphi" Unit="" Internal="rphi" Type="D" Min="0.412397" Max="0.984917"/>
    <Variable VarIndex="6" Expression="rhad" Label="rhad" Title="rhad" Unit="" Internal="rhad" Type="D" Min="-0.0222184" Max="0.0249491"/>
    <Variable VarIndex="7" Expression="reta" Label="reta" Title="reta" Unit="" Internal="reta" Type="D" Min="0.906149" Max="0.975058"/>
    <Variable VarIndex="8" Expression="weta2" Label="weta2" Title="weta2" Unit="" Internal="weta2" Type="D" Min="0.00690888" Max="0.0148547"/>
    <Variable VarIndex="9" Expression="f1" Label="f1" Title="f1" Unit="" Internal="f1" Type="D" Min="0.00464516" Max="0.464207"/>
  </Variables>
  <Spectators NSpec="4">
    <Spectator SpecIndex="0" Expression="pt" Label="pt" Title="P_{T} [GeV]" Unit="D" Internal="pt" Type="F" Min="40000.3" Max="49999.2"/>
    <Spectator SpecIndex="1" Expression="etas2" Label="etas2" Title="etas2" Unit="D" Internal="etas2" Type="F" Min="-1.80999" Max="1.80987"/>
    <Spectator SpecIndex="2" Expression="convFlag" Label="convFlag" Title="convFlag" Unit="i" Internal="convFlag" Type="F" Min="11" Max="11"/>
    <Spectator SpecIndex="3" Expression="tight" Label="tight" Title="Tight" Unit="i" Internal="tight" Type="F" Min="0" Max="1"/>
  </Spectators>
  <Transformations NTransformations="1">
    <Transform Name="Normalize" NVariables="10" NTargets="0">
      <Class ClassIndex="0">
        <Variables>
          <Variable VarIndex="0" Min="1.4484226703643799e-01" Max="1.0907970666885376e+00"/>
          <Variable VarIndex="1" Min="4.0337410569190979e-01" Max="7.8415882587432861e-01"/>
          <Variable VarIndex="2" Min="1.2173449993133545e+00" Max="1.2859060287475586e+01"/>
          <Variable VarIndex="3" Min="-1.7908940315246582e+00" Max="4.8722075195312500e+03"/>
          <Variable VarIndex="4" Min="4.4220853596925735e-02" Max="9.9730050563812256e-01"/>
          <Variable VarIndex="5" Min="8.1917351484298706e-01" Max="9.7972387075424194e-01"/>
          <Variable VarIndex="6" Min="-2.2218389436602592e-02" Max="2.4949107319116592e-02"/>
          <Variable VarIndex="7" Min="9.0614885091781616e-01" Max="9.7505766153335571e-01"/>
          <Variable VarIndex="8" Min="8.7211504578590393e-03" Max="1.4665443450212479e-02"/>
          <Variable VarIndex="9" Min="4.6451608650386333e-03" Max="4.5423948764801025e-01"/>
        </Variables>
        <Targets/>
      </Class>
      <Class ClassIndex="1">
        <Variables>
          <Variable VarIndex="0" Min="1.3999427855014801e-01" Max="1.4291355609893799e+00"/>
          <Variable VarIndex="1" Min="5.0691419839859009e-01" Max="8.1269186735153198e-01"/>
          <Variable VarIndex="2" Min="1.4243888854980469e+00" Max="1.1194724082946777e+01"/>
          <Variable VarIndex="3" Min="1.5258789062500000e-05" Max="6.4030000000000000e+03"/>
          <Variable VarIndex="4" Min="3.5691339871846139e-04" Max="9.9893981218338013e-01"/>
          <Variable VarIndex="5" Min="4.1239729523658752e-01" Max="9.8491698503494263e-01"/>
          <Variable VarIndex="6" Min="-2.1038550883531570e-02" Max="2.4791264906525612e-02"/>
          <Variable VarIndex="7" Min="9.0655559301376343e-01" Max="9.7356623411178589e-01"/>
          <Variable VarIndex="8" Min="6.9088842719793320e-03" Max="1.4854749664664268e-02"/>
          <Variable VarIndex="9" Min="9.1256825253367424e-03" Max="4.6420738101005554e-01"/>
        </Variables>
        <Targets/>
      </Class>
      <Class ClassIndex="2">
        <Variables>
          <Variable VarIndex="0" Min="1.3999427855014801e-01" Max="1.4291355609893799e+00"/>
          <Variable VarIndex="1" Min="4.0337410569190979e-01" Max="8.1269186735153198e-01"/>
          <Variable VarIndex="2" Min="1.2173449993133545e+00" Max="1.2859060287475586e+01"/>
          <Variable VarIndex="3" Min="-1.7908940315246582e+00" Max="6.4030000000000000e+03"/>
          <Variable VarIndex="4" Min="3.5691339871846139e-04" Max="9.9893981218338013e-01"/>
          <Variable VarIndex="5" Min="4.1239729523658752e-01" Max="9.8491698503494263e-01"/>
          <Variable VarIndex="6" Min="-2.2218389436602592e-02" Max="2.4949107319116592e-02"/>
          <Variable VarIndex="7" Min="9.0614885091781616e-01" Max="9.7505766153335571e-01"/>
          <Variable VarIndex="8" Min="6.9088842719793320e-03" Max="1.4854749664664268e-02"/>
          <Variable VarIndex="9" Min="4.6451608650386333e-03" Max="4.6420738101005554e-01"/>
        </Variables>
        <Targets/>
      </Class>
    </Transform>
  </Transformations>
  <MVAPdfs/>
  <Weights>
    <Layout NLayers="3">
      <Layer Index="0" NNeurons="11">
        <Neuron NSynapses="13">
          -8.5231419547801002e-01 5.4403453713532155e+00 -1.3392811550731157e-01 1.9212574451010898e+00 -2.9166102496100348e+00 -2.4246664452611060e+00 -7.4748800474134658e-01 1.8671250284866319e+00 -1.1077363838673515e+00 -1.4546926118195811e+00 -9.0594935727743653e-01 -4.5138377247816797e-01 -2.0453829807048192e+00 
        </Neuron>
        <Neuron NSynapses="13">
          -2.1049646922548901e-01 -2.7550475215274322e+00 7.4684328157093460e-01 -9.6643026526803211e-01 1.8382824617813789e+00 8.7128237935385922e-01 1.3501512238549642e+00 -7.1222060543092691e-01 9.5128094585439395e-03 5.7901457119679112e-01 3.5813316283659302e-01 -1.1997942369152963e+00 -8.9407685398882775e-01 
        </Neuron>
        <Neuron NSynapses="13">
          8.3553957184228322e-01 -1.7703505462445019e+00 -2.0105218368563542e+00 5.9040168159195050e-01 -3.2837460605750235e-01 -1.5359260378364500e-01 -2.9000430796440674e-01 2.2660768830832789e-01 9.3423796968420414e-01 5.3170967857504747e-02 -1.4520376574848253e+00 1.7579342882321813e+00 -7.5736957710986486e-02 
        </Neuron>
        <Neuron NSynapses="13">
          5.6662755955168176e-01 4.1372343005022483e-01 6.2087608194906818e-01 1.4131613489798804e+00 7.6716170962514907e-01 -1.3738477605968560e+00 -1.5632602353138296e+00 1.1895646347754618e+00 1.0608472762579196e-01 1.8001607027306059e+00 1.7773286400032113e+00 1.4947679534062732e+00 2.7068193750105460e+00 
        </Neuron>
        <Neuron NSynapses="13">
          -1.3222779708878107e+00 2.5454072149934208e+00 -2.5218891154315095e+00 -6.0292371196620864e-01 -2.2664775524479945e+00 -2.4331597230777833e+00 1.5436813622860222e+00 3.6626781069278858e-01 -1.4634663391806737e+00 -7.5077591639655217e-01 -1.3079522920995328e+00 7.3744703527531330e-01 2.8761074124820003e+00 
        </Neuron>
        <Neuron NSynapses="13">
          3.1394591427723550e-01 1.3544039850936731e+00 -1.7526860711328507e+00 3.9659286566069990e-01 -8.9524692789547278e-01 -3.7292185865211658e+00 -1.5049336977093055e+00 3.9973846474833125e-01 1.0552763627017758e+00 1.1144654224734061e+00 -2.7420870672498743e-01 -1.8725645780940312e+00 2.0491414115260866e+00 
        </Neuron>
        <Neuron NSynapses="13">
          1.1089166423683594e+00 1.0221243100947983e-01 8.6404941068964958e-01 5.2359376180960349e-01 1.9107790556797888e+00 2.4673099607180016e-01 -8.7044996912332462e-01 -7.4906682366055230e-02 5.2295767143930062e-02 -3.3035291816799756e-01 -6.2140441605570251e-01 -1.7014226415331868e+00 -1.3579381435413371e-01 
        </Neuron>
        <Neuron NSynapses="13">
          3.0226675479005469e-02 4.7738281935738286e-01 -6.5044573553485119e-01 7.6266221386231500e-02 -5.9690969059209054e-01 -8.3475781841263391e-02 -1.5362453609062088e+00 -9.8784207267952451e-01 -8.4186019716533289e-01 -2.3674267133616875e-01 -1.1382305119787881e+00 7.3648644433809540e-01 1.5612091460689890e+00 
        </Neuron>
        <Neuron NSynapses="13">
          -1.2794649261749031e+00 -8.3896754504443949e-01 -3.0883147148365875e-01 -9.4209452310455932e-01 4.6479830567824471e-01 -8.7270025141490404e-02 -1.8101179445852813e+00 4.4162946955042519e-02 1.0217627934934330e+00 4.2417801502175850e-01 -1.3720757696166432e+00 1.8001863586159077e+00 -1.7001875541338503e+00 
        </Neuron>
        <Neuron NSynapses="13">
          -1.0581304424215485e+00 9.0900585035751058e-01 -7.7097110845663008e-01 -1.7031225866879529e+00 -3.9899169732756268e-01 -1.1046281055981308e+00 1.7768428824109683e+00 1.6459956144481730e-01 1.2683603153603655e+00 -6.7040131940723358e-01 4.4084168646780564e-01 -1.8413719809096023e+00 7.0363433069875436e-01 
        </Neuron>
        <Neuron NSynapses="13">
          9.5315568850087551e-01 -1.4008677209844504e+00 1.6297354577022625e+00 -1.7796130894632658e+00 5.8641541358358296e-01 2.1760671721768863e+00 1.6776878529500592e+00 -2.4771411217803716e+00 1.0822942132325244e-01 1.1854392347184890e+00 1.4989176729558975e+00 2.0073786547197356e-01 -3.9161960184223026e+00 
        </Neuron>
      </Layer>
      <Layer Index="1" NNeurons="14">
        <Neuron NSynapses="1">
          6.7073373254757082e-02 
        </Neuron>
        <Neuron NSynapses="1">
          -5.8881978295406678e-01 
        </Neuron>
        <Neuron NSynapses="1">
          2.1199304957515208e-01 
        </Neuron>
        <Neuron NSynapses="1">
          1.1630807315694403e+00 
        </Neuron>
        <Neuron NSynapses="1">
          -3.2227161528786213e-01 
        </Neuron>
        <Neuron NSynapses="1">
          -3.9601509289617742e-01 
        </Neuron>
        <Neuron NSynapses="1">
          2.8291675127261280e-02 
        </Neuron>
        <Neuron NSynapses="1">
          -5.2910269743726812e-01 
        </Neuron>
        <Neuron NSynapses="1">
          1.2517800046204045e-01 
        </Neuron>
        <Neuron NSynapses="1">
          -1.7070943680682266e-01 
        </Neuron>
        <Neuron NSynapses="1">
          -1.1952810606993977e-01 
        </Neuron>
        <Neuron NSynapses="1">
          2.4143092898966340e-02 
        </Neuron>
        <Neuron NSynapses="1">
          3.5439134490516522e-01 
        </Neuron>
        <Neuron NSynapses="1">
          1.0308070478936495e+00 
        </Neuron>
      </Layer>
      <Layer Index="2" NNeurons="1">
        <Neuron NSynapses="0"/>
      </Layer>
    </Layout>
  </Weights>
</MethodSetup>
