<?xml version="1.0"?>
<MethodSetup Method="MLP::MLP_N3.pt25_eta1.81_conv0">
  <GeneralInfo>
    <Info name="TMVA Release" value="4.1.0 [262400]"/>
    <Info name="ROOT Release" value="5.28/00 [334848]"/>
    <Info name="Creator" value="jsaxon"/>
    <Info name="Date" value="Wed Feb 15 13:17:49 2012"/>
    <Info name="Host" value="Linux lxbuild148.cern.ch 2.6.18-194.26.1.el5 #1 SMP Wed Nov 10 09:45:46 CET 2010 x86_64 x86_64 x86_64 GNU/Linux"/>
    <Info name="Dir" value="/home/jsaxon/NeuralNetworks/fudge99"/>
    <Info name="Training events" value="10000"/>
    <Info name="TrainingTime" value="425.098"/>
    <Info name="AnalysisType" value="Classification"/>
  </GeneralInfo>
  <Options>
    <Option name="NCycles" modified="Yes">2000</Option>
    <Option name="HiddenLayers" modified="Yes">N+3</Option>
    <Option name="NeuronType" modified="Yes">tanh</Option>
    <Option name="RandomSeed" modified="No">1</Option>
    <Option name="EstimatorType" modified="No">MSE</Option>
    <Option name="NeuronInputType" modified="No">sum</Option>
    <Option name="V" modified="No">False</Option>
    <Option name="VerbosityLevel" modified="No">Default</Option>
    <Option name="VarTransform" modified="Yes">N</Option>
    <Option name="H" modified="No">False</Option>
    <Option name="CreateMVAPdfs" modified="No">False</Option>
    <Option name="IgnoreNegWeightsInTraining" modified="No">False</Option>
    <Option name="TrainingMethod" modified="No">BP</Option>
    <Option name="LearningRate" modified="No">2.000000e-02</Option>
    <Option name="DecayRate" modified="No">1.000000e-02</Option>
    <Option name="TestRate" modified="Yes">5</Option>
    <Option name="EpochMonitoring" modified="No">False</Option>
    <Option name="Sampling" modified="No">1.000000e+00</Option>
    <Option name="SamplingEpoch" modified="No">1.000000e+00</Option>
    <Option name="SamplingImportance" modified="No">1.000000e+00</Option>
    <Option name="SamplingTraining" modified="No">True</Option>
    <Option name="SamplingTesting" modified="No">False</Option>
    <Option name="ResetStep" modified="No">50</Option>
    <Option name="Tau" modified="No">3.000000e+00</Option>
    <Option name="BPMode" modified="No">sequential</Option>
    <Option name="BatchSize" modified="No">-1</Option>
    <Option name="ConvergenceImprove" modified="No">1.000000e-30</Option>
    <Option name="ConvergenceTests" modified="No">-1</Option>
    <Option name="UseRegulator" modified="Yes">False</Option>
    <Option name="UpdateLimit" modified="No">10</Option>
    <Option name="CalculateErrors" modified="No">False</Option>
  </Options>
  <Variables NVar="10">
    <Variable VarIndex="0" Expression="fside" Label="fside" Title="fside" Unit="" Internal="fside" Type="D" Min="0" Max="1.25693"/>
    <Variable VarIndex="1" Expression="w1" Label="w1" Title="w1" Unit="" Internal="w1" Type="D" Min="0.128821" Max="0.813385"/>
    <Variable VarIndex="2" Expression="wtot" Label="wtot" Title="wtot" Unit="" Internal="wtot" Type="D" Min="0.209144" Max="15.606"/>
    <Variable VarIndex="3" Expression="deltae" Label="deltae" Title="deltae" Unit="" Internal="deltae" Type="D" Min="-1.88479" Max="3299"/>
    <Variable VarIndex="4" Expression="eratio" Label="eratio" Title="eratio" Unit="" Internal="eratio" Type="D" Min="0.000115996" Max="1.00026"/>
    <Variable VarIndex="5" Expression="rphi" Label="rphi" Title="rphi" Unit="" Internal="rphi" Type="D" Min="0.427063" Max="0.995374"/>
    <Variable VarIndex="6" Expression="rhad" Label="rhad" Title="rhad" Unit="" Internal="rhad" Type="D" Min="-0.0417112" Max="0.0249866"/>
    <Variable VarIndex="7" Expression="reta" Label="reta" Title="reta" Unit="" Internal="reta" Type="D" Min="0.90613" Max="0.992788"/>
    <Variable VarIndex="8" Expression="weta2" Label="weta2" Title="weta2" Unit="" Internal="weta2" Type="D" Min="0.00583182" Max="0.0147619"/>
    <Variable VarIndex="9" Expression="f1" Label="f1" Title="f1" Unit="" Internal="f1" Type="D" Min="0.000587525" Max="0.489089"/>
  </Variables>
  <Spectators NSpec="4">
    <Spectator SpecIndex="0" Expression="pt" Label="pt" Title="P_{T} [GeV]" Unit="D" Internal="pt" Type="F" Min="20000.1" Max="24999.6"/>
    <Spectator SpecIndex="1" Expression="etas2" Label="etas2" Title="etas2" Unit="D" Internal="etas2" Type="F" Min="-1.80994" Max="1.80997"/>
    <Spectator SpecIndex="2" Expression="convFlag" Label="convFlag" Title="convFlag" Unit="i" Internal="convFlag" Type="F" Min="0" Max="10"/>
    <Spectator SpecIndex="3" Expression="tight" Label="tight" Title="Tight" Unit="i" Internal="tight" Type="F" Min="0" Max="1"/>
  </Spectators>
  <Transformations NTransformations="1">
    <Transform Name="Normalize" NVariables="10" NTargets="0">
      <Class ClassIndex="0">
        <Variables>
          <Variable VarIndex="0" Min="1.8872756510972977e-02" Max="8.0815666913986206e-01"/>
          <Variable VarIndex="1" Min="1.2882085144519806e-01" Max="8.0190056562423706e-01"/>
          <Variable VarIndex="2" Min="2.0914387702941895e-01" Max="1.2965435028076172e+01"/>
          <Variable VarIndex="3" Min="-1.8847899436950684e+00" Max="1.4481143798828125e+03"/>
          <Variable VarIndex="4" Min="1.3318855315446854e-02" Max="1.0002630949020386e+00"/>
          <Variable VarIndex="5" Min="8.1172066926956177e-01" Max="9.9537354707717896e-01"/>
          <Variable VarIndex="6" Min="-4.1711181402206421e-02" Max="2.4986561387777328e-02"/>
          <Variable VarIndex="7" Min="9.0646433830261230e-01" Max="9.9278777837753296e-01"/>
          <Variable VarIndex="8" Min="8.0112162977457047e-03" Max="1.4533908106386662e-02"/>
          <Variable VarIndex="9" Min="5.8752484619617462e-04" Max="4.6927616000175476e-01"/>
        </Variables>
        <Targets/>
      </Class>
      <Class ClassIndex="1">
        <Variables>
          <Variable VarIndex="0" Min="0.0000000000000000e+00" Max="1.2569290399551392e+00"/>
          <Variable VarIndex="1" Min="3.7728562951087952e-01" Max="8.1338465213775635e-01"/>
          <Variable VarIndex="2" Min="3.6036008596420288e-01" Max="1.5606002807617188e+01"/>
          <Variable VarIndex="3" Min="1.0000000000000000e+00" Max="3.2990000000000000e+03"/>
          <Variable VarIndex="4" Min="1.1599582649068907e-04" Max="9.9470996856689453e-01"/>
          <Variable VarIndex="5" Min="4.2706274986267090e-01" Max="9.9195396900177002e-01"/>
          <Variable VarIndex="6" Min="-3.0873915180563927e-02" Max="2.4985915049910545e-02"/>
          <Variable VarIndex="7" Min="9.0612965822219849e-01" Max="9.8747998476028442e-01"/>
          <Variable VarIndex="8" Min="5.8318241499364376e-03" Max="1.4761932194232941e-02"/>
          <Variable VarIndex="9" Min="7.4542951770126820e-03" Max="4.8908933997154236e-01"/>
        </Variables>
        <Targets/>
      </Class>
      <Class ClassIndex="2">
        <Variables>
          <Variable VarIndex="0" Min="0.0000000000000000e+00" Max="1.2569290399551392e+00"/>
          <Variable VarIndex="1" Min="1.2882085144519806e-01" Max="8.1338465213775635e-01"/>
          <Variable VarIndex="2" Min="2.0914387702941895e-01" Max="1.5606002807617188e+01"/>
          <Variable VarIndex="3" Min="-1.8847899436950684e+00" Max="3.2990000000000000e+03"/>
          <Variable VarIndex="4" Min="1.1599582649068907e-04" Max="1.0002630949020386e+00"/>
          <Variable VarIndex="5" Min="4.2706274986267090e-01" Max="9.9537354707717896e-01"/>
          <Variable VarIndex="6" Min="-4.1711181402206421e-02" Max="2.4986561387777328e-02"/>
          <Variable VarIndex="7" Min="9.0612965822219849e-01" Max="9.9278777837753296e-01"/>
          <Variable VarIndex="8" Min="5.8318241499364376e-03" Max="1.4761932194232941e-02"/>
          <Variable VarIndex="9" Min="5.8752484619617462e-04" Max="4.8908933997154236e-01"/>
        </Variables>
        <Targets/>
      </Class>
    </Transform>
  </Transformations>
  <MVAPdfs/>
  <Weights>
    <Layout NLayers="3">
      <Layer Index="0" NNeurons="11">
        <Neuron NSynapses="13">
          -1.0045980540439545e+00 1.4760627009796883e+00 1.9977690461611008e-01 1.7580279275564434e+00 -2.1775300186007969e+00 -2.4623273552965883e+00 -6.5747389136806911e-01 3.4053181802761996e+00 -1.6266082112635802e+00 -9.8398168798232244e-01 5.8291040706640129e-01 -3.8980438129703504e-01 -2.0228234176473432e+00 
        </Neuron>
        <Neuron NSynapses="13">
          -1.3884833128893986e-01 -1.4144162663622222e+00 7.7728643874112058e-01 -7.6342838815758263e-01 1.6260628753331605e+00 1.2373175558761910e-02 1.3508883117508221e+00 -8.7297460248569247e-01 -4.8947221237611964e-02 5.9239342282014573e-01 8.0274596079696403e-01 -1.1962878948475939e+00 -1.4750533118435118e+00 
        </Neuron>
        <Neuron NSynapses="13">
          5.1305219380981359e-01 -1.1994773004206640e+00 -2.0618155034415717e+00 5.1360505363414566e-01 2.3793690582391469e-01 1.6305074673336546e+00 -1.4941829083047214e-01 -3.3177432340872148e-01 7.9544034767897578e-02 -5.1879557265166842e-01 -3.4458609045862876e-01 1.7895523912836919e+00 -1.5031267404559652e+00 
        </Neuron>
        <Neuron NSynapses="13">
          1.5946623560077280e-01 1.3640563457579622e+00 2.3973151560288572e-01 1.7700628479063349e+00 1.1563987814608685e+00 -5.4139449982391530e-01 -1.3260448872197492e+00 4.8187287913221538e-01 -4.1413027436578244e-02 1.4184222093017216e+00 1.3183680738273404e+00 1.6084456242324237e+00 1.7913561170180117e+00 
        </Neuron>
        <Neuron NSynapses="13">
          -1.1724589921537492e+00 2.2515620841549757e+00 -2.9101664854051963e+00 -2.5342385007910762e-01 -1.6513152703538829e+00 -2.8083140428716424e+00 1.3670820349145525e+00 2.3341189451865367e+00 -2.2404494506973367e+00 -1.0080993226234234e+00 -1.5821896325297036e-01 7.0219413035028588e-01 2.5701336159989241e+00 
        </Neuron>
        <Neuron NSynapses="13">
          5.4047757630276827e-01 4.3699286212609939e-01 -2.0882036523209857e+00 -1.8762275388640153e-02 -9.8105124956232082e-01 -3.9978374426497756e+00 -1.6121019880311773e+00 1.5422498030355858e+00 1.6370768291702140e+00 -3.4312377111057166e-03 -1.0734823965151337e+00 -1.9196421747993717e+00 1.8007806718328652e+00 
        </Neuron>
        <Neuron NSynapses="13">
          8.9868242070608362e-01 -9.4584987310615920e-01 7.5945741722631066e-01 5.0744873492537279e-01 1.4413359297586852e+00 1.3899596804902292e-01 -8.6895471809896263e-01 2.2779588197731490e-01 4.5012910892614194e-01 -4.6796070285153252e-01 2.0181122040944824e-01 -1.7156185693507680e+00 -4.1730886897251945e-01 
        </Neuron>
        <Neuron NSynapses="13">
          -8.4578828755669067e-01 2.0581951985908846e+00 -1.2829588056896220e+00 -8.1085157070551639e-01 5.3908765381759627e-01 -4.3380176487378552e-01 -1.6941443740586697e+00 -2.8186151237473717e-01 -6.1744383065540154e-01 -1.8303799721273963e+00 -9.0368194662544232e-01 7.3135013030349749e-01 1.9836563932917031e+00 
        </Neuron>
        <Neuron NSynapses="13">
          -1.1623572266418669e+00 -6.4995354125947991e-01 -2.7549125639356284e-02 -6.3223666308767046e-01 -1.9552709247565417e-01 9.4550904176465722e-02 -1.6973803174334026e+00 -6.5034285368480174e-02 1.1161188729107987e+00 6.3746983651549793e-01 4.1456753639934452e-01 1.7995393709177725e+00 -1.6591135010656435e+00 
        </Neuron>
        <Neuron NSynapses="13">
          -3.3884022469686176e-01 7.2397244702793728e-01 -6.1411935447009069e-01 -1.2521723875975506e+00 3.5028431802365562e-01 -7.2956080364347176e-01 2.0985965549487804e+00 -3.1479649640546153e-01 5.5295398630747594e-01 -6.7821967389614268e-01 1.0895041491295074e+00 -1.7706996968301350e+00 7.9496354134915126e-01 
        </Neuron>
        <Neuron NSynapses="13">
          1.5769912253443505e+00 -1.2957394017406718e+00 1.5853330469322076e+00 -2.2503931790488818e+00 1.2846990447971289e+00 5.0947308042166579e+00 1.5635513022775236e+00 -1.9752839115143994e+00 -1.6526322256892106e-01 1.5634769597101146e+00 3.2806123958071476e+00 1.0521073450418650e-01 -3.7077205975020031e+00 
        </Neuron>
      </Layer>
      <Layer Index="1" NNeurons="14">
        <Neuron NSynapses="1">
          -3.2040969122822516e-01 
        </Neuron>
        <Neuron NSynapses="1">
          -4.7930129370340774e-01 
        </Neuron>
        <Neuron NSynapses="1">
          3.5098570561734593e-01 
        </Neuron>
        <Neuron NSynapses="1">
          5.2880932475444387e-01 
        </Neuron>
        <Neuron NSynapses="1">
          -2.1059827776500195e-01 
        </Neuron>
        <Neuron NSynapses="1">
          -6.3588211298756658e-01 
        </Neuron>
        <Neuron NSynapses="1">
          -2.3794975668798946e-02 
        </Neuron>
        <Neuron NSynapses="1">
          -6.8138760697457001e-01 
        </Neuron>
        <Neuron NSynapses="1">
          8.5997868473255704e-02 
        </Neuron>
        <Neuron NSynapses="1">
          -2.3452044632948205e-01 
        </Neuron>
        <Neuron NSynapses="1">
          -4.6298189156481390e-01 
        </Neuron>
        <Neuron NSynapses="1">
          -7.3818905613299152e-02 
        </Neuron>
        <Neuron NSynapses="1">
          3.4390170205007664e-01 
        </Neuron>
        <Neuron NSynapses="1">
          1.0635294340802235e+00 
        </Neuron>
      </Layer>
      <Layer Index="2" NNeurons="1">
        <Neuron NSynapses="0"/>
      </Layer>
    </Layout>
  </Weights>
</MethodSetup>
