<?xml version="1.0"?>
<MethodSetup Method="MLP::MLP_N3.pt40_eta1.37_conv0">
  <GeneralInfo>
    <Info name="TMVA Release" value="4.1.0 [262400]"/>
    <Info name="ROOT Release" value="5.28/00 [334848]"/>
    <Info name="Creator" value="jsaxon"/>
    <Info name="Date" value="Wed Feb 15 13:16:16 2012"/>
    <Info name="Host" value="Linux lxbuild148.cern.ch 2.6.18-194.26.1.el5 #1 SMP Wed Nov 10 09:45:46 CET 2010 x86_64 x86_64 x86_64 GNU/Linux"/>
    <Info name="Dir" value="/home/jsaxon/NeuralNetworks/fudge99"/>
    <Info name="Training events" value="10000"/>
    <Info name="TrainingTime" value="411.013"/>
    <Info name="AnalysisType" value="Classification"/>
  </GeneralInfo>
  <Options>
    <Option name="NCycles" modified="Yes">2000</Option>
    <Option name="HiddenLayers" modified="Yes">N+3</Option>
    <Option name="NeuronType" modified="Yes">tanh</Option>
    <Option name="RandomSeed" modified="No">1</Option>
    <Option name="EstimatorType" modified="No">MSE</Option>
    <Option name="NeuronInputType" modified="No">sum</Option>
    <Option name="V" modified="No">False</Option>
    <Option name="VerbosityLevel" modified="No">Default</Option>
    <Option name="VarTransform" modified="Yes">N</Option>
    <Option name="H" modified="No">False</Option>
    <Option name="CreateMVAPdfs" modified="No">False</Option>
    <Option name="IgnoreNegWeightsInTraining" modified="No">False</Option>
    <Option name="TrainingMethod" modified="No">BP</Option>
    <Option name="LearningRate" modified="No">2.000000e-02</Option>
    <Option name="DecayRate" modified="No">1.000000e-02</Option>
    <Option name="TestRate" modified="Yes">5</Option>
    <Option name="EpochMonitoring" modified="No">False</Option>
    <Option name="Sampling" modified="No">1.000000e+00</Option>
    <Option name="SamplingEpoch" modified="No">1.000000e+00</Option>
    <Option name="SamplingImportance" modified="No">1.000000e+00</Option>
    <Option name="SamplingTraining" modified="No">True</Option>
    <Option name="SamplingTesting" modified="No">False</Option>
    <Option name="ResetStep" modified="No">50</Option>
    <Option name="Tau" modified="No">3.000000e+00</Option>
    <Option name="BPMode" modified="No">sequential</Option>
    <Option name="BatchSize" modified="No">-1</Option>
    <Option name="ConvergenceImprove" modified="No">1.000000e-30</Option>
    <Option name="ConvergenceTests" modified="No">-1</Option>
    <Option name="UseRegulator" modified="Yes">False</Option>
    <Option name="UpdateLimit" modified="No">10</Option>
    <Option name="CalculateErrors" modified="No">False</Option>
  </Options>
  <Variables NVar="10">
    <Variable VarIndex="0" Expression="fside" Label="fside" Title="fside" Unit="" Internal="fside" Type="D" Min="-0.0865419" Max="1.37864"/>
    <Variable VarIndex="1" Expression="w1" Label="w1" Title="w1" Unit="" Internal="w1" Type="D" Min="0.288617" Max="0.810642"/>
    <Variable VarIndex="2" Expression="wtot" Label="wtot" Title="wtot" Unit="" Internal="wtot" Type="D" Min="1.31885" Max="12.0629"/>
    <Variable VarIndex="3" Expression="deltae" Label="deltae" Title="deltae" Unit="" Internal="deltae" Type="D" Min="-2.12835" Max="2396"/>
    <Variable VarIndex="4" Expression="eratio" Label="eratio" Title="eratio" Unit="" Internal="eratio" Type="D" Min="0" Max="1.00072"/>
    <Variable VarIndex="5" Expression="rphi" Label="rphi" Title="rphi" Unit="" Internal="rphi" Type="D" Min="0.406609" Max="0.98706"/>
    <Variable VarIndex="6" Expression="rhad" Label="rhad" Title="rhad" Unit="" Internal="rhad" Type="D" Min="-0.0257219" Max="0.00799817"/>
    <Variable VarIndex="7" Expression="reta" Label="reta" Title="reta" Unit="" Internal="reta" Type="D" Min="0.916114" Max="1.02832"/>
    <Variable VarIndex="8" Expression="weta2" Label="weta2" Title="weta2" Unit="" Internal="weta2" Type="D" Min="0.00744216" Max="0.0129937"/>
    <Variable VarIndex="9" Expression="f1" Label="f1" Title="f1" Unit="" Internal="f1" Type="D" Min="0.00254627" Max="0.386179"/>
  </Variables>
  <Spectators NSpec="4">
    <Spectator SpecIndex="0" Expression="pt" Label="pt" Title="P_{T} [GeV]" Unit="D" Internal="pt" Type="F" Min="25001.6" Max="39998.6"/>
    <Spectator SpecIndex="1" Expression="etas2" Label="etas2" Title="etas2" Unit="D" Internal="etas2" Type="F" Min="-1.36992" Max="1.36999"/>
    <Spectator SpecIndex="2" Expression="convFlag" Label="convFlag" Title="convFlag" Unit="i" Internal="convFlag" Type="F" Min="0" Max="10"/>
    <Spectator SpecIndex="3" Expression="tight" Label="tight" Title="Tight" Unit="i" Internal="tight" Type="F" Min="0" Max="1"/>
  </Spectators>
  <Transformations NTransformations="1">
    <Transform Name="Normalize" NVariables="10" NTargets="0">
      <Class ClassIndex="0">
        <Variables>
          <Variable VarIndex="0" Min="2.2291099652647972e-02" Max="1.3306202888488770e+00"/>
          <Variable VarIndex="1" Min="4.1618618369102478e-01" Max="8.0828589200973511e-01"/>
          <Variable VarIndex="2" Min="1.3188494443893433e+00" Max="6.2015275955200195e+00"/>
          <Variable VarIndex="3" Min="-2.1283500194549561e+00" Max="1.3538721923828125e+03"/>
          <Variable VarIndex="4" Min="7.4414550326764584e-03" Max="1.0007195472717285e+00"/>
          <Variable VarIndex="5" Min="7.9991978406906128e-01" Max="9.8706048727035522e-01"/>
          <Variable VarIndex="6" Min="-2.5721905753016472e-02" Max="7.9079652205109596e-03"/>
          <Variable VarIndex="7" Min="9.1807210445404053e-01" Max="1.0283191204071045e+00"/>
          <Variable VarIndex="8" Min="8.7153073400259018e-03" Max="1.2889580801129341e-02"/>
          <Variable VarIndex="9" Min="2.5462678167968988e-03" Max="3.8596445322036743e-01"/>
        </Variables>
        <Targets/>
      </Class>
      <Class ClassIndex="1">
        <Variables>
          <Variable VarIndex="0" Min="-8.6541861295700073e-02" Max="1.3786407709121704e+00"/>
          <Variable VarIndex="1" Min="2.8861731290817261e-01" Max="8.1064170598983765e-01"/>
          <Variable VarIndex="2" Min="1.3221642971038818e+00" Max="1.2062904357910156e+01"/>
          <Variable VarIndex="3" Min="0.0000000000000000e+00" Max="2.3960000000000000e+03"/>
          <Variable VarIndex="4" Min="0.0000000000000000e+00" Max="1.0000000000000000e+00"/>
          <Variable VarIndex="5" Min="4.0660852193832397e-01" Max="9.8117309808731079e-01"/>
          <Variable VarIndex="6" Min="-2.3976793512701988e-02" Max="7.9981721937656403e-03"/>
          <Variable VarIndex="7" Min="9.1611444950103760e-01" Max="9.8585265874862671e-01"/>
          <Variable VarIndex="8" Min="7.4421553872525692e-03" Max="1.2993740849196911e-02"/>
          <Variable VarIndex="9" Min="2.9975611250847578e-03" Max="3.8617905974388123e-01"/>
        </Variables>
        <Targets/>
      </Class>
      <Class ClassIndex="2">
        <Variables>
          <Variable VarIndex="0" Min="-8.6541861295700073e-02" Max="1.3786407709121704e+00"/>
          <Variable VarIndex="1" Min="2.8861731290817261e-01" Max="8.1064170598983765e-01"/>
          <Variable VarIndex="2" Min="1.3188494443893433e+00" Max="1.2062904357910156e+01"/>
          <Variable VarIndex="3" Min="-2.1283500194549561e+00" Max="2.3960000000000000e+03"/>
          <Variable VarIndex="4" Min="0.0000000000000000e+00" Max="1.0007195472717285e+00"/>
          <Variable VarIndex="5" Min="4.0660852193832397e-01" Max="9.8706048727035522e-01"/>
          <Variable VarIndex="6" Min="-2.5721905753016472e-02" Max="7.9981721937656403e-03"/>
          <Variable VarIndex="7" Min="9.1611444950103760e-01" Max="1.0283191204071045e+00"/>
          <Variable VarIndex="8" Min="7.4421553872525692e-03" Max="1.2993740849196911e-02"/>
          <Variable VarIndex="9" Min="2.5462678167968988e-03" Max="3.8617905974388123e-01"/>
        </Variables>
        <Targets/>
      </Class>
    </Transform>
  </Transformations>
  <MVAPdfs/>
  <Weights>
    <Layout NLayers="3">
      <Layer Index="0" NNeurons="11">
        <Neuron NSynapses="13">
          -3.8623447100206471e-01 3.1297977925184681e+00 1.2030910861084514e+00 1.6142393647999604e+00 -4.1476544124728569e+00 9.5799309548256739e-01 -8.5509164300218909e-01 1.8613342069656265e+00 -1.9337843133040440e+00 -1.2639917136671761e+00 -9.8160047979366657e-02 -4.1951604198031422e-01 -7.2637517930557072e-01 
        </Neuron>
        <Neuron NSynapses="13">
          -1.2326246620869770e-01 -1.0639445659063462e+00 9.8552259921218621e-01 -5.6898822557913975e-01 1.4765315599705890e+00 9.1145788154747764e-01 1.4270352103060011e+00 -8.0547999766329126e-01 -4.9119183681651002e-01 1.1153523294748107e+00 2.6070748517592335e-01 -1.1973833140665755e+00 7.8822562429791321e-01 
        </Neuron>
        <Neuron NSynapses="13">
          7.7737856344170031e-01 -1.0417537016956182e+00 -1.6043357439043582e+00 3.9547473513471143e-01 2.6153881416960412e-01 -5.0702819094841600e-01 -4.2906146708249615e-01 -6.7164882782650803e-01 5.8795411532063968e-01 -8.0494994380989515e-01 -4.6090052704206569e-01 1.7814516623272605e+00 -9.8505905491911983e-01 
        </Neuron>
        <Neuron NSynapses="13">
          5.5817414809083832e-01 8.6079210923969884e-01 5.7757356904531709e-01 2.1286098377849991e+00 1.4874681078181373e+00 -1.3374175597211677e+00 -1.8682950237069613e+00 4.0978754077607032e-01 -1.6083968371685761e-01 9.1997904201826131e-01 2.4379362872163819e+00 1.5994479843388205e+00 8.9458345459472632e-01 
        </Neuron>
        <Neuron NSynapses="13">
          -1.4853148009119745e+00 2.0019641551985567e+00 -1.1439456627003524e+00 -8.1261469285556407e-04 -3.0630388697492781e+00 -2.6319244230964292e+00 1.5051530333809464e+00 6.2812997212020560e-01 -2.9491404783646389e+00 8.7771890965397129e-02 -2.4523046881929936e-01 6.3825682279209539e-01 2.0492145581989343e+00 
        </Neuron>
        <Neuron NSynapses="13">
          -2.2579423393674941e-01 6.9461802550035678e-01 -7.3512428937492680e-01 -8.1552970485759740e-02 -3.7581749771743050e-01 -5.7665766285057529e+00 -1.2741062224665345e+00 1.0628160830741666e+00 2.1694190636419091e+00 6.4381307335022520e-01 -8.0840675967616360e-01 -1.9012410517539566e+00 -1.7486783728803215e+00 
        </Neuron>
        <Neuron NSynapses="13">
          8.2833405239249169e-01 4.7844448769338693e-01 1.1814632070878210e+00 -1.1757556882545752e-02 1.7893861166786447e+00 1.0316469054659019e+00 -8.3531209212816149e-01 5.5724074709082128e-01 9.9707305720132078e-01 -9.3549811257817150e-01 7.3097972948941423e-02 -1.6988714810125924e+00 4.6302414001128467e-01 
        </Neuron>
        <Neuron NSynapses="13">
          -5.3106362994077450e-01 1.3571625630877882e+00 -1.8519830867964098e+00 -1.7039210942488217e-01 5.9439380156281751e-01 -2.9919587672387191e+00 -1.3707456815388630e+00 -1.0542478147503838e+00 2.4559175441362549e-01 -1.6677975214111935e+00 -2.8702724353325126e+00 7.1171150388530524e-01 2.2920834662215839e-01 
        </Neuron>
        <Neuron NSynapses="13">
          -4.5511658453901555e-01 4.1461840845331714e-02 -2.8056510191441175e-02 -9.2066348409402743e-01 -6.2626824010087540e-02 8.1353068446106391e-01 -1.8945976645389393e+00 1.5429767498381115e-02 -4.6787452256690246e-02 2.1820235773978591e-01 -3.4831471488084520e-01 1.8024627873123429e+00 1.1881573733038522e-02 
        </Neuron>
        <Neuron NSynapses="13">
          -9.4844087073004590e-01 2.1969919853358369e-01 -8.9830145478157297e-01 -1.2352329741070844e+00 -1.0403544317659002e-03 -1.6722348240456963e+00 1.5549614243672285e+00 -4.7081506482444557e-01 1.3230513301077189e+00 -6.0777551067073887e-01 4.2825853378567985e-01 -1.8100571543316721e+00 1.8932403678408283e+00 
        </Neuron>
        <Neuron NSynapses="13">
          8.8443670985903755e-01 -1.1521711700306363e+00 3.9476258229634398e-01 -2.4501847625913751e+00 9.8602763590103726e-01 4.0272307162221930e+00 1.8706150462774587e+00 -1.0775605526254806e+00 1.0412626737207004e-01 2.1396750961837485e+00 2.3462771624503622e+00 1.6656804954207399e-01 -1.3105215176946621e+00 
        </Neuron>
      </Layer>
      <Layer Index="1" NNeurons="14">
        <Neuron NSynapses="1">
          1.6336778092529633e-01 
        </Neuron>
        <Neuron NSynapses="1">
          -3.6677820665677530e-01 
        </Neuron>
        <Neuron NSynapses="1">
          4.2540856415244682e-01 
        </Neuron>
        <Neuron NSynapses="1">
          1.0774641375713945e+00 
        </Neuron>
        <Neuron NSynapses="1">
          -3.3208967442289761e-01 
        </Neuron>
        <Neuron NSynapses="1">
          -5.0950260537361169e-01 
        </Neuron>
        <Neuron NSynapses="1">
          1.4059787329905137e-02 
        </Neuron>
        <Neuron NSynapses="1">
          -2.5802315367969102e-02 
        </Neuron>
        <Neuron NSynapses="1">
          2.3699750403491890e-01 
        </Neuron>
        <Neuron NSynapses="1">
          7.3990033803081456e-01 
        </Neuron>
        <Neuron NSynapses="1">
          -4.6723992151908356e-01 
        </Neuron>
        <Neuron NSynapses="1">
          -2.6405298889671625e-02 
        </Neuron>
        <Neuron NSynapses="1">
          1.6160350458662615e-01 
        </Neuron>
        <Neuron NSynapses="1">
          6.0119746600251633e-01 
        </Neuron>
      </Layer>
      <Layer Index="2" NNeurons="1">
        <Neuron NSynapses="0"/>
      </Layer>
    </Layout>
  </Weights>
</MethodSetup>
