<?xml version="1.0"?>
<MethodSetup Method="MLP::MLP_N3.pt40_eta0.60_conv1">
  <GeneralInfo>
    <Info name="TMVA Release" value="4.1.0 [262400]"/>
    <Info name="ROOT Release" value="5.28/00 [334848]"/>
    <Info name="Creator" value="jsaxon"/>
    <Info name="Date" value="Wed Feb 15 13:03:59 2012"/>
    <Info name="Host" value="Linux lxbuild148.cern.ch 2.6.18-194.26.1.el5 #1 SMP Wed Nov 10 09:45:46 CET 2010 x86_64 x86_64 x86_64 GNU/Linux"/>
    <Info name="Dir" value="/home/jsaxon/NeuralNetworks/fudge99"/>
    <Info name="Training events" value="10000"/>
    <Info name="TrainingTime" value="530.979"/>
    <Info name="AnalysisType" value="Classification"/>
  </GeneralInfo>
  <Options>
    <Option name="NCycles" modified="Yes">2000</Option>
    <Option name="HiddenLayers" modified="Yes">N+3</Option>
    <Option name="NeuronType" modified="Yes">tanh</Option>
    <Option name="RandomSeed" modified="No">1</Option>
    <Option name="EstimatorType" modified="No">MSE</Option>
    <Option name="NeuronInputType" modified="No">sum</Option>
    <Option name="V" modified="No">False</Option>
    <Option name="VerbosityLevel" modified="No">Default</Option>
    <Option name="VarTransform" modified="Yes">N</Option>
    <Option name="H" modified="No">False</Option>
    <Option name="CreateMVAPdfs" modified="No">False</Option>
    <Option name="IgnoreNegWeightsInTraining" modified="No">False</Option>
    <Option name="TrainingMethod" modified="No">BP</Option>
    <Option name="LearningRate" modified="No">2.000000e-02</Option>
    <Option name="DecayRate" modified="No">1.000000e-02</Option>
    <Option name="TestRate" modified="Yes">5</Option>
    <Option name="EpochMonitoring" modified="No">False</Option>
    <Option name="Sampling" modified="No">1.000000e+00</Option>
    <Option name="SamplingEpoch" modified="No">1.000000e+00</Option>
    <Option name="SamplingImportance" modified="No">1.000000e+00</Option>
    <Option name="SamplingTraining" modified="No">True</Option>
    <Option name="SamplingTesting" modified="No">False</Option>
    <Option name="ResetStep" modified="No">50</Option>
    <Option name="Tau" modified="No">3.000000e+00</Option>
    <Option name="BPMode" modified="No">sequential</Option>
    <Option name="BatchSize" modified="No">-1</Option>
    <Option name="ConvergenceImprove" modified="No">1.000000e-30</Option>
    <Option name="ConvergenceTests" modified="No">-1</Option>
    <Option name="UseRegulator" modified="Yes">False</Option>
    <Option name="UpdateLimit" modified="No">10</Option>
    <Option name="CalculateErrors" modified="No">False</Option>
  </Options>
  <Variables NVar="10">
    <Variable VarIndex="0" Expression="fside" Label="fside" Title="fside" Unit="" Internal="fside" Type="D" Min="0" Max="1.23988"/>
    <Variable VarIndex="1" Expression="w1" Label="w1" Title="w1" Unit="" Internal="w1" Type="D" Min="0.124886" Max="0.807336"/>
    <Variable VarIndex="2" Expression="wtot" Label="wtot" Title="wtot" Unit="" Internal="wtot" Type="D" Min="0.34694" Max="9.27496"/>
    <Variable VarIndex="3" Expression="deltae" Label="deltae" Title="deltae" Unit="" Internal="deltae" Type="D" Min="-1.5406" Max="2424"/>
    <Variable VarIndex="4" Expression="eratio" Label="eratio" Title="eratio" Unit="" Internal="eratio" Type="D" Min="0.000733132" Max="1.00123"/>
    <Variable VarIndex="5" Expression="rphi" Label="rphi" Title="rphi" Unit="" Internal="rphi" Type="D" Min="0.380712" Max="1.00396"/>
    <Variable VarIndex="6" Expression="rhad" Label="rhad" Title="rhad" Unit="" Internal="rhad" Type="D" Min="-0.0408178" Max="0.00998818"/>
    <Variable VarIndex="7" Expression="reta" Label="reta" Title="reta" Unit="" Internal="reta" Type="D" Min="0.927006" Max="1.02961"/>
    <Variable VarIndex="8" Expression="weta2" Label="weta2" Title="weta2" Unit="" Internal="weta2" Type="D" Min="0.00516056" Max="0.0119749"/>
    <Variable VarIndex="9" Expression="f1" Label="f1" Title="f1" Unit="" Internal="f1" Type="D" Min="0.00458595" Max="0.499947"/>
  </Variables>
  <Spectators NSpec="4">
    <Spectator SpecIndex="0" Expression="pt" Label="pt" Title="P_{T} [GeV]" Unit="D" Internal="pt" Type="F" Min="25002" Max="39999.3"/>
    <Spectator SpecIndex="1" Expression="etas2" Label="etas2" Title="etas2" Unit="D" Internal="etas2" Type="F" Min="-0.599971" Max="0.599991"/>
    <Spectator SpecIndex="2" Expression="convFlag" Label="convFlag" Title="convFlag" Unit="i" Internal="convFlag" Type="F" Min="11" Max="11"/>
    <Spectator SpecIndex="3" Expression="tight" Label="tight" Title="Tight" Unit="i" Internal="tight" Type="F" Min="0" Max="1"/>
  </Spectators>
  <Transformations NTransformations="1">
    <Transform Name="Normalize" NVariables="10" NTargets="0">
      <Class ClassIndex="0">
        <Variables>
          <Variable VarIndex="0" Min="7.8325001522898674e-03" Max="7.6997596025466919e-01"/>
          <Variable VarIndex="1" Min="3.5036936402320862e-01" Max="7.6929301023483276e-01"/>
          <Variable VarIndex="2" Min="3.4694004058837891e-01" Max="5.0714263916015625e+00"/>
          <Variable VarIndex="3" Min="-1.5405999422073364e+00" Max="1.3704595947265625e+03"/>
          <Variable VarIndex="4" Min="6.2665276229381561e-02" Max="1.0012319087982178e+00"/>
          <Variable VarIndex="5" Min="5.6843960285186768e-01" Max="1.0039595365524292e+00"/>
          <Variable VarIndex="6" Min="-1.9828815013170242e-02" Max="9.9646709859371185e-03"/>
          <Variable VarIndex="7" Min="9.2701721191406250e-01" Max="1.0296074151992798e+00"/>
          <Variable VarIndex="8" Min="7.5362706556916237e-03" Max="1.1966104619204998e-02"/>
          <Variable VarIndex="9" Min="6.4892214722931385e-03" Max="4.9994692206382751e-01"/>
        </Variables>
        <Targets/>
      </Class>
      <Class ClassIndex="1">
        <Variables>
          <Variable VarIndex="0" Min="0.0000000000000000e+00" Max="1.2398796081542969e+00"/>
          <Variable VarIndex="1" Min="1.2488552927970886e-01" Max="8.0733644962310791e-01"/>
          <Variable VarIndex="2" Min="5.7579445838928223e-01" Max="9.2749624252319336e+00"/>
          <Variable VarIndex="3" Min="0.0000000000000000e+00" Max="2.4240000000000000e+03"/>
          <Variable VarIndex="4" Min="7.3313160100951791e-04" Max="1.0000000000000000e+00"/>
          <Variable VarIndex="5" Min="3.8071185350418091e-01" Max="9.8886436223983765e-01"/>
          <Variable VarIndex="6" Min="-4.0817752480506897e-02" Max="9.9881803616881371e-03"/>
          <Variable VarIndex="7" Min="9.2700552940368652e-01" Max="1.0135972499847412e+00"/>
          <Variable VarIndex="8" Min="5.1605552434921265e-03" Max="1.1974928900599480e-02"/>
          <Variable VarIndex="9" Min="4.5859520323574543e-03" Max="4.9638774991035461e-01"/>
        </Variables>
        <Targets/>
      </Class>
      <Class ClassIndex="2">
        <Variables>
          <Variable VarIndex="0" Min="0.0000000000000000e+00" Max="1.2398796081542969e+00"/>
          <Variable VarIndex="1" Min="1.2488552927970886e-01" Max="8.0733644962310791e-01"/>
          <Variable VarIndex="2" Min="3.4694004058837891e-01" Max="9.2749624252319336e+00"/>
          <Variable VarIndex="3" Min="-1.5405999422073364e+00" Max="2.4240000000000000e+03"/>
          <Variable VarIndex="4" Min="7.3313160100951791e-04" Max="1.0012319087982178e+00"/>
          <Variable VarIndex="5" Min="3.8071185350418091e-01" Max="1.0039595365524292e+00"/>
          <Variable VarIndex="6" Min="-4.0817752480506897e-02" Max="9.9881803616881371e-03"/>
          <Variable VarIndex="7" Min="9.2700552940368652e-01" Max="1.0296074151992798e+00"/>
          <Variable VarIndex="8" Min="5.1605552434921265e-03" Max="1.1974928900599480e-02"/>
          <Variable VarIndex="9" Min="4.5859520323574543e-03" Max="4.9994692206382751e-01"/>
        </Variables>
        <Targets/>
      </Class>
    </Transform>
  </Transformations>
  <MVAPdfs/>
  <Weights>
    <Layout NLayers="3">
      <Layer Index="0" NNeurons="11">
        <Neuron NSynapses="13">
          -9.3174230911987332e-01 2.4482750027203131e+00 6.6847378751845499e-01 1.4029919298433824e+00 -2.3019993948469839e+00 -6.3131928922481573e-01 -6.3221940370290819e-01 1.7222193134292163e+00 -3.1304807696875216e+00 -1.0322587195520390e+00 -1.4205784679739639e+00 -3.8036420363162637e-01 -3.2815671857154749e+00 
        </Neuron>
        <Neuron NSynapses="13">
          2.6120347283700879e-01 -5.1311280300235529e-01 8.7095535083127840e-01 -6.9282945456756784e-01 1.0492702343572216e+00 -1.8685421503110045e-01 1.2766278657660626e+00 -1.1049580122999281e-01 -6.4144214600902549e-01 3.2569654945552334e-01 1.2045800958755568e-01 -1.1989067929414909e+00 -9.2251998674287594e-01 
        </Neuron>
        <Neuron NSynapses="13">
          1.1288384213735820e+00 -1.2009455281030397e+00 -1.4752443847063748e+00 3.7124677871236844e-01 3.7092312141595329e-01 9.1588191305541866e-01 -1.7229191953648562e-01 -5.0740226679810740e-01 1.4036230868656996e-01 -2.0641688941561580e-02 -1.4672815032739808e+00 1.7241911897357427e+00 -1.0720991421439927e+00 
        </Neuron>
        <Neuron NSynapses="13">
          3.3618738271210880e-01 6.5279878239885780e-01 6.7187190048399570e-01 1.9980650754286406e+00 1.0571374241816405e+00 -1.0593640082453528e+00 -1.4917430231743163e+00 2.2558288140114785e-01 3.4200327796996532e-01 1.7584707850939520e+00 1.6080519426375866e+00 1.5616986017270531e+00 1.4909243771529710e+00 
        </Neuron>
        <Neuron NSynapses="13">
          -1.4770487770646914e+00 1.7718255860652685e+00 -1.2885373450891597e+00 -2.4398071081710920e-01 -1.7815788009736993e+00 -2.0241888281887133e+00 1.4533987552557941e+00 7.3339846094785199e-01 -2.4731243142278729e+00 -1.9701681776486443e-01 -1.4882629784219328e+00 7.9312427680878061e-01 3.2267233539719795e+00 
        </Neuron>
        <Neuron NSynapses="13">
          9.1105626072965018e-01 4.4772413963093155e-01 -1.3595196764890010e+00 2.7334410447846608e-01 -3.9202785276351715e-01 -2.5237215684159162e+00 -1.6892970691370022e+00 1.0072865729326830e+00 1.0789191314136006e+00 4.6391252866983418e-01 -1.4262383531803835e-01 -1.8639648655451151e+00 1.4079397207518618e+00 
        </Neuron>
        <Neuron NSynapses="13">
          1.3254415782437923e+00 1.7840808264156336e+00 2.5225695384785745e+00 1.7546547961915018e-01 1.6199255676359756e+00 6.5119012621290939e-01 -1.1016880449695368e+00 4.1299287054045924e-01 1.5257992025727876e+00 -1.3925626749017934e+00 -8.8045236074115518e-01 -1.7747272713140338e+00 -2.0298081732707658e+00 
        </Neuron>
        <Neuron NSynapses="13">
          7.7709447741101945e-02 1.8494011705761328e+00 -1.1677276162672736e+00 -3.2794493384236750e-01 4.8454630419780770e-01 -1.5884096281134850e+00 -1.4307809673761702e+00 -9.3146339934505640e-01 3.0784666483032275e-01 -9.9122705698580971e-01 -1.9894936868145532e+00 7.3982170114533086e-01 2.0395589499588298e+00 
        </Neuron>
        <Neuron NSynapses="13">
          -2.9342785335965960e-01 -1.5760566576509380e-01 1.5413204742418848e-02 -1.0153323614671450e+00 7.5382735249059682e-02 1.5572602511241112e+00 -1.7809285201259553e+00 3.2308243687258037e-01 -3.8554360268217158e-01 4.5846310346379049e-01 -8.9240967267128823e-01 1.8011777874075818e+00 -6.1628350324783332e-01 
        </Neuron>
        <Neuron NSynapses="13">
          -1.1311315120346754e+00 3.3270721932284364e-01 -5.9450420166329954e-01 -1.4291191800827954e+00 -4.6431816296242079e-01 2.3498439888656766e-01 1.8540282723635984e+00 -4.3141795582529348e-02 9.9922565124769200e-02 -5.1475753335778918e-01 3.1928962393072619e-01 -1.7774556032335491e+00 1.8869548018691744e+00 
        </Neuron>
        <Neuron NSynapses="13">
          1.0826607253206999e+00 -1.7214521181162559e+00 6.6923380694672019e-01 -2.0907292814008174e+00 4.7392420936811269e-01 2.0799368999962651e+00 1.4436907202689280e+00 -1.1573780631769439e+00 3.0585726495584237e-01 1.2233271128895893e+00 1.6590460438556753e+00 8.9307649364965130e-02 -2.8851725095923411e+00 
        </Neuron>
      </Layer>
      <Layer Index="1" NNeurons="14">
        <Neuron NSynapses="1">
          -2.4562993002521291e-01 
        </Neuron>
        <Neuron NSynapses="1">
          -3.7522632202992767e-01 
        </Neuron>
        <Neuron NSynapses="1">
          3.6997561470910778e-01 
        </Neuron>
        <Neuron NSynapses="1">
          6.5963243031281638e-01 
        </Neuron>
        <Neuron NSynapses="1">
          -1.7420740651002617e-01 
        </Neuron>
        <Neuron NSynapses="1">
          -3.0964034643774230e-01 
        </Neuron>
        <Neuron NSynapses="1">
          -5.7168624085408598e-02 
        </Neuron>
        <Neuron NSynapses="1">
          -1.2922670918097958e-02 
        </Neuron>
        <Neuron NSynapses="1">
          3.5262235656817709e-01 
        </Neuron>
        <Neuron NSynapses="1">
          -5.5528782742396204e-03 
        </Neuron>
        <Neuron NSynapses="1">
          -2.7840723795597266e-01 
        </Neuron>
        <Neuron NSynapses="1">
          -1.9920581860848122e-02 
        </Neuron>
        <Neuron NSynapses="1">
          3.6256237377339939e-01 
        </Neuron>
        <Neuron NSynapses="1">
          9.3875725144169320e-01 
        </Neuron>
      </Layer>
      <Layer Index="2" NNeurons="1">
        <Neuron NSynapses="0"/>
      </Layer>
    </Layout>
  </Weights>
</MethodSetup>
