<?xml version="1.0"?>
<MethodSetup Method="MLP::MLP_N3.pt50_eta1.15_conv2">
  <GeneralInfo>
    <Info name="TMVA Release" value="4.1.0 [262400]"/>
    <Info name="ROOT Release" value="5.28/00 [334848]"/>
    <Info name="Creator" value="jsaxon"/>
    <Info name="Date" value="Wed Feb 15 13:10:26 2012"/>
    <Info name="Host" value="Linux lxbuild148.cern.ch 2.6.18-194.26.1.el5 #1 SMP Wed Nov 10 09:45:46 CET 2010 x86_64 x86_64 x86_64 GNU/Linux"/>
    <Info name="Dir" value="/home/jsaxon/NeuralNetworks/fudge99"/>
    <Info name="Training events" value="10000"/>
    <Info name="TrainingTime" value="216.015"/>
    <Info name="AnalysisType" value="Classification"/>
  </GeneralInfo>
  <Options>
    <Option name="NCycles" modified="Yes">2000</Option>
    <Option name="HiddenLayers" modified="Yes">N+3</Option>
    <Option name="NeuronType" modified="Yes">tanh</Option>
    <Option name="RandomSeed" modified="No">1</Option>
    <Option name="EstimatorType" modified="No">MSE</Option>
    <Option name="NeuronInputType" modified="No">sum</Option>
    <Option name="V" modified="No">False</Option>
    <Option name="VerbosityLevel" modified="No">Default</Option>
    <Option name="VarTransform" modified="Yes">N</Option>
    <Option name="H" modified="No">False</Option>
    <Option name="CreateMVAPdfs" modified="No">False</Option>
    <Option name="IgnoreNegWeightsInTraining" modified="No">False</Option>
    <Option name="TrainingMethod" modified="No">BP</Option>
    <Option name="LearningRate" modified="No">2.000000e-02</Option>
    <Option name="DecayRate" modified="No">1.000000e-02</Option>
    <Option name="TestRate" modified="Yes">5</Option>
    <Option name="EpochMonitoring" modified="No">False</Option>
    <Option name="Sampling" modified="No">1.000000e+00</Option>
    <Option name="SamplingEpoch" modified="No">1.000000e+00</Option>
    <Option name="SamplingImportance" modified="No">1.000000e+00</Option>
    <Option name="SamplingTraining" modified="No">True</Option>
    <Option name="SamplingTesting" modified="No">False</Option>
    <Option name="ResetStep" modified="No">50</Option>
    <Option name="Tau" modified="No">3.000000e+00</Option>
    <Option name="BPMode" modified="No">sequential</Option>
    <Option name="BatchSize" modified="No">-1</Option>
    <Option name="ConvergenceImprove" modified="No">1.000000e-30</Option>
    <Option name="ConvergenceTests" modified="No">-1</Option>
    <Option name="UseRegulator" modified="Yes">False</Option>
    <Option name="UpdateLimit" modified="No">10</Option>
    <Option name="CalculateErrors" modified="No">False</Option>
  </Options>
  <Variables NVar="10">
    <Variable VarIndex="0" Expression="fside" Label="fside" Title="fside" Unit="" Internal="fside" Type="D" Min="0.141713" Max="1.54783"/>
    <Variable VarIndex="1" Expression="w1" Label="w1" Title="w1" Unit="" Internal="w1" Type="D" Min="0.495699" Max="0.810491"/>
    <Variable VarIndex="2" Expression="wtot" Label="wtot" Title="wtot" Unit="" Internal="wtot" Type="D" Min="0.919833" Max="7.06815"/>
    <Variable VarIndex="3" Expression="deltae" Label="deltae" Title="deltae" Unit="" Internal="deltae" Type="D" Min="-2.88384" Max="2106"/>
    <Variable VarIndex="4" Expression="eratio" Label="eratio" Title="eratio" Unit="" Internal="eratio" Type="D" Min="0.000555556" Max="1.00277"/>
    <Variable VarIndex="5" Expression="rphi" Label="rphi" Title="rphi" Unit="" Internal="rphi" Type="D" Min="0.414237" Max="0.981655"/>
    <Variable VarIndex="6" Expression="rhad" Label="rhad" Title="rhad" Unit="" Internal="rhad" Type="D" Min="-0.0184584" Max="0.00999306"/>
    <Variable VarIndex="7" Expression="reta" Label="reta" Title="reta" Unit="" Internal="reta" Type="D" Min="0.925026" Max="0.994636"/>
    <Variable VarIndex="8" Expression="weta2" Label="weta2" Title="weta2" Unit="" Internal="weta2" Type="D" Min="0.00786479" Max="0.0129583"/>
    <Variable VarIndex="9" Expression="f1" Label="f1" Title="f1" Unit="" Internal="f1" Type="D" Min="0.00483138" Max="0.432577"/>
  </Variables>
  <Spectators NSpec="4">
    <Spectator SpecIndex="0" Expression="pt" Label="pt" Title="P_{T} [GeV]" Unit="D" Internal="pt" Type="F" Min="40000" Max="49999.3"/>
    <Spectator SpecIndex="1" Expression="etas2" Label="etas2" Title="etas2" Unit="D" Internal="etas2" Type="F" Min="-1.14998" Max="1.14988"/>
    <Spectator SpecIndex="2" Expression="convFlag" Label="convFlag" Title="convFlag" Unit="i" Internal="convFlag" Type="F" Min="2" Max="12"/>
    <Spectator SpecIndex="3" Expression="tight" Label="tight" Title="Tight" Unit="i" Internal="tight" Type="F" Min="0" Max="1"/>
  </Spectators>
  <Transformations NTransformations="1">
    <Transform Name="Normalize" NVariables="10" NTargets="0">
      <Class ClassIndex="0">
        <Variables>
          <Variable VarIndex="0" Min="1.5677386522293091e-01" Max="1.0400233268737793e+00"/>
          <Variable VarIndex="1" Min="5.3250962495803833e-01" Max="7.9943704605102539e-01"/>
          <Variable VarIndex="2" Min="9.1983342170715332e-01" Max="5.1661267280578613e+00"/>
          <Variable VarIndex="3" Min="-2.8838400840759277e+00" Max="1.5091241455078125e+03"/>
          <Variable VarIndex="4" Min="4.4062633067369461e-02" Max="1.0027722120285034e+00"/>
          <Variable VarIndex="5" Min="5.3065365552902222e-01" Max="9.7800594568252563e-01"/>
          <Variable VarIndex="6" Min="-1.6648979857563972e-02" Max="9.9930576980113983e-03"/>
          <Variable VarIndex="7" Min="9.2530292272567749e-01" Max="9.9463611841201782e-01"/>
          <Variable VarIndex="8" Min="8.2210544496774673e-03" Max="1.2906307354569435e-02"/>
          <Variable VarIndex="9" Min="7.0194425061345100e-03" Max="4.3257734179496765e-01"/>
        </Variables>
        <Targets/>
      </Class>
      <Class ClassIndex="1">
        <Variables>
          <Variable VarIndex="0" Min="1.4171257615089417e-01" Max="1.5478260517120361e+00"/>
          <Variable VarIndex="1" Min="4.9569922685623169e-01" Max="8.1049138307571411e-01"/>
          <Variable VarIndex="2" Min="1.2655415534973145e+00" Max="7.0681529045104980e+00"/>
          <Variable VarIndex="3" Min="0.0000000000000000e+00" Max="2.1060000000000000e+03"/>
          <Variable VarIndex="4" Min="5.5555556900799274e-04" Max="1.0000000000000000e+00"/>
          <Variable VarIndex="5" Min="4.1423708200454712e-01" Max="9.8165541887283325e-01"/>
          <Variable VarIndex="6" Min="-1.8458440899848938e-02" Max="9.9635571241378784e-03"/>
          <Variable VarIndex="7" Min="9.2502576112747192e-01" Max="9.7447341680526733e-01"/>
          <Variable VarIndex="8" Min="7.8647863119840622e-03" Max="1.2958274222910404e-02"/>
          <Variable VarIndex="9" Min="4.8313802108168602e-03" Max="3.7036633491516113e-01"/>
        </Variables>
        <Targets/>
      </Class>
      <Class ClassIndex="2">
        <Variables>
          <Variable VarIndex="0" Min="1.4171257615089417e-01" Max="1.5478260517120361e+00"/>
          <Variable VarIndex="1" Min="4.9569922685623169e-01" Max="8.1049138307571411e-01"/>
          <Variable VarIndex="2" Min="9.1983342170715332e-01" Max="7.0681529045104980e+00"/>
          <Variable VarIndex="3" Min="-2.8838400840759277e+00" Max="2.1060000000000000e+03"/>
          <Variable VarIndex="4" Min="5.5555556900799274e-04" Max="1.0027722120285034e+00"/>
          <Variable VarIndex="5" Min="4.1423708200454712e-01" Max="9.8165541887283325e-01"/>
          <Variable VarIndex="6" Min="-1.8458440899848938e-02" Max="9.9930576980113983e-03"/>
          <Variable VarIndex="7" Min="9.2502576112747192e-01" Max="9.9463611841201782e-01"/>
          <Variable VarIndex="8" Min="7.8647863119840622e-03" Max="1.2958274222910404e-02"/>
          <Variable VarIndex="9" Min="4.8313802108168602e-03" Max="4.3257734179496765e-01"/>
        </Variables>
        <Targets/>
      </Class>
    </Transform>
  </Transformations>
  <MVAPdfs/>
  <Weights>
    <Layout NLayers="3">
      <Layer Index="0" NNeurons="11">
        <Neuron NSynapses="13">
          -6.7560575779060184e-01 3.0178791543790457e+00 6.0947169202478191e-01 1.7736622164213900e+00 -2.1150784492167265e+00 -1.4487164259970058e+00 -6.4568093691527084e-01 1.9601055401977818e+00 -1.6489041851827606e+00 -1.3632917042461818e+00 -4.8506650716585742e-01 -8.1303383889044700e-01 -3.3475050588965938e+00 
        </Neuron>
        <Neuron NSynapses="13">
          1.8969001357720336e-01 -1.9734862968241676e-01 5.5265814330602303e-01 -4.5184764406211470e-01 1.3634898990866615e+00 2.3933520375894099e-01 1.4020560993603908e+00 -4.8493988759061546e-01 -5.9859033584423216e-01 4.7510988963263540e-01 3.7710675232905883e-01 -2.3754577992516008e+00 -5.3205005163881303e-01 
        </Neuron>
        <Neuron NSynapses="13">
          1.0225702345566825e+00 -1.1080048043616775e+00 -2.0683093126459755e+00 1.5624187219617966e-01 5.1903662150649865e-01 1.1422910893116203e+00 -2.8223069564206843e-01 -2.1488886519654582e-01 5.9544793766997528e-01 -2.3445391348072478e-01 -7.4779188268353514e-01 1.5268235820471296e+00 -5.9029963029053112e-01 
        </Neuron>
        <Neuron NSynapses="13">
          1.9594429818741807e-02 1.3892535532248906e-01 5.4604045122465572e-01 1.7511727811048965e+00 9.2456512661264045e-01 -6.2470628435946540e-01 -1.5629242670636765e+00 7.4815050811326644e-01 -6.3369745417636222e-02 1.8295779370391041e+00 1.7711611225151911e+00 8.5236504099386046e-01 9.5919844041688462e-01 
        </Neuron>
        <Neuron NSynapses="13">
          -8.2561735442423312e-01 1.5665612700039930e+00 -1.4311396919358772e+00 1.5402929544662722e-01 -1.2017606028039274e+00 -1.8594229434519427e+00 1.4946529288617261e+00 3.0105792073672932e-01 -1.5460159659519919e+00 -7.8605115059860908e-01 -4.4811219236914307e-01 1.2966065245833280e+00 5.7497125976823082e-01 
        </Neuron>
        <Neuron NSynapses="13">
          2.1912503273979997e-01 2.8881072192190765e-01 -8.2711964096450297e-01 -5.0109343765248622e-02 -3.4447879029443945e-01 -4.2600590477930977e-01 -1.5760251497360169e+00 9.1271027623953771e-01 4.1619035733671017e-01 3.4791789617774527e-01 -5.6580032719224717e-02 -1.2587698697297360e+00 2.6228092864951291e-01 
        </Neuron>
        <Neuron NSynapses="13">
          1.1871434759504516e+00 2.7294236511430736e-01 1.8834636704680960e+00 1.4536179856894005e-01 9.8128652424600216e-01 -1.0273858595072777e-01 -9.3502948083802528e-01 -3.9915987988702745e-02 1.4875188419672053e-01 -1.0844594025191785e+00 -4.4011304833618392e-01 -1.2757860928468117e+00 -1.2531282576210676e+00 
        </Neuron>
        <Neuron NSynapses="13">
          -1.4370077911693202e-01 1.0645277408124107e+00 -1.3325956826856038e+00 -3.3891769328687016e-01 9.4850853621598030e-01 -4.4771010204855199e-01 -1.4734909989114020e+00 -1.2023441776566108e+00 1.7577387964393887e-01 -9.9629687948404078e-01 -2.7353355458111923e+00 3.7720430432097252e-01 2.5547563672833116e+00 
        </Neuron>
        <Neuron NSynapses="13">
          -1.0674891161136748e+00 -9.4403079517922345e-02 -7.9930282528365437e-01 -3.8622859952232796e-01 -9.6075360159301099e-02 9.3221314733088767e-01 -1.8502221207711524e+00 2.9336579333427683e-02 -6.0608780876586610e-01 2.4534748434151243e-01 -1.0000394483628907e+00 1.4929163687213747e+00 -1.5281776473561743e+00 
        </Neuron>
        <Neuron NSynapses="13">
          -1.1234443264286478e+00 9.5269948415162820e-01 -1.0147639766245731e+00 -1.2639660449443233e+00 1.6782166102319848e-01 -1.3513127489277708e+00 1.8341809306461294e+00 3.6915287428530608e-01 8.4518690672284347e-01 -5.5659634849390871e-01 3.6588197420411772e-01 -1.5416360704044780e+00 2.4921375776513330e+00 
        </Neuron>
        <Neuron NSynapses="13">
          1.1260585681043762e+00 -6.8738747693041646e-01 8.8823405158548729e-01 -2.6709351578613165e+00 2.8896564974967903e-01 1.2819524912519709e+00 1.5608741979337359e+00 -1.8185470732155617e+00 1.8359332734681585e-01 1.2869961609520297e+00 1.5809894752679909e+00 5.2506571825786297e-01 -1.1947937096675405e+00 
        </Neuron>
      </Layer>
      <Layer Index="1" NNeurons="14">
        <Neuron NSynapses="1">
          -1.8517217226468674e-01 
        </Neuron>
        <Neuron NSynapses="1">
          -4.2478050642366671e-01 
        </Neuron>
        <Neuron NSynapses="1">
          -2.8494779955254804e-02 
        </Neuron>
        <Neuron NSynapses="1">
          4.4737510614926262e-01 
        </Neuron>
        <Neuron NSynapses="1">
          -4.8805216123554596e-02 
        </Neuron>
        <Neuron NSynapses="1">
          -2.2760681236254474e-01 
        </Neuron>
        <Neuron NSynapses="1">
          -4.4161734723470653e-02 
        </Neuron>
        <Neuron NSynapses="1">
          -1.0002402826736064e-02 
        </Neuron>
        <Neuron NSynapses="1">
          8.0796393385445517e-02 
        </Neuron>
        <Neuron NSynapses="1">
          -6.7269359280192592e-02 
        </Neuron>
        <Neuron NSynapses="1">
          -1.9329330684643212e-01 
        </Neuron>
        <Neuron NSynapses="1">
          -1.1156670537359306e-01 
        </Neuron>
        <Neuron NSynapses="1">
          3.0623411925112387e-01 
        </Neuron>
        <Neuron NSynapses="1">
          9.0766722620449802e-01 
        </Neuron>
      </Layer>
      <Layer Index="2" NNeurons="1">
        <Neuron NSynapses="0"/>
      </Layer>
    </Layout>
  </Weights>
</MethodSetup>
