<?xml version="1.0"?>
<MethodSetup Method="MLP::MLP_N3.pt60_eta1.81_conv2">
  <GeneralInfo>
    <Info name="TMVA Release" value="4.1.0 [262400]"/>
    <Info name="ROOT Release" value="5.28/00 [334848]"/>
    <Info name="Creator" value="jsaxon"/>
    <Info name="Date" value="Wed Feb 15 13:20:39 2012"/>
    <Info name="Host" value="Linux lxbuild148.cern.ch 2.6.18-194.26.1.el5 #1 SMP Wed Nov 10 09:45:46 CET 2010 x86_64 x86_64 x86_64 GNU/Linux"/>
    <Info name="Dir" value="/home/jsaxon/NeuralNetworks/fudge99"/>
    <Info name="Training events" value="10000"/>
    <Info name="TrainingTime" value="465.274"/>
    <Info name="AnalysisType" value="Classification"/>
  </GeneralInfo>
  <Options>
    <Option name="NCycles" modified="Yes">2000</Option>
    <Option name="HiddenLayers" modified="Yes">N+3</Option>
    <Option name="NeuronType" modified="Yes">tanh</Option>
    <Option name="RandomSeed" modified="No">1</Option>
    <Option name="EstimatorType" modified="No">MSE</Option>
    <Option name="NeuronInputType" modified="No">sum</Option>
    <Option name="V" modified="No">False</Option>
    <Option name="VerbosityLevel" modified="No">Default</Option>
    <Option name="VarTransform" modified="Yes">N</Option>
    <Option name="H" modified="No">False</Option>
    <Option name="CreateMVAPdfs" modified="No">False</Option>
    <Option name="IgnoreNegWeightsInTraining" modified="No">False</Option>
    <Option name="TrainingMethod" modified="No">BP</Option>
    <Option name="LearningRate" modified="No">2.000000e-02</Option>
    <Option name="DecayRate" modified="No">1.000000e-02</Option>
    <Option name="TestRate" modified="Yes">5</Option>
    <Option name="EpochMonitoring" modified="No">False</Option>
    <Option name="Sampling" modified="No">1.000000e+00</Option>
    <Option name="SamplingEpoch" modified="No">1.000000e+00</Option>
    <Option name="SamplingImportance" modified="No">1.000000e+00</Option>
    <Option name="SamplingTraining" modified="No">True</Option>
    <Option name="SamplingTesting" modified="No">False</Option>
    <Option name="ResetStep" modified="No">50</Option>
    <Option name="Tau" modified="No">3.000000e+00</Option>
    <Option name="BPMode" modified="No">sequential</Option>
    <Option name="BatchSize" modified="No">-1</Option>
    <Option name="ConvergenceImprove" modified="No">1.000000e-30</Option>
    <Option name="ConvergenceTests" modified="No">-1</Option>
    <Option name="UseRegulator" modified="Yes">False</Option>
    <Option name="UpdateLimit" modified="No">10</Option>
    <Option name="CalculateErrors" modified="No">False</Option>
  </Options>
  <Variables NVar="10">
    <Variable VarIndex="0" Expression="fside" Label="fside" Title="fside" Unit="" Internal="fside" Type="D" Min="0.152378" Max="1.33767"/>
    <Variable VarIndex="1" Expression="w1" Label="w1" Title="w1" Unit="" Internal="w1" Type="D" Min="0.226383" Max="0.812754"/>
    <Variable VarIndex="2" Expression="wtot" Label="wtot" Title="wtot" Unit="" Internal="wtot" Type="D" Min="1.66811" Max="13.8284"/>
    <Variable VarIndex="3" Expression="deltae" Label="deltae" Title="deltae" Unit="" Internal="deltae" Type="D" Min="-1.80769" Max="7562"/>
    <Variable VarIndex="4" Expression="eratio" Label="eratio" Title="eratio" Unit="" Internal="eratio" Type="D" Min="0.00122436" Max="1.00024"/>
    <Variable VarIndex="5" Expression="rphi" Label="rphi" Title="rphi" Unit="" Internal="rphi" Type="D" Min="0.450643" Max="0.986056"/>
    <Variable VarIndex="6" Expression="rhad" Label="rhad" Title="rhad" Unit="" Internal="rhad" Type="D" Min="-0.0168563" Max="0.02496"/>
    <Variable VarIndex="7" Expression="reta" Label="reta" Title="reta" Unit="" Internal="reta" Type="D" Min="0.906043" Max="0.982225"/>
    <Variable VarIndex="8" Expression="weta2" Label="weta2" Title="weta2" Unit="" Internal="weta2" Type="D" Min="0.00854645" Max="0.0147847"/>
    <Variable VarIndex="9" Expression="f1" Label="f1" Title="f1" Unit="" Internal="f1" Type="D" Min="0.00891061" Max="0.454916"/>
  </Variables>
  <Spectators NSpec="4">
    <Spectator SpecIndex="0" Expression="pt" Label="pt" Title="P_{T} [GeV]" Unit="D" Internal="pt" Type="F" Min="50000.5" Max="59999.6"/>
    <Spectator SpecIndex="1" Expression="etas2" Label="etas2" Title="etas2" Unit="D" Internal="etas2" Type="F" Min="-1.80996" Max="1.80998"/>
    <Spectator SpecIndex="2" Expression="convFlag" Label="convFlag" Title="convFlag" Unit="i" Internal="convFlag" Type="F" Min="2" Max="12"/>
    <Spectator SpecIndex="3" Expression="tight" Label="tight" Title="Tight" Unit="i" Internal="tight" Type="F" Min="0" Max="1"/>
  </Spectators>
  <Transformations NTransformations="1">
    <Transform Name="Normalize" NVariables="10" NTargets="0">
      <Class ClassIndex="0">
        <Variables>
          <Variable VarIndex="0" Min="1.5237785875797272e-01" Max="8.7224459648132324e-01"/>
          <Variable VarIndex="1" Min="5.1916551589965820e-01" Max="7.9414081573486328e-01"/>
          <Variable VarIndex="2" Min="1.6681127548217773e+00" Max="5.1305646896362305e+00"/>
          <Variable VarIndex="3" Min="-1.8076900243759155e+00" Max="4.4501948242187500e+03"/>
          <Variable VarIndex="4" Min="1.2740931706503034e-03" Max="1.0002437829971313e+00"/>
          <Variable VarIndex="5" Min="6.6034114360809326e-01" Max="9.7641646862030029e-01"/>
          <Variable VarIndex="6" Min="-1.6856251284480095e-02" Max="2.4904295802116394e-02"/>
          <Variable VarIndex="7" Min="9.0604257583618164e-01" Max="9.8222488164901733e-01"/>
          <Variable VarIndex="8" Min="9.0830139815807343e-03" Max="1.4544477686285973e-02"/>
          <Variable VarIndex="9" Min="1.1889880523085594e-02" Max="4.3983173370361328e-01"/>
        </Variables>
        <Targets/>
      </Class>
      <Class ClassIndex="1">
        <Variables>
          <Variable VarIndex="0" Min="1.5843948721885681e-01" Max="1.3376711606979370e+00"/>
          <Variable VarIndex="1" Min="2.2638337314128876e-01" Max="8.1275415420532227e-01"/>
          <Variable VarIndex="2" Min="1.7418671846389771e+00" Max="1.3828415870666504e+01"/>
          <Variable VarIndex="3" Min="0.0000000000000000e+00" Max="7.5620000000000000e+03"/>
          <Variable VarIndex="4" Min="1.2243648525327444e-03" Max="1.0000000000000000e+00"/>
          <Variable VarIndex="5" Min="4.5064312219619751e-01" Max="9.8605579137802124e-01"/>
          <Variable VarIndex="6" Min="-1.5158711932599545e-02" Max="2.4959975853562355e-02"/>
          <Variable VarIndex="7" Min="9.0609353780746460e-01" Max="9.7139263153076172e-01"/>
          <Variable VarIndex="8" Min="8.5464473813772202e-03" Max="1.4784655533730984e-02"/>
          <Variable VarIndex="9" Min="8.9106075465679169e-03" Max="4.5491591095924377e-01"/>
        </Variables>
        <Targets/>
      </Class>
      <Class ClassIndex="2">
        <Variables>
          <Variable VarIndex="0" Min="1.5237785875797272e-01" Max="1.3376711606979370e+00"/>
          <Variable VarIndex="1" Min="2.2638337314128876e-01" Max="8.1275415420532227e-01"/>
          <Variable VarIndex="2" Min="1.6681127548217773e+00" Max="1.3828415870666504e+01"/>
          <Variable VarIndex="3" Min="-1.8076900243759155e+00" Max="7.5620000000000000e+03"/>
          <Variable VarIndex="4" Min="1.2243648525327444e-03" Max="1.0002437829971313e+00"/>
          <Variable VarIndex="5" Min="4.5064312219619751e-01" Max="9.8605579137802124e-01"/>
          <Variable VarIndex="6" Min="-1.6856251284480095e-02" Max="2.4959975853562355e-02"/>
          <Variable VarIndex="7" Min="9.0604257583618164e-01" Max="9.8222488164901733e-01"/>
          <Variable VarIndex="8" Min="8.5464473813772202e-03" Max="1.4784655533730984e-02"/>
          <Variable VarIndex="9" Min="8.9106075465679169e-03" Max="4.5491591095924377e-01"/>
        </Variables>
        <Targets/>
      </Class>
    </Transform>
  </Transformations>
  <MVAPdfs/>
  <Weights>
    <Layout NLayers="3">
      <Layer Index="0" NNeurons="11">
        <Neuron NSynapses="13">
          -7.2849014434686221e-01 4.7153263337223308e+00 6.6176538679546870e-01 2.3088443484675731e+00 -3.3347144492707694e+00 -2.4648732908269197e+00 -7.8596426436193334e-01 1.2209023720099328e+00 -1.1980610914865608e+00 -1.2165874233791250e+00 -1.1721226778586784e+00 -3.9724905513699688e-01 -2.6001622194971232e+00 
        </Neuron>
        <Neuron NSynapses="13">
          1.2634520746355649e-01 -1.9876883984128475e+00 9.3367884228712816e-01 -2.0143506163765174e-01 2.4148846327211189e+00 7.0683617146806127e-02 1.3918556591813400e+00 -1.2426508252928830e+00 -4.8648680402391092e-01 6.7267326572872332e-01 -3.0420952849713290e-01 -1.2194076265074152e+00 -1.7454581351615988e+00 
        </Neuron>
        <Neuron NSynapses="13">
          5.8661869235003616e-01 -2.6273119572956545e+00 -2.1909932440038862e+00 -6.8315107084172044e-02 -4.3054655646763973e-01 -1.2468298615483253e-01 -3.4210292617130827e-01 6.0153613394119655e-02 6.3362347563881538e-01 -4.0068141051404632e-02 -9.9655935951033259e-01 1.7853096515928770e+00 3.5103149668473010e-01 
        </Neuron>
        <Neuron NSynapses="13">
          3.7576100493001252e-01 7.8571706308603906e-01 4.3468733411838417e-01 1.4756163014506547e+00 4.2240853012843249e-01 -7.6500057158612478e-01 -1.6382016167947937e+00 7.2161184653507293e-01 -3.2116639998923786e-02 1.8994852171436283e+00 1.8455512356908528e+00 1.5565401118443385e+00 2.1292347882830445e+00 
        </Neuron>
        <Neuron NSynapses="13">
          -1.3854166917805495e+00 2.7468935038830602e+00 -1.8010408652537448e+00 -4.2492848517998044e-01 -2.7376935479998781e+00 -2.7244927216113797e+00 1.4829661310798881e+00 8.8518901812135631e-01 -1.4764574694617554e+00 -3.2334237373954378e-01 -1.2303644461574867e+00 7.1502729346015559e-01 2.2033975323072887e+00 
        </Neuron>
        <Neuron NSynapses="13">
          3.2487246039548467e-01 3.3889265239918365e-01 -1.3774602109540157e+00 -1.4951028986050791e-01 -1.4365746529089127e+00 7.2674941607829058e-02 -1.4200817837215147e+00 1.3732981338639294e+00 1.3338765940966466e+00 6.3893915754874198e-01 -3.2824856721914053e-01 -1.9061812759260286e+00 2.5709219676155082e-01 
        </Neuron>
        <Neuron NSynapses="13">
          1.0334216887597012e+00 -3.8363582794470652e-01 1.4708362247147986e+00 1.5646505345777703e-01 1.2932056713667670e+00 5.4145198133318029e-01 -8.8466968619134811e-01 3.7654662475882916e-01 3.8946913203155903e-01 -4.0501072173532388e-01 -7.1620185493958832e-01 -1.6875873719735062e+00 -2.8903795078610584e-01 
        </Neuron>
        <Neuron NSynapses="13">
          -2.9924253606445217e-01 2.9985586834856309e-01 -1.0455248397163064e+00 -3.6013282578101430e-01 -5.0323964201919691e-01 5.2444795656695031e-01 -1.5032843237452753e+00 -9.7175456146839878e-01 -1.3679790913922785e-01 -8.2705450290414018e-01 -1.5342223757242692e+00 7.3503016377248775e-01 2.6370478752278359e+00 
        </Neuron>
        <Neuron NSynapses="13">
          -1.2496031131168028e+00 -9.6709199427823778e-01 -1.0092440738742914e+00 -6.2945899484905843e-01 3.3152487612481252e-01 3.0110532229467166e-02 -1.7817641195484082e+00 2.0052178301441151e-01 6.6230429656662759e-01 2.6180769420336775e-01 -9.5487441869089318e-01 1.7842825145363586e+00 -2.3125623414551901e+00 
        </Neuron>
        <Neuron NSynapses="13">
          -4.3281313568446828e-01 1.2382490282673406e+00 -8.8995814976298149e-01 -1.3846802875401645e+00 -2.1698905579716604e-01 -5.7208639298091424e-01 1.7976926667869770e+00 2.1417346200875290e-01 7.5967277732347849e-01 -6.5085631638207042e-01 -3.9673773232022952e-01 -1.8198814780144714e+00 1.9348050464039892e+00 
        </Neuron>
        <Neuron NSynapses="13">
          1.3348872926063928e+00 -2.0215597558181169e+00 1.0176843468198411e+00 -2.0963945806906752e+00 3.6337801724736379e-01 1.0443681945245493e+00 1.7981002227672778e+00 -1.8496262159840196e+00 5.0982646740444837e-01 1.1142424062870175e+00 1.3974345239390222e+00 1.4613023359868940e-01 -2.1217244708040428e+00 
        </Neuron>
      </Layer>
      <Layer Index="1" NNeurons="14">
        <Neuron NSynapses="1">
          9.8378913163201423e-02 
        </Neuron>
        <Neuron NSynapses="1">
          -6.4928897329651258e-01 
        </Neuron>
        <Neuron NSynapses="1">
          -7.5320388193063373e-02 
        </Neuron>
        <Neuron NSynapses="1">
          1.1092176748432512e+00 
        </Neuron>
        <Neuron NSynapses="1">
          -3.1211879380171514e-01 
        </Neuron>
        <Neuron NSynapses="1">
          -5.6037527187176395e-01 
        </Neuron>
        <Neuron NSynapses="1">
          4.4204905594892291e-02 
        </Neuron>
        <Neuron NSynapses="1">
          -8.0775010217867893e-01 
        </Neuron>
        <Neuron NSynapses="1">
          1.7548700015440094e-01 
        </Neuron>
        <Neuron NSynapses="1">
          -7.7005344046450555e-02 
        </Neuron>
        <Neuron NSynapses="1">
          4.1487601716337932e-02 
        </Neuron>
        <Neuron NSynapses="1">
          9.4651303600906692e-02 
        </Neuron>
        <Neuron NSynapses="1">
          2.9216087282240183e-01 
        </Neuron>
        <Neuron NSynapses="1">
          7.3841080318490293e-01 
        </Neuron>
      </Layer>
      <Layer Index="2" NNeurons="1">
        <Neuron NSynapses="0"/>
      </Layer>
    </Layout>
  </Weights>
</MethodSetup>
