<?xml version="1.0"?>
<MethodSetup Method="MLP::MLP_N3.pt25_eta1.37_conv1">
  <GeneralInfo>
    <Info name="TMVA Release" value="4.1.0 [262400]"/>
    <Info name="ROOT Release" value="5.28/00 [334848]"/>
    <Info name="Creator" value="jsaxon"/>
    <Info name="Date" value="Wed Feb 15 13:14:39 2012"/>
    <Info name="Host" value="Linux lxbuild148.cern.ch 2.6.18-194.26.1.el5 #1 SMP Wed Nov 10 09:45:46 CET 2010 x86_64 x86_64 x86_64 GNU/Linux"/>
    <Info name="Dir" value="/home/jsaxon/NeuralNetworks/fudge99"/>
    <Info name="Training events" value="10000"/>
    <Info name="TrainingTime" value="432.145"/>
    <Info name="AnalysisType" value="Classification"/>
  </GeneralInfo>
  <Options>
    <Option name="NCycles" modified="Yes">2000</Option>
    <Option name="HiddenLayers" modified="Yes">N+3</Option>
    <Option name="NeuronType" modified="Yes">tanh</Option>
    <Option name="RandomSeed" modified="No">1</Option>
    <Option name="EstimatorType" modified="No">MSE</Option>
    <Option name="NeuronInputType" modified="No">sum</Option>
    <Option name="V" modified="No">False</Option>
    <Option name="VerbosityLevel" modified="No">Default</Option>
    <Option name="VarTransform" modified="Yes">N</Option>
    <Option name="H" modified="No">False</Option>
    <Option name="CreateMVAPdfs" modified="No">False</Option>
    <Option name="IgnoreNegWeightsInTraining" modified="No">False</Option>
    <Option name="TrainingMethod" modified="No">BP</Option>
    <Option name="LearningRate" modified="No">2.000000e-02</Option>
    <Option name="DecayRate" modified="No">1.000000e-02</Option>
    <Option name="TestRate" modified="Yes">5</Option>
    <Option name="EpochMonitoring" modified="No">False</Option>
    <Option name="Sampling" modified="No">1.000000e+00</Option>
    <Option name="SamplingEpoch" modified="No">1.000000e+00</Option>
    <Option name="SamplingImportance" modified="No">1.000000e+00</Option>
    <Option name="SamplingTraining" modified="No">True</Option>
    <Option name="SamplingTesting" modified="No">False</Option>
    <Option name="ResetStep" modified="No">50</Option>
    <Option name="Tau" modified="No">3.000000e+00</Option>
    <Option name="BPMode" modified="No">sequential</Option>
    <Option name="BatchSize" modified="No">-1</Option>
    <Option name="ConvergenceImprove" modified="No">1.000000e-30</Option>
    <Option name="ConvergenceTests" modified="No">-1</Option>
    <Option name="UseRegulator" modified="Yes">False</Option>
    <Option name="UpdateLimit" modified="No">10</Option>
    <Option name="CalculateErrors" modified="No">False</Option>
  </Options>
  <Variables NVar="10">
    <Variable VarIndex="0" Expression="fside" Label="fside" Title="fside" Unit="" Internal="fside" Type="D" Min="0" Max="1.20472"/>
    <Variable VarIndex="1" Expression="w1" Label="w1" Title="w1" Unit="" Internal="w1" Type="D" Min="0.395687" Max="0.811921"/>
    <Variable VarIndex="2" Expression="wtot" Label="wtot" Title="wtot" Unit="" Internal="wtot" Type="D" Min="0.951618" Max="7.68751"/>
    <Variable VarIndex="3" Expression="deltae" Label="deltae" Title="deltae" Unit="" Internal="deltae" Type="D" Min="-2.25193" Max="1385"/>
    <Variable VarIndex="4" Expression="eratio" Label="eratio" Title="eratio" Unit="" Internal="eratio" Type="D" Min="0.00104131" Max="1.00267"/>
    <Variable VarIndex="5" Expression="rphi" Label="rphi" Title="rphi" Unit="" Internal="rphi" Type="D" Min="0.414325" Max="0.98696"/>
    <Variable VarIndex="6" Expression="rhad" Label="rhad" Title="rhad" Unit="" Internal="rhad" Type="D" Min="-0.0456422" Max="0.00799037"/>
    <Variable VarIndex="7" Expression="reta" Label="reta" Title="reta" Unit="" Internal="reta" Type="D" Min="0.916035" Max="1.01589"/>
    <Variable VarIndex="8" Expression="weta2" Label="weta2" Title="weta2" Unit="" Internal="weta2" Type="D" Min="0.00737635" Max="0.0129975"/>
    <Variable VarIndex="9" Expression="f1" Label="f1" Title="f1" Unit="" Internal="f1" Type="D" Min="0.00468094" Max="0.378384"/>
  </Variables>
  <Spectators NSpec="4">
    <Spectator SpecIndex="0" Expression="pt" Label="pt" Title="P_{T} [GeV]" Unit="D" Internal="pt" Type="F" Min="20000.2" Max="24999.9"/>
    <Spectator SpecIndex="1" Expression="etas2" Label="etas2" Title="etas2" Unit="D" Internal="etas2" Type="F" Min="-1.36998" Max="1.37"/>
    <Spectator SpecIndex="2" Expression="convFlag" Label="convFlag" Title="convFlag" Unit="i" Internal="convFlag" Type="F" Min="11" Max="11"/>
    <Spectator SpecIndex="3" Expression="tight" Label="tight" Title="Tight" Unit="i" Internal="tight" Type="F" Min="0" Max="1"/>
  </Spectators>
  <Transformations NTransformations="1">
    <Transform Name="Normalize" NVariables="10" NTargets="0">
      <Class ClassIndex="0">
        <Variables>
          <Variable VarIndex="0" Min="1.2668600305914879e-02" Max="1.0444951057434082e+00"/>
          <Variable VarIndex="1" Min="3.9568671584129333e-01" Max="8.1192135810852051e-01"/>
          <Variable VarIndex="2" Min="9.5161801576614380e-01" Max="7.0347924232482910e+00"/>
          <Variable VarIndex="3" Min="-2.2519299983978271e+00" Max="1.3257349853515625e+03"/>
          <Variable VarIndex="4" Min="4.2439829558134079e-03" Max="1.0026704072952271e+00"/>
          <Variable VarIndex="5" Min="4.6459099650382996e-01" Max="9.8696023225784302e-01"/>
          <Variable VarIndex="6" Min="-4.5642226934432983e-02" Max="7.9700229689478874e-03"/>
          <Variable VarIndex="7" Min="9.1603523492813110e-01" Max="1.0158894062042236e+00"/>
          <Variable VarIndex="8" Min="7.7924747020006180e-03" Max="1.2960203923285007e-02"/>
          <Variable VarIndex="9" Min="6.1346101574599743e-03" Max="3.7838375568389893e-01"/>
        </Variables>
        <Targets/>
      </Class>
      <Class ClassIndex="1">
        <Variables>
          <Variable VarIndex="0" Min="0.0000000000000000e+00" Max="1.2047244310379028e+00"/>
          <Variable VarIndex="1" Min="4.6212789416313171e-01" Max="8.0808156728744507e-01"/>
          <Variable VarIndex="2" Min="1.6580212116241455e+00" Max="7.6875057220458984e+00"/>
          <Variable VarIndex="3" Min="0.0000000000000000e+00" Max="1.3850000000000000e+03"/>
          <Variable VarIndex="4" Min="1.0413051350042224e-03" Max="1.0000000000000000e+00"/>
          <Variable VarIndex="5" Min="4.1432532668113708e-01" Max="9.8206174373626709e-01"/>
          <Variable VarIndex="6" Min="-2.4853030219674110e-02" Max="7.9903677105903625e-03"/>
          <Variable VarIndex="7" Min="9.1622364521026611e-01" Max="1.0073435306549072e+00"/>
          <Variable VarIndex="8" Min="7.3763485997915268e-03" Max="1.2997530400753021e-02"/>
          <Variable VarIndex="9" Min="4.6809399500489235e-03" Max="3.7076404690742493e-01"/>
        </Variables>
        <Targets/>
      </Class>
      <Class ClassIndex="2">
        <Variables>
          <Variable VarIndex="0" Min="0.0000000000000000e+00" Max="1.2047244310379028e+00"/>
          <Variable VarIndex="1" Min="3.9568671584129333e-01" Max="8.1192135810852051e-01"/>
          <Variable VarIndex="2" Min="9.5161801576614380e-01" Max="7.6875057220458984e+00"/>
          <Variable VarIndex="3" Min="-2.2519299983978271e+00" Max="1.3850000000000000e+03"/>
          <Variable VarIndex="4" Min="1.0413051350042224e-03" Max="1.0026704072952271e+00"/>
          <Variable VarIndex="5" Min="4.1432532668113708e-01" Max="9.8696023225784302e-01"/>
          <Variable VarIndex="6" Min="-4.5642226934432983e-02" Max="7.9903677105903625e-03"/>
          <Variable VarIndex="7" Min="9.1603523492813110e-01" Max="1.0158894062042236e+00"/>
          <Variable VarIndex="8" Min="7.3763485997915268e-03" Max="1.2997530400753021e-02"/>
          <Variable VarIndex="9" Min="4.6809399500489235e-03" Max="3.7838375568389893e-01"/>
        </Variables>
        <Targets/>
      </Class>
    </Transform>
  </Transformations>
  <MVAPdfs/>
  <Weights>
    <Layout NLayers="3">
      <Layer Index="0" NNeurons="11">
        <Neuron NSynapses="13">
          -7.6088763640451085e-01 2.9705761729574776e+00 7.6001390693850612e-01 1.2419473264915823e+00 -1.5676962990599967e+00 5.5715352670382257e-01 -3.5244445329504975e-01 2.3257168138441480e+00 -1.8907675311783720e+00 -8.4014228322354112e-01 -1.0978503558891095e-01 -4.2097513044310059e-01 -1.1071773671939633e+00 
        </Neuron>
        <Neuron NSynapses="13">
          -3.6953452017254951e-01 -9.8420736649176754e-01 5.2114655404533772e-01 -4.9043466761144600e-01 9.0585641545880158e-01 -2.7712489013601643e-01 1.3507516796654397e+00 -4.0300619697835599e-01 -2.6487902685670361e-01 9.1371004672711797e-01 1.2660423909300219e-02 -1.1694779373773803e+00 1.0337686963884257e-01 
        </Neuron>
        <Neuron NSynapses="13">
          1.1111670175936912e+00 -7.3317945008300200e-01 -1.8109793370260778e+00 3.9508420041749509e-01 3.8765947788889277e-01 1.8273086937653042e+00 -2.6159027526335743e-01 -3.0650535728863570e-01 1.9322855355207821e-01 -1.1086338461720598e-01 2.9418294132743106e-01 1.7450823200203873e+00 -1.3220529312922671e+00 
        </Neuron>
        <Neuron NSynapses="13">
          4.2691469085057637e-01 5.7367556197061298e-01 9.5863409497994545e-01 2.1502755906261011e+00 4.1110351478862506e-01 2.7403707964703060e-02 -1.0924839134014395e+00 -1.2186838590111690e-01 -1.1972458363393597e-01 1.5409958612957351e+00 2.0691497241728758e+00 1.5325108408996142e+00 8.7853397801984179e-01 
        </Neuron>
        <Neuron NSynapses="13">
          -8.1701094720576539e-01 1.4248605180311569e+00 -1.5906944212739980e+00 -1.9977433596535635e-01 -1.4514563050030698e+00 -6.0614915186574803e-01 7.0095700196887722e-01 1.2028713945669822e+00 -1.7934528333284638e+00 -9.7381205289542819e-02 -8.3104703891940787e-02 7.2060571880992830e-01 1.7408707055213433e+00 
        </Neuron>
        <Neuron NSynapses="13">
          3.6291805485047673e-01 4.8363485935449030e-01 -1.0820158153036719e+00 1.1358741777547052e-01 -1.1659522224491937e-02 -1.7142463706793818e+00 -1.8269644457536365e+00 1.3227900845243596e+00 6.9987039850988819e-01 -1.0433650676651676e+00 8.8384160138331419e-02 -1.9024450048303765e+00 -8.5221596210067430e-01 
        </Neuron>
        <Neuron NSynapses="13">
          1.1722019360441609e+00 1.0245917974427898e-01 1.7108278406596096e+00 -7.8324593264873468e-02 8.7303957049115966e-01 1.3951472761980590e+00 -7.7577601967980847e-01 3.0020434555742298e-01 9.9377070259122402e-01 -1.0595973589816796e+00 -2.1601686048075644e-01 -1.6719726885088171e+00 1.5123911357772876e-01 
        </Neuron>
        <Neuron NSynapses="13">
          -2.1028677194413661e-02 2.6318426571212628e-01 -1.3201265999010738e+00 -3.5159321340437344e-01 1.7399933540366184e+00 -2.7478376095295660e+00 -2.1825080454671664e+00 -5.6869212558609961e-01 4.2657934095340161e-01 -1.3242862309340351e+00 -3.2245188971644816e+00 6.8989504304002713e-01 1.5217327585028251e+00 
        </Neuron>
        <Neuron NSynapses="13">
          -6.7256305604117939e-01 -3.2057835873160323e-01 -8.6255892338779661e-01 -8.5193802704340960e-01 1.1120095092478053e+00 8.8455822120429795e-01 -1.1313916614992476e+00 -1.5615089605566923e-01 -1.8192281919486544e-01 1.6216661283065578e-01 -2.8720825326955662e-01 1.8260608068819155e+00 4.1524966985960449e-01 
        </Neuron>
        <Neuron NSynapses="13">
          -8.7392066410239311e-01 6.3890335288536682e-01 -7.8418603964310885e-01 -1.1576201198269698e+00 -3.9797680412771685e-01 -1.9885321747305424e+00 2.1080664743524071e+00 -2.3821925292065652e-01 1.0180304525707815e+00 1.8238731551088816e-01 -3.0455610324575910e-01 -1.8034152771631702e+00 1.2611285544527111e+00 
        </Neuron>
        <Neuron NSynapses="13">
          8.1071261231756353e-01 -1.1529587363631779e+00 4.6628749538563286e-01 -2.4259247244546573e+00 1.6877823550152327e+00 1.3725946203880475e+00 1.6443058524804677e+00 -1.5987570884422988e+00 3.1894048198371383e-01 1.1262525854550876e+00 1.4183167360270268e+00 2.1227793176985948e-01 -1.0042105042281149e+00 
        </Neuron>
      </Layer>
      <Layer Index="1" NNeurons="14">
        <Neuron NSynapses="1">
          -5.1872162128723205e-02 
        </Neuron>
        <Neuron NSynapses="1">
          -4.2892007759291151e-01 
        </Neuron>
        <Neuron NSynapses="1">
          -4.0947992612826757e-02 
        </Neuron>
        <Neuron NSynapses="1">
          1.5553628246994430e-01 
        </Neuron>
        <Neuron NSynapses="1">
          -3.2506995252911364e-01 
        </Neuron>
        <Neuron NSynapses="1">
          -2.3545601107618058e-01 
        </Neuron>
        <Neuron NSynapses="1">
          -1.4014261595774083e-01 
        </Neuron>
        <Neuron NSynapses="1">
          3.0199433694579186e-01 
        </Neuron>
        <Neuron NSynapses="1">
          2.8538418809658139e-01 
        </Neuron>
        <Neuron NSynapses="1">
          2.6009178579091252e-01 
        </Neuron>
        <Neuron NSynapses="1">
          -3.7376259410901980e-01 
        </Neuron>
        <Neuron NSynapses="1">
          4.5689771821648710e-03 
        </Neuron>
        <Neuron NSynapses="1">
          -1.1554988977624799e-02 
        </Neuron>
        <Neuron NSynapses="1">
          7.5497913794636917e-01 
        </Neuron>
      </Layer>
      <Layer Index="2" NNeurons="1">
        <Neuron NSynapses="0"/>
      </Layer>
    </Layout>
  </Weights>
</MethodSetup>
