<?xml version="1.0"?>
<MethodSetup Method="MLP::MLP_N3.pt40_eta1.15_conv2">
  <GeneralInfo>
    <Info name="TMVA Release" value="4.1.0 [262400]"/>
    <Info name="ROOT Release" value="5.28/00 [334848]"/>
    <Info name="Creator" value="jsaxon"/>
    <Info name="Date" value="Sat Nov 19 00:32:10 2011"/>
    <Info name="Host" value="Linux lxbuild148.cern.ch 2.6.18-194.26.1.el5 #1 SMP Wed Nov 10 09:45:46 CET 2010 x86_64 x86_64 x86_64 GNU/Linux"/>
    <Info name="Dir" value="/home/jsaxon/NeuralNetworks/tmva_fudge9"/>
    <Info name="Training events" value="10000"/>
    <Info name="TrainingTime" value="470.981"/>
    <Info name="AnalysisType" value="Classification"/>
  </GeneralInfo>
  <Options>
    <Option name="NCycles" modified="Yes">2000</Option>
    <Option name="HiddenLayers" modified="Yes">N+3</Option>
    <Option name="NeuronType" modified="Yes">tanh</Option>
    <Option name="RandomSeed" modified="No">1</Option>
    <Option name="EstimatorType" modified="No">MSE</Option>
    <Option name="NeuronInputType" modified="No">sum</Option>
    <Option name="V" modified="No">False</Option>
    <Option name="VerbosityLevel" modified="No">Default</Option>
    <Option name="VarTransform" modified="Yes">N</Option>
    <Option name="H" modified="No">False</Option>
    <Option name="CreateMVAPdfs" modified="No">False</Option>
    <Option name="IgnoreNegWeightsInTraining" modified="No">False</Option>
    <Option name="TrainingMethod" modified="No">BP</Option>
    <Option name="LearningRate" modified="No">2.000000e-02</Option>
    <Option name="DecayRate" modified="No">1.000000e-02</Option>
    <Option name="TestRate" modified="Yes">5</Option>
    <Option name="EpochMonitoring" modified="No">False</Option>
    <Option name="Sampling" modified="No">1.000000e+00</Option>
    <Option name="SamplingEpoch" modified="No">1.000000e+00</Option>
    <Option name="SamplingImportance" modified="No">1.000000e+00</Option>
    <Option name="SamplingTraining" modified="No">True</Option>
    <Option name="SamplingTesting" modified="No">False</Option>
    <Option name="ResetStep" modified="No">50</Option>
    <Option name="Tau" modified="No">3.000000e+00</Option>
    <Option name="BPMode" modified="No">sequential</Option>
    <Option name="BatchSize" modified="No">-1</Option>
    <Option name="ConvergenceImprove" modified="No">1.000000e-30</Option>
    <Option name="ConvergenceTests" modified="No">-1</Option>
    <Option name="UseRegulator" modified="Yes">False</Option>
    <Option name="UpdateLimit" modified="No">10</Option>
    <Option name="CalculateErrors" modified="No">False</Option>
  </Options>
  <Variables NVar="10">
    <Variable VarIndex="0" Expression="fside" Label="fside" Title="fside" Unit="" Internal="fside" Type="D" Min="0" Max="1.27333"/>
    <Variable VarIndex="1" Expression="w1" Label="w1" Title="w1" Unit="" Internal="w1" Type="D" Min="0.225002" Max="0.805862"/>
    <Variable VarIndex="2" Expression="wtot" Label="wtot" Title="wtot" Unit="" Internal="wtot" Type="D" Min="0.146385" Max="9.02108"/>
    <Variable VarIndex="3" Expression="deltae" Label="deltae" Title="deltae" Unit="" Internal="deltae" Type="D" Min="-1.12484" Max="1713.86"/>
    <Variable VarIndex="4" Expression="eratio" Label="eratio" Title="eratio" Unit="" Internal="eratio" Type="D" Min="0.00384502" Max="1.00009"/>
    <Variable VarIndex="5" Expression="rphi" Label="rphi" Title="rphi" Unit="" Internal="rphi" Type="D" Min="0.410444" Max="0.984869"/>
    <Variable VarIndex="6" Expression="rhad" Label="rhad" Title="rhad" Unit="" Internal="rhad" Type="D" Min="-0.0270758" Max="0.00999152"/>
    <Variable VarIndex="7" Expression="reta" Label="reta" Title="reta" Unit="" Internal="reta" Type="D" Min="0.925015" Max="1.01853"/>
    <Variable VarIndex="8" Expression="weta2" Label="weta2" Title="weta2" Unit="" Internal="weta2" Type="D" Min="0.00771094" Max="0.0129688"/>
    <Variable VarIndex="9" Expression="f1" Label="f1" Title="f1" Unit="" Internal="f1" Type="D" Min="0.00241317" Max="0.394917"/>
  </Variables>
  <Spectators NSpec="4">
    <Spectator SpecIndex="0" Expression="pt" Label="pt" Title="P_{T} [GeV]" Unit="D" Internal="pt" Type="F" Min="25000.1" Max="39999.5"/>
    <Spectator SpecIndex="1" Expression="etas2" Label="etas2" Title="etas2" Unit="D" Internal="etas2" Type="F" Min="-1.15" Max="1.14993"/>
    <Spectator SpecIndex="2" Expression="convFlag" Label="convFlag" Title="convFlag" Unit="i" Internal="convFlag" Type="F" Min="2" Max="12"/>
    <Spectator SpecIndex="3" Expression="tight" Label="tight" Title="Tight" Unit="i" Internal="tight" Type="F" Min="0" Max="1"/>
  </Spectators>
  <Transformations NTransformations="1">
    <Transform Name="Normalize" NVariables="10" NTargets="0">
      <Class ClassIndex="0">
        <Variables>
          <Variable VarIndex="0" Min="1.6992056369781494e-01" Max="9.9289745092391968e-01"/>
          <Variable VarIndex="1" Min="5.3133291006088257e-01" Max="8.0241268873214722e-01"/>
          <Variable VarIndex="2" Min="1.3832402229309082e+00" Max="5.1639270782470703e+00"/>
          <Variable VarIndex="3" Min="-1.1248400211334229e+00" Max="1.7138635253906250e+03"/>
          <Variable VarIndex="4" Min="1.4418972656130791e-02" Max="1.0000860691070557e+00"/>
          <Variable VarIndex="5" Min="4.2946335673332214e-01" Max="9.7777003049850464e-01"/>
          <Variable VarIndex="6" Min="-1.9088709726929665e-02" Max="9.9915200844407082e-03"/>
          <Variable VarIndex="7" Min="9.2502653598785400e-01" Max="1.0185283422470093e+00"/>
          <Variable VarIndex="8" Min="8.3438213914632797e-03" Max="1.2843741104006767e-02"/>
          <Variable VarIndex="9" Min="1.4122067950665951e-02" Max="3.7462577223777771e-01"/>
        </Variables>
        <Targets/>
      </Class>
      <Class ClassIndex="1">
        <Variables>
          <Variable VarIndex="0" Min="0.0000000000000000e+00" Max="1.2733274698257446e+00"/>
          <Variable VarIndex="1" Min="2.2500205039978027e-01" Max="8.0586189031600952e-01"/>
          <Variable VarIndex="2" Min="1.4638501405715942e-01" Max="9.0210819244384766e+00"/>
          <Variable VarIndex="3" Min="0.0000000000000000e+00" Max="1.2150000000000000e+03"/>
          <Variable VarIndex="4" Min="3.8450162392109632e-03" Max="1.0000000000000000e+00"/>
          <Variable VarIndex="5" Min="4.1044437885284424e-01" Max="9.8486888408660889e-01"/>
          <Variable VarIndex="6" Min="-2.7075761929154396e-02" Max="9.9164666607975960e-03"/>
          <Variable VarIndex="7" Min="9.2501467466354370e-01" Max="9.9418401718139648e-01"/>
          <Variable VarIndex="8" Min="7.7109397388994694e-03" Max="1.2968810275197029e-02"/>
          <Variable VarIndex="9" Min="2.4131655227392912e-03" Max="3.9491730928421021e-01"/>
        </Variables>
        <Targets/>
      </Class>
      <Class ClassIndex="2">
        <Variables>
          <Variable VarIndex="0" Min="0.0000000000000000e+00" Max="1.2733274698257446e+00"/>
          <Variable VarIndex="1" Min="2.2500205039978027e-01" Max="8.0586189031600952e-01"/>
          <Variable VarIndex="2" Min="1.4638501405715942e-01" Max="9.0210819244384766e+00"/>
          <Variable VarIndex="3" Min="-1.1248400211334229e+00" Max="1.7138635253906250e+03"/>
          <Variable VarIndex="4" Min="3.8450162392109632e-03" Max="1.0000860691070557e+00"/>
          <Variable VarIndex="5" Min="4.1044437885284424e-01" Max="9.8486888408660889e-01"/>
          <Variable VarIndex="6" Min="-2.7075761929154396e-02" Max="9.9915200844407082e-03"/>
          <Variable VarIndex="7" Min="9.2501467466354370e-01" Max="1.0185283422470093e+00"/>
          <Variable VarIndex="8" Min="7.7109397388994694e-03" Max="1.2968810275197029e-02"/>
          <Variable VarIndex="9" Min="2.4131655227392912e-03" Max="3.9491730928421021e-01"/>
        </Variables>
        <Targets/>
      </Class>
    </Transform>
  </Transformations>
  <MVAPdfs/>
  <Weights>
    <Layout NLayers="3">
      <Layer Index="0" NNeurons="11">
        <Neuron NSynapses="13">
          -1.0330085102496505e+00 3.4607840513690791e+00 1.1604875730005642e+00 1.1156782378492442e+00 -3.1849379804717173e+00 -7.9190271293535475e-01 -8.4056144956389622e-01 2.5748616728419038e+00 -1.2748922970362886e+00 -1.3353788588848916e+00 -1.2908996678855655e+00 -7.6782521754891642e-01 -2.1681496388370975e+00 
        </Neuron>
        <Neuron NSynapses="13">
          -3.1349458632173804e-01 4.6008341569087013e-01 9.3456725679195840e-01 -1.2273502559957417e-01 1.5123089432469117e+00 3.6417762554193212e-01 1.3146819594641705e+00 -8.6818958565165893e-01 -4.9506935606427221e-01 1.1535108006947856e-01 2.7447035705372418e-02 -9.6234357210006949e-01 -7.8342913302254913e-01 
        </Neuron>
        <Neuron NSynapses="13">
          1.1834362973785830e+00 -8.2063381681087000e-01 -1.8622185570764029e+00 1.4688614964163277e-01 7.8645603092607352e-01 2.5520333092620211e+00 -3.1804728779997576e-01 -3.5135381524100978e-01 1.0141031175429198e-01 -2.6547890498088250e-01 -1.2202713165055221e+00 1.3677448371009542e+00 -2.1704351885853050e+00 
        </Neuron>
        <Neuron NSynapses="13">
          2.9523590695937385e-01 3.6347331338535865e-01 9.7551390338064548e-01 2.2504896045625538e+00 1.2987466105759728e+00 -5.3547413896483942e-01 -1.7236782879614785e+00 -5.9987210684776116e-01 -5.4814980116155800e-02 1.6841691486557102e+00 1.4765305511833897e+00 4.5328900182689080e-01 2.1064122847229174e+00 
        </Neuron>
        <Neuron NSynapses="13">
          -7.5715141995007396e-01 1.3845617195854345e+00 -1.3697190163017907e+00 -3.1483393833803364e-01 -1.4823349485907553e+00 -9.4044614351814859e-01 1.3127592524431029e+00 7.6001292540792753e-01 -1.6109424770635468e+00 -1.1747319827368871e-01 -9.5597199820078715e-01 1.6957542367824059e+00 2.1590980167577567e+00 
        </Neuron>
        <Neuron NSynapses="13">
          -3.1241959205717523e-01 3.0586874313248569e-01 -3.7416007017723119e-01 -6.2037731244016993e-02 -1.0117591792265987e-01 -6.4719111963962372e-01 -1.2853664145601862e+00 -2.1244522055705597e-01 2.6878531729667549e-01 2.9659321878753897e-01 -2.9968774803552434e-01 -1.3161963832985268e+00 1.8772520273948737e-01 
        </Neuron>
        <Neuron NSynapses="13">
          1.5580842939686990e+00 7.4635174473293253e-01 1.3724988655716428e+00 5.7492644094690604e-01 1.1367779472411477e+00 -3.2288164375107516e-02 -7.6101858662707822e-01 1.3703688691603373e+00 7.1973373559382992e-01 -1.2555966500092326e+00 -1.3711697428947143e+00 -1.8200935186639731e+00 7.5088716812925865e-02 
        </Neuron>
        <Neuron NSynapses="13">
          -6.9444763771414209e-01 1.6576093234308249e+00 -1.2336905407381100e+00 -1.6622482823998366e-01 3.7821592550625488e-01 -2.9286862574592605e+00 -1.7260506128182755e+00 -1.8073641903855344e+00 2.6525752025412386e-01 -9.1794907386107449e-01 -1.5813379030292649e+00 4.2551777403215063e-01 1.9164769854619756e+00 
        </Neuron>
        <Neuron NSynapses="13">
          -3.8783201221015789e-01 -8.9275713572375937e-01 -9.0422695849608825e-01 -8.6222953822050108e-01 -4.2445280011312975e-01 2.1164365368315945e+00 -1.7952861982174073e+00 4.8803535741423287e-01 2.5516596865477581e-01 2.2681116769891771e-01 -1.1700607462159316e+00 1.4231582401156475e+00 3.4622192481025590e-02 
        </Neuron>
        <Neuron NSynapses="13">
          -4.6648455479247297e-01 1.3384780097205184e+00 -7.3099969081523042e-01 -1.3992184586287826e+00 6.3495513003019965e-01 -1.3863982515771791e+00 1.7679846375641375e+00 -1.0792014471326836e+00 8.6629427431352535e-01 -6.6370337965737036e-01 2.1807710600847799e-01 -2.1191240003455465e+00 2.2865995627029343e+00 
        </Neuron>
        <Neuron NSynapses="13">
          5.5536213269103374e-01 -1.2097269283449683e+00 7.9208748329239709e-01 -1.6277728813059078e+00 -1.7629982299298003e-01 3.8613080810745243e-01 1.8988061740743623e+00 -1.3530750052662388e+00 4.3034914431496796e-01 1.2201431349108831e+00 1.5826328148912692e+00 7.7532011438540127e-01 -1.2884452622768379e+00 
        </Neuron>
      </Layer>
      <Layer Index="1" NNeurons="14">
        <Neuron NSynapses="1">
          -4.0515150026632404e-02 
        </Neuron>
        <Neuron NSynapses="1">
          -3.2569171584895712e-01 
        </Neuron>
        <Neuron NSynapses="1">
          2.1474358925172815e-01 
        </Neuron>
        <Neuron NSynapses="1">
          8.1547212551883030e-01 
        </Neuron>
        <Neuron NSynapses="1">
          -2.8793727803544417e-01 
        </Neuron>
        <Neuron NSynapses="1">
          -1.6784374070305463e-01 
        </Neuron>
        <Neuron NSynapses="1">
          -1.8598738701777978e-01 
        </Neuron>
        <Neuron NSynapses="1">
          -2.9312844571372959e-01 
        </Neuron>
        <Neuron NSynapses="1">
          8.7795258627118955e-02 
        </Neuron>
        <Neuron NSynapses="1">
          -5.6379812363014044e-02 
        </Neuron>
        <Neuron NSynapses="1">
          -8.5440602883382233e-02 
        </Neuron>
        <Neuron NSynapses="1">
          -8.0352710188411183e-02 
        </Neuron>
        <Neuron NSynapses="1">
          2.4954343818211133e-01 
        </Neuron>
        <Neuron NSynapses="1">
          1.0682446020878757e+00 
        </Neuron>
      </Layer>
      <Layer Index="2" NNeurons="1">
        <Neuron NSynapses="0"/>
      </Layer>
    </Layout>
  </Weights>
</MethodSetup>
