<?xml version="1.0"?>
<MethodSetup Method="MLP::MLP_N3.pt40_eta2.01_conv1">
  <GeneralInfo>
    <Info name="TMVA Release" value="4.1.0 [262400]"/>
    <Info name="ROOT Release" value="5.28/00 [334848]"/>
    <Info name="Creator" value="jsaxon"/>
    <Info name="Date" value="Sat Nov 19 01:15:29 2011"/>
    <Info name="Host" value="Linux lxbuild148.cern.ch 2.6.18-194.26.1.el5 #1 SMP Wed Nov 10 09:45:46 CET 2010 x86_64 x86_64 x86_64 GNU/Linux"/>
    <Info name="Dir" value="/home/jsaxon/NeuralNetworks/tmva_fudge9"/>
    <Info name="Training events" value="9444"/>
    <Info name="TrainingTime" value="575.444"/>
    <Info name="AnalysisType" value="Classification"/>
  </GeneralInfo>
  <Options>
    <Option name="NCycles" modified="Yes">2000</Option>
    <Option name="HiddenLayers" modified="Yes">N+3</Option>
    <Option name="NeuronType" modified="Yes">tanh</Option>
    <Option name="RandomSeed" modified="No">1</Option>
    <Option name="EstimatorType" modified="No">MSE</Option>
    <Option name="NeuronInputType" modified="No">sum</Option>
    <Option name="V" modified="No">False</Option>
    <Option name="VerbosityLevel" modified="No">Default</Option>
    <Option name="VarTransform" modified="Yes">N</Option>
    <Option name="H" modified="No">False</Option>
    <Option name="CreateMVAPdfs" modified="No">False</Option>
    <Option name="IgnoreNegWeightsInTraining" modified="No">False</Option>
    <Option name="TrainingMethod" modified="No">BP</Option>
    <Option name="LearningRate" modified="No">2.000000e-02</Option>
    <Option name="DecayRate" modified="No">1.000000e-02</Option>
    <Option name="TestRate" modified="Yes">5</Option>
    <Option name="EpochMonitoring" modified="No">False</Option>
    <Option name="Sampling" modified="No">1.000000e+00</Option>
    <Option name="SamplingEpoch" modified="No">1.000000e+00</Option>
    <Option name="SamplingImportance" modified="No">1.000000e+00</Option>
    <Option name="SamplingTraining" modified="No">True</Option>
    <Option name="SamplingTesting" modified="No">False</Option>
    <Option name="ResetStep" modified="No">50</Option>
    <Option name="Tau" modified="No">3.000000e+00</Option>
    <Option name="BPMode" modified="No">sequential</Option>
    <Option name="BatchSize" modified="No">-1</Option>
    <Option name="ConvergenceImprove" modified="No">1.000000e-30</Option>
    <Option name="ConvergenceTests" modified="No">-1</Option>
    <Option name="UseRegulator" modified="Yes">False</Option>
    <Option name="UpdateLimit" modified="No">10</Option>
    <Option name="CalculateErrors" modified="No">False</Option>
  </Options>
  <Variables NVar="10">
    <Variable VarIndex="0" Expression="fside" Label="fside" Title="fside" Unit="" Internal="fside" Type="D" Min="0.109163" Max="1.35903"/>
    <Variable VarIndex="1" Expression="w1" Label="w1" Title="w1" Unit="" Internal="w1" Type="D" Min="0.423676" Max="0.814552"/>
    <Variable VarIndex="2" Expression="wtot" Label="wtot" Title="wtot" Unit="" Internal="wtot" Type="D" Min="0.534625" Max="13.6385"/>
    <Variable VarIndex="3" Expression="deltae" Label="deltae" Title="deltae" Unit="" Internal="deltae" Type="D" Min="-397" Max="10430.6"/>
    <Variable VarIndex="4" Expression="eratio" Label="eratio" Title="eratio" Unit="" Internal="eratio" Type="D" Min="0.00157631" Max="1.00094"/>
    <Variable VarIndex="5" Expression="rphi" Label="rphi" Title="rphi" Unit="" Internal="rphi" Type="D" Min="0.423256" Max="0.975035"/>
    <Variable VarIndex="6" Expression="rhad" Label="rhad" Title="rhad" Unit="" Internal="rhad" Type="D" Min="-0.0277244" Max="0.014994"/>
    <Variable VarIndex="7" Expression="reta" Label="reta" Title="reta" Unit="" Internal="reta" Type="D" Min="0.920023" Max="0.977696"/>
    <Variable VarIndex="8" Expression="weta2" Label="weta2" Title="weta2" Unit="" Internal="weta2" Type="D" Min="0.00561118" Max="0.0129822"/>
    <Variable VarIndex="9" Expression="f1" Label="f1" Title="f1" Unit="" Internal="f1" Type="D" Min="0.00145327" Max="0.483629"/>
  </Variables>
  <Spectators NSpec="4">
    <Spectator SpecIndex="0" Expression="pt" Label="pt" Title="P_{T} [GeV]" Unit="D" Internal="pt" Type="F" Min="25000.2" Max="39998.3"/>
    <Spectator SpecIndex="1" Expression="etas2" Label="etas2" Title="etas2" Unit="D" Internal="etas2" Type="F" Min="-2.0099" Max="2.00999"/>
    <Spectator SpecIndex="2" Expression="convFlag" Label="convFlag" Title="convFlag" Unit="i" Internal="convFlag" Type="F" Min="11" Max="11"/>
    <Spectator SpecIndex="3" Expression="tight" Label="tight" Title="Tight" Unit="i" Internal="tight" Type="F" Min="0" Max="1"/>
  </Spectators>
  <Transformations NTransformations="1">
    <Transform Name="Normalize" NVariables="10" NTargets="0">
      <Class ClassIndex="0">
        <Variables>
          <Variable VarIndex="0" Min="1.1850073933601379e-01" Max="1.1729167699813843e+00"/>
          <Variable VarIndex="1" Min="4.2367643117904663e-01" Max="8.0112284421920776e-01"/>
          <Variable VarIndex="2" Min="5.3462505340576172e-01" Max="9.3156957626342773e+00"/>
          <Variable VarIndex="3" Min="-4.0452388763427734e+01" Max="1.0430553710937500e+04"/>
          <Variable VarIndex="4" Min="2.7826596051454544e-03" Max="1.0009382963180542e+00"/>
          <Variable VarIndex="5" Min="7.3979663848876953e-01" Max="9.7503459453582764e-01"/>
          <Variable VarIndex="6" Min="-2.7724400162696838e-02" Max="1.4925598166882992e-02"/>
          <Variable VarIndex="7" Min="9.2013472318649292e-01" Max="9.7769570350646973e-01"/>
          <Variable VarIndex="8" Min="8.5675083100795746e-03" Max="1.2927185744047165e-02"/>
          <Variable VarIndex="9" Min="1.4532746281474829e-03" Max="4.6530792117118835e-01"/>
        </Variables>
        <Targets/>
      </Class>
      <Class ClassIndex="1">
        <Variables>
          <Variable VarIndex="0" Min="1.0916308313608170e-01" Max="1.3590269088745117e+00"/>
          <Variable VarIndex="1" Min="4.6590080857276917e-01" Max="8.1455188989639282e-01"/>
          <Variable VarIndex="2" Min="1.2213802337646484e+00" Max="1.3638528823852539e+01"/>
          <Variable VarIndex="3" Min="-3.9700000000000000e+02" Max="6.5090000000000000e+03"/>
          <Variable VarIndex="4" Min="1.5763142146170139e-03" Max="1.0000000000000000e+00"/>
          <Variable VarIndex="5" Min="4.2325624823570251e-01" Max="9.7424298524856567e-01"/>
          <Variable VarIndex="6" Min="-2.0660571753978729e-02" Max="1.4994008466601372e-02"/>
          <Variable VarIndex="7" Min="9.2002296447753906e-01" Max="9.6542376279830933e-01"/>
          <Variable VarIndex="8" Min="5.6111789308488369e-03" Max="1.2982198968529701e-02"/>
          <Variable VarIndex="9" Min="8.8068740442395210e-03" Max="4.8362904787063599e-01"/>
        </Variables>
        <Targets/>
      </Class>
      <Class ClassIndex="2">
        <Variables>
          <Variable VarIndex="0" Min="1.0916308313608170e-01" Max="1.3590269088745117e+00"/>
          <Variable VarIndex="1" Min="4.2367643117904663e-01" Max="8.1455188989639282e-01"/>
          <Variable VarIndex="2" Min="5.3462505340576172e-01" Max="1.3638528823852539e+01"/>
          <Variable VarIndex="3" Min="-3.9700000000000000e+02" Max="1.0430553710937500e+04"/>
          <Variable VarIndex="4" Min="1.5763142146170139e-03" Max="1.0009382963180542e+00"/>
          <Variable VarIndex="5" Min="4.2325624823570251e-01" Max="9.7503459453582764e-01"/>
          <Variable VarIndex="6" Min="-2.7724400162696838e-02" Max="1.4994008466601372e-02"/>
          <Variable VarIndex="7" Min="9.2002296447753906e-01" Max="9.7769570350646973e-01"/>
          <Variable VarIndex="8" Min="5.6111789308488369e-03" Max="1.2982198968529701e-02"/>
          <Variable VarIndex="9" Min="1.4532746281474829e-03" Max="4.8362904787063599e-01"/>
        </Variables>
        <Targets/>
      </Class>
    </Transform>
  </Transformations>
  <MVAPdfs/>
  <Weights>
    <Layout NLayers="3">
      <Layer Index="0" NNeurons="11">
        <Neuron NSynapses="13">
          -3.6018626785695268e-01 2.1695132428363908e+00 9.8292856693405051e-01 1.9998166383922127e+00 -2.2384619073932766e+00 2.4963477850710558e+00 -4.3195415054418573e-01 1.5512015001789801e+00 -1.8745674069416487e+00 6.2034742240670304e-01 -1.6100647151912695e+00 -8.9954779517354155e-01 -3.4033672274591171e+00 
        </Neuron>
        <Neuron NSynapses="13">
          -4.0814905598119744e-01 -9.0757891193756568e-01 8.9798187144029018e-01 -1.5326131673805130e-01 1.6156615022474372e+00 1.1710256570193087e+00 9.9508079203835642e-01 -5.4938574641641003e-01 -3.9216563273358912e-01 2.2755335333093898e+00 2.7492043593318954e-01 -1.1826856436973694e+00 -8.2261582515806486e-01 
        </Neuron>
        <Neuron NSynapses="13">
          1.3758627648573267e+00 -1.4776888303658047e+00 -1.8655552805766666e+00 4.7790841960812513e-01 3.3620726807597462e-01 2.1236249106644265e+00 -9.4412036026740020e-01 -1.1367221202414569e-01 1.9504363612077469e-01 -1.2240940663456399e+00 -1.3341775400238849e+00 1.4196965451844599e+00 -1.9713309233872820e+00 
        </Neuron>
        <Neuron NSynapses="13">
          1.0992597444490360e+00 6.2088059544837138e-01 7.4859707294018807e-01 1.6145477189247985e+00 7.8805086253040046e-01 -3.7056691541787545e+00 -1.2607166861865442e+00 1.2600987123745364e+00 1.0644424102173380e+00 8.1360651570986442e-01 1.7898870695301519e+00 1.1806737133818823e+00 2.9263590028347837e+00 
        </Neuron>
        <Neuron NSynapses="13">
          -1.6916328257648723e+00 1.6854057998463172e+00 -1.7029735785985796e+00 -4.2432357310169827e-01 -9.5762753319177785e-01 -5.9021958279051712e-01 4.4949814788458420e-01 3.5393345487023387e-02 -2.2233316779797776e+00 -1.1367665974570207e-02 -1.0504228300750580e+00 1.7933100692000672e+00 2.3334660713690560e+00 
        </Neuron>
        <Neuron NSynapses="13">
          -1.3261362926616113e-01 3.5621589399687797e-01 -1.4409776420096394e+00 2.8442300193229003e-01 -4.4987843807276090e-01 -4.6544678931175563e+00 -1.3731692287524162e+00 1.0299421968272846e+00 2.0153664699122014e+00 -5.6147992748291464e-01 1.4052752585041253e-01 -6.2485464172851402e-01 1.2813167818989718e-01 
        </Neuron>
        <Neuron NSynapses="13">
          1.1764961824593851e+00 3.5535042572203168e-01 1.5832598101653790e+00 2.0769038788967922e-01 9.7823512589271144e-01 6.1605652324031046e-01 3.2133426806792285e-02 -2.4646472917816678e-01 2.5341913603679486e-02 -3.9700067359516317e-01 -1.5849069618813547e+00 -2.8390872858492777e+00 -9.7301437700319504e-01 
        </Neuron>
        <Neuron NSynapses="13">
          -2.4442050162032156e-01 6.7702683385557139e-01 -1.3820306401254769e+00 -3.9579765549889728e-01 9.4428361995341870e-01 -1.2057844376864031e+00 -1.5523346822462329e+00 -7.5033843527490640e-01 -2.1385018731193631e-01 -5.4273019138578282e-01 -8.5620878075385332e-01 8.7197682259229414e-01 1.5668155727725219e+00 
        </Neuron>
        <Neuron NSynapses="13">
          -8.6625600996513596e-01 1.5531113829111858e+00 -7.0717678823700936e-01 -1.0860019156236200e+00 3.4349746253277698e-02 9.4743693047691679e-01 -1.1519485341854825e+00 1.4505084587398737e-01 2.2356614781918652e-02 1.3129878157576966e+00 -1.6885967464261942e+00 9.5521123816194164e-01 -6.0473514142217399e-01 
        </Neuron>
        <Neuron NSynapses="13">
          -7.4568671222245553e-01 6.1503533882780081e-01 -9.8136513037107664e-01 -1.7323575956442132e+00 1.9494493465127136e-01 -5.1266622625408509e-01 2.5816978196314322e+00 1.5749573324153027e-01 2.6478974444579700e-01 -1.2311660375750098e+00 -5.3330890658239816e-01 -6.8427656306372830e-01 1.4269565073839425e+00 
        </Neuron>
        <Neuron NSynapses="13">
          2.3771838122222530e-01 -1.1095156713265857e+00 7.1771594534674921e-01 -2.0311245144032002e+00 5.0259230308724934e-01 4.3170995512787425e+00 2.3029739643325531e+00 -2.0177330059096392e+00 -5.6936348083197230e-01 2.1035098993188148e+00 1.4504673884153469e+00 2.8267055099348598e-01 -3.0758725999573002e+00 
        </Neuron>
      </Layer>
      <Layer Index="1" NNeurons="14">
        <Neuron NSynapses="1">
          -3.5543514737761794e-02 
        </Neuron>
        <Neuron NSynapses="1">
          2.4052909213611359e-01 
        </Neuron>
        <Neuron NSynapses="1">
          7.4469562472590983e-02 
        </Neuron>
        <Neuron NSynapses="1">
          1.1167392705037109e+00 
        </Neuron>
        <Neuron NSynapses="1">
          8.1927276868127442e-03 
        </Neuron>
        <Neuron NSynapses="1">
          -4.4007324445263907e-01 
        </Neuron>
        <Neuron NSynapses="1">
          -3.7979298137258088e-01 
        </Neuron>
        <Neuron NSynapses="1">
          -4.9998490329915457e-01 
        </Neuron>
        <Neuron NSynapses="1">
          4.3245938862091833e-02 
        </Neuron>
        <Neuron NSynapses="1">
          7.0054942714602986e-01 
        </Neuron>
        <Neuron NSynapses="1">
          1.7290964381714929e-01 
        </Neuron>
        <Neuron NSynapses="1">
          -1.6999425334772725e-01 
        </Neuron>
        <Neuron NSynapses="1">
          2.4591391011562466e-01 
        </Neuron>
        <Neuron NSynapses="1">
          7.7577170211999347e-01 
        </Neuron>
      </Layer>
      <Layer Index="2" NNeurons="1">
        <Neuron NSynapses="0"/>
      </Layer>
    </Layout>
  </Weights>
</MethodSetup>
