<?xml version="1.0"?>
<MethodSetup Method="MLP::MLP_N3.pt40_eta2.01_conv2">
  <GeneralInfo>
    <Info name="TMVA Release" value="4.1.0 [262400]"/>
    <Info name="ROOT Release" value="5.28/00 [334848]"/>
    <Info name="Creator" value="jsaxon"/>
    <Info name="Date" value="Sat Nov 19 01:24:44 2011"/>
    <Info name="Host" value="Linux lxbuild148.cern.ch 2.6.18-194.26.1.el5 #1 SMP Wed Nov 10 09:45:46 CET 2010 x86_64 x86_64 x86_64 GNU/Linux"/>
    <Info name="Dir" value="/home/jsaxon/NeuralNetworks/tmva_fudge9"/>
    <Info name="Training events" value="10000"/>
    <Info name="TrainingTime" value="417.209"/>
    <Info name="AnalysisType" value="Classification"/>
  </GeneralInfo>
  <Options>
    <Option name="NCycles" modified="Yes">2000</Option>
    <Option name="HiddenLayers" modified="Yes">N+3</Option>
    <Option name="NeuronType" modified="Yes">tanh</Option>
    <Option name="RandomSeed" modified="No">1</Option>
    <Option name="EstimatorType" modified="No">MSE</Option>
    <Option name="NeuronInputType" modified="No">sum</Option>
    <Option name="V" modified="No">False</Option>
    <Option name="VerbosityLevel" modified="No">Default</Option>
    <Option name="VarTransform" modified="Yes">N</Option>
    <Option name="H" modified="No">False</Option>
    <Option name="CreateMVAPdfs" modified="No">False</Option>
    <Option name="IgnoreNegWeightsInTraining" modified="No">False</Option>
    <Option name="TrainingMethod" modified="No">BP</Option>
    <Option name="LearningRate" modified="No">2.000000e-02</Option>
    <Option name="DecayRate" modified="No">1.000000e-02</Option>
    <Option name="TestRate" modified="Yes">5</Option>
    <Option name="EpochMonitoring" modified="No">False</Option>
    <Option name="Sampling" modified="No">1.000000e+00</Option>
    <Option name="SamplingEpoch" modified="No">1.000000e+00</Option>
    <Option name="SamplingImportance" modified="No">1.000000e+00</Option>
    <Option name="SamplingTraining" modified="No">True</Option>
    <Option name="SamplingTesting" modified="No">False</Option>
    <Option name="ResetStep" modified="No">50</Option>
    <Option name="Tau" modified="No">3.000000e+00</Option>
    <Option name="BPMode" modified="No">sequential</Option>
    <Option name="BatchSize" modified="No">-1</Option>
    <Option name="ConvergenceImprove" modified="No">1.000000e-30</Option>
    <Option name="ConvergenceTests" modified="No">-1</Option>
    <Option name="UseRegulator" modified="Yes">False</Option>
    <Option name="UpdateLimit" modified="No">10</Option>
    <Option name="CalculateErrors" modified="No">False</Option>
  </Options>
  <Variables NVar="10">
    <Variable VarIndex="0" Expression="fside" Label="fside" Title="fside" Unit="" Internal="fside" Type="D" Min="0.125577" Max="1.19001"/>
    <Variable VarIndex="1" Expression="w1" Label="w1" Title="w1" Unit="" Internal="w1" Type="D" Min="0.466102" Max="0.814986"/>
    <Variable VarIndex="2" Expression="wtot" Label="wtot" Title="wtot" Unit="" Internal="wtot" Type="D" Min="0.314576" Max="4.85672"/>
    <Variable VarIndex="3" Expression="deltae" Label="deltae" Title="deltae" Unit="" Internal="deltae" Type="D" Min="-1142" Max="10430.6"/>
    <Variable VarIndex="4" Expression="eratio" Label="eratio" Title="eratio" Unit="" Internal="eratio" Type="D" Min="4.71409e-05" Max="1.00094"/>
    <Variable VarIndex="5" Expression="rphi" Label="rphi" Title="rphi" Unit="" Internal="rphi" Type="D" Min="0.476967" Max="0.970316"/>
    <Variable VarIndex="6" Expression="rhad" Label="rhad" Title="rhad" Unit="" Internal="rhad" Type="D" Min="-0.0313592" Max="0.0149995"/>
    <Variable VarIndex="7" Expression="reta" Label="reta" Title="reta" Unit="" Internal="reta" Type="D" Min="0.920012" Max="0.981752"/>
    <Variable VarIndex="8" Expression="weta2" Label="weta2" Title="weta2" Unit="" Internal="weta2" Type="D" Min="0.00560729" Max="0.0129836"/>
    <Variable VarIndex="9" Expression="f1" Label="f1" Title="f1" Unit="" Internal="f1" Type="D" Min="0.0134311" Max="0.49478"/>
  </Variables>
  <Spectators NSpec="4">
    <Spectator SpecIndex="0" Expression="pt" Label="pt" Title="P_{T} [GeV]" Unit="D" Internal="pt" Type="F" Min="25000.4" Max="39999"/>
    <Spectator SpecIndex="1" Expression="etas2" Label="etas2" Title="etas2" Unit="D" Internal="etas2" Type="F" Min="-2.00997" Max="2.00998"/>
    <Spectator SpecIndex="2" Expression="convFlag" Label="convFlag" Title="convFlag" Unit="i" Internal="convFlag" Type="F" Min="2" Max="12"/>
    <Spectator SpecIndex="3" Expression="tight" Label="tight" Title="Tight" Unit="i" Internal="tight" Type="F" Min="0" Max="1"/>
  </Spectators>
  <Transformations NTransformations="1">
    <Transform Name="Normalize" NVariables="10" NTargets="0">
      <Class ClassIndex="0">
        <Variables>
          <Variable VarIndex="0" Min="1.2557660043239594e-01" Max="8.7306296825408936e-01"/>
          <Variable VarIndex="1" Min="4.6610224246978760e-01" Max="7.6815044879913330e-01"/>
          <Variable VarIndex="2" Min="3.1457585096359253e-01" Max="3.5421345233917236e+00"/>
          <Variable VarIndex="3" Min="-2.1244946289062500e+02" Max="1.0430558593750000e+04"/>
          <Variable VarIndex="4" Min="7.7793570235371590e-03" Max="1.0009382963180542e+00"/>
          <Variable VarIndex="5" Min="5.3579086065292358e-01" Max="9.6896880865097046e-01"/>
          <Variable VarIndex="6" Min="-3.1359236687421799e-02" Max="1.4999490231275558e-02"/>
          <Variable VarIndex="7" Min="9.2018830776214600e-01" Max="9.8175185918807983e-01"/>
          <Variable VarIndex="8" Min="9.3432692810893059e-03" Max="1.2884479016065598e-02"/>
          <Variable VarIndex="9" Min="1.3431143946945667e-02" Max="4.8903018236160278e-01"/>
        </Variables>
        <Targets/>
      </Class>
      <Class ClassIndex="1">
        <Variables>
          <Variable VarIndex="0" Min="1.4844140410423279e-01" Max="1.1900093555450439e+00"/>
          <Variable VarIndex="1" Min="4.9377059936523438e-01" Max="8.1498593091964722e-01"/>
          <Variable VarIndex="2" Min="9.8493307828903198e-01" Max="4.8567152023315430e+00"/>
          <Variable VarIndex="3" Min="-1.1420000000000000e+03" Max="5.7520000000000000e+03"/>
          <Variable VarIndex="4" Min="4.7140903916442767e-05" Max="1.0000000000000000e+00"/>
          <Variable VarIndex="5" Min="4.7696709632873535e-01" Max="9.7031641006469727e-01"/>
          <Variable VarIndex="6" Min="-2.0500618964433670e-02" Max="1.4997157268226147e-02"/>
          <Variable VarIndex="7" Min="9.2001169919967651e-01" Max="9.7909927368164062e-01"/>
          <Variable VarIndex="8" Min="5.6072901934385300e-03" Max="1.2983607128262520e-02"/>
          <Variable VarIndex="9" Min="3.0658826231956482e-02" Max="4.9477961659431458e-01"/>
        </Variables>
        <Targets/>
      </Class>
      <Class ClassIndex="2">
        <Variables>
          <Variable VarIndex="0" Min="1.2557660043239594e-01" Max="1.1900093555450439e+00"/>
          <Variable VarIndex="1" Min="4.6610224246978760e-01" Max="8.1498593091964722e-01"/>
          <Variable VarIndex="2" Min="3.1457585096359253e-01" Max="4.8567152023315430e+00"/>
          <Variable VarIndex="3" Min="-1.1420000000000000e+03" Max="1.0430558593750000e+04"/>
          <Variable VarIndex="4" Min="4.7140903916442767e-05" Max="1.0009382963180542e+00"/>
          <Variable VarIndex="5" Min="4.7696709632873535e-01" Max="9.7031641006469727e-01"/>
          <Variable VarIndex="6" Min="-3.1359236687421799e-02" Max="1.4999490231275558e-02"/>
          <Variable VarIndex="7" Min="9.2001169919967651e-01" Max="9.8175185918807983e-01"/>
          <Variable VarIndex="8" Min="5.6072901934385300e-03" Max="1.2983607128262520e-02"/>
          <Variable VarIndex="9" Min="1.3431143946945667e-02" Max="4.9477961659431458e-01"/>
        </Variables>
        <Targets/>
      </Class>
    </Transform>
  </Transformations>
  <MVAPdfs/>
  <Weights>
    <Layout NLayers="3">
      <Layer Index="0" NNeurons="11">
        <Neuron NSynapses="13">
          -1.8865882127765254e-01 1.4987182040114295e+00 4.5144545375781925e-01 1.7134118831117897e+00 -1.8000928652168195e+00 -4.8250627008606251e-01 -4.6371651901588157e-01 1.4564101515546906e+00 -1.6184605520103585e+00 6.9905129475835825e-01 -1.0922923794989905e+00 -6.1627004134532959e-01 -3.6360254699134575e+00 
        </Neuron>
        <Neuron NSynapses="13">
          -6.2467219737126023e-01 -1.5207934649036864e-01 7.1736779182870936e-01 -3.5289576057020633e-01 2.2175412675053878e+00 9.2112638302756145e-01 1.3500297570429090e+00 -2.7552040288605811e-01 -8.7537452535205396e-01 1.3488962106960192e+00 5.3495973271614439e-01 -1.4862966453860971e+00 -3.9614543881623621e-01 
        </Neuron>
        <Neuron NSynapses="13">
          1.3228881006522810e+00 -7.6372453754557890e-01 -2.0573015776217209e+00 2.0124268033757894e-01 -2.7066218120958835e-01 3.9641537495133004e+00 -4.9230074337915491e-01 -2.2635985263756817e-01 -9.5518038664569527e-01 -4.0860128670039869e-01 -1.2314372292083942e+00 1.5369877110148076e+00 -2.4911833397215384e+00 
        </Neuron>
        <Neuron NSynapses="13">
          9.1422781846781931e-01 3.7948506481206490e-01 5.7697491499701326e-01 2.1061475385257133e+00 5.7031148809610210e-01 -1.6877829999609633e+00 -1.3755915597342208e+00 7.0092375796917339e-01 1.5224778002837798e+00 1.8636592429628982e+00 1.4698689943392156e+00 1.0785464024929956e+00 2.7903798096206547e+00 
        </Neuron>
        <Neuron NSynapses="13">
          -1.7274589505366507e+00 1.7232405708641803e+00 -1.1970430571187907e+00 -4.6685826806267233e-01 -7.9479692749515518e-01 -1.7170358870068223e+00 1.4848446271403308e+00 -5.5610761155284028e-01 -2.2595042678378494e+00 5.6732750403883569e-01 -8.0634667083902400e-01 1.0914006081120082e+00 -3.9345091345727340e-01 
        </Neuron>
        <Neuron NSynapses="13">
          -4.7353598536700914e-01 1.1592046130219966e+00 -9.8697948287382031e-01 4.0263328964569001e-01 1.2397669015046785e-01 -9.5441548793361031e-01 -1.8517246534900274e+00 9.9550933541021813e-01 8.5546211429573848e-01 -3.9580262025811169e-01 -1.2078255137178451e-01 -6.3755703122301965e-01 1.2127830175375593e+00 
        </Neuron>
        <Neuron NSynapses="13">
          1.3337310425153870e+00 1.3062278064790112e-01 2.0263587783515216e+00 -2.4243044706581848e-01 6.8352171807749118e-01 4.1216995544912144e-01 -8.2753549390697856e-01 1.0531926873091380e-01 -4.2385220655634470e-01 -2.0756488739525700e-01 -1.5779591132136872e+00 -2.4006189486145151e+00 -9.8931431718883533e-01 
        </Neuron>
        <Neuron NSynapses="13">
          -6.9459421898113205e-01 9.1137396168963059e-01 -1.5994388693860928e+00 -3.0556301811086606e-01 1.0181971283482261e+00 -1.2734266840165835e+00 -1.4009890094520092e+00 -1.1445881706158945e+00 8.6419689798287402e-01 -5.6843402492463291e-01 -1.3212373970739872e+00 -1.4715780010763510e-01 2.0682271402220107e+00 
        </Neuron>
        <Neuron NSynapses="13">
          -1.1583892389187740e+00 1.6737939707263729e+00 -1.0040288447218821e+00 -6.4761043525407624e-01 -9.0177928685533382e-01 1.5333343821568126e+00 -1.9859770945454789e+00 2.3910690941561155e-01 1.1427198125058781e-01 9.6519192190289582e-01 -1.7561804691248888e+00 2.2853946589572214e+00 -1.0042385353466312e+00 
        </Neuron>
        <Neuron NSynapses="13">
          -4.1937958236425166e-01 3.2330635294289650e-01 -1.0811468571674896e+00 -1.3870876742111338e+00 2.6843202148395612e-01 -8.9628543348847489e-01 1.6063635616238334e+00 1.6889950943298176e-01 6.3327722278784471e-01 -9.0579279887208120e-01 -9.6012395176996793e-02 -1.6023538353240909e+00 1.1500698990860967e+00 
        </Neuron>
        <Neuron NSynapses="13">
          -2.9585180939202111e-02 -1.8825260819992657e+00 8.9597365796142969e-01 -1.8106230360248483e+00 -3.7670742247532324e-01 1.5626724627863022e+00 1.0728356618668571e+00 -2.0218839342653196e+00 5.0535402002120222e-01 2.4501302257114612e+00 8.7098027948246781e-01 -3.8776449350305398e-01 -2.9716445754662657e-01 
        </Neuron>
      </Layer>
      <Layer Index="1" NNeurons="14">
        <Neuron NSynapses="1">
          -1.2462369617932328e-01 
        </Neuron>
        <Neuron NSynapses="1">
          -1.8432613537151413e-01 
        </Neuron>
        <Neuron NSynapses="1">
          -1.0065304628904664e-01 
        </Neuron>
        <Neuron NSynapses="1">
          1.1594080420558988e+00 
        </Neuron>
        <Neuron NSynapses="1">
          -1.5551545758142532e-01 
        </Neuron>
        <Neuron NSynapses="1">
          -2.7677789073275816e-01 
        </Neuron>
        <Neuron NSynapses="1">
          -3.1453461680174773e-02 
        </Neuron>
        <Neuron NSynapses="1">
          -2.3115234538377494e-01 
        </Neuron>
        <Neuron NSynapses="1">
          2.0956058288402593e-01 
        </Neuron>
        <Neuron NSynapses="1">
          7.2080544701652360e-01 
        </Neuron>
        <Neuron NSynapses="1">
          -1.3550074643670304e-01 
        </Neuron>
        <Neuron NSynapses="1">
          -1.4813145526792887e-01 
        </Neuron>
        <Neuron NSynapses="1">
          3.5555426757468223e-01 
        </Neuron>
        <Neuron NSynapses="1">
          7.1772604944805773e-01 
        </Neuron>
      </Layer>
      <Layer Index="2" NNeurons="1">
        <Neuron NSynapses="0"/>
      </Layer>
    </Layout>
  </Weights>
</MethodSetup>
