<?xml version="1.0"?>
<MethodSetup Method="MLP::MLP_N3.pt60_eta1.81_conv1">
  <GeneralInfo>
    <Info name="TMVA Release" value="4.1.0 [262400]"/>
    <Info name="ROOT Release" value="5.28/00 [334848]"/>
    <Info name="Creator" value="jsaxon"/>
    <Info name="Date" value="Sat Nov 19 00:26:52 2011"/>
    <Info name="Host" value="Linux lxbuild148.cern.ch 2.6.18-194.26.1.el5 #1 SMP Wed Nov 10 09:45:46 CET 2010 x86_64 x86_64 x86_64 GNU/Linux"/>
    <Info name="Dir" value="/home/jsaxon/NeuralNetworks/tmva_fudge9"/>
    <Info name="Training events" value="5764"/>
    <Info name="TrainingTime" value="294.037"/>
    <Info name="AnalysisType" value="Classification"/>
  </GeneralInfo>
  <Options>
    <Option name="NCycles" modified="Yes">2000</Option>
    <Option name="HiddenLayers" modified="Yes">N+3</Option>
    <Option name="NeuronType" modified="Yes">tanh</Option>
    <Option name="RandomSeed" modified="No">1</Option>
    <Option name="EstimatorType" modified="No">MSE</Option>
    <Option name="NeuronInputType" modified="No">sum</Option>
    <Option name="V" modified="No">False</Option>
    <Option name="VerbosityLevel" modified="No">Default</Option>
    <Option name="VarTransform" modified="Yes">N</Option>
    <Option name="H" modified="No">False</Option>
    <Option name="CreateMVAPdfs" modified="No">False</Option>
    <Option name="IgnoreNegWeightsInTraining" modified="No">False</Option>
    <Option name="TrainingMethod" modified="No">BP</Option>
    <Option name="LearningRate" modified="No">2.000000e-02</Option>
    <Option name="DecayRate" modified="No">1.000000e-02</Option>
    <Option name="TestRate" modified="Yes">5</Option>
    <Option name="EpochMonitoring" modified="No">False</Option>
    <Option name="Sampling" modified="No">1.000000e+00</Option>
    <Option name="SamplingEpoch" modified="No">1.000000e+00</Option>
    <Option name="SamplingImportance" modified="No">1.000000e+00</Option>
    <Option name="SamplingTraining" modified="No">True</Option>
    <Option name="SamplingTesting" modified="No">False</Option>
    <Option name="ResetStep" modified="No">50</Option>
    <Option name="Tau" modified="No">3.000000e+00</Option>
    <Option name="BPMode" modified="No">sequential</Option>
    <Option name="BatchSize" modified="No">-1</Option>
    <Option name="ConvergenceImprove" modified="No">1.000000e-30</Option>
    <Option name="ConvergenceTests" modified="No">-1</Option>
    <Option name="UseRegulator" modified="Yes">False</Option>
    <Option name="UpdateLimit" modified="No">10</Option>
    <Option name="CalculateErrors" modified="No">False</Option>
  </Options>
  <Variables NVar="10">
    <Variable VarIndex="0" Expression="fside" Label="fside" Title="fside" Unit="" Internal="fside" Type="D" Min="0.12067" Max="1.21796"/>
    <Variable VarIndex="1" Expression="w1" Label="w1" Title="w1" Unit="" Internal="w1" Type="D" Min="0.485297" Max="0.812254"/>
    <Variable VarIndex="2" Expression="wtot" Label="wtot" Title="wtot" Unit="" Internal="wtot" Type="D" Min="1.44483" Max="9.41543"/>
    <Variable VarIndex="3" Expression="deltae" Label="deltae" Title="deltae" Unit="" Internal="deltae" Type="D" Min="-0.919477" Max="7521"/>
    <Variable VarIndex="4" Expression="eratio" Label="eratio" Title="eratio" Unit="" Internal="eratio" Type="D" Min="0.000469704" Max="1"/>
    <Variable VarIndex="5" Expression="rphi" Label="rphi" Title="rphi" Unit="" Internal="rphi" Type="D" Min="0.510599" Max="0.981889"/>
    <Variable VarIndex="6" Expression="rhad" Label="rhad" Title="rhad" Unit="" Internal="rhad" Type="D" Min="-0.0159214" Max="0.024692"/>
    <Variable VarIndex="7" Expression="reta" Label="reta" Title="reta" Unit="" Internal="reta" Type="D" Min="0.906242" Max="0.994178"/>
    <Variable VarIndex="8" Expression="weta2" Label="weta2" Title="weta2" Unit="" Internal="weta2" Type="D" Min="0.00797854" Max="0.0149398"/>
    <Variable VarIndex="9" Expression="f1" Label="f1" Title="f1" Unit="" Internal="f1" Type="D" Min="0.00380848" Max="0.483302"/>
  </Variables>
  <Spectators NSpec="4">
    <Spectator SpecIndex="0" Expression="pt" Label="pt" Title="P_{T} [GeV]" Unit="D" Internal="pt" Type="F" Min="50003.9" Max="59998.4"/>
    <Spectator SpecIndex="1" Expression="etas2" Label="etas2" Title="etas2" Unit="D" Internal="etas2" Type="F" Min="-1.80971" Max="1.81"/>
    <Spectator SpecIndex="2" Expression="convFlag" Label="convFlag" Title="convFlag" Unit="i" Internal="convFlag" Type="F" Min="11" Max="11"/>
    <Spectator SpecIndex="3" Expression="tight" Label="tight" Title="Tight" Unit="i" Internal="tight" Type="F" Min="0" Max="1"/>
  </Spectators>
  <Transformations NTransformations="1">
    <Transform Name="Normalize" NVariables="10" NTargets="0">
      <Class ClassIndex="0">
        <Variables>
          <Variable VarIndex="0" Min="1.3976399600505829e-01" Max="9.0362870693206787e-01"/>
          <Variable VarIndex="1" Min="4.8529747128486633e-01" Max="7.7128583192825317e-01"/>
          <Variable VarIndex="2" Min="1.4448266029357910e+00" Max="5.1567215919494629e+00"/>
          <Variable VarIndex="3" Min="-9.1947698593139648e-01" Max="4.5190791015625000e+03"/>
          <Variable VarIndex="4" Min="1.8129693344235420e-02" Max="1.0000000000000000e+00"/>
          <Variable VarIndex="5" Min="7.7603405714035034e-01" Max="9.8033010959625244e-01"/>
          <Variable VarIndex="6" Min="-1.5921382233500481e-02" Max="2.3480590432882309e-02"/>
          <Variable VarIndex="7" Min="9.0649300813674927e-01" Max="9.9417757987976074e-01"/>
          <Variable VarIndex="8" Min="8.7250629439949989e-03" Max="1.4452950097620487e-02"/>
          <Variable VarIndex="9" Min="3.8084799889475107e-03" Max="4.5576348900794983e-01"/>
        </Variables>
        <Targets/>
      </Class>
      <Class ClassIndex="1">
        <Variables>
          <Variable VarIndex="0" Min="1.2066980451345444e-01" Max="1.2179555892944336e+00"/>
          <Variable VarIndex="1" Min="5.2915054559707642e-01" Max="8.1225359439849854e-01"/>
          <Variable VarIndex="2" Min="1.5889945030212402e+00" Max="9.4154253005981445e+00"/>
          <Variable VarIndex="3" Min="0.0000000000000000e+00" Max="7.5210000000000000e+03"/>
          <Variable VarIndex="4" Min="4.6970410039648414e-04" Max="1.0000000000000000e+00"/>
          <Variable VarIndex="5" Min="5.1059937477111816e-01" Max="9.8188906908035278e-01"/>
          <Variable VarIndex="6" Min="-1.4006909914314747e-02" Max="2.4692026898264885e-02"/>
          <Variable VarIndex="7" Min="9.0624248981475830e-01" Max="9.7268754243850708e-01"/>
          <Variable VarIndex="8" Min="7.9785361886024475e-03" Max="1.4939782209694386e-02"/>
          <Variable VarIndex="9" Min="2.5270108133554459e-02" Max="4.8330217599868774e-01"/>
        </Variables>
        <Targets/>
      </Class>
      <Class ClassIndex="2">
        <Variables>
          <Variable VarIndex="0" Min="1.2066980451345444e-01" Max="1.2179555892944336e+00"/>
          <Variable VarIndex="1" Min="4.8529747128486633e-01" Max="8.1225359439849854e-01"/>
          <Variable VarIndex="2" Min="1.4448266029357910e+00" Max="9.4154253005981445e+00"/>
          <Variable VarIndex="3" Min="-9.1947698593139648e-01" Max="7.5210000000000000e+03"/>
          <Variable VarIndex="4" Min="4.6970410039648414e-04" Max="1.0000000000000000e+00"/>
          <Variable VarIndex="5" Min="5.1059937477111816e-01" Max="9.8188906908035278e-01"/>
          <Variable VarIndex="6" Min="-1.5921382233500481e-02" Max="2.4692026898264885e-02"/>
          <Variable VarIndex="7" Min="9.0624248981475830e-01" Max="9.9417757987976074e-01"/>
          <Variable VarIndex="8" Min="7.9785361886024475e-03" Max="1.4939782209694386e-02"/>
          <Variable VarIndex="9" Min="3.8084799889475107e-03" Max="4.8330217599868774e-01"/>
        </Variables>
        <Targets/>
      </Class>
    </Transform>
  </Transformations>
  <MVAPdfs/>
  <Weights>
    <Layout NLayers="3">
      <Layer Index="0" NNeurons="11">
        <Neuron NSynapses="13">
          -9.2000528204794429e-01 4.4144035316740196e+00 3.4735636006497385e-03 2.0379717821063408e+00 -2.9346202725860691e+00 -3.7293880747722277e+00 -7.7645702220739465e-01 2.4678192981311855e+00 -1.1820647316861597e+00 -1.6218234869636790e+00 -1.8084173667263701e+00 -4.8373845992713610e-01 -1.8797220430387738e+00 
        </Neuron>
        <Neuron NSynapses="13">
          -7.7014550822420452e-02 -5.1904306668137601e-01 1.0862480420260616e+00 -3.4487525650493583e-01 2.5561281440979653e+00 1.0022557067814055e+00 1.3975713798798697e+00 -2.0909709258342226e+00 -3.3914964171231948e-01 3.5246068446850126e-01 -3.9336291361706538e-01 -1.2023393202834562e+00 -7.6578523771278117e-01 
        </Neuron>
        <Neuron NSynapses="13">
          8.1079669117100062e-01 -1.2612481110192124e+00 -1.7548056296017593e+00 1.4294860191426176e-01 -2.8024402481817862e-01 3.1230580414506309e-01 -3.4256628203225276e-01 -2.4248591148660578e-01 8.0040209683783670e-01 5.3112431980327135e-01 -9.6931153671036896e-01 1.7034925042284939e+00 3.0499637390659740e-01 
        </Neuron>
        <Neuron NSynapses="13">
          9.3719818678730715e-01 7.3269059909944201e-01 6.8144013288584437e-01 1.7801761172436805e+00 7.1940216797430945e-01 -7.1378792731796692e-01 -1.6986265409270185e+00 -1.9086333900826311e-01 -4.1884910362545807e-01 1.9426061783797774e+00 1.8017141104537309e+00 1.4993824272259544e+00 1.6838682421304518e+00 
        </Neuron>
        <Neuron NSynapses="13">
          -1.0866530504062952e+00 2.6864895578827852e+00 -2.2528219451177969e+00 -2.7199635382846060e-01 -1.2081556263634345e+00 -3.0425623943604827e+00 1.5941945692039567e+00 4.0174679184460638e-01 -1.2487721802435665e+00 -5.1894345336293901e-01 -1.3798015428917616e+00 7.4968590077341291e-01 2.4575463018012953e+00 
        </Neuron>
        <Neuron NSynapses="13">
          3.5155499078035324e-01 8.0180364230447321e-01 -2.0556687428035700e+00 3.1509650362917691e-01 -1.2558294894945008e+00 -2.5727170080413186e+00 -1.4046810100236937e+00 1.0732624346737589e+00 1.2473707953414419e+00 1.3770346819442454e+00 4.6542641262133611e-01 -1.8494008569182132e+00 1.0003610818691353e+00 
        </Neuron>
        <Neuron NSynapses="13">
          1.0831872205083588e+00 -2.2007399183654980e-01 8.0331547241228529e-01 3.3255568963657722e-01 4.7905004306965354e-01 9.4862014545201867e-01 -9.1476520238910708e-01 2.3736679182178738e-01 1.3438059950482568e+00 -7.4758966819478123e-01 3.3119505195283788e-03 -1.7420437324720652e+00 -2.7340228152663631e-01 
        </Neuron>
        <Neuron NSynapses="13">
          1.1020588266718430e-01 1.5752531422282738e+00 -1.9083370222716545e+00 -1.8021628068041962e-01 3.5668909855832470e-01 -9.6863185611838276e-01 -1.4383749377841593e+00 -9.6964549060597605e-01 -7.6675857670506042e-01 -1.2515510248251456e+00 -1.2406203358291066e+00 7.0010146941664131e-01 3.1027700776310310e+00 
        </Neuron>
        <Neuron NSynapses="13">
          -1.3650225439982984e+00 -4.3261593295909767e-01 -2.2181579821412695e-01 -5.9315771972627163e-01 -1.6662529357887235e-01 7.4558030698451749e-01 -1.8689285205766080e+00 -8.0850027669953348e-02 9.8052509831919543e-01 4.2105767438425051e-01 -1.2327648702106926e+00 1.8419622592581690e+00 -7.2501142037557675e-01 
        </Neuron>
        <Neuron NSynapses="13">
          -1.1276184416489061e+00 5.4194997727318073e-01 -4.5005398177751460e-01 -1.4132008931880446e+00 -1.6614643119998174e-01 -6.4470761636244389e-01 1.6971469779830917e+00 2.1749427894575051e-02 2.9535784975352758e-01 -6.7432144477931688e-01 -9.2601491270846059e-01 -1.8086717675749024e+00 1.6829039163263106e+00 
        </Neuron>
        <Neuron NSynapses="13">
          7.1804750838126274e-01 -1.5543734135791332e+00 1.4296888247257564e+00 -2.1052936151346096e+00 1.6610704507802252e-02 2.3308374444335334e+00 1.7302049728901643e+00 -6.6362738550705469e-01 5.0515929459425246e-01 8.6543681041613230e-01 1.5589956051025997e+00 2.6638363981256657e-01 -2.4501484308840720e+00 
        </Neuron>
      </Layer>
      <Layer Index="1" NNeurons="14">
        <Neuron NSynapses="1">
          1.1933763284249403e-01 
        </Neuron>
        <Neuron NSynapses="1">
          -6.4167685303647937e-01 
        </Neuron>
        <Neuron NSynapses="1">
          2.4822379286849716e-01 
        </Neuron>
        <Neuron NSynapses="1">
          8.4996684517335264e-01 
        </Neuron>
        <Neuron NSynapses="1">
          -3.3540857719598738e-01 
        </Neuron>
        <Neuron NSynapses="1">
          -6.1884688857202785e-01 
        </Neuron>
        <Neuron NSynapses="1">
          5.5490685179008375e-02 
        </Neuron>
        <Neuron NSynapses="1">
          -3.3274277664936552e-01 
        </Neuron>
        <Neuron NSynapses="1">
          7.8142571698855717e-02 
        </Neuron>
        <Neuron NSynapses="1">
          1.7201963000717954e-02 
        </Neuron>
        <Neuron NSynapses="1">
          -2.7533989159182665e-01 
        </Neuron>
        <Neuron NSynapses="1">
          2.5565571612737693e-02 
        </Neuron>
        <Neuron NSynapses="1">
          2.4627911387739113e-01 
        </Neuron>
        <Neuron NSynapses="1">
          9.6273690847883497e-01 
        </Neuron>
      </Layer>
      <Layer Index="2" NNeurons="1">
        <Neuron NSynapses="0"/>
      </Layer>
    </Layout>
  </Weights>
</MethodSetup>
