<?xml version="1.0"?>
<MethodSetup Method="MLP::MLP_N3.pt40_eta2.01_conv0">
  <GeneralInfo>
    <Info name="TMVA Release" value="4.1.0 [262400]"/>
    <Info name="ROOT Release" value="5.28/00 [334848]"/>
    <Info name="Creator" value="jsaxon"/>
    <Info name="Date" value="Sat Nov 19 01:07:01 2011"/>
    <Info name="Host" value="Linux lxbuild148.cern.ch 2.6.18-194.26.1.el5 #1 SMP Wed Nov 10 09:45:46 CET 2010 x86_64 x86_64 x86_64 GNU/Linux"/>
    <Info name="Dir" value="/home/jsaxon/NeuralNetworks/tmva_fudge9"/>
    <Info name="Training events" value="10000"/>
    <Info name="TrainingTime" value="338.793"/>
    <Info name="AnalysisType" value="Classification"/>
  </GeneralInfo>
  <Options>
    <Option name="NCycles" modified="Yes">2000</Option>
    <Option name="HiddenLayers" modified="Yes">N+3</Option>
    <Option name="NeuronType" modified="Yes">tanh</Option>
    <Option name="RandomSeed" modified="No">1</Option>
    <Option name="EstimatorType" modified="No">MSE</Option>
    <Option name="NeuronInputType" modified="No">sum</Option>
    <Option name="V" modified="No">False</Option>
    <Option name="VerbosityLevel" modified="No">Default</Option>
    <Option name="VarTransform" modified="Yes">N</Option>
    <Option name="H" modified="No">False</Option>
    <Option name="CreateMVAPdfs" modified="No">False</Option>
    <Option name="IgnoreNegWeightsInTraining" modified="No">False</Option>
    <Option name="TrainingMethod" modified="No">BP</Option>
    <Option name="LearningRate" modified="No">2.000000e-02</Option>
    <Option name="DecayRate" modified="No">1.000000e-02</Option>
    <Option name="TestRate" modified="Yes">5</Option>
    <Option name="EpochMonitoring" modified="No">False</Option>
    <Option name="Sampling" modified="No">1.000000e+00</Option>
    <Option name="SamplingEpoch" modified="No">1.000000e+00</Option>
    <Option name="SamplingImportance" modified="No">1.000000e+00</Option>
    <Option name="SamplingTraining" modified="No">True</Option>
    <Option name="SamplingTesting" modified="No">False</Option>
    <Option name="ResetStep" modified="No">50</Option>
    <Option name="Tau" modified="No">3.000000e+00</Option>
    <Option name="BPMode" modified="No">sequential</Option>
    <Option name="BatchSize" modified="No">-1</Option>
    <Option name="ConvergenceImprove" modified="No">1.000000e-30</Option>
    <Option name="ConvergenceTests" modified="No">-1</Option>
    <Option name="UseRegulator" modified="Yes">False</Option>
    <Option name="UpdateLimit" modified="No">10</Option>
    <Option name="CalculateErrors" modified="No">False</Option>
  </Options>
  <Variables NVar="10">
    <Variable VarIndex="0" Expression="fside" Label="fside" Title="fside" Unit="" Internal="fside" Type="D" Min="-0.264008" Max="1.7856"/>
    <Variable VarIndex="1" Expression="w1" Label="w1" Title="w1" Unit="" Internal="w1" Type="D" Min="0.23255" Max="0.807695"/>
    <Variable VarIndex="2" Expression="wtot" Label="wtot" Title="wtot" Unit="" Internal="wtot" Type="D" Min="0.180007" Max="15.2658"/>
    <Variable VarIndex="3" Expression="deltae" Label="deltae" Title="deltae" Unit="" Internal="deltae" Type="D" Min="-938" Max="6150"/>
    <Variable VarIndex="4" Expression="eratio" Label="eratio" Title="eratio" Unit="" Internal="eratio" Type="D" Min="0.000102155" Max="1.00066"/>
    <Variable VarIndex="5" Expression="rphi" Label="rphi" Title="rphi" Unit="" Internal="rphi" Type="D" Min="0.446917" Max="0.993287"/>
    <Variable VarIndex="6" Expression="rhad" Label="rhad" Title="rhad" Unit="" Internal="rhad" Type="D" Min="-0.0398122" Max="0.0149949"/>
    <Variable VarIndex="7" Expression="reta" Label="reta" Title="reta" Unit="" Internal="reta" Type="D" Min="0.920007" Max="0.97947"/>
    <Variable VarIndex="8" Expression="weta2" Label="weta2" Title="weta2" Unit="" Internal="weta2" Type="D" Min="0.00411592" Max="0.012988"/>
    <Variable VarIndex="9" Expression="f1" Label="f1" Title="f1" Unit="" Internal="f1" Type="D" Min="0.00143391" Max="0.479294"/>
  </Variables>
  <Spectators NSpec="4">
    <Spectator SpecIndex="0" Expression="pt" Label="pt" Title="P_{T} [GeV]" Unit="D" Internal="pt" Type="F" Min="25002.9" Max="40000"/>
    <Spectator SpecIndex="1" Expression="etas2" Label="etas2" Title="etas2" Unit="D" Internal="etas2" Type="F" Min="-2.00996" Max="2.00996"/>
    <Spectator SpecIndex="2" Expression="convFlag" Label="convFlag" Title="convFlag" Unit="i" Internal="convFlag" Type="F" Min="0" Max="10"/>
    <Spectator SpecIndex="3" Expression="tight" Label="tight" Title="Tight" Unit="i" Internal="tight" Type="F" Min="0" Max="1"/>
  </Spectators>
  <Transformations NTransformations="1">
    <Transform Name="Normalize" NVariables="10" NTargets="0">
      <Class ClassIndex="0">
        <Variables>
          <Variable VarIndex="0" Min="-2.6400756835937500e-01" Max="1.7855986356735229e+00"/>
          <Variable VarIndex="1" Min="2.3254951834678650e-01" Max="8.0329412221908569e-01"/>
          <Variable VarIndex="2" Min="1.8000666797161102e-01" Max="1.5265803337097168e+01"/>
          <Variable VarIndex="3" Min="-3.3533653259277344e+01" Max="5.6884672851562500e+03"/>
          <Variable VarIndex="4" Min="6.6630088258534670e-04" Max="1.0006591081619263e+00"/>
          <Variable VarIndex="5" Min="8.1086868047714233e-01" Max="9.8759824037551880e-01"/>
          <Variable VarIndex="6" Min="-3.2644186168909073e-02" Max="1.4976602979004383e-02"/>
          <Variable VarIndex="7" Min="9.2003774642944336e-01" Max="9.7508305311203003e-01"/>
          <Variable VarIndex="8" Min="8.7525015696883202e-03" Max="1.2629183009266853e-02"/>
          <Variable VarIndex="9" Min="1.4339055633172393e-03" Max="4.7042724490165710e-01"/>
        </Variables>
        <Targets/>
      </Class>
      <Class ClassIndex="1">
        <Variables>
          <Variable VarIndex="0" Min="-2.1978022530674934e-02" Max="1.2645205259323120e+00"/>
          <Variable VarIndex="1" Min="3.5078358650207520e-01" Max="8.0769503116607666e-01"/>
          <Variable VarIndex="2" Min="9.1964274644851685e-01" Max="1.4992429733276367e+01"/>
          <Variable VarIndex="3" Min="-9.3800000000000000e+02" Max="6.1500000000000000e+03"/>
          <Variable VarIndex="4" Min="1.0215547808911651e-04" Max="1.0000000000000000e+00"/>
          <Variable VarIndex="5" Min="4.4691738486289978e-01" Max="9.9328696727752686e-01"/>
          <Variable VarIndex="6" Min="-3.9812248200178146e-02" Max="1.4994857832789421e-02"/>
          <Variable VarIndex="7" Min="9.2000716924667358e-01" Max="9.7946965694427490e-01"/>
          <Variable VarIndex="8" Min="4.1159233078360558e-03" Max="1.2988016940653324e-02"/>
          <Variable VarIndex="9" Min="2.2459158208221197e-03" Max="4.7929388284683228e-01"/>
        </Variables>
        <Targets/>
      </Class>
      <Class ClassIndex="2">
        <Variables>
          <Variable VarIndex="0" Min="-2.6400756835937500e-01" Max="1.7855986356735229e+00"/>
          <Variable VarIndex="1" Min="2.3254951834678650e-01" Max="8.0769503116607666e-01"/>
          <Variable VarIndex="2" Min="1.8000666797161102e-01" Max="1.5265803337097168e+01"/>
          <Variable VarIndex="3" Min="-9.3800000000000000e+02" Max="6.1500000000000000e+03"/>
          <Variable VarIndex="4" Min="1.0215547808911651e-04" Max="1.0006591081619263e+00"/>
          <Variable VarIndex="5" Min="4.4691738486289978e-01" Max="9.9328696727752686e-01"/>
          <Variable VarIndex="6" Min="-3.9812248200178146e-02" Max="1.4994857832789421e-02"/>
          <Variable VarIndex="7" Min="9.2000716924667358e-01" Max="9.7946965694427490e-01"/>
          <Variable VarIndex="8" Min="4.1159233078360558e-03" Max="1.2988016940653324e-02"/>
          <Variable VarIndex="9" Min="1.4339055633172393e-03" Max="4.7929388284683228e-01"/>
        </Variables>
        <Targets/>
      </Class>
    </Transform>
  </Transformations>
  <MVAPdfs/>
  <Weights>
    <Layout NLayers="3">
      <Layer Index="0" NNeurons="11">
        <Neuron NSynapses="13">
          -6.9084507367683334e-01 1.9703667067878614e+00 1.1413796065318960e+00 1.8455369335183787e+00 -1.7116118834903915e+00 3.7134652674907582e+00 -3.3340449253776749e-01 2.0296867219185488e+00 -1.5447164464235772e+00 2.5618292483617414e-02 -9.4824022112347450e-01 -7.3068659099790834e-01 -2.3115914020123851e+00 
        </Neuron>
        <Neuron NSynapses="13">
          -3.2495033690068831e-01 -1.3481835697013020e+00 1.5338116905604182e+00 -5.0680461302278479e-01 2.0655939701701551e+00 1.5555064989985616e+00 1.3090019850201184e+00 -7.3231161934862510e-01 -3.6600630725114613e-01 9.4902076505114608e-01 3.6416186389984817e-01 -1.0785609801109544e+00 -1.2452466393092665e+00 
        </Neuron>
        <Neuron NSynapses="13">
          8.5640412753212303e-01 -1.1513798411608631e+00 -2.0316564624960409e+00 2.6138011485055052e-01 2.0942483604163462e-01 1.0656810641492269e+00 8.8360459681056658e-02 3.4029666362774158e-01 3.1441290967150815e-01 -1.3072058940699288e-01 -1.9025688023917273e+00 1.1998856243547031e+00 -1.2297363278344224e+00 
        </Neuron>
        <Neuron NSynapses="13">
          6.4676803865620658e-01 6.8157267258606480e-01 6.9551086820162100e-01 1.8916154923968604e+00 7.2547393132016913e-01 -1.7512082032032537e+00 -1.1831894086524986e+00 1.0362647014001793e+00 5.9588395957168261e-01 6.7304169822747362e-01 1.7403636397271425e+00 1.0504048781100375e+00 2.1020677604800206e+00 
        </Neuron>
        <Neuron NSynapses="13">
          -1.1025863297394878e+00 1.4779126597580106e+00 -6.1049662014348760e-01 4.5517589933886639e-02 -1.0494337254742534e+00 -1.3158358088342847e+00 6.5896551412554671e-01 2.2571942404864762e-01 -2.2519341723352420e+00 -1.1066251168721524e+00 2.3688538244654606e-01 1.4112187333876924e+00 3.0938806748758116e+00 
        </Neuron>
        <Neuron NSynapses="13">
          4.0272938379288559e-01 8.1520344549886636e-01 -1.2765309638619533e+00 -2.7464982300808884e-02 -7.2235184241713746e-01 -6.7740086445400935e+00 -1.9098208492330011e+00 4.6292578205727847e-01 1.8678142313557731e+00 -2.0252340557782772e-01 -5.0752726401994419e-01 -1.2518523735677587e+00 6.1301380051767627e-02 
        </Neuron>
        <Neuron NSynapses="13">
          1.4527432032156142e+00 -7.2408497970274843e-01 1.7760967339339366e+00 2.7368774977454817e-02 1.8256925085378461e+00 1.0385091516833411e+00 -1.0226463000082779e+00 -4.1336289323019304e-01 6.2370570098696831e-01 -1.0771673085610745e+00 2.4573016141287377e-01 -1.4630987862510583e+00 -6.4562054210160824e-01 
        </Neuron>
        <Neuron NSynapses="13">
          -4.4982659887249160e-01 2.0161812729447872e+00 -1.5159561049163375e+00 -1.2958659001031220e-01 2.7331008488006475e-01 -1.3620002661052040e+00 -1.5088146335755983e+00 -8.2429422152330312e-01 -8.0535331460193360e-01 -1.0375676710732449e+00 -1.1199567829984172e+00 6.7451491358402860e-01 9.6262807038813281e-01 
        </Neuron>
        <Neuron NSynapses="13">
          -7.0750282194201752e-01 1.1988981049856486e+00 -6.5798261660356239e-01 -1.3048675463051251e+00 4.7161615644860660e-01 7.8944235441126975e-01 -1.8988503091306435e+00 -2.8378306317524271e-01 7.0106714537765491e-01 8.8120140516499024e-01 -2.5563866488202618e-02 2.0960862269104674e+00 1.3713450107265435e-01 
        </Neuron>
        <Neuron NSynapses="13">
          -8.8092517462042563e-01 3.4223210996726261e-01 -6.5776697416908436e-01 -1.2716887002377042e+00 4.6106337476832754e-01 -7.6588260350907444e-01 1.9802602187367975e+00 1.3738199846050675e-01 5.4992423268844973e-02 -3.7938061679519641e-01 2.4847491713398573e+00 -1.7900563260079851e+00 1.2237209167557437e+00 
        </Neuron>
        <Neuron NSynapses="13">
          9.1849488346190911e-01 -8.2769953043744637e-01 4.8252915748252195e-01 -2.4816158865674662e+00 6.5943897684235353e-01 7.2126495127220593e+00 1.2558939327666261e+00 -2.4401576223497123e+00 -4.2709363697029790e-01 2.3580949376862081e+00 2.4195841740772650e+00 8.4325783726079662e-01 -3.4643376972506248e+00 
        </Neuron>
      </Layer>
      <Layer Index="1" NNeurons="14">
        <Neuron NSynapses="1">
          1.6070121482323677e-02 
        </Neuron>
        <Neuron NSynapses="1">
          5.2077269134464553e-02 
        </Neuron>
        <Neuron NSynapses="1">
          4.2012615153731958e-01 
        </Neuron>
        <Neuron NSynapses="1">
          7.8472642914510982e-01 
        </Neuron>
        <Neuron NSynapses="1">
          9.9258274856874162e-02 
        </Neuron>
        <Neuron NSynapses="1">
          -7.3283770144609262e-01 
        </Neuron>
        <Neuron NSynapses="1">
          4.8606253710048262e-03 
        </Neuron>
        <Neuron NSynapses="1">
          -6.2220642754874766e-01 
        </Neuron>
        <Neuron NSynapses="1">
          9.7264108384816240e-03 
        </Neuron>
        <Neuron NSynapses="1">
          3.7940900308610864e-01 
        </Neuron>
        <Neuron NSynapses="1">
          -6.1919600249436968e-01 
        </Neuron>
        <Neuron NSynapses="1">
          2.8038298779429396e-02 
        </Neuron>
        <Neuron NSynapses="1">
          3.3752983770138489e-01 
        </Neuron>
        <Neuron NSynapses="1">
          1.0021115350152794e+00 
        </Neuron>
      </Layer>
      <Layer Index="2" NNeurons="1">
        <Neuron NSynapses="0"/>
      </Layer>
    </Layout>
  </Weights>
</MethodSetup>
