<?xml version="1.0"?>
<MethodSetup Method="MLP::MLP_N3.pt60_eta1.15_conv1">
  <GeneralInfo>
    <Info name="TMVA Release" value="4.1.0 [262400]"/>
    <Info name="ROOT Release" value="5.28/00 [334848]"/>
    <Info name="Creator" value="jsaxon"/>
    <Info name="Date" value="Sat Nov 19 00:31:27 2011"/>
    <Info name="Host" value="Linux lxbuild148.cern.ch 2.6.18-194.26.1.el5 #1 SMP Wed Nov 10 09:45:46 CET 2010 x86_64 x86_64 x86_64 GNU/Linux"/>
    <Info name="Dir" value="/home/jsaxon/NeuralNetworks/tmva_fudge9"/>
    <Info name="Training events" value="8820"/>
    <Info name="TrainingTime" value="483.851"/>
    <Info name="AnalysisType" value="Classification"/>
  </GeneralInfo>
  <Options>
    <Option name="NCycles" modified="Yes">2000</Option>
    <Option name="HiddenLayers" modified="Yes">N+3</Option>
    <Option name="NeuronType" modified="Yes">tanh</Option>
    <Option name="RandomSeed" modified="No">1</Option>
    <Option name="EstimatorType" modified="No">MSE</Option>
    <Option name="NeuronInputType" modified="No">sum</Option>
    <Option name="V" modified="No">False</Option>
    <Option name="VerbosityLevel" modified="No">Default</Option>
    <Option name="VarTransform" modified="Yes">N</Option>
    <Option name="H" modified="No">False</Option>
    <Option name="CreateMVAPdfs" modified="No">False</Option>
    <Option name="IgnoreNegWeightsInTraining" modified="No">False</Option>
    <Option name="TrainingMethod" modified="No">BP</Option>
    <Option name="LearningRate" modified="No">2.000000e-02</Option>
    <Option name="DecayRate" modified="No">1.000000e-02</Option>
    <Option name="TestRate" modified="Yes">5</Option>
    <Option name="EpochMonitoring" modified="No">False</Option>
    <Option name="Sampling" modified="No">1.000000e+00</Option>
    <Option name="SamplingEpoch" modified="No">1.000000e+00</Option>
    <Option name="SamplingImportance" modified="No">1.000000e+00</Option>
    <Option name="SamplingTraining" modified="No">True</Option>
    <Option name="SamplingTesting" modified="No">False</Option>
    <Option name="ResetStep" modified="No">50</Option>
    <Option name="Tau" modified="No">3.000000e+00</Option>
    <Option name="BPMode" modified="No">sequential</Option>
    <Option name="BatchSize" modified="No">-1</Option>
    <Option name="ConvergenceImprove" modified="No">1.000000e-30</Option>
    <Option name="ConvergenceTests" modified="No">-1</Option>
    <Option name="UseRegulator" modified="Yes">False</Option>
    <Option name="UpdateLimit" modified="No">10</Option>
    <Option name="CalculateErrors" modified="No">False</Option>
  </Options>
  <Variables NVar="10">
    <Variable VarIndex="0" Expression="fside" Label="fside" Title="fside" Unit="" Internal="fside" Type="D" Min="0.0189264" Max="1.46258"/>
    <Variable VarIndex="1" Expression="w1" Label="w1" Title="w1" Unit="" Internal="w1" Type="D" Min="0.384203" Max="0.811789"/>
    <Variable VarIndex="2" Expression="wtot" Label="wtot" Title="wtot" Unit="" Internal="wtot" Type="D" Min="0.288293" Max="12.5505"/>
    <Variable VarIndex="3" Expression="deltae" Label="deltae" Title="deltae" Unit="" Internal="deltae" Type="D" Min="-2.74225" Max="3143"/>
    <Variable VarIndex="4" Expression="eratio" Label="eratio" Title="eratio" Unit="" Internal="eratio" Type="D" Min="0.00063012" Max="1.00342"/>
    <Variable VarIndex="5" Expression="rphi" Label="rphi" Title="rphi" Unit="" Internal="rphi" Type="D" Min="0.459831" Max="0.980713"/>
    <Variable VarIndex="6" Expression="rhad" Label="rhad" Title="rhad" Unit="" Internal="rhad" Type="D" Min="-0.0164984" Max="0.00997829"/>
    <Variable VarIndex="7" Expression="reta" Label="reta" Title="reta" Unit="" Internal="reta" Type="D" Min="0.925047" Max="0.980587"/>
    <Variable VarIndex="8" Expression="weta2" Label="weta2" Title="weta2" Unit="" Internal="weta2" Type="D" Min="0.00806347" Max="0.012983"/>
    <Variable VarIndex="9" Expression="f1" Label="f1" Title="f1" Unit="" Internal="f1" Type="D" Min="0.00334913" Max="0.397108"/>
  </Variables>
  <Spectators NSpec="4">
    <Spectator SpecIndex="0" Expression="pt" Label="pt" Title="P_{T} [GeV]" Unit="D" Internal="pt" Type="F" Min="50001" Max="59999.3"/>
    <Spectator SpecIndex="1" Expression="etas2" Label="etas2" Title="etas2" Unit="D" Internal="etas2" Type="F" Min="-1.14995" Max="1.14994"/>
    <Spectator SpecIndex="2" Expression="convFlag" Label="convFlag" Title="convFlag" Unit="i" Internal="convFlag" Type="F" Min="11" Max="11"/>
    <Spectator SpecIndex="3" Expression="tight" Label="tight" Title="Tight" Unit="i" Internal="tight" Type="F" Min="0" Max="1"/>
  </Spectators>
  <Transformations NTransformations="1">
    <Transform Name="Normalize" NVariables="10" NTargets="0">
      <Class ClassIndex="0">
        <Variables>
          <Variable VarIndex="0" Min="1.8926400691270828e-02" Max="1.1479171514511108e+00"/>
          <Variable VarIndex="1" Min="3.8420304656028748e-01" Max="7.9594212770462036e-01"/>
          <Variable VarIndex="2" Min="4.0920904278755188e-01" Max="6.5981540679931641e+00"/>
          <Variable VarIndex="3" Min="-2.7422499656677246e+00" Max="2.0052666015625000e+03"/>
          <Variable VarIndex="4" Min="3.5017228219658136e-03" Max="1.0034204721450806e+00"/>
          <Variable VarIndex="5" Min="6.3480103015899658e-01" Max="9.8071330785751343e-01"/>
          <Variable VarIndex="6" Min="-1.6498377546668053e-02" Max="9.9035045132040977e-03"/>
          <Variable VarIndex="7" Min="9.2559409141540527e-01" Max="9.8058742284774780e-01"/>
          <Variable VarIndex="8" Min="8.0634746700525284e-03" Max="1.2690396048128605e-02"/>
          <Variable VarIndex="9" Min="3.3491277135908604e-03" Max="3.9710837602615356e-01"/>
        </Variables>
        <Targets/>
      </Class>
      <Class ClassIndex="1">
        <Variables>
          <Variable VarIndex="0" Min="1.3340020179748535e-01" Max="1.4625837802886963e+00"/>
          <Variable VarIndex="1" Min="4.8899224400520325e-01" Max="8.1178909540176392e-01"/>
          <Variable VarIndex="2" Min="2.8829306364059448e-01" Max="1.2550534248352051e+01"/>
          <Variable VarIndex="3" Min="0.0000000000000000e+00" Max="3.1430000000000000e+03"/>
          <Variable VarIndex="4" Min="6.3011969905346632e-04" Max="1.0000000000000000e+00"/>
          <Variable VarIndex="5" Min="4.5983147621154785e-01" Max="9.7790104150772095e-01"/>
          <Variable VarIndex="6" Min="-1.4728741720318794e-02" Max="9.9782925099134445e-03"/>
          <Variable VarIndex="7" Min="9.2504698038101196e-01" Max="9.7265928983688354e-01"/>
          <Variable VarIndex="8" Min="8.5706422105431557e-03" Max="1.2982966378331184e-02"/>
          <Variable VarIndex="9" Min="8.2841319963335991e-03" Max="3.9482378959655762e-01"/>
        </Variables>
        <Targets/>
      </Class>
      <Class ClassIndex="2">
        <Variables>
          <Variable VarIndex="0" Min="1.8926400691270828e-02" Max="1.4625837802886963e+00"/>
          <Variable VarIndex="1" Min="3.8420304656028748e-01" Max="8.1178909540176392e-01"/>
          <Variable VarIndex="2" Min="2.8829306364059448e-01" Max="1.2550534248352051e+01"/>
          <Variable VarIndex="3" Min="-2.7422499656677246e+00" Max="3.1430000000000000e+03"/>
          <Variable VarIndex="4" Min="6.3011969905346632e-04" Max="1.0034204721450806e+00"/>
          <Variable VarIndex="5" Min="4.5983147621154785e-01" Max="9.8071330785751343e-01"/>
          <Variable VarIndex="6" Min="-1.6498377546668053e-02" Max="9.9782925099134445e-03"/>
          <Variable VarIndex="7" Min="9.2504698038101196e-01" Max="9.8058742284774780e-01"/>
          <Variable VarIndex="8" Min="8.0634746700525284e-03" Max="1.2982966378331184e-02"/>
          <Variable VarIndex="9" Min="3.3491277135908604e-03" Max="3.9710837602615356e-01"/>
        </Variables>
        <Targets/>
      </Class>
    </Transform>
  </Transformations>
  <MVAPdfs/>
  <Weights>
    <Layout NLayers="3">
      <Layer Index="0" NNeurons="11">
        <Neuron NSynapses="13">
          -4.4743666356210282e-01 1.9352319414208643e+00 7.1829130480627357e-01 6.6795144507558879e-01 -2.3239207754119411e+00 -1.0953646883106272e-01 -9.6094302447070445e-01 1.8164046784613392e+00 -1.5854266593862849e+00 -9.7287063241949667e-01 -2.9327113214745526e-01 -4.4104188462730542e-01 -2.7941283321469488e+00 
        </Neuron>
        <Neuron NSynapses="13">
          1.2438973684885851e-01 -2.7778429389044401e+00 7.2677136994315183e-01 -5.8348891116659851e-01 1.5595603513371825e+00 1.3356739666819817e+00 1.3685873236516342e+00 -7.7221275323068861e-01 -4.2344197838325232e-01 1.0534909545995597e+00 3.8645148124149992e-01 -1.1712410186882094e+00 -1.0841658067510280e+00 
        </Neuron>
        <Neuron NSynapses="13">
          9.1126730403862044e-01 -1.1954513493826735e+00 -2.0277253244512101e+00 6.2605138191820883e-02 5.2263981567699358e-01 7.1250508694320969e-01 -4.0517375147938295e-01 6.9093638453953540e-02 4.4156204674459426e-01 -1.1360524013646763e-01 -9.9593226736198792e-01 1.7063701199676642e+00 -5.2189823716680939e-01 
        </Neuron>
        <Neuron NSynapses="13">
          4.3332348632117151e-01 6.2902916687579646e-01 5.2217297830907450e-01 1.3984840036281418e+00 1.1397405031676535e+00 -9.9061853453420667e-01 -1.5948928435096614e+00 9.9686600043519147e-01 1.3443930142417659e-01 1.6462731383171307e+00 1.8701078153256314e+00 1.5584762469307842e+00 1.3633670046759472e+00 
        </Neuron>
        <Neuron NSynapses="13">
          -1.4100506396134491e+00 1.7020506708305425e+00 -1.6391581726489597e+00 -1.9230106120888624e-01 -1.9219812582230380e+00 -1.6563648069780381e+00 1.5443476604234596e+00 5.1840542744170326e-01 -2.0537081874630627e+00 -5.0595101780787510e-01 -6.2009626538677531e-01 6.9584354229129119e-01 2.1526411601482414e+00 
        </Neuron>
        <Neuron NSynapses="13">
          -1.4726912486506871e-01 4.4243400215417195e-01 -9.5923603467290086e-01 3.6053184990034393e-01 9.3330590423657211e-02 -2.7354733812864240e+00 -1.3915008820185899e+00 7.2467832812571076e-01 1.1980929657283041e+00 4.2550256834873579e-01 -5.4529538968881575e-02 -1.9086967641285026e+00 1.2352714439118087e+00 
        </Neuron>
        <Neuron NSynapses="13">
          1.3016918254314627e+00 1.0732999626814110e-01 1.8582779238072078e+00 1.8179152296699366e-01 9.2968373490558476e-01 3.3825710058586311e-01 -8.9228331682599504e-01 -1.6667881461083120e-01 6.4324742665654433e-01 -1.3533564790869044e+00 -7.5626030178229231e-01 -1.7059551267254365e+00 -1.0112776942697557e+00 
        </Neuron>
        <Neuron NSynapses="13">
          -2.4321021286188343e-01 6.4239598111880014e-01 -1.4593642269458358e+00 8.7154256166620170e-01 -1.8306550278585705e-04 -1.3951585269027844e+00 -1.3657406108904779e+00 -8.6820580198354191e-01 -3.2305211061782613e-01 -1.3273467352967623e+00 -2.4753560920113928e+00 7.0132432691380453e-01 1.8278203706619769e+00 
        </Neuron>
        <Neuron NSynapses="13">
          -1.5706234272574582e+00 -1.0884549924072653e-01 -8.2737087399194875e-01 -1.5601915596045786e+00 -4.5011627631350520e-01 1.7456153198966928e+00 -1.8374756289169873e+00 -1.8356727176230200e-01 2.1899043850613914e-01 4.2790434058650945e-01 -1.5527373799305997e+00 1.8428348794332816e+00 -1.0986088800934266e+00 
        </Neuron>
        <Neuron NSynapses="13">
          -8.1342649862902816e-01 3.8024459633069879e-01 -1.0094113343924860e+00 -2.1641553422536179e+00 -3.2848022577362901e-01 -1.3915475920674425e+00 1.7545245678541046e+00 7.6184462039302729e-03 8.7877775536484315e-01 -4.1622192758460563e-01 1.0525065822535795e-01 -1.7702563552974160e+00 2.8159777408994335e+00 
        </Neuron>
        <Neuron NSynapses="13">
          9.9489133872580904e-01 -7.6874138271136216e-01 8.5937023556492131e-01 -2.4604059011570145e+00 5.9450395647382637e-01 3.1785059903740129e+00 1.8122042432051537e+00 -2.2530256253040268e+00 8.7462093269111293e-02 1.0961094769104269e+00 1.7855774192689404e+00 2.3413440624953924e-01 -2.9817430542107650e+00 
        </Neuron>
      </Layer>
      <Layer Index="1" NNeurons="14">
        <Neuron NSynapses="1">
          1.6287667114874160e-01 
        </Neuron>
        <Neuron NSynapses="1">
          -2.8561495790153824e-01 
        </Neuron>
        <Neuron NSynapses="1">
          8.0085413351087861e-02 
        </Neuron>
        <Neuron NSynapses="1">
          8.3878538246259871e-01 
        </Neuron>
        <Neuron NSynapses="1">
          -3.0244954484134801e-01 
        </Neuron>
        <Neuron NSynapses="1">
          -2.7314465052241621e-01 
        </Neuron>
        <Neuron NSynapses="1">
          5.9175081664028184e-02 
        </Neuron>
        <Neuron NSynapses="1">
          -4.1473912273659042e-01 
        </Neuron>
        <Neuron NSynapses="1">
          1.0366612624536065e-01 
        </Neuron>
        <Neuron NSynapses="1">
          1.1703378930672954e-01 
        </Neuron>
        <Neuron NSynapses="1">
          -1.7899907806361651e-01 
        </Neuron>
        <Neuron NSynapses="1">
          2.3191087156291128e-02 
        </Neuron>
        <Neuron NSynapses="1">
          3.8794507605126927e-01 
        </Neuron>
        <Neuron NSynapses="1">
          8.2741213965592209e-01 
        </Neuron>
      </Layer>
      <Layer Index="2" NNeurons="1">
        <Neuron NSynapses="0"/>
      </Layer>
    </Layout>
  </Weights>
</MethodSetup>
