<?xml version="1.0"?>
<MethodSetup Method="MLP::MLP_N3.pt60_eta0.60_conv1">
  <GeneralInfo>
    <Info name="TMVA Release" value="4.1.0 [262400]"/>
    <Info name="ROOT Release" value="5.28/00 [334848]"/>
    <Info name="Creator" value="jsaxon"/>
    <Info name="Date" value="Sat Nov 19 00:26:30 2011"/>
    <Info name="Host" value="Linux lxbuild148.cern.ch 2.6.18-194.26.1.el5 #1 SMP Wed Nov 10 09:45:46 CET 2010 x86_64 x86_64 x86_64 GNU/Linux"/>
    <Info name="Dir" value="/home/jsaxon/NeuralNetworks/tmva_fudge9"/>
    <Info name="Training events" value="6638"/>
    <Info name="TrainingTime" value="407.517"/>
    <Info name="AnalysisType" value="Classification"/>
  </GeneralInfo>
  <Options>
    <Option name="NCycles" modified="Yes">2000</Option>
    <Option name="HiddenLayers" modified="Yes">N+3</Option>
    <Option name="NeuronType" modified="Yes">tanh</Option>
    <Option name="RandomSeed" modified="No">1</Option>
    <Option name="EstimatorType" modified="No">MSE</Option>
    <Option name="NeuronInputType" modified="No">sum</Option>
    <Option name="V" modified="No">False</Option>
    <Option name="VerbosityLevel" modified="No">Default</Option>
    <Option name="VarTransform" modified="Yes">N</Option>
    <Option name="H" modified="No">False</Option>
    <Option name="CreateMVAPdfs" modified="No">False</Option>
    <Option name="IgnoreNegWeightsInTraining" modified="No">False</Option>
    <Option name="TrainingMethod" modified="No">BP</Option>
    <Option name="LearningRate" modified="No">2.000000e-02</Option>
    <Option name="DecayRate" modified="No">1.000000e-02</Option>
    <Option name="TestRate" modified="Yes">5</Option>
    <Option name="EpochMonitoring" modified="No">False</Option>
    <Option name="Sampling" modified="No">1.000000e+00</Option>
    <Option name="SamplingEpoch" modified="No">1.000000e+00</Option>
    <Option name="SamplingImportance" modified="No">1.000000e+00</Option>
    <Option name="SamplingTraining" modified="No">True</Option>
    <Option name="SamplingTesting" modified="No">False</Option>
    <Option name="ResetStep" modified="No">50</Option>
    <Option name="Tau" modified="No">3.000000e+00</Option>
    <Option name="BPMode" modified="No">sequential</Option>
    <Option name="BatchSize" modified="No">-1</Option>
    <Option name="ConvergenceImprove" modified="No">1.000000e-30</Option>
    <Option name="ConvergenceTests" modified="No">-1</Option>
    <Option name="UseRegulator" modified="Yes">False</Option>
    <Option name="UpdateLimit" modified="No">10</Option>
    <Option name="CalculateErrors" modified="No">False</Option>
  </Options>
  <Variables NVar="10">
    <Variable VarIndex="0" Expression="fside" Label="fside" Title="fside" Unit="" Internal="fside" Type="D" Min="0.10408" Max="1.28416"/>
    <Variable VarIndex="1" Expression="w1" Label="w1" Title="w1" Unit="" Internal="w1" Type="D" Min="0.176983" Max="0.811681"/>
    <Variable VarIndex="2" Expression="wtot" Label="wtot" Title="wtot" Unit="" Internal="wtot" Type="D" Min="0.46491" Max="10.2239"/>
    <Variable VarIndex="3" Expression="deltae" Label="deltae" Title="deltae" Unit="" Internal="deltae" Type="D" Min="-1.39241" Max="3550"/>
    <Variable VarIndex="4" Expression="eratio" Label="eratio" Title="eratio" Unit="" Internal="eratio" Type="D" Min="0.00063358" Max="1.00129"/>
    <Variable VarIndex="5" Expression="rphi" Label="rphi" Title="rphi" Unit="" Internal="rphi" Type="D" Min="0.44231" Max="0.988758"/>
    <Variable VarIndex="6" Expression="rhad" Label="rhad" Title="rhad" Unit="" Internal="rhad" Type="D" Min="-0.0156441" Max="0.00995724"/>
    <Variable VarIndex="7" Expression="reta" Label="reta" Title="reta" Unit="" Internal="reta" Type="D" Min="0.927334" Max="0.990907"/>
    <Variable VarIndex="8" Expression="weta2" Label="weta2" Title="weta2" Unit="" Internal="weta2" Type="D" Min="0.00654339" Max="0.0119965"/>
    <Variable VarIndex="9" Expression="f1" Label="f1" Title="f1" Unit="" Internal="f1" Type="D" Min="0.0061933" Max="0.498506"/>
  </Variables>
  <Spectators NSpec="4">
    <Spectator SpecIndex="0" Expression="pt" Label="pt" Title="P_{T} [GeV]" Unit="D" Internal="pt" Type="F" Min="50004.6" Max="59999.5"/>
    <Spectator SpecIndex="1" Expression="etas2" Label="etas2" Title="etas2" Unit="D" Internal="etas2" Type="F" Min="-0.599612" Max="0.599966"/>
    <Spectator SpecIndex="2" Expression="convFlag" Label="convFlag" Title="convFlag" Unit="i" Internal="convFlag" Type="F" Min="11" Max="11"/>
    <Spectator SpecIndex="3" Expression="tight" Label="tight" Title="Tight" Unit="i" Internal="tight" Type="F" Min="0" Max="1"/>
  </Spectators>
  <Transformations NTransformations="1">
    <Transform Name="Normalize" NVariables="10" NTargets="0">
      <Class ClassIndex="0">
        <Variables>
          <Variable VarIndex="0" Min="1.0407954454421997e-01" Max="1.1367100477218628e+00"/>
          <Variable VarIndex="1" Min="1.7698265612125397e-01" Max="7.8007817268371582e-01"/>
          <Variable VarIndex="2" Min="4.6491032838821411e-01" Max="8.8725671768188477e+00"/>
          <Variable VarIndex="3" Min="-1.3924100399017334e+00" Max="1.5286116943359375e+03"/>
          <Variable VarIndex="4" Min="1.0793488472700119e-01" Max="1.0012923479080200e+00"/>
          <Variable VarIndex="5" Min="6.9205874204635620e-01" Max="9.8875766992568970e-01"/>
          <Variable VarIndex="6" Min="-1.4102660119533539e-02" Max="9.7486786544322968e-03"/>
          <Variable VarIndex="7" Min="9.2733377218246460e-01" Max="9.9090683460235596e-01"/>
          <Variable VarIndex="8" Min="8.1630349159240723e-03" Max="1.1879744008183479e-02"/>
          <Variable VarIndex="9" Min="6.1932979151606560e-03" Max="4.9511954188346863e-01"/>
        </Variables>
        <Targets/>
      </Class>
      <Class ClassIndex="1">
        <Variables>
          <Variable VarIndex="0" Min="1.2187159806489944e-01" Max="1.2841635942459106e+00"/>
          <Variable VarIndex="1" Min="4.3151864409446716e-01" Max="8.1168121099472046e-01"/>
          <Variable VarIndex="2" Min="1.0896036624908447e+00" Max="1.0223949432373047e+01"/>
          <Variable VarIndex="3" Min="0.0000000000000000e+00" Max="3.5500000000000000e+03"/>
          <Variable VarIndex="4" Min="6.3357973704114556e-04" Max="1.0000000000000000e+00"/>
          <Variable VarIndex="5" Min="4.4231033325195312e-01" Max="9.8747968673706055e-01"/>
          <Variable VarIndex="6" Min="-1.5644082799553871e-02" Max="9.9572399631142616e-03"/>
          <Variable VarIndex="7" Min="9.2740827798843384e-01" Max="9.8072767257690430e-01"/>
          <Variable VarIndex="8" Min="6.5433946438133717e-03" Max="1.1996466666460037e-02"/>
          <Variable VarIndex="9" Min="3.3829819411039352e-02" Max="4.9850645661354065e-01"/>
        </Variables>
        <Targets/>
      </Class>
      <Class ClassIndex="2">
        <Variables>
          <Variable VarIndex="0" Min="1.0407954454421997e-01" Max="1.2841635942459106e+00"/>
          <Variable VarIndex="1" Min="1.7698265612125397e-01" Max="8.1168121099472046e-01"/>
          <Variable VarIndex="2" Min="4.6491032838821411e-01" Max="1.0223949432373047e+01"/>
          <Variable VarIndex="3" Min="-1.3924100399017334e+00" Max="3.5500000000000000e+03"/>
          <Variable VarIndex="4" Min="6.3357973704114556e-04" Max="1.0012923479080200e+00"/>
          <Variable VarIndex="5" Min="4.4231033325195312e-01" Max="9.8875766992568970e-01"/>
          <Variable VarIndex="6" Min="-1.5644082799553871e-02" Max="9.9572399631142616e-03"/>
          <Variable VarIndex="7" Min="9.2733377218246460e-01" Max="9.9090683460235596e-01"/>
          <Variable VarIndex="8" Min="6.5433946438133717e-03" Max="1.1996466666460037e-02"/>
          <Variable VarIndex="9" Min="6.1932979151606560e-03" Max="4.9850645661354065e-01"/>
        </Variables>
        <Targets/>
      </Class>
    </Transform>
  </Transformations>
  <MVAPdfs/>
  <Weights>
    <Layout NLayers="3">
      <Layer Index="0" NNeurons="11">
        <Neuron NSynapses="13">
          -8.2468521224830171e-01 1.6726518472946823e+00 7.0280856085292920e-01 1.5652835204434172e+00 -1.8337730431657107e+00 -7.6745519319223743e-01 -7.8220650336953712e-01 1.7560567887312570e+00 -1.8433740450070377e+00 -9.6871516138296943e-01 -1.1093115528677762e+00 -4.3697860695198010e-01 -3.2742912015962276e+00 
        </Neuron>
        <Neuron NSynapses="13">
          2.3618759560717131e-01 -6.5393169669845963e-01 8.7012023199593003e-01 -1.2280842337491871e+00 1.9443493251080934e+00 6.2608285957675680e-01 1.3678184101503645e+00 -7.0416934043025514e-01 -4.3632248811777491e-01 6.8974237774419866e-01 1.1645847183393365e-01 -1.1669295840587015e+00 -1.3321994305892972e+00 
        </Neuron>
        <Neuron NSynapses="13">
          8.6404786226405939e-01 -1.2845016272561209e+00 -1.9944453759182026e+00 5.2879169156193340e-01 4.2301408853852157e-01 1.4636382592409136e+00 -3.4615931748241757e-01 8.3779383890451226e-02 3.1485390194472612e-01 -4.8581811299938615e-01 -1.0735427297943902e+00 1.7440851919079949e+00 -1.1119586421112642e+00 
        </Neuron>
        <Neuron NSynapses="13">
          2.3106432119094020e-01 9.3309248576806370e-01 4.8597617588299979e-01 1.8341290279300422e+00 8.0032521527565392e-01 -7.4262055348410760e-01 -1.6170266357298684e+00 1.0202558400310875e+00 -9.3026453981771590e-02 9.1014412872183659e-01 1.5476851917637566e+00 1.5469076097737373e+00 1.5917279389340040e+00 
        </Neuron>
        <Neuron NSynapses="13">
          -1.2749328006852754e+00 1.8249997664971982e+00 -1.4955841644908643e+00 -1.5970683562767696e-01 -1.3493991102566798e+00 -2.2647880767287978e+00 1.5627902417070494e+00 5.5288695322182968e-01 -2.3063861437583530e+00 -4.5138281531415692e-01 -1.0770394016311595e+00 6.8717444867151967e-01 2.5084871016018138e+00 
        </Neuron>
        <Neuron NSynapses="13">
          6.8542520547132613e-01 5.6177837759188620e-01 -1.1080270425493561e+00 3.6274291288043803e-01 -7.8410455311804383e-01 -1.3431929882735327e+00 -1.4385603349208094e+00 5.6479369327605811e-01 1.2172190797262874e+00 -4.5560466820809636e-02 -1.7436434200171883e-01 -1.9034693669016007e+00 1.9090827689133929e+00 
        </Neuron>
        <Neuron NSynapses="13">
          1.2549401318400788e+00 9.3273571561835511e-01 1.7549173717654103e+00 5.6587432184500985e-01 1.2654985662858635e+00 5.7308401142086685e-01 -8.9370847577925017e-01 -3.4139242272801029e-01 1.6534609111421796e+00 -1.3767448478871285e+00 -6.9395074413701452e-01 -1.7000543809128383e+00 -8.5624477868864446e-01 
        </Neuron>
        <Neuron NSynapses="13">
          -2.8540286536191062e-01 1.0741070069007599e+00 -1.4108626512766940e+00 -1.2035868120878390e-01 9.2741063534726920e-01 -4.3378643695641123e-01 -1.4752206599492828e+00 -9.8906753380825585e-01 -6.4758893904979442e-01 -1.6224107037391562e+00 -1.7856232682554043e+00 7.1833036151059626e-01 1.5278058224188995e+00 
        </Neuron>
        <Neuron NSynapses="13">
          -9.3362371714027614e-01 8.9825444385667674e-01 -6.6293839408938404e-01 -9.3330030832822186e-01 8.5372231108331198e-02 6.1212842146880964e-01 -1.8087967209461788e+00 -1.8321567016248270e-02 1.2231430663670156e-01 2.0593151644424293e-01 -9.5321359291594765e-01 1.8338159362928090e+00 -1.2103800571461774e+00 
        </Neuron>
        <Neuron NSynapses="13">
          -9.1621171152466763e-01 3.2039865494393271e-01 -8.1483030756678765e-01 -1.6216942011735591e+00 2.9623558325450594e-01 -1.8861529986481931e+00 1.7852510595638416e+00 1.3503322677176380e-01 3.5268868896821370e-01 -1.2425997564600850e+00 6.9485281382870356e-01 -1.8128624720434969e+00 1.3747650517519496e+00 
        </Neuron>
        <Neuron NSynapses="13">
          1.2484654207170820e+00 -1.4713874563434983e+00 9.2529141376041146e-01 -2.0351056999602162e+00 4.9148917769333611e-01 2.7656049583602185e+00 1.7357897961762829e+00 -2.4471326121638026e+00 1.9853359003774942e-01 1.9398790075270487e+00 2.1642593278325557e+00 2.0804898455056456e-01 -4.7802379050756434e+00 
        </Neuron>
      </Layer>
      <Layer Index="1" NNeurons="14">
        <Neuron NSynapses="1">
          -1.4831902330227201e-01 
        </Neuron>
        <Neuron NSynapses="1">
          -1.5025573192321506e-01 
        </Neuron>
        <Neuron NSynapses="1">
          1.1864089289028820e-01 
        </Neuron>
        <Neuron NSynapses="1">
          9.6707737781915493e-01 
        </Neuron>
        <Neuron NSynapses="1">
          3.1702497045437525e-02 
        </Neuron>
        <Neuron NSynapses="1">
          -2.0598406710465625e-01 
        </Neuron>
        <Neuron NSynapses="1">
          5.4920456173146769e-03 
        </Neuron>
        <Neuron NSynapses="1">
          -3.6999245655251412e-01 
        </Neuron>
        <Neuron NSynapses="1">
          1.6415350167742582e-01 
        </Neuron>
        <Neuron NSynapses="1">
          3.0419023705866910e-01 
        </Neuron>
        <Neuron NSynapses="1">
          -3.5271867538100377e-01 
        </Neuron>
        <Neuron NSynapses="1">
          -2.4384251261101927e-02 
        </Neuron>
        <Neuron NSynapses="1">
          4.9575236224761976e-01 
        </Neuron>
        <Neuron NSynapses="1">
          1.0137546395280514e+00 
        </Neuron>
      </Layer>
      <Layer Index="2" NNeurons="1">
        <Neuron NSynapses="0"/>
      </Layer>
    </Layout>
  </Weights>
</MethodSetup>
