<?xml version="1.0"?>
<MethodSetup Method="MLP::MLP_N3.pt80_eta2.01_conv0">
  <GeneralInfo>
    <Info name="TMVA Release" value="4.1.0 [262400]"/>
    <Info name="ROOT Release" value="5.28/00 [334848]"/>
    <Info name="Creator" value="jsaxon"/>
    <Info name="Date" value="Sat Nov 19 01:23:09 2011"/>
    <Info name="Host" value="Linux lxbuild148.cern.ch 2.6.18-194.26.1.el5 #1 SMP Wed Nov 10 09:45:46 CET 2010 x86_64 x86_64 x86_64 GNU/Linux"/>
    <Info name="Dir" value="/home/jsaxon/NeuralNetworks/tmva_fudge9"/>
    <Info name="Training events" value="10000"/>
    <Info name="TrainingTime" value="211.899"/>
    <Info name="AnalysisType" value="Classification"/>
  </GeneralInfo>
  <Options>
    <Option name="NCycles" modified="Yes">2000</Option>
    <Option name="HiddenLayers" modified="Yes">N+3</Option>
    <Option name="NeuronType" modified="Yes">tanh</Option>
    <Option name="RandomSeed" modified="No">1</Option>
    <Option name="EstimatorType" modified="No">MSE</Option>
    <Option name="NeuronInputType" modified="No">sum</Option>
    <Option name="V" modified="No">False</Option>
    <Option name="VerbosityLevel" modified="No">Default</Option>
    <Option name="VarTransform" modified="Yes">N</Option>
    <Option name="H" modified="No">False</Option>
    <Option name="CreateMVAPdfs" modified="No">False</Option>
    <Option name="IgnoreNegWeightsInTraining" modified="No">False</Option>
    <Option name="TrainingMethod" modified="No">BP</Option>
    <Option name="LearningRate" modified="No">2.000000e-02</Option>
    <Option name="DecayRate" modified="No">1.000000e-02</Option>
    <Option name="TestRate" modified="Yes">5</Option>
    <Option name="EpochMonitoring" modified="No">False</Option>
    <Option name="Sampling" modified="No">1.000000e+00</Option>
    <Option name="SamplingEpoch" modified="No">1.000000e+00</Option>
    <Option name="SamplingImportance" modified="No">1.000000e+00</Option>
    <Option name="SamplingTraining" modified="No">True</Option>
    <Option name="SamplingTesting" modified="No">False</Option>
    <Option name="ResetStep" modified="No">50</Option>
    <Option name="Tau" modified="No">3.000000e+00</Option>
    <Option name="BPMode" modified="No">sequential</Option>
    <Option name="BatchSize" modified="No">-1</Option>
    <Option name="ConvergenceImprove" modified="No">1.000000e-30</Option>
    <Option name="ConvergenceTests" modified="No">-1</Option>
    <Option name="UseRegulator" modified="Yes">False</Option>
    <Option name="UpdateLimit" modified="No">10</Option>
    <Option name="CalculateErrors" modified="No">False</Option>
  </Options>
  <Variables NVar="10">
    <Variable VarIndex="0" Expression="fside" Label="fside" Title="fside" Unit="" Internal="fside" Type="D" Min="0.0705623" Max="1.57899"/>
    <Variable VarIndex="1" Expression="w1" Label="w1" Title="w1" Unit="" Internal="w1" Type="D" Min="0.323817" Max="0.817629"/>
    <Variable VarIndex="2" Expression="wtot" Label="wtot" Title="wtot" Unit="" Internal="wtot" Type="D" Min="0.276427" Max="13.9203"/>
    <Variable VarIndex="3" Expression="deltae" Label="deltae" Title="deltae" Unit="" Internal="deltae" Type="D" Min="-488" Max="16080"/>
    <Variable VarIndex="4" Expression="eratio" Label="eratio" Title="eratio" Unit="" Internal="eratio" Type="D" Min="0.000499417" Max="1.00064"/>
    <Variable VarIndex="5" Expression="rphi" Label="rphi" Title="rphi" Unit="" Internal="rphi" Type="D" Min="0.494286" Max="0.980335"/>
    <Variable VarIndex="6" Expression="rhad" Label="rhad" Title="rhad" Unit="" Internal="rhad" Type="D" Min="-0.0108332" Max="0.0149946"/>
    <Variable VarIndex="7" Expression="reta" Label="reta" Title="reta" Unit="" Internal="reta" Type="D" Min="0.920001" Max="0.973207"/>
    <Variable VarIndex="8" Expression="weta2" Label="weta2" Title="weta2" Unit="" Internal="weta2" Type="D" Min="0.00601101" Max="0.012998"/>
    <Variable VarIndex="9" Expression="f1" Label="f1" Title="f1" Unit="" Internal="f1" Type="D" Min="0.000371724" Max="0.488869"/>
  </Variables>
  <Spectators NSpec="4">
    <Spectator SpecIndex="0" Expression="pt" Label="pt" Title="P_{T} [GeV]" Unit="D" Internal="pt" Type="F" Min="60008.3" Max="79999.9"/>
    <Spectator SpecIndex="1" Expression="etas2" Label="etas2" Title="etas2" Unit="D" Internal="etas2" Type="F" Min="-2.00998" Max="2.00997"/>
    <Spectator SpecIndex="2" Expression="convFlag" Label="convFlag" Title="convFlag" Unit="i" Internal="convFlag" Type="F" Min="0" Max="10"/>
    <Spectator SpecIndex="3" Expression="tight" Label="tight" Title="Tight" Unit="i" Internal="tight" Type="F" Min="0" Max="1"/>
  </Spectators>
  <Transformations NTransformations="1">
    <Transform Name="Normalize" NVariables="10" NTargets="0">
      <Class ClassIndex="0">
        <Variables>
          <Variable VarIndex="0" Min="9.7150541841983795e-02" Max="1.1824694871902466e+00"/>
          <Variable VarIndex="1" Min="3.2381749153137207e-01" Max="8.1762915849685669e-01"/>
          <Variable VarIndex="2" Min="2.7642655372619629e-01" Max="1.3920328140258789e+01"/>
          <Variable VarIndex="3" Min="-2.9313661575317383e+01" Max="1.0998689453125000e+04"/>
          <Variable VarIndex="4" Min="4.7032283619046211e-03" Max="1.0006393194198608e+00"/>
          <Variable VarIndex="5" Min="8.7192398309707642e-01" Max="9.7774970531463623e-01"/>
          <Variable VarIndex="6" Min="-1.0833245702087879e-02" Max="1.4839985407888889e-02"/>
          <Variable VarIndex="7" Min="9.2453807592391968e-01" Max="9.7001898288726807e-01"/>
          <Variable VarIndex="8" Min="8.9731542393565178e-03" Max="1.1413381434977055e-02"/>
          <Variable VarIndex="9" Min="3.7172419251874089e-04" Max="4.2904660105705261e-01"/>
        </Variables>
        <Targets/>
      </Class>
      <Class ClassIndex="1">
        <Variables>
          <Variable VarIndex="0" Min="7.0562295615673065e-02" Max="1.5789871215820312e+00"/>
          <Variable VarIndex="1" Min="4.1525670886039734e-01" Max="8.1152510643005371e-01"/>
          <Variable VarIndex="2" Min="8.8171261548995972e-01" Max="1.3746178627014160e+01"/>
          <Variable VarIndex="3" Min="-4.8800000000000000e+02" Max="1.6080000000000000e+04"/>
          <Variable VarIndex="4" Min="4.9941736506298184e-04" Max="1.0000000000000000e+00"/>
          <Variable VarIndex="5" Min="4.9428611993789673e-01" Max="9.8033469915390015e-01"/>
          <Variable VarIndex="6" Min="-1.0208141058683395e-02" Max="1.4994572848081589e-02"/>
          <Variable VarIndex="7" Min="9.2000061273574829e-01" Max="9.7320687770843506e-01"/>
          <Variable VarIndex="8" Min="6.0110054910182953e-03" Max="1.2998002581298351e-02"/>
          <Variable VarIndex="9" Min="1.4446845743805170e-03" Max="4.8886859416961670e-01"/>
        </Variables>
        <Targets/>
      </Class>
      <Class ClassIndex="2">
        <Variables>
          <Variable VarIndex="0" Min="7.0562295615673065e-02" Max="1.5789871215820312e+00"/>
          <Variable VarIndex="1" Min="3.2381749153137207e-01" Max="8.1762915849685669e-01"/>
          <Variable VarIndex="2" Min="2.7642655372619629e-01" Max="1.3920328140258789e+01"/>
          <Variable VarIndex="3" Min="-4.8800000000000000e+02" Max="1.6080000000000000e+04"/>
          <Variable VarIndex="4" Min="4.9941736506298184e-04" Max="1.0006393194198608e+00"/>
          <Variable VarIndex="5" Min="4.9428611993789673e-01" Max="9.8033469915390015e-01"/>
          <Variable VarIndex="6" Min="-1.0833245702087879e-02" Max="1.4994572848081589e-02"/>
          <Variable VarIndex="7" Min="9.2000061273574829e-01" Max="9.7320687770843506e-01"/>
          <Variable VarIndex="8" Min="6.0110054910182953e-03" Max="1.2998002581298351e-02"/>
          <Variable VarIndex="9" Min="3.7172419251874089e-04" Max="4.8886859416961670e-01"/>
        </Variables>
        <Targets/>
      </Class>
    </Transform>
  </Transformations>
  <MVAPdfs/>
  <Weights>
    <Layout NLayers="3">
      <Layer Index="0" NNeurons="11">
        <Neuron NSynapses="13">
          -9.1544756860254251e-01 1.9646131008285879e+00 5.7261871495631222e-01 1.6431876269975707e+00 -2.2188186433497035e+00 -7.7595059453066506e-01 -2.6775645882463983e-01 1.8671257667518006e+00 -1.3838953645666368e+00 -9.2232787260663571e-02 -1.5302817474995905e+00 -8.8234219610567965e-01 -4.0707247135534832e+00 
        </Neuron>
        <Neuron NSynapses="13">
          -3.0541121646418635e-02 -8.4641884041721727e-01 6.8799871131888635e-01 -9.0311411115442330e-01 1.6963950121451568e+00 1.0154218851822086e+00 1.3290781931266622e+00 -5.6383806704949546e-01 -7.3986402524419981e-01 9.2394898467417885e-01 6.7497938432902926e-01 -1.6883671919281302e+00 -1.1734677772274154e+00 
        </Neuron>
        <Neuron NSynapses="13">
          8.4037464763705261e-01 -9.9652721175802916e-01 -2.2086772767841163e+00 5.2617181746953778e-01 2.8506716303565832e-01 1.2553567667167871e+00 1.2704213076191431e-01 1.2690293448174067e-01 1.2440416926709627e-01 -4.8788243110740026e-01 -1.7265429821341467e+00 1.9234127168497719e+00 -1.2826223608134708e+00 
        </Neuron>
        <Neuron NSynapses="13">
          3.4424737369776787e-01 7.4182378208059319e-01 3.9175617547750718e-01 1.8697960435979695e+00 6.9179601660799539e-01 -1.7557449278086776e+00 -1.0609914598788728e+00 1.1094797441508937e+00 9.1489178053560716e-02 7.9567961839249002e-01 1.1437068806739015e+00 1.8426158198640381e+00 3.2082019766002308e+00 
        </Neuron>
        <Neuron NSynapses="13">
          -1.3906598744136622e+00 1.1948047713888124e+00 -1.2263589607878891e+00 -3.0096489258354808e-01 -9.9363446443613668e-01 -1.3667454849581204e+00 8.4736791262833411e-01 6.2779247187166998e-01 -1.7614399993569680e+00 -5.7850160276616280e-01 -2.1218189548352093e-01 2.0920994627092622e+00 3.0230809323118395e+00 
        </Neuron>
        <Neuron NSynapses="13">
          6.3101277691834856e-01 7.7500431775274792e-01 -1.0327425427812600e+00 2.4093816946015104e-01 -5.6337800342151090e-01 -2.6060623568639905e+00 -1.9362513270512529e+00 5.5147649115692221e-01 9.1864009546411818e-01 3.7597323877889532e-01 -2.9643955533460137e-01 -1.1089906806644145e+00 1.4275021654604447e+00 
        </Neuron>
        <Neuron NSynapses="13">
          9.5865671707945432e-01 5.6492788775849700e-01 1.6009953243562682e+00 2.6737101264972057e-01 9.0266476658793660e-01 4.7107401012364758e-01 -6.6294621357742334e-01 -7.7277169208074467e-02 9.8075059006317811e-01 1.4925122162697013e-01 3.7504654083874250e-01 -1.6852852861243957e+00 -1.6443276522368870e+00 
        </Neuron>
        <Neuron NSynapses="13">
          -5.7815880871883474e-01 2.8444561555480168e+00 -1.4587694098354194e+00 -2.1683895613911217e-01 1.0260715470399793e+00 -1.6342066383066616e+00 -1.4486184854724580e+00 -9.9346101183752711e-01 -2.1671891296167581e-01 -1.3769023112640815e+00 -1.7145750867566769e+00 4.4331466424233329e-01 1.1875664889574835e+00 
        </Neuron>
        <Neuron NSynapses="13">
          -6.4520306984567155e-01 8.2163139001668384e-01 -6.3065749619644496e-01 -1.1636623016346952e+00 8.8152179402900779e-02 -4.2182500854595434e-01 -1.8682427838695945e+00 -1.8815947219557055e-01 1.3067220052912090e+00 1.9947557483247875e+00 8.5253494228934934e-01 5.6093491707051324e-01 -2.3216285417981267e-01 
        </Neuron>
        <Neuron NSynapses="13">
          -1.1446588349770239e+00 1.3235052886762125e-01 -9.2568079760222921e-01 -1.5363838148681093e+00 3.1422352588463359e-01 8.9843062945534324e-01 1.9162067975663779e+00 3.6884746919009059e-01 5.8920969813250001e-01 3.7243425300658592e-02 3.0102406383055702e+00 -1.5366425235257448e+00 4.2483245541783876e-01 
        </Neuron>
        <Neuron NSynapses="13">
          1.1101499061389601e+00 -1.3428383669267299e+00 1.0741962080093235e+00 -2.0854433165410162e+00 6.3753556027957736e-01 3.0641065447312164e+00 1.2193109242443312e+00 -2.3570142763949522e+00 7.9166286172209444e-02 2.1900977627952312e+00 2.6306017178170236e+00 -2.2431959365197829e-01 -5.4345188480943474e+00 
        </Neuron>
      </Layer>
      <Layer Index="1" NNeurons="14">
        <Neuron NSynapses="1">
          -9.2265885372804543e-02 
        </Neuron>
        <Neuron NSynapses="1">
          -2.5426465260798448e-01 
        </Neuron>
        <Neuron NSynapses="1">
          1.3343829358387213e-01 
        </Neuron>
        <Neuron NSynapses="1">
          1.2119021979599216e+00 
        </Neuron>
        <Neuron NSynapses="1">
          1.7412292476813248e-02 
        </Neuron>
        <Neuron NSynapses="1">
          -4.5659469583024609e-01 
        </Neuron>
        <Neuron NSynapses="1">
          5.7402196819861069e-03 
        </Neuron>
        <Neuron NSynapses="1">
          -5.1237574646682205e-01 
        </Neuron>
        <Neuron NSynapses="1">
          7.9569888736403180e-02 
        </Neuron>
        <Neuron NSynapses="1">
          8.1652496312218126e-01 
        </Neuron>
        <Neuron NSynapses="1">
          -5.7439755912586343e-01 
        </Neuron>
        <Neuron NSynapses="1">
          -3.4784945969820524e-01 
        </Neuron>
        <Neuron NSynapses="1">
          5.6634440804505537e-01 
        </Neuron>
        <Neuron NSynapses="1">
          7.3768518107346126e-01 
        </Neuron>
      </Layer>
      <Layer Index="2" NNeurons="1">
        <Neuron NSynapses="0"/>
      </Layer>
    </Layout>
  </Weights>
</MethodSetup>
