<?xml version="1.0"?>
<MethodSetup Method="MLP::MLP_N3.pt80_eta1.37_conv2">
  <GeneralInfo>
    <Info name="TMVA Release" value="4.1.0 [262400]"/>
    <Info name="ROOT Release" value="5.28/00 [334848]"/>
    <Info name="Creator" value="jsaxon"/>
    <Info name="Date" value="Sat Nov 19 00:31:54 2011"/>
    <Info name="Host" value="Linux lxbuild148.cern.ch 2.6.18-194.26.1.el5 #1 SMP Wed Nov 10 09:45:46 CET 2010 x86_64 x86_64 x86_64 GNU/Linux"/>
    <Info name="Dir" value="/home/jsaxon/NeuralNetworks/tmva_fudge9"/>
    <Info name="Training events" value="10000"/>
    <Info name="TrainingTime" value="401.733"/>
    <Info name="AnalysisType" value="Classification"/>
  </GeneralInfo>
  <Options>
    <Option name="NCycles" modified="Yes">2000</Option>
    <Option name="HiddenLayers" modified="Yes">N+3</Option>
    <Option name="NeuronType" modified="Yes">tanh</Option>
    <Option name="RandomSeed" modified="No">1</Option>
    <Option name="EstimatorType" modified="No">MSE</Option>
    <Option name="NeuronInputType" modified="No">sum</Option>
    <Option name="V" modified="No">False</Option>
    <Option name="VerbosityLevel" modified="No">Default</Option>
    <Option name="VarTransform" modified="Yes">N</Option>
    <Option name="H" modified="No">False</Option>
    <Option name="CreateMVAPdfs" modified="No">False</Option>
    <Option name="IgnoreNegWeightsInTraining" modified="No">False</Option>
    <Option name="TrainingMethod" modified="No">BP</Option>
    <Option name="LearningRate" modified="No">2.000000e-02</Option>
    <Option name="DecayRate" modified="No">1.000000e-02</Option>
    <Option name="TestRate" modified="Yes">5</Option>
    <Option name="EpochMonitoring" modified="No">False</Option>
    <Option name="Sampling" modified="No">1.000000e+00</Option>
    <Option name="SamplingEpoch" modified="No">1.000000e+00</Option>
    <Option name="SamplingImportance" modified="No">1.000000e+00</Option>
    <Option name="SamplingTraining" modified="No">True</Option>
    <Option name="SamplingTesting" modified="No">False</Option>
    <Option name="ResetStep" modified="No">50</Option>
    <Option name="Tau" modified="No">3.000000e+00</Option>
    <Option name="BPMode" modified="No">sequential</Option>
    <Option name="BatchSize" modified="No">-1</Option>
    <Option name="ConvergenceImprove" modified="No">1.000000e-30</Option>
    <Option name="ConvergenceTests" modified="No">-1</Option>
    <Option name="UseRegulator" modified="Yes">False</Option>
    <Option name="UpdateLimit" modified="No">10</Option>
    <Option name="CalculateErrors" modified="No">False</Option>
  </Options>
  <Variables NVar="10">
    <Variable VarIndex="0" Expression="fside" Label="fside" Title="fside" Unit="" Internal="fside" Type="D" Min="0" Max="1.28539"/>
    <Variable VarIndex="1" Expression="w1" Label="w1" Title="w1" Unit="" Internal="w1" Type="D" Min="0.515767" Max="0.80765"/>
    <Variable VarIndex="2" Expression="wtot" Label="wtot" Title="wtot" Unit="" Internal="wtot" Type="D" Min="1.81934" Max="7.97047"/>
    <Variable VarIndex="3" Expression="deltae" Label="deltae" Title="deltae" Unit="" Internal="deltae" Type="D" Min="-4.35317" Max="4412"/>
    <Variable VarIndex="4" Expression="eratio" Label="eratio" Title="eratio" Unit="" Internal="eratio" Type="D" Min="0" Max="1.00772"/>
    <Variable VarIndex="5" Expression="rphi" Label="rphi" Title="rphi" Unit="" Internal="rphi" Type="D" Min="0.393054" Max="0.985801"/>
    <Variable VarIndex="6" Expression="rhad" Label="rhad" Title="rhad" Unit="" Internal="rhad" Type="D" Min="-0.012429" Max="0.00798129"/>
    <Variable VarIndex="7" Expression="reta" Label="reta" Title="reta" Unit="" Internal="reta" Type="D" Min="0.916076" Max="0.976739"/>
    <Variable VarIndex="8" Expression="weta2" Label="weta2" Title="weta2" Unit="" Internal="weta2" Type="D" Min="0.00815933" Max="0.012993"/>
    <Variable VarIndex="9" Expression="f1" Label="f1" Title="f1" Unit="" Internal="f1" Type="D" Min="0.00356997" Max="0.391906"/>
  </Variables>
  <Spectators NSpec="4">
    <Spectator SpecIndex="0" Expression="pt" Label="pt" Title="P_{T} [GeV]" Unit="D" Internal="pt" Type="F" Min="60000.7" Max="79999.5"/>
    <Spectator SpecIndex="1" Expression="etas2" Label="etas2" Title="etas2" Unit="D" Internal="etas2" Type="F" Min="-1.36998" Max="1.36986"/>
    <Spectator SpecIndex="2" Expression="convFlag" Label="convFlag" Title="convFlag" Unit="i" Internal="convFlag" Type="F" Min="2" Max="12"/>
    <Spectator SpecIndex="3" Expression="tight" Label="tight" Title="Tight" Unit="i" Internal="tight" Type="F" Min="0" Max="1"/>
  </Spectators>
  <Transformations NTransformations="1">
    <Transform Name="Normalize" NVariables="10" NTargets="0">
      <Class ClassIndex="0">
        <Variables>
          <Variable VarIndex="0" Min="1.9185069203376770e-01" Max="7.7085548639297485e-01"/>
          <Variable VarIndex="1" Min="5.6105631589889526e-01" Max="7.6960486173629761e-01"/>
          <Variable VarIndex="2" Min="1.8193427324295044e+00" Max="4.2136926651000977e+00"/>
          <Variable VarIndex="3" Min="-4.3531699180603027e+00" Max="1.6186527099609375e+03"/>
          <Variable VarIndex="4" Min="4.9330033361911774e-02" Max="1.0077248811721802e+00"/>
          <Variable VarIndex="5" Min="6.0296720266342163e-01" Max="9.7308129072189331e-01"/>
          <Variable VarIndex="6" Min="-9.1088432818651199e-03" Max="7.9812891781330109e-03"/>
          <Variable VarIndex="7" Min="9.1607630252838135e-01" Max="9.7673851251602173e-01"/>
          <Variable VarIndex="8" Min="9.0220877900719643e-03" Max="1.2870849110186100e-02"/>
          <Variable VarIndex="9" Min="2.1996522322297096e-02" Max="3.4131795167922974e-01"/>
        </Variables>
        <Targets/>
      </Class>
      <Class ClassIndex="1">
        <Variables>
          <Variable VarIndex="0" Min="0.0000000000000000e+00" Max="1.2853887081146240e+00"/>
          <Variable VarIndex="1" Min="5.1576685905456543e-01" Max="8.0764955282211304e-01"/>
          <Variable VarIndex="2" Min="1.9678357839584351e+00" Max="7.9704737663269043e+00"/>
          <Variable VarIndex="3" Min="0.0000000000000000e+00" Max="4.4120000000000000e+03"/>
          <Variable VarIndex="4" Min="0.0000000000000000e+00" Max="1.0000000000000000e+00"/>
          <Variable VarIndex="5" Min="3.9305385947227478e-01" Max="9.8580110073089600e-01"/>
          <Variable VarIndex="6" Min="-1.2428984045982361e-02" Max="7.9761249944567680e-03"/>
          <Variable VarIndex="7" Min="9.1611808538436890e-01" Max="9.7435718774795532e-01"/>
          <Variable VarIndex="8" Min="8.1593338400125504e-03" Max="1.2993049807846546e-02"/>
          <Variable VarIndex="9" Min="3.5699654836207628e-03" Max="3.9190575480461121e-01"/>
        </Variables>
        <Targets/>
      </Class>
      <Class ClassIndex="2">
        <Variables>
          <Variable VarIndex="0" Min="0.0000000000000000e+00" Max="1.2853887081146240e+00"/>
          <Variable VarIndex="1" Min="5.1576685905456543e-01" Max="8.0764955282211304e-01"/>
          <Variable VarIndex="2" Min="1.8193427324295044e+00" Max="7.9704737663269043e+00"/>
          <Variable VarIndex="3" Min="-4.3531699180603027e+00" Max="4.4120000000000000e+03"/>
          <Variable VarIndex="4" Min="0.0000000000000000e+00" Max="1.0077248811721802e+00"/>
          <Variable VarIndex="5" Min="3.9305385947227478e-01" Max="9.8580110073089600e-01"/>
          <Variable VarIndex="6" Min="-1.2428984045982361e-02" Max="7.9812891781330109e-03"/>
          <Variable VarIndex="7" Min="9.1607630252838135e-01" Max="9.7673851251602173e-01"/>
          <Variable VarIndex="8" Min="8.1593338400125504e-03" Max="1.2993049807846546e-02"/>
          <Variable VarIndex="9" Min="3.5699654836207628e-03" Max="3.9190575480461121e-01"/>
        </Variables>
        <Targets/>
      </Class>
    </Transform>
  </Transformations>
  <MVAPdfs/>
  <Weights>
    <Layout NLayers="3">
      <Layer Index="0" NNeurons="11">
        <Neuron NSynapses="13">
          -4.7462647901152050e-01 4.0263028670481100e+00 5.5833885631939983e-01 2.0509668540431987e+00 -2.8697972784056516e+00 -2.5872202778271745e+00 -7.4050615682987631e-01 1.7880692398844318e+00 -1.8679094159401262e+00 -1.1921949518826358e+00 -1.1243228317257941e+00 -4.4731793257612845e-01 -2.7349536289719261e+00 
        </Neuron>
        <Neuron NSynapses="13">
          -2.2640081246228839e-02 -2.3019156542524719e+00 5.1346565383247356e-01 -6.2554474362681955e-01 1.2378481330372981e+00 5.5717196974576189e-01 1.2275010964791671e+00 -4.8540109152866123e-01 -1.3271860816837466e+00 7.8912373821792470e-01 1.6141794711465510e-01 -1.1722061993993369e+00 -8.6785081182876112e-01 
        </Neuron>
        <Neuron NSynapses="13">
          9.0034207602287863e-01 -3.3578451700334178e-01 -2.1301618735097021e+00 1.2645150441580019e-01 3.6633553924624346e-01 2.4889177651585981e-01 -1.0864976300100343e-01 2.3954230549171179e-01 5.8249841581532713e-01 3.2462924674666917e-02 -7.6489345951735010e-01 1.7118411823005204e+00 1.9681682022683311e+00 
        </Neuron>
        <Neuron NSynapses="13">
          3.3908574763843413e-01 -1.2777403986708061e-01 6.2613076615468188e-01 1.6823832983294391e+00 3.7896410105062484e-01 -8.7214773346068153e-01 -1.1687282046477983e+00 1.0810651185514755e+00 -5.1417991889053016e-01 1.8909749456926330e+00 1.2076626616027311e+00 1.4878809979525112e+00 1.6104552491709794e+00 
        </Neuron>
        <Neuron NSynapses="13">
          -1.6912518276238544e+00 1.8640349518175536e+00 -1.2803967071772486e+00 -9.4816677542601230e-02 -1.8187984400364603e+00 -2.1628636355923927e+00 1.6405410705610510e+00 2.9780896582507188e-01 -1.2900130694002607e+00 1.7371670299420530e-01 -1.3715528037398395e+00 7.1879499114910561e-01 4.2358557235245033e+00 
        </Neuron>
        <Neuron NSynapses="13">
          2.3724611875911134e-01 1.7531538184407361e-01 -7.3389353631774445e-01 6.7277547025475601e-02 -9.0499579347319267e-02 -9.6736456865017340e-01 -1.8190566280372280e+00 6.1101479379516743e-01 1.0773762614592738e-01 8.7455051760353331e-01 2.5717473195622420e-01 -1.8620133131220293e+00 8.5272176546813350e-01 
        </Neuron>
        <Neuron NSynapses="13">
          8.3321821145531916e-01 6.4936387906511028e-01 1.8588404386630808e+00 3.6812283230447662e-01 1.2994239292553498e+00 5.3229549211419834e-02 -1.0746544114378602e+00 -3.3071624456647675e-01 1.3556590723648343e+00 -1.6399581858675216e+00 -6.8767280210173476e-01 -1.6813311774944377e+00 -1.3690821361092373e+00 
        </Neuron>
        <Neuron NSynapses="13">
          -6.7218845044775555e-01 4.0080852499814940e-01 -1.3517488040542438e+00 -3.1302832954358051e-01 -2.4637077076340430e-01 -3.9108394056738122e-01 -1.4657601916668888e+00 -1.0161253976858402e+00 -7.9465489590837179e-01 -3.4868274042768388e-01 -2.6607933033149376e+00 7.1675447647627810e-01 1.9150737194265686e+00 
        </Neuron>
        <Neuron NSynapses="13">
          -1.0800084901446656e+00 2.3270171399722778e-01 -5.2206245650705485e-01 -6.6847685453114636e-01 -3.6415482692827206e-01 6.1905545295949460e-01 -1.9955246473587189e+00 -1.3904067795669742e-01 3.7819627486629870e-01 9.0622446034861585e-04 -1.4293277350654532e+00 1.8763629383464608e+00 -1.3702919130970035e+00 
        </Neuron>
        <Neuron NSynapses="13">
          -5.2743836580324355e-01 4.9291845907721438e-01 -1.0010677827043379e+00 -1.4626763581477016e+00 -3.3754286405332468e-01 -1.5271653705428945e+00 1.7994942680493202e+00 2.4241461165950215e-01 -2.4602148197240964e-01 -1.4197546613205458e-01 -2.6668975764956565e-01 -1.8049154991857383e+00 2.0464278373717164e+00 
        </Neuron>
        <Neuron NSynapses="13">
          1.4035737305361835e+00 -1.2999040385036025e+00 1.1772161902510614e+00 -2.3005202034553842e+00 4.4506464110482385e-01 1.0018140755602543e+00 1.1509006291329902e+00 -2.4105673838271233e+00 1.1905441312829339e+00 1.1266876907414387e+00 2.0240054557637341e+00 2.8124094927117538e-01 -2.3502670621075201e+00 
        </Neuron>
      </Layer>
      <Layer Index="1" NNeurons="14">
        <Neuron NSynapses="1">
          1.9880887986621684e-01 
        </Neuron>
        <Neuron NSynapses="1">
          -4.2506352703097555e-01 
        </Neuron>
        <Neuron NSynapses="1">
          1.4679202213033679e-01 
        </Neuron>
        <Neuron NSynapses="1">
          9.9723387901885530e-01 
        </Neuron>
        <Neuron NSynapses="1">
          -2.7948238238498602e-01 
        </Neuron>
        <Neuron NSynapses="1">
          -2.5861454330301997e-01 
        </Neuron>
        <Neuron NSynapses="1">
          6.5230994611078438e-03 
        </Neuron>
        <Neuron NSynapses="1">
          -3.0253287257961931e-01 
        </Neuron>
        <Neuron NSynapses="1">
          2.6750336056470714e-01 
        </Neuron>
        <Neuron NSynapses="1">
          2.5787111195876143e-02 
        </Neuron>
        <Neuron NSynapses="1">
          -1.9997110090971779e-01 
        </Neuron>
        <Neuron NSynapses="1">
          5.1302820021299658e-04 
        </Neuron>
        <Neuron NSynapses="1">
          3.8882538814781786e-01 
        </Neuron>
        <Neuron NSynapses="1">
          7.8669142160349470e-01 
        </Neuron>
      </Layer>
      <Layer Index="2" NNeurons="1">
        <Neuron NSynapses="0"/>
      </Layer>
    </Layout>
  </Weights>
</MethodSetup>
