<?xml version="1.0"?>
<MethodSetup Method="MLP::MLP_N3.pt50_eta1.37_conv1">
  <GeneralInfo>
    <Info name="TMVA Release" value="4.1.0 [262400]"/>
    <Info name="ROOT Release" value="5.28/00 [334848]"/>
    <Info name="Creator" value="jsaxon"/>
    <Info name="Date" value="Sat Nov 19 00:15:41 2011"/>
    <Info name="Host" value="Linux lxbuild148.cern.ch 2.6.18-194.26.1.el5 #1 SMP Wed Nov 10 09:45:46 CET 2010 x86_64 x86_64 x86_64 GNU/Linux"/>
    <Info name="Dir" value="/home/jsaxon/NeuralNetworks/tmva_fudge9"/>
    <Info name="Training events" value="9588"/>
    <Info name="TrainingTime" value="206.081"/>
    <Info name="AnalysisType" value="Classification"/>
  </GeneralInfo>
  <Options>
    <Option name="NCycles" modified="Yes">2000</Option>
    <Option name="HiddenLayers" modified="Yes">N+3</Option>
    <Option name="NeuronType" modified="Yes">tanh</Option>
    <Option name="RandomSeed" modified="No">1</Option>
    <Option name="EstimatorType" modified="No">MSE</Option>
    <Option name="NeuronInputType" modified="No">sum</Option>
    <Option name="V" modified="No">False</Option>
    <Option name="VerbosityLevel" modified="No">Default</Option>
    <Option name="VarTransform" modified="Yes">N</Option>
    <Option name="H" modified="No">False</Option>
    <Option name="CreateMVAPdfs" modified="No">False</Option>
    <Option name="IgnoreNegWeightsInTraining" modified="No">False</Option>
    <Option name="TrainingMethod" modified="No">BP</Option>
    <Option name="LearningRate" modified="No">2.000000e-02</Option>
    <Option name="DecayRate" modified="No">1.000000e-02</Option>
    <Option name="TestRate" modified="Yes">5</Option>
    <Option name="EpochMonitoring" modified="No">False</Option>
    <Option name="Sampling" modified="No">1.000000e+00</Option>
    <Option name="SamplingEpoch" modified="No">1.000000e+00</Option>
    <Option name="SamplingImportance" modified="No">1.000000e+00</Option>
    <Option name="SamplingTraining" modified="No">True</Option>
    <Option name="SamplingTesting" modified="No">False</Option>
    <Option name="ResetStep" modified="No">50</Option>
    <Option name="Tau" modified="No">3.000000e+00</Option>
    <Option name="BPMode" modified="No">sequential</Option>
    <Option name="BatchSize" modified="No">-1</Option>
    <Option name="ConvergenceImprove" modified="No">1.000000e-30</Option>
    <Option name="ConvergenceTests" modified="No">-1</Option>
    <Option name="UseRegulator" modified="Yes">False</Option>
    <Option name="UpdateLimit" modified="No">10</Option>
    <Option name="CalculateErrors" modified="No">False</Option>
  </Options>
  <Variables NVar="10">
    <Variable VarIndex="0" Expression="fside" Label="fside" Title="fside" Unit="" Internal="fside" Type="D" Min="0" Max="1.2186"/>
    <Variable VarIndex="1" Expression="w1" Label="w1" Title="w1" Unit="" Internal="w1" Type="D" Min="0.417668" Max="0.807074"/>
    <Variable VarIndex="2" Expression="wtot" Label="wtot" Title="wtot" Unit="" Internal="wtot" Type="D" Min="1.36808" Max="8.70601"/>
    <Variable VarIndex="3" Expression="deltae" Label="deltae" Title="deltae" Unit="" Internal="deltae" Type="D" Min="-3.1849" Max="2860"/>
    <Variable VarIndex="4" Expression="eratio" Label="eratio" Title="eratio" Unit="" Internal="eratio" Type="D" Min="1.04273e-06" Max="1.00637"/>
    <Variable VarIndex="5" Expression="rphi" Label="rphi" Title="rphi" Unit="" Internal="rphi" Type="D" Min="0.425414" Max="0.985911"/>
    <Variable VarIndex="6" Expression="rhad" Label="rhad" Title="rhad" Unit="" Internal="rhad" Type="D" Min="-0.0176521" Max="0.00798845"/>
    <Variable VarIndex="7" Expression="reta" Label="reta" Title="reta" Unit="" Internal="reta" Type="D" Min="0.916103" Max="0.986225"/>
    <Variable VarIndex="8" Expression="weta2" Label="weta2" Title="weta2" Unit="" Internal="weta2" Type="D" Min="0.00800869" Max="0.012987"/>
    <Variable VarIndex="9" Expression="f1" Label="f1" Title="f1" Unit="" Internal="f1" Type="D" Min="0.00482767" Max="0.37375"/>
  </Variables>
  <Spectators NSpec="4">
    <Spectator SpecIndex="0" Expression="pt" Label="pt" Title="P_{T} [GeV]" Unit="D" Internal="pt" Type="F" Min="40000.7" Max="49997.8"/>
    <Spectator SpecIndex="1" Expression="etas2" Label="etas2" Title="etas2" Unit="D" Internal="etas2" Type="F" Min="-1.36999" Max="1.3699"/>
    <Spectator SpecIndex="2" Expression="convFlag" Label="convFlag" Title="convFlag" Unit="i" Internal="convFlag" Type="F" Min="11" Max="11"/>
    <Spectator SpecIndex="3" Expression="tight" Label="tight" Title="Tight" Unit="i" Internal="tight" Type="F" Min="0" Max="1"/>
  </Spectators>
  <Transformations NTransformations="1">
    <Transform Name="Normalize" NVariables="10" NTargets="0">
      <Class ClassIndex="0">
        <Variables>
          <Variable VarIndex="0" Min="1.3454245030879974e-01" Max="1.1535227298736572e+00"/>
          <Variable VarIndex="1" Min="4.9411886930465698e-01" Max="7.9815858602523804e-01"/>
          <Variable VarIndex="2" Min="1.3680782318115234e+00" Max="8.7060098648071289e+00"/>
          <Variable VarIndex="3" Min="-3.1849000453948975e+00" Max="1.2898176269531250e+03"/>
          <Variable VarIndex="4" Min="1.6498066484928131e-02" Max="1.0063683986663818e+00"/>
          <Variable VarIndex="5" Min="6.0915702581405640e-01" Max="9.8032277822494507e-01"/>
          <Variable VarIndex="6" Min="-1.7652122303843498e-02" Max="7.8931711614131927e-03"/>
          <Variable VarIndex="7" Min="9.1648000478744507e-01" Max="9.8622477054595947e-01"/>
          <Variable VarIndex="8" Min="8.7545905262231827e-03" Max="1.2715509161353111e-02"/>
          <Variable VarIndex="9" Min="6.9464975968003273e-03" Max="3.7375015020370483e-01"/>
        </Variables>
        <Targets/>
      </Class>
      <Class ClassIndex="1">
        <Variables>
          <Variable VarIndex="0" Min="0.0000000000000000e+00" Max="1.2185970544815063e+00"/>
          <Variable VarIndex="1" Min="4.1766750812530518e-01" Max="8.0707383155822754e-01"/>
          <Variable VarIndex="2" Min="1.7124172449111938e+00" Max="7.6780939102172852e+00"/>
          <Variable VarIndex="3" Min="0.0000000000000000e+00" Max="2.8600000000000000e+03"/>
          <Variable VarIndex="4" Min="1.0427323786643683e-06" Max="1.0000000000000000e+00"/>
          <Variable VarIndex="5" Min="4.2541375756263733e-01" Max="9.8591130971908569e-01"/>
          <Variable VarIndex="6" Min="-1.4421606436371803e-02" Max="7.9884463921189308e-03"/>
          <Variable VarIndex="7" Min="9.1610294580459595e-01" Max="9.7679984569549561e-01"/>
          <Variable VarIndex="8" Min="8.0086914822459221e-03" Max="1.2987042777240276e-02"/>
          <Variable VarIndex="9" Min="4.8276726156473160e-03" Max="3.6858007311820984e-01"/>
        </Variables>
        <Targets/>
      </Class>
      <Class ClassIndex="2">
        <Variables>
          <Variable VarIndex="0" Min="0.0000000000000000e+00" Max="1.2185970544815063e+00"/>
          <Variable VarIndex="1" Min="4.1766750812530518e-01" Max="8.0707383155822754e-01"/>
          <Variable VarIndex="2" Min="1.3680782318115234e+00" Max="8.7060098648071289e+00"/>
          <Variable VarIndex="3" Min="-3.1849000453948975e+00" Max="2.8600000000000000e+03"/>
          <Variable VarIndex="4" Min="1.0427323786643683e-06" Max="1.0063683986663818e+00"/>
          <Variable VarIndex="5" Min="4.2541375756263733e-01" Max="9.8591130971908569e-01"/>
          <Variable VarIndex="6" Min="-1.7652122303843498e-02" Max="7.9884463921189308e-03"/>
          <Variable VarIndex="7" Min="9.1610294580459595e-01" Max="9.8622477054595947e-01"/>
          <Variable VarIndex="8" Min="8.0086914822459221e-03" Max="1.2987042777240276e-02"/>
          <Variable VarIndex="9" Min="4.8276726156473160e-03" Max="3.7375015020370483e-01"/>
        </Variables>
        <Targets/>
      </Class>
    </Transform>
  </Transformations>
  <MVAPdfs/>
  <Weights>
    <Layout NLayers="3">
      <Layer Index="0" NNeurons="11">
        <Neuron NSynapses="13">
          -4.9001834720512177e-01 4.0743239304911976e+00 7.7517642340837856e-01 1.6719810988652564e+00 -3.0358354558303597e+00 8.5182649479342931e-01 -5.7255815261558118e-01 1.6804273320989103e+00 -1.5614543885355219e+00 -1.1617758290754043e+00 -6.7891790886384251e-01 -4.3519427632076652e-01 -2.2934592130457547e+00 
        </Neuron>
        <Neuron NSynapses="13">
          1.2872450844334052e-01 -1.9323276447494786e+00 5.7462781873044266e-01 -6.6516107740409247e-01 1.3730355766111688e+00 5.2058500234499250e-01 1.4618971291565908e+00 -5.6490273509616029e-01 -3.7428906220360547e-01 5.8355035627410101e-01 2.2719111593132793e-01 -1.1946459402241725e+00 2.0640528729224485e-02 
        </Neuron>
        <Neuron NSynapses="13">
          1.0725129762027241e+00 -5.2539666271523655e-01 -1.6972871613920057e+00 -1.4354450074671463e-01 3.1069725142773968e-01 -3.0619025866133903e-01 8.4373471513020368e-02 1.0288377616632528e-01 5.1479309711916421e-01 2.2490994198957104e-01 -7.9547296994144812e-01 1.7501174607160721e+00 -6.0389805017711884e-01 
        </Neuron>
        <Neuron NSynapses="13">
          5.1839600391585861e-01 2.9076338431348447e-01 7.2711396948883533e-01 1.5891200211575174e+00 4.8715130949517793e-01 -1.0705817692341206e+00 -1.3627157553433784e+00 1.0591077379655542e+00 5.0173390001455979e-02 1.7849983302951142e+00 1.2925589382765281e+00 1.6335056243422883e+00 1.3982887005343085e+00 
        </Neuron>
        <Neuron NSynapses="13">
          -1.5583918357396143e+00 1.4229219483072062e+00 -1.3118831137927032e+00 -3.4233101325088146e-02 -1.7867194776271393e+00 -1.3741757550620717e+00 8.3234452983510288e-01 3.2844145300881322e-01 -1.8195945238539455e+00 -4.0030633420783529e-02 -1.0356398444479742e+00 6.9259528431903872e-01 1.9370648356592133e+00 
        </Neuron>
        <Neuron NSynapses="13">
          2.9884399760787478e-01 1.1055743332535544e+00 -1.1953675728800413e+00 2.0198156371961770e-01 -7.6196009874327453e-01 -3.5941530728689872e+00 -1.8202190982660993e+00 9.1251491548541941e-01 1.2695116976912220e+00 1.0760277984953353e+00 -5.6026660002033857e-01 -1.8645441170595678e+00 6.6269368979909107e-02 
        </Neuron>
        <Neuron NSynapses="13">
          1.2535419224944395e+00 5.3759835211039630e-01 1.3557520754161150e+00 1.1266914321242454e-01 1.0560038308148316e+00 1.1709132600780563e+00 -7.5154519913805029e-01 -3.9453074892003520e-01 1.1449753279612938e+00 -1.4575101474440937e+00 -1.5101180131275996e-01 -1.7006318238421161e+00 -6.9133993660589810e-01 
        </Neuron>
        <Neuron NSynapses="13">
          -4.4012531087344781e-01 5.1811910860139909e-01 -1.7930436079386394e+00 3.0162860374407602e-01 1.6158953369494689e-02 -2.0104913121536887e+00 -2.0383964848267282e+00 -7.3979819736664088e-01 -3.9226098025983502e-01 -5.4340472828741637e-01 -2.6964350057437807e+00 7.2350647019276138e-01 1.9859576396191521e+00 
        </Neuron>
        <Neuron NSynapses="13">
          -1.2866936019436714e+00 1.5036947130081013e-01 -4.3500365176185640e-01 -8.6599230541125394e-01 -1.9853551084088324e-02 1.1360575448609997e+00 -1.4247470075948345e+00 -3.1168513729709973e-01 2.4089690562003796e-01 4.0962052473630217e-02 -1.0812032012567043e+00 1.8361340699154043e+00 -3.4959843654451300e-01 
        </Neuron>
        <Neuron NSynapses="13">
          -6.5930969182150734e-01 5.1184227750117028e-01 -2.5515943883269704e-01 -1.7435183879247931e+00 -5.2107073140749338e-01 -2.3690210098084630e+00 2.0200735277027260e+00 -1.5045696174573808e-01 8.1793904365678760e-01 -5.0249956374971927e-01 2.8347849904886774e-01 -1.7790741067672304e+00 2.6731850294860724e+00 
        </Neuron>
        <Neuron NSynapses="13">
          1.1193380820043739e+00 -1.1200435021880195e+00 7.0094499830131107e-01 -2.2353377420284648e+00 6.4625434827051720e-01 2.7113585234086819e+00 1.4945640886534066e+00 -2.2569324523854881e+00 2.4354165570953643e-01 1.0366672940654968e+00 2.0933266350344235e+00 1.4845589071920373e-01 -1.6291738557484017e+00 
        </Neuron>
      </Layer>
      <Layer Index="1" NNeurons="14">
        <Neuron NSynapses="1">
          1.3926882820633751e-01 
        </Neuron>
        <Neuron NSynapses="1">
          -3.6136737118522499e-01 
        </Neuron>
        <Neuron NSynapses="1">
          1.4257703696889890e-01 
        </Neuron>
        <Neuron NSynapses="1">
          7.4565843526587838e-01 
        </Neuron>
        <Neuron NSynapses="1">
          -3.5443585193902621e-01 
        </Neuron>
        <Neuron NSynapses="1">
          -3.4930019005719021e-01 
        </Neuron>
        <Neuron NSynapses="1">
          -1.0986962343131415e-01 
        </Neuron>
        <Neuron NSynapses="1">
          -2.1691071398813336e-01 
        </Neuron>
        <Neuron NSynapses="1">
          9.7248483043638520e-02 
        </Neuron>
        <Neuron NSynapses="1">
          -4.5815079185608482e-02 
        </Neuron>
        <Neuron NSynapses="1">
          -2.0665629792373549e-01 
        </Neuron>
        <Neuron NSynapses="1">
          -7.8918356645792543e-03 
        </Neuron>
        <Neuron NSynapses="1">
          1.2529081191426958e-01 
        </Neuron>
        <Neuron NSynapses="1">
          9.6181210535965156e-01 
        </Neuron>
      </Layer>
      <Layer Index="2" NNeurons="1">
        <Neuron NSynapses="0"/>
      </Layer>
    </Layout>
  </Weights>
</MethodSetup>
