<?xml version="1.0"?>
<MethodSetup Method="MLP::MLP_N3.pt60_eta0.60_conv0">
  <GeneralInfo>
    <Info name="TMVA Release" value="4.1.0 [262400]"/>
    <Info name="ROOT Release" value="5.28/00 [334848]"/>
    <Info name="Creator" value="jsaxon"/>
    <Info name="Date" value="Sat Nov 19 00:35:17 2011"/>
    <Info name="Host" value="Linux lxbuild148.cern.ch 2.6.18-194.26.1.el5 #1 SMP Wed Nov 10 09:45:46 CET 2010 x86_64 x86_64 x86_64 GNU/Linux"/>
    <Info name="Dir" value="/home/jsaxon/NeuralNetworks/tmva_fudge9"/>
    <Info name="Training events" value="10000"/>
    <Info name="TrainingTime" value="674.536"/>
    <Info name="AnalysisType" value="Classification"/>
  </GeneralInfo>
  <Options>
    <Option name="NCycles" modified="Yes">2000</Option>
    <Option name="HiddenLayers" modified="Yes">N+3</Option>
    <Option name="NeuronType" modified="Yes">tanh</Option>
    <Option name="RandomSeed" modified="No">1</Option>
    <Option name="EstimatorType" modified="No">MSE</Option>
    <Option name="NeuronInputType" modified="No">sum</Option>
    <Option name="V" modified="No">False</Option>
    <Option name="VerbosityLevel" modified="No">Default</Option>
    <Option name="VarTransform" modified="Yes">N</Option>
    <Option name="H" modified="No">False</Option>
    <Option name="CreateMVAPdfs" modified="No">False</Option>
    <Option name="IgnoreNegWeightsInTraining" modified="No">False</Option>
    <Option name="TrainingMethod" modified="No">BP</Option>
    <Option name="LearningRate" modified="No">2.000000e-02</Option>
    <Option name="DecayRate" modified="No">1.000000e-02</Option>
    <Option name="TestRate" modified="Yes">5</Option>
    <Option name="EpochMonitoring" modified="No">False</Option>
    <Option name="Sampling" modified="No">1.000000e+00</Option>
    <Option name="SamplingEpoch" modified="No">1.000000e+00</Option>
    <Option name="SamplingImportance" modified="No">1.000000e+00</Option>
    <Option name="SamplingTraining" modified="No">True</Option>
    <Option name="SamplingTesting" modified="No">False</Option>
    <Option name="ResetStep" modified="No">50</Option>
    <Option name="Tau" modified="No">3.000000e+00</Option>
    <Option name="BPMode" modified="No">sequential</Option>
    <Option name="BatchSize" modified="No">-1</Option>
    <Option name="ConvergenceImprove" modified="No">1.000000e-30</Option>
    <Option name="ConvergenceTests" modified="No">-1</Option>
    <Option name="UseRegulator" modified="Yes">False</Option>
    <Option name="UpdateLimit" modified="No">10</Option>
    <Option name="CalculateErrors" modified="No">False</Option>
  </Options>
  <Variables NVar="10">
    <Variable VarIndex="0" Expression="fside" Label="fside" Title="fside" Unit="" Internal="fside" Type="D" Min="0" Max="1.32608"/>
    <Variable VarIndex="1" Expression="w1" Label="w1" Title="w1" Unit="" Internal="w1" Type="D" Min="0.200533" Max="0.814642"/>
    <Variable VarIndex="2" Expression="wtot" Label="wtot" Title="wtot" Unit="" Internal="wtot" Type="D" Min="0.337064" Max="9.40307"/>
    <Variable VarIndex="3" Expression="deltae" Label="deltae" Title="deltae" Unit="" Internal="deltae" Type="D" Min="-0.771809" Max="3780"/>
    <Variable VarIndex="4" Expression="eratio" Label="eratio" Title="eratio" Unit="" Internal="eratio" Type="D" Min="0.000242424" Max="1.00112"/>
    <Variable VarIndex="5" Expression="rphi" Label="rphi" Title="rphi" Unit="" Internal="rphi" Type="D" Min="0.467205" Max="0.997343"/>
    <Variable VarIndex="6" Expression="rhad" Label="rhad" Title="rhad" Unit="" Internal="rhad" Type="D" Min="-0.016946" Max="0.00999951"/>
    <Variable VarIndex="7" Expression="reta" Label="reta" Title="reta" Unit="" Internal="reta" Type="D" Min="0.927155" Max="1.00966"/>
    <Variable VarIndex="8" Expression="weta2" Label="weta2" Title="weta2" Unit="" Internal="weta2" Type="D" Min="-0.000811053" Max="0.0119586"/>
    <Variable VarIndex="9" Expression="f1" Label="f1" Title="f1" Unit="" Internal="f1" Type="D" Min="0.00273467" Max="0.469498"/>
  </Variables>
  <Spectators NSpec="4">
    <Spectator SpecIndex="0" Expression="pt" Label="pt" Title="P_{T} [GeV]" Unit="D" Internal="pt" Type="F" Min="50000.3" Max="59999.1"/>
    <Spectator SpecIndex="1" Expression="etas2" Label="etas2" Title="etas2" Unit="D" Internal="etas2" Type="F" Min="-0.599886" Max="0.599987"/>
    <Spectator SpecIndex="2" Expression="convFlag" Label="convFlag" Title="convFlag" Unit="i" Internal="convFlag" Type="F" Min="0" Max="10"/>
    <Spectator SpecIndex="3" Expression="tight" Label="tight" Title="Tight" Unit="i" Internal="tight" Type="F" Min="0" Max="1"/>
  </Spectators>
  <Transformations NTransformations="1">
    <Transform Name="Normalize" NVariables="10" NTargets="0">
      <Class ClassIndex="0">
        <Variables>
          <Variable VarIndex="0" Min="6.3097625970840454e-03" Max="1.3260750770568848e+00"/>
          <Variable VarIndex="1" Min="2.0053340494632721e-01" Max="7.9207521677017212e-01"/>
          <Variable VarIndex="2" Min="3.3706444501876831e-01" Max="9.4030675888061523e+00"/>
          <Variable VarIndex="3" Min="-7.7180898189544678e-01" Max="2.6323190307617188e+02"/>
          <Variable VarIndex="4" Min="1.1209358926862478e-03" Max="1.0011150836944580e+00"/>
          <Variable VarIndex="5" Min="9.2781788110733032e-01" Max="9.9277210235595703e-01"/>
          <Variable VarIndex="6" Min="-1.5651332214474678e-02" Max="9.7747268155217171e-03"/>
          <Variable VarIndex="7" Min="9.2960798740386963e-01" Max="9.9148505926132202e-01"/>
          <Variable VarIndex="8" Min="7.9425722360610962e-03" Max="1.1206420138478279e-02"/>
          <Variable VarIndex="9" Min="2.7346718125045300e-03" Max="4.6186146140098572e-01"/>
        </Variables>
        <Targets/>
      </Class>
      <Class ClassIndex="1">
        <Variables>
          <Variable VarIndex="0" Min="0.0000000000000000e+00" Max="1.2174432277679443e+00"/>
          <Variable VarIndex="1" Min="2.4825243651866913e-01" Max="8.1464242935180664e-01"/>
          <Variable VarIndex="2" Min="6.1846983432769775e-01" Max="9.1344976425170898e+00"/>
          <Variable VarIndex="3" Min="0.0000000000000000e+00" Max="3.7800000000000000e+03"/>
          <Variable VarIndex="4" Min="2.4242424115072936e-04" Max="1.0000000000000000e+00"/>
          <Variable VarIndex="5" Min="4.6720454096794128e-01" Max="9.9734270572662354e-01"/>
          <Variable VarIndex="6" Min="-1.6946021467447281e-02" Max="9.9995117634534836e-03"/>
          <Variable VarIndex="7" Min="9.2715501785278320e-01" Max="1.0096586942672729e+00"/>
          <Variable VarIndex="8" Min="-8.1105291610583663e-04" Max="1.1958560906350613e-02"/>
          <Variable VarIndex="9" Min="3.3849850296974182e-03" Max="4.6949774026870728e-01"/>
        </Variables>
        <Targets/>
      </Class>
      <Class ClassIndex="2">
        <Variables>
          <Variable VarIndex="0" Min="0.0000000000000000e+00" Max="1.3260750770568848e+00"/>
          <Variable VarIndex="1" Min="2.0053340494632721e-01" Max="8.1464242935180664e-01"/>
          <Variable VarIndex="2" Min="3.3706444501876831e-01" Max="9.4030675888061523e+00"/>
          <Variable VarIndex="3" Min="-7.7180898189544678e-01" Max="3.7800000000000000e+03"/>
          <Variable VarIndex="4" Min="2.4242424115072936e-04" Max="1.0011150836944580e+00"/>
          <Variable VarIndex="5" Min="4.6720454096794128e-01" Max="9.9734270572662354e-01"/>
          <Variable VarIndex="6" Min="-1.6946021467447281e-02" Max="9.9995117634534836e-03"/>
          <Variable VarIndex="7" Min="9.2715501785278320e-01" Max="1.0096586942672729e+00"/>
          <Variable VarIndex="8" Min="-8.1105291610583663e-04" Max="1.1958560906350613e-02"/>
          <Variable VarIndex="9" Min="2.7346718125045300e-03" Max="4.6949774026870728e-01"/>
        </Variables>
        <Targets/>
      </Class>
    </Transform>
  </Transformations>
  <MVAPdfs/>
  <Weights>
    <Layout NLayers="3">
      <Layer Index="0" NNeurons="11">
        <Neuron NSynapses="13">
          -8.5786938693240422e-01 1.9234957725141042e+00 7.3500551392672897e-01 1.8372857387400885e+00 -1.8590836600121414e+00 2.4458248016880790e+00 -2.8093876304169324e-01 1.8419335545788142e+00 -1.6266369497499265e+00 5.5062120547328908e-01 -7.1694483391044561e-02 -8.2170465642859802e-01 -3.6615104302584744e+00 
        </Neuron>
        <Neuron NSynapses="13">
          -1.9144474424555136e-01 -9.6323803944291841e-01 1.2459237741232436e+00 -7.8208546055941064e-01 1.9876654310695032e+00 1.4453127181830951e+00 1.1365852691100415e+00 -6.8471296001891913e-01 -3.6521178929921716e-01 7.7308315543626693e-01 -1.1370563343608094e-01 -1.0164791594544063e+00 -1.0427143726678012e+00 
        </Neuron>
        <Neuron NSynapses="13">
          8.2510418138949382e-01 -1.3201090518254712e+00 -1.7035305932268112e+00 8.6726472969790969e-02 5.0532281287333036e-01 3.5597329147496021e-01 2.2599693265649184e-01 7.8407609755502219e-02 6.0466707282449128e-01 3.7789635195020638e-01 -8.5675210133128044e-01 1.2098088946117145e+00 -9.4268635904464837e-01 
        </Neuron>
        <Neuron NSynapses="13">
          5.4956192509172352e-01 8.6607745805029590e-01 1.7794855043699581e-01 2.1200429738395359e+00 6.0591100101217188e-01 -8.7221657743305514e-01 -9.4665028372968485e-01 1.0861182962371947e+00 1.5614773723407341e-01 7.4991988427651968e-01 1.5595293915022010e+00 1.1842272724273355e+00 1.6479262848078000e+00 
        </Neuron>
        <Neuron NSynapses="13">
          -1.3644085339040710e+00 2.0644207544985469e+00 -1.1803321999836922e+00 -7.2215092492492666e-02 -1.3485727596296786e+00 -1.5334561908388804e+00 8.9149261731695328e-01 4.9646064297356168e-01 -2.6725745110995471e+00 -3.8026543743954498e-02 3.2315299851679991e-01 1.3732490261136483e+00 2.3083195580658340e+00 
        </Neuron>
        <Neuron NSynapses="13">
          5.3069784756403915e-01 -1.4416656102315016e-02 -8.1418255623250180e-01 2.2127167329000791e-01 -5.8282007229336030e-01 -5.2376239645722622e+00 -2.0474223002976499e+00 4.3677550144241389e-01 1.7413411926044420e+00 -2.2672488662268352e-02 -2.7801815524249968e-01 -1.4275813063313807e+00 1.1927672649753573e+00 
        </Neuron>
        <Neuron NSynapses="13">
          1.3257802011905722e+00 9.4071831971848918e-01 2.1497037127446159e+00 3.9800680216796702e-01 1.2375480170901962e+00 6.6543881789435511e-01 -1.1076798482873784e+00 -3.0906780812222368e-01 8.6691438140990429e-01 -7.3479505395759903e-01 -9.1470471432571171e-02 -1.7588127061914260e+00 -3.4814341581298780e-01 
        </Neuron>
        <Neuron NSynapses="13">
          -5.0104446362820942e-01 1.8392049906697356e+00 -1.6342452735414692e+00 -4.8912139043667707e-01 9.4144373542386384e-01 -1.6659384180938412e+00 -1.2637496103171877e+00 -1.0280762967380250e+00 -2.4779227333390189e-01 -1.3166252585909954e+00 -1.6335608592580753e+00 3.8039305033776255e-01 1.4981261597241893e+00 
        </Neuron>
        <Neuron NSynapses="13">
          -6.3142711956879571e-01 1.3187583937900871e+00 -3.9150626134970273e-01 -9.6953892731764735e-01 3.8788218788103157e-01 1.5123673809734042e+00 -2.1719251437983544e+00 -1.7908264792610959e-01 4.6534179133827785e-01 2.0322471750867717e+00 3.3116522956359795e-01 2.0139579786008297e+00 -7.5238967746957763e-01 
        </Neuron>
        <Neuron NSynapses="13">
          -8.0446380437736165e-01 8.7574869652171428e-02 -8.0102997027498735e-01 -1.2972565409883774e+00 1.0216934671876138e-01 -4.0616295826157744e-01 1.5037807392199625e+00 2.0438402946389317e-01 4.4739095604699991e-01 -6.5213295719705566e-01 2.4546446951454577e+00 -1.2076000295010665e+00 1.9212360275509268e+00 
        </Neuron>
        <Neuron NSynapses="13">
          1.1010055168940334e+00 -1.3128406021121484e+00 7.9341070649211665e-01 -2.1465041640514562e+00 6.4405595011307937e-01 5.3044559111670484e+00 1.0012684245495862e+00 -2.4068208703301330e+00 3.1088514827352167e-02 1.3867838594162640e+00 3.5961709689858399e+00 7.1497656701891632e-01 -3.9675574962138320e+00 
        </Neuron>
      </Layer>
      <Layer Index="1" NNeurons="14">
        <Neuron NSynapses="1">
          -1.0425044728002436e-01 
        </Neuron>
        <Neuron NSynapses="1">
          9.1510092862994320e-03 
        </Neuron>
        <Neuron NSynapses="1">
          2.3892967912371033e-01 
        </Neuron>
        <Neuron NSynapses="1">
          9.5969157533799376e-01 
        </Neuron>
        <Neuron NSynapses="1">
          3.7559929952637398e-02 
        </Neuron>
        <Neuron NSynapses="1">
          -5.8631162501020151e-01 
        </Neuron>
        <Neuron NSynapses="1">
          7.6248907516166253e-03 
        </Neuron>
        <Neuron NSynapses="1">
          -3.2250969084844588e-01 
        </Neuron>
        <Neuron NSynapses="1">
          7.5654387038250823e-02 
        </Neuron>
        <Neuron NSynapses="1">
          9.1500179589843456e-01 
        </Neuron>
        <Neuron NSynapses="1">
          -5.7216020667893708e-01 
        </Neuron>
        <Neuron NSynapses="1">
          -2.2085372019203013e-02 
        </Neuron>
        <Neuron NSynapses="1">
          2.8525168101761256e-01 
        </Neuron>
        <Neuron NSynapses="1">
          9.1234931973474775e-01 
        </Neuron>
      </Layer>
      <Layer Index="2" NNeurons="1">
        <Neuron NSynapses="0"/>
      </Layer>
    </Layout>
  </Weights>
</MethodSetup>
