<?xml version="1.0"?>
<MethodSetup Method="MLP::MLP_N3.pt1000_eta2.37_conv1">
  <GeneralInfo>
    <Info name="TMVA Release" value="4.1.0 [262400]"/>
    <Info name="ROOT Release" value="5.28/00 [334848]"/>
    <Info name="Creator" value="jsaxon"/>
    <Info name="Date" value="Sat Jun 23 16:06:17 2012"/>
    <Info name="Host" value="Linux lxbuild148.cern.ch 2.6.18-194.26.1.el5 #1 SMP Wed Nov 10 09:45:46 CET 2010 x86_64 x86_64 x86_64 GNU/Linux"/>
    <Info name="Dir" value="/home/jsaxon/NeuralNetworks/nn12"/>
    <Info name="Training events" value="15588"/>
    <Info name="TrainingTime" value="218.863"/>
    <Info name="AnalysisType" value="Classification"/>
  </GeneralInfo>
  <Options>
    <Option name="NCycles" modified="Yes">2000</Option>
    <Option name="HiddenLayers" modified="Yes">N+3</Option>
    <Option name="NeuronType" modified="Yes">tanh</Option>
    <Option name="RandomSeed" modified="No">1</Option>
    <Option name="EstimatorType" modified="No">MSE</Option>
    <Option name="NeuronInputType" modified="No">sum</Option>
    <Option name="V" modified="No">False</Option>
    <Option name="VerbosityLevel" modified="No">Default</Option>
    <Option name="VarTransform" modified="Yes">N</Option>
    <Option name="H" modified="No">False</Option>
    <Option name="CreateMVAPdfs" modified="No">False</Option>
    <Option name="IgnoreNegWeightsInTraining" modified="No">False</Option>
    <Option name="TrainingMethod" modified="No">BP</Option>
    <Option name="LearningRate" modified="No">2.000000e-02</Option>
    <Option name="DecayRate" modified="No">1.000000e-02</Option>
    <Option name="TestRate" modified="Yes">5</Option>
    <Option name="EpochMonitoring" modified="No">False</Option>
    <Option name="Sampling" modified="No">1.000000e+00</Option>
    <Option name="SamplingEpoch" modified="No">1.000000e+00</Option>
    <Option name="SamplingImportance" modified="No">1.000000e+00</Option>
    <Option name="SamplingTraining" modified="No">True</Option>
    <Option name="SamplingTesting" modified="No">False</Option>
    <Option name="ResetStep" modified="No">50</Option>
    <Option name="Tau" modified="No">3.000000e+00</Option>
    <Option name="BPMode" modified="No">sequential</Option>
    <Option name="BatchSize" modified="No">-1</Option>
    <Option name="ConvergenceImprove" modified="No">1.000000e-30</Option>
    <Option name="ConvergenceTests" modified="Yes">20</Option>
    <Option name="UseRegulator" modified="Yes">False</Option>
    <Option name="UpdateLimit" modified="No">10</Option>
    <Option name="CalculateErrors" modified="No">False</Option>
  </Options>
  <Variables NVar="10">
    <Variable VarIndex="0" Expression="fside" Label="fside" Title="fside" Unit="" Internal="fside" Type="D" Min="0.0665422" Max="1.31918"/>
    <Variable VarIndex="1" Expression="w1" Label="w1" Title="w1" Unit="" Internal="w1" Type="D" Min="0.381817" Max="0.805963"/>
    <Variable VarIndex="2" Expression="wtot" Label="wtot" Title="wtot" Unit="" Internal="wtot" Type="D" Min="0.852765" Max="4.9378"/>
    <Variable VarIndex="3" Expression="deltae" Label="deltae" Title="deltae" Unit="" Internal="deltae" Type="D" Min="-4379.54" Max="36865.7"/>
    <Variable VarIndex="4" Expression="eratio" Label="eratio" Title="eratio" Unit="" Internal="eratio" Type="D" Min="0.000439391" Max="1.00134"/>
    <Variable VarIndex="5" Expression="rphi" Label="rphi" Title="rphi" Unit="" Internal="rphi" Type="D" Min="0.480846" Max="0.981196"/>
    <Variable VarIndex="6" Expression="rhad" Label="rhad" Title="rhad" Unit="" Internal="rhad" Type="D" Min="-0.0130226" Max="0.0139929"/>
    <Variable VarIndex="7" Expression="reta" Label="reta" Title="reta" Unit="" Internal="reta" Type="D" Min="0.908018" Max="0.954995"/>
    <Variable VarIndex="8" Expression="weta2" Label="weta2" Title="weta2" Unit="" Internal="weta2" Type="D" Min="0.0100246" Max="0.0129996"/>
    <Variable VarIndex="9" Expression="f1" Label="f1" Title="f1" Unit="" Internal="f1" Type="D" Min="0.00324972" Max="0.475658"/>
  </Variables>
  <Spectators NSpec="4">
    <Spectator SpecIndex="0" Expression="pt" Label="pt" Title="P_{T} [GeV]" Unit="D" Internal="pt" Type="F" Min="80001.5" Max="461277"/>
    <Spectator SpecIndex="1" Expression="etas2" Label="etas2" Title="etas2" Unit="D" Internal="etas2" Type="F" Min="-2.36996" Max="2.36998"/>
    <Spectator SpecIndex="2" Expression="convFlag" Label="convFlag" Title="convFlag" Unit="i" Internal="convFlag" Type="F" Min="1" Max="11"/>
    <Spectator SpecIndex="3" Expression="tight" Label="tight" Title="Tight" Unit="i" Internal="tight" Type="F" Min="0" Max="1"/>
  </Spectators>
  <Transformations NTransformations="1">
    <Transform Name="Normalize" NVariables="10" NTargets="0">
      <Class ClassIndex="0">
        <Variables>
          <Variable VarIndex="0" Min="6.6542185842990875e-02" Max="8.0768746137619019e-01"/>
          <Variable VarIndex="1" Min="3.8939046859741211e-01" Max="7.4258482456207275e-01"/>
          <Variable VarIndex="2" Min="8.5276520252227783e-01" Max="2.7887461185455322e+00"/>
          <Variable VarIndex="3" Min="-1.8648544311523438e+02" Max="3.4849964843750000e+04"/>
          <Variable VarIndex="4" Min="1.2816494703292847e-01" Max="1.0013425350189209e+00"/>
          <Variable VarIndex="5" Min="7.3511135578155518e-01" Max="9.8119556903839111e-01"/>
          <Variable VarIndex="6" Min="-1.3022552244365215e-02" Max="1.3955476693809032e-02"/>
          <Variable VarIndex="7" Min="9.0831881761550903e-01" Max="9.5499491691589355e-01"/>
          <Variable VarIndex="8" Min="1.0024571791291237e-02" Max="1.2936840765178204e-02"/>
          <Variable VarIndex="9" Min="3.6790315061807632e-02" Max="4.7565770149230957e-01"/>
        </Variables>
        <Targets/>
      </Class>
      <Class ClassIndex="1">
        <Variables>
          <Variable VarIndex="0" Min="9.2221461236476898e-02" Max="1.3191773891448975e+00"/>
          <Variable VarIndex="1" Min="3.8181704282760620e-01" Max="8.0596268177032471e-01"/>
          <Variable VarIndex="2" Min="1.0285278558731079e+00" Max="4.9377956390380859e+00"/>
          <Variable VarIndex="3" Min="-4.3795429687500000e+03" Max="3.6865707031250000e+04"/>
          <Variable VarIndex="4" Min="4.3939103488810360e-04" Max="1.0000000000000000e+00"/>
          <Variable VarIndex="5" Min="4.8084637522697449e-01" Max="9.7574168443679810e-01"/>
          <Variable VarIndex="6" Min="-8.1694917753338814e-03" Max="1.3992886990308762e-02"/>
          <Variable VarIndex="7" Min="9.0801769495010376e-01" Max="9.5395714044570923e-01"/>
          <Variable VarIndex="8" Min="1.0231171734631062e-02" Max="1.2999637983739376e-02"/>
          <Variable VarIndex="9" Min="3.2497167121618986e-03" Max="4.3390396237373352e-01"/>
        </Variables>
        <Targets/>
      </Class>
      <Class ClassIndex="2">
        <Variables>
          <Variable VarIndex="0" Min="6.6542185842990875e-02" Max="1.3191773891448975e+00"/>
          <Variable VarIndex="1" Min="3.8181704282760620e-01" Max="8.0596268177032471e-01"/>
          <Variable VarIndex="2" Min="8.5276520252227783e-01" Max="4.9377956390380859e+00"/>
          <Variable VarIndex="3" Min="-4.3795429687500000e+03" Max="3.6865707031250000e+04"/>
          <Variable VarIndex="4" Min="4.3939103488810360e-04" Max="1.0013425350189209e+00"/>
          <Variable VarIndex="5" Min="4.8084637522697449e-01" Max="9.8119556903839111e-01"/>
          <Variable VarIndex="6" Min="-1.3022552244365215e-02" Max="1.3992886990308762e-02"/>
          <Variable VarIndex="7" Min="9.0801769495010376e-01" Max="9.5499491691589355e-01"/>
          <Variable VarIndex="8" Min="1.0024571791291237e-02" Max="1.2999637983739376e-02"/>
          <Variable VarIndex="9" Min="3.2497167121618986e-03" Max="4.7565770149230957e-01"/>
        </Variables>
        <Targets/>
      </Class>
    </Transform>
  </Transformations>
  <MVAPdfs/>
  <Weights>
    <Layout NLayers="3">
      <Layer Index="0" NNeurons="11">
        <Neuron NSynapses="13">
          -6.3687797038943461e-01 2.2512495697436266e+00 2.9625048603117493e-01 1.7478171942386225e+00 -2.8326173532420968e+00 -1.7779436709881624e+00 -7.1207241064247107e-01 2.1411215157485586e+00 -9.2215940254791229e-01 -1.2372195756952953e+00 -2.1917620796929360e+00 -9.9138735977373893e-01 -2.8637663754027529e+00 
        </Neuron>
        <Neuron NSynapses="13">
          2.5316536773416359e-01 8.9922197027038797e-01 7.2936707110520360e-02 -6.1463122408344761e-01 1.0503259151196913e+00 1.9380986752512297e-01 1.3780127898717360e+00 -4.9571591934102999e-01 9.2970449600037053e-01 5.5101622519844506e-01 -1.1250708862125169e+00 -1.1067137224713011e+00 -1.9867717697873366e+00 
        </Neuron>
        <Neuron NSynapses="13">
          1.4338332775725227e+00 1.0361050670008929e+00 -2.2396341502737216e+00 5.9162681571541420e-01 6.1075630464674187e-02 5.0519378619694644e-01 -2.4016227278022623e-01 -2.0482085983768650e-01 5.7711930557805668e-01 -5.2776140225359824e-01 -2.1629840037939609e+00 1.2153342555131779e+00 -2.1395374788627075e+00 
        </Neuron>
        <Neuron NSynapses="13">
          7.6124554995416549e-01 2.9066026856790389e-01 4.1466207106183389e-01 1.6980677580250132e+00 8.8786361101094968e-01 -9.0053240424336189e-01 -1.4569644859086344e+00 6.0973702769951163e-02 -3.0168802110457540e-02 1.1187302309123068e+00 9.9905805115529267e-01 9.9489732761442451e-01 2.0550425722780106e+00 
        </Neuron>
        <Neuron NSynapses="13">
          -1.7812786648474452e+00 2.9841788072177895e+00 -1.3185809505572323e+00 2.2948646417747732e-02 -1.8627336206959282e+00 -2.4359502625936020e+00 1.4391568601374156e+00 1.2226208833943868e+00 -1.8446485574380300e+00 5.3651037009505931e-01 -2.6244832318537878e+00 1.2611862565549321e+00 1.8720142304450531e+00 
        </Neuron>
        <Neuron NSynapses="13">
          1.8861391162439267e-01 5.0670111163665255e-01 -9.0971531241197601e-01 -1.4819778581064150e-01 -9.8440465906845087e-01 -3.4752102765973616e+00 -1.6158627956486185e+00 1.4836541518722861e+00 2.1076812630785309e+00 1.3506256539607775e+00 8.1065359835726536e-01 -1.3710549169570789e+00 1.6420139424575593e+00 
        </Neuron>
        <Neuron NSynapses="13">
          1.0708507333752795e+00 8.3685879813480890e-01 1.9435320968773653e+00 2.8979333013813091e-01 9.8056684734506272e-01 4.4832136439399922e-01 -9.0177188938296915e-01 -2.1497338970491825e-01 3.0407322929379321e-01 -1.1679732546846668e+00 -1.0552537367521733e+00 -1.5586265765673495e+00 -1.7616753096223108e+00 
        </Neuron>
        <Neuron NSynapses="13">
          -4.9830121288049606e-01 2.7002365537715849e+00 -1.2123998277970618e+00 -3.5900967221715530e-01 6.6591727756482999e-01 -1.7928331916519280e+00 -1.5126290957318487e+00 -2.5662463899652221e-01 -1.7290786463690484e+00 -1.0797137295548733e+00 -2.1400307059520181e+00 6.0407754838687144e-01 1.8763394773342759e+00 
        </Neuron>
        <Neuron NSynapses="13">
          -5.0849587417587760e-01 3.2861273445091137e+00 -1.8924131505667898e+00 -7.8745319461873131e-01 -1.1178820165243177e+00 -1.7346481363081114e+00 -1.7768521631943783e+00 1.0580540507161085e+00 2.1660501350329473e+00 -8.1878194788047268e-02 -3.1925597523905509e+00 2.0831161460077201e+00 -1.6399905582865497e+00 
        </Neuron>
        <Neuron NSynapses="13">
          -1.0408214675583076e+00 -9.6736605863500347e-01 -9.0419536937646516e-01 -1.2995843622574281e+00 3.6971731341102554e-01 -4.2263300431031359e-01 1.9101395611577714e+00 -7.3324666731012222e-01 -2.0023820988824657e+00 -5.9369529817780864e-01 1.4434365315746622e+00 -1.5655412623968323e+00 2.1894334511277771e+00 
        </Neuron>
        <Neuron NSynapses="13">
          8.4713945717946726e-01 -1.9489249537384152e+00 1.1856294696716909e+00 -2.6015469871055719e+00 6.6516314756290884e-01 3.1749923061483138e+00 1.5828197308363190e+00 -1.2297813962538422e+00 -1.3613382426369797e-01 2.0581113920027918e+00 1.3654335322077824e+00 9.7404410496453309e-01 -4.8824082929317809e+00 
        </Neuron>
      </Layer>
      <Layer Index="1" NNeurons="14">
        <Neuron NSynapses="1">
          1.2407903460201941e-01 
        </Neuron>
        <Neuron NSynapses="1">
          -8.7903589687466366e-01 
        </Neuron>
        <Neuron NSynapses="1">
          1.7215451253250058e-01 
        </Neuron>
        <Neuron NSynapses="1">
          8.4899437697745139e-01 
        </Neuron>
        <Neuron NSynapses="1">
          -2.8125119795986586e-01 
        </Neuron>
        <Neuron NSynapses="1">
          -5.0351088302733105e-01 
        </Neuron>
        <Neuron NSynapses="1">
          -5.7296501793987244e-02 
        </Neuron>
        <Neuron NSynapses="1">
          -4.3601229010245734e-01 
        </Neuron>
        <Neuron NSynapses="1">
          1.7301623298622054e-01 
        </Neuron>
        <Neuron NSynapses="1">
          5.7823774849174203e-01 
        </Neuron>
        <Neuron NSynapses="1">
          -7.3201079955549164e-01 
        </Neuron>
        <Neuron NSynapses="1">
          1.0014422919815044e-02 
        </Neuron>
        <Neuron NSynapses="1">
          3.4890032453399417e-01 
        </Neuron>
        <Neuron NSynapses="1">
          4.6537267704306201e-01 
        </Neuron>
      </Layer>
      <Layer Index="2" NNeurons="1">
        <Neuron NSynapses="0"/>
      </Layer>
    </Layout>
  </Weights>
</MethodSetup>
