<?xml version="1.0"?>
<MethodSetup Method="MLP::MLP_N3.pt1000_eta0.60_conv1">
  <GeneralInfo>
    <Info name="TMVA Release" value="4.1.0 [262400]"/>
    <Info name="ROOT Release" value="5.28/00 [334848]"/>
    <Info name="Creator" value="jsaxon"/>
    <Info name="Date" value="Sat Jun 23 15:33:12 2012"/>
    <Info name="Host" value="Linux lxbuild148.cern.ch 2.6.18-194.26.1.el5 #1 SMP Wed Nov 10 09:45:46 CET 2010 x86_64 x86_64 x86_64 GNU/Linux"/>
    <Info name="Dir" value="/home/jsaxon/NeuralNetworks/nn12"/>
    <Info name="Training events" value="20000"/>
    <Info name="TrainingTime" value="89.2897"/>
    <Info name="AnalysisType" value="Classification"/>
  </GeneralInfo>
  <Options>
    <Option name="NCycles" modified="Yes">2000</Option>
    <Option name="HiddenLayers" modified="Yes">N+3</Option>
    <Option name="NeuronType" modified="Yes">tanh</Option>
    <Option name="RandomSeed" modified="No">1</Option>
    <Option name="EstimatorType" modified="No">MSE</Option>
    <Option name="NeuronInputType" modified="No">sum</Option>
    <Option name="V" modified="No">False</Option>
    <Option name="VerbosityLevel" modified="No">Default</Option>
    <Option name="VarTransform" modified="Yes">N</Option>
    <Option name="H" modified="No">False</Option>
    <Option name="CreateMVAPdfs" modified="No">False</Option>
    <Option name="IgnoreNegWeightsInTraining" modified="No">False</Option>
    <Option name="TrainingMethod" modified="No">BP</Option>
    <Option name="LearningRate" modified="No">2.000000e-02</Option>
    <Option name="DecayRate" modified="No">1.000000e-02</Option>
    <Option name="TestRate" modified="Yes">5</Option>
    <Option name="EpochMonitoring" modified="No">False</Option>
    <Option name="Sampling" modified="No">1.000000e+00</Option>
    <Option name="SamplingEpoch" modified="No">1.000000e+00</Option>
    <Option name="SamplingImportance" modified="No">1.000000e+00</Option>
    <Option name="SamplingTraining" modified="No">True</Option>
    <Option name="SamplingTesting" modified="No">False</Option>
    <Option name="ResetStep" modified="No">50</Option>
    <Option name="Tau" modified="No">3.000000e+00</Option>
    <Option name="BPMode" modified="No">sequential</Option>
    <Option name="BatchSize" modified="No">-1</Option>
    <Option name="ConvergenceImprove" modified="No">1.000000e-30</Option>
    <Option name="ConvergenceTests" modified="Yes">20</Option>
    <Option name="UseRegulator" modified="Yes">False</Option>
    <Option name="UpdateLimit" modified="No">10</Option>
    <Option name="CalculateErrors" modified="No">False</Option>
  </Options>
  <Variables NVar="10">
    <Variable VarIndex="0" Expression="fside" Label="fside" Title="fside" Unit="" Internal="fside" Type="D" Min="0.0950659" Max="1.56422"/>
    <Variable VarIndex="1" Expression="w1" Label="w1" Title="w1" Unit="" Internal="w1" Type="D" Min="0.206485" Max="0.81301"/>
    <Variable VarIndex="2" Expression="wtot" Label="wtot" Title="wtot" Unit="" Internal="wtot" Type="D" Min="0.810314" Max="10.0948"/>
    <Variable VarIndex="3" Expression="deltae" Label="deltae" Title="deltae" Unit="" Internal="deltae" Type="D" Min="-8.1779" Max="10728"/>
    <Variable VarIndex="4" Expression="eratio" Label="eratio" Title="eratio" Unit="" Internal="eratio" Type="D" Min="6.92132e-05" Max="1.0004"/>
    <Variable VarIndex="5" Expression="rphi" Label="rphi" Title="rphi" Unit="" Internal="rphi" Type="D" Min="0.501435" Max="0.987137"/>
    <Variable VarIndex="6" Expression="rhad" Label="rhad" Title="rhad" Unit="" Internal="rhad" Type="D" Min="-0.0123242" Max="0.00999663"/>
    <Variable VarIndex="7" Expression="reta" Label="reta" Title="reta" Unit="" Internal="reta" Type="D" Min="0.927" Max="0.987105"/>
    <Variable VarIndex="8" Expression="weta2" Label="weta2" Title="weta2" Unit="" Internal="weta2" Type="D" Min="0.00758297" Max="0.0119986"/>
    <Variable VarIndex="9" Expression="f1" Label="f1" Title="f1" Unit="" Internal="f1" Type="D" Min="0.000237844" Max="0.444519"/>
  </Variables>
  <Spectators NSpec="4">
    <Spectator SpecIndex="0" Expression="pt" Label="pt" Title="P_{T} [GeV]" Unit="D" Internal="pt" Type="F" Min="80000.5" Max="861140"/>
    <Spectator SpecIndex="1" Expression="etas2" Label="etas2" Title="etas2" Unit="D" Internal="etas2" Type="F" Min="-0.599993" Max="0.599981"/>
    <Spectator SpecIndex="2" Expression="convFlag" Label="convFlag" Title="convFlag" Unit="i" Internal="convFlag" Type="F" Min="1" Max="11"/>
    <Spectator SpecIndex="3" Expression="tight" Label="tight" Title="Tight" Unit="i" Internal="tight" Type="F" Min="0" Max="1"/>
  </Spectators>
  <Transformations NTransformations="1">
    <Transform Name="Normalize" NVariables="10" NTargets="0">
      <Class ClassIndex="0">
        <Variables>
          <Variable VarIndex="0" Min="9.5065854489803314e-02" Max="1.5642211437225342e+00"/>
          <Variable VarIndex="1" Min="2.0648497343063354e-01" Max="7.6933109760284424e-01"/>
          <Variable VarIndex="2" Min="8.1031370162963867e-01" Max="7.2124090194702148e+00"/>
          <Variable VarIndex="3" Min="-8.1779003143310547e+00" Max="1.8584581298828125e+03"/>
          <Variable VarIndex="4" Min="4.5607760548591614e-03" Max="1.0004038810729980e+00"/>
          <Variable VarIndex="5" Min="7.4147659540176392e-01" Max="9.8592281341552734e-01"/>
          <Variable VarIndex="6" Min="-1.2324233539402485e-02" Max="9.8918117582798004e-03"/>
          <Variable VarIndex="7" Min="9.2807781696319580e-01" Max="9.8535519838333130e-01"/>
          <Variable VarIndex="8" Min="8.2436455413699150e-03" Max="1.1633109301328659e-02"/>
          <Variable VarIndex="9" Min="2.3784412769600749e-04" Max="4.3057844042778015e-01"/>
        </Variables>
        <Targets/>
      </Class>
      <Class ClassIndex="1">
        <Variables>
          <Variable VarIndex="0" Min="1.1364731192588806e-01" Max="1.4628274440765381e+00"/>
          <Variable VarIndex="1" Min="3.7750881910324097e-01" Max="8.1300997734069824e-01"/>
          <Variable VarIndex="2" Min="1.4416215419769287e+00" Max="1.0094830513000488e+01"/>
          <Variable VarIndex="3" Min="0.0000000000000000e+00" Max="1.0728002929687500e+04"/>
          <Variable VarIndex="4" Min="6.9213245296850801e-05" Max="1.0000000000000000e+00"/>
          <Variable VarIndex="5" Min="5.0143539905548096e-01" Max="9.8713707923889160e-01"/>
          <Variable VarIndex="6" Min="-1.1496534571051598e-02" Max="9.9966349080204964e-03"/>
          <Variable VarIndex="7" Min="9.2700028419494629e-01" Max="9.8710465431213379e-01"/>
          <Variable VarIndex="8" Min="7.5829699635505676e-03" Max="1.1998595669865608e-02"/>
          <Variable VarIndex="9" Min="2.2657768800854683e-02" Max="4.4451898336410522e-01"/>
        </Variables>
        <Targets/>
      </Class>
      <Class ClassIndex="2">
        <Variables>
          <Variable VarIndex="0" Min="9.5065854489803314e-02" Max="1.5642211437225342e+00"/>
          <Variable VarIndex="1" Min="2.0648497343063354e-01" Max="8.1300997734069824e-01"/>
          <Variable VarIndex="2" Min="8.1031370162963867e-01" Max="1.0094830513000488e+01"/>
          <Variable VarIndex="3" Min="-8.1779003143310547e+00" Max="1.0728002929687500e+04"/>
          <Variable VarIndex="4" Min="6.9213245296850801e-05" Max="1.0004038810729980e+00"/>
          <Variable VarIndex="5" Min="5.0143539905548096e-01" Max="9.8713707923889160e-01"/>
          <Variable VarIndex="6" Min="-1.2324233539402485e-02" Max="9.9966349080204964e-03"/>
          <Variable VarIndex="7" Min="9.2700028419494629e-01" Max="9.8710465431213379e-01"/>
          <Variable VarIndex="8" Min="7.5829699635505676e-03" Max="1.1998595669865608e-02"/>
          <Variable VarIndex="9" Min="2.3784412769600749e-04" Max="4.4451898336410522e-01"/>
        </Variables>
        <Targets/>
      </Class>
    </Transform>
  </Transformations>
  <MVAPdfs/>
  <Weights>
    <Layout NLayers="3">
      <Layer Index="0" NNeurons="11">
        <Neuron NSynapses="13">
          -9.5729167758415612e-01 1.5565739293103524e+00 6.2850470125627700e-01 1.4122536239430368e+00 -1.8572732186279197e+00 -1.0554600393506686e+00 -4.8618963417280203e-01 1.9053573981564642e+00 -8.6263124428818250e-01 -4.7993348450998879e-01 -1.4198421794037257e+00 -4.2663534312338613e-01 -4.4945152700779500e+00 
        </Neuron>
        <Neuron NSynapses="13">
          3.3798078529608871e-01 -8.3301261471293009e-01 9.2441307848397192e-01 -4.6139150152067288e-01 1.9153343932667206e+00 6.0121759151567078e-01 9.8196619487719083e-01 -7.5869151121300427e-01 1.1066718380908289e+00 1.1260797648673564e+00 5.1596090177645604e-01 -1.1777982146086514e+00 -1.4111853539201735e+00 
        </Neuron>
        <Neuron NSynapses="13">
          9.8628014105818862e-01 -1.3149392891848999e+00 -2.1549914483584875e+00 4.2034349784283026e-01 4.1563285265864697e-01 1.8428917452104261e+00 5.6318716475813796e-02 1.3998664032292457e-01 -4.3546223059774875e-02 -1.1876695218071981e-01 -1.6676492624141614e+00 1.7481226391541234e+00 -3.6594608544957090e+00 
        </Neuron>
        <Neuron NSynapses="13">
          3.9608037112223821e-01 9.1421641694305322e-01 3.2959663199641737e-01 2.0970686311965436e+00 6.1672041503062269e-01 -1.2206325065403825e+00 -1.0433476115829230e+00 1.2279239599392655e+00 -8.3588913358318873e-01 1.0987657362884655e+00 1.6776973976078293e+00 1.5580518136813166e+00 2.3623121951916177e+00 
        </Neuron>
        <Neuron NSynapses="13">
          -1.4773260119244480e+00 1.5830948124122113e+00 -1.3871075123444601e+00 -1.2721291736050408e-01 -1.5069248828211765e+00 -1.5744119412372344e+00 1.8031354667179060e+00 5.5111872213464297e-01 -2.6813686096901681e+00 -9.0069042824239753e-01 -6.0138147268262809e-01 7.0087121457464818e-01 2.4311871304178507e+00 
        </Neuron>
        <Neuron NSynapses="13">
          5.4294602141073112e-01 4.4924588768780555e-01 -7.7388713354228733e-01 -5.6827795074415398e-02 -5.3934880064345414e-01 -2.3799119702916465e+00 -2.0825410025064777e+00 3.9432736071134195e-01 1.1569987789898850e+00 2.0155611144584970e-01 2.6320123292451142e-01 -1.8914377399009636e+00 2.9455228144562242e+00 
        </Neuron>
        <Neuron NSynapses="13">
          1.0349832086489013e+00 5.4067076033768557e-01 1.6714433131681383e+00 1.1870191260837314e-01 1.2393700513766464e+00 5.1761221850148098e-01 -1.1402357025983318e+00 -2.1786331834700975e-01 1.4533268639976873e+00 -2.8684477876584236e-01 -3.9758275872644094e-01 -1.7030467687552970e+00 -1.1662262068050411e+00 
        </Neuron>
        <Neuron NSynapses="13">
          -6.1414005088929158e-01 1.4451633112180704e+00 -1.1797496470262776e+00 -8.7325621152384914e-01 6.5123658874590606e-01 -7.8414033818985285e-01 -1.4546078506496627e+00 -9.4281763922305029e-01 -1.2027443994489115e+00 -1.4815421332489662e+00 -9.2180131679895261e-01 7.2470922151964412e-01 1.5518090021987314e+00 
        </Neuron>
        <Neuron NSynapses="13">
          -5.6827862526374195e-01 5.4805922125564632e-01 -4.5019479073472479e-01 -6.3850450011799953e-01 -2.0644972822257351e-01 2.7776736496428112e-01 -1.9971049591021337e+00 -2.3066164981053273e-02 1.0506857273331440e+00 4.2603805948554097e-01 3.4894451129034199e-01 1.8261243572405910e+00 -1.1920813660337430e+00 
        </Neuron>
        <Neuron NSynapses="13">
          -5.8582332050075947e-01 1.6882021591873839e-01 -5.3967845392433833e-01 -1.3222990222728170e+00 3.5415993694734521e-01 -9.0920192675683709e-01 1.7129401426927120e+00 2.6167994539749817e-01 2.2935062630381444e-02 -7.3801956139228175e-01 2.2252055858176734e+00 -1.8071246110587165e+00 9.4220222725929681e-01 
        </Neuron>
        <Neuron NSynapses="13">
          1.3882768973602757e+00 -9.9273055827970957e-01 9.5806854938531982e-01 -2.3587151524737675e+00 6.3902625800020363e-01 3.1870343702836097e+00 9.4957524197216558e-01 -2.4883828083132431e+00 3.8133011922793369e-01 1.6488470101515635e+00 2.6201718978916313e+00 1.8085428292401362e-01 -8.4773355696879218e+00 
        </Neuron>
      </Layer>
      <Layer Index="1" NNeurons="14">
        <Neuron NSynapses="1">
          -9.2791656131182232e-02 
        </Neuron>
        <Neuron NSynapses="1">
          -3.6706477434051518e-02 
        </Neuron>
        <Neuron NSynapses="1">
          2.5502999543779770e-02 
        </Neuron>
        <Neuron NSynapses="1">
          5.7729955545818312e-01 
        </Neuron>
        <Neuron NSynapses="1">
          2.6161497220035943e-02 
        </Neuron>
        <Neuron NSynapses="1">
          1.7423458060454328e-02 
        </Neuron>
        <Neuron NSynapses="1">
          -5.7166378349729156e-03 
        </Neuron>
        <Neuron NSynapses="1">
          -6.2732762193535940e-01 
        </Neuron>
        <Neuron NSynapses="1">
          1.4842580278057482e-01 
        </Neuron>
        <Neuron NSynapses="1">
          -9.1674146402217147e-03 
        </Neuron>
        <Neuron NSynapses="1">
          -6.5511792553860682e-01 
        </Neuron>
        <Neuron NSynapses="1">
          -2.0060098598250226e-02 
        </Neuron>
        <Neuron NSynapses="1">
          5.6816653659644434e-01 
        </Neuron>
        <Neuron NSynapses="1">
          9.9943882618532920e-01 
        </Neuron>
      </Layer>
      <Layer Index="2" NNeurons="1">
        <Neuron NSynapses="0"/>
      </Layer>
    </Layout>
  </Weights>
</MethodSetup>
