<?xml version="1.0"?>
<MethodSetup Method="MLP::MLP_N3.pt30_eta1.37_conv2">
  <GeneralInfo>
    <Info name="TMVA Release" value="4.1.0 [262400]"/>
    <Info name="ROOT Release" value="5.28/00 [334848]"/>
    <Info name="Creator" value="jsaxon"/>
    <Info name="Date" value="Sat Jun 23 16:02:44 2012"/>
    <Info name="Host" value="Linux lxbuild148.cern.ch 2.6.18-194.26.1.el5 #1 SMP Wed Nov 10 09:45:46 CET 2010 x86_64 x86_64 x86_64 GNU/Linux"/>
    <Info name="Dir" value="/home/jsaxon/NeuralNetworks/nn12"/>
    <Info name="Training events" value="19988"/>
    <Info name="TrainingTime" value="172.764"/>
    <Info name="AnalysisType" value="Classification"/>
  </GeneralInfo>
  <Options>
    <Option name="NCycles" modified="Yes">2000</Option>
    <Option name="HiddenLayers" modified="Yes">N+3</Option>
    <Option name="NeuronType" modified="Yes">tanh</Option>
    <Option name="RandomSeed" modified="No">1</Option>
    <Option name="EstimatorType" modified="No">MSE</Option>
    <Option name="NeuronInputType" modified="No">sum</Option>
    <Option name="V" modified="No">False</Option>
    <Option name="VerbosityLevel" modified="No">Default</Option>
    <Option name="VarTransform" modified="Yes">N</Option>
    <Option name="H" modified="No">False</Option>
    <Option name="CreateMVAPdfs" modified="No">False</Option>
    <Option name="IgnoreNegWeightsInTraining" modified="No">False</Option>
    <Option name="TrainingMethod" modified="No">BP</Option>
    <Option name="LearningRate" modified="No">2.000000e-02</Option>
    <Option name="DecayRate" modified="No">1.000000e-02</Option>
    <Option name="TestRate" modified="Yes">5</Option>
    <Option name="EpochMonitoring" modified="No">False</Option>
    <Option name="Sampling" modified="No">1.000000e+00</Option>
    <Option name="SamplingEpoch" modified="No">1.000000e+00</Option>
    <Option name="SamplingImportance" modified="No">1.000000e+00</Option>
    <Option name="SamplingTraining" modified="No">True</Option>
    <Option name="SamplingTesting" modified="No">False</Option>
    <Option name="ResetStep" modified="No">50</Option>
    <Option name="Tau" modified="No">3.000000e+00</Option>
    <Option name="BPMode" modified="No">sequential</Option>
    <Option name="BatchSize" modified="No">-1</Option>
    <Option name="ConvergenceImprove" modified="No">1.000000e-30</Option>
    <Option name="ConvergenceTests" modified="Yes">20</Option>
    <Option name="UseRegulator" modified="Yes">False</Option>
    <Option name="UpdateLimit" modified="No">10</Option>
    <Option name="CalculateErrors" modified="No">False</Option>
  </Options>
  <Variables NVar="10">
    <Variable VarIndex="0" Expression="fside" Label="fside" Title="fside" Unit="" Internal="fside" Type="D" Min="0.178158" Max="1.09904"/>
    <Variable VarIndex="1" Expression="w1" Label="w1" Title="w1" Unit="" Internal="w1" Type="D" Min="0.511413" Max="0.816545"/>
    <Variable VarIndex="2" Expression="wtot" Label="wtot" Title="wtot" Unit="" Internal="wtot" Type="D" Min="1.57824" Max="11.139"/>
    <Variable VarIndex="3" Expression="deltae" Label="deltae" Title="deltae" Unit="" Internal="deltae" Type="D" Min="-6.9182" Max="1271.99"/>
    <Variable VarIndex="4" Expression="eratio" Label="eratio" Title="eratio" Unit="" Internal="eratio" Type="D" Min="0.00133145" Max="1.00637"/>
    <Variable VarIndex="5" Expression="rphi" Label="rphi" Title="rphi" Unit="" Internal="rphi" Type="D" Min="0.370476" Max="1.01421"/>
    <Variable VarIndex="6" Expression="rhad" Label="rhad" Title="rhad" Unit="" Internal="rhad" Type="D" Min="-0.0445104" Max="0.00799764"/>
    <Variable VarIndex="7" Expression="reta" Label="reta" Title="reta" Unit="" Internal="reta" Type="D" Min="0.91601" Max="1.15863"/>
    <Variable VarIndex="8" Expression="weta2" Label="weta2" Title="weta2" Unit="" Internal="weta2" Type="D" Min="0.00799229" Max="0.0129969"/>
    <Variable VarIndex="9" Expression="f1" Label="f1" Title="f1" Unit="" Internal="f1" Type="D" Min="0.0468008" Max="0.381463"/>
  </Variables>
  <Spectators NSpec="4">
    <Spectator SpecIndex="0" Expression="pt" Label="pt" Title="P_{T} [GeV]" Unit="D" Internal="pt" Type="F" Min="20000.6" Max="29999.9"/>
    <Spectator SpecIndex="1" Expression="etas2" Label="etas2" Title="etas2" Unit="D" Internal="etas2" Type="F" Min="-1.36999" Max="1.36997"/>
    <Spectator SpecIndex="2" Expression="convFlag" Label="convFlag" Title="convFlag" Unit="i" Internal="convFlag" Type="F" Min="2" Max="12"/>
    <Spectator SpecIndex="3" Expression="tight" Label="tight" Title="Tight" Unit="i" Internal="tight" Type="F" Min="0" Max="1"/>
  </Spectators>
  <Transformations NTransformations="1">
    <Transform Name="Normalize" NVariables="10" NTargets="0">
      <Class ClassIndex="0">
        <Variables>
          <Variable VarIndex="0" Min="1.7815785109996796e-01" Max="8.7602752447128296e-01"/>
          <Variable VarIndex="1" Min="5.7445853948593140e-01" Max="8.1654459238052368e-01"/>
          <Variable VarIndex="2" Min="1.5782432556152344e+00" Max="4.1610126495361328e+00"/>
          <Variable VarIndex="3" Min="-6.9182000160217285e+00" Max="3.8307757568359375e+02"/>
          <Variable VarIndex="4" Min="4.8248055391013622e-03" Max="1.0063697099685669e+00"/>
          <Variable VarIndex="5" Min="3.9641675353050232e-01" Max="9.8221254348754883e-01"/>
          <Variable VarIndex="6" Min="-3.5288956016302109e-02" Max="7.9976376146078110e-03"/>
          <Variable VarIndex="7" Min="9.1605269908905029e-01" Max="1.1586322784423828e+00"/>
          <Variable VarIndex="8" Min="8.3498274907469749e-03" Max="1.2996913865208626e-02"/>
          <Variable VarIndex="9" Min="5.1692914217710495e-02" Max="3.8146281242370605e-01"/>
        </Variables>
        <Targets/>
      </Class>
      <Class ClassIndex="1">
        <Variables>
          <Variable VarIndex="0" Min="1.8750269711017609e-01" Max="1.0990350246429443e+00"/>
          <Variable VarIndex="1" Min="5.1141339540481567e-01" Max="8.0893617868423462e-01"/>
          <Variable VarIndex="2" Min="1.6303960084915161e+00" Max="1.1139014244079590e+01"/>
          <Variable VarIndex="3" Min="0.0000000000000000e+00" Max="1.2719876708984375e+03"/>
          <Variable VarIndex="4" Min="1.3314547250047326e-03" Max="1.0000000000000000e+00"/>
          <Variable VarIndex="5" Min="3.7047645449638367e-01" Max="1.0142059326171875e+00"/>
          <Variable VarIndex="6" Min="-4.4510431587696075e-02" Max="7.9906890168786049e-03"/>
          <Variable VarIndex="7" Min="9.1600996255874634e-01" Max="1.1088440418243408e+00"/>
          <Variable VarIndex="8" Min="7.9922880977392197e-03" Max="1.2994267977774143e-02"/>
          <Variable VarIndex="9" Min="4.6800773590803146e-02" Max="3.7575492262840271e-01"/>
        </Variables>
        <Targets/>
      </Class>
      <Class ClassIndex="2">
        <Variables>
          <Variable VarIndex="0" Min="1.7815785109996796e-01" Max="1.0990350246429443e+00"/>
          <Variable VarIndex="1" Min="5.1141339540481567e-01" Max="8.1654459238052368e-01"/>
          <Variable VarIndex="2" Min="1.5782432556152344e+00" Max="1.1139014244079590e+01"/>
          <Variable VarIndex="3" Min="-6.9182000160217285e+00" Max="1.2719876708984375e+03"/>
          <Variable VarIndex="4" Min="1.3314547250047326e-03" Max="1.0063697099685669e+00"/>
          <Variable VarIndex="5" Min="3.7047645449638367e-01" Max="1.0142059326171875e+00"/>
          <Variable VarIndex="6" Min="-4.4510431587696075e-02" Max="7.9976376146078110e-03"/>
          <Variable VarIndex="7" Min="9.1600996255874634e-01" Max="1.1586322784423828e+00"/>
          <Variable VarIndex="8" Min="7.9922880977392197e-03" Max="1.2996913865208626e-02"/>
          <Variable VarIndex="9" Min="4.6800773590803146e-02" Max="3.8146281242370605e-01"/>
        </Variables>
        <Targets/>
      </Class>
    </Transform>
  </Transformations>
  <MVAPdfs/>
  <Weights>
    <Layout NLayers="3">
      <Layer Index="0" NNeurons="11">
        <Neuron NSynapses="13">
          -4.4933523348929810e-01 4.0144277090032903e+00 6.6589478960547521e-01 1.5487280522200202e+00 -2.0707623872080152e+00 -2.0016709284771976e+00 -8.1466190546378625e-01 1.6361998791579844e+00 -8.4612648992077844e-01 -9.1752136762277470e-01 -2.9644076898771921e-01 -6.0826305248984125e-01 -5.0194048051077200e-01 
        </Neuron>
        <Neuron NSynapses="13">
          3.2546234415420491e-04 -8.2391730932332397e-01 -2.2265442518352340e-02 -3.6086559562200693e-01 1.2701014516784366e+00 -1.7763808629021594e+00 1.3423515730299147e+00 -4.9368000159084241e-01 -2.1973797973006468e-01 5.8784634166011518e-01 2.2200324495021604e-02 -1.1118509026663337e+00 -1.2538192135309134e-01 
        </Neuron>
        <Neuron NSynapses="13">
          1.1335428673823680e+00 -6.8124855101383119e-01 -2.0488066088368511e+00 6.5504059632465206e-01 7.4899013497802214e-01 2.7405104224047827e+00 -2.8698829976394491e-01 9.3571017329729411e-01 6.8750088658065922e-01 -2.2822378525422901e-01 -6.8694783697247208e-01 1.4069456852869613e+00 -2.3642258435482071e+00 
        </Neuron>
        <Neuron NSynapses="13">
          5.1229599449981666e-01 -2.0597848016310463e-01 9.8540683684787722e-01 1.6730989075778122e+00 8.9404558509076848e-01 5.2947137935149469e-01 -1.6662431209563664e+00 1.5426484469878763e+00 2.1778636256159814e-01 1.6611370670488179e+00 1.9791313136682798e+00 1.1339768099293774e+00 8.4810398090549366e-01 
        </Neuron>
        <Neuron NSynapses="13">
          -6.0074049167654309e-01 1.2703557863118899e+00 -1.6192384754148819e+00 -7.1150361194350559e-02 -9.3554539788785862e-01 -1.2431204283330022e+00 1.5787099696102589e+00 2.4556951171205124e-01 -8.0437092567793134e-01 -5.4304438421337409e-01 -1.4343030517581801e-01 1.0426137573085086e+00 1.9384361154005689e+00 
        </Neuron>
        <Neuron NSynapses="13">
          -1.0805256883993393e-01 4.3958384200067771e-02 -1.0705200108387139e-01 2.3350701554949888e-01 -3.1182970652177833e-01 -2.2901583215281501e-02 -1.4160253877173736e+00 -1.6022816961443115e-01 -6.7579317569094743e-02 -7.7759289086316678e-03 -8.8456687721239949e-02 -1.9441689024454798e+00 -1.3723351661187425e-01 
        </Neuron>
        <Neuron NSynapses="13">
          9.7131110615123073e-01 7.6368263902341382e-01 1.0605735859932204e+00 -1.3747925648659547e-02 1.7898999994711506e+00 1.3636352167833671e-01 -9.6885385094684184e-01 1.5803983706427844e+00 7.9849503250588505e-01 -1.2253542345959971e+00 -5.7703128845738683e-01 -1.4364515043728030e+00 -4.7997352086741962e-01 
        </Neuron>
        <Neuron NSynapses="13">
          -5.9786708180042769e-01 1.5056156650287864e-01 -8.8348224215976112e-01 -9.8994634922167327e-02 6.0574701239274675e-01 -1.4089562347554556e+00 -1.4269156764457003e+00 -3.0234089172424810e+00 -3.3330463461302040e-01 -9.2799316284694466e-01 -1.7020777220346657e+00 3.5559325945675646e-01 2.2970109128583305e+00 
        </Neuron>
        <Neuron NSynapses="13">
          -1.3141801097624875e-01 8.2722669361538270e-02 -3.9235830511272779e-01 -7.1260322288954614e-01 -1.3603826797311436e-01 6.0621268371955039e-01 -1.8587646313573953e+00 1.0627151968588808e+00 1.8235493091501234e-01 1.0745583114009188e-01 -5.2359751268705934e-01 2.0067164268877415e+00 8.9174053728662850e-01 
        </Neuron>
        <Neuron NSynapses="13">
          -4.9210329024186705e-02 3.9458877028795175e-01 -2.8667612878583398e-01 -1.3664822051456911e+00 -1.3177999994480816e-01 -5.4238891785672627e-01 1.7257379195881781e+00 1.6848782976997520e-01 1.2484189657506414e-01 -4.5303796468698809e-01 3.0293902754790281e-01 -1.7775907420849819e+00 1.2285158864712063e-01 
        </Neuron>
        <Neuron NSynapses="13">
          7.1162179165450978e-01 -1.2429478822807996e+00 2.9354179492818305e-01 -2.4194370573023831e+00 1.1864302534447126e-01 1.1151365524907009e+00 1.6738783602123359e+00 -5.7942777373164045e-01 2.7744003616316487e-01 1.2886277353894720e+00 1.1892091238739597e+00 6.1207379661718153e-01 -1.4604693846564949e+00 
        </Neuron>
      </Layer>
      <Layer Index="1" NNeurons="14">
        <Neuron NSynapses="1">
          1.4505531564095184e-01 
        </Neuron>
        <Neuron NSynapses="1">
          -3.0967371117458409e-01 
        </Neuron>
        <Neuron NSynapses="1">
          2.2514522157908790e-01 
        </Neuron>
        <Neuron NSynapses="1">
          5.1073707739951180e-01 
        </Neuron>
        <Neuron NSynapses="1">
          -2.4262915573320984e-01 
        </Neuron>
        <Neuron NSynapses="1">
          -2.4879718401165432e-01 
        </Neuron>
        <Neuron NSynapses="1">
          -8.9256229144045712e-02 
        </Neuron>
        <Neuron NSynapses="1">
          -2.0119423942499598e-01 
        </Neuron>
        <Neuron NSynapses="1">
          1.0814995843436563e-01 
        </Neuron>
        <Neuron NSynapses="1">
          -2.6503737327966764e-02 
        </Neuron>
        <Neuron NSynapses="1">
          -1.8119875602888580e-01 
        </Neuron>
        <Neuron NSynapses="1">
          -8.0105634963095942e-03 
        </Neuron>
        <Neuron NSynapses="1">
          2.4996065968360281e-01 
        </Neuron>
        <Neuron NSynapses="1">
          8.1944781202032158e-01 
        </Neuron>
      </Layer>
      <Layer Index="2" NNeurons="1">
        <Neuron NSynapses="0"/>
      </Layer>
    </Layout>
  </Weights>
</MethodSetup>
