<?xml version="1.0"?>
<MethodSetup Method="MLP::MLP_N3.pt1000_eta1.81_conv0">
  <GeneralInfo>
    <Info name="TMVA Release" value="4.1.0 [262400]"/>
    <Info name="ROOT Release" value="5.28/00 [334848]"/>
    <Info name="Creator" value="jsaxon"/>
    <Info name="Date" value="Sat Jun 23 16:01:12 2012"/>
    <Info name="Host" value="Linux lxbuild148.cern.ch 2.6.18-194.26.1.el5 #1 SMP Wed Nov 10 09:45:46 CET 2010 x86_64 x86_64 x86_64 GNU/Linux"/>
    <Info name="Dir" value="/home/jsaxon/NeuralNetworks/nn12"/>
    <Info name="Training events" value="20000"/>
    <Info name="TrainingTime" value="534.002"/>
    <Info name="AnalysisType" value="Classification"/>
  </GeneralInfo>
  <Options>
    <Option name="NCycles" modified="Yes">2000</Option>
    <Option name="HiddenLayers" modified="Yes">N+3</Option>
    <Option name="NeuronType" modified="Yes">tanh</Option>
    <Option name="RandomSeed" modified="No">1</Option>
    <Option name="EstimatorType" modified="No">MSE</Option>
    <Option name="NeuronInputType" modified="No">sum</Option>
    <Option name="V" modified="No">False</Option>
    <Option name="VerbosityLevel" modified="No">Default</Option>
    <Option name="VarTransform" modified="Yes">N</Option>
    <Option name="H" modified="No">False</Option>
    <Option name="CreateMVAPdfs" modified="No">False</Option>
    <Option name="IgnoreNegWeightsInTraining" modified="No">False</Option>
    <Option name="TrainingMethod" modified="No">BP</Option>
    <Option name="LearningRate" modified="No">2.000000e-02</Option>
    <Option name="DecayRate" modified="No">1.000000e-02</Option>
    <Option name="TestRate" modified="Yes">5</Option>
    <Option name="EpochMonitoring" modified="No">False</Option>
    <Option name="Sampling" modified="No">1.000000e+00</Option>
    <Option name="SamplingEpoch" modified="No">1.000000e+00</Option>
    <Option name="SamplingImportance" modified="No">1.000000e+00</Option>
    <Option name="SamplingTraining" modified="No">True</Option>
    <Option name="SamplingTesting" modified="No">False</Option>
    <Option name="ResetStep" modified="No">50</Option>
    <Option name="Tau" modified="No">3.000000e+00</Option>
    <Option name="BPMode" modified="No">sequential</Option>
    <Option name="BatchSize" modified="No">-1</Option>
    <Option name="ConvergenceImprove" modified="No">1.000000e-30</Option>
    <Option name="ConvergenceTests" modified="Yes">20</Option>
    <Option name="UseRegulator" modified="Yes">False</Option>
    <Option name="UpdateLimit" modified="No">10</Option>
    <Option name="CalculateErrors" modified="No">False</Option>
  </Options>
  <Variables NVar="10">
    <Variable VarIndex="0" Expression="fside" Label="fside" Title="fside" Unit="" Internal="fside" Type="D" Min="-0.0100923" Max="2.97058"/>
    <Variable VarIndex="1" Expression="w1" Label="w1" Title="w1" Unit="" Internal="w1" Type="D" Min="0.298984" Max="0.815562"/>
    <Variable VarIndex="2" Expression="wtot" Label="wtot" Title="wtot" Unit="" Internal="wtot" Type="D" Min="0.43211" Max="16.913"/>
    <Variable VarIndex="3" Expression="deltae" Label="deltae" Title="deltae" Unit="" Internal="deltae" Type="D" Min="-77.3756" Max="19307"/>
    <Variable VarIndex="4" Expression="eratio" Label="eratio" Title="eratio" Unit="" Internal="eratio" Type="D" Min="0.000357347" Max="1"/>
    <Variable VarIndex="5" Expression="rphi" Label="rphi" Title="rphi" Unit="" Internal="rphi" Type="D" Min="0.551071" Max="0.997011"/>
    <Variable VarIndex="6" Expression="rhad" Label="rhad" Title="rhad" Unit="" Internal="rhad" Type="D" Min="-0.0174573" Max="0.0249944"/>
    <Variable VarIndex="7" Expression="reta" Label="reta" Title="reta" Unit="" Internal="reta" Type="D" Min="0.906" Max="0.978485"/>
    <Variable VarIndex="8" Expression="weta2" Label="weta2" Title="weta2" Unit="" Internal="weta2" Type="D" Min="0.00752054" Max="0.0149991"/>
    <Variable VarIndex="9" Expression="f1" Label="f1" Title="f1" Unit="" Internal="f1" Type="D" Min="0.000113986" Max="0.467846"/>
  </Variables>
  <Spectators NSpec="4">
    <Spectator SpecIndex="0" Expression="pt" Label="pt" Title="P_{T} [GeV]" Unit="D" Internal="pt" Type="F" Min="80012.5" Max="598924"/>
    <Spectator SpecIndex="1" Expression="etas2" Label="etas2" Title="etas2" Unit="D" Internal="etas2" Type="F" Min="-1.80993" Max="1.80995"/>
    <Spectator SpecIndex="2" Expression="convFlag" Label="convFlag" Title="convFlag" Unit="i" Internal="convFlag" Type="F" Min="0" Max="10"/>
    <Spectator SpecIndex="3" Expression="tight" Label="tight" Title="Tight" Unit="i" Internal="tight" Type="F" Min="0" Max="1"/>
  </Spectators>
  <Transformations NTransformations="1">
    <Transform Name="Normalize" NVariables="10" NTargets="0">
      <Class ClassIndex="0">
        <Variables>
          <Variable VarIndex="0" Min="1.0868685692548752e-01" Max="1.3254238367080688e+00"/>
          <Variable VarIndex="1" Min="4.5506751537322998e-01" Max="8.1113284826278687e-01"/>
          <Variable VarIndex="2" Min="4.3211036920547485e-01" Max="5.0829362869262695e+00"/>
          <Variable VarIndex="3" Min="-3.4688999652862549e+00" Max="8.8093486328125000e+03"/>
          <Variable VarIndex="4" Min="6.0137861873954535e-04" Max="9.9873042106628418e-01"/>
          <Variable VarIndex="5" Min="8.6930292844772339e-01" Max="9.8762023448944092e-01"/>
          <Variable VarIndex="6" Min="-1.7457343637943268e-02" Max="2.4757659062743187e-02"/>
          <Variable VarIndex="7" Min="9.0845680236816406e-01" Max="9.7848492860794067e-01"/>
          <Variable VarIndex="8" Min="8.4103988483548164e-03" Max="1.3538666069507599e-02"/>
          <Variable VarIndex="9" Min="1.1398561764508486e-04" Max="4.2721498012542725e-01"/>
        </Variables>
        <Targets/>
      </Class>
      <Class ClassIndex="1">
        <Variables>
          <Variable VarIndex="0" Min="-1.0092340409755707e-02" Max="2.9705798625946045e+00"/>
          <Variable VarIndex="1" Min="2.9898393154144287e-01" Max="8.1556183099746704e-01"/>
          <Variable VarIndex="2" Min="1.5453428030014038e+00" Max="1.6912963867187500e+01"/>
          <Variable VarIndex="3" Min="-7.7375625610351562e+01" Max="1.9307029296875000e+04"/>
          <Variable VarIndex="4" Min="3.5734669654630125e-04" Max="1.0000000000000000e+00"/>
          <Variable VarIndex="5" Min="5.5107140541076660e-01" Max="9.9701058864593506e-01"/>
          <Variable VarIndex="6" Min="-1.4210955239832401e-02" Max="2.4994425475597382e-02"/>
          <Variable VarIndex="7" Min="9.0600007772445679e-01" Max="9.7781121730804443e-01"/>
          <Variable VarIndex="8" Min="7.5205373577773571e-03" Max="1.4999118633568287e-02"/>
          <Variable VarIndex="9" Min="2.1426519379019737e-03" Max="4.6784567832946777e-01"/>
        </Variables>
        <Targets/>
      </Class>
      <Class ClassIndex="2">
        <Variables>
          <Variable VarIndex="0" Min="-1.0092340409755707e-02" Max="2.9705798625946045e+00"/>
          <Variable VarIndex="1" Min="2.9898393154144287e-01" Max="8.1556183099746704e-01"/>
          <Variable VarIndex="2" Min="4.3211036920547485e-01" Max="1.6912963867187500e+01"/>
          <Variable VarIndex="3" Min="-7.7375625610351562e+01" Max="1.9307029296875000e+04"/>
          <Variable VarIndex="4" Min="3.5734669654630125e-04" Max="1.0000000000000000e+00"/>
          <Variable VarIndex="5" Min="5.5107140541076660e-01" Max="9.9701058864593506e-01"/>
          <Variable VarIndex="6" Min="-1.7457343637943268e-02" Max="2.4994425475597382e-02"/>
          <Variable VarIndex="7" Min="9.0600007772445679e-01" Max="9.7848492860794067e-01"/>
          <Variable VarIndex="8" Min="7.5205373577773571e-03" Max="1.4999118633568287e-02"/>
          <Variable VarIndex="9" Min="1.1398561764508486e-04" Max="4.6784567832946777e-01"/>
        </Variables>
        <Targets/>
      </Class>
    </Transform>
  </Transformations>
  <MVAPdfs/>
  <Weights>
    <Layout NLayers="3">
      <Layer Index="0" NNeurons="11">
        <Neuron NSynapses="13">
          -9.6215152966050166e-01 2.2969106108149537e+00 3.4388211170552581e-02 1.9856414108596840e+00 -2.4104160377830564e+00 -2.0139998659256000e-01 -1.0937278550432521e+00 2.1216129057648141e+00 -1.7432970128937444e+00 -1.8233718069442504e+00 -1.6547993686545239e+00 -9.9432880529343903e-01 -1.6076576392358499e+00 
        </Neuron>
        <Neuron NSynapses="13">
          2.7930809029194942e-01 -1.2881111590931785e-01 4.1851407997541118e-01 -6.9697173847557525e-01 2.6648905813164774e+00 2.2612704271771853e+00 1.4485743404766809e+00 -5.0457863761211397e-01 8.4232798135764522e-02 2.0423724334924467e+00 8.0915458106203075e-01 -1.0710625575263910e+00 -1.4589904733531085e+00 
        </Neuron>
        <Neuron NSynapses="13">
          8.8320206655902356e-01 3.3195072362183414e-02 -2.6968665040529030e+00 3.5818671260786622e-01 1.2084495493093683e-01 1.1195138053321345e+00 -7.2102013687744970e-01 4.5360080927264408e-02 1.3417741582864667e-01 -1.6562522508024076e+00 -4.7587554389412995e-01 1.1813142766390381e+00 -3.9257873670575444e-01 
        </Neuron>
        <Neuron NSynapses="13">
          4.6417217390258225e-01 1.4421528304073048e+00 3.3332895422073616e-01 1.8001023577638791e+00 -2.3594961993663632e-02 -1.1531322693436175e+00 -1.4670100441927030e+00 1.0538433856768639e+00 -6.7965215181149230e-01 4.7255295402257430e-01 1.6743882762075186e+00 8.8417910918464382e-01 1.4182534241836318e+00 
        </Neuron>
        <Neuron NSynapses="13">
          -1.0516830582707744e+00 2.2893745587120136e+00 -3.0677823335575307e+00 -2.8733316155890548e-01 -1.9253767687324423e+00 -2.3586530421904750e+00 1.4019977581734506e+00 5.4983598130224531e-01 -1.9111530340680745e+00 -8.2284938651633066e-01 -2.6389467121226623e-01 1.2448907281995074e+00 4.5260084188182752e+00 
        </Neuron>
        <Neuron NSynapses="13">
          4.4081207635276842e-01 6.3910157330560924e-01 -2.0644384575260957e+00 2.4416252082705828e-01 -1.0799029312288768e+00 -4.3133504434359207e+00 -1.1402835972978158e+00 4.8619705926110102e-01 8.5991003085117745e-01 -3.1573084090309222e-01 -1.1391083101747398e-01 -1.3994536261079540e+00 2.3213756763988762e+00 
        </Neuron>
        <Neuron NSynapses="13">
          8.7765986617003777e-01 -4.0935629469699469e-01 1.4128968585404358e+00 4.4889790566163973e-01 2.2535336460866864e+00 8.6299464302233586e-01 -8.9506571277846403e-01 -8.6836920900691561e-02 1.1964712168424017e+00 9.0116329574611709e-01 7.0719362346566106e-01 -1.7149380665252618e+00 -2.5512242449472167e+00 
        </Neuron>
        <Neuron NSynapses="13">
          -4.3254012650356738e-01 2.9698592513562816e+00 -7.4554952170738553e-01 -6.7018648837557737e-01 -1.4120546553311591e-01 -2.0798914230957322e+00 -1.5231219011723347e+00 -1.2498623280272689e+00 -8.2515683249732197e-01 -2.9131758811691189e+00 -2.3768804830384882e+00 9.8986608262569931e-01 1.4588982917035438e+00 
        </Neuron>
        <Neuron NSynapses="13">
          -8.4280988796733480e-01 2.0351878489983042e+00 -1.0691794615878028e-01 -6.2171852418062523e-01 -4.5711335299062866e-01 7.7962590854118885e-01 -1.3708596736915934e+00 1.1467290797047907e-02 8.7324327477766484e-01 2.6802507803378548e+00 1.5815177600222283e-01 1.6192358996730221e+00 3.6747337930810409e-01 
        </Neuron>
        <Neuron NSynapses="13">
          1.7481902225449339e-01 -9.8996331296286821e-01 -1.1723814222267734e+00 -1.4584665406806709e+00 2.9250246692799592e-01 -2.4742673583343253e-01 1.9821532738697223e+00 5.9377053275761904e-01 2.5881053183374431e-01 -2.1584318339376938e+00 1.2040167486157665e+00 -1.9680612210678152e+00 9.5184684923059082e-01 
        </Neuron>
        <Neuron NSynapses="13">
          1.1237118198962155e+00 -1.4606828266112477e+00 3.5961450417502370e+00 -2.1145846774560302e+00 6.6047880587558894e-01 6.0383081212467902e+00 2.1356726438743303e+00 -2.2748769245671858e+00 -9.0890454291477837e-02 8.2480914459227306e-01 2.6520873951481669e+00 9.0289298632993531e-01 -6.4135926942888899e+00 
        </Neuron>
      </Layer>
      <Layer Index="1" NNeurons="14">
        <Neuron NSynapses="1">
          -8.6660116383814781e-02 
        </Neuron>
        <Neuron NSynapses="1">
          -8.1511029130325785e-01 
        </Neuron>
        <Neuron NSynapses="1">
          -3.7800691277937570e-01 
        </Neuron>
        <Neuron NSynapses="1">
          1.2574674723472292e+00 
        </Neuron>
        <Neuron NSynapses="1">
          3.7066593241942764e-01 
        </Neuron>
        <Neuron NSynapses="1">
          -4.8654806696995773e-01 
        </Neuron>
        <Neuron NSynapses="1">
          7.7129678706433863e-02 
        </Neuron>
        <Neuron NSynapses="1">
          -7.0590883213917988e-01 
        </Neuron>
        <Neuron NSynapses="1">
          1.5501744581037713e-01 
        </Neuron>
        <Neuron NSynapses="1">
          4.4522516126375339e-01 
        </Neuron>
        <Neuron NSynapses="1">
          -5.7476477960839334e-01 
        </Neuron>
        <Neuron NSynapses="1">
          3.8129271088672406e-03 
        </Neuron>
        <Neuron NSynapses="1">
          4.1406760098460099e-01 
        </Neuron>
        <Neuron NSynapses="1">
          6.2940514037353767e-01 
        </Neuron>
      </Layer>
      <Layer Index="2" NNeurons="1">
        <Neuron NSynapses="0"/>
      </Layer>
    </Layout>
  </Weights>
</MethodSetup>
