<?xml version="1.0"?>
<MethodSetup Method="MLP::MLP_N3.pt40_eta1.37_conv0">
  <GeneralInfo>
    <Info name="TMVA Release" value="4.1.0 [262400]"/>
    <Info name="ROOT Release" value="5.28/00 [334848]"/>
    <Info name="Creator" value="jsaxon"/>
    <Info name="Date" value="Sat Jun 23 15:55:29 2012"/>
    <Info name="Host" value="Linux lxbuild148.cern.ch 2.6.18-194.26.1.el5 #1 SMP Wed Nov 10 09:45:46 CET 2010 x86_64 x86_64 x86_64 GNU/Linux"/>
    <Info name="Dir" value="/home/jsaxon/NeuralNetworks/nn12"/>
    <Info name="Training events" value="20000"/>
    <Info name="TrainingTime" value="452.187"/>
    <Info name="AnalysisType" value="Classification"/>
  </GeneralInfo>
  <Options>
    <Option name="NCycles" modified="Yes">2000</Option>
    <Option name="HiddenLayers" modified="Yes">N+3</Option>
    <Option name="NeuronType" modified="Yes">tanh</Option>
    <Option name="RandomSeed" modified="No">1</Option>
    <Option name="EstimatorType" modified="No">MSE</Option>
    <Option name="NeuronInputType" modified="No">sum</Option>
    <Option name="V" modified="No">False</Option>
    <Option name="VerbosityLevel" modified="No">Default</Option>
    <Option name="VarTransform" modified="Yes">N</Option>
    <Option name="H" modified="No">False</Option>
    <Option name="CreateMVAPdfs" modified="No">False</Option>
    <Option name="IgnoreNegWeightsInTraining" modified="No">False</Option>
    <Option name="TrainingMethod" modified="No">BP</Option>
    <Option name="LearningRate" modified="No">2.000000e-02</Option>
    <Option name="DecayRate" modified="No">1.000000e-02</Option>
    <Option name="TestRate" modified="Yes">5</Option>
    <Option name="EpochMonitoring" modified="No">False</Option>
    <Option name="Sampling" modified="No">1.000000e+00</Option>
    <Option name="SamplingEpoch" modified="No">1.000000e+00</Option>
    <Option name="SamplingImportance" modified="No">1.000000e+00</Option>
    <Option name="SamplingTraining" modified="No">True</Option>
    <Option name="SamplingTesting" modified="No">False</Option>
    <Option name="ResetStep" modified="No">50</Option>
    <Option name="Tau" modified="No">3.000000e+00</Option>
    <Option name="BPMode" modified="No">sequential</Option>
    <Option name="BatchSize" modified="No">-1</Option>
    <Option name="ConvergenceImprove" modified="No">1.000000e-30</Option>
    <Option name="ConvergenceTests" modified="Yes">20</Option>
    <Option name="UseRegulator" modified="Yes">False</Option>
    <Option name="UpdateLimit" modified="No">10</Option>
    <Option name="CalculateErrors" modified="No">False</Option>
  </Options>
  <Variables NVar="10">
    <Variable VarIndex="0" Expression="fside" Label="fside" Title="fside" Unit="" Internal="fside" Type="D" Min="0" Max="1.46154"/>
    <Variable VarIndex="1" Expression="w1" Label="w1" Title="w1" Unit="" Internal="w1" Type="D" Min="0.154778" Max="0.810491"/>
    <Variable VarIndex="2" Expression="wtot" Label="wtot" Title="wtot" Unit="" Internal="wtot" Type="D" Min="0.518764" Max="13.8339"/>
    <Variable VarIndex="3" Expression="deltae" Label="deltae" Title="deltae" Unit="" Internal="deltae" Type="D" Min="-1.2284" Max="2898"/>
    <Variable VarIndex="4" Expression="eratio" Label="eratio" Title="eratio" Unit="" Internal="eratio" Type="D" Min="-0.00218687" Max="1"/>
    <Variable VarIndex="5" Expression="rphi" Label="rphi" Title="rphi" Unit="" Internal="rphi" Type="D" Min="0.42801" Max="1.00112"/>
    <Variable VarIndex="6" Expression="rhad" Label="rhad" Title="rhad" Unit="" Internal="rhad" Type="D" Min="-0.0297996" Max="0.00799598"/>
    <Variable VarIndex="7" Expression="reta" Label="reta" Title="reta" Unit="" Internal="reta" Type="D" Min="0.916004" Max="1.00829"/>
    <Variable VarIndex="8" Expression="weta2" Label="weta2" Title="weta2" Unit="" Internal="weta2" Type="D" Min="0.00606894" Max="0.013"/>
    <Variable VarIndex="9" Expression="f1" Label="f1" Title="f1" Unit="" Internal="f1" Type="D" Min="5.50294e-05" Max="0.377639"/>
  </Variables>
  <Spectators NSpec="4">
    <Spectator SpecIndex="0" Expression="pt" Label="pt" Title="P_{T} [GeV]" Unit="D" Internal="pt" Type="F" Min="30000.4" Max="39998.7"/>
    <Spectator SpecIndex="1" Expression="etas2" Label="etas2" Title="etas2" Unit="D" Internal="etas2" Type="F" Min="-1.37" Max="1.36996"/>
    <Spectator SpecIndex="2" Expression="convFlag" Label="convFlag" Title="convFlag" Unit="i" Internal="convFlag" Type="F" Min="0" Max="10"/>
    <Spectator SpecIndex="3" Expression="tight" Label="tight" Title="Tight" Unit="i" Internal="tight" Type="F" Min="0" Max="1"/>
  </Spectators>
  <Transformations NTransformations="1">
    <Transform Name="Normalize" NVariables="10" NTargets="0">
      <Class ClassIndex="0">
        <Variables>
          <Variable VarIndex="0" Min="1.9248999655246735e-02" Max="1.4615442752838135e+00"/>
          <Variable VarIndex="1" Min="1.5477791428565979e-01" Max="8.0723488330841064e-01"/>
          <Variable VarIndex="2" Min="5.1876431703567505e-01" Max="1.2104396820068359e+01"/>
          <Variable VarIndex="3" Min="-1.2283999919891357e+00" Max="1.1637421875000000e+03"/>
          <Variable VarIndex="4" Min="-2.1868690382689238e-03" Max="9.9780577421188354e-01"/>
          <Variable VarIndex="5" Min="6.7616772651672363e-01" Max="1.0011157989501953e+00"/>
          <Variable VarIndex="6" Min="-2.7013957500457764e-02" Max="7.9945949837565422e-03"/>
          <Variable VarIndex="7" Min="9.1614699363708496e-01" Max="1.0082916021347046e+00"/>
          <Variable VarIndex="8" Min="8.5072228685021400e-03" Max="1.2620220892131329e-02"/>
          <Variable VarIndex="9" Min="5.5029369832482189e-05" Max="3.7733903527259827e-01"/>
        </Variables>
        <Targets/>
      </Class>
      <Class ClassIndex="1">
        <Variables>
          <Variable VarIndex="0" Min="0.0000000000000000e+00" Max="1.3440505266189575e+00"/>
          <Variable VarIndex="1" Min="2.2388657927513123e-01" Max="8.1049108505249023e-01"/>
          <Variable VarIndex="2" Min="1.2113305330276489e+00" Max="1.3833893775939941e+01"/>
          <Variable VarIndex="3" Min="0.0000000000000000e+00" Max="2.8980002441406250e+03"/>
          <Variable VarIndex="4" Min="2.4667860998306423e-05" Max="1.0000000000000000e+00"/>
          <Variable VarIndex="5" Min="4.2800974845886230e-01" Max="9.9036383628845215e-01"/>
          <Variable VarIndex="6" Min="-2.9799561947584152e-02" Max="7.9959835857152939e-03"/>
          <Variable VarIndex="7" Min="9.1600370407104492e-01" Max="1.0011731386184692e+00"/>
          <Variable VarIndex="8" Min="6.0689365491271019e-03" Max="1.2999990954995155e-02"/>
          <Variable VarIndex="9" Min="1.5972937690094113e-03" Max="3.7763932347297668e-01"/>
        </Variables>
        <Targets/>
      </Class>
      <Class ClassIndex="2">
        <Variables>
          <Variable VarIndex="0" Min="0.0000000000000000e+00" Max="1.4615442752838135e+00"/>
          <Variable VarIndex="1" Min="1.5477791428565979e-01" Max="8.1049108505249023e-01"/>
          <Variable VarIndex="2" Min="5.1876431703567505e-01" Max="1.3833893775939941e+01"/>
          <Variable VarIndex="3" Min="-1.2283999919891357e+00" Max="2.8980002441406250e+03"/>
          <Variable VarIndex="4" Min="-2.1868690382689238e-03" Max="1.0000000000000000e+00"/>
          <Variable VarIndex="5" Min="4.2800974845886230e-01" Max="1.0011157989501953e+00"/>
          <Variable VarIndex="6" Min="-2.9799561947584152e-02" Max="7.9959835857152939e-03"/>
          <Variable VarIndex="7" Min="9.1600370407104492e-01" Max="1.0082916021347046e+00"/>
          <Variable VarIndex="8" Min="6.0689365491271019e-03" Max="1.2999990954995155e-02"/>
          <Variable VarIndex="9" Min="5.5029369832482189e-05" Max="3.7763932347297668e-01"/>
        </Variables>
        <Targets/>
      </Class>
    </Transform>
  </Transformations>
  <MVAPdfs/>
  <Weights>
    <Layout NLayers="3">
      <Layer Index="0" NNeurons="11">
        <Neuron NSynapses="13">
          -8.3952135502172809e-01 5.3699235967340728e+00 7.0299091121520507e-01 1.2248892849353189e-01 -3.4046910665227479e+00 1.9991348651974143e+00 -1.0525760400210643e-01 1.8531340867725155e+00 -1.9175060672606743e+00 -2.6750584450733395e-01 -1.4384937680076095e+00 -5.1895271365922169e-01 -8.3438585342884161e-02 
        </Neuron>
        <Neuron NSynapses="13">
          1.3909703104245158e-01 -1.0947759025085577e+00 7.3929447883386112e-01 1.3278301580714000e-01 1.6727361174988313e+00 1.3206473778829071e+00 5.7264595331487389e-01 -2.3952873321620688e-01 -3.0540461554246989e-01 1.3610594290966354e+00 7.1504584501715085e-01 -1.1460098084048458e+00 3.4607448298747401e-01 
        </Neuron>
        <Neuron NSynapses="13">
          9.5833695930520579e-01 -1.5095858058869009e+00 -1.7925185835817863e+00 -3.6163888813594454e-02 2.5152668770207137e-01 -5.9996759696626223e-01 -3.1697690050067895e-01 -6.7156319395844444e-01 4.2600467407729797e-01 -5.2160573701047053e-01 -8.5138044757524733e-01 1.6842169271172847e+00 -7.4733746102621457e-01 
        </Neuron>
        <Neuron NSynapses="13">
          4.4592665620120231e-01 8.0982379312107333e-01 4.2478627790675516e-01 1.7268271187734261e+00 1.1940280957317035e+00 -1.8539975196972761e-01 -1.3566068405015972e+00 2.0322614346501294e-01 -3.2665913845273481e-01 1.3058996283239817e+00 2.2797444086800596e+00 1.3402981691979396e+00 5.9266375680206385e-01 
        </Neuron>
        <Neuron NSynapses="13">
          -1.0622209325807190e+00 3.0990867555347577e+00 -1.5160004820129902e+00 4.1317435241588117e-02 -2.2647554474459284e+00 -1.8492595265907055e+00 4.7643340603859552e-01 8.0968368748777853e-01 -3.5239353566536273e+00 -3.5291377992482181e-01 -1.7187401751654696e+00 9.1116933585112014e-01 1.7479522617299281e+00 
        </Neuron>
        <Neuron NSynapses="13">
          -4.2664314016316960e-03 1.7228036048919331e+00 -9.1450110773382243e-01 6.9409200914508717e-01 -2.0426920341052157e+00 -6.2109087961897407e+00 -1.1083090641088342e+00 1.4112874558272368e+00 1.9831601530707583e+00 -3.0464267562883690e-01 -6.1448531222147984e-01 -1.4576947027519402e+00 -1.5704627497947368e+00 
        </Neuron>
        <Neuron NSynapses="13">
          1.0396837327569626e+00 1.5721206624319056e-01 1.1159276825913214e+00 -1.4842559176179657e-01 6.0547674275570096e-01 9.4093926709152786e-01 2.5406071461975943e-01 4.9933532426006566e-01 7.5853980547817057e-01 -1.4854752454891305e+00 -3.7970903574044057e-01 -1.8362150929759460e+00 2.0842118856228606e-01 
        </Neuron>
        <Neuron NSynapses="13">
          -5.7828030031108224e-01 2.5233670957529419e-01 -1.0278767315431527e+00 3.0446005607769699e-01 -8.2001669583387571e-01 -1.5671723600284309e+00 -1.6793611981168259e+00 -7.7052672180274950e-02 4.7646143877877745e-01 -1.5016882288559923e+00 -1.4863274468957366e+00 8.1918003937105732e-01 2.3340371531170709e-01 
        </Neuron>
        <Neuron NSynapses="13">
          -4.0195173506277071e-01 -2.8995155555934077e-01 -1.8197100446232284e-01 -1.2424933152402519e-01 4.5934090634959801e-01 5.8666027129255327e-01 -9.0108902550479886e-01 -1.0783492997900100e-01 6.6340696889942474e-01 9.9653036986219334e-01 -1.1966294416160368e-01 1.8028846965280525e+00 3.0307818263903563e-01 
        </Neuron>
        <Neuron NSynapses="13">
          -5.3007478638551886e-01 2.5629407331857595e-01 -6.3979705773909301e-01 -3.3553826620304026e+00 -1.1788015337632161e+00 -1.3621622293181137e+00 3.3035445633695888e+00 5.5990818502036507e-02 1.0997612692657024e+00 -8.7580382769182019e-01 9.3623413237208419e-01 -2.0195985666586207e+00 1.3089590181444211e+00 
        </Neuron>
        <Neuron NSynapses="13">
          9.5914708094047230e-01 -1.7269074493114047e+00 5.8014048248741656e-01 -2.7290983445203620e+00 1.5073291995736042e+00 5.3461316609234713e+00 2.8071730588791861e+00 -1.3928509947358272e+00 3.2888095524718125e-01 1.4246503662820058e+00 2.4248628298602868e+00 3.0426061414306715e-01 -1.4064788362008349e+00 
        </Neuron>
      </Layer>
      <Layer Index="1" NNeurons="14">
        <Neuron NSynapses="1">
          5.2668117796153005e-02 
        </Neuron>
        <Neuron NSynapses="1">
          -5.3451540064971914e-01 
        </Neuron>
        <Neuron NSynapses="1">
          3.8186132812119222e-01 
        </Neuron>
        <Neuron NSynapses="1">
          1.0100828055546722e+00 
        </Neuron>
        <Neuron NSynapses="1">
          -5.0768936337946047e-01 
        </Neuron>
        <Neuron NSynapses="1">
          -4.4192582496736899e-01 
        </Neuron>
        <Neuron NSynapses="1">
          -1.7272682122247454e-01 
        </Neuron>
        <Neuron NSynapses="1">
          2.1503646762102820e-02 
        </Neuron>
        <Neuron NSynapses="1">
          6.9760785546670923e-02 
        </Neuron>
        <Neuron NSynapses="1">
          2.4073493157071957e-01 
        </Neuron>
        <Neuron NSynapses="1">
          -2.3281582473989162e-01 
        </Neuron>
        <Neuron NSynapses="1">
          -1.0340202294571438e-01 
        </Neuron>
        <Neuron NSynapses="1">
          1.3068571021225786e-01 
        </Neuron>
        <Neuron NSynapses="1">
          1.1314404942657015e+00 
        </Neuron>
      </Layer>
      <Layer Index="2" NNeurons="1">
        <Neuron NSynapses="0"/>
      </Layer>
    </Layout>
  </Weights>
</MethodSetup>
