<?xml version="1.0"?>
<MethodSetup Method="MLP::MLP_N3.pt80_eta0.80_conv0">
  <GeneralInfo>
    <Info name="TMVA Release" value="4.1.0 [262400]"/>
    <Info name="ROOT Release" value="5.28/00 [334848]"/>
    <Info name="Creator" value="jsaxon"/>
    <Info name="Date" value="Sat Jun 23 15:53:00 2012"/>
    <Info name="Host" value="Linux lxbuild148.cern.ch 2.6.18-194.26.1.el5 #1 SMP Wed Nov 10 09:45:46 CET 2010 x86_64 x86_64 x86_64 GNU/Linux"/>
    <Info name="Dir" value="/home/jsaxon/NeuralNetworks/nn12"/>
    <Info name="Training events" value="20000"/>
    <Info name="TrainingTime" value="413.221"/>
    <Info name="AnalysisType" value="Classification"/>
  </GeneralInfo>
  <Options>
    <Option name="NCycles" modified="Yes">2000</Option>
    <Option name="HiddenLayers" modified="Yes">N+3</Option>
    <Option name="NeuronType" modified="Yes">tanh</Option>
    <Option name="RandomSeed" modified="No">1</Option>
    <Option name="EstimatorType" modified="No">MSE</Option>
    <Option name="NeuronInputType" modified="No">sum</Option>
    <Option name="V" modified="No">False</Option>
    <Option name="VerbosityLevel" modified="No">Default</Option>
    <Option name="VarTransform" modified="Yes">N</Option>
    <Option name="H" modified="No">False</Option>
    <Option name="CreateMVAPdfs" modified="No">False</Option>
    <Option name="IgnoreNegWeightsInTraining" modified="No">False</Option>
    <Option name="TrainingMethod" modified="No">BP</Option>
    <Option name="LearningRate" modified="No">2.000000e-02</Option>
    <Option name="DecayRate" modified="No">1.000000e-02</Option>
    <Option name="TestRate" modified="Yes">5</Option>
    <Option name="EpochMonitoring" modified="No">False</Option>
    <Option name="Sampling" modified="No">1.000000e+00</Option>
    <Option name="SamplingEpoch" modified="No">1.000000e+00</Option>
    <Option name="SamplingImportance" modified="No">1.000000e+00</Option>
    <Option name="SamplingTraining" modified="No">True</Option>
    <Option name="SamplingTesting" modified="No">False</Option>
    <Option name="ResetStep" modified="No">50</Option>
    <Option name="Tau" modified="No">3.000000e+00</Option>
    <Option name="BPMode" modified="No">sequential</Option>
    <Option name="BatchSize" modified="No">-1</Option>
    <Option name="ConvergenceImprove" modified="No">1.000000e-30</Option>
    <Option name="ConvergenceTests" modified="Yes">20</Option>
    <Option name="UseRegulator" modified="Yes">False</Option>
    <Option name="UpdateLimit" modified="No">10</Option>
    <Option name="CalculateErrors" modified="No">False</Option>
  </Options>
  <Variables NVar="10">
    <Variable VarIndex="0" Expression="fside" Label="fside" Title="fside" Unit="" Internal="fside" Type="D" Min="0" Max="1.45091"/>
    <Variable VarIndex="1" Expression="w1" Label="w1" Title="w1" Unit="" Internal="w1" Type="D" Min="0.26131" Max="0.812892"/>
    <Variable VarIndex="2" Expression="wtot" Label="wtot" Title="wtot" Unit="" Internal="wtot" Type="D" Min="0.417986" Max="12.1261"/>
    <Variable VarIndex="3" Expression="deltae" Label="deltae" Title="deltae" Unit="" Internal="deltae" Type="D" Min="-4.0732" Max="5206.99"/>
    <Variable VarIndex="4" Expression="eratio" Label="eratio" Title="eratio" Unit="" Internal="eratio" Type="D" Min="1.31981e-05" Max="1"/>
    <Variable VarIndex="5" Expression="rphi" Label="rphi" Title="rphi" Unit="" Internal="rphi" Type="D" Min="0.360228" Max="0.997132"/>
    <Variable VarIndex="6" Expression="rhad" Label="rhad" Title="rhad" Unit="" Internal="rhad" Type="D" Min="-0.0181187" Max="0.00999798"/>
    <Variable VarIndex="7" Expression="reta" Label="reta" Title="reta" Unit="" Internal="reta" Type="D" Min="0.912006" Max="0.994617"/>
    <Variable VarIndex="8" Expression="weta2" Label="weta2" Title="weta2" Unit="" Internal="weta2" Type="D" Min="0.00649911" Max="0.0119987"/>
    <Variable VarIndex="9" Expression="f1" Label="f1" Title="f1" Unit="" Internal="f1" Type="D" Min="0.000103688" Max="0.49116"/>
  </Variables>
  <Spectators NSpec="4">
    <Spectator SpecIndex="0" Expression="pt" Label="pt" Title="P_{T} [GeV]" Unit="D" Internal="pt" Type="F" Min="60000.1" Max="79998.3"/>
    <Spectator SpecIndex="1" Expression="etas2" Label="etas2" Title="etas2" Unit="D" Internal="etas2" Type="F" Min="-0.79997" Max="0.799992"/>
    <Spectator SpecIndex="2" Expression="convFlag" Label="convFlag" Title="convFlag" Unit="i" Internal="convFlag" Type="F" Min="0" Max="10"/>
    <Spectator SpecIndex="3" Expression="tight" Label="tight" Title="Tight" Unit="i" Internal="tight" Type="F" Min="0" Max="1"/>
  </Spectators>
  <Transformations NTransformations="1">
    <Transform Name="Normalize" NVariables="10" NTargets="0">
      <Class ClassIndex="0">
        <Variables>
          <Variable VarIndex="0" Min="7.6609879732131958e-02" Max="5.5774664878845215e-01"/>
          <Variable VarIndex="1" Min="3.5838803648948669e-01" Max="7.3055142164230347e-01"/>
          <Variable VarIndex="2" Min="4.1798645257949829e-01" Max="8.6842088699340820e+00"/>
          <Variable VarIndex="3" Min="-4.0732002258300781e+00" Max="2.7519216308593750e+03"/>
          <Variable VarIndex="4" Min="3.5347655415534973e-02" Max="9.9920821189880371e-01"/>
          <Variable VarIndex="5" Min="5.8220088481903076e-01" Max="9.9309295415878296e-01"/>
          <Variable VarIndex="6" Min="-1.1839395388960838e-02" Max="9.8263714462518692e-03"/>
          <Variable VarIndex="7" Min="9.1406470537185669e-01" Max="9.9006050825119019e-01"/>
          <Variable VarIndex="8" Min="8.0430889502167702e-03" Max="1.1967686936259270e-02"/>
          <Variable VarIndex="9" Min="1.0368772200308740e-04" Max="4.5942240953445435e-01"/>
        </Variables>
        <Targets/>
      </Class>
      <Class ClassIndex="1">
        <Variables>
          <Variable VarIndex="0" Min="0.0000000000000000e+00" Max="1.4509092569351196e+00"/>
          <Variable VarIndex="1" Min="2.6131039857864380e-01" Max="8.1289207935333252e-01"/>
          <Variable VarIndex="2" Min="5.5532807111740112e-01" Max="1.2126102447509766e+01"/>
          <Variable VarIndex="3" Min="0.0000000000000000e+00" Max="5.2069902343750000e+03"/>
          <Variable VarIndex="4" Min="1.3198061424191110e-05" Max="1.0000000000000000e+00"/>
          <Variable VarIndex="5" Min="3.6022824048995972e-01" Max="9.9713200330734253e-01"/>
          <Variable VarIndex="6" Min="-1.8118713051080704e-02" Max="9.9979816004633904e-03"/>
          <Variable VarIndex="7" Min="9.1200613975524902e-01" Max="9.9461650848388672e-01"/>
          <Variable VarIndex="8" Min="6.4991051331162453e-03" Max="1.1998713947832584e-02"/>
          <Variable VarIndex="9" Min="2.4763187393546104e-03" Max="4.9116021394729614e-01"/>
        </Variables>
        <Targets/>
      </Class>
      <Class ClassIndex="2">
        <Variables>
          <Variable VarIndex="0" Min="0.0000000000000000e+00" Max="1.4509092569351196e+00"/>
          <Variable VarIndex="1" Min="2.6131039857864380e-01" Max="8.1289207935333252e-01"/>
          <Variable VarIndex="2" Min="4.1798645257949829e-01" Max="1.2126102447509766e+01"/>
          <Variable VarIndex="3" Min="-4.0732002258300781e+00" Max="5.2069902343750000e+03"/>
          <Variable VarIndex="4" Min="1.3198061424191110e-05" Max="1.0000000000000000e+00"/>
          <Variable VarIndex="5" Min="3.6022824048995972e-01" Max="9.9713200330734253e-01"/>
          <Variable VarIndex="6" Min="-1.8118713051080704e-02" Max="9.9979816004633904e-03"/>
          <Variable VarIndex="7" Min="9.1200613975524902e-01" Max="9.9461650848388672e-01"/>
          <Variable VarIndex="8" Min="6.4991051331162453e-03" Max="1.1998713947832584e-02"/>
          <Variable VarIndex="9" Min="1.0368772200308740e-04" Max="4.9116021394729614e-01"/>
        </Variables>
        <Targets/>
      </Class>
    </Transform>
  </Transformations>
  <MVAPdfs/>
  <Weights>
    <Layout NLayers="3">
      <Layer Index="0" NNeurons="11">
        <Neuron NSynapses="13">
          -3.0600168931003546e-01 2.9195016408533054e+00 1.5985938737349745e+00 1.5811009828339782e+00 -1.6651196003704418e+00 -1.8825455445916246e+00 -2.5314757356652368e-01 1.7686419819994157e+00 -1.3449181389937750e+00 -4.1661324052692916e-01 -1.8379105356990635e+00 -5.0232452487560475e-01 -4.6429513588032600e+00 
        </Neuron>
        <Neuron NSynapses="13">
          1.4711268595999618e+00 2.6716846227961598e-04 4.9491828157022216e-01 -6.6648850297775097e-01 3.1508931545770182e+00 8.8997915931328841e-01 9.0793601288893577e-01 -7.9978226756582205e-01 -7.0317964228952012e-01 3.1477912908426968e+00 9.7969371122906956e-01 -1.2892750459350406e+00 -2.1046238094104353e+00 
        </Neuron>
        <Neuron NSynapses="13">
          3.5722518779364804e-01 -1.9715363671948267e+00 -1.7299933516863610e+00 4.5398748427884056e-01 1.4517716080039167e-01 3.6373210155986935e-01 3.1741041634121264e-01 7.1536981284878190e-02 8.0377425663406021e-01 2.3352158137699908e-01 -1.0473011834408472e+00 1.5829744061964182e+00 1.4278201310440055e+00 
        </Neuron>
        <Neuron NSynapses="13">
          6.9418738449222739e-01 1.4398601675235485e+00 -5.7000863284573977e-01 2.1843762319468976e+00 3.7413005749125960e-01 -5.2990211716924374e-01 -7.7460551689105905e-01 1.0444154331943916e+00 -2.7747873456182037e-01 7.5488220225568337e-01 2.2994783884268117e+00 1.3084713328279041e+00 2.5912296543717400e-01 
        </Neuron>
        <Neuron NSynapses="13">
          -1.7072718522507482e+00 2.4245286254309972e+00 -1.9452103504154898e+00 -1.7634424460552062e-01 -1.7630071424573934e+00 -1.9224835394164788e+00 1.0132143961903135e+00 7.9016248417316060e-01 -2.3070733972687321e+00 -1.2219127231389286e+00 -2.2735694582980792e+00 7.2782563358329921e-01 2.7920878279629457e+00 
        </Neuron>
        <Neuron NSynapses="13">
          4.1373313663597455e-01 -5.5396570669455934e-02 -1.4388551906181302e-01 -9.4104994652472462e-02 -6.5148353176836149e-01 -2.6044949383454616e+00 -2.2562115542891030e+00 5.0616167017462477e-01 1.9353738474268769e+00 1.0396680212972123e-01 -9.5253274499225285e-02 -1.6743968132104114e+00 6.0784739637622787e+00 
        </Neuron>
        <Neuron NSynapses="13">
          7.9474131662578451e-01 8.6590816730867784e-02 1.1316660369289857e+00 1.7489678497735700e-01 8.6681010574310935e-01 6.4329217586585685e-01 -1.2168973719615535e+00 -3.0624068084229578e-01 4.3164030192161063e-01 -1.5399152415711234e-01 1.9271626231067585e-01 -1.5440080420159770e+00 -1.2010891718649102e+00 
        </Neuron>
        <Neuron NSynapses="13">
          -1.0778106171049502e+00 1.4013587250703423e+00 -1.0133370387736587e+00 -7.1799426373187392e-01 5.9859596725564214e-02 -3.6218843226883496e-01 -1.2087152032270887e+00 -9.3316934496819359e-01 -5.0274625121226446e-01 -1.2641413280124192e+00 -1.0982163378308905e+00 7.5074486329033607e-01 1.3827356912195241e+00 
        </Neuron>
        <Neuron NSynapses="13">
          3.0379194383422226e-01 -3.4831749244159027e-01 9.0465343388197311e-02 -7.4687065809727626e-01 -2.8748879220656703e-01 8.2929051717264779e-01 -1.9417272818464895e+00 -2.2458131037788920e-01 2.3649530939180691e-01 1.5638541759472466e+00 5.0367479562110261e-02 1.5800915931798909e+00 -5.6819475011418619e-01 
        </Neuron>
        <Neuron NSynapses="13">
          -1.6198527020185285e+00 6.5523302833486086e-01 -9.1241223640715657e-02 -1.1981652749242466e+00 3.0645699647656138e-01 1.0404668249494509e+00 1.5556630823126987e+00 1.9510621809318027e-01 1.2482749336008959e-01 -1.3322010916653491e+00 2.2283604243173455e-01 -2.2936818959175342e+00 1.1369530440798823e+00 
        </Neuron>
        <Neuron NSynapses="13">
          1.7606922074824161e+00 -1.2071442511539223e+00 1.2285279882177849e+00 -2.3217234192838938e+00 1.0149075952417226e+00 3.1130100410710781e+00 7.6089835057662081e-01 -2.4259175592702342e+00 7.6199517104753769e-02 1.3416269693043614e+00 2.4048417348849749e+00 4.6095933569086345e-01 -9.0249808263585738e+00 
        </Neuron>
      </Layer>
      <Layer Index="1" NNeurons="14">
        <Neuron NSynapses="1">
          -3.7276566346452866e-01 
        </Neuron>
        <Neuron NSynapses="1">
          -4.2160439350890994e-01 
        </Neuron>
        <Neuron NSynapses="1">
          6.0797748518019190e-01 
        </Neuron>
        <Neuron NSynapses="1">
          9.1603943605744020e-01 
        </Neuron>
        <Neuron NSynapses="1">
          2.6773985590679311e-01 
        </Neuron>
        <Neuron NSynapses="1">
          -3.2034611886299075e-01 
        </Neuron>
        <Neuron NSynapses="1">
          7.1192328271777851e-03 
        </Neuron>
        <Neuron NSynapses="1">
          -4.0304340485478229e-01 
        </Neuron>
        <Neuron NSynapses="1">
          2.2844534430017296e-02 
        </Neuron>
        <Neuron NSynapses="1">
          2.7500158146579340e-01 
        </Neuron>
        <Neuron NSynapses="1">
          -4.1252997765308763e-01 
        </Neuron>
        <Neuron NSynapses="1">
          1.5703080561488458e-01 
        </Neuron>
        <Neuron NSynapses="1">
          7.1941202478509059e-01 
        </Neuron>
        <Neuron NSynapses="1">
          9.1170787616722859e-01 
        </Neuron>
      </Layer>
      <Layer Index="2" NNeurons="1">
        <Neuron NSynapses="0"/>
      </Layer>
    </Layout>
  </Weights>
</MethodSetup>
