<?xml version="1.0"?>
<MethodSetup Method="MLP::MLP_N3.pt60_eta0.80_conv0">
  <GeneralInfo>
    <Info name="TMVA Release" value="4.1.0 [262400]"/>
    <Info name="ROOT Release" value="5.28/00 [334848]"/>
    <Info name="Creator" value="jsaxon"/>
    <Info name="Date" value="Sat Jun 23 15:46:46 2012"/>
    <Info name="Host" value="Linux lxbuild148.cern.ch 2.6.18-194.26.1.el5 #1 SMP Wed Nov 10 09:45:46 CET 2010 x86_64 x86_64 x86_64 GNU/Linux"/>
    <Info name="Dir" value="/home/jsaxon/NeuralNetworks/nn12"/>
    <Info name="Training events" value="19404"/>
    <Info name="TrainingTime" value="302.147"/>
    <Info name="AnalysisType" value="Classification"/>
  </GeneralInfo>
  <Options>
    <Option name="NCycles" modified="Yes">2000</Option>
    <Option name="HiddenLayers" modified="Yes">N+3</Option>
    <Option name="NeuronType" modified="Yes">tanh</Option>
    <Option name="RandomSeed" modified="No">1</Option>
    <Option name="EstimatorType" modified="No">MSE</Option>
    <Option name="NeuronInputType" modified="No">sum</Option>
    <Option name="V" modified="No">False</Option>
    <Option name="VerbosityLevel" modified="No">Default</Option>
    <Option name="VarTransform" modified="Yes">N</Option>
    <Option name="H" modified="No">False</Option>
    <Option name="CreateMVAPdfs" modified="No">False</Option>
    <Option name="IgnoreNegWeightsInTraining" modified="No">False</Option>
    <Option name="TrainingMethod" modified="No">BP</Option>
    <Option name="LearningRate" modified="No">2.000000e-02</Option>
    <Option name="DecayRate" modified="No">1.000000e-02</Option>
    <Option name="TestRate" modified="Yes">5</Option>
    <Option name="EpochMonitoring" modified="No">False</Option>
    <Option name="Sampling" modified="No">1.000000e+00</Option>
    <Option name="SamplingEpoch" modified="No">1.000000e+00</Option>
    <Option name="SamplingImportance" modified="No">1.000000e+00</Option>
    <Option name="SamplingTraining" modified="No">True</Option>
    <Option name="SamplingTesting" modified="No">False</Option>
    <Option name="ResetStep" modified="No">50</Option>
    <Option name="Tau" modified="No">3.000000e+00</Option>
    <Option name="BPMode" modified="No">sequential</Option>
    <Option name="BatchSize" modified="No">-1</Option>
    <Option name="ConvergenceImprove" modified="No">1.000000e-30</Option>
    <Option name="ConvergenceTests" modified="Yes">20</Option>
    <Option name="UseRegulator" modified="Yes">False</Option>
    <Option name="UpdateLimit" modified="No">10</Option>
    <Option name="CalculateErrors" modified="No">False</Option>
  </Options>
  <Variables NVar="10">
    <Variable VarIndex="0" Expression="fside" Label="fside" Title="fside" Unit="" Internal="fside" Type="D" Min="0" Max="1.57071"/>
    <Variable VarIndex="1" Expression="w1" Label="w1" Title="w1" Unit="" Internal="w1" Type="D" Min="0.355211" Max="0.812138"/>
    <Variable VarIndex="2" Expression="wtot" Label="wtot" Title="wtot" Unit="" Internal="wtot" Type="D" Min="0.415187" Max="13.3778"/>
    <Variable VarIndex="3" Expression="deltae" Label="deltae" Title="deltae" Unit="" Internal="deltae" Type="D" Min="-3.726" Max="4708.98"/>
    <Variable VarIndex="4" Expression="eratio" Label="eratio" Title="eratio" Unit="" Internal="eratio" Type="D" Min="4.70282e-05" Max="1.00028"/>
    <Variable VarIndex="5" Expression="rphi" Label="rphi" Title="rphi" Unit="" Internal="rphi" Type="D" Min="0.420047" Max="0.996014"/>
    <Variable VarIndex="6" Expression="rhad" Label="rhad" Title="rhad" Unit="" Internal="rhad" Type="D" Min="-0.0242" Max="0.0099954"/>
    <Variable VarIndex="7" Expression="reta" Label="reta" Title="reta" Unit="" Internal="reta" Type="D" Min="0.912014" Max="0.994431"/>
    <Variable VarIndex="8" Expression="weta2" Label="weta2" Title="weta2" Unit="" Internal="weta2" Type="D" Min="0.00588736" Max="0.0119995"/>
    <Variable VarIndex="9" Expression="f1" Label="f1" Title="f1" Unit="" Internal="f1" Type="D" Min="7.57354e-07" Max="0.499482"/>
  </Variables>
  <Spectators NSpec="4">
    <Spectator SpecIndex="0" Expression="pt" Label="pt" Title="P_{T} [GeV]" Unit="D" Internal="pt" Type="F" Min="50000.1" Max="59999.9"/>
    <Spectator SpecIndex="1" Expression="etas2" Label="etas2" Title="etas2" Unit="D" Internal="etas2" Type="F" Min="-0.799965" Max="0.8"/>
    <Spectator SpecIndex="2" Expression="convFlag" Label="convFlag" Title="convFlag" Unit="i" Internal="convFlag" Type="F" Min="0" Max="10"/>
    <Spectator SpecIndex="3" Expression="tight" Label="tight" Title="Tight" Unit="i" Internal="tight" Type="F" Min="0" Max="1"/>
  </Spectators>
  <Transformations NTransformations="1">
    <Transform Name="Normalize" NVariables="10" NTargets="0">
      <Class ClassIndex="0">
        <Variables>
          <Variable VarIndex="0" Min="6.1867710202932358e-02" Max="5.5047541856765747e-01"/>
          <Variable VarIndex="1" Min="3.5521104931831360e-01" Max="7.2633904218673706e-01"/>
          <Variable VarIndex="2" Min="4.1518735885620117e-01" Max="5.2057714462280273e+00"/>
          <Variable VarIndex="3" Min="-3.7260000705718994e+00" Max="1.7983206787109375e+03"/>
          <Variable VarIndex="4" Min="3.7019899487495422e-01" Max="1.0002800226211548e+00"/>
          <Variable VarIndex="5" Min="7.0135420560836792e-01" Max="9.9601447582244873e-01"/>
          <Variable VarIndex="6" Min="-2.4199977517127991e-02" Max="9.9720973521471024e-03"/>
          <Variable VarIndex="7" Min="9.1483896970748901e-01" Max="9.9443101882934570e-01"/>
          <Variable VarIndex="8" Min="8.0491481348872185e-03" Max="1.1978492140769958e-02"/>
          <Variable VarIndex="9" Min="7.5735351856565103e-07" Max="4.8245999217033386e-01"/>
        </Variables>
        <Targets/>
      </Class>
      <Class ClassIndex="1">
        <Variables>
          <Variable VarIndex="0" Min="0.0000000000000000e+00" Max="1.5707117319107056e+00"/>
          <Variable VarIndex="1" Min="3.6164510250091553e-01" Max="8.1213808059692383e-01"/>
          <Variable VarIndex="2" Min="7.2938263416290283e-01" Max="1.3377803802490234e+01"/>
          <Variable VarIndex="3" Min="0.0000000000000000e+00" Max="4.7089833984375000e+03"/>
          <Variable VarIndex="4" Min="4.7028221160871908e-05" Max="1.0000000000000000e+00"/>
          <Variable VarIndex="5" Min="4.2004689574241638e-01" Max="9.8999232053756714e-01"/>
          <Variable VarIndex="6" Min="-1.6146745532751083e-02" Max="9.9953953176736832e-03"/>
          <Variable VarIndex="7" Min="9.1201430559158325e-01" Max="9.8509287834167480e-01"/>
          <Variable VarIndex="8" Min="5.8873612433671951e-03" Max="1.1999480426311493e-02"/>
          <Variable VarIndex="9" Min="2.4765064008533955e-03" Max="4.9948164820671082e-01"/>
        </Variables>
        <Targets/>
      </Class>
      <Class ClassIndex="2">
        <Variables>
          <Variable VarIndex="0" Min="0.0000000000000000e+00" Max="1.5707117319107056e+00"/>
          <Variable VarIndex="1" Min="3.5521104931831360e-01" Max="8.1213808059692383e-01"/>
          <Variable VarIndex="2" Min="4.1518735885620117e-01" Max="1.3377803802490234e+01"/>
          <Variable VarIndex="3" Min="-3.7260000705718994e+00" Max="4.7089833984375000e+03"/>
          <Variable VarIndex="4" Min="4.7028221160871908e-05" Max="1.0002800226211548e+00"/>
          <Variable VarIndex="5" Min="4.2004689574241638e-01" Max="9.9601447582244873e-01"/>
          <Variable VarIndex="6" Min="-2.4199977517127991e-02" Max="9.9953953176736832e-03"/>
          <Variable VarIndex="7" Min="9.1201430559158325e-01" Max="9.9443101882934570e-01"/>
          <Variable VarIndex="8" Min="5.8873612433671951e-03" Max="1.1999480426311493e-02"/>
          <Variable VarIndex="9" Min="7.5735351856565103e-07" Max="4.9948164820671082e-01"/>
        </Variables>
        <Targets/>
      </Class>
    </Transform>
  </Transformations>
  <MVAPdfs/>
  <Weights>
    <Layout NLayers="3">
      <Layer Index="0" NNeurons="11">
        <Neuron NSynapses="13">
          -7.9624367245054428e-01 1.9807323423169565e+00 8.5511583635524457e-01 1.6860678696202342e+00 -1.7031874648098753e+00 -1.2696035410330744e+00 -3.2934462205269383e-01 1.8728862443108887e+00 -2.3464552039056619e+00 -1.1368009797477325e+00 -1.7802040273297033e+00 -4.0261302526538817e-01 -5.5582318568259419e+00 
        </Neuron>
        <Neuron NSynapses="13">
          2.1875456609988589e-02 -2.9539764088314464e+00 7.3622914400735207e-01 -3.8052268583402538e-01 2.7323436022767384e+00 7.3542237088721318e-01 9.8293754861075699e-01 -6.7922247927644341e-01 -1.4479153308000572e+00 7.9589142933001888e-01 3.9040076242137350e-01 -1.1423740545817975e+00 -1.6178642560392971e+00 
        </Neuron>
        <Neuron NSynapses="13">
          8.0891413497943243e-01 -1.2025570040280307e+00 -1.9850486337784363e+00 4.3744237924669876e-01 2.1959243505964685e-01 5.9979954244508316e-01 2.8335026591548279e-01 1.6525351212424036e-01 8.8590976749939243e-01 5.0408544664539284e-02 -8.1322757360841069e-01 1.7696636254862628e+00 1.1565786900102966e+00 
        </Neuron>
        <Neuron NSynapses="13">
          6.9526130669949737e-01 1.5199270045744333e+00 3.0829194972700985e-01 2.2453508489168406e+00 3.1386561604173552e-01 -4.2492238074833588e-01 -7.9586307003055456e-01 1.1473064521315484e+00 -7.5232604654610846e-01 1.6590743712927136e+00 2.2017610952961988e+00 1.5195945349139959e+00 1.0806848831261464e+00 
        </Neuron>
        <Neuron NSynapses="13">
          -1.5963368077999329e+00 2.3452646420442349e+00 -1.8319506457107022e+00 -2.1789699489338829e-01 -1.8488437082215505e+00 -2.7939543530369622e+00 8.1691955934075478e-01 5.2979703027530067e-01 -2.3407776868078054e+00 -3.5613170461305221e-01 -1.7284069038210319e+00 7.9531593977411918e-01 3.8361150043003427e+00 
        </Neuron>
        <Neuron NSynapses="13">
          5.1059984354772536e-01 1.2824730558659203e-01 -7.8605719109089178e-01 4.6287972671511426e-02 -2.8710589467622188e-01 -8.0971129906841199e-01 -2.0832900438042765e+00 4.6920084686610231e-01 4.8898256187901856e-01 7.1517144194802174e-01 3.4258255688797740e-01 -1.9159913479244646e+00 3.1812320411312962e+00 
        </Neuron>
        <Neuron NSynapses="13">
          1.7508327773241930e+00 1.3064100559610154e+00 1.3755282480253039e+00 1.8835310749897277e-01 1.3829325262742340e+00 2.5002057930257732e-01 -1.2408466800220352e+00 -3.9569514542609052e-01 1.0549504229727384e+00 -1.0651204531543101e+00 3.2751967841047125e-01 -1.7102886643001693e+00 -1.4348884796868659e+00 
        </Neuron>
        <Neuron NSynapses="13">
          -8.2099768169477882e-01 1.2977988510263994e+00 -1.2423565248973913e+00 -6.4695369547876180e-01 8.2949195298702705e-02 -1.0027132029308146e+00 -1.1576952685284174e+00 -1.0125445597617921e+00 -1.2588495040600518e+00 -9.9403760485743042e-01 -8.3613820006012307e-01 6.8688514183570260e-01 1.5187571364636721e+00 
        </Neuron>
        <Neuron NSynapses="13">
          3.5204879338402238e-02 5.5458814902217220e-02 -4.7055747517997781e-01 -9.3388454719998015e-01 -2.8216853070266477e-02 4.0523203519773782e-01 -2.0597080154026894e+00 -1.7049871394212568e-01 9.3185353355635459e-01 4.7046186462477330e-01 1.8173746997756085e-01 1.8745513338858224e+00 -3.5123796119175343e-01 
        </Neuron>
        <Neuron NSynapses="13">
          -1.1099984757391186e+00 3.9750362664220984e-01 -8.2607834228197852e-01 -1.1566141618193078e+00 -1.3552176540381730e-01 -1.7336480720480210e+00 1.3181270393371711e+00 2.2132520276693540e-01 -3.2112220141690268e-01 -7.2418561563994810e-01 1.0236267326836799e+00 -1.7158116620219772e+00 9.0021366076304954e-01 
        </Neuron>
        <Neuron NSynapses="13">
          1.2833205390790876e+00 -1.2683999242713073e+00 9.9695165263048779e-01 -2.1876998709018363e+00 7.2359458714237290e-01 2.4761108534410421e+00 8.9092937195736555e-01 -2.4566500381835437e+00 5.5709343913766707e-01 1.2329995397130098e+00 2.1149931041767420e+00 1.6065551543504816e-01 -7.2566824852143768e+00 
        </Neuron>
      </Layer>
      <Layer Index="1" NNeurons="14">
        <Neuron NSynapses="1">
          -1.8575173873164375e-01 
        </Neuron>
        <Neuron NSynapses="1">
          -2.1888853240748968e-01 
        </Neuron>
        <Neuron NSynapses="1">
          1.4944316655854162e-01 
        </Neuron>
        <Neuron NSynapses="1">
          1.0052703587889218e+00 
        </Neuron>
        <Neuron NSynapses="1">
          1.8612667780844439e-01 
        </Neuron>
        <Neuron NSynapses="1">
          -2.3356646649712587e-01 
        </Neuron>
        <Neuron NSynapses="1">
          -1.4385570276671360e-02 
        </Neuron>
        <Neuron NSynapses="1">
          -4.8808496178712563e-01 
        </Neuron>
        <Neuron NSynapses="1">
          3.8524465730931823e-01 
        </Neuron>
        <Neuron NSynapses="1">
          2.2959848075137429e-02 
        </Neuron>
        <Neuron NSynapses="1">
          -4.6252334310175353e-01 
        </Neuron>
        <Neuron NSynapses="1">
          -6.9862474204155922e-02 
        </Neuron>
        <Neuron NSynapses="1">
          5.0450876955363311e-01 
        </Neuron>
        <Neuron NSynapses="1">
          8.7242151651445210e-01 
        </Neuron>
      </Layer>
      <Layer Index="2" NNeurons="1">
        <Neuron NSynapses="0"/>
      </Layer>
    </Layout>
  </Weights>
</MethodSetup>
