<?xml version="1.0"?>
<MethodSetup Method="MLP::MLP_N3.pt30_eta1.81_conv0">
  <GeneralInfo>
    <Info name="TMVA Release" value="4.1.0 [262400]"/>
    <Info name="ROOT Release" value="5.28/00 [334848]"/>
    <Info name="Creator" value="jsaxon"/>
    <Info name="Date" value="Sat Jun 23 15:49:04 2012"/>
    <Info name="Host" value="Linux lxbuild148.cern.ch 2.6.18-194.26.1.el5 #1 SMP Wed Nov 10 09:45:46 CET 2010 x86_64 x86_64 x86_64 GNU/Linux"/>
    <Info name="Dir" value="/home/jsaxon/NeuralNetworks/nn12"/>
    <Info name="Training events" value="20000"/>
    <Info name="TrainingTime" value="235.733"/>
    <Info name="AnalysisType" value="Classification"/>
  </GeneralInfo>
  <Options>
    <Option name="NCycles" modified="Yes">2000</Option>
    <Option name="HiddenLayers" modified="Yes">N+3</Option>
    <Option name="NeuronType" modified="Yes">tanh</Option>
    <Option name="RandomSeed" modified="No">1</Option>
    <Option name="EstimatorType" modified="No">MSE</Option>
    <Option name="NeuronInputType" modified="No">sum</Option>
    <Option name="V" modified="No">False</Option>
    <Option name="VerbosityLevel" modified="No">Default</Option>
    <Option name="VarTransform" modified="Yes">N</Option>
    <Option name="H" modified="No">False</Option>
    <Option name="CreateMVAPdfs" modified="No">False</Option>
    <Option name="IgnoreNegWeightsInTraining" modified="No">False</Option>
    <Option name="TrainingMethod" modified="No">BP</Option>
    <Option name="LearningRate" modified="No">2.000000e-02</Option>
    <Option name="DecayRate" modified="No">1.000000e-02</Option>
    <Option name="TestRate" modified="Yes">5</Option>
    <Option name="EpochMonitoring" modified="No">False</Option>
    <Option name="Sampling" modified="No">1.000000e+00</Option>
    <Option name="SamplingEpoch" modified="No">1.000000e+00</Option>
    <Option name="SamplingImportance" modified="No">1.000000e+00</Option>
    <Option name="SamplingTraining" modified="No">True</Option>
    <Option name="SamplingTesting" modified="No">False</Option>
    <Option name="ResetStep" modified="No">50</Option>
    <Option name="Tau" modified="No">3.000000e+00</Option>
    <Option name="BPMode" modified="No">sequential</Option>
    <Option name="BatchSize" modified="No">-1</Option>
    <Option name="ConvergenceImprove" modified="No">1.000000e-30</Option>
    <Option name="ConvergenceTests" modified="Yes">20</Option>
    <Option name="UseRegulator" modified="Yes">False</Option>
    <Option name="UpdateLimit" modified="No">10</Option>
    <Option name="CalculateErrors" modified="No">False</Option>
  </Options>
  <Variables NVar="10">
    <Variable VarIndex="0" Expression="fside" Label="fside" Title="fside" Unit="" Internal="fside" Type="D" Min="-0.138028" Max="1.60407"/>
    <Variable VarIndex="1" Expression="w1" Label="w1" Title="w1" Unit="" Internal="w1" Type="D" Min="0.116543" Max="0.840452"/>
    <Variable VarIndex="2" Expression="wtot" Label="wtot" Title="wtot" Unit="" Internal="wtot" Type="D" Min="0.392924" Max="18.7404"/>
    <Variable VarIndex="3" Expression="deltae" Label="deltae" Title="deltae" Unit="" Internal="deltae" Type="D" Min="-12.06" Max="3607.98"/>
    <Variable VarIndex="4" Expression="eratio" Label="eratio" Title="eratio" Unit="" Internal="eratio" Type="D" Min="-3.63725e-05" Max="1"/>
    <Variable VarIndex="5" Expression="rphi" Label="rphi" Title="rphi" Unit="" Internal="rphi" Type="D" Min="0.423635" Max="1.08473"/>
    <Variable VarIndex="6" Expression="rhad" Label="rhad" Title="rhad" Unit="" Internal="rhad" Type="D" Min="-0.0498444" Max="0.0249966"/>
    <Variable VarIndex="7" Expression="reta" Label="reta" Title="reta" Unit="" Internal="reta" Type="D" Min="0.906018" Max="1.00168"/>
    <Variable VarIndex="8" Expression="weta2" Label="weta2" Title="weta2" Unit="" Internal="weta2" Type="D" Min="0.00758897" Max="0.0149895"/>
    <Variable VarIndex="9" Expression="f1" Label="f1" Title="f1" Unit="" Internal="f1" Type="D" Min="8.11266e-05" Max="0.484145"/>
  </Variables>
  <Spectators NSpec="4">
    <Spectator SpecIndex="0" Expression="pt" Label="pt" Title="P_{T} [GeV]" Unit="D" Internal="pt" Type="F" Min="20000.6" Max="29999.2"/>
    <Spectator SpecIndex="1" Expression="etas2" Label="etas2" Title="etas2" Unit="D" Internal="etas2" Type="F" Min="-1.80999" Max="1.80999"/>
    <Spectator SpecIndex="2" Expression="convFlag" Label="convFlag" Title="convFlag" Unit="i" Internal="convFlag" Type="F" Min="0" Max="10"/>
    <Spectator SpecIndex="3" Expression="tight" Label="tight" Title="Tight" Unit="i" Internal="tight" Type="F" Min="0" Max="1"/>
  </Spectators>
  <Transformations NTransformations="1">
    <Transform Name="Normalize" NVariables="10" NTargets="0">
      <Class ClassIndex="0">
        <Variables>
          <Variable VarIndex="0" Min="-1.3802839815616608e-01" Max="1.6040747165679932e+00"/>
          <Variable VarIndex="1" Min="1.1654270440340042e-01" Max="8.4045219421386719e-01"/>
          <Variable VarIndex="2" Min="3.9292389154434204e-01" Max="1.8740402221679688e+01"/>
          <Variable VarIndex="3" Min="-3.7707793712615967e-01" Max="1.8226215820312500e+03"/>
          <Variable VarIndex="4" Min="-3.6372537579154596e-05" Max="9.9629443883895874e-01"/>
          <Variable VarIndex="5" Min="6.1694198846817017e-01" Max="1.0044006109237671e+00"/>
          <Variable VarIndex="6" Min="-4.8900865018367767e-02" Max="2.4967765435576439e-02"/>
          <Variable VarIndex="7" Min="9.0605926513671875e-01" Max="1.0016837120056152e+00"/>
          <Variable VarIndex="8" Min="8.3582960069179535e-03" Max="1.4969215728342533e-02"/>
          <Variable VarIndex="9" Min="8.1126643635798246e-05" Max="4.7577846050262451e-01"/>
        </Variables>
        <Targets/>
      </Class>
      <Class ClassIndex="1">
        <Variables>
          <Variable VarIndex="0" Min="0.0000000000000000e+00" Max="1.2916872501373291e+00"/>
          <Variable VarIndex="1" Min="3.5502249002456665e-01" Max="8.1181335449218750e-01"/>
          <Variable VarIndex="2" Min="5.2826219797134399e-01" Max="1.7835767745971680e+01"/>
          <Variable VarIndex="3" Min="-1.2060043334960938e+01" Max="3.6079782714843750e+03"/>
          <Variable VarIndex="4" Min="5.2421701184357516e-06" Max="1.0000000000000000e+00"/>
          <Variable VarIndex="5" Min="4.2363452911376953e-01" Max="1.0847345590591431e+00"/>
          <Variable VarIndex="6" Min="-4.9844361841678619e-02" Max="2.4996582418680191e-02"/>
          <Variable VarIndex="7" Min="9.0601825714111328e-01" Max="9.9778205156326294e-01"/>
          <Variable VarIndex="8" Min="7.5889723375439644e-03" Max="1.4989534392952919e-02"/>
          <Variable VarIndex="9" Min="3.3247845713049173e-03" Max="4.8414468765258789e-01"/>
        </Variables>
        <Targets/>
      </Class>
      <Class ClassIndex="2">
        <Variables>
          <Variable VarIndex="0" Min="-1.3802839815616608e-01" Max="1.6040747165679932e+00"/>
          <Variable VarIndex="1" Min="1.1654270440340042e-01" Max="8.4045219421386719e-01"/>
          <Variable VarIndex="2" Min="3.9292389154434204e-01" Max="1.8740402221679688e+01"/>
          <Variable VarIndex="3" Min="-1.2060043334960938e+01" Max="3.6079782714843750e+03"/>
          <Variable VarIndex="4" Min="-3.6372537579154596e-05" Max="1.0000000000000000e+00"/>
          <Variable VarIndex="5" Min="4.2363452911376953e-01" Max="1.0847345590591431e+00"/>
          <Variable VarIndex="6" Min="-4.9844361841678619e-02" Max="2.4996582418680191e-02"/>
          <Variable VarIndex="7" Min="9.0601825714111328e-01" Max="1.0016837120056152e+00"/>
          <Variable VarIndex="8" Min="7.5889723375439644e-03" Max="1.4989534392952919e-02"/>
          <Variable VarIndex="9" Min="8.1126643635798246e-05" Max="4.8414468765258789e-01"/>
        </Variables>
        <Targets/>
      </Class>
    </Transform>
  </Transformations>
  <MVAPdfs/>
  <Weights>
    <Layout NLayers="3">
      <Layer Index="0" NNeurons="11">
        <Neuron NSynapses="13">
          2.7582059974754675e-01 5.1413461161832510e+00 9.2277886865445391e-01 2.1200853130135724e+00 -4.5479736020151273e+00 -4.2640066113775221e-01 -6.8953629409724027e-01 2.1245728320904256e+00 -2.1680597252073581e+00 -1.2413671273164828e+00 -1.5915901596283930e+00 -4.1402257679509002e-01 -2.4546326414696686e+00 
        </Neuron>
        <Neuron NSynapses="13">
          -1.0769835469052835e+00 -1.3320066973765667e+00 1.8043802159589333e+00 -8.4793670143148436e-01 1.5825180384417055e+00 4.0104300276555077e-01 1.2977160807416082e+00 -2.1103875426549297e+00 2.1359592894755747e-01 8.9918534165725894e-01 -3.4109211281519969e-01 -1.1795615664577674e+00 -1.6851449435478281e+00 
        </Neuron>
        <Neuron NSynapses="13">
          9.4594821136283913e-01 -8.5008983583699260e-01 -1.6900626025810701e+00 1.3038140469197101e-01 7.6638065722518411e-01 8.3026622014939344e-01 -2.5032915933733940e-01 5.8379741858898875e-02 9.1697019334064322e-02 -8.1888561742784624e-02 -1.4394283404035102e+00 1.7359848223519521e+00 -1.5960636623347648e+00 
        </Neuron>
        <Neuron NSynapses="13">
          5.7068324521935088e-01 6.4365402571847496e-01 6.2543006317460825e-01 1.5278525492136239e+00 1.3056660451161459e+00 -1.3462878268446123e+00 -1.4108316701661832e+00 -4.2944905662273980e-01 -7.2695317228905554e-01 1.5885407518995913e+00 2.4119687727509826e+00 1.5871291739472284e+00 2.4348488606214982e+00 
        </Neuron>
        <Neuron NSynapses="13">
          1.8889186501355434e-01 2.8961571962039017e+00 -1.8003214457864702e+00 -1.8251804454404805e-01 -2.4540292729894788e+00 -4.1490427750688417e+00 1.5305151877287633e+00 1.5841629632754803e+00 -1.7526895264507598e+00 -3.1343373464765062e-01 -9.3640697551485208e-01 7.1413820204761369e-01 3.3978146898332637e+00 
        </Neuron>
        <Neuron NSynapses="13">
          4.5073008884054050e-01 1.0098597422318545e+00 -8.6412114596576384e-01 3.1851383618378443e-01 -1.6398688540171842e+00 -6.3194761756712889e+00 -1.5592973168610031e+00 9.6239212564118692e-01 -3.8951709117406708e-01 3.5833809797671218e-01 -2.7255889894732088e-01 -1.9088639764292512e+00 9.1885156047061578e-01 
        </Neuron>
        <Neuron NSynapses="13">
          -4.2209053936900615e-01 4.4421835419914718e-01 3.7259004257232803e-01 1.7423804140641594e-01 2.6447681385084121e-01 5.2255187813142945e-01 -9.5335840222073898e-01 -7.5819006531312316e-01 1.6314776271266485e+00 -5.7285411731955205e-01 1.6381595422232442e-01 -1.7154296352703338e+00 -1.9662441316925264e-01 
        </Neuron>
        <Neuron NSynapses="13">
          4.6719619350491010e-01 5.7094569767886161e-01 -1.1699621441694952e+00 2.5333395748315224e-01 -5.6963515687684507e-01 -6.2382120368409832e-01 -1.6266271630849203e+00 -9.6938835047763372e-01 -1.5558152538645187e+00 -9.1155168114455232e-01 -9.4861436657838349e-01 6.9830454124830588e-01 1.5187399592595030e+00 
        </Neuron>
        <Neuron NSynapses="13">
          -2.3774969217585631e-01 4.3414543877037703e-01 -1.0090576448411153e+00 -6.6768003656348296e-01 7.7187581436353486e-02 -6.0626717967388422e-01 -1.6909625053546062e+00 -4.7869361201885530e-01 9.1342635558266394e-01 1.9564761637493450e-01 -1.1680057138000135e+00 1.8262192213346706e+00 -4.7277543484796353e-01 
        </Neuron>
        <Neuron NSynapses="13">
          -2.4669388271597672e+00 -3.1875567314440670e-03 -7.1446656049497437e-01 -1.6655261566265842e+00 -5.2724791730889697e-01 -9.4869022285830551e-01 1.9240013175647461e+00 2.7718978526758525e-01 5.5392162409674428e-02 -2.7609833313204368e-01 -3.0785874452881484e-01 -1.7977488317816637e+00 -2.2588444588146372e-01 
        </Neuron>
        <Neuron NSynapses="13">
          -7.6499770538299361e-01 -8.5267378258633397e-01 1.0638358379326511e+00 -2.3733637486090999e+00 1.8441502212279168e+00 6.3548801436825340e+00 1.5894051055806608e+00 -1.2369698553192736e+00 4.0090606814598495e-01 1.0029503674744407e+00 2.7322327932988544e+00 1.5566685465552044e-01 -3.1774946079086401e+00 
        </Neuron>
      </Layer>
      <Layer Index="1" NNeurons="14">
        <Neuron NSynapses="1">
          4.6703736024449716e-01 
        </Neuron>
        <Neuron NSynapses="1">
          -6.1162334309023769e-01 
        </Neuron>
        <Neuron NSynapses="1">
          3.9569083714175912e-01 
        </Neuron>
        <Neuron NSynapses="1">
          5.4421156300856988e-01 
        </Neuron>
        <Neuron NSynapses="1">
          -5.2516606020277501e-01 
        </Neuron>
        <Neuron NSynapses="1">
          -4.0173616927907430e-01 
        </Neuron>
        <Neuron NSynapses="1">
          1.2266736461315797e-02 
        </Neuron>
        <Neuron NSynapses="1">
          -2.9237822187938955e-01 
        </Neuron>
        <Neuron NSynapses="1">
          2.6679597050617071e-01 
        </Neuron>
        <Neuron NSynapses="1">
          1.1204522709259966e-01 
        </Neuron>
        <Neuron NSynapses="1">
          -8.3424464587687563e-01 
        </Neuron>
        <Neuron NSynapses="1">
          -1.8606177375985831e-02 
        </Neuron>
        <Neuron NSynapses="1">
          3.2537440876496043e-01 
        </Neuron>
        <Neuron NSynapses="1">
          1.4009974340600151e+00 
        </Neuron>
      </Layer>
      <Layer Index="2" NNeurons="1">
        <Neuron NSynapses="0"/>
      </Layer>
    </Layout>
  </Weights>
</MethodSetup>
