<?xml version="1.0"?>
<MethodSetup Method="MLP::MLP_N3.pt80_eta1.37_conv0">
  <GeneralInfo>
    <Info name="TMVA Release" value="4.1.0 [262400]"/>
    <Info name="ROOT Release" value="5.28/00 [334848]"/>
    <Info name="Creator" value="jsaxon"/>
    <Info name="Date" value="Sat Jun 23 15:54:51 2012"/>
    <Info name="Host" value="Linux lxbuild148.cern.ch 2.6.18-194.26.1.el5 #1 SMP Wed Nov 10 09:45:46 CET 2010 x86_64 x86_64 x86_64 GNU/Linux"/>
    <Info name="Dir" value="/home/jsaxon/NeuralNetworks/nn12"/>
    <Info name="Training events" value="17844"/>
    <Info name="TrainingTime" value="307.224"/>
    <Info name="AnalysisType" value="Classification"/>
  </GeneralInfo>
  <Options>
    <Option name="NCycles" modified="Yes">2000</Option>
    <Option name="HiddenLayers" modified="Yes">N+3</Option>
    <Option name="NeuronType" modified="Yes">tanh</Option>
    <Option name="RandomSeed" modified="No">1</Option>
    <Option name="EstimatorType" modified="No">MSE</Option>
    <Option name="NeuronInputType" modified="No">sum</Option>
    <Option name="V" modified="No">False</Option>
    <Option name="VerbosityLevel" modified="No">Default</Option>
    <Option name="VarTransform" modified="Yes">N</Option>
    <Option name="H" modified="No">False</Option>
    <Option name="CreateMVAPdfs" modified="No">False</Option>
    <Option name="IgnoreNegWeightsInTraining" modified="No">False</Option>
    <Option name="TrainingMethod" modified="No">BP</Option>
    <Option name="LearningRate" modified="No">2.000000e-02</Option>
    <Option name="DecayRate" modified="No">1.000000e-02</Option>
    <Option name="TestRate" modified="Yes">5</Option>
    <Option name="EpochMonitoring" modified="No">False</Option>
    <Option name="Sampling" modified="No">1.000000e+00</Option>
    <Option name="SamplingEpoch" modified="No">1.000000e+00</Option>
    <Option name="SamplingImportance" modified="No">1.000000e+00</Option>
    <Option name="SamplingTraining" modified="No">True</Option>
    <Option name="SamplingTesting" modified="No">False</Option>
    <Option name="ResetStep" modified="No">50</Option>
    <Option name="Tau" modified="No">3.000000e+00</Option>
    <Option name="BPMode" modified="No">sequential</Option>
    <Option name="BatchSize" modified="No">-1</Option>
    <Option name="ConvergenceImprove" modified="No">1.000000e-30</Option>
    <Option name="ConvergenceTests" modified="Yes">20</Option>
    <Option name="UseRegulator" modified="Yes">False</Option>
    <Option name="UpdateLimit" modified="No">10</Option>
    <Option name="CalculateErrors" modified="No">False</Option>
  </Options>
  <Variables NVar="10">
    <Variable VarIndex="0" Expression="fside" Label="fside" Title="fside" Unit="" Internal="fside" Type="D" Min="0" Max="1.46756"/>
    <Variable VarIndex="1" Expression="w1" Label="w1" Title="w1" Unit="" Internal="w1" Type="D" Min="0.376344" Max="0.820744"/>
    <Variable VarIndex="2" Expression="wtot" Label="wtot" Title="wtot" Unit="" Internal="wtot" Type="D" Min="0.953034" Max="11.8296"/>
    <Variable VarIndex="3" Expression="deltae" Label="deltae" Title="deltae" Unit="" Internal="deltae" Type="D" Min="-1.1052" Max="4545"/>
    <Variable VarIndex="4" Expression="eratio" Label="eratio" Title="eratio" Unit="" Internal="eratio" Type="D" Min="-0.00086553" Max="1"/>
    <Variable VarIndex="5" Expression="rphi" Label="rphi" Title="rphi" Unit="" Internal="rphi" Type="D" Min="0.401826" Max="0.99129"/>
    <Variable VarIndex="6" Expression="rhad" Label="rhad" Title="rhad" Unit="" Internal="rhad" Type="D" Min="-0.0258419" Max="0.00799543"/>
    <Variable VarIndex="7" Expression="reta" Label="reta" Title="reta" Unit="" Internal="reta" Type="D" Min="0.916004" Max="1.00171"/>
    <Variable VarIndex="8" Expression="weta2" Label="weta2" Title="weta2" Unit="" Internal="weta2" Type="D" Min="0.00743215" Max="0.0129995"/>
    <Variable VarIndex="9" Expression="f1" Label="f1" Title="f1" Unit="" Internal="f1" Type="D" Min="0.00396183" Max="0.346584"/>
  </Variables>
  <Spectators NSpec="4">
    <Spectator SpecIndex="0" Expression="pt" Label="pt" Title="P_{T} [GeV]" Unit="D" Internal="pt" Type="F" Min="60001.2" Max="79999.3"/>
    <Spectator SpecIndex="1" Expression="etas2" Label="etas2" Title="etas2" Unit="D" Internal="etas2" Type="F" Min="-1.36999" Max="1.37"/>
    <Spectator SpecIndex="2" Expression="convFlag" Label="convFlag" Title="convFlag" Unit="i" Internal="convFlag" Type="F" Min="0" Max="10"/>
    <Spectator SpecIndex="3" Expression="tight" Label="tight" Title="Tight" Unit="i" Internal="tight" Type="F" Min="0" Max="1"/>
  </Spectators>
  <Transformations NTransformations="1">
    <Transform Name="Normalize" NVariables="10" NTargets="0">
      <Class ClassIndex="0">
        <Variables>
          <Variable VarIndex="0" Min="1.4967073500156403e-01" Max="1.3972522020339966e+00"/>
          <Variable VarIndex="1" Min="3.7634444236755371e-01" Max="8.2074379920959473e-01"/>
          <Variable VarIndex="2" Min="9.5303356647491455e-01" Max="1.1829570770263672e+01"/>
          <Variable VarIndex="3" Min="-1.1052000522613525e+00" Max="2.0078905029296875e+03"/>
          <Variable VarIndex="4" Min="-8.6552987340837717e-04" Max="9.9911516904830933e-01"/>
          <Variable VarIndex="5" Min="7.0562493801116943e-01" Max="9.8195940256118774e-01"/>
          <Variable VarIndex="6" Min="-2.5819305330514908e-02" Max="7.9634441062808037e-03"/>
          <Variable VarIndex="7" Min="9.1601520776748657e-01" Max="1.0017099380493164e+00"/>
          <Variable VarIndex="8" Min="7.9878373071551323e-03" Max="1.2813169509172440e-02"/>
          <Variable VarIndex="9" Min="4.4584204442799091e-03" Max="3.4658405184745789e-01"/>
        </Variables>
        <Targets/>
      </Class>
      <Class ClassIndex="1">
        <Variables>
          <Variable VarIndex="0" Min="0.0000000000000000e+00" Max="1.4675556421279907e+00"/>
          <Variable VarIndex="1" Min="4.8955047130584717e-01" Max="8.0986392498016357e-01"/>
          <Variable VarIndex="2" Min="1.5779783725738525e+00" Max="1.1608750343322754e+01"/>
          <Variable VarIndex="3" Min="0.0000000000000000e+00" Max="4.5449951171875000e+03"/>
          <Variable VarIndex="4" Min="1.1264644126640633e-04" Max="1.0000000000000000e+00"/>
          <Variable VarIndex="5" Min="4.0182563662528992e-01" Max="9.9129021167755127e-01"/>
          <Variable VarIndex="6" Min="-2.5841888040304184e-02" Max="7.9954257234930992e-03"/>
          <Variable VarIndex="7" Min="9.1600441932678223e-01" Max="9.8119294643402100e-01"/>
          <Variable VarIndex="8" Min="7.4321492575109005e-03" Max="1.2999476864933968e-02"/>
          <Variable VarIndex="9" Min="3.9618271403014660e-03" Max="3.4335201978683472e-01"/>
        </Variables>
        <Targets/>
      </Class>
      <Class ClassIndex="2">
        <Variables>
          <Variable VarIndex="0" Min="0.0000000000000000e+00" Max="1.4675556421279907e+00"/>
          <Variable VarIndex="1" Min="3.7634444236755371e-01" Max="8.2074379920959473e-01"/>
          <Variable VarIndex="2" Min="9.5303356647491455e-01" Max="1.1829570770263672e+01"/>
          <Variable VarIndex="3" Min="-1.1052000522613525e+00" Max="4.5449951171875000e+03"/>
          <Variable VarIndex="4" Min="-8.6552987340837717e-04" Max="1.0000000000000000e+00"/>
          <Variable VarIndex="5" Min="4.0182563662528992e-01" Max="9.9129021167755127e-01"/>
          <Variable VarIndex="6" Min="-2.5841888040304184e-02" Max="7.9954257234930992e-03"/>
          <Variable VarIndex="7" Min="9.1600441932678223e-01" Max="1.0017099380493164e+00"/>
          <Variable VarIndex="8" Min="7.4321492575109005e-03" Max="1.2999476864933968e-02"/>
          <Variable VarIndex="9" Min="3.9618271403014660e-03" Max="3.4658405184745789e-01"/>
        </Variables>
        <Targets/>
      </Class>
    </Transform>
  </Transformations>
  <MVAPdfs/>
  <Weights>
    <Layout NLayers="3">
      <Layer Index="0" NNeurons="11">
        <Neuron NSynapses="13">
          -5.3536419328235707e-01 2.3599396534999015e+00 1.3362512983371813e+00 1.3864517760375858e+00 -4.0117993162586760e+00 2.1202796734796503e+00 -5.8943405167052054e-01 3.0438023199305793e+00 -2.3330314200224405e+00 -7.0552848521670652e-01 -3.6912699922132497e-01 -3.6302278097194995e-01 -1.0768325902478271e+00 
        </Neuron>
        <Neuron NSynapses="13">
          -4.0559113386584356e-02 -1.7885277238459640e+00 2.7481709622041300e-01 -6.3944869869195631e-01 2.0580050150942615e+00 1.5260872148209275e+00 1.3233743085316527e+00 -1.3714277200051794e+00 -7.4965492386110322e-01 1.9187341504771436e+00 -1.5560656446900450e-01 -1.3076174540436392e+00 -1.1084872585859538e+00 
        </Neuron>
        <Neuron NSynapses="13">
          9.9004729630744470e-01 -1.6090474575752864e+00 -1.8762053244241281e+00 3.9354569628518010e-01 -4.1925269753791426e-02 -2.1002848525008857e+00 -1.1131500218704860e-01 -1.4170055986597338e-01 8.7803626132846868e-01 -8.3912840404383640e-02 -6.5870067804659516e-01 1.9608219755989265e+00 -7.0756223050205747e-01 
        </Neuron>
        <Neuron NSynapses="13">
          2.5648056827489668e-01 1.1968788910214705e+00 3.8185604589457806e-01 2.3131743667466678e+00 1.5143293956859605e+00 3.1859857308813383e-01 -1.3659513623279185e+00 -4.8287402044317435e-01 2.2040742493248452e-01 9.7786391372190440e-01 7.9777905820060024e-01 1.4046942691263955e+00 6.8760308217578070e-01 
        </Neuron>
        <Neuron NSynapses="13">
          -9.9654576119244409e-01 1.9169146699036654e+00 -1.2676103504601000e+00 9.1871119354448971e-02 -2.3206215948690452e+00 -1.6382271043656720e+00 1.5098531620646762e+00 1.5113067711645507e+00 -2.1427593408574328e+00 -4.3648345247684828e-01 3.3414236665596210e-02 8.0471998660298327e-01 2.3079038559189993e+00 
        </Neuron>
        <Neuron NSynapses="13">
          2.5668038996107950e-03 5.4014367258524348e-02 -6.7796268283551764e-01 1.0232559101137823e-01 -1.4262620394929455e+00 -6.3438343275454141e+00 -1.7475459229121275e+00 9.9793419304077124e-01 1.4976150112891706e+00 2.8540435380080470e-01 -4.3243150579499595e-01 -1.7689528926736366e+00 -1.3310073231204989e+00 
        </Neuron>
        <Neuron NSynapses="13">
          1.5945907482342550e+00 1.2889838721958324e+00 2.0581534600138971e+00 8.2896858388268012e-03 1.4042428740663682e+00 9.6149163876248056e-01 -1.1512657613712511e+00 -5.9407807097483700e-01 1.3413239536952610e+00 -1.0878392478168692e+00 -6.5368156985007128e-02 -1.7222803283577930e+00 -2.7411471218434580e-01 
        </Neuron>
        <Neuron NSynapses="13">
          -4.9254934179440374e-01 1.2925121011480656e+00 -1.3377961011777117e+00 -1.7365537267501518e-01 -1.7403651584437288e-01 -2.5660359952889467e+00 -1.3515760322446619e+00 -5.8994145972027412e-01 2.9212168985925108e-01 -1.4042828988464326e+00 -1.7157195115906201e+00 7.3239914055549071e-01 1.8475119722797750e+00 
        </Neuron>
        <Neuron NSynapses="13">
          -6.7263983654329462e-01 1.9483956146520895e-01 2.7206844867194191e-01 -8.5112968023459878e-01 5.6298638801732948e-01 2.0195242765510182e+00 -1.8941616219221271e+00 -2.8940468371777911e-01 6.8351436570602653e-01 1.2059307932632257e+00 3.2208381105905631e-01 1.5699021357081466e+00 8.8684405462217186e-01 
        </Neuron>
        <Neuron NSynapses="13">
          -2.3292520512394577e-01 4.0861287954351544e-01 -4.4760185504553313e-01 -1.2895687355811798e+00 -4.5218795721853289e-01 -1.8031219215161876e+00 1.7575002541715519e+00 1.3703045465738170e-01 8.3898141109813562e-01 -1.2906180189616254e+00 2.1754953603887488e+00 -1.9374916096725814e+00 1.1984968935402807e+00 
        </Neuron>
        <Neuron NSynapses="13">
          1.0057342559828242e+00 -1.3583465173694378e+00 4.3088843497063190e-01 -2.3441731724767263e+00 1.0301011869004266e+00 5.7401872648896246e+00 1.3298573964414420e+00 -1.0695438610303152e+00 1.6880736593479943e-02 1.5377637769152295e+00 3.3668081536679910e+00 8.2218643062239610e-02 -1.3843291364780284e+00 
        </Neuron>
      </Layer>
      <Layer Index="1" NNeurons="14">
        <Neuron NSynapses="1">
          7.4068663683922120e-02 
        </Neuron>
        <Neuron NSynapses="1">
          -2.0735795467895857e-01 
        </Neuron>
        <Neuron NSynapses="1">
          3.8550718023522756e-01 
        </Neuron>
        <Neuron NSynapses="1">
          7.4640297618053364e-01 
        </Neuron>
        <Neuron NSynapses="1">
          -4.5812172714310267e-01 
        </Neuron>
        <Neuron NSynapses="1">
          -5.7900920642388154e-01 
        </Neuron>
        <Neuron NSynapses="1">
          1.1624573433511433e-02 
        </Neuron>
        <Neuron NSynapses="1">
          -4.4223551700917457e-01 
        </Neuron>
        <Neuron NSynapses="1">
          4.7995008822889033e-02 
        </Neuron>
        <Neuron NSynapses="1">
          2.2081144063624489e-01 
        </Neuron>
        <Neuron NSynapses="1">
          -5.5304870174850196e-01 
        </Neuron>
        <Neuron NSynapses="1">
          -1.8013352501313670e-01 
        </Neuron>
        <Neuron NSynapses="1">
          1.9476761797196068e-01 
        </Neuron>
        <Neuron NSynapses="1">
          1.0116870210691677e+00 
        </Neuron>
      </Layer>
      <Layer Index="2" NNeurons="1">
        <Neuron NSynapses="0"/>
      </Layer>
    </Layout>
  </Weights>
</MethodSetup>
