<?xml version="1.0"?>
<MethodSetup Method="MLP::MLP_N3.pt1000_eta2.37_conv0">
  <GeneralInfo>
    <Info name="TMVA Release" value="4.1.0 [262400]"/>
    <Info name="ROOT Release" value="5.28/00 [334848]"/>
    <Info name="Creator" value="jsaxon"/>
    <Info name="Date" value="Sat Jun 23 16:07:59 2012"/>
    <Info name="Host" value="Linux lxbuild148.cern.ch 2.6.18-194.26.1.el5 #1 SMP Wed Nov 10 09:45:46 CET 2010 x86_64 x86_64 x86_64 GNU/Linux"/>
    <Info name="Dir" value="/home/jsaxon/NeuralNetworks/nn12"/>
    <Info name="Training events" value="20000"/>
    <Info name="TrainingTime" value="219.441"/>
    <Info name="AnalysisType" value="Classification"/>
  </GeneralInfo>
  <Options>
    <Option name="NCycles" modified="Yes">2000</Option>
    <Option name="HiddenLayers" modified="Yes">N+3</Option>
    <Option name="NeuronType" modified="Yes">tanh</Option>
    <Option name="RandomSeed" modified="No">1</Option>
    <Option name="EstimatorType" modified="No">MSE</Option>
    <Option name="NeuronInputType" modified="No">sum</Option>
    <Option name="V" modified="No">False</Option>
    <Option name="VerbosityLevel" modified="No">Default</Option>
    <Option name="VarTransform" modified="Yes">N</Option>
    <Option name="H" modified="No">False</Option>
    <Option name="CreateMVAPdfs" modified="No">False</Option>
    <Option name="IgnoreNegWeightsInTraining" modified="No">False</Option>
    <Option name="TrainingMethod" modified="No">BP</Option>
    <Option name="LearningRate" modified="No">2.000000e-02</Option>
    <Option name="DecayRate" modified="No">1.000000e-02</Option>
    <Option name="TestRate" modified="Yes">5</Option>
    <Option name="EpochMonitoring" modified="No">False</Option>
    <Option name="Sampling" modified="No">1.000000e+00</Option>
    <Option name="SamplingEpoch" modified="No">1.000000e+00</Option>
    <Option name="SamplingImportance" modified="No">1.000000e+00</Option>
    <Option name="SamplingTraining" modified="No">True</Option>
    <Option name="SamplingTesting" modified="No">False</Option>
    <Option name="ResetStep" modified="No">50</Option>
    <Option name="Tau" modified="No">3.000000e+00</Option>
    <Option name="BPMode" modified="No">sequential</Option>
    <Option name="BatchSize" modified="No">-1</Option>
    <Option name="ConvergenceImprove" modified="No">1.000000e-30</Option>
    <Option name="ConvergenceTests" modified="Yes">20</Option>
    <Option name="UseRegulator" modified="Yes">False</Option>
    <Option name="UpdateLimit" modified="No">10</Option>
    <Option name="CalculateErrors" modified="No">False</Option>
  </Options>
  <Variables NVar="10">
    <Variable VarIndex="0" Expression="fside" Label="fside" Title="fside" Unit="" Internal="fside" Type="D" Min="-0.00167087" Max="1.93929"/>
    <Variable VarIndex="1" Expression="w1" Label="w1" Title="w1" Unit="" Internal="w1" Type="D" Min="0.292942" Max="0.835303"/>
    <Variable VarIndex="2" Expression="wtot" Label="wtot" Title="wtot" Unit="" Internal="wtot" Type="D" Min="0.247908" Max="9.80404"/>
    <Variable VarIndex="3" Expression="deltae" Label="deltae" Title="deltae" Unit="" Internal="deltae" Type="D" Min="-5177.31" Max="37078"/>
    <Variable VarIndex="4" Expression="eratio" Label="eratio" Title="eratio" Unit="" Internal="eratio" Type="D" Min="-0.00117091" Max="1"/>
    <Variable VarIndex="5" Expression="rphi" Label="rphi" Title="rphi" Unit="" Internal="rphi" Type="D" Min="0.548006" Max="0.987261"/>
    <Variable VarIndex="6" Expression="rhad" Label="rhad" Title="rhad" Unit="" Internal="rhad" Type="D" Min="-0.0157449" Max="0.0139998"/>
    <Variable VarIndex="7" Expression="reta" Label="reta" Title="reta" Unit="" Internal="reta" Type="D" Min="0.908001" Max="0.965643"/>
    <Variable VarIndex="8" Expression="weta2" Label="weta2" Title="weta2" Unit="" Internal="weta2" Type="D" Min="0.00973681" Max="0.0129988"/>
    <Variable VarIndex="9" Expression="f1" Label="f1" Title="f1" Unit="" Internal="f1" Type="D" Min="9.42293e-05" Max="0.462714"/>
  </Variables>
  <Spectators NSpec="4">
    <Spectator SpecIndex="0" Expression="pt" Label="pt" Title="P_{T} [GeV]" Unit="D" Internal="pt" Type="F" Min="80000.8" Max="465657"/>
    <Spectator SpecIndex="1" Expression="etas2" Label="etas2" Title="etas2" Unit="D" Internal="etas2" Type="F" Min="-2.36999" Max="2.36996"/>
    <Spectator SpecIndex="2" Expression="convFlag" Label="convFlag" Title="convFlag" Unit="i" Internal="convFlag" Type="F" Min="0" Max="10"/>
    <Spectator SpecIndex="3" Expression="tight" Label="tight" Title="Tight" Unit="i" Internal="tight" Type="F" Min="0" Max="1"/>
  </Spectators>
  <Transformations NTransformations="1">
    <Transform Name="Normalize" NVariables="10" NTargets="0">
      <Class ClassIndex="0">
        <Variables>
          <Variable VarIndex="0" Min="2.8646117076277733e-02" Max="1.9392946958541870e+00"/>
          <Variable VarIndex="1" Min="2.9294207692146301e-01" Max="8.3530259132385254e-01"/>
          <Variable VarIndex="2" Min="2.4790833890438080e-01" Max="9.3763637542724609e+00"/>
          <Variable VarIndex="3" Min="-2.0274682617187500e+02" Max="2.1486236328125000e+04"/>
          <Variable VarIndex="4" Min="-1.1709081009030342e-03" Max="9.9910771846771240e-01"/>
          <Variable VarIndex="5" Min="7.0516777038574219e-01" Max="9.7832483053207397e-01"/>
          <Variable VarIndex="6" Min="-1.5744894742965698e-02" Max="1.3960193842649460e-02"/>
          <Variable VarIndex="7" Min="9.1164970397949219e-01" Max="9.6004700660705566e-01"/>
          <Variable VarIndex="8" Min="9.7368080168962479e-03" Max="1.2924595735967159e-02"/>
          <Variable VarIndex="9" Min="9.4229311798699200e-05" Max="4.0712493658065796e-01"/>
        </Variables>
        <Targets/>
      </Class>
      <Class ClassIndex="1">
        <Variables>
          <Variable VarIndex="0" Min="-1.6708744224160910e-03" Max="1.4164263010025024e+00"/>
          <Variable VarIndex="1" Min="3.6284899711608887e-01" Max="8.0991959571838379e-01"/>
          <Variable VarIndex="2" Min="4.1654330492019653e-01" Max="9.8040370941162109e+00"/>
          <Variable VarIndex="3" Min="-5.1773076171875000e+03" Max="3.7078046875000000e+04"/>
          <Variable VarIndex="4" Min="1.6032746061682701e-03" Max="1.0000000000000000e+00"/>
          <Variable VarIndex="5" Min="5.4800587892532349e-01" Max="9.8726147413253784e-01"/>
          <Variable VarIndex="6" Min="-1.0942000895738602e-02" Max="1.3999824412167072e-02"/>
          <Variable VarIndex="7" Min="9.0800112485885620e-01" Max="9.6564257144927979e-01"/>
          <Variable VarIndex="8" Min="9.7393011674284935e-03" Max="1.2998763471841812e-02"/>
          <Variable VarIndex="9" Min="1.6766717890277505e-03" Max="4.6271425485610962e-01"/>
        </Variables>
        <Targets/>
      </Class>
      <Class ClassIndex="2">
        <Variables>
          <Variable VarIndex="0" Min="-1.6708744224160910e-03" Max="1.9392946958541870e+00"/>
          <Variable VarIndex="1" Min="2.9294207692146301e-01" Max="8.3530259132385254e-01"/>
          <Variable VarIndex="2" Min="2.4790833890438080e-01" Max="9.8040370941162109e+00"/>
          <Variable VarIndex="3" Min="-5.1773076171875000e+03" Max="3.7078046875000000e+04"/>
          <Variable VarIndex="4" Min="-1.1709081009030342e-03" Max="1.0000000000000000e+00"/>
          <Variable VarIndex="5" Min="5.4800587892532349e-01" Max="9.8726147413253784e-01"/>
          <Variable VarIndex="6" Min="-1.5744894742965698e-02" Max="1.3999824412167072e-02"/>
          <Variable VarIndex="7" Min="9.0800112485885620e-01" Max="9.6564257144927979e-01"/>
          <Variable VarIndex="8" Min="9.7368080168962479e-03" Max="1.2998763471841812e-02"/>
          <Variable VarIndex="9" Min="9.4229311798699200e-05" Max="4.6271425485610962e-01"/>
        </Variables>
        <Targets/>
      </Class>
    </Transform>
  </Transformations>
  <MVAPdfs/>
  <Weights>
    <Layout NLayers="3">
      <Layer Index="0" NNeurons="11">
        <Neuron NSynapses="13">
          1.5189517411015343e+00 1.3386860110689534e+00 6.5943985615386314e-01 1.8955442523883934e+00 -2.4404452179570382e+00 -9.3645306067475786e-01 -1.0335380408701251e+00 1.3795892890229582e+00 -8.8813070528540283e-01 -1.3612694681767825e+00 -1.7819646515327527e+00 -7.6553304537608835e-01 -3.7206115852278745e+00 
        </Neuron>
        <Neuron NSynapses="13">
          2.6505711121793146e-01 4.9898750308657347e-01 8.7481790917182556e-01 -5.8127696898386472e-01 2.8193045622525070e+00 4.0970438144983785e-04 1.0835952738014520e+00 -1.9252093164237585e+00 1.9806173593374470e+00 6.0441217816501458e-01 -9.0851218188204430e-01 -1.3578047878856510e+00 -3.0359531461271723e+00 
        </Neuron>
        <Neuron NSynapses="13">
          9.9004704667385524e-01 5.5471561984440998e-01 -2.2076957543773057e+00 3.7281754177529514e-01 2.5673023662251193e-01 1.4315832926820002e+00 -4.7559046864039056e-01 -2.6402008284853079e-01 8.7788839006596908e-01 -5.0589213332910776e-01 -9.7166956468787613e-01 1.2033647471252389e+00 -8.7204113958620266e-01 
        </Neuron>
        <Neuron NSynapses="13">
          4.8976745767663749e-01 -6.6631552304598984e-01 6.6590548559787999e-01 1.6851868323788035e+00 6.6997757539934977e-01 -2.7434408567133156e-01 -1.6634977374240791e+00 4.3585084816883107e-01 -5.6273459323104258e-01 1.1218421596056904e+00 4.0855920902070797e-01 1.1054092243809144e+00 2.6302575743152699e+00 
        </Neuron>
        <Neuron NSynapses="13">
          -1.0607816109405079e-01 1.6704650993996182e+00 -1.7255806339768878e+00 2.9286361483594525e-01 -1.6212086956904623e+00 -1.7848931326819721e+00 1.5432997997901283e+00 1.3076817337916360e+00 -1.8107840615215007e+00 7.3939610442485859e-01 -1.8407058314836309e+00 1.8513645376796413e+00 3.4459368443493421e+00 
        </Neuron>
        <Neuron NSynapses="13">
          -9.4575974734952817e-01 4.9632232175910118e-01 -8.0593631183019165e-01 1.2401071686428992e-01 -1.6454281500234804e+00 -2.1888100323601583e+00 -1.2554105998955274e+00 8.6117529319127561e-01 1.2706940798760189e+00 9.1300701691634623e-01 1.2915793693157522e+00 -1.9936413554320767e+00 8.5059653502502530e-01 
        </Neuron>
        <Neuron NSynapses="13">
          -5.5459728035843670e-01 1.6756512562018519e-01 1.8651659826953382e+00 1.2883994879151525e-01 1.0619203512502067e+00 6.4038950937421490e-01 -1.1053867370112678e+00 -8.2750975505642332e-01 9.1510564500082980e-01 -1.1704008830608186e+00 -1.0546320582913764e+00 -8.0257824467934669e-01 -2.0345092282287793e+00 
        </Neuron>
        <Neuron NSynapses="13">
          1.1975831127391161e+00 3.5212870715407978e+00 -1.0429827187465479e+00 8.2062458399025845e-02 9.6127504098453320e-01 -4.3877116886754370e+00 -1.3032794921072393e+00 -8.9405417973753143e-01 -1.8339455593657887e+00 -1.5950198813827430e+00 -3.5097613649162693e+00 1.4910654767145526e+00 1.0190986663999679e+00 
        </Neuron>
        <Neuron NSynapses="13">
          -7.1861364856064014e-01 3.9585819848701735e+00 -1.2690735880455239e+00 -9.5819273587962561e-01 6.8625166914938984e-01 -3.6963985683256086e+00 -1.6601893377674488e+00 -4.6198029991201101e-01 3.7970021563858296e+00 2.6475471879034712e-01 -4.8169310407501760e+00 1.8344363985496972e+00 -1.1044260962051042e+00 
        </Neuron>
        <Neuron NSynapses="13">
          -2.4878199231380029e+00 -3.9625277072435044e-01 -6.0779044251332304e-01 -1.4119852568933242e+00 8.0146324917395970e-02 7.0281952927662250e-01 1.7022424550674735e+00 -1.7298513645971283e-01 -1.9591816822237251e+00 -6.2316276246224545e-01 6.8498494666314846e-01 -9.7528311898821096e-01 8.7563313031205481e-01 
        </Neuron>
        <Neuron NSynapses="13">
          -3.2153131235161314e-01 -1.9560268635162352e+00 1.0410171012203693e+00 -2.1862407295828832e+00 1.5221723602123387e+00 3.4216812328663901e+00 2.0503316705446104e+00 -1.2067952541664464e+00 3.6877235813046749e-01 2.0880871107651768e+00 1.0525759588161969e+00 6.9407122119415443e-01 -5.2471834479494506e+00 
        </Neuron>
      </Layer>
      <Layer Index="1" NNeurons="14">
        <Neuron NSynapses="1">
          4.6449430654074580e-01 
        </Neuron>
        <Neuron NSynapses="1">
          -1.0008132173728594e+00 
        </Neuron>
        <Neuron NSynapses="1">
          -1.3576309664123076e-01 
        </Neuron>
        <Neuron NSynapses="1">
          1.0654322118045005e+00 
        </Neuron>
        <Neuron NSynapses="1">
          -2.7547335332790118e-01 
        </Neuron>
        <Neuron NSynapses="1">
          -4.1803518935922079e-01 
        </Neuron>
        <Neuron NSynapses="1">
          5.9681292902980666e-02 
        </Neuron>
        <Neuron NSynapses="1">
          -4.9540032230947095e-01 
        </Neuron>
        <Neuron NSynapses="1">
          3.0686293538292320e-01 
        </Neuron>
        <Neuron NSynapses="1">
          8.3629775133928386e-01 
        </Neuron>
        <Neuron NSynapses="1">
          -5.9420040588701295e-01 
        </Neuron>
        <Neuron NSynapses="1">
          -1.4470890397618630e-01 
        </Neuron>
        <Neuron NSynapses="1">
          4.4396503265230891e-01 
        </Neuron>
        <Neuron NSynapses="1">
          5.6619205346120294e-01 
        </Neuron>
      </Layer>
      <Layer Index="2" NNeurons="1">
        <Neuron NSynapses="0"/>
      </Layer>
    </Layout>
  </Weights>
</MethodSetup>
