<?xml version="1.0"?>
<MethodSetup Method="MLP::MLP_N3.pt30_eta0.60_conv2">
  <GeneralInfo>
    <Info name="TMVA Release" value="4.1.0 [262400]"/>
    <Info name="ROOT Release" value="5.28/00 [334848]"/>
    <Info name="Creator" value="jsaxon"/>
    <Info name="Date" value="Sat Jun 23 15:37:07 2012"/>
    <Info name="Host" value="Linux lxbuild148.cern.ch 2.6.18-194.26.1.el5 #1 SMP Wed Nov 10 09:45:46 CET 2010 x86_64 x86_64 x86_64 GNU/Linux"/>
    <Info name="Dir" value="/home/jsaxon/NeuralNetworks/nn12"/>
    <Info name="Training events" value="20000"/>
    <Info name="TrainingTime" value="91.4158"/>
    <Info name="AnalysisType" value="Classification"/>
  </GeneralInfo>
  <Options>
    <Option name="NCycles" modified="Yes">2000</Option>
    <Option name="HiddenLayers" modified="Yes">N+3</Option>
    <Option name="NeuronType" modified="Yes">tanh</Option>
    <Option name="RandomSeed" modified="No">1</Option>
    <Option name="EstimatorType" modified="No">MSE</Option>
    <Option name="NeuronInputType" modified="No">sum</Option>
    <Option name="V" modified="No">False</Option>
    <Option name="VerbosityLevel" modified="No">Default</Option>
    <Option name="VarTransform" modified="Yes">N</Option>
    <Option name="H" modified="No">False</Option>
    <Option name="CreateMVAPdfs" modified="No">False</Option>
    <Option name="IgnoreNegWeightsInTraining" modified="No">False</Option>
    <Option name="TrainingMethod" modified="No">BP</Option>
    <Option name="LearningRate" modified="No">2.000000e-02</Option>
    <Option name="DecayRate" modified="No">1.000000e-02</Option>
    <Option name="TestRate" modified="Yes">5</Option>
    <Option name="EpochMonitoring" modified="No">False</Option>
    <Option name="Sampling" modified="No">1.000000e+00</Option>
    <Option name="SamplingEpoch" modified="No">1.000000e+00</Option>
    <Option name="SamplingImportance" modified="No">1.000000e+00</Option>
    <Option name="SamplingTraining" modified="No">True</Option>
    <Option name="SamplingTesting" modified="No">False</Option>
    <Option name="ResetStep" modified="No">50</Option>
    <Option name="Tau" modified="No">3.000000e+00</Option>
    <Option name="BPMode" modified="No">sequential</Option>
    <Option name="BatchSize" modified="No">-1</Option>
    <Option name="ConvergenceImprove" modified="No">1.000000e-30</Option>
    <Option name="ConvergenceTests" modified="Yes">20</Option>
    <Option name="UseRegulator" modified="Yes">False</Option>
    <Option name="UpdateLimit" modified="No">10</Option>
    <Option name="CalculateErrors" modified="No">False</Option>
  </Options>
  <Variables NVar="10">
    <Variable VarIndex="0" Expression="fside" Label="fside" Title="fside" Unit="" Internal="fside" Type="D" Min="0.0269942" Max="1.09013"/>
    <Variable VarIndex="1" Expression="w1" Label="w1" Title="w1" Unit="" Internal="w1" Type="D" Min="0.336098" Max="0.808415"/>
    <Variable VarIndex="2" Expression="wtot" Label="wtot" Title="wtot" Unit="" Internal="wtot" Type="D" Min="0.225084" Max="12.2952"/>
    <Variable VarIndex="3" Expression="deltae" Label="deltae" Title="deltae" Unit="" Internal="deltae" Type="D" Min="-2.5687" Max="1454"/>
    <Variable VarIndex="4" Expression="eratio" Label="eratio" Title="eratio" Unit="" Internal="eratio" Type="D" Min="3.4461e-06" Max="1"/>
    <Variable VarIndex="5" Expression="rphi" Label="rphi" Title="rphi" Unit="" Internal="rphi" Type="D" Min="0.311302" Max="1.02419"/>
    <Variable VarIndex="6" Expression="rhad" Label="rhad" Title="rhad" Unit="" Internal="rhad" Type="D" Min="-0.0471616" Max="0.00999886"/>
    <Variable VarIndex="7" Expression="reta" Label="reta" Title="reta" Unit="" Internal="reta" Type="D" Min="0.927019" Max="1.0834"/>
    <Variable VarIndex="8" Expression="weta2" Label="weta2" Title="weta2" Unit="" Internal="weta2" Type="D" Min="0.00533952" Max="0.0119855"/>
    <Variable VarIndex="9" Expression="f1" Label="f1" Title="f1" Unit="" Internal="f1" Type="D" Min="0.0247429" Max="0.499889"/>
  </Variables>
  <Spectators NSpec="4">
    <Spectator SpecIndex="0" Expression="pt" Label="pt" Title="P_{T} [GeV]" Unit="D" Internal="pt" Type="F" Min="20000.6" Max="29999.4"/>
    <Spectator SpecIndex="1" Expression="etas2" Label="etas2" Title="etas2" Unit="D" Internal="etas2" Type="F" Min="-0.599922" Max="0.599983"/>
    <Spectator SpecIndex="2" Expression="convFlag" Label="convFlag" Title="convFlag" Unit="i" Internal="convFlag" Type="F" Min="2" Max="12"/>
    <Spectator SpecIndex="3" Expression="tight" Label="tight" Title="Tight" Unit="i" Internal="tight" Type="F" Min="0" Max="1"/>
  </Spectators>
  <Transformations NTransformations="1">
    <Transform Name="Normalize" NVariables="10" NTargets="0">
      <Class ClassIndex="0">
        <Variables>
          <Variable VarIndex="0" Min="1.1744072288274765e-01" Max="6.3978749513626099e-01"/>
          <Variable VarIndex="1" Min="3.3609819412231445e-01" Max="7.8242826461791992e-01"/>
          <Variable VarIndex="2" Min="2.4462321400642395e-01" Max="5.0445804595947266e+00"/>
          <Variable VarIndex="3" Min="-2.5687000751495361e+00" Max="6.5303405761718750e+02"/>
          <Variable VarIndex="4" Min="1.9252231717109680e-01" Max="9.9909770488739014e-01"/>
          <Variable VarIndex="5" Min="3.1130161881446838e-01" Max="1.0241870880126953e+00"/>
          <Variable VarIndex="6" Min="-4.5411914587020874e-02" Max="9.9860960617661476e-03"/>
          <Variable VarIndex="7" Min="9.2704755067825317e-01" Max="1.0833994150161743e+00"/>
          <Variable VarIndex="8" Min="6.2747746706008911e-03" Max="1.1979973874986172e-02"/>
          <Variable VarIndex="9" Min="2.4742851033806801e-02" Max="4.9940618872642517e-01"/>
        </Variables>
        <Targets/>
      </Class>
      <Class ClassIndex="1">
        <Variables>
          <Variable VarIndex="0" Min="2.6994211599230766e-02" Max="1.0901337862014771e+00"/>
          <Variable VarIndex="1" Min="3.6166366934776306e-01" Max="8.0841469764709473e-01"/>
          <Variable VarIndex="2" Min="2.2508369386196136e-01" Max="1.2295207977294922e+01"/>
          <Variable VarIndex="3" Min="0.0000000000000000e+00" Max="1.4539956054687500e+03"/>
          <Variable VarIndex="4" Min="3.4460986171325203e-06" Max="1.0000000000000000e+00"/>
          <Variable VarIndex="5" Min="3.5252258181571960e-01" Max="9.9312967061996460e-01"/>
          <Variable VarIndex="6" Min="-4.7161605209112167e-02" Max="9.9988644942641258e-03"/>
          <Variable VarIndex="7" Min="9.2701864242553711e-01" Max="1.0255610942840576e+00"/>
          <Variable VarIndex="8" Min="5.3395233117043972e-03" Max="1.1985532939434052e-02"/>
          <Variable VarIndex="9" Min="3.4988891333341599e-02" Max="4.9988913536071777e-01"/>
        </Variables>
        <Targets/>
      </Class>
      <Class ClassIndex="2">
        <Variables>
          <Variable VarIndex="0" Min="2.6994211599230766e-02" Max="1.0901337862014771e+00"/>
          <Variable VarIndex="1" Min="3.3609819412231445e-01" Max="8.0841469764709473e-01"/>
          <Variable VarIndex="2" Min="2.2508369386196136e-01" Max="1.2295207977294922e+01"/>
          <Variable VarIndex="3" Min="-2.5687000751495361e+00" Max="1.4539956054687500e+03"/>
          <Variable VarIndex="4" Min="3.4460986171325203e-06" Max="1.0000000000000000e+00"/>
          <Variable VarIndex="5" Min="3.1130161881446838e-01" Max="1.0241870880126953e+00"/>
          <Variable VarIndex="6" Min="-4.7161605209112167e-02" Max="9.9988644942641258e-03"/>
          <Variable VarIndex="7" Min="9.2701864242553711e-01" Max="1.0833994150161743e+00"/>
          <Variable VarIndex="8" Min="5.3395233117043972e-03" Max="1.1985532939434052e-02"/>
          <Variable VarIndex="9" Min="2.4742851033806801e-02" Max="4.9988913536071777e-01"/>
        </Variables>
        <Targets/>
      </Class>
    </Transform>
  </Transformations>
  <MVAPdfs/>
  <Weights>
    <Layout NLayers="3">
      <Layer Index="0" NNeurons="11">
        <Neuron NSynapses="13">
          -7.4253384501518027e-01 2.3099616953984707e+00 9.6999639635432122e-01 1.6506442827025005e+00 -3.4345853420714754e+00 -1.4950582616931363e+00 -7.5853732873589708e-01 1.3600317397663481e-01 -5.3861263479575854e+00 -9.3444633909329533e-01 -6.9352953892700997e-01 -5.1359400512113051e-01 -1.7443097294233727e+00 
        </Neuron>
        <Neuron NSynapses="13">
          -3.0857555569670259e-01 -2.4056063370157774e-01 1.7725121259847310e-01 -3.0539517500821350e-01 1.5388863327534701e+00 -3.4010431722572582e-01 1.3422036585767336e+00 5.8057553781260440e-01 -8.4297331861035862e-01 1.9632588406908160e+00 3.1366020719767951e-01 -1.1395109351961885e+00 -8.2817727071298519e-01 
        </Neuron>
        <Neuron NSynapses="13">
          1.0593712880474155e+00 -1.4094644126954590e+00 -1.8747833837788823e+00 4.4412040442006201e-01 1.7547659237869745e-01 1.3946379627819177e+00 -2.3520368155904556e-01 -1.4888755457343519e+00 3.0539315214349644e-01 -4.4773058243142566e-01 -1.3020251918348738e+00 1.6538560437243188e+00 -6.3461514439894207e-01 
        </Neuron>
        <Neuron NSynapses="13">
          4.2849642445299962e-01 4.7511769862038772e-01 1.0161942984638064e+00 1.5963548313601532e+00 2.1200008789209379e+00 -4.9070988415441091e-01 -1.5542416235972982e+00 6.7060217133589584e-01 6.6671531742027182e-02 1.6755755158840959e+00 2.0616374717244885e+00 1.4557014989488555e+00 5.6273609353073084e-01 
        </Neuron>
        <Neuron NSynapses="13">
          -9.1656989530206578e-01 1.7263839187404577e+00 -1.6492581182539696e+00 -7.4612664010819327e-02 -2.3929255860029532e+00 -1.4622088320903543e+00 1.5590997746823922e+00 -1.7837129718613312e-01 -3.7445620915704056e+00 -1.8485549027159612e-01 -3.5314408105981543e-01 7.7790600840454072e-01 2.1193934028868284e+00 
        </Neuron>
        <Neuron NSynapses="13">
          -9.4326890922732679e-02 3.6762320757611949e-01 5.6782457854388055e-02 2.2408188781761984e-01 5.9892269562892037e-02 -1.0503532786037521e-01 -1.5213606939023032e+00 -1.8910343033344618e-02 3.0967395139427173e-01 1.5585520662990893e-01 4.8797371037211615e-02 -1.9038049119877853e+00 -9.2375786780782376e-01 
        </Neuron>
        <Neuron NSynapses="13">
          1.1445883590510353e+00 9.9021523330292149e-01 1.5093513823540023e+00 1.3733368915751845e-01 1.1758181969620529e+00 -3.9435440122263932e-01 -9.8743010107477514e-01 -6.1313192593116295e-01 3.4413014912516075e-02 -1.4090413181886741e+00 -4.3376065866504232e-01 -1.6168249964043273e+00 -1.2586532643397883e+00 
        </Neuron>
        <Neuron NSynapses="13">
          -4.3562350223820501e-01 6.2142838330535133e-01 -9.5321435866302306e-01 -2.0570975032823055e-01 -6.5611499138096319e-01 -6.3903373199051239e-01 -1.4065129253036883e+00 -2.7992902857937269e-01 -7.1423846018280571e-02 1.3021033693555631e-01 -1.2320589960528820e+00 5.9819944316429763e-01 1.5769702341237471e-01 
        </Neuron>
        <Neuron NSynapses="13">
          -4.3401153516912111e-01 5.6532276357221423e-01 -1.4718265026838429e-01 -7.7791883863489053e-01 -5.4564100154039052e-01 -8.5886139708215251e-02 -1.8553266231939509e+00 3.2961043489634196e+00 2.5127326280668444e-01 3.0934154689893389e-01 -1.3959446305486796e+00 1.8703934506437818e+00 3.9456960137433283e-01 
        </Neuron>
        <Neuron NSynapses="13">
          -9.0121007857216884e-02 3.1516607173222028e-01 -1.9726386347881997e-01 -1.4289819031978650e+00 2.2316005094253957e-01 -3.7620027238700682e-01 1.8036537828804127e+00 2.6736630599605055e-01 4.2309198021696220e-01 3.9391229029967378e-01 7.6040362413295115e-01 -1.7580290929171494e+00 1.5177691123363151e+00 
        </Neuron>
        <Neuron NSynapses="13">
          7.1643855017591151e-01 -1.0239224307297743e+00 5.1869563819916742e-01 -2.2944574283110710e+00 2.6998331867314995e-01 1.0936623811016184e+00 1.6066401127574450e+00 -7.8046043154709266e-01 1.2789454684724939e+00 1.5397277253162596e+00 1.2174089734462625e+00 3.4363951225783579e-01 -2.2041046986037021e+00 
        </Neuron>
      </Layer>
      <Layer Index="1" NNeurons="14">
        <Neuron NSynapses="1">
          1.1524406896378069e-01 
        </Neuron>
        <Neuron NSynapses="1">
          1.4726392039586370e-01 
        </Neuron>
        <Neuron NSynapses="1">
          1.1802542158127803e-01 
        </Neuron>
        <Neuron NSynapses="1">
          4.0065741838164221e-01 
        </Neuron>
        <Neuron NSynapses="1">
          -3.2633095640837656e-01 
        </Neuron>
        <Neuron NSynapses="1">
          -3.3193150934669347e-02 
        </Neuron>
        <Neuron NSynapses="1">
          -8.9981217117137500e-03 
        </Neuron>
        <Neuron NSynapses="1">
          -3.2704692588124507e-01 
        </Neuron>
        <Neuron NSynapses="1">
          4.0271098952473527e-01 
        </Neuron>
        <Neuron NSynapses="1">
          3.6991766672995791e-01 
        </Neuron>
        <Neuron NSynapses="1">
          -2.9251037948042757e-01 
        </Neuron>
        <Neuron NSynapses="1">
          4.3600246882770852e-02 
        </Neuron>
        <Neuron NSynapses="1">
          2.2482613453599737e-01 
        </Neuron>
        <Neuron NSynapses="1">
          6.4915247903879891e-01 
        </Neuron>
      </Layer>
      <Layer Index="2" NNeurons="1">
        <Neuron NSynapses="0"/>
      </Layer>
    </Layout>
  </Weights>
</MethodSetup>
