<?xml version="1.0"?>
<MethodSetup Method="MLP::MLP_N3.pt60_eta0.60_conv2">
  <GeneralInfo>
    <Info name="TMVA Release" value="4.1.0 [262400]"/>
    <Info name="ROOT Release" value="5.28/00 [334848]"/>
    <Info name="Creator" value="jsaxon"/>
    <Info name="Date" value="Sat Jun 23 15:35:00 2012"/>
    <Info name="Host" value="Linux lxbuild148.cern.ch 2.6.18-194.26.1.el5 #1 SMP Wed Nov 10 09:45:46 CET 2010 x86_64 x86_64 x86_64 GNU/Linux"/>
    <Info name="Dir" value="/home/jsaxon/NeuralNetworks/nn12"/>
    <Info name="Training events" value="15377"/>
    <Info name="TrainingTime" value="153.448"/>
    <Info name="AnalysisType" value="Classification"/>
  </GeneralInfo>
  <Options>
    <Option name="NCycles" modified="Yes">2000</Option>
    <Option name="HiddenLayers" modified="Yes">N+3</Option>
    <Option name="NeuronType" modified="Yes">tanh</Option>
    <Option name="RandomSeed" modified="No">1</Option>
    <Option name="EstimatorType" modified="No">MSE</Option>
    <Option name="NeuronInputType" modified="No">sum</Option>
    <Option name="V" modified="No">False</Option>
    <Option name="VerbosityLevel" modified="No">Default</Option>
    <Option name="VarTransform" modified="Yes">N</Option>
    <Option name="H" modified="No">False</Option>
    <Option name="CreateMVAPdfs" modified="No">False</Option>
    <Option name="IgnoreNegWeightsInTraining" modified="No">False</Option>
    <Option name="TrainingMethod" modified="No">BP</Option>
    <Option name="LearningRate" modified="No">2.000000e-02</Option>
    <Option name="DecayRate" modified="No">1.000000e-02</Option>
    <Option name="TestRate" modified="Yes">5</Option>
    <Option name="EpochMonitoring" modified="No">False</Option>
    <Option name="Sampling" modified="No">1.000000e+00</Option>
    <Option name="SamplingEpoch" modified="No">1.000000e+00</Option>
    <Option name="SamplingImportance" modified="No">1.000000e+00</Option>
    <Option name="SamplingTraining" modified="No">True</Option>
    <Option name="SamplingTesting" modified="No">False</Option>
    <Option name="ResetStep" modified="No">50</Option>
    <Option name="Tau" modified="No">3.000000e+00</Option>
    <Option name="BPMode" modified="No">sequential</Option>
    <Option name="BatchSize" modified="No">-1</Option>
    <Option name="ConvergenceImprove" modified="No">1.000000e-30</Option>
    <Option name="ConvergenceTests" modified="Yes">20</Option>
    <Option name="UseRegulator" modified="Yes">False</Option>
    <Option name="UpdateLimit" modified="No">10</Option>
    <Option name="CalculateErrors" modified="No">False</Option>
  </Options>
  <Variables NVar="10">
    <Variable VarIndex="0" Expression="fside" Label="fside" Title="fside" Unit="" Internal="fside" Type="D" Min="0.110582" Max="1.50552"/>
    <Variable VarIndex="1" Expression="w1" Label="w1" Title="w1" Unit="" Internal="w1" Type="D" Min="0.353537" Max="0.814346"/>
    <Variable VarIndex="2" Expression="wtot" Label="wtot" Title="wtot" Unit="" Internal="wtot" Type="D" Min="0.68153" Max="8.67603"/>
    <Variable VarIndex="3" Expression="deltae" Label="deltae" Title="deltae" Unit="" Internal="deltae" Type="D" Min="0" Max="3354.99"/>
    <Variable VarIndex="4" Expression="eratio" Label="eratio" Title="eratio" Unit="" Internal="eratio" Type="D" Min="0.000286554" Max="1.00202"/>
    <Variable VarIndex="5" Expression="rphi" Label="rphi" Title="rphi" Unit="" Internal="rphi" Type="D" Min="0.418026" Max="0.991051"/>
    <Variable VarIndex="6" Expression="rhad" Label="rhad" Title="rhad" Unit="" Internal="rhad" Type="D" Min="-0.0195182" Max="0.00999584"/>
    <Variable VarIndex="7" Expression="reta" Label="reta" Title="reta" Unit="" Internal="reta" Type="D" Min="0.927003" Max="1.02189"/>
    <Variable VarIndex="8" Expression="weta2" Label="weta2" Title="weta2" Unit="" Internal="weta2" Type="D" Min="0.00582193" Max="0.0119961"/>
    <Variable VarIndex="9" Expression="f1" Label="f1" Title="f1" Unit="" Internal="f1" Type="D" Min="0.0103547" Max="0.495126"/>
  </Variables>
  <Spectators NSpec="4">
    <Spectator SpecIndex="0" Expression="pt" Label="pt" Title="P_{T} [GeV]" Unit="D" Internal="pt" Type="F" Min="50000.1" Max="59998"/>
    <Spectator SpecIndex="1" Expression="etas2" Label="etas2" Title="etas2" Unit="D" Internal="etas2" Type="F" Min="-0.599985" Max="0.599973"/>
    <Spectator SpecIndex="2" Expression="convFlag" Label="convFlag" Title="convFlag" Unit="i" Internal="convFlag" Type="F" Min="2" Max="12"/>
    <Spectator SpecIndex="3" Expression="tight" Label="tight" Title="Tight" Unit="i" Internal="tight" Type="F" Min="0" Max="1"/>
  </Spectators>
  <Transformations NTransformations="1">
    <Transform Name="Normalize" NVariables="10" NTargets="0">
      <Class ClassIndex="0">
        <Variables>
          <Variable VarIndex="0" Min="1.1405566334724426e-01" Max="4.9145054817199707e-01"/>
          <Variable VarIndex="1" Min="3.5353720188140869e-01" Max="7.7066111564636230e-01"/>
          <Variable VarIndex="2" Min="6.8152952194213867e-01" Max="3.9778547286987305e+00"/>
          <Variable VarIndex="3" Min="7.4371999502182007e-01" Max="1.7727529296875000e+03"/>
          <Variable VarIndex="4" Min="3.5392779111862183e-01" Max="1.0020246505737305e+00"/>
          <Variable VarIndex="5" Min="5.3366315364837646e-01" Max="9.9105072021484375e-01"/>
          <Variable VarIndex="6" Min="-1.7843360081315041e-02" Max="9.9311163648962975e-03"/>
          <Variable VarIndex="7" Min="9.2711830139160156e-01" Max="9.9104881286621094e-01"/>
          <Variable VarIndex="8" Min="8.2393102347850800e-03" Max="1.1450031772255898e-02"/>
          <Variable VarIndex="9" Min="2.6392960920929909e-02" Max="4.9512550234794617e-01"/>
        </Variables>
        <Targets/>
      </Class>
      <Class ClassIndex="1">
        <Variables>
          <Variable VarIndex="0" Min="1.1058221757411957e-01" Max="1.5055172443389893e+00"/>
          <Variable VarIndex="1" Min="3.7089127302169800e-01" Max="8.1434571743011475e-01"/>
          <Variable VarIndex="2" Min="1.0813213586807251e+00" Max="8.6760301589965820e+00"/>
          <Variable VarIndex="3" Min="0.0000000000000000e+00" Max="3.3549899902343750e+03"/>
          <Variable VarIndex="4" Min="2.8655419009737670e-04" Max="1.0000000000000000e+00"/>
          <Variable VarIndex="5" Min="4.1802597045898438e-01" Max="9.8603200912475586e-01"/>
          <Variable VarIndex="6" Min="-1.9518185406923294e-02" Max="9.9958414211869240e-03"/>
          <Variable VarIndex="7" Min="9.2700284719467163e-01" Max="1.0218867063522339e+00"/>
          <Variable VarIndex="8" Min="5.8219307102262974e-03" Max="1.1996052227914333e-02"/>
          <Variable VarIndex="9" Min="1.0354656726121902e-02" Max="4.9165916442871094e-01"/>
        </Variables>
        <Targets/>
      </Class>
      <Class ClassIndex="2">
        <Variables>
          <Variable VarIndex="0" Min="1.1058221757411957e-01" Max="1.5055172443389893e+00"/>
          <Variable VarIndex="1" Min="3.5353720188140869e-01" Max="8.1434571743011475e-01"/>
          <Variable VarIndex="2" Min="6.8152952194213867e-01" Max="8.6760301589965820e+00"/>
          <Variable VarIndex="3" Min="0.0000000000000000e+00" Max="3.3549899902343750e+03"/>
          <Variable VarIndex="4" Min="2.8655419009737670e-04" Max="1.0020246505737305e+00"/>
          <Variable VarIndex="5" Min="4.1802597045898438e-01" Max="9.9105072021484375e-01"/>
          <Variable VarIndex="6" Min="-1.9518185406923294e-02" Max="9.9958414211869240e-03"/>
          <Variable VarIndex="7" Min="9.2700284719467163e-01" Max="1.0218867063522339e+00"/>
          <Variable VarIndex="8" Min="5.8219307102262974e-03" Max="1.1996052227914333e-02"/>
          <Variable VarIndex="9" Min="1.0354656726121902e-02" Max="4.9512550234794617e-01"/>
        </Variables>
        <Targets/>
      </Class>
    </Transform>
  </Transformations>
  <MVAPdfs/>
  <Weights>
    <Layout NLayers="3">
      <Layer Index="0" NNeurons="11">
        <Neuron NSynapses="13">
          -5.3848759209281472e-01 1.4449890821741249e+00 5.2993019252588158e-01 1.8675979869811228e+00 -2.0495500760507066e+00 -1.3275481179031265e+00 -6.7454008040829261e-01 1.7830011375427246e+00 -1.7948664071069504e+00 -1.1540507329206233e+00 -1.5644335144409580e+00 -9.8867048120049983e-01 -5.6327014142646812e+00 
        </Neuron>
        <Neuron NSynapses="13">
          -1.2300837347024164e-01 -7.7590966405869866e-01 4.1787862337209197e-01 -5.6684231747717284e-01 1.9323142503606632e+00 4.2597530369740794e-01 1.2833215264713682e+00 -6.5975528394818295e-01 -8.1355057438618561e-01 -2.3964838652491743e-01 7.0404552472893123e-01 -1.0197887011826259e+00 -1.5898151248486596e+00 
        </Neuron>
        <Neuron NSynapses="13">
          1.0581774714856829e+00 -1.3470140228046426e+00 -1.6957094387774629e+00 3.9894357109711698e-01 4.4711777163590233e-01 1.5436532777216234e+00 -2.4796078597543608e-01 -3.6389110277400646e-02 3.8326432049310100e-01 -3.1380393257230110e-01 -1.0021363817711768e+00 1.1610201709160988e+00 -5.6822506368530956e-01 
        </Neuron>
        <Neuron NSynapses="13">
          3.1951991132577523e-01 6.6534940888256777e-01 4.4989868217076207e-01 1.6963260232725310e+00 7.2084139145251425e-01 -1.1520948239974198e+00 -1.5500033652144003e+00 9.7859234494044756e-01 5.0990047458581456e-01 1.5736261037536823e+00 1.9116936934270989e+00 7.7918419083372836e-01 3.3779386016233421e+00 
        </Neuron>
        <Neuron NSynapses="13">
          -1.3048779865127709e+00 1.7846322385240070e+00 -1.2837047780595139e+00 -1.6875496013288213e-01 -1.4275302052398455e+00 -2.4212310995721955e+00 1.6840907315119706e+00 5.2476400252164412e-01 -1.8387895803108594e+00 -8.3437894228681642e-01 -1.0449695485615502e+00 1.4557173548610403e+00 4.6821482484001322e+00 
        </Neuron>
        <Neuron NSynapses="13">
          2.3303599595876461e-02 6.6369475059318084e-01 -1.4496525108251224e+00 2.7244716361209831e-01 2.8731375887702049e-01 -1.2577513031136398e-01 -1.5877362847993928e+00 6.7655909392000191e-01 3.0658007412455363e-01 2.5214689926418232e-01 -1.6197568780166674e-01 -1.3608073158697238e+00 5.9589738226147215e-01 
        </Neuron>
        <Neuron NSynapses="13">
          9.6564545744912322e-01 7.6846711167404824e-01 2.8337775806050889e+00 3.0386652473130493e-01 1.2976122046288607e+00 -2.2220248134563057e-02 -1.0081780247019687e+00 -2.9179719674976506e-01 8.0388896686615641e-01 -1.9158158647784420e+00 -1.2741697863062513e+00 -1.4066501913226845e+00 -1.1716896697162116e+00 
        </Neuron>
        <Neuron NSynapses="13">
          -3.5683354558718094e-01 1.2152130936919441e+00 -1.0574416495944354e+00 -4.5756092225611045e-01 6.4975747673065909e-01 -5.6068503991050389e-01 -1.3698187449989414e+00 -1.0250587441026482e+00 -4.4792853900264157e-01 -1.3323163172290478e+00 -1.5156643661246683e+00 4.1003703814852632e-01 1.5453859555966367e+00 
        </Neuron>
        <Neuron NSynapses="13">
          -7.6760843111674293e-01 8.6685730022362739e-01 -3.0341116801427698e-01 -9.4351860096110651e-01 -5.8287678018761302e-01 -2.9381785122533394e-01 -1.9307340061750666e+00 -3.9291458169807801e-02 4.1067376160431886e-02 5.9652989154806979e-01 -7.7303155377088240e-01 1.9681049197820581e+00 -4.1055856619263947e-01 
        </Neuron>
        <Neuron NSynapses="13">
          -1.6324209488525626e-01 3.8729334771488200e-01 -1.3633840966487842e-01 -1.5226162338537907e+00 2.5173201546208485e-01 -1.5077642315819504e+00 1.7473878168480592e+00 1.8004356806033603e-01 -9.2219035295935683e-02 -1.2063559917262829e+00 -5.6584161327070372e-02 -1.4261464025164212e+00 5.2074648625622888e-01 
        </Neuron>
        <Neuron NSynapses="13">
          1.0905011942381628e+00 -1.4030043335112197e+00 1.1676388537941726e+00 -2.1909268258343926e+00 7.0163195510020626e-01 1.5716663499594992e+00 1.4775764808442049e+00 -2.2542744790982749e+00 -7.5203573306030475e-02 2.0690053498881134e+00 1.0691694172583870e+00 9.3396147816621045e-01 -4.9998373027471228e+00 
        </Neuron>
      </Layer>
      <Layer Index="1" NNeurons="14">
        <Neuron NSynapses="1">
          3.0794773202511722e-01 
        </Neuron>
        <Neuron NSynapses="1">
          -1.9277516438647530e-02 
        </Neuron>
        <Neuron NSynapses="1">
          1.5239477683820304e-01 
        </Neuron>
        <Neuron NSynapses="1">
          9.1664247283073574e-01 
        </Neuron>
        <Neuron NSynapses="1">
          1.6178218003997141e-01 
        </Neuron>
        <Neuron NSynapses="1">
          -2.6038958001426216e-01 
        </Neuron>
        <Neuron NSynapses="1">
          1.9359672551451431e-02 
        </Neuron>
        <Neuron NSynapses="1">
          -1.0865415668406937e-01 
        </Neuron>
        <Neuron NSynapses="1">
          -2.2071670383170564e-01 
        </Neuron>
        <Neuron NSynapses="1">
          2.9701896888993090e-01 
        </Neuron>
        <Neuron NSynapses="1">
          -1.3541525820627182e-01 
        </Neuron>
        <Neuron NSynapses="1">
          3.4154210620053999e-02 
        </Neuron>
        <Neuron NSynapses="1">
          4.5555738293573073e-01 
        </Neuron>
        <Neuron NSynapses="1">
          9.5735837819595671e-01 
        </Neuron>
      </Layer>
      <Layer Index="2" NNeurons="1">
        <Neuron NSynapses="0"/>
      </Layer>
    </Layout>
  </Weights>
</MethodSetup>
