<?xml version="1.0"?>
<MethodSetup Method="MLP::MLP_N3.pt60_eta2.01_conv2">
  <GeneralInfo>
    <Info name="TMVA Release" value="4.1.0 [262400]"/>
    <Info name="ROOT Release" value="5.28/00 [334848]"/>
    <Info name="Creator" value="jsaxon"/>
    <Info name="Date" value="Sat Jun 23 16:00:21 2012"/>
    <Info name="Host" value="Linux lxbuild148.cern.ch 2.6.18-194.26.1.el5 #1 SMP Wed Nov 10 09:45:46 CET 2010 x86_64 x86_64 x86_64 GNU/Linux"/>
    <Info name="Dir" value="/home/jsaxon/NeuralNetworks/nn12"/>
    <Info name="Training events" value="12514"/>
    <Info name="TrainingTime" value="171.906"/>
    <Info name="AnalysisType" value="Classification"/>
  </GeneralInfo>
  <Options>
    <Option name="NCycles" modified="Yes">2000</Option>
    <Option name="HiddenLayers" modified="Yes">N+3</Option>
    <Option name="NeuronType" modified="Yes">tanh</Option>
    <Option name="RandomSeed" modified="No">1</Option>
    <Option name="EstimatorType" modified="No">MSE</Option>
    <Option name="NeuronInputType" modified="No">sum</Option>
    <Option name="V" modified="No">False</Option>
    <Option name="VerbosityLevel" modified="No">Default</Option>
    <Option name="VarTransform" modified="Yes">N</Option>
    <Option name="H" modified="No">False</Option>
    <Option name="CreateMVAPdfs" modified="No">False</Option>
    <Option name="IgnoreNegWeightsInTraining" modified="No">False</Option>
    <Option name="TrainingMethod" modified="No">BP</Option>
    <Option name="LearningRate" modified="No">2.000000e-02</Option>
    <Option name="DecayRate" modified="No">1.000000e-02</Option>
    <Option name="TestRate" modified="Yes">5</Option>
    <Option name="EpochMonitoring" modified="No">False</Option>
    <Option name="Sampling" modified="No">1.000000e+00</Option>
    <Option name="SamplingEpoch" modified="No">1.000000e+00</Option>
    <Option name="SamplingImportance" modified="No">1.000000e+00</Option>
    <Option name="SamplingTraining" modified="No">True</Option>
    <Option name="SamplingTesting" modified="No">False</Option>
    <Option name="ResetStep" modified="No">50</Option>
    <Option name="Tau" modified="No">3.000000e+00</Option>
    <Option name="BPMode" modified="No">sequential</Option>
    <Option name="BatchSize" modified="No">-1</Option>
    <Option name="ConvergenceImprove" modified="No">1.000000e-30</Option>
    <Option name="ConvergenceTests" modified="Yes">20</Option>
    <Option name="UseRegulator" modified="Yes">False</Option>
    <Option name="UpdateLimit" modified="No">10</Option>
    <Option name="CalculateErrors" modified="No">False</Option>
  </Options>
  <Variables NVar="10">
    <Variable VarIndex="0" Expression="fside" Label="fside" Title="fside" Unit="" Internal="fside" Type="D" Min="0.143924" Max="1.33914"/>
    <Variable VarIndex="1" Expression="w1" Label="w1" Title="w1" Unit="" Internal="w1" Type="D" Min="0.505092" Max="0.810159"/>
    <Variable VarIndex="2" Expression="wtot" Label="wtot" Title="wtot" Unit="" Internal="wtot" Type="D" Min="1.24081" Max="5.69633"/>
    <Variable VarIndex="3" Expression="deltae" Label="deltae" Title="deltae" Unit="" Internal="deltae" Type="D" Min="-1244.06" Max="16854.6"/>
    <Variable VarIndex="4" Expression="eratio" Label="eratio" Title="eratio" Unit="" Internal="eratio" Type="D" Min="0.000881545" Max="1"/>
    <Variable VarIndex="5" Expression="rphi" Label="rphi" Title="rphi" Unit="" Internal="rphi" Type="D" Min="0.456542" Max="0.980508"/>
    <Variable VarIndex="6" Expression="rhad" Label="rhad" Title="rhad" Unit="" Internal="rhad" Type="D" Min="-0.023395" Max="0.0149999"/>
    <Variable VarIndex="7" Expression="reta" Label="reta" Title="reta" Unit="" Internal="reta" Type="D" Min="0.920019" Max="0.972981"/>
    <Variable VarIndex="8" Expression="weta2" Label="weta2" Title="weta2" Unit="" Internal="weta2" Type="D" Min="0.00380178" Max="0.0129929"/>
    <Variable VarIndex="9" Expression="f1" Label="f1" Title="f1" Unit="" Internal="f1" Type="D" Min="0.0100637" Max="0.465608"/>
  </Variables>
  <Spectators NSpec="4">
    <Spectator SpecIndex="0" Expression="pt" Label="pt" Title="P_{T} [GeV]" Unit="D" Internal="pt" Type="F" Min="50000.4" Max="59997.1"/>
    <Spectator SpecIndex="1" Expression="etas2" Label="etas2" Title="etas2" Unit="D" Internal="etas2" Type="F" Min="-2.00998" Max="2.00993"/>
    <Spectator SpecIndex="2" Expression="convFlag" Label="convFlag" Title="convFlag" Unit="i" Internal="convFlag" Type="F" Min="12" Max="12"/>
    <Spectator SpecIndex="3" Expression="tight" Label="tight" Title="Tight" Unit="i" Internal="tight" Type="F" Min="0" Max="1"/>
  </Spectators>
  <Transformations NTransformations="1">
    <Transform Name="Normalize" NVariables="10" NTargets="0">
      <Class ClassIndex="0">
        <Variables>
          <Variable VarIndex="0" Min="1.6750250756740570e-01" Max="4.0912276506423950e-01"/>
          <Variable VarIndex="1" Min="5.3181761503219604e-01" Max="7.5118172168731689e-01"/>
          <Variable VarIndex="2" Min="1.2408115863800049e+00" Max="2.9047966003417969e+00"/>
          <Variable VarIndex="3" Min="-1.2433666992187500e+02" Max="1.6854646484375000e+04"/>
          <Variable VarIndex="4" Min="3.7396531552076340e-02" Max="9.9762779474258423e-01"/>
          <Variable VarIndex="5" Min="7.7995407581329346e-01" Max="9.6846371889114380e-01"/>
          <Variable VarIndex="6" Min="-2.3394975811243057e-02" Max="1.4834512025117874e-02"/>
          <Variable VarIndex="7" Min="9.2002558708190918e-01" Max="9.6723812818527222e-01"/>
          <Variable VarIndex="8" Min="9.2796385288238525e-03" Max="1.2399018742144108e-02"/>
          <Variable VarIndex="9" Min="6.9424696266651154e-02" Max="4.5745307207107544e-01"/>
        </Variables>
        <Targets/>
      </Class>
      <Class ClassIndex="1">
        <Variables>
          <Variable VarIndex="0" Min="1.4392407238483429e-01" Max="1.3391394615173340e+00"/>
          <Variable VarIndex="1" Min="5.0509202480316162e-01" Max="8.1015872955322266e-01"/>
          <Variable VarIndex="2" Min="1.4125878810882568e+00" Max="5.6963291168212891e+00"/>
          <Variable VarIndex="3" Min="-1.2440585937500000e+03" Max="1.0453294921875000e+04"/>
          <Variable VarIndex="4" Min="8.8154518743976951e-04" Max="1.0000000000000000e+00"/>
          <Variable VarIndex="5" Min="4.5654156804084778e-01" Max="9.8050844669342041e-01"/>
          <Variable VarIndex="6" Min="-1.8627058714628220e-02" Max="1.4999886043369770e-02"/>
          <Variable VarIndex="7" Min="9.2001867294311523e-01" Max="9.7298067808151245e-01"/>
          <Variable VarIndex="8" Min="3.8017805200070143e-03" Max="1.2992923147976398e-02"/>
          <Variable VarIndex="9" Min="1.0063687339425087e-02" Max="4.6560823917388916e-01"/>
        </Variables>
        <Targets/>
      </Class>
      <Class ClassIndex="2">
        <Variables>
          <Variable VarIndex="0" Min="1.4392407238483429e-01" Max="1.3391394615173340e+00"/>
          <Variable VarIndex="1" Min="5.0509202480316162e-01" Max="8.1015872955322266e-01"/>
          <Variable VarIndex="2" Min="1.2408115863800049e+00" Max="5.6963291168212891e+00"/>
          <Variable VarIndex="3" Min="-1.2440585937500000e+03" Max="1.6854646484375000e+04"/>
          <Variable VarIndex="4" Min="8.8154518743976951e-04" Max="1.0000000000000000e+00"/>
          <Variable VarIndex="5" Min="4.5654156804084778e-01" Max="9.8050844669342041e-01"/>
          <Variable VarIndex="6" Min="-2.3394975811243057e-02" Max="1.4999886043369770e-02"/>
          <Variable VarIndex="7" Min="9.2001867294311523e-01" Max="9.7298067808151245e-01"/>
          <Variable VarIndex="8" Min="3.8017805200070143e-03" Max="1.2992923147976398e-02"/>
          <Variable VarIndex="9" Min="1.0063687339425087e-02" Max="4.6560823917388916e-01"/>
        </Variables>
        <Targets/>
      </Class>
    </Transform>
  </Transformations>
  <MVAPdfs/>
  <Weights>
    <Layout NLayers="3">
      <Layer Index="0" NNeurons="11">
        <Neuron NSynapses="13">
          -9.2403509758734048e-01 1.8376302776431162e+00 5.6542775629149267e-01 1.6403782453750957e+00 -1.4255153181908096e+00 -1.0140785359968842e+00 -3.0659377752061884e-01 1.5239919507381083e+00 -1.7803245832694601e+00 1.0756545669234219e+00 -1.3020078851544508e+00 -7.1338450441316092e-01 -3.6450606132052279e+00 
        </Neuron>
        <Neuron NSynapses="13">
          -6.6645697911357837e-01 -1.7654203612836283e+00 5.8512316441340681e-02 -2.5242304105336494e-01 2.3250078311487798e+00 1.8380075759133556e+00 1.7118398886351784e+00 -1.0356101367014274e+00 -2.3097033295194835e-01 1.9996584477171282e+00 4.5857601498273115e-01 -1.5748349530691921e+00 -5.2062967541158311e-01 
        </Neuron>
        <Neuron NSynapses="13">
          9.1513448521948559e-01 -7.4736872942272353e-02 -1.8533072913114763e+00 3.6040719072266092e-01 2.6705272332433000e-01 2.3762333319812612e+00 2.7808108698294098e-01 -5.1381957983175830e-01 -1.0815740557734851e-01 6.7072261240280651e-02 -1.5351006799533138e+00 1.4223302256769379e+00 -2.9493921821080975e+00 
        </Neuron>
        <Neuron NSynapses="13">
          3.6289669715336481e-01 1.6496706121473914e+00 9.1821848056861319e-02 2.1018097592049418e+00 2.5116844780719405e-01 -1.1373060261124786e+00 -1.0404597463297158e+00 2.6608573782662520e-01 2.7130392837706979e-01 5.6954585349429576e-01 1.3605049094303447e+00 1.4155007714091463e+00 1.5970616673296105e+00 
        </Neuron>
        <Neuron NSynapses="13">
          -1.2188066345470538e+00 2.3764306651943303e+00 -1.5800820678501710e+00 -3.8494085614991136e-01 -1.5949945129739398e+00 -7.9024571290973367e-01 8.6718159482591450e-01 5.9458629629472803e-01 -2.3112724158812905e+00 -8.1399401576974117e-01 -1.7395565005572702e+00 1.3597159406266000e+00 2.2458274404256476e-01 
        </Neuron>
        <Neuron NSynapses="13">
          3.2335237508932818e-01 4.9431401624980204e-01 -4.2583442027746787e-01 1.8814577904630830e-01 -2.9228774645400996e-01 -1.8207986713973225e+00 -1.9643945785991945e+00 1.1908502722091105e+00 1.1648160208038800e+00 3.2921371387901625e-02 8.3788303555063703e-01 -1.7365313268355829e+00 1.2832317848819166e+00 
        </Neuron>
        <Neuron NSynapses="13">
          1.3309414773952266e+00 6.5255423301891713e-01 2.6568543327643006e+00 2.6579481637000058e-01 1.1689155336204677e+00 3.0418123197932589e-01 -7.6431825095362771e-01 -4.1573625194432484e-01 6.3658664994227820e-01 -1.1929238822280512e-01 -5.7536090595533118e-01 -1.7295888801927615e+00 -1.2940817258119548e+00 
        </Neuron>
        <Neuron NSynapses="13">
          -2.5391083029997058e-01 9.6766781929923651e-01 -1.9191091924188679e+00 -5.3632261272995529e-01 4.4677589214092928e-01 -1.2370381069451550e+00 -1.2493435161230040e+00 -1.3487279783977675e+00 2.1584579960640066e-01 -1.8174872435670336e-01 1.6447428138256556e-01 -3.0282405500480519e-01 1.7013582502087778e+00 
        </Neuron>
        <Neuron NSynapses="13">
          -6.3962043496851229e-01 3.2219744503440997e+00 -5.1780977891844981e-01 -1.3269999108491630e+00 -2.1279927876757243e-01 8.3333863171757616e-01 -2.3669350112413898e+00 2.2628287994041946e-02 5.9366716506620387e-01 3.7331497074965854e+00 -8.3764620620723895e-01 2.2420149662205384e+00 -3.4070146784939173e+00 
        </Neuron>
        <Neuron NSynapses="13">
          -7.8961873796524173e-01 -2.0680209262388621e-01 -7.0609453852446191e-01 -1.4091768900170523e+00 -4.2845912591894947e-01 -1.0676000332964044e+00 1.1527544968090282e+00 -2.3043875091056109e-02 2.5690038858923769e-01 -8.5583393818008702e-01 9.5374382950663184e-01 -8.9529753655223621e-01 2.1363331173044036e+00 
        </Neuron>
        <Neuron NSynapses="13">
          1.1594439614169709e+00 -2.7588108199498249e+00 1.6026491046977702e+00 -2.0140030498629384e+00 1.2157576154450140e+00 2.4145225966072741e+00 1.1213290003495071e+00 -1.4127680183541482e+00 -2.5503999680420168e-02 2.4634121693180933e+00 1.6518787480054153e+00 9.1708078230313142e-02 -3.3500177665054309e+00 
        </Neuron>
      </Layer>
      <Layer Index="1" NNeurons="14">
        <Neuron NSynapses="1">
          -1.2349260992823048e-01 
        </Neuron>
        <Neuron NSynapses="1">
          -3.6354502015764872e-01 
        </Neuron>
        <Neuron NSynapses="1">
          1.7568343781281873e-01 
        </Neuron>
        <Neuron NSynapses="1">
          1.1362418709375928e+00 
        </Neuron>
        <Neuron NSynapses="1">
          -1.7061173616277805e-01 
        </Neuron>
        <Neuron NSynapses="1">
          -1.9017604577925162e-01 
        </Neuron>
        <Neuron NSynapses="1">
          -6.3371624518195321e-02 
        </Neuron>
        <Neuron NSynapses="1">
          -1.1332990651205256e-01 
        </Neuron>
        <Neuron NSynapses="1">
          1.8284785236606285e-01 
        </Neuron>
        <Neuron NSynapses="1">
          5.4316119426344989e-01 
        </Neuron>
        <Neuron NSynapses="1">
          -3.2949216284423438e-01 
        </Neuron>
        <Neuron NSynapses="1">
          -8.3082654681146201e-02 
        </Neuron>
        <Neuron NSynapses="1">
          3.7771704797961397e-01 
        </Neuron>
        <Neuron NSynapses="1">
          8.6058641845045125e-01 
        </Neuron>
      </Layer>
      <Layer Index="2" NNeurons="1">
        <Neuron NSynapses="0"/>
      </Layer>
    </Layout>
  </Weights>
</MethodSetup>
