<?xml version="1.0"?>
<MethodSetup Method="MLP::MLP_N3.pt40_eta1.15_conv2">
  <GeneralInfo>
    <Info name="TMVA Release" value="4.1.0 [262400]"/>
    <Info name="ROOT Release" value="5.28/00 [334848]"/>
    <Info name="Creator" value="jsaxon"/>
    <Info name="Date" value="Sat Jun 23 15:50:24 2012"/>
    <Info name="Host" value="Linux lxbuild148.cern.ch 2.6.18-194.26.1.el5 #1 SMP Wed Nov 10 09:45:46 CET 2010 x86_64 x86_64 x86_64 GNU/Linux"/>
    <Info name="Dir" value="/home/jsaxon/NeuralNetworks/nn12"/>
    <Info name="Training events" value="14408"/>
    <Info name="TrainingTime" value="122.133"/>
    <Info name="AnalysisType" value="Classification"/>
  </GeneralInfo>
  <Options>
    <Option name="NCycles" modified="Yes">2000</Option>
    <Option name="HiddenLayers" modified="Yes">N+3</Option>
    <Option name="NeuronType" modified="Yes">tanh</Option>
    <Option name="RandomSeed" modified="No">1</Option>
    <Option name="EstimatorType" modified="No">MSE</Option>
    <Option name="NeuronInputType" modified="No">sum</Option>
    <Option name="V" modified="No">False</Option>
    <Option name="VerbosityLevel" modified="No">Default</Option>
    <Option name="VarTransform" modified="Yes">N</Option>
    <Option name="H" modified="No">False</Option>
    <Option name="CreateMVAPdfs" modified="No">False</Option>
    <Option name="IgnoreNegWeightsInTraining" modified="No">False</Option>
    <Option name="TrainingMethod" modified="No">BP</Option>
    <Option name="LearningRate" modified="No">2.000000e-02</Option>
    <Option name="DecayRate" modified="No">1.000000e-02</Option>
    <Option name="TestRate" modified="Yes">5</Option>
    <Option name="EpochMonitoring" modified="No">False</Option>
    <Option name="Sampling" modified="No">1.000000e+00</Option>
    <Option name="SamplingEpoch" modified="No">1.000000e+00</Option>
    <Option name="SamplingImportance" modified="No">1.000000e+00</Option>
    <Option name="SamplingTraining" modified="No">True</Option>
    <Option name="SamplingTesting" modified="No">False</Option>
    <Option name="ResetStep" modified="No">50</Option>
    <Option name="Tau" modified="No">3.000000e+00</Option>
    <Option name="BPMode" modified="No">sequential</Option>
    <Option name="BatchSize" modified="No">-1</Option>
    <Option name="ConvergenceImprove" modified="No">1.000000e-30</Option>
    <Option name="ConvergenceTests" modified="Yes">20</Option>
    <Option name="UseRegulator" modified="Yes">False</Option>
    <Option name="UpdateLimit" modified="No">10</Option>
    <Option name="CalculateErrors" modified="No">False</Option>
  </Options>
  <Variables NVar="10">
    <Variable VarIndex="0" Expression="fside" Label="fside" Title="fside" Unit="" Internal="fside" Type="D" Min="0.134701" Max="1.13886"/>
    <Variable VarIndex="1" Expression="w1" Label="w1" Title="w1" Unit="" Internal="w1" Type="D" Min="0.468388" Max="0.816023"/>
    <Variable VarIndex="2" Expression="wtot" Label="wtot" Title="wtot" Unit="" Internal="wtot" Type="D" Min="1.34898" Max="11.54"/>
    <Variable VarIndex="3" Expression="deltae" Label="deltae" Title="deltae" Unit="" Internal="deltae" Type="D" Min="-3.1918" Max="1773"/>
    <Variable VarIndex="4" Expression="eratio" Label="eratio" Title="eratio" Unit="" Internal="eratio" Type="D" Min="0.00199168" Max="1"/>
    <Variable VarIndex="5" Expression="rphi" Label="rphi" Title="rphi" Unit="" Internal="rphi" Type="D" Min="0.375998" Max="0.983015"/>
    <Variable VarIndex="6" Expression="rhad" Label="rhad" Title="rhad" Unit="" Internal="rhad" Type="D" Min="-0.0425177" Max="0.00999801"/>
    <Variable VarIndex="7" Expression="reta" Label="reta" Title="reta" Unit="" Internal="reta" Type="D" Min="0.925006" Max="1.01089"/>
    <Variable VarIndex="8" Expression="weta2" Label="weta2" Title="weta2" Unit="" Internal="weta2" Type="D" Min="0.00799745" Max="0.0129942"/>
    <Variable VarIndex="9" Expression="f1" Label="f1" Title="f1" Unit="" Internal="f1" Type="D" Min="0.0241386" Max="0.401936"/>
  </Variables>
  <Spectators NSpec="4">
    <Spectator SpecIndex="0" Expression="pt" Label="pt" Title="P_{T} [GeV]" Unit="D" Internal="pt" Type="F" Min="30000.2" Max="39999.4"/>
    <Spectator SpecIndex="1" Expression="etas2" Label="etas2" Title="etas2" Unit="D" Internal="etas2" Type="F" Min="-1.14997" Max="1.1499"/>
    <Spectator SpecIndex="2" Expression="convFlag" Label="convFlag" Title="convFlag" Unit="i" Internal="convFlag" Type="F" Min="2" Max="12"/>
    <Spectator SpecIndex="3" Expression="tight" Label="tight" Title="Tight" Unit="i" Internal="tight" Type="F" Min="0" Max="1"/>
  </Spectators>
  <Transformations NTransformations="1">
    <Transform Name="Normalize" NVariables="10" NTargets="0">
      <Class ClassIndex="0">
        <Variables>
          <Variable VarIndex="0" Min="2.0493321120738983e-01" Max="8.1688392162322998e-01"/>
          <Variable VarIndex="1" Min="5.4478776454925537e-01" Max="7.9885357618331909e-01"/>
          <Variable VarIndex="2" Min="1.4194983243942261e+00" Max="4.5532507896423340e+00"/>
          <Variable VarIndex="3" Min="-3.1918001174926758e+00" Max="1.6348079833984375e+03"/>
          <Variable VarIndex="4" Min="4.1471347212791443e-03" Max="9.9790757894515991e-01"/>
          <Variable VarIndex="5" Min="4.3186300992965698e-01" Max="9.6755033731460571e-01"/>
          <Variable VarIndex="6" Min="-4.2517669498920441e-02" Max="9.9573610350489616e-03"/>
          <Variable VarIndex="7" Min="9.2501002550125122e-01" Max="9.8816621303558350e-01"/>
          <Variable VarIndex="8" Min="8.6269974708557129e-03" Max="1.2951297685503960e-02"/>
          <Variable VarIndex="9" Min="4.6130340546369553e-02" Max="3.8316377997398376e-01"/>
        </Variables>
        <Targets/>
      </Class>
      <Class ClassIndex="1">
        <Variables>
          <Variable VarIndex="0" Min="1.3470135629177094e-01" Max="1.1388633251190186e+00"/>
          <Variable VarIndex="1" Min="4.6838781237602234e-01" Max="8.1602334976196289e-01"/>
          <Variable VarIndex="2" Min="1.3489774465560913e+00" Max="1.1539967536926270e+01"/>
          <Variable VarIndex="3" Min="0.0000000000000000e+00" Max="1.7730023193359375e+03"/>
          <Variable VarIndex="4" Min="1.9916791934520006e-03" Max="1.0000000000000000e+00"/>
          <Variable VarIndex="5" Min="3.7599822878837585e-01" Max="9.8301470279693604e-01"/>
          <Variable VarIndex="6" Min="-4.0713753551244736e-02" Max="9.9980104714632034e-03"/>
          <Variable VarIndex="7" Min="9.2500561475753784e-01" Max="1.0108866691589355e+00"/>
          <Variable VarIndex="8" Min="7.9974457621574402e-03" Max="1.2994226999580860e-02"/>
          <Variable VarIndex="9" Min="2.4138582870364189e-02" Max="4.0193611383438110e-01"/>
        </Variables>
        <Targets/>
      </Class>
      <Class ClassIndex="2">
        <Variables>
          <Variable VarIndex="0" Min="1.3470135629177094e-01" Max="1.1388633251190186e+00"/>
          <Variable VarIndex="1" Min="4.6838781237602234e-01" Max="8.1602334976196289e-01"/>
          <Variable VarIndex="2" Min="1.3489774465560913e+00" Max="1.1539967536926270e+01"/>
          <Variable VarIndex="3" Min="-3.1918001174926758e+00" Max="1.7730023193359375e+03"/>
          <Variable VarIndex="4" Min="1.9916791934520006e-03" Max="1.0000000000000000e+00"/>
          <Variable VarIndex="5" Min="3.7599822878837585e-01" Max="9.8301470279693604e-01"/>
          <Variable VarIndex="6" Min="-4.2517669498920441e-02" Max="9.9980104714632034e-03"/>
          <Variable VarIndex="7" Min="9.2500561475753784e-01" Max="1.0108866691589355e+00"/>
          <Variable VarIndex="8" Min="7.9974457621574402e-03" Max="1.2994226999580860e-02"/>
          <Variable VarIndex="9" Min="2.4138582870364189e-02" Max="4.0193611383438110e-01"/>
        </Variables>
        <Targets/>
      </Class>
    </Transform>
  </Transformations>
  <MVAPdfs/>
  <Weights>
    <Layout NLayers="3">
      <Layer Index="0" NNeurons="11">
        <Neuron NSynapses="13">
          2.0237789551434776e-01 4.8477369726735580e+00 1.6017288467070312e+00 1.3214832926776414e+00 -2.5526542736194009e+00 -1.6016970861197337e+00 -7.5675766022162683e-01 1.5605170448078947e+00 -3.1517726834593605e+00 -1.4463794142811042e+00 -1.6987580640933828e+00 -6.2603283144468902e-01 -1.2310540384897637e+00 
        </Neuron>
        <Neuron NSynapses="13">
          -5.5834122796653740e-01 6.1126155543381389e-01 7.1810375032108098e-01 -3.9525375628595455e-01 2.5382821320903779e+00 2.0025677920952603e-01 1.2858188676995923e+00 -7.9660434178094019e-01 -1.2858130914656833e+00 8.0275248458416704e-01 7.9737884803463976e-01 -1.1641008282103209e+00 -7.8128826182086428e-02 
        </Neuron>
        <Neuron NSynapses="13">
          7.9810262943424626e-01 -1.7664404084993115e+00 -1.7995267535155102e+00 5.1534344639134255e-01 4.4007874287586668e-01 1.4642393140876755e+00 -1.3462473922611132e-01 -8.6055451998620114e-01 1.5269285665953187e+00 2.2824312978858982e-01 -9.9528875496036262e-01 1.5392071507072977e+00 -1.0317149199303139e+00 
        </Neuron>
        <Neuron NSynapses="13">
          5.3052271158247610e-01 1.2293212590391980e-01 1.0761568080394728e+00 1.8575001528496473e+00 7.3081974979487241e-01 -7.4823789455805778e-01 -1.5917897504861631e+00 1.3171385700678781e-01 8.5335119816614319e-02 1.9275192411337960e+00 1.8450353400925528e+00 1.2124827759173391e+00 1.8948382169141000e+00 
        </Neuron>
        <Neuron NSynapses="13">
          -6.2969272230001483e-01 1.6855417301712652e+00 -2.2228931718606635e+00 -4.9502703685561610e-02 -1.3594135099446241e+00 -1.4644272274509957e+00 1.7315330609697921e+00 1.1521096038322944e+00 -1.5926959409616401e+00 -1.9865310987568338e-01 -1.4441709585175084e+00 1.1258752242926855e+00 1.5970126908816307e+00 
        </Neuron>
        <Neuron NSynapses="13">
          -3.9229732034309156e-01 -2.9093866596211543e-01 -3.0644133313858196e-01 3.9781264319596957e-02 -1.9527768326761485e-01 -2.0958739145394942e-01 -1.4627258897714532e+00 4.4833369323963218e-01 -1.2634887901883743e-01 8.2708445042754752e-01 -4.6083173508813302e-01 -1.8239518426450305e+00 7.4615257299578019e-02 
        </Neuron>
        <Neuron NSynapses="13">
          3.8250972179079346e-01 1.1802497429365904e+00 1.8845772540569956e+00 1.4843070015088680e-01 1.0702966593465395e+00 -4.5325859761316267e-01 -1.1737144944251747e+00 7.4999612060634283e-02 1.8425533202025657e+00 -1.2508389572074587e+00 -9.2505729767412870e-01 -1.5123521927344361e+00 -3.5225958584812456e-01 
        </Neuron>
        <Neuron NSynapses="13">
          -2.9936053441992710e-01 7.1015779812454063e-02 -1.1282985671305359e+00 -3.9026767201840967e-01 5.8175761452907748e-01 -4.3557989505286909e-01 -1.0942819122682419e+00 -6.3925619350902352e-01 -5.2709674086347302e-01 -7.1617636353933134e-01 -9.4212360090620739e-01 8.4507153563976900e-01 -2.5208029416884731e-01 
        </Neuron>
        <Neuron NSynapses="13">
          -5.8952861366488507e-01 -4.5043465325246973e-01 -3.1477872888480779e-02 -4.9973798563245131e-01 -8.4104366461242985e-01 2.0396897463435151e-01 -2.0163667861444110e+00 2.6391891480468416e-01 6.8196032823800445e-01 -3.5427624596875329e-01 -5.8484600616020355e-01 1.7149031068232012e+00 4.6332354375023033e-01 
        </Neuron>
        <Neuron NSynapses="13">
          -7.8967829358098507e-01 -7.6032330855773822e-01 -1.3337658896682674e+00 -1.4518264243108243e+00 3.1773104288845650e-03 -4.3392794561911568e-01 1.7418490443166215e+00 -2.3380644309099022e-01 -3.3049224389361853e-01 -7.2833429829217047e-02 8.3797195363230700e-02 -1.9199772578231988e+00 2.0928151705868006e+00 
        </Neuron>
        <Neuron NSynapses="13">
          1.3229896390085945e+00 -1.3748768861012934e+00 5.7118982570688448e-01 -2.2454373635490930e+00 5.9777010009562903e-01 1.1449434677912005e+00 1.3570702251334963e+00 -8.6927593770039546e-01 -5.5281808953520151e-01 6.6892218642056700e-01 1.2144263086518732e+00 3.6369389384394940e-01 -1.8235674608940913e+00 
        </Neuron>
      </Layer>
      <Layer Index="1" NNeurons="14">
        <Neuron NSynapses="1">
          3.0801841074869785e-01 
        </Neuron>
        <Neuron NSynapses="1">
          -3.2967495774802669e-01 
        </Neuron>
        <Neuron NSynapses="1">
          -8.3154218207987171e-02 
        </Neuron>
        <Neuron NSynapses="1">
          7.8217470089984731e-01 
        </Neuron>
        <Neuron NSynapses="1">
          2.2394380669697239e-01 
        </Neuron>
        <Neuron NSynapses="1">
          2.0406930938096254e-02 
        </Neuron>
        <Neuron NSynapses="1">
          -5.5519831045902371e-02 
        </Neuron>
        <Neuron NSynapses="1">
          1.7539145323216604e-01 
        </Neuron>
        <Neuron NSynapses="1">
          -3.2271118522616593e-01 
        </Neuron>
        <Neuron NSynapses="1">
          -1.6118287795501274e-01 
        </Neuron>
        <Neuron NSynapses="1">
          -1.5620995227866191e-01 
        </Neuron>
        <Neuron NSynapses="1">
          -1.1572566588413301e-01 
        </Neuron>
        <Neuron NSynapses="1">
          1.4952488369141090e-01 
        </Neuron>
        <Neuron NSynapses="1">
          6.9323578860770896e-01 
        </Neuron>
      </Layer>
      <Layer Index="2" NNeurons="1">
        <Neuron NSynapses="0"/>
      </Layer>
    </Layout>
  </Weights>
</MethodSetup>
