<?xml version="1.0"?>
<MethodSetup Method="MLP::MLP_N3.pt60_eta1.15_conv1">
  <GeneralInfo>
    <Info name="TMVA Release" value="4.1.0 [262400]"/>
    <Info name="ROOT Release" value="5.28/00 [334848]"/>
    <Info name="Creator" value="jsaxon"/>
    <Info name="Date" value="Sat Jun 23 15:47:57 2012"/>
    <Info name="Host" value="Linux lxbuild148.cern.ch 2.6.18-194.26.1.el5 #1 SMP Wed Nov 10 09:45:46 CET 2010 x86_64 x86_64 x86_64 GNU/Linux"/>
    <Info name="Dir" value="/home/jsaxon/NeuralNetworks/nn12"/>
    <Info name="Training events" value="15656"/>
    <Info name="TrainingTime" value="272.739"/>
    <Info name="AnalysisType" value="Classification"/>
  </GeneralInfo>
  <Options>
    <Option name="NCycles" modified="Yes">2000</Option>
    <Option name="HiddenLayers" modified="Yes">N+3</Option>
    <Option name="NeuronType" modified="Yes">tanh</Option>
    <Option name="RandomSeed" modified="No">1</Option>
    <Option name="EstimatorType" modified="No">MSE</Option>
    <Option name="NeuronInputType" modified="No">sum</Option>
    <Option name="V" modified="No">False</Option>
    <Option name="VerbosityLevel" modified="No">Default</Option>
    <Option name="VarTransform" modified="Yes">N</Option>
    <Option name="H" modified="No">False</Option>
    <Option name="CreateMVAPdfs" modified="No">False</Option>
    <Option name="IgnoreNegWeightsInTraining" modified="No">False</Option>
    <Option name="TrainingMethod" modified="No">BP</Option>
    <Option name="LearningRate" modified="No">2.000000e-02</Option>
    <Option name="DecayRate" modified="No">1.000000e-02</Option>
    <Option name="TestRate" modified="Yes">5</Option>
    <Option name="EpochMonitoring" modified="No">False</Option>
    <Option name="Sampling" modified="No">1.000000e+00</Option>
    <Option name="SamplingEpoch" modified="No">1.000000e+00</Option>
    <Option name="SamplingImportance" modified="No">1.000000e+00</Option>
    <Option name="SamplingTraining" modified="No">True</Option>
    <Option name="SamplingTesting" modified="No">False</Option>
    <Option name="ResetStep" modified="No">50</Option>
    <Option name="Tau" modified="No">3.000000e+00</Option>
    <Option name="BPMode" modified="No">sequential</Option>
    <Option name="BatchSize" modified="No">-1</Option>
    <Option name="ConvergenceImprove" modified="No">1.000000e-30</Option>
    <Option name="ConvergenceTests" modified="Yes">20</Option>
    <Option name="UseRegulator" modified="Yes">False</Option>
    <Option name="UpdateLimit" modified="No">10</Option>
    <Option name="CalculateErrors" modified="No">False</Option>
  </Options>
  <Variables NVar="10">
    <Variable VarIndex="0" Expression="fside" Label="fside" Title="fside" Unit="" Internal="fside" Type="D" Min="0.103106" Max="1.53498"/>
    <Variable VarIndex="1" Expression="w1" Label="w1" Title="w1" Unit="" Internal="w1" Type="D" Min="0.446399" Max="0.80994"/>
    <Variable VarIndex="2" Expression="wtot" Label="wtot" Title="wtot" Unit="" Internal="wtot" Type="D" Min="0.551998" Max="13.3457"/>
    <Variable VarIndex="3" Expression="deltae" Label="deltae" Title="deltae" Unit="" Internal="deltae" Type="D" Min="0" Max="3583.98"/>
    <Variable VarIndex="4" Expression="eratio" Label="eratio" Title="eratio" Unit="" Internal="eratio" Type="D" Min="0.000243443" Max="1.00075"/>
    <Variable VarIndex="5" Expression="rphi" Label="rphi" Title="rphi" Unit="" Internal="rphi" Type="D" Min="0.439961" Max="0.98259"/>
    <Variable VarIndex="6" Expression="rhad" Label="rhad" Title="rhad" Unit="" Internal="rhad" Type="D" Min="-0.0205399" Max="0.00999767"/>
    <Variable VarIndex="7" Expression="reta" Label="reta" Title="reta" Unit="" Internal="reta" Type="D" Min="0.92501" Max="0.986222"/>
    <Variable VarIndex="8" Expression="weta2" Label="weta2" Title="weta2" Unit="" Internal="weta2" Type="D" Min="0.00795646" Max="0.0129991"/>
    <Variable VarIndex="9" Expression="f1" Label="f1" Title="f1" Unit="" Internal="f1" Type="D" Min="0.00125925" Max="0.39643"/>
  </Variables>
  <Spectators NSpec="4">
    <Spectator SpecIndex="0" Expression="pt" Label="pt" Title="P_{T} [GeV]" Unit="D" Internal="pt" Type="F" Min="50000.5" Max="59998.5"/>
    <Spectator SpecIndex="1" Expression="etas2" Label="etas2" Title="etas2" Unit="D" Internal="etas2" Type="F" Min="-1.14996" Max="1.14994"/>
    <Spectator SpecIndex="2" Expression="convFlag" Label="convFlag" Title="convFlag" Unit="i" Internal="convFlag" Type="F" Min="1" Max="11"/>
    <Spectator SpecIndex="3" Expression="tight" Label="tight" Title="Tight" Unit="i" Internal="tight" Type="F" Min="0" Max="1"/>
  </Spectators>
  <Transformations NTransformations="1">
    <Transform Name="Normalize" NVariables="10" NTargets="0">
      <Class ClassIndex="0">
        <Variables>
          <Variable VarIndex="0" Min="1.1086239665746689e-01" Max="1.2022124528884888e+00"/>
          <Variable VarIndex="1" Min="4.4639933109283447e-01" Max="7.9060995578765869e-01"/>
          <Variable VarIndex="2" Min="5.5199837684631348e-01" Max="6.2887182235717773e+00"/>
          <Variable VarIndex="3" Min="4.3160000443458557e-01" Max="1.2514252929687500e+03"/>
          <Variable VarIndex="4" Min="3.7896770983934402e-02" Max="1.0007543563842773e+00"/>
          <Variable VarIndex="5" Min="6.3069671392440796e-01" Max="9.7674691677093506e-01"/>
          <Variable VarIndex="6" Min="-1.4997867867350578e-02" Max="9.9910479038953781e-03"/>
          <Variable VarIndex="7" Min="9.2509478330612183e-01" Max="9.8622161149978638e-01"/>
          <Variable VarIndex="8" Min="8.3616413176059723e-03" Max="1.2694397941231728e-02"/>
          <Variable VarIndex="9" Min="1.2592461425811052e-03" Max="3.9642974734306335e-01"/>
        </Variables>
        <Targets/>
      </Class>
      <Class ClassIndex="1">
        <Variables>
          <Variable VarIndex="0" Min="1.0310648381710052e-01" Max="1.5349788665771484e+00"/>
          <Variable VarIndex="1" Min="4.5666751265525818e-01" Max="8.0993998050689697e-01"/>
          <Variable VarIndex="2" Min="1.4828929901123047e+00" Max="1.3345744132995605e+01"/>
          <Variable VarIndex="3" Min="0.0000000000000000e+00" Max="3.5839819335937500e+03"/>
          <Variable VarIndex="4" Min="2.4344254052266479e-04" Max="1.0000000000000000e+00"/>
          <Variable VarIndex="5" Min="4.3996113538742065e-01" Max="9.8259043693542480e-01"/>
          <Variable VarIndex="6" Min="-2.0539898425340652e-02" Max="9.9976733326911926e-03"/>
          <Variable VarIndex="7" Min="9.2501026391983032e-01" Max="9.7559529542922974e-01"/>
          <Variable VarIndex="8" Min="7.9564647749066353e-03" Max="1.2999088503420353e-02"/>
          <Variable VarIndex="9" Min="1.1540123261511326e-02" Max="3.5570710897445679e-01"/>
        </Variables>
        <Targets/>
      </Class>
      <Class ClassIndex="2">
        <Variables>
          <Variable VarIndex="0" Min="1.0310648381710052e-01" Max="1.5349788665771484e+00"/>
          <Variable VarIndex="1" Min="4.4639933109283447e-01" Max="8.0993998050689697e-01"/>
          <Variable VarIndex="2" Min="5.5199837684631348e-01" Max="1.3345744132995605e+01"/>
          <Variable VarIndex="3" Min="0.0000000000000000e+00" Max="3.5839819335937500e+03"/>
          <Variable VarIndex="4" Min="2.4344254052266479e-04" Max="1.0007543563842773e+00"/>
          <Variable VarIndex="5" Min="4.3996113538742065e-01" Max="9.8259043693542480e-01"/>
          <Variable VarIndex="6" Min="-2.0539898425340652e-02" Max="9.9976733326911926e-03"/>
          <Variable VarIndex="7" Min="9.2501026391983032e-01" Max="9.8622161149978638e-01"/>
          <Variable VarIndex="8" Min="7.9564647749066353e-03" Max="1.2999088503420353e-02"/>
          <Variable VarIndex="9" Min="1.2592461425811052e-03" Max="3.9642974734306335e-01"/>
        </Variables>
        <Targets/>
      </Class>
    </Transform>
  </Transformations>
  <MVAPdfs/>
  <Weights>
    <Layout NLayers="3">
      <Layer Index="0" NNeurons="11">
        <Neuron NSynapses="13">
          -6.8773664364781706e-01 4.6905540196363216e+00 8.0366748346567984e-01 1.4603913992283386e+00 -3.5003571118334968e+00 -2.8575848082429030e+00 -6.4475014873636860e-01 8.5423658949637349e-01 -2.4960929720432818e+00 -9.4382455758383221e-01 -7.8846361796280484e-01 -4.0974049858215200e-01 -4.4013870026879509e+00 
        </Neuron>
        <Neuron NSynapses="13">
          6.6426584275608810e-02 -1.9419089461401384e+00 6.0520888824047026e-01 4.8165174044520520e-01 1.4200279712089878e+00 1.3432419820837609e+00 1.3375838710839763e+00 3.5028890243170757e-01 -7.1649750400270018e-01 1.3444696064590378e+00 8.1074592076723095e-01 -1.1875827438305571e+00 -8.9755485561315040e-01 
        </Neuron>
        <Neuron NSynapses="13">
          9.8571067364619402e-01 -7.0162634565305271e-01 -1.7654762685243472e+00 2.8245685376732965e-01 4.0180325338954737e-01 1.2429738460205362e+00 -1.4539836969983061e-01 8.5899780654275934e-02 4.4274886507489719e-01 -2.8884805461268925e-01 -9.3957801151930442e-01 1.7512341425116587e+00 -1.6042516216925207e-01 
        </Neuron>
        <Neuron NSynapses="13">
          3.7071854385880687e-01 -3.2001781779496119e-01 6.2597906851836571e-01 7.7947638447885248e-01 1.0997243714895095e+00 -8.0973195671134623e-01 -1.4141926999221288e+00 1.0308725301473767e+00 2.2268205156644241e-01 1.2580261912548076e+00 1.7307338358837061e+00 1.5659293996351287e+00 1.6326074865381652e+00 
        </Neuron>
        <Neuron NSynapses="13">
          -1.2044789886423777e+00 2.7259531281593108e+00 -1.7181100809119321e+00 6.9691907427384203e-01 -2.4035440148589071e+00 -2.5891783522863823e+00 1.6164485065209637e+00 9.9695959134899581e-01 -2.3950053917987599e+00 -8.1032248999967393e-01 -1.3205163909085196e+00 7.2056951866606345e-01 2.5242046323482703e+00 
        </Neuron>
        <Neuron NSynapses="13">
          2.3032259215242201e-01 6.4462804230818427e-01 -9.4331288668203284e-01 5.2892348242448084e-01 -3.2346245326480588e-01 -2.1905526930188728e+00 -1.6865570305722049e+00 3.1752708836141172e+00 1.5424903721671575e+00 2.8791459433703859e-01 -4.7701304196888589e-02 -1.8965781794614320e+00 2.4160550813794641e+00 
        </Neuron>
        <Neuron NSynapses="13">
          1.1245299825635795e+00 -2.0296649435828755e-02 9.2806471028067183e-01 -1.4696281713543319e-01 6.8867420229178000e-01 -5.6708900230719970e-02 -1.0356692442924964e+00 -6.2600674039523463e-01 6.1032322588948273e-01 -1.1906751854861757e+00 -6.0025188042967770e-01 -1.7027921825712953e+00 -1.3290780206520927e+00 
        </Neuron>
        <Neuron NSynapses="13">
          -5.4398249962764711e-01 -1.1214690282041404e-02 -1.4954774217487883e+00 7.3402442909360355e-01 -5.5852500733192023e-01 -6.2152870860048348e-01 -1.4228281010431520e+00 2.6208192040116080e-01 -1.0143528241249121e-01 -1.3623259036396822e+00 -1.9824638797712706e+00 7.2187383809556349e-01 1.8601720208157595e+00 
        </Neuron>
        <Neuron NSynapses="13">
          -6.9502856338970209e-01 6.2033090954859804e-01 -3.6688980547902250e-01 -5.3964786452487690e-01 -7.0543957313659075e-02 1.9203495566003598e-01 -1.8690362149559607e+00 -3.4225060390409745e-01 3.7075389940101322e-01 8.8960436042049351e-01 -1.2956149200499243e+00 1.7996432289884048e+00 -1.4148727367854235e+00 
        </Neuron>
        <Neuron NSynapses="13">
          -3.9070711943258185e-01 -5.9088296177590871e-02 -7.7548403864747228e-01 -2.0257312082768415e+00 -4.2336276193909828e-01 -1.3147542625525279e+00 1.8098777118122995e+00 3.6970477626932580e-01 3.6398607653386522e-01 -1.0608701845892119e+00 7.6087656534612558e-01 -1.7980518875130078e+00 1.7344218392447437e+00 
        </Neuron>
        <Neuron NSynapses="13">
          9.7854711699788766e-01 -8.5161647018721354e-01 8.1187650274396828e-01 -1.5413903392351851e+00 5.2736254434988328e-01 2.1040191209062478e+00 1.4228907909799204e+00 -2.7751263636585533e+00 2.2601695718770992e-01 1.7499999826806689e+00 1.6561709594613625e+00 1.5537211409968416e-01 -4.5499130923248146e+00 
        </Neuron>
      </Layer>
      <Layer Index="1" NNeurons="14">
        <Neuron NSynapses="1">
          -4.3405193797930591e-02 
        </Neuron>
        <Neuron NSynapses="1">
          -4.7572563209227059e-01 
        </Neuron>
        <Neuron NSynapses="1">
          1.9597747358819917e-01 
        </Neuron>
        <Neuron NSynapses="1">
          7.1688302102233381e-01 
        </Neuron>
        <Neuron NSynapses="1">
          -4.1002975070456354e-01 
        </Neuron>
        <Neuron NSynapses="1">
          -3.4482649681011052e-01 
        </Neuron>
        <Neuron NSynapses="1">
          -1.3171853982549747e-02 
        </Neuron>
        <Neuron NSynapses="1">
          -8.6174676859407917e-01 
        </Neuron>
        <Neuron NSynapses="1">
          1.2169693398588573e-01 
        </Neuron>
        <Neuron NSynapses="1">
          2.1279182516572595e-01 
        </Neuron>
        <Neuron NSynapses="1">
          -9.2799823097732673e-02 
        </Neuron>
        <Neuron NSynapses="1">
          7.8482421571350922e-02 
        </Neuron>
        <Neuron NSynapses="1">
          3.7278474253495625e-01 
        </Neuron>
        <Neuron NSynapses="1">
          2.1945540597438115e-01 
        </Neuron>
      </Layer>
      <Layer Index="2" NNeurons="1">
        <Neuron NSynapses="0"/>
      </Layer>
    </Layout>
  </Weights>
</MethodSetup>
