<?xml version="1.0"?>
<MethodSetup Method="MLP::MLP_N3.pt50_eta1.81_conv0">
  <GeneralInfo>
    <Info name="TMVA Release" value="4.1.0 [262400]"/>
    <Info name="ROOT Release" value="5.28/00 [334848]"/>
    <Info name="Creator" value="jsaxon"/>
    <Info name="Date" value="Sat Jun 23 16:01:54 2012"/>
    <Info name="Host" value="Linux lxbuild148.cern.ch 2.6.18-194.26.1.el5 #1 SMP Wed Nov 10 09:45:46 CET 2010 x86_64 x86_64 x86_64 GNU/Linux"/>
    <Info name="Dir" value="/home/jsaxon/NeuralNetworks/nn12"/>
    <Info name="Training events" value="20000"/>
    <Info name="TrainingTime" value="486.605"/>
    <Info name="AnalysisType" value="Classification"/>
  </GeneralInfo>
  <Options>
    <Option name="NCycles" modified="Yes">2000</Option>
    <Option name="HiddenLayers" modified="Yes">N+3</Option>
    <Option name="NeuronType" modified="Yes">tanh</Option>
    <Option name="RandomSeed" modified="No">1</Option>
    <Option name="EstimatorType" modified="No">MSE</Option>
    <Option name="NeuronInputType" modified="No">sum</Option>
    <Option name="V" modified="No">False</Option>
    <Option name="VerbosityLevel" modified="No">Default</Option>
    <Option name="VarTransform" modified="Yes">N</Option>
    <Option name="H" modified="No">False</Option>
    <Option name="CreateMVAPdfs" modified="No">False</Option>
    <Option name="IgnoreNegWeightsInTraining" modified="No">False</Option>
    <Option name="TrainingMethod" modified="No">BP</Option>
    <Option name="LearningRate" modified="No">2.000000e-02</Option>
    <Option name="DecayRate" modified="No">1.000000e-02</Option>
    <Option name="TestRate" modified="Yes">5</Option>
    <Option name="EpochMonitoring" modified="No">False</Option>
    <Option name="Sampling" modified="No">1.000000e+00</Option>
    <Option name="SamplingEpoch" modified="No">1.000000e+00</Option>
    <Option name="SamplingImportance" modified="No">1.000000e+00</Option>
    <Option name="SamplingTraining" modified="No">True</Option>
    <Option name="SamplingTesting" modified="No">False</Option>
    <Option name="ResetStep" modified="No">50</Option>
    <Option name="Tau" modified="No">3.000000e+00</Option>
    <Option name="BPMode" modified="No">sequential</Option>
    <Option name="BatchSize" modified="No">-1</Option>
    <Option name="ConvergenceImprove" modified="No">1.000000e-30</Option>
    <Option name="ConvergenceTests" modified="Yes">20</Option>
    <Option name="UseRegulator" modified="Yes">False</Option>
    <Option name="UpdateLimit" modified="No">10</Option>
    <Option name="CalculateErrors" modified="No">False</Option>
  </Options>
  <Variables NVar="10">
    <Variable VarIndex="0" Expression="fside" Label="fside" Title="fside" Unit="" Internal="fside" Type="D" Min="-0.0456491" Max="2.91883"/>
    <Variable VarIndex="1" Expression="w1" Label="w1" Title="w1" Unit="" Internal="w1" Type="D" Min="0.0890173" Max="0.813268"/>
    <Variable VarIndex="2" Expression="wtot" Label="wtot" Title="wtot" Unit="" Internal="wtot" Type="D" Min="0.191786" Max="19.6444"/>
    <Variable VarIndex="3" Expression="deltae" Label="deltae" Title="deltae" Unit="" Internal="deltae" Type="D" Min="-50.5964" Max="6573.97"/>
    <Variable VarIndex="4" Expression="eratio" Label="eratio" Title="eratio" Unit="" Internal="eratio" Type="D" Min="1.50728e-06" Max="1.00071"/>
    <Variable VarIndex="5" Expression="rphi" Label="rphi" Title="rphi" Unit="" Internal="rphi" Type="D" Min="0.422136" Max="0.994292"/>
    <Variable VarIndex="6" Expression="rhad" Label="rhad" Title="rhad" Unit="" Internal="rhad" Type="D" Min="-0.0380998" Max="0.0249821"/>
    <Variable VarIndex="7" Expression="reta" Label="reta" Title="reta" Unit="" Internal="reta" Type="D" Min="0.906065" Max="0.98945"/>
    <Variable VarIndex="8" Expression="weta2" Label="weta2" Title="weta2" Unit="" Internal="weta2" Type="D" Min="0.0065028" Max="0.0149967"/>
    <Variable VarIndex="9" Expression="f1" Label="f1" Title="f1" Unit="" Internal="f1" Type="D" Min="0.00251501" Max="0.467443"/>
  </Variables>
  <Spectators NSpec="4">
    <Spectator SpecIndex="0" Expression="pt" Label="pt" Title="P_{T} [GeV]" Unit="D" Internal="pt" Type="F" Min="40000.2" Max="49998.6"/>
    <Spectator SpecIndex="1" Expression="etas2" Label="etas2" Title="etas2" Unit="D" Internal="etas2" Type="F" Min="-1.80996" Max="1.80996"/>
    <Spectator SpecIndex="2" Expression="convFlag" Label="convFlag" Title="convFlag" Unit="i" Internal="convFlag" Type="F" Min="0" Max="10"/>
    <Spectator SpecIndex="3" Expression="tight" Label="tight" Title="Tight" Unit="i" Internal="tight" Type="F" Min="0" Max="1"/>
  </Spectators>
  <Transformations NTransformations="1">
    <Transform Name="Normalize" NVariables="10" NTargets="0">
      <Class ClassIndex="0">
        <Variables>
          <Variable VarIndex="0" Min="-4.5649066567420959e-02" Max="1.9388417005538940e+00"/>
          <Variable VarIndex="1" Min="8.9017309248447418e-02" Max="8.1273424625396729e-01"/>
          <Variable VarIndex="2" Min="4.7572147846221924e-01" Max="1.9644384384155273e+01"/>
          <Variable VarIndex="3" Min="3.7409000396728516e+00" Max="1.6097370605468750e+03"/>
          <Variable VarIndex="4" Min="7.3418213287368417e-04" Max="1.0007146596908569e+00"/>
          <Variable VarIndex="5" Min="7.9091387987136841e-01" Max="9.9429231882095337e-01"/>
          <Variable VarIndex="6" Min="-3.8099795579910278e-02" Max="2.4844001978635788e-02"/>
          <Variable VarIndex="7" Min="9.0631455183029175e-01" Max="9.7634601593017578e-01"/>
          <Variable VarIndex="8" Min="8.3578722551465034e-03" Max="1.4700900763273239e-02"/>
          <Variable VarIndex="9" Min="1.1873352341353893e-02" Max="4.6744292974472046e-01"/>
        </Variables>
        <Targets/>
      </Class>
      <Class ClassIndex="1">
        <Variables>
          <Variable VarIndex="0" Min="0.0000000000000000e+00" Max="2.9188253879547119e+00"/>
          <Variable VarIndex="1" Min="1.4555557072162628e-01" Max="8.1326836347579956e-01"/>
          <Variable VarIndex="2" Min="1.9178640842437744e-01" Max="1.7096481323242188e+01"/>
          <Variable VarIndex="3" Min="-5.0596382141113281e+01" Max="6.5739716796875000e+03"/>
          <Variable VarIndex="4" Min="1.5072843098096200e-06" Max="1.0000000000000000e+00"/>
          <Variable VarIndex="5" Min="4.2213603854179382e-01" Max="9.9067360162734985e-01"/>
          <Variable VarIndex="6" Min="-2.7470754459500313e-02" Max="2.4982120841741562e-02"/>
          <Variable VarIndex="7" Min="9.0606468915939331e-01" Max="9.8945033550262451e-01"/>
          <Variable VarIndex="8" Min="6.5028034150600433e-03" Max="1.4996671117842197e-02"/>
          <Variable VarIndex="9" Min="2.5150093715637922e-03" Max="4.6064192056655884e-01"/>
        </Variables>
        <Targets/>
      </Class>
      <Class ClassIndex="2">
        <Variables>
          <Variable VarIndex="0" Min="-4.5649066567420959e-02" Max="2.9188253879547119e+00"/>
          <Variable VarIndex="1" Min="8.9017309248447418e-02" Max="8.1326836347579956e-01"/>
          <Variable VarIndex="2" Min="1.9178640842437744e-01" Max="1.9644384384155273e+01"/>
          <Variable VarIndex="3" Min="-5.0596382141113281e+01" Max="6.5739716796875000e+03"/>
          <Variable VarIndex="4" Min="1.5072843098096200e-06" Max="1.0007146596908569e+00"/>
          <Variable VarIndex="5" Min="4.2213603854179382e-01" Max="9.9429231882095337e-01"/>
          <Variable VarIndex="6" Min="-3.8099795579910278e-02" Max="2.4982120841741562e-02"/>
          <Variable VarIndex="7" Min="9.0606468915939331e-01" Max="9.8945033550262451e-01"/>
          <Variable VarIndex="8" Min="6.5028034150600433e-03" Max="1.4996671117842197e-02"/>
          <Variable VarIndex="9" Min="2.5150093715637922e-03" Max="4.6744292974472046e-01"/>
        </Variables>
        <Targets/>
      </Class>
    </Transform>
  </Transformations>
  <MVAPdfs/>
  <Weights>
    <Layout NLayers="3">
      <Layer Index="0" NNeurons="11">
        <Neuron NSynapses="13">
          -8.2722283579145151e-01 2.0761712753517654e+00 -4.9438198797942701e-02 2.4213125978547536e+00 -2.8304214666722567e+00 1.0739058446071268e+00 -1.4649650291392264e+00 2.0296595410367035e+00 -2.6284932618379639e+00 -1.7462106161299009e+00 -1.0623096827539800e+00 -4.4755544969647065e-01 -1.2307021809344296e+00 
        </Neuron>
        <Neuron NSynapses="13">
          4.4557572119459260e-01 -6.4892020552599483e-01 -1.2415376757768826e-01 -9.6737765071186543e-01 1.9149289023477278e+00 2.6556786942479365e+00 1.3116083626914508e+00 -4.6075641539233947e-01 1.2879799476900267e+00 3.2664935683385488e+00 7.1368721604264052e-01 -1.1653667359686337e+00 -1.3176878577975812e+00 
        </Neuron>
        <Neuron NSynapses="13">
          7.3439743242231548e-01 -8.3910289107993474e-01 -3.8358276952094541e+00 5.3250473507034650e-02 5.4312391941833391e-02 6.7971264923400643e-01 -7.1800942514513011e-01 -1.5431581290389015e-01 3.2459582745581383e-01 -6.9350766610527415e-01 -1.0376362509377381e+00 1.7277509338762544e+00 -3.5127533287641882e-01 
        </Neuron>
        <Neuron NSynapses="13">
          7.4416616010628878e-02 8.3110944513163854e-01 5.5329065178866366e-01 1.8083353297314559e+00 8.3887234305921454e-01 -2.5129127568404597e+00 -1.0088816622185621e+00 5.8374371992262364e-01 -3.5600311933899070e-01 1.5825802645713862e+00 1.5576063867750249e+00 1.5756547968965966e+00 1.7866833530855253e+00 
        </Neuron>
        <Neuron NSynapses="13">
          -1.4553156118484107e+00 1.7863235156364130e+00 -2.4462787903869141e+00 -6.4562659526579191e-01 -1.7753340310379839e+00 -3.1102995044677941e+00 1.5364496702337247e+00 1.6616143719517342e+00 -1.6281949298998435e+00 -8.9634653926496233e-01 6.1242951773414800e-01 6.8092495559080457e-01 4.5660697683084903e+00 
        </Neuron>
        <Neuron NSynapses="13">
          -4.8881830257263600e-02 8.5592184281590988e-01 -2.7735193414099895e+00 3.7383674537741390e-01 -3.1484722721802973e+00 -5.3224112975808415e+00 -1.0030955710735052e+00 1.4489792036245666e+00 -7.4119090595597992e-01 -9.4600207393015501e-01 7.8736425327532486e-02 -1.8806813764308257e+00 4.8110695545909848e-01 
        </Neuron>
        <Neuron NSynapses="13">
          5.2479378561046530e-01 -7.8028363634867148e-02 3.3429679389472433e-01 3.2168154026848089e-01 1.0503148706422829e+00 2.9893149832036725e-01 -8.0382514908913860e-01 8.9804127191988325e-02 2.3178161808593201e+00 -3.0608143694979412e-01 7.0478320633247330e-04 -1.6980730052912103e+00 -4.4905836439363300e-01 
        </Neuron>
        <Neuron NSynapses="13">
          -6.4211224524803623e-01 4.0120777273383377e+00 -4.5843710859630338e-01 -1.7554814556092715e-01 -4.2025829641975787e-01 -1.3961473226797794e+00 -1.3952590799440459e+00 -4.3366344953500703e-02 -3.3499535423818400e-01 -9.2662411089694852e-01 -1.2451411388004108e+00 7.1106291050040071e-01 1.6912257649291917e+00 
        </Neuron>
        <Neuron NSynapses="13">
          -8.4885208407163337e-01 6.8522610173362586e-01 -5.2497766920275968e-01 -8.5383786496385061e-01 -1.0720333563780026e-02 1.7377700065021437e+00 -8.8424207734121274e-01 2.9773067275996712e-01 1.2591499783815114e+00 1.5635324108367770e+00 9.9180302754258387e-01 1.8498649897823380e+00 -1.1117873087131878e+00 
        </Neuron>
        <Neuron NSynapses="13">
          -8.0966159647754790e-02 7.5854050093560588e-01 -2.0185204109629660e+00 -1.2885942866570350e+00 -1.3723493491122836e+00 -4.3692082464728965e-01 2.2865032241153953e+00 2.6474536250218794e-01 -7.3677498267438335e-01 -1.9441956699081600e+00 2.2015579177518214e+00 -1.7967904738542382e+00 1.6392974961599944e+00 
        </Neuron>
        <Neuron NSynapses="13">
          1.0825306377024710e+00 -1.4588915064169019e+00 3.6063892680034142e+00 -1.8061804870420994e+00 2.0251555151400460e+00 5.5542563892660333e+00 2.4154227828838009e+00 -1.8059580662710779e+00 4.4256004201186049e-02 1.2706494771945123e+00 2.5322153940322032e+00 2.0615377529039444e-01 -4.1168414962655477e+00 
        </Neuron>
      </Layer>
      <Layer Index="1" NNeurons="14">
        <Neuron NSynapses="1">
          -1.3556356876528248e-02 
        </Neuron>
        <Neuron NSynapses="1">
          -2.9042934233326223e-01 
        </Neuron>
        <Neuron NSynapses="1">
          -6.0311682908264597e-01 
        </Neuron>
        <Neuron NSynapses="1">
          1.3435891821104626e+00 
        </Neuron>
        <Neuron NSynapses="1">
          -3.1906097473126799e-01 
        </Neuron>
        <Neuron NSynapses="1">
          -5.1530964828569537e-01 
        </Neuron>
        <Neuron NSynapses="1">
          4.4359889960538496e-01 
        </Neuron>
        <Neuron NSynapses="1">
          -9.4916571836298436e-01 
        </Neuron>
        <Neuron NSynapses="1">
          4.4113150355084807e-01 
        </Neuron>
        <Neuron NSynapses="1">
          6.1601363187227598e-01 
        </Neuron>
        <Neuron NSynapses="1">
          -6.2695641737358643e-01 
        </Neuron>
        <Neuron NSynapses="1">
          2.7587273709034360e-04 
        </Neuron>
        <Neuron NSynapses="1">
          3.1113077133557415e-01 
        </Neuron>
        <Neuron NSynapses="1">
          1.0034418303288475e+00 
        </Neuron>
      </Layer>
      <Layer Index="2" NNeurons="1">
        <Neuron NSynapses="0"/>
      </Layer>
    </Layout>
  </Weights>
</MethodSetup>
